solver_type L2R_L2LOSS_SVR
nr_class 2
nr_feature 1984
bias -1
w
0.1979152639238198 
-26.62934503589519 
2.278541805494645 
9.47266156351975 
2.500368117906029 
7.343779793367583 
0.4230428125313501 
4.501396403019643 
3.796131463238005 
-0.2779866893539062 
-1.151153437047528 
-1.352319158198484 
-0.6525351676389957 
-0.1215541997078121 
-0.4638080557074466 
0.6646922954986723 
0.9025245284412358 
2.688708026632758 
0.2803641501666504 
-0.1839367363693689 
-0.2212448596572829 
2.262953286391041 
-2.562200631038902 
-0.9753926342406121 
-0.4111452912347277 
-0.9025090949983839 
0.9224362868617847 
-1.144783867349838 
-2.543199557772876 
-0.2446867595187764 
0.6083035489589966 
1.093286456658724 
0.1534800019407855 
0.2091017666146026 
4.520396573437418 
0.7888964657275348 
2.492030038340364 
2.026227887384377 
0.9796126886629826 
-0.07983484136730652 
-0.08359027499197495 
0.380735070198456 
-0.2630354218761309 
-0.3368121159262877 
-0.5160173155613655 
0.4181775426726306 
-0.1916746394394737 
2.312935407578101 
-0.5792506209931942 
-1.051968529819645 
-1.744194757549559 
1.531278051805359 
1.052237648368173 
-3.762835958914794 
1.532379692064672 
1.775559875618834 
-0.05208401728161113 
-0.06911846833637846 
-0.3554239033969274 
0.1497430169474666 
-1.54896182344255 
2.136786662246096 
0.6622566210733527 
0.4784412026268027 
2.036356057619962 
-2.870197514199545 
-0.603819178668886 
1.334205043751927 
1.154751334341994 
3.09558093742537 
2.822694071483302 
5.238626205530711 
-1.428350238595792 
-3.37027885544536 
0.392319956898758 
0.6996453412457944 
0.1251366298229434 
0.05323830233329101 
-0.7471766690579256 
0.0868563734570303 
0.05103918736848388 
0.3119552461823762 
-2.279093166563593 
-1.157262562293544 
-1.007106775416464 
0.3259693432556584 
0.4055993700445322 
4.961219620923792 
2.873007485992241 
-2.660287754345001 
2.096668559245568 
-3.367891111667746 
0.4607663912406725 
-2.223033717240284 
-2.3401215751988 
2.023244218312536 
-1.508571615940257 
0.5713161742545337 
0.4866410624373953 
1.533151340055362 
1.31350349758673 
0.2263818895612629 
2.675434559849586 
0.1243069617099947 
2.385852304897163 
-2.372221491778796 
-0.4057209525197886 
1.740730329465816 
-1.856791642381097 
-0.8582790858026881 
-2.689797752984644 
0.8281807740196799 
2.843092499920764 
-0.2233544983778586 
-1.83076922796301 
1.351017805653185 
1.828350561893159 
0.3871404298624905 
-1.434751440377904 
0.1948249873815243 
-0.262405402131243 
0.5090248106014182 
0.8932639338870902 
2.081179903627604 
-2.061430026578081 
0.3608053673945555 
1.365293642482841 
2.565997608688498 
1.56985035939917 
-1.350762306766703 
0.03512573924657262 
-1.487719337965309 
2.13349910451357 
0.06577456376497837 
1.519946527314682 
-1.002916837833443 
-1.495214239241314 
-1.07356106110011 
-1.073135564422983 
-0.9515619328519737 
-0.5490667823981434 
1.790676543808512 
-2.394268685736857 
1.461480446999782 
1.527573067317014 
-2.137181144253187 
-2.471056911369689 
1.660150334709615 
1.305233514012947 
-0.2061638170816237 
2.772820070028076 
2.848482459879341 
-0.5210211191636569 
0.472189610975717 
1.291198407782458 
1.667725392010422 
0.3963159782907044 
0.5847686190975532 
1.528953628849463 
-2.577256187698022 
1.161858589090188 
-0.9184606403878556 
-1.363132863962164 
-1.865328223114789 
-0.8481890871608855 
2.124295028258967 
-2.35041738787627 
-1.475773969731573 
0.4411269134501237 
3.408192526195523 
-1.17321105844665 
-1.539774454962807 
3.116075400009445 
-0.8359799806362055 
4.264310274938928 
1.575997981415146 
0.4542810091945498 
-0.508363627465876 
-3.28322337490895 
1.229817034840185 
1.045779318041798 
1.019431625532039 
0.8224082022678185 
0.7822013912891435 
0.03994144176321063 
-2.381982832481086 
-1.832827657726562 
-1.972787510189314 
-0.8444723476436244 
2.589419389968311 
0.09280648309446893 
-1.036194395840144 
0.2000515129249227 
0.8329276315448114 
-0.7423299119216681 
0.7667321678163228 
1.715211893640553 
1.212082073531912 
1.027220950437138 
-1.763141389230972 
-0.6227481789017096 
-1.9322078725909 
1.245855227514982 
-0.2478603008999946 
-0.7507541439740526 
2.827020551010838 
0.7422693744186798 
-3.119762891852518 
-1.280946960219959 
0.7128541047261934 
1.042552600958597 
-0.01808731915200776 
-0.6871747637877657 
0.532395869332179 
0.6239674712363062 
1.510174611118638 
2.05639621504799 
-1.295936618497785 
-1.126637599225573 
1.788664674578397 
-0.2418100261841587 
-3.88887294672495 
-1.093888552094031 
1.154732289809834 
1.931335952960056 
1.82138605282479 
-0.9287443608705975 
-1.372475956618861 
-1.10165941184723 
2.363659076779254 
-0.005056999098650482 
-0.4386062211680603 
-0.7791725004129253 
0.8483062348538249 
-0.1408202561479339 
0.4728218197139322 
-0.4041242793883971 
1.527126100218417 
-0.08646516133351662 
-1.177296941678924 
-4.814644021226615 
-2.125381187768113 
-0.5686550727011509 
-0.7866634186921011 
4.058570782075861 
-0.7667600346679145 
-1.486714847483494 
0.9068531063612284 
1.136552201446307 
0.5100557907140997 
-0.5498922914786807 
2.95270353459639 
2.074917437144228 
1.209744992263999 
1.684516010230947 
0.9024335134866797 
2.030752367290767 
-1.317457649922952 
3.46482979489235 
-1.458547832429385 
-0.7149447232318299 
0.0412895275985541 
1.524014110431917 
0.9296208486356756 
-0.8634867326643828 
0.07237175221071811 
0.249741069177076 
0.1969703913564369 
-0.9794342591686688 
-1.355860672241163 
-2.181703758794883 
-2.288260832107718 
0.2049372128394544 
1.139841608531984 
1.958679379952569 
1.604777655415497 
-2.54535273702156 
0.6340800591572752 
-3.359382268966521 
-1.585074507095128 
0.4498115833059234 
-0.5872715327563294 
0.8106162344325236 
-1.094470168942525 
3.663823387540973 
4.732474426512604 
-0.5199604252577293 
0.944705678186808 
1.737038559221805 
0.2173392815639788 
1.597875727942462 
0.4887136899926517 
-2.001878066009196 
-1.026684451032259 
-0.8605456244990268 
-1.271487592537156 
2.25822120904408 
0.9555590812727111 
-2.979975210509842 
-0.5313028280370456 
-1.293339689946289 
0.4239845509529898 
-1.102826285047726 
0.9131468294137431 
-0.05180747535702041 
-3.235210152743979 
0.8896354383208368 
-0.7044095097141216 
-0.09230132115757102 
1.756335394758577 
0.680703785903553 
-0.172178117966705 
1.624878846168 
2.183256543988925 
0.3430097126948106 
-0.9382118726783479 
-1.27192067304055 
0.07096594962550622 
-1.40141716763452 
-2.623995384524891 
1.426087722776095 
0.2436805206633029 
0.1890788591421241 
-0.4543459976561446 
-0.1869287615938651 
0.2759919125594427 
1.798648835415722 
-0.6322170719000076 
-1.180093738127489 
0.815872367194567 
1.76556597408555 
-0.5470053316041574 
-1.132506417418422 
-0.07441437190675891 
-0.6931577682299214 
1.386282483517934 
0.4914717092509942 
1.087941546398447 
-1.595460064975405 
-0.3475271737615432 
2.139501339070052 
-0.1937582921927019 
0.8774575121267919 
0.9010704148888917 
-0.1568253987545072 
0.1518286409656945 
0.2550488575025252 
-1.700590864991528 
1.722053966253375 
2.019933867785793 
-0.7708620443544157 
0.0100704220031193 
1.567938079125531 
-0.6230413750328352 
-0.724477027597148 
-3.145727888687037 
-0.2033005658896848 
-0.7668507347582063 
-4.141719828242893 
0.2618186550240266 
1.933444835950781 
0.9299572300870553 
3.572440082254396 
1.383611247408066 
0.8300113217162958 
1.190283030861331 
-2.004288345420504 
0.9454454086665841 
0.3483268585882955 
0.3935543238559807 
2.279082409152119 
-0.03812156507571106 
3.409901729328533 
-0.7369811330524 
1.83877195005764 
-2.693198304819073 
-1.353928315492096 
2.000508730827758 
-1.0906112566115 
-1.390121193932448 
-1.149143102069965 
2.273213800062179 
1.671625312706039 
-0.4060588614616045 
-2.812181464881139 
1.24631982833918 
1.4130320802334 
-0.2097785611732222 
-0.4870120881941235 
-0.8882247926358331 
-0.3378600752729995 
-0.8773465398995258 
1.665858522819723 
1.959936119266115 
1.953163249555419 
-0.6620942937063113 
0.5781826286638967 
1.098112988261605 
0.3697808151056732 
0.4059067982172452 
-0.3414989255879973 
1.66177310793191 
-1.526009686716806 
-1.460676145720868 
-0.2225227846957226 
-0.6411329719634974 
0.4237821024120602 
-2.027891210829803 
-2.063660114658544 
-1.740825938366846 
-1.204317789320183 
0.3041482942589274 
-1.588621404277486 
3.959579072369107 
-0.2617495738976692 
0.1663730874860423 
1.301054671585244 
1.097242488309721 
3.095267936586765 
0.1409897323154727 
0.5609563543721624 
1.608254189993626 
-0.6547774609366021 
-1.895797328525882 
-1.573565407937477 
1.278801130402016 
-0.296410183102989 
-0.220969622484076 
2.100434274946959 
1.48237785145364 
1.686383595609103 
1.409297587666069 
-0.199350474852748 
-0.07238553872491235 
-0.601824312055376 
0.489528126353707 
-0.8988939981873396 
-3.755617975910409 
0.9309613278179617 
-2.359753052448739 
1.334275025427604 
0.3966693777175466 
0.6587212743974966 
0.7986758636649348 
1.034562230676517 
0.02379659270819905 
-1.829430443220105 
0.317560757887349 
-0.363800723219675 
-2.729873116223808 
-2.37929490552535 
1.581738474302131 
0.3075430529080498 
1.4668087533562 
2.595936333541697 
-0.5591961424156721 
0.363544131555808 
0.9258957752580961 
1.440204205414165 
-3.746457656551407 
0.8271535001209385 
-0.1666814096085238 
0.5475964290882482 
3.000545973895541 
-0.4924568740529062 
-0.4806547717032885 
1.234624753191442 
2.037993027293897 
-1.086031860568547 
-0.710940440555159 
-1.747306786413347 
0.270407363407527 
-0.05217038684404763 
-1.153297016573381 
2.561606634850851 
1.01589224876368 
-0.07388210666368392 
0.7504045894263385 
-2.675112632759838 
-1.068925426304783 
0.2598915666991093 
-0.640214539498513 
0.6036885805478855 
0.6807176036480688 
-0.226426902038787 
-0.2473072968279086 
-1.096594944066789 
-1.375818624791704 
-1.57091125471155 
-1.528974202043386 
2.059680874781854 
1.91151268626595 
0.297404299759065 
0.04917635509145005 
1.175141565815649 
-1.259998707303512 
2.737461789919288 
-1.922952258016092 
0.3230948000318623 
-0.6228375836474009 
-0.9865612938623715 
1.767069353795239 
0.1615118267183086 
0.2062367678539645 
1.395574243092448 
-0.4557912899811308 
-1.978040428487613 
0.4359578452126623 
0.1826287336948818 
-2.287347262505611 
-0.280993557956734 
2.627793783622188 
-0.4492253376515067 
3.875621845694491 
1.835059031053532 
-1.929338540150176 
1.758555952627732 
-0.6311976686658741 
0.9001681509216897 
0.6351125970773466 
0.09913564341892334 
0.5085019887047538 
-1.842456779033673 
-1.631696779615099 
-0.9525640632509357 
0.7769888728233157 
1.168916492911123 
2.141104264990493 
2.658722546318805 
-1.993050017389385 
-0.9779248094489192 
5.011771738471675 
1.945452865442599 
-0.4123714171299603 
0.7356823071633197 
-0.5647929390854073 
-1.247721032121052 
-2.456361798950212 
-2.628430303293132 
-1.243587909951166 
-1.831955960230331 
-0.169854864756544 
0.1937560031050592 
1.218737458125434 
-1.232556778370921 
3.627678173160419 
1.052940853374714 
0.4263179701652653 
0.2777150527767087 
-0.7322891245791656 
0.2759974640574382 
1.070985024645207 
0.2795462591387251 
1.152347166112141 
0.05405100960192997 
-1.117438840777854 
-0.2191082824278108 
-2.699904646226988 
2.992410437947812 
0.7653396605429856 
-0.7997905861103857 
-0.5679364768730152 
-0.7118993217814403 
1.884122403377179 
0.5657289239169299 
2.013556481488677 
-3.949577353558837 
1.336332016132507 
0.06317703057096098 
-2.70524006225776 
1.317235750901356 
0.2699143568221824 
0.9489089676254626 
2.748335778015018 
-0.5213723379924202 
3.348865274706282 
-1.88299158320748 
-2.485218840547321 
-2.211144265336879 
-2.733636247824464 
3.484144609648379 
3.03660643224369 
0.2539979696601338 
-0.05974240587930167 
2.759270555284191 
-2.175919488184523 
-1.486400833542054 
-1.978558376077227 
-2.02715508496859 
-0.3079723027153933 
-2.05545224303948 
-0.04151216542342103 
2.346890743060693 
0.06789064093338808 
-0.6645576639460054 
-0.7993940590542933 
2.994596939731996 
1.076657963547186 
3.296633289246253 
0.5632553881210914 
-1.086168177169856 
1.120739087083784 
-0.3314456268575061 
0.3596659878307907 
-0.797308340273497 
-1.110864395216364 
-1.660177862909399 
-0.6194752034920206 
0.4423090022912901 
-0.4195602884313703 
0.5376852475195518 
2.796712258861474 
0.373436135470856 
-0.8688179109235702 
1.62346584425766 
-0.4987452239587652 
4.045613683916344 
1.20229410181569 
0.09080465079105161 
-2.744142300819099 
0.6101759419182026 
1.545027924325468 
0.1622901881065505 
0.5048682627266936 
-0.4632958110779341 
2.806176017855296 
2.527212313991806 
1.55450753609691 
-2.689451170551058 
-3.307281282450186 
-0.02361876856063803 
-0.5305079291637059 
0.07811121271449666 
2.466602158000464 
-0.8497418433392198 
0.4582507184406545 
-0.6514060678104689 
-0.5093483242434527 
-1.585506998822198 
1.076044444775928 
1.207026828472312 
1.709325594383564 
-0.6363766179764193 
2.537558467903001 
1.409087587182108 
-0.5306074812149275 
2.420018492947438 
-2.351767649569902 
0.04832811464715467 
2.066403767225408 
1.056126635143987 
0.3869422065262702 
-0.202894826412507 
2.376391263378659 
-2.018152425347461 
-1.436338669774842 
1.670810314190554 
-0.7025576040725511 
-0.9778042103087191 
-3.086672248205714 
1.343200394162677 
0.3004121406556076 
0.9940739314076529 
-1.609880925873902 
0.6635767125874705 
1.667378428577561 
1.098216218749861 
0.2622471073009469 
-0.9937694421230914 
3.678942588415865 
2.144114271642278 
-0.3501262335201667 
-0.3924273582028124 
-3.292732178257875 
0.9020650774036809 
0.1467511796488153 
-3.324952843284514 
3.113392852208843 
-0.6014269567019097 
-1.70908386520782 
0.07394859303154629 
-0.9317972398894512 
1.580674158151446 
1.645271535235041 
-0.5399960637219177 
-0.3001982717332957 
1.477576135991594 
-0.7270656806553314 
1.415556109281658 
-0.02047037296726745 
-3.219600936457995 
-0.00814949551485868 
2.328149539073038 
-0.9280704748034367 
0.7431155667903517 
-1.90960278269706 
0.2561795500848748 
0.802201771609852 
1.817310617038859 
2.332680517454561 
0.61817806551911 
-2.40313239001247 
-1.232153765247026 
1.342844558499142 
-1.012612923861906 
0.8304633285296563 
-0.6159372641276937 
3.762203782765096 
1.335910084345344 
2.645645311809457 
2.054466246497247 
-2.914965841709202 
-0.2453147452506856 
-1.670847804787741 
0.2186468639827971 
-4.532454995247147 
1.261627322217894 
0.6428393425023311 
-1.278429959738944 
2.60540379679748 
1.643318306291674 
0.1204452523472847 
0.28021216603426 
0.9609619489680133 
0.5543187465348705 
0.6565460131352758 
-0.3139640206986527 
0.8115587607032831 
-2.919594024831747 
0.2195022154775762 
-0.9747282934953213 
-0.3581958272789904 
1.967894881070834 
-1.042675011625334 
1.240610687512689 
0.5946939939213018 
0.7755597998090348 
0.5921159370157562 
1.108266071049935 
-0.4544546976858955 
-1.253655108432611 
0.5219651302363159 
-0.400169238554458 
0.8461687057084075 
-0.6885373436410368 
-0.4158136308604639 
1.023974129309457 
-1.091149428854209 
0.3436340408181002 
-0.05633492937318102 
-1.539406905771398 
2.327419605893092 
2.394077622211229 
-0.331054229705256 
-0.4203121479251089 
-1.922856894621447 
-1.027377711239967 
-1.422187198253873 
-0.252022365331973 
1.006019565617969 
0.01507349122893538 
-1.767188202599393 
-2.663370929729516 
-1.394700616879383 
1.344118261662846 
1.02769203962411 
-0.6751406217281404 
0.2326531545495486 
-0.5928787409431133 
-0.182162481006287 
1.004586783293159 
0.3662858460049885 
0.5126123381062719 
1.692179767506799 
-2.727905561135112 
-3.018343803321639 
2.711253631142791 
1.133950136715864 
0.1205345858108326 
1.543489691086663 
2.509681842519259 
-1.756505706883745 
1.682015903750131 
-1.10974970486447 
-1.122990259580884 
2.401772056541561 
-0.9447216290266665 
0.1400596551829995 
0.9563487908203698 
0.9564259524211002 
0.8308018076282608 
0.2581027971984352 
-2.285275353786866 
0.43940010259009 
-0.6670086831948446 
-0.8632752163508634 
0.8689743849370521 
-0.7817662440896446 
1.871822802794872 
-2.983759932918999 
-2.9853475991839 
-2.739438074403648 
-0.3561462291182418 
-0.246673371832446 
-1.385115566694947 
2.728361828503818 
2.417771079303949 
-2.322900935027346 
-1.604649508037207 
1.80182267063536 
1.693217609036111 
-0.8885498981691384 
3.182346363074428 
-3.176944962501413 
-1.221522538154221 
2.130751765339671 
-0.1483670105392736 
-0.02085572578264503 
-1.183528690045297 
2.639681691765497 
0.6828740068939815 
-0.07099622485858667 
2.116528931151643 
-0.9529916948905364 
0.8865366315199054 
1.782264177442487 
-1.020504854377075 
0.1003625705922056 
-0.3170147987373051 
-1.641056930207329 
4.067053199788085 
1.913109796147027 
-0.5465740408727376 
-1.483052146946636 
-1.445867441053253 
0.04929200550087094 
1.219403843832635 
-1.514606300461344 
-0.6171394404958747 
-2.213189552745555 
1.198475732008094 
1.637416041849682 
0.7289180803122977 
1.479237654421838 
-1.039426132790894 
-1.325759150766844 
0.1377494343570069 
1.633974345134321 
-0.7011152381892723 
0.07570449859103112 
-0.8946751352387401 
2.101488694954711 
1.002738156492017 
-2.047324504925217 
-1.558994301728016 
-1.175297275183724 
1.331454020561373 
-2.819085877749571 
0.346520318536111 
-0.2833287835619596 
0.01386745728705996 
5.286097258300426 
0.541430010365605 
4.174392001553242 
-0.9873020981831572 
2.420049998732352 
1.050328964342113 
-2.315845060499522 
-0.7890653401828607 
1.563341569523639 
3.236027378408798 
-0.2455437972750787 
-0.5992739340897644 
-0.2387008828200016 
-2.44141226368349 
-0.2954331220355187 
1.736188133023124 
-1.4704863160355 
1.547401247222742 
-0.550234753004374 
1.143514141128879 
0.08751965216155504 
-2.206488532465662 
3.104672779904696 
2.349349907210902 
-3.06734285091653 
0.4843538337641937 
-3.266523706250862 
-3.002172305309101 
1.989687282373494 
0.7776751802143391 
3.948922308098971 
-2.051610552849465 
-1.144658976178031 
0.4807593976602093 
1.083455417898598 
-0.02333843461022424 
2.378923764024019 
-0.5990337805238395 
0.7075446504274792 
-0.2574906222851038 
-0.2124181042081545 
1.303788033199965 
-0.05041186433221987 
0.5666255286114031 
1.07457683116267 
-1.403813195494343 
-2.614884058881163 
-1.261420497714185 
-1.19116107640364 
0.7665224102669587 
1.997240934162294 
-0.3223530728555524 
2.01716338562778 
-2.573119389972496 
-0.7076559798502216 
0.1579123159696694 
1.886384937832221 
-2.14872089652945 
-0.9280428595384433 
-0.618450090968484 
-2.435534207738126 
2.531352526802393 
-0.01356810973057612 
-1.268062541830822 
-0.1661797085874178 
0.6600821215057286 
0.367780681686857 
-0.1062841795072203 
1.423272953394901 
2.104617168027705 
1.337148095242969 
0.4582470478233452 
-2.28483808406805 
3.381325720837856 
-0.7561776509339745 
-0.1104223418907711 
-0.8350919330539199 
1.102955413091318 
0.9257590524018138 
-1.454412674133388 
-1.455191559126909 
-1.913283040232376 
-0.6332079957001545 
2.127774191739844 
-0.6314998426614326 
-2.028713025199756 
0.09870141552317217 
2.412844170937347 
1.311647211964793 
-2.439740572593146 
4.240569841396856 
1.118939982575062 
-1.129116886643837 
1.150905805820881 
-1.426184587436086 
-0.1902092002041309 
3.642705217499212 
1.359101056554899 
-0.8547198766455983 
0.7229856567217483 
-1.125286210561107 
-0.2967541039133868 
-1.671079772791937 
0.8548365369067696 
-1.040435342237024 
1.075612368941262 
1.46140115076119 
0.9904259884412807 
3.740817809838709 
-2.163584183820899 
3.555433402710171 
-2.135949176060982 
-2.120069640156732 
0.4815291843438556 
0.4506566404464797 
2.084465270546662 
-0.1758413239756736 
-0.9057430866977908 
0.3059611485216484 
-2.863627544319296 
-0.5578495556664421 
1.1098135220228 
2.094820055786986 
-2.515786519232302 
-1.595432034210845 
0.02109930818362419 
-0.5173647431173843 
0.1979345654774055 
-0.848231138345734 
-0.5956088019438497 
-2.514741760409074 
1.277220593071841 
-0.6455123344199645 
-2.137265680085217 
1.571929358863999 
1.901708315203446 
-0.3831085463347121 
0.2403442108577566 
3.918779611894807 
0.9654629690265125 
0.6761492383439247 
1.427930265301379 
-2.555728574056157 
1.307148789787612 
1.918822403435484 
-1.548014372118026 
-0.973420167499935 
0.3197841325880129 
-1.203415912796269 
2.079747295881929 
4.046093502553688 
-1.427977827615799 
-2.03674590012434 
1.135490887419383 
-1.552721819604287 
-2.692726440138257 
0.02452260293658863 
1.689737426345927 
0.7118717729765969 
3.443998905346079 
0.988669947309797 
0.3958703428777839 
-1.956842760786138 
-1.328906645550868 
3.917792028389063 
-1.307065271578385 
1.629567521955618 
-0.2595303498028575 
-0.9641272476480609 
-1.142245815345755 
-1.261712594136436 
0.973856254850305 
-2.528309768272988 
-0.1451313131119326 
-0.6371370903323166 
2.919440710805403 
1.291195402889395 
-1.108139317010513 
-0.9086714749144847 
2.055343451283525 
-0.2150884574074961 
-0.7304226976418873 
1.782692623582769 
-1.954550701575641 
-0.9661178568815587 
0.04004374135048575 
1.166907158322354 
1.484519404164802 
-1.901396649598458 
-1.651918803181525 
0.9182661375317633 
2.24538576731221 
-1.796767802201373 
0.2826332006413024 
-1.507112083558085 
-0.8150486981876341 
0.07192707664689184 
3.537312059571144 
3.622840907548404 
0.8213376698049586 
3.750374546127106 
1.530962153885606 
0.1484728839370233 
-1.16384900042678 
-0.7405919203398136 
-2.117336409103319 
0.4682377357698546 
0.3655093539560081 
1.130679301259512 
-0.8287422943698731 
-1.943460376386686 
-0.9400038458036309 
-1.202987991587582 
-0.4993532707651817 
-0.4918711086689482 
1.07105849287768 
2.846521821520957 
0.4709146323642566 
0.8054929999965503 
-1.026651377021921 
2.193835683310223 
0.4214432476321643 
-3.164665490329364 
-1.765315413883691 
3.277980231722416 
-0.9278190331907493 
0.4514643255224528 
0.02164435237030158 
0.1243608877666931 
-0.3712884707133745 
-2.162683239297966 
1.332879025453978 
-3.487527310975736 
-0.298646739774896 
-0.2747458330219896 
-0.7797385408015923 
2.846071564379662 
-1.100744845419897 
-0.08752293054107635 
1.848317171113059 
0.3571804382375326 
0.68606448068407 
-0.01393980208118338 
-3.731457236455796 
0.5688216171555304 
0.4051371222923327 
0.1495763756329258 
4.161439417227704 
0.04262598434902429 
-1.295151946913921 
-2.432617613138937 
0.3096371647497442 
1.378275148451305 
0.0402342977344954 
0.4726786411790652 
-1.126039466489224 
-0.8078474057873062 
-0.7833561828975768 
-0.03227668714547061 
-1.438514169470716 
-2.150824404617412 
0.575559347825238 
1.581911151018959 
1.431369571552193 
-1.426662742631015 
1.633812182228242 
0.7942650211959958 
3.38533999495493 
0.05145778903355717 
-0.9067344363984829 
0.8014082017115074 
0.7543733598119744 
0.2118800691172378 
-3.385025837280551 
0.5835687623497986 
2.989297708935645 
1.657622958436645 
-0.9402165476863659 
-1.658174910841923 
-1.607248333872148 
-0.577628658926591 
0.3270558855218731 
-0.5009443766029774 
-0.4801293708910903 
0.9436304336317477 
-0.1786558541588666 
-1.313521655961399 
1.220847149029938 
-0.1896946608595038 
-1.503626775245175 
-1.06438717429664 
0.8936902117758793 
2.025568797750999 
-1.027715966252031 
-2.301119827612893 
2.801691900397122 
-1.279814378538685 
1.217782626018502 
0.6163010075542213 
-1.219658422597596 
3.860652852112678 
2.42246770016532 
2.186171562115662 
-0.5901964332669011 
-2.317207497254313 
2.23996317139049 
0.5488499912437155 
-2.26615555298374 
1.374051695152935 
0.3858629545812972 
1.027967170921853 
0.2032819702266695 
0.6888829093062656 
1.216044481471066 
-0.1568022072702831 
0.2295666971723787 
-0.5239950501434834 
3.201146591510743 
3.574775193012355 
0.2300854599553737 
-0.3270044752147119 
1.743148329710352 
1.297152345883666 
-0.1810862826440195 
-0.4367655854112326 
-0.3521061145351314 
-1.078558301593268 
-1.7413039544308 
2.396365678256777 
1.126915361370467 
1.266028543227368 
1.003963458620747 
-1.157392714976049 
-0.5906401368679763 
-0.01865839464916061 
0.1021737502521849 
-0.4469755953892535 
-2.827992016096974 
1.995005440790397 
2.619985637275601 
0.8103430698990801 
0.3839515053206336 
0.238706354263475 
-0.3326423755043595 
-3.523273572889491 
-0.7892179018123126 
1.482356712071876 
0.1496037994126701 
-3.239428563044298 
-0.2189969972764939 
-1.257860223370698 
-0.2313089602100518 
-2.056163263975775 
-0.6044864832708305 
2.699812222455868 
-1.293909902490777 
2.586944015192749 
-3.446109241714792 
-2.148816594368613 
0.1009115623326593 
2.602157809697933 
1.913061141549993 
-0.9300353728196198 
-2.161893629311626 
1.942242219534583 
5.700821100635652 
0.1421304973892945 
0.9427360441983331 
-0.2473276938019174 
0.3365967106905214 
0.5866296377888566 
-0.04530491229090969 
1.907933879681847 
-1.569669830321727 
-0.0838196376923362 
0.3656641417558388 
0.5885063730312339 
-0.3336902741288982 
1.055465468502938 
0.08941306847641813 
-0.5733421255449977 
-3.701588809121026 
-3.106971157497628 
-1.011715202922337 
-2.063387333123992 
2.29928533968136 
-0.4489022491293987 
-0.1807338122480802 
-3.051701403941022 
-1.602715957546504 
3.376752307032499 
1.556187562286345 
1.493182231084743 
1.530947886102993 
-1.041215358742099 
0.803054332401295 
1.176496474940308 
0.08999616479724402 
0.9741520633261328 
-0.981877580355802 
1.106184664515741 
2.7374780240419 
-2.384817669610527 
-0.8859277396813006 
2.830117766570752 
0.1847698065613743 
-2.069099544264195 
0.9976406732341183 
-1.901776070260154 
0.806829001177091 
0.166826976349771 
1.774344868743911 
-0.6643582632578863 
0.7355963446426842 
3.027522126376326 
-1.413256495255792 
-1.644994978785858 
-0.9555325549901873 
0.9705216237763623 
1.724312434053321 
1.075865908630166 
1.681871737457424 
1.366696932553423 
-4.753964471510763 
-1.030216337680208 
3.492557482860002 
0.1405526950361347 
0.5661847232961033 
-0.8902222553255638 
1.055264149784715 
-0.2216726827587755 
-1.437265833093602 
1.495331963682303 
-3.19370677662266 
0.08608798428375036 
-0.1114004794085173 
-0.3769981057379578 
1.994772873112605 
0.7111922189203619 
-2.989739116597483 
0.872310304297427 
-0.5531133766630834 
-2.203502330846136 
0.7018999970116039 
0.5777623842199716 
1.8744375829648 
-1.263899390558022 
-0.03978435512132421 
0.630757826029601 
-1.938051109376507 
1.047780434150067 
2.910246998334131 
0.7922490358003336 
0.9690341932640608 
-1.150477553659786 
-3.597694938064993 
1.837312755254536 
-2.09113360637186 
0.7263612615272111 
2.043930631281327 
-2.839583291308471 
1.568513400629392 
0.1109303148149926 
-0.9626320808187273 
-0.7421728120527036 
-0.7444305341922379 
0.06207597836800124 
0.8297518759232398 
-2.091514841946564 
2.103412978040117 
-1.928435730707245 
-1.582449734098809 
1.381949324945362 
1.664981593852295 
-1.466755013819591 
-1.131036150552573 
-0.404802575108572 
-2.356895839750375 
1.432117689256492 
-1.230598085228981 
1.378422337192594 
0.1089707900658012 
0.7176914044387965 
-0.08504027261300413 
1.727861708332236 
2.900331022408085 
0.07036052305908305 
0.1883172273365461 
0.8219569614042846 
-2.289376331958309 
-2.112794431317757 
-0.1636578884417311 
-2.255374500100396 
-0.8984717513824063 
2.13093961201517 
0.08765825113202085 
0.603580837538198 
3.328250340997787 
-1.912349241096677 
0.6685533893560683 
-0.008927193164735116 
0.6336561197647356 
1.48545929878974 
0.6046033880662265 
0.1714358248785186 
1.930947051035382 
1.70055675165379 
1.396190465753572 
2.434814941679397 
0.4069304256358516 
-0.4026044277482346 
-4.406836618824193 
-0.4209636953845454 
-1.843836617318225 
2.565655072580725 
1.483318881962826 
0.01482640407789616 
0.3347063493694762 
-0.2731021230383059 
2.291160371031127 
1.712426389477613 
1.318704220725276 
-1.962055026300872 
1.048748678783535 
-1.507831831180401 
-1.726632836368767 
-1.468743933212448 
0.06223929108135594 
1.697166420597506 
0.08642369392563121 
2.080260723169247 
-0.4865830169527686 
-1.834550989627947 
-0.3002734575043012 
1.019468957837411 
0.4682077257291369 
0.8626181110817901 
-0.157545350778342 
-1.001408239016332 
-0.3217868713879367 
-0.05492424170615818 
2.690206882662813 
1.552924615870316 
1.82818724370689 
-1.456704944640647 
-1.099406021178555 
-0.08964991655446088 
-0.9537257568415772 
-1.703321509039749 
-0.1514996793309841 
-2.626133710505082 
0.6781564215436114 
-1.831215372785099 
1.046608934794088 
-1.965442230295028 
0.7828656402577164 
1.82567096879543 
-0.4319923720841278 
0.2900433455551391 
-0.9533038939760285 
0.9918157881729611 
-0.293645582606267 
1.770471516970869 
-0.4140428594020106 
1.209788520206168 
-2.75191105305207 
-0.1026368148713142 
-2.166536605228991 
-2.135501321243055 
-0.6887144128132859 
0.2221125927584142 
-1.142502696758507 
-0.1849322057573341 
2.993767105410944 
-0.9265109185543082 
0.8764376060321938 
-1.570614993439595 
-1.18261596506923 
0.401138725290593 
0.3622958535128159 
1.861646239734265 
0.7200659933027845 
2.134214990810853 
-1.444336142527781 
1.715123453960835 
3.232797234459288 
-0.9781156866352226 
2.715916153839579 
-0.4613842261283993 
0.7754360003266219 
0.3925846826623574 
-0.1555867448200364 
-1.798882598070658 
0.1425639090017293 
0.1978816170212009 
2.317878486468561 
1.036200032518438 
0.6647890666269237 
-1.34415858554708 
-3.34764776331187 
0.2127334556763666 
-0.8325805236128796 
-0.06803805263770363 
1.27642980609388 
0.8236636619378803 
-1.327916290500526 
-0.7365141869634411 
-0.2191971800581675 
1.785369485879645 
-0.07718624274689066 
2.251519551025057 
1.593680654455152 
-2.323405802223914 
-2.423293300927916 
-1.779872962643863 
0.7357002860785985 
1.567161438804201 
2.033105696847305 
-1.682510991606407 
2.283887468674526 
2.691329009312877 
1.682418821752629 
1.929240606951982 
-1.939330101038769 
2.566315944354025 
2.22795588304774 
0.3453018206384325 
0.5223753393513062 
0.2764071417478399 
-1.217275912834259 
-1.716691760306971 
-0.9386423161008592 
-0.004682622333849599 
2.159442787543277 
1.035798543551948 
0.5808551894268307 
-0.0689195042120674 
-0.654002465732114 
-0.760394977816129 
-0.3097667589152626 
0.1087810271812902 
-1.747291800412987 
-1.060135616669421 
-1.938411243778392 
-0.3519089392489135 
-1.5552277711866 
-0.01851179331474534 
-0.5763202627940184 
0.06149601781761378 
0.5460933941593722 
1.058425384714867 
2.17435546303069 
2.300300202138315 
0.5579307933526875 
0.514252621811177 
1.519266374226909 
0.8907680018097763 
1.528062270998518 
-2.694085635631771 
-1.836122526612722 
2.499977730313787 
0.04787462351569002 
0.1939967810684967 
0.6923598865236323 
3.50146949437264 
-0.3961084997879777 
-1.956450644420218 
-1.208896869210007 
0.9864407955632705 
0.2772894740553427 
0.2992632938150694 
0.1976202475579983 
-2.382456270824922 
-1.401064593110308 
-0.8936845953987566 
2.955654762037678 
-1.014543290602449 
-2.754272986405531 
0.8402742541099539 
-0.8771317001936081 
-1.367440840018173 
-0.1489118558094887 
-0.7590823733406062 
0.8129579431971672 
0.09012908910013293 
2.991642688400571 
-3.250596461393236 
2.824854088678446 
2.60659465755753 
-0.2674708089675814 
-0.2498873658865592 
-1.651458664696442 
0.443427877352763 
-0.3849775283861133 
1.393089080938212 
0.01087323969843599 
1.096473612662978 
0.465666105622106 
2.280786767534005 
0.4972431619577696 
-0.08496097449424034 
1.339816262069038 
1.738307799856253 
1.348358845903429 
0.6086727505634725 
0.2351568422221403 
-0.7972567826725966 
-2.136233083597969 
-1.412219486620584 
0.1990726858938326 
-0.3554548602557298 
0.182994501482305 
-1.30944997634823 
0.006699434553452351 
1.050864863654449 
1.590989824148745 
2.258947655989967 
0.9763499412274739 
2.032229859964686 
-0.7486819150168611 
-0.8007112370921752 
-1.165044305374648 
0.09509706065338562 
1.802691023108974 
-1.028011500920559 
2.186879052090205 
0.2578870606316743 
0.7196876202420445 
0.8184940694637582 
1.190979924516801 
-0.6123218611243927 
-3.327645182274173 
-3.1642304706329 
-1.269697850897168 
1.55772214073367 
0.263215899198269 
3.062585373471749 
-0.5577160059059033 
-5.213058722735913 
0.5329287914903557 
-2.712406736037792 
-3.334746219221716 
3.101748661831798 
1.774477965271946 
3.117025862091187 
-0.4021343174001961 
0.294192093693686 
1.080280733468816 
-0.3016863350531236 
-1.387261974963204 
0.926480563972796 
2.983364121588507 
-2.395893050358654 
1.609845047539561 
-2.295287045116245 
-0.3717479837970624 
2.709364434405646 
1.732652156647233 
1.457639970217972 
1.391864042132988 
0.8873228583073979 
-0.6881999295020366 
3.592370574991155 
-0.232485923945927 
-1.747704061075131 
1.165930110888675 
-2.304771509134715 
0.3889953594248821 
0.1863961397677787 
-2.136478694022871 
-1.220843463421867 
-1.236436883183652 
2.073284141509918 
1.551369337058544 
0.1807332994902908 
1.086994364160889 
-0.925761743475856 
0.935534902876458 
-2.072407142375222 
-2.616999151506838 
0.5383341384863511 
-2.236515636881744 
3.038727605566318 
0.3974451885546811 
-0.4272731273161884 
1.02915114893243 
-0.8551095736478747 
-0.8702574240434018 
1.949542933565355 
-0.3382368222839224 
-1.462217164292679 
1.078480784523655 
-1.086260883248751 
-1.940428501709745 
0.334880111807757 
-1.553137467278329 
0.798875106031277 
1.862963493910779 
-0.7705868699750699 
1.875257201621974 
4.173605469884485 
0.6434136949903537 
-1.265469723556937 
2.591284983898057 
0.5443605218344756 
0.06667781833309057 
-1.069601175443296 
-3.192529475655562 
1.382819780717586 
0.9541692054747968 
2.81629265660937 
1.653336417223604 
0.7992267776841898 
-1.506378246142305 
-2.095646197115304 
-2.407509038954641 
-0.6031805175121185 
0.826225345441121 
-1.04167152903961 
1.09400727175238 
0.7558481021861232 
-1.061746028870115 
-1.577794604485374 
0.1273497644330493 
0.8121652352207762 
2.027476793288587 
0.5742738813646101 
1.693638603095375 
0.6722138899572243 
0.6960498955490459 
2.484505217376538 
0.9494997674778478 
1.64947401647522 
0.2084135087922069 
-2.577359659420673 
-2.631502897324615 
2.188713006939998 
0.9869255762253543 
3.854732965503949 
-0.3299980415629349 
-0.2617579094294007 
1.141088153938051 
-2.773840216412199 
-0.9843476712303305 
-1.764583568817655 
-0.4902360052955739 
-1.377477749992026 
-1.556848400521107 
2.28558748029464 
3.594594809947935 
1.961144362536363 
0.8294941735986064 
-1.161356420741061 
2.33945179330061 
0.809025101010211 
-0.5430161036603696 
-0.5329504868430925 
-2.31618182497333 
-0.607383429712179 
-0.4960670358189013 
-1.149739778946964 
-1.177904013423977 
-1.138399639409341 
-1.905142360654822 
-3.115806686546026 
1.423440041151246 
3.882428128200849 
2.871168930633054 
1.168308667838623 
0.1242703682835274 
1.101596910379037 
-0.2491260559575271 
-0.618537713945513 
0.3686493123586655 
0.4933654966403839 
-1.183427396980976 
-0.6742619430795139 
-1.120471905022976 
1.724298048986618 
-2.372951098440562 
-0.7575858909823181 
2.605449758616941 
-0.9113516743605331 
0.9843576831419603 
0.6201742261008545 
0.7821572776793331 
2.165768767419112 
2.27610624072717 
2.062718105597243 
0.4903991707785947 
-2.193557742334061 
-1.567661210055775 
0.9136498575706611 
2.609237507361647 
0.6068605966662243 
-0.287047015333143 
-2.228377569259544 
-0.1337910792689641 
0.1265733880771248 
-4.029673396179634 
0.02481298771939732 
-1.217913353519568 
0.3448355587332079 
-0.3938470815606313 
-0.4912705797183199 
-0.8143538831505517 
1.929760036589429 
2.14285527030835 
-0.8974485737214399 
0.266851199856263 
0.1271466331370424 
2.45885258041127 
-0.4480562239658215 
1.716512172674019 
-1.562424923269144 
1.621063676483333 
1.279359232178683 
-1.888283400900514 
2.41396877935943 
-0.4765244653469251 
-1.125515337954759 
-2.213551430944022 
0.1721952327471794 
2.699729643267541 
-2.210227897121261 
1.505795122052875 
0.8714689163129024 
-0.02849960994629058 
-1.856047234079045 
1.549796562736472 
1.198411364183885 
-1.875081754957645 
2.167047712210073 
2.646634083160222 
-0.1816776340990723 
-0.8810630123953608 
0.1516726980971683 
-1.013983111279301 
0.9754020669834295 
0.6794848551928563 
4.250109630989987 
0.9320067030088104 
0.3698790075311386 
-0.3270923956044506 
1.148171001714268 
2.517359392519856 
0.2653694712346524 
0.2882375140190654 
1.257541630364295 
0.1672013836896674 
-2.870462869279388 
-0.2986330132302934 
0.2746638012350675 
1.454877267917841 
0.9390416719214746 
0.6255151949129845 
-0.05305284664947092 
0.8160784974062453 
-1.541627697352052 
-1.020937174444306 
0.6925561633936184 
-4.167286637301431 
0.5683188607239178 
0.001449823707385982 
3.473834570624712 
-1.520838648367776 
0.07055942817899412 
1.428372201412832 
-0.6978398951282893 
0.4039348695771489 
-2.164000364247378 
0.06689503040677013 
0.09297935792903692 
0.1338717821918472 
0.2855990288190259 
-0.2755539717621856 
1.094977165580338 
0.9186446115751604 
0.328454376398806 
0.8624562334457275 
0.402883322144259 
1.521835195491196 
1.789411025855771 
0.3216434227208468 
-1.262558835346222 
0.3551143597217524 
1.10901572499394 
-2.190746685842135 
-1.273809790666056 
1.369094809622586 
-2.342582044117878 
1.915386424908951 
1.65131694091886 
2.621720753142657 
-0.3776920420149605 
-0.9558096263337881 
-1.171650969524265 
-0.564654047659601 
-0.8737708302755984 
0.5414118173535233 
0.6609202558965045 
0.05635251847285143 
0.4668817844039977 
0.6326263205970523 
0.3462681889058936 
1.690401702710906 
-0.2044264225764651 
-1.445253641444441 
1.177738841895368 
1.059126456616963 
0.6249901354795706 
-1.459135692130475 
0.2425260716626174 
-2.226517554404503 
0.5391363643937374 
0.5030052473849699 
0.7246731283184004 
0.5923699892556691 
0.005534482103530295 
0.3003672215565485 
1.012624503466863 
1.76755050468573 
-0.04409592223596345 
2.040704364278588 
2.648590641025662 
-1.061524862764917 
1.005684405476411 
1.641910945827819 
1.753868157357307 
-2.040460098059452 
-0.006325676093854983 
0.03536672282425458 
-2.600756995079798 
-1.708746732223085 
-1.668388013917212 
-1.116914504805834 
2.08273833543746 
0.4260897598677132 
-1.153763960095416 
2.786533152320213 
-1.760554292538392 
1.194111335220637 
0.3009065848386376 
-1.604225958082244 
2.955061744892312 
-1.537580994274568 
-2.500945635254991 
-0.7902453998653068 
0.680419052645027 
2.53473917662125 
1.122750100509693 
-1.731596070469052 
1.856208312021185 
-1.543633825910299 
-1.79929961423051 
1.034920723731336 
1.041588510369615 
0.9913804724969749 
0.8511570284172406 
-0.6704765410229629 
-0.7420239920634493 
-1.233115130562968 
2.891696233352943 
3.490053550501662 
-1.514589280944896 
-1.839403059778266 
0.1313359655973076 
0.01690209110911748 
-3.190960759191537 
2.199271752875845 
3.852088736484969 
0.4091273181952621 
2.331918483923543 
0.9244364653958188 
2.089650891275127 
-1.8861440236745 
0.1782745710110643 
2.594184215540209 
-0.5361999048457275 
-1.693878230946757 
2.184116054732665 
-1.488604510354504 
0.6528932775331774 
1.28194430308578 
-1.635068644849353 
0.8800148344294048 
-1.469249418997331 
-1.240445659167669 
0.516683700364534 
0.7085983321264387 
-2.561498207123242 
-0.2775672003840203 
-0.028145311571383 
2.362339657984089 
1.844047188083674 
-0.2099652047119869 
-0.7757521810094474 
-0.1653354908145855 
-3.077652326596128 
-0.6927888385730847 
1.287910175575243 
-0.1812709185748701 
1.047533912512054 
0.7923048560383015 
3.025176562812123 
0.7707642147933373 
1.909548661031932 
0.5793960929460465 
-1.22885434124331 
3.394065781517038 
-0.3060784959265588 
0.1955115129786042 
4.005562934222402 
-1.34082450618547 
-0.368192406021799 
-2.263982560342581 
-1.014558881517798 
-2.382375771822306 
-1.006083108924352 
2.70605880245587 
2.171530431097909 
1.699475602976138 
1.870427917210545 
