solver_type L2R_L2LOSS_SVR
nr_class 2
nr_feature 1984
bias -1
w
0.002201195751322825 
-0.5358449551291756 
0.2209918178489081 
0.300554069690583 
0.2012791248386399 
0.3240623627797272 
0.1765878284908735 
0.2925561544498368 
0.2313221373517194 
0.2134981849676277 
0.1420515716500573 
0.1945650149358417 
0.1432591646723964 
0.2147992533975642 
0.1350067460357373 
0.24277249400591 
0.1582365977199026 
0.2670463457869077 
0.1367260438691785 
0.2216420080334631 
0.1152038823648182 
0.2512663356106825 
0.08588046019215446 
0.1856996098113725 
0.125244867780018 
0.1789233279101296 
0.1555219023307228 
0.1724726764836054 
0.1181972704628485 
0.1988263216048789 
0.1790707957569551 
0.2296757592852236 
0.1986483555162659 
0.2158812917773037 
0.2820749457224099 
0.2339338077223231 
0.2447690906633304 
0.2574455137036565 
0.2164778513100014 
0.2231109278131777 
0.1749572206656916 
0.2277219837404665 
0.1592395407990673 
0.2159767095760928 
0.1472004377258422 
0.2289445248456217 
0.1383623526425754 
0.259654293370839 
0.130524141291751 
0.1939651845161695 
0.1182721394721257 
0.2116004443946931 
0.1723753970862395 
0.1220607152944038 
0.1780544375662115 
0.2079053358049562 
0.148407391026754 
0.2062361554069322 
0.1373934222255995 
0.208111825835894 
0.1154145826696595 
0.2459832905238633 
0.1594261801547341 
0.2164860829864526 
0.1945184883113829 
0.1671331876550168 
0.1580543716869092 
0.2506960361520446 
0.1810846095885394 
0.2924643791192454 
0.2031364880180533 
0.3216083626505216 
0.1249980926589789 
0.1634042771076741 
0.1599381655988976 
0.210393382417748 
0.1483025591279968 
0.1880954246548888 
0.1199125557595905 
0.1865731317178222 
0.1306340661885355 
0.1871944767856002 
0.09153205960908087 
0.1590688796965015 
0.1158235397954476 
0.1803756696554658 
0.1430854381882581 
0.2440614170765721 
0.2025102022970303 
0.09474908203009687 
0.2064541024255984 
0.07542233820985447 
0.1675209607374829 
0.09931080129340353 
0.1111349853598227 
0.1852761803930144 
0.116985051260582 
0.1729989252660683 
0.1664820936412874 
0.1854563665937415 
0.1966512814413843 
0.1567314137281701 
0.2181165222389801 
0.1528522550848812 
0.206826513099503 
0.114249013906642 
0.1400840911826326 
0.1905341077277135 
0.09869730007808825 
0.1574764426131655 
0.08282007107495871 
0.1862366489513786 
0.1778608697543625 
0.1721446559934382 
0.1017354628398986 
0.2027297062329563 
0.1599728763042693 
0.1920415033835243 
0.1020128793340472 
0.1828975022104982 
0.1276434971691761 
0.1880765864476914 
0.1408284564104969 
0.22066742912098 
0.09603934021070705 
0.1919002747473127 
0.1542347202436672 
0.2086987700134418 
0.172585903170161 
0.1205600185930152 
0.1436213282792712 
0.1074404812786864 
0.1780826796840071 
0.1247189767381448 
0.1513530106547865 
0.1063358721329844 
0.0941872259813467 
0.1148864411218268 
0.09020419742233961 
0.1217250575717672 
0.0883323403507701 
0.1814271194312631 
0.06252713937302395 
0.1815796435149303 
0.1405154391528765 
0.1182426471175365 
0.0947653937824524 
0.1859317711548124 
0.1670107469520541 
0.1686887725996472 
0.2024155180174106 
0.2175777616306993 
0.1477868587181788 
0.1804511342963165 
0.1799447615955817 
0.1833880520639004 
0.1707148928981374 
0.1467842956762443 
0.1858588218181354 
0.08548744107182099 
0.1694439918784839 
0.1065704929684421 
0.1155677175638918 
0.09750429089222575 
0.1111030361752175 
0.1631252637443647 
0.09578737813327183 
0.1123539329021214 
0.1501803851551144 
0.184585548717734 
0.1412306894470637 
0.1027018275329302 
0.2222831250570284 
0.1048473912108708 
0.2365630068672314 
0.1487541700786148 
0.1559758986149365 
0.1266679898579858 
0.0820927363080259 
0.1519243329958815 
0.1441715928330442 
0.1455532049633927 
0.1419911255644657 
0.1311650619320849 
0.1259671917646677 
0.07224270116607437 
0.08772200345123776 
0.08675401704510161 
0.09321237833812454 
0.156002987444483 
0.1134351992370647 
0.100668729881948 
0.1231688076776548 
0.1310257236792706 
0.1115784040633865 
0.1212545122160389 
0.1545158075850434 
0.1185746295221733 
0.1480460184236635 
0.06696177580058796 
0.1240030617418949 
0.05325971785584639 
0.1422403557981628 
0.08662253323873174 
0.0979069516045714 
0.1421885947846885 
0.1119753954645712 
0.05061492273744167 
0.08689329443713288 
0.1045539916229181 
0.1213491669159604 
0.1018273725393954 
0.1012701287287804 
0.110861922632207 
0.1182230649821665 
0.1291819823753391 
0.1365818253190043 
0.08419030108286854 
0.07996896822173534 
0.1342165897420307 
0.08328031647627143 
0.04584893815397656 
0.06384893753900346 
0.1283931713591235 
0.1023080079429361 
0.1488197146430957 
0.05001135992315735 
0.106790495170141 
0.04278367185614655 
0.1707561299997275 
0.05775257184262008 
0.1195106438305124 
0.04848757226539915 
0.1384428955833805 
0.05173995022020469 
0.1325992408497219 
0.04383504014051003 
0.1406991381013447 
0.05686451956830775 
0.09319825973924638 
-0.001702468623617573 
0.06734960023146834 
0.08761761752702686 
0.08138618386407244 
0.1858182227385252 
0.09007087036463418 
0.1128382028478788 
0.13346663913985 
0.1670718367893235 
0.1363643683949467 
0.1572903761007264 
0.1808034569766448 
0.2176361694345642 
0.148489500989955 
0.2290403320714415 
0.1264242107685317 
0.2439223002398673 
0.07532281438183813 
0.255274410688073 
0.0649217372169483 
0.1699620306379114 
0.09478952230373459 
0.1757110312452656 
0.1081398080182055 
0.128438146341779 
0.09188810753783465 
0.1269462508810864 
0.09072920224825745 
0.09465041328510765 
0.06226738259033911 
0.06762081831163128 
0.06073367630715407 
0.1023565825387289 
0.1143224152627027 
0.1241201189017107 
0.1385203288271335 
0.04535724594318185 
0.1296886210080944 
0.03350901565093209 
0.09149334094313437 
0.1110278465484484 
0.09594654926943348 
0.1417639240615882 
0.09708136723064767 
0.1867720077601703 
0.2003922863805472 
0.1212556555094451 
0.1357036941051966 
0.1598801594971956 
0.1108226517073274 
0.1390961808080851 
0.1121171486483713 
0.07016509709809865 
0.07743545702565917 
0.08210043040525847 
0.06867464213375561 
0.1205476339494629 
0.1112025238459037 
0.02488353356283375 
0.08220993122863744 
0.05552751791991889 
0.09224046329445898 
0.06153011865684133 
0.09027465000938707 
0.09673625085446698 
0.0153204731182979 
0.1260958095013 
0.0556559648153121 
0.113006900923604 
0.1009985043815265 
0.129233406217045 
0.07557059481800157 
0.145289599418414 
0.1088232995194004 
0.1254212902734632 
0.05376509118469798 
0.09901985596019752 
0.06375856252299679 
0.09977021934523322 
0.0141718444600141 
0.146842840703074 
0.06483565718836246 
0.1367927944224778 
0.05688957104111946 
0.1343009763854402 
0.07501033734838999 
0.1734663482184365 
0.07231829102961591 
0.1181390316121903 
0.09448994183068248 
0.1690169280777751 
0.08443572835387539 
0.1202844361787384 
0.1037337129407529 
0.1236989729676934 
0.1228266535520539 
0.1417974577565364 
0.1288634472773014 
0.1239735755437997 
0.1037637475251369 
0.1881297570655562 
0.09906872682788488 
0.1782133779010215 
0.1101810519951029 
0.1693921363243796 
0.08938757011123273 
0.1776812291004806 
0.05181233574151891 
0.2076204241735876 
0.1117707615973116 
0.16150738215354 
0.07801759796822998 
0.1962184137866438 
0.0580431878223179 
0.1557689513047497 
0.01507260680262827 
0.1616839433556764 
0.06970219597726277 
0.1015584808700021 
0.1011194890076522 
0.2108261713988061 
0.1195015624396832 
0.2540540306205871 
0.1419403618405341 
0.2050854894489903 
0.1465788716325941 
0.1642731635336563 
0.1333155939196984 
0.2075113968443267 
0.113802168910375 
0.2479356653404142 
0.09548939164776442 
0.2728246219111066 
0.07014307576161069 
0.2371764311343967 
0.04365658980249499 
0.1534707748916445 
0.1259938733707517 
0.140646576900617 
0.08051315432382256 
0.1331236593711284 
0.1430002424537923 
0.1751841161015267 
0.1112637902573115 
0.08888685878401199 
0.1347948298486115 
0.1617599838406377 
0.1050835698667836 
0.1447325351466685 
0.08912318701216768 
0.1439655648947004 
0.09836730670874202 
0.1786695925990099 
0.1437964456377838 
0.1793927670665566 
0.1021014792405925 
0.1436816545224556 
0.1342362944540394 
0.123652889999736 
0.1253976475887158 
0.09752118140360277 
0.1416018802219669 
0.07029020375092712 
0.0880241334749696 
0.08953070053087538 
0.09218358152123189 
0.09827541800565885 
0.06814053390912064 
0.06106499423321553 
0.08717193279670231 
0.06410309286453381 
0.1388036876079621 
0.06343209082484126 
0.2015997529181807 
0.1012410216582906 
0.1415102006665699 
0.1463540092939261 
0.1575290089827199 
0.1814181925200034 
0.1396913310913259 
0.1439189167589408 
0.1536089834991629 
0.1236330012598133 
0.0955757427418867 
0.1085840348792839 
0.1382789626922626 
0.1307904754489262 
0.1039910775239924 
0.1847292777233459 
0.1246214586229912 
0.1796068296453722 
0.1105878776402855 
0.145326684142106 
0.07856855546752405 
0.1399433607355495 
0.06498956227728413 
0.1406113563912058 
-0.01748258605502594 
0.1796758399622376 
-0.0022412527087254 
0.1821103339339637 
0.04793466937176097 
0.1655564946647005 
0.0626343986393792 
0.1619039864080723 
0.06144190387826112 
0.1101101667144107 
0.06814117246705075 
0.1253304395444239 
0.01646181220671799 
0.09557605374840991 
0.09630298011133333 
0.1475965592885344 
0.09840289841191689 
0.1971487628536326 
0.06603736838092804 
0.1661022975691612 
0.08810237920655382 
0.188661621996931 
0.01910321492554081 
0.1726598112953352 
0.08321587902053569 
0.1530411141730013 
0.1523766460562042 
0.1224301423218267 
0.112611360099871 
0.1394283045898597 
0.1408626095933329 
0.09559637881658042 
0.09962492944326523 
0.07579955390405949 
0.0989434783385138 
0.1098146697803691 
0.06546274163967102 
0.1563509914570138 
0.09662294390609046 
0.1047104018894245 
0.0953416623975276 
0.05970116394581033 
0.05703644369743111 
0.1117396914521342 
0.0538367597438978 
0.1117733256831819 
0.0709561326097905 
0.1059450697322398 
0.05842197430818683 
0.09860495076637539 
0.03234522029528993 
0.1084243852592639 
0.03192426563128752 
0.178065914571943 
0.09136575431390727 
0.1621340925867391 
0.05987928386200301 
0.1918426476541914 
0.03163515056904279 
0.2140827205687943 
0.03038101761236165 
0.1682990433134564 
0.06416441762980575 
0.1311808926090272 
0.1146338822713235 
0.1453083917815666 
0.1073521612813576 
0.157178490548926 
0.1030534707355476 
0.1068424828134456 
0.1141246678184716 
0.1476881126905135 
0.08679852789248625 
0.1350054827004344 
0.1782206324633611 
0.1304580102842901 
0.2050736751340308 
0.1905369072282551 
0.1006461782443704 
0.1909381893217663 
0.1188944477891526 
0.1701630321814877 
0.150490006353502 
0.1461424483226318 
0.143881862305525 
0.1110353085671586 
0.1095972390556622 
0.1308381048460929 
0.1623422747688647 
0.159412393740615 
0.1889712084891977 
0.1869353128506942 
0.1311271928432907 
0.1244905495331035 
0.2425677636287766 
0.1540068886569375 
0.1431730925016395 
0.1243957523914488 
0.1275379584559705 
0.0783923378556365 
0.08975572476392998 
0.03769807281497169 
0.1082311100012321 
0.05069506267364919 
0.1405790735664953 
0.0768548044083989 
0.1876652198094114 
0.06844419832679098 
0.2284979982562605 
0.112114645736896 
0.1754751651730288 
0.1164365021913854 
0.1480160294129163 
0.12155080074219 
0.1716422126959068 
0.1171230237694828 
0.1649543327810748 
0.118389952957894 
0.1151354001601689 
0.1284087908795618 
0.08159412199657405 
0.176121153588395 
0.1518017537265915 
0.106493445889382 
0.1460545716203391 
0.08994531311530797 
0.1935279733468546 
0.09159444182913547 
0.2009906867505973 
0.02604299992930393 
0.179706153494352 
0.1031266314053622 
0.1027572254592779 
0.1350838207238635 
0.151720174155747 
0.1207211927884572 
0.1915324050625709 
0.08877164070280663 
0.1875691413943848 
0.07744644234276629 
0.07386985605881975 
0.09514494737746269 
0.048213704451849 
0.1974681511681466 
0.1290430527097519 
0.1579375773871101 
0.07768196231689505 
0.1939821209990547 
0.03265580634489502 
0.121937780296304 
0.03816473494066618 
0.1097436027826169 
0.06698264737806564 
0.1209511488505348 
0.0723146862587002 
0.2081196135419915 
0.0757192952316347 
0.1726161696008033 
0.08348045501756862 
0.2397561515700559 
0.1179464359161642 
0.2467993963597783 
0.1187946382299646 
0.1715363160768353 
0.128780168648884 
0.1731453717601303 
0.1200732233602842 
0.1624236037347516 
0.1021055123198047 
0.1552613591576032 
0.1130084062495122 
0.1970171503821246 
0.1266359856299679 
0.2073985731763293 
0.1840558425202297 
0.2150515226991956 
0.1302529987050184 
0.2453697378796327 
0.1296990601396375 
0.275862737349175 
0.1604225981955936 
0.2129496985803449 
0.1064731616417133 
0.2104099779314647 
0.1849415537312518 
0.188844418543183 
0.1814680009175971 
0.1741648726508568 
0.2206318557736869 
0.203495385879051 
0.2038869148910483 
0.1131121825756394 
0.1167987087719815 
0.150765298406382 
0.1610748730227209 
0.1482405129643323 
0.2203462125407659 
0.1225244294946777 
0.1910696936528447 
0.1228061970559637 
0.1705674017351302 
0.1199505704526214 
0.2007347386090627 
0.1744976575535561 
0.2018403469019285 
0.1527344755936467 
0.2106491997171279 
0.1984406859203883 
0.140307601415481 
0.2305110797255122 
0.1050535109835243 
0.183769112426945 
0.1663511097868632 
0.1934590491801522 
0.1418040508511773 
0.1661054340997419 
0.161663343358725 
0.136672957234667 
0.0780838116786411 
0.2034494416386691 
0.07082568182901479 
0.1756658194080674 
0.02097724791215421 
0.2179516352835727 
0.07476532147927432 
0.2076900014684404 
0.05273187213375775 
0.1916832777066466 
0.1191703388802182 
0.1844547844585055 
0.1076081987460254 
0.1453388149570739 
0.1585553463136452 
0.1923391134283799 
0.0840849523423423 
0.1559604739964092 
0.03250471130561985 
0.1640278770225228 
0.09373577567554849 
0.08892866507114354 
0.1410948267807942 
0.1430088990523301 
0.06316543290647592 
0.1628741996837674 
0.0707964081256373 
0.1877831201134343 
0.1078377445211775 
0.1595337272568534 
0.07872800196405924 
0.1932544314222658 
0.06003730868807478 
0.1931519523432058 
0.0775168220605857 
0.1130126778892285 
0.08044358166179633 
0.2109492029042727 
0.05799267942448733 
0.1939457634464483 
0.05089974505798061 
0.1822177770716342 
0.1033839446427794 
0.1987329290304422 
0.1421034769691001 
0.172999850276959 
0.07590466627874005 
0.1435708394033746 
0.1515614775809047 
0.1349493903535441 
0.1513227224806103 
0.1452836448067152 
0.1927886381341396 
0.1806908184984746 
0.1542833306362465 
0.1993475312017896 
0.04041945896823283 
0.1661998270045752 
0.04522996797163287 
0.1778039295877215 
0.0002305719526621856 
0.1798563997582693 
0.09981913553921169 
0.1352152730578031 
0.140476322593204 
0.1763119593318401 
0.1056244884909032 
0.1536530858643073 
0.1219323732927686 
0.1459538121591107 
0.1203669463143999 
0.1160492976031654 
0.1222643357554534 
0.0671901895848263 
0.1036058391638313 
0.1009291712902983 
0.08052823900421729 
0.1630590811043479 
0.06249205447698503 
0.1580889717560339 
0.09161109750821594 
0.1444605851171312 
0.09390839850357198 
0.1424644837637046 
0.0793945691800516 
0.09874031424523196 
0.09249327504948249 
0.09835052410722543 
0.09345799775365007 
0.0993738928025157 
0.05892745596963146 
0.1364538745125804 
0.04142723038496209 
0.1123809389391955 
0.06038196586125941 
0.07996883213671721 
0.1013824630896339 
0.1380681692483963 
0.04010448539359204 
0.09755635575890467 
0.002418836082380415 
0.08671177769962037 
0.01372690073641133 
0.07827475959415066 
0.04962497275326001 
0.08269470517922456 
0.008263438365166416 
0.04844796830148387 
0.01475517708196947 
0.1112075712628151 
0.06062438247224362 
0.08777949577654053 
0.0618997042979674 
0.09510926666370359 
0.05350034738812726 
0.1311146584939898 
0.07473915139021607 
0.128186866230598 
0.09441023501818936 
0.09190863733077985 
0.01137192169553625 
0.1874513462152302 
0.07630132718069534 
0.1549083488309623 
0.08728456054151308 
0.1987780728253989 
0.03419807632083342 
0.173062181317432 
0.04768756354001852 
0.1204439470609851 
0.1045021179507414 
0.1090678776454982 
0.06994380469407607 
0.1370746557189955 
0.07610034110829099 
0.131643264561478 
0.06476913025002147 
0.07592324291037816 
0.05306185295254427 
0.1006272337706523 
0.01382858667130415 
0.1319328016348615 
0.001282996194207542 
0.1437352690959548 
-0.04050081803537012 
0.07024500509582833 
-0.04115136363811762 
0.1047173795985992 
0.01287265146367317 
0.09555592242763163 
0.07568013228383549 
0.1645114212376647 
0.007022407890880102 
0.1188084450494115 
0.06956964396957932 
0.1830237364330277 
0.02685807586910267 
0.213940087977733 
0.005465205607442526 
0.1295031186742688 
0.1086280619639002 
0.1408380423530241 
0.09145930280786843 
0.1266596388102128 
0.1367048540662536 
0.1595070274668826 
0.0835525641499725 
0.195243361409491 
0.06591169125962398 
0.1732028347153772 
0.1123435570941551 
0.1343966613935353 
0.08331623108202781 
0.1530977802697905 
0.04585871859267832 
0.2215831163199014 
0.1045888011317046 
0.1302614958509301 
0.05537195705191769 
0.1090854096263063 
0.06956617011055523 
0.1471713887316876 
0.05107468916547379 
0.1149627615153699 
0.05094214184908449 
0.1327457412705855 
0.1191815134665935 
0.1192237785547072 
0.1308244024781607 
0.08795235266889716 
0.09539948829834931 
0.1008680847845677 
0.1469145254619254 
0.08365665304113115 
0.1243053726345083 
0.08915769049258647 
0.1591491331863214 
0.1270837789496557 
0.08428810657442344 
0.09318905583338626 
0.1004967987158794 
0.1469748609544093 
0.09740374329488651 
0.1241493488871647 
0.1649375212840378 
0.1163340214502964 
0.2816209215349978 
0.1163513800859197 
0.2739615248549822 
0.105137148582174 
0.2410611223567088 
0.1444416408080594 
0.1434208706371929 
0.1253713567759009 
0.1889490628127026 
0.1797590812229293 
0.1456986256628579 
0.1155866407869456 
0.1344767247886627 
0.08601284093815716 
0.1236789931397477 
0.1528414402625185 
0.0915231319454356 
0.1505603297787401 
0.1075584111483993 
0.1354478260136275 
0.1274739242402861 
0.06805398897856764 
0.1715318683343963 
0.1291216424779227 
0.07120966412362038 
0.08938999389440307 
0.08057401451442682 
0.01213093327072273 
0.1828112314806002 
0.05727401918717845 
0.2355274904870885 
0.0154380900430212 
0.1602015340105312 
0.05183977471380785 
0.1935413724948138 
0.04697552127508244 
0.2063331462998289 
0.03388940737546209 
0.1717394753210908 
0.05383025262481869 
0.1419637978888434 
0.08225154598226374 
0.1354560539377961 
0.06343607154396314 
0.145292820436043 
0.02540954147886123 
0.08535764696397934 
0.02607380783055303 
0.1060776721293843 
0.04148464861369938 
0.1722063347560183 
0.01759191741280652 
0.1673524409299196 
-0.01440090595644413 
0.1194608850050982 
0.03728913237503815 
0.1474911200818978 
0.01054357523237513 
0.08918589892380617 
0.05820540829614034 
0.05241282087502824 
0.134408505784085 
0.08028550142191206 
0.08570490475514647 
0.0903289303441298 
0.1242813931316342 
0.1065542472360025 
0.1324887901451871 
0.1218291130535703 
0.1787093492838462 
0.1134220101261416 
0.1633217668223197 
0.04722269085998504 
0.2124300575705342 
0.07328693523967693 
0.1476488212697384 
0.07677576608962454 
0.1528365096471295 
0.1103461710002297 
0.09627179610721934 
0.08514310669859355 
0.09195148923993282 
0.1003147193081958 
0.1581786772301124 
0.1195365609843533 
0.08829658913519289 
0.1474350966641522 
0.1565148910203548 
0.1826163880137859 
0.08044260466670219 
0.2355605907600782 
0.143102162167327 
0.1423454754681089 
0.1547418704568292 
0.1415563210376257 
0.1280669726750273 
0.214441884307242 
0.1431706691697957 
0.133654094840399 
0.1357654494068565 
0.1207187143291375 
0.1182277941826914 
0.1160451255077178 
0.1289775303898638 
0.1333905276735161 
0.1207373972182277 
0.1926251154698131 
0.09455365485997279 
0.2446171933866284 
0.01937316369172016 
0.2427732746697946 
0.02268381826481045 
0.1346675431851725 
0.07972460470906295 
0.1504856235238224 
0.1003937446459258 
0.1278985108950383 
0.04600859934687421 
0.1341466134360322 
0.00809387433241055 
0.1144225365012277 
0.06116405959474196 
0.1519780910286515 
0.01789196735691045 
0.080755493954988 
0.06974209519063308 
0.08763620003385782 
0.07746044830054821 
0.07513104039832312 
0.08603735263680905 
0.04974096400573493 
0.119075024443452 
0.09176756683039251 
0.0746769407861024 
0.1462044300624418 
0.1512008623019461 
0.121951759362885 
0.1374411401580849 
0.1920461878921721 
0.1521884141761205 
0.1356267807346782 
0.1722697667794844 
0.08240789173868431 
0.1620371130462858 
0.1493578069496783 
0.1133786476064421 
0.1101392611768614 
0.1504272256326853 
0.1078504108443948 
0.1748695090396629 
0.1863548295363279 
0.1216612716965396 
0.08627185775196276 
0.1634404416671202 
0.09036976366795881 
0.1002192480930719 
0.1205373073866442 
0.1813219550597606 
0.1245111394632792 
0.2065895068051279 
0.137091316475621 
0.1477837627264012 
0.1003124864932314 
0.1042608468893314 
0.2024980440122234 
0.09680571272137906 
0.1696059881549022 
0.1167070049808294 
0.1033224741533497 
0.11932717839721 
0.07079736937507969 
0.154977899854632 
0.04260886548766276 
0.1472473060964404 
0.07135373014842927 
0.2024047296461565 
0.1074831298057536 
0.1311816096323486 
0.08169256368055824 
0.1688733654586548 
0.09912309099192906 
0.1185201449308958 
0.1293378148200339 
0.1005903440264831 
0.0942400488055921 
0.1309409417398065 
0.1257672953598406 
0.1599812396425168 
0.07475866012882715 
0.1274603687368001 
0.1144026078872731 
0.1928390085407436 
0.07925822822236869 
0.1583622862828251 
0.1021750012415946 
0.1402886995631671 
0.1503628028437328 
0.1960281179101258 
0.2266479987383925 
0.1322344870282396 
0.2285176206598954 
0.1311083968964765 
0.1671751109921101 
0.07609075482028363 
0.1534714473350284 
0.04111643346972304 
0.1566464291219623 
0.07485681192125257 
0.1564744469327238 
0.04943973465414793 
0.09653491972144052 
0.04662361992191288 
0.1148396614081152 
0.05787312651869277 
0.132629730123708 
0.08007866983667659 
0.1977753657351463 
0.06979107994982421 
0.1669802670983326 
0.04602439379315756 
0.1865631081279307 
0.07244504890022352 
0.09446431094232868 
0.0277594202997665 
0.1916410932567762 
0.04222978045722837 
0.1321021762990751 
0.06426441547309512 
0.1074030342077357 
0.07569512336633567 
0.0486984015795229 
0.1093337369250235 
0.02312650286556758 
0.0818237116448304 
0.09323698467881227 
0.07043118485631454 
0.1477222862272373 
0.06819447172239085 
0.1052167417887111 
0.1206351604183041 
0.1088015203953671 
0.1031054364432474 
0.1074454768117531 
0.03367548718213331 
0.107878849688817 
0.1110228756794853 
0.09411325192773431 
0.1858586304161626 
0.08375262277142609 
0.1015263765534517 
0.04652740810913176 
0.114193122008365 
0.1058744289637499 
0.1084562067593081 
0.0891025183885079 
0.0945964555361188 
0.06927041369569092 
0.1056454980551952 
0.07668632622204537 
0.1029316535232257 
0.04353830942892549 
0.1492271704582337 
0.1013759409010274 
0.1737029787118864 
0.06055891276018386 
0.1870418635341638 
0.101944760239991 
0.212657253551537 
0.105289715572332 
0.1298763062537771 
0.1249948396215456 
0.1344312033106066 
0.1200459058417109 
0.06744850273652672 
0.121144907632245 
0.1562682097715237 
0.1298868393559974 
0.1011484370585555 
0.07477692156374018 
0.08396761152518933 
0.09200575218547583 
0.1170357860135997 
0.08780956977459609 
0.1036601552718445 
0.1165844112264547 
0.1208264007274115 
0.08138377289296138 
0.1498322684788275 
0.1050600435412494 
0.1104931978548184 
0.09754603904458756 
0.1545324213812348 
0.1530684854072681 
0.1415466470735495 
0.09436484631298449 
0.2128114854284668 
0.1151816255086644 
0.1898972016980589 
0.1631506079713478 
0.1512543890292111 
0.2332894958753902 
0.2051462360068088 
0.2064455425163408 
0.1607665119499189 
0.1419848666654581 
0.2047426749711421 
0.1946240838605864 
0.1312587820959811 
0.2159787497277876 
0.1767474389976343 
0.2068852853054908 
0.1925224795612909 
0.1977409318250599 
0.2142204494503428 
0.1771778873217975 
0.2107279483471186 
0.1714377722281325 
0.2557575492486021 
0.2383867843396808 
0.2002112776742111 
0.1777666921246892 
0.2178699505158571 
0.1930994865313931 
0.1644473123907428 
0.1545579041870955 
0.1476520534160063 
0.1472199705201115 
0.1088900532801184 
0.2011592388461257 
0.1430873516627156 
0.1674759065888059 
0.1412461997229885 
0.1191358966932722 
0.1104323933587037 
0.1349138692405819 
0.116320866419868 
0.1232495803752073 
0.0579910020276231 
0.1575005571491431 
0.1438597534383722 
0.1188612639433677 
0.1058666642321219 
0.09590477729277749 
0.08989656566324461 
0.01759045389548107 
0.07358700602495823 
0.09326251975407999 
0.08129634549392058 
0.02104019487648634 
0.07464198003424374 
0.06002150824958287 
0.06745133470291265 
0.05879477529781446 
0.0541921563518537 
0.1666948456383626 
0.03279194111049829 
0.1753691317705527 
0.00529524489890171 
0.1049837094860252 
0.07615907763900646 
0.1851648665200833 
0.1240428995277522 
0.1350359831947794 
0.07994768832869784 
0.1700473805038161 
0.2195031987745523 
0.1363320031697333 
0.1404382109630291 
0.1347109178528319 
0.1153191387004721 
0.147884134330872 
0.09624912239166784 
0.1668831959620264 
0.06424152601804028 
0.1265367791259482 
0.08785891158850222 
0.1225252585546433 
0.06480765342644579 
0.1066115394179498 
0.06730314640982098 
0.06713991546760376 
0.005503262370683227 
0.01353720745190136 
0.06536826643396489 
0.01052615385928326 
0.1356592594580172 
0.04376463506163775 
0.1004420847227277 
0.02447951991268801 
0.09159615315511704 
0.1416807972870117 
0.1459857860150214 
0.1326509268347991 
0.1551493018685088 
0.08810082287389225 
0.1597741537665442 
0.1233168680191949 
0.1446055361189391 
0.1248734945055933 
0.1316596072370517 
0.1094611969723102 
0.2000473046312774 
0.04981288974188229 
0.1431869834567404 
0.1196242414088568 
0.1557563093417202 
0.04175195831538445 
0.1839944213055623 
0.04269864033495514 
0.1781890894875973 
0.08983900420193493 
0.1885557684825798 
0.09194318774284041 
0.158927134183683 
0.1570850213922663 
0.1152501580699435 
0.09169687999753695 
0.1113547977550925 
0.1388243915341496 
0.1453545937475745 
0.1419641713806721 
0.1413050967463193 
0.1383814755030923 
0.03431839357301347 
0.0997118207887993 
0.1584006571354473 
0.1024975107211319 
0.1066667585964676 
0.09160866384284176 
0.09303775086476979 
0.1101676102385266 
0.04015370080664961 
0.1388188640451883 
0.002110094145325371 
0.1128358317420466 
0.06295612888977394 
0.09571440562163712 
0.08932166653710986 
0.1135577351344969 
0.02496992339141495 
0.1068879303380745 
0.07252559439561317 
0.0435392230545293 
0.09881829335170278 
0.08779223499282005 
0.1236556122007269 
0.0607660134931035 
0.08977846151231415 
0.1029950202491768 
0.0601333375608415 
0.107646067163943 
0.132374200273241 
0.1015291478939847 
0.1005712723550539 
0.07065969826596723 
0.02002948632198188 
0.1040695856550416 
0.04764804718990688 
0.06488715258998946 
0.1275563428972653 
-0.001081009790735108 
0.1214534140487066 
0.04033749492331994 
0.08212163998000545 
0.02321308729296439 
0.08337893127018811 
0.02235301978148898 
0.116617255765486 
-0.003198566099854948 
0.1316965990206414 
0.008578399904187274 
0.06502030192224266 
0.09093208313665969 
0.1086990774083495 
0.05323326350627071 
0.05936659041804346 
0.08244862619392336 
0.03017833285523213 
0.1367623602212362 
0.04198810086022247 
0.1454199139056319 
0.07822673610760114 
0.1429369311203943 
0.08816115718340831 
0.1555990888573157 
0.146711648397221 
0.1205804692169477 
0.1041457390192625 
0.1267444105924707 
0.07275082140311621 
0.07856402684846316 
0.1188707160711355 
0.07346192704939464 
0.1126767381200358 
0.15525629623228 
0.1448156249923421 
0.1306301869633097 
0.2121807048282387 
0.09098815870347929 
0.1812292119372785 
0.1338250704562272 
0.175287651501088 
0.1765230198576729 
0.1785362656303973 
0.1569357479970094 
0.1957889552119185 
0.1904007795050482 
0.173502220000172 
0.2113624173852943 
0.1393508377164397 
0.1663926647432958 
0.05480518565098393 
0.1688880892865343 
0.0944711090631087 
0.1963780918292692 
0.1655772707839034 
0.1477213136010799 
0.1617016997834297 
0.1324061244015959 
0.1949063765394697 
0.1447867590186811 
0.1842729448929242 
0.0644129805449445 
0.1692980148263919 
0.06505871195257273 
0.1162585733768012 
0.06616139816578738 
0.1277317548514443 
0.1243074667027528 
0.1282156266927281 
0.1311290525611297 
0.1129405072496041 
0.06754491158387033 
0.1216218419737689 
0.1118689469984322 
0.1365804746144651 
0.1005914727487146 
0.1390616490541273 
0.05300602850069857 
0.137284482499325 
0.06747969324548207 
0.1811641649473734 
0.08361828788754837 
0.1671908740656663 
0.02831622546729079 
0.1106761430869768 
0.0328604915255158 
0.1002220152893418 
-0.004292650491647698 
0.1120384555853117 
-0.03284421613749534 
0.1171795525659383 
-0.00685467889470049 
0.1157939325971516 
0.01209747132509162 
0.1038994522678738 
0.09243441288403376 
0.06381921740410586 
0.09164349867938131 
0.04186788886186663 
0.1184142839614762 
0.03590697098408008 
0.137773191258649 
0.02628269693144137 
0.1326683904320855 
-0.01688368560526327 
0.09897508465508781 
0.005294712706677288 
0.05361313127934891 
0.04652011588039045 
0.09074476809960005 
0.06843716945604413 
0.08445849730681639 
0.1547661337762118 
0.07900891691995227 
0.1359703229484166 
0.07743940517904024 
0.1063501494418796 
0.1245831448667689 
0.1374115734271709 
0.164402743340274 
0.1617289129792087 
0.1720616094309216 
0.1403594724383116 
0.1594074552873764 
0.2402392346574909 
0.09822151506761635 
0.2384820012241616 
0.1000932891199928 
0.2019921992480908 
0.1055447599308379 
0.1791126876122829 
0.06886945401453923 
0.17604586647865 
0.1035870173255026 
0.1988445662509205 
0.1236645805216455 
0.1558531997766526 
0.09714376585241634 
0.07851313696802516 
0.1336814726349478 
0.1115322866948944 
0.1285740499269972 
0.1485186448293104 
0.1510448815563113 
0.1066429364950108 
0.1324632879262779 
0.1317253901099045 
0.1786049149981529 
0.1435157202431134 
0.1816615952850396 
0.1672750385663554 
0.102098508778207 
0.1175529368133996 
0.1206488046570772 
0.1687528415464775 
0.1918493428473302 
0.2039435678304182 
0.1458803860731433 
0.2171953322680207 
0.2255449629235688 
0.1990142953904729 
0.227031436525395 
0.1319677664939307 
0.2295838112850476 
0.1915372983032963 
0.1840093451432867 
0.1512795435210378 
0.171060936167361 
0.1168840198402593 
0.1258288552525166 
0.117489653790635 
0.1463291598264068 
0.1519166727619229 
0.1590552923491657 
0.1172168757185086 
0.142712628710805 
0.08300520119774622 
0.1198501379714507 
0.0752628805299809 
0.1294537480712455 
0.04172792956055842 
0.1155136595660557 
0.034889293047133 
0.1263753113397612 
0.05102015557486821 
0.1388618675684518 
0.07805406135855777 
0.1552496547567222 
0.1115862951072111 
0.1746446385352033 
0.1500904462211947 
0.1899814813164342 
0.1382739188337253 
0.1612174391213625 
0.1527155987861501 
0.1573841099102797 
0.1482460254672998 
0.1103791501887329 
0.07873149511567894 
0.2043224308487642 
0.1152985125570829 
0.1651796851006467 
0.1214674221226258 
0.2044419178204087 
0.1056259799995099 
0.1040776581952369 
0.0941775800661334 
0.1340482390200304 
0.1199671876356284 
0.1040377250902326 
0.1324400372021965 
0.05689508852084504 
0.1084811384349716 
0.06025559789061895 
0.1833211097706558 
0.06389210077540793 
0.09254768312053613 
0.09631886821969275 
0.1284531309204719 
0.06050056179188258 
0.1479744096473685 
0.07386201347385685 
0.1830477369349383 
0.08694981291841065 
0.228911411553297 
0.05906421707510612 
0.2283555988717703 
0.1694910293900322 
0.1662014979814261 
0.1465884638043715 
0.1317029131600529 
0.173722451337444 
0.1460421302168181 
0.1970060420973861 
0.1476227317507977 
0.2063364319636198 
0.1562311573953709 
0.2220561606837518 
0.1684279120894072 
0.17394986199341 
0.1793464932160914 
0.1915091269602745 
0.1784939898501577 
0.1645185172603955 
0.1552799335611435 
0.1300065980717441 
0.1115910209925142 
0.1111960199921443 
0.1531309280630838 
0.1180792141089228 
0.154592660155252 
0.112921075368317 
0.1546390804567093 
0.1509759544894014 
0.1753532562296117 
0.1744263832739581 
0.1576455533259881 
0.1622432922304624 
0.1285082849845576 
0.1160324431119905 
0.1170687204997761 
0.1162414499569791 
0.1724727589199442 
0.08372593024508071 
0.1770633806772938 
0.1035166367440235 
0.143619070515704 
0.1132756705017781 
0.1238982541611118 
0.0855093204838242 
0.04571998027779731 
0.04139983007869232 
0.06312484857188151 
0.1258906730445429 
0.08449707574002648 
0.148185105106955 
0.0880820983092083 
0.009019282356390117 
0.1178306862257731 
0.05759720613124701 
0.06321596505748261 
0.1732231700419205 
0.1432954617866907 
0.1828437106249721 
0.1336971218847169 
0.141767209110588 
0.1670471464930108 
0.1234692640857374 
0.1404123809266159 
0.1346003390139203 
0.2214815295545061 
0.08030893234638793 
0.2067026091734681 
0.09105539923660876 
0.1740018670494857 
0.1858807242605248 
0.1937388604786961 
0.1780036887180528 
0.1873947104285183 
0.1793540878327494 
0.137839853877266 
0.2173780053133319 
0.1408989053958942 
0.110838130995275 
0.1638013422641365 
0.08348592030255424 
0.1435397454076855 
0.1228330701945321 
0.08516707138570648 
0.1155583590187396 
0.09880795436000192 
0.1606551116620468 
0.1374025150861132 
0.1264869843576222 
0.1293175069644824 
0.1096686624282569 
0.1084540810820194 
0.09498896144294527 
0.0363938355575425 
0.152617006280232 
0.03332397478184811 
0.1960165473068535 
0.08172514123507821 
0.1390093065911936 
0.1010115340893843 
0.1322157311177683 
0.07834516086320996 
0.1670313227540096 
0.08745888814047716 
0.1221853891567329 
0.1091882753348594 
0.13210110302482 
0.05545685383407418 
0.1684458516260878 
0.07704082431852098 
0.1796105863362791 
0.1481418379572438 
0.1601303563960646 
0.1630321154479147 
0.2377236710885171 
0.1507728995221679 
0.1579403193782733 
0.18206303407277 
0.1773890525507805 
0.1363973984948922 
0.1683297825154299 
0.07312100852598488 
0.2081977975264452 
0.1325793298823581 
0.217196165348814 
0.1414873503160305 
0.1757482447349914 
0.09269556116902694 
0.11720696997565 
0.0784438451927567 
0.1316225206721484 
0.146089364302614 
0.1261024530966923 
0.1567918628466911 
0.1580256905442149 
0.1311118703503837 
0.1326242559479477 
0.1604419662575389 
0.185433168075031 
0.2071789560522259 
0.1848201115166224 
0.2072661936593759 
0.1979379301249597 
0.1806300844869687 
0.2390053089630809 
0.1780080245876301 
0.2140887271180851 
0.1532173144019377 
0.14691677277222 
0.09885049535024772 
0.230688002860095 
0.1474230598405715 
0.244921278745773 
0.1316402296643793 
0.1558861409648985 
0.1658015532895223 
0.09152314796040681 
0.141664048548419 
0.1056621883032273 
0.1475112983042622 
0.108085320575637 
0.1357892879946047 
0.1775061145607797 
0.2240556893806097 
0.1651639775855453 
0.1851677870446606 
0.112749852855187 
0.1980064139149861 
0.1474783040701466 
0.1335115186118928 
0.1162582331488375 
0.08693736821176186 
0.1161494772021912 
0.1063809641013638 
0.1096378252433589 
0.09600905976558023 
0.1148858207624537 
0.09695146469071377 
0.09409241821692961 
0.1571350559755825 
0.2114159178094266 
0.1830009897285237 
0.1922713650336284 
0.1377021061410093 
0.1865328953600907 
0.1255347926525164 
0.1587486984060095 
0.1265916151437091 
0.1770342209131961 
0.09969049787684139 
0.1528620908128387 
0.09608279365303961 
0.1936176590273636 
0.08846203798910941 
0.1459512824691012 
0.1918318997331728 
0.1488309603125305 
0.1730451872885165 
0.1784669571329341 
0.1731544058926888 
0.2092838102762577 
0.1960914198970532 
0.2042595425751478 
0.1673171744771476 
0.1250663518168551 
0.1244062844453735 
0.1621013510727155 
0.1921079856636746 
0.1430073697964575 
0.1269901568639405 
0.1030636972588328 
0.1127311575067516 
0.1431092562858436 
0.03698395132863223 
0.1473754233043997 
0.08759095437169001 
0.1426268558757135 
0.1192639677906668 
0.1349653025539452 
0.1312538299352636 
0.1668060939593395 
0.2001178802289054 
0.121358460957271 
0.1857425470495467 
0.1329275544645608 
0.2414543411853081 
0.1216029407578934 
0.2309721318142694 
0.118317415272583 
0.2185516721526185 
0.173723618017751 
0.1518605506994686 
0.2021084053003932 
0.1653768727762353 
0.1428325984646373 
0.152292464348461 
0.154528136386037 
0.2381737274898036 
0.1221542476986661 
0.2296118729776807 
0.1851500825120296 
0.2041238892057791 
0.1597289549132203 
0.2286724092203119 
0.2261605184969345 
0.1657375989627422 
0.2549214644849098 
0.2329915758080521 
0.2309024524104764 
0.1734602595760285 
0.2464382748325251 
0.1651148459674786 
0.2643709702103292 
0.193915034248832 
0.316542616024143 
0.197090693436438 
0.2551408683682118 
0.182436759403491 
0.2630471762621004 
0.2225159219015033 
0.2333630519805169 
0.1799709214477142 
0.2334408046791747 
0.1756748516306113 
0.1572200219584465 
0.1598268160615099 
0.2021892745726658 
0.175217435935409 
0.2041231515790055 
0.1554622053317145 
0.1845523590009323 
0.1355782687509526 
0.1676326349244891 
0.08698267179140959 
0.2139500642637087 
0.02974588184275476 
0.2187510184781741 
0.09012031885536011 
0.2563249016599398 
0.0775044600336728 
0.1980034944546724 
0.1512101415133211 
0.1617037360970885 
0.1526839573540609 
0.1317728640618676 
0.1592337517409167 
0.17519740793106 
0.1620497465875942 
0.1903262935857887 
0.1584485776342308 
0.2003529099065501 
0.1905252234743189 
0.1833559122059019 
0.2009796633672891 
0.1818575384772321 
0.21006037116864 
0.1971084185939597 
0.1931745103505827 
0.1392350381481265 
0.1892992835946738 
0.1700002622093889 
0.1589445302069028 
0.1157016060663119 
0.223328966047821 
0.0972300868284752 
0.2377908346882859 
0.1496185670907344 
0.2511448860269824 
0.1196674749608894 
0.1862696470332247 
0.1192894110140785 
0.1805533620464514 
0.1336920294987905 
0.1925099043133119 
0.1708262140849471 
0.1792554486768619 
0.1829826578416706 
0.1884974724404878 
0.1945780295432138 
0.1850083551594508 
0.1944196932813382 
0.13635612980583 
0.2197886155060331 
0.1556342854421336 
0.2210708880919224 
0.1065892331725754 
0.2232706738853454 
0.0874391933985289 
0.2296874901716178 
0.1438844705580966 
0.2364450710081658 
0.1596356445793588 
0.2256260570273744 
0.1633649748236433 
0.2462516637965211 
0.1889995191589201 
0.2196155976053105 
0.1869734640153604 
0.2756745936487172 
0.1202437513093251 
0.2455440373699529 
0.1507291294211914 
0.2402336812508988 
0.07810890724496122 
0.196598517205434 
0.1083459278624785 
0.1366744730630539 
0.08137576025324758 
0.1547001807381629 
0.08570645217925089 
0.2063164150703743 
0.1248112994255948 
0.1532116468371082 
0.1694437958161117 
0.139754594172944 
0.1428454074834149 
0.1890480994094381 
0.07861818995649905 
0.2521121550669789 
0.07888126997488928 
0.1665205224942875 
0.0950701678358977 
0.2189602731530445 
0.1460532554844775 
0.2333588256308826 
0.0789440475446954 
0.2513345116379605 
0.08753213633577032 
0.1919382242638414 
0.1335499474003797 
0.2478682285903765 
0.1474182014846288 
0.2472144502259675 
0.1329315801330604 
0.2206165705029994 
0.1284216231201303 
0.2713468995065934 
0.2139781955607368 
0.2014078477019679 
0.1371410894250429 
0.2263450963391922 
0.1743347948044506 
0.1778034923180663 
0.2094276567017382 
0.3088617445306238 
0.1717173810279279 
0.294192649094272 
0.1710918192936296 
0.2871685770943117 
0.129217090703182 
0.2356515376521193 
0.1981132445459373 
0.2099903377232852 
0.119522935970082 
0.2486767001214555 
0.1193735212079988 
0.2084613043274962 
0.179926387522178 
0.1539947587649434 
0.1777027575517779 
0.140565531792178 
0.1397333877369037 
0.1737281748203044 
0.1859882884512811 
0.1215764018233982 
0.174498023964461 
0.164733739351108 
0.2094910767241961 
0.2006140309202578 
0.1705351956699699 
0.1734602266538086 
0.1718101622890713 
0.1547154781541332 
0.1654373801554241 
0.2390813877641399 
0.1649495481423961 
0.2580333579086897 
0.1889381154795986 
0.2986984664952492 
0.1915771221673921 
0.2832077238349259 
0.1989731777258758 
0.2275442829984161 
0.2352108598397892 
0.249459474078997 
0.171698708008064 
0.3294298538309904 
0.1295884526658619 
0.2569256005377185 
0.1100974657210821 
0.2321087836279033 
0.1208206872323581 
0.216597912964013 
0.2049764054649511 
0.268744593939155 
0.2026848633986133 
0.2730611893723984 
