solver_type L2R_L2LOSS_SVR
nr_class 2
nr_feature 1984
bias -1
w
142.8332992398692 
-45.92650646545209 
2.553641185190249 
21.79253422994556 
6.556013157023323 
11.72867933669186 
-1.312676073699752 
7.082086081578668 
8.079201807437867 
-2.648187379434622 
-4.250901440072825 
-4.524332334187367 
-1.416031344821552 
0.04333234744588927 
-0.3528647014939501 
-0.3577013850098243 
1.199802915970075 
5.906619528786449 
0.3944926077202325 
-2.433590527708593 
1.426386322505415 
5.173063557236731 
-5.640756606508916 
-2.737939100723967 
-0.1153431769057909 
-1.188427389172318 
3.460218025812672 
-1.750858861401249 
-6.930478574566773 
-0.7481134089542669 
2.073988243455063 
1.937280534680503 
-1.597564166938806 
-0.3323229245383498 
8.439585932292729 
1.049862990885968 
3.425291319356013 
3.29000013318103 
0.124583635343704 
-1.277878096128386 
-0.3576598539710704 
1.214662594038683 
-0.3218548447312045 
-2.0968019838475 
-1.073010488202067 
0.3227812884890799 
0.5994668095384177 
4.522163905223371 
-0.4343405425124323 
-4.021214381143352 
-4.188218144008315 
5.306972474515489 
1.935553981987264 
-9.444251451368963 
2.98064995004731 
7.070538301682692 
-0.2898069978079307 
-2.122526446184837 
-0.6741103894200499 
-0.5302297752807429 
-3.501768768948025 
4.442811981939563 
2.105188112977335 
1.673936870781648 
4.423498252331119 
-8.038772055589495 
-3.754706620469543 
1.650508871977537 
1.679402696295076 
4.846779990527788 
6.813784981315629 
11.23491342582835 
-4.070988630551492 
-10.59823737968574 
0.1709594081066419 
2.340201326702038 
0.4517158547006701 
0.6256033840264561 
-1.138015874034182 
0.003754413971572242 
1.278983492268139 
0.7470862518787029 
-4.930193361569967 
-3.68943459913686 
-2.619539042281633 
-0.7608643748034107 
1.559774527567762 
12.15505961535396 
6.564867950075222 
-5.067740367436852 
2.13119510083068 
-6.552564914715823 
0.2018968033629091 
-4.43242282375143 
-5.46173771395539 
5.124498182875868 
-1.538889387547685 
-0.2418665484347056 
0.9706907257394221 
2.685606027728654 
1.066526308188003 
0.4610878095707273 
4.967642765632547 
0.9592464207106807 
3.883207138801921 
-5.734748592110321 
-0.9732105538603877 
5.027911964098409 
-3.137611690571151 
-3.641704456606868 
-5.972515543652674 
2.747122735247292 
7.570644054954923 
-1.339138069305741 
-5.429673730377417 
2.130424993173258 
4.545295678757653 
-0.2208015841738528 
-3.262174258735601 
-0.04325418015173697 
-1.223987003620021 
0.6304412478846634 
2.755191303063809 
4.00267206817689 
-5.56336503042932 
-1.79618521671138 
3.730592762871798 
6.232989458963947 
2.574517109950653 
-3.385310424563406 
-1.585007921798268 
-3.019230884417082 
4.301133722309158 
1.703269094642057 
3.758529220407919 
-0.9552984141730108 
-4.256679754543882 
-2.620638758454599 
-1.911443570150795 
-1.853630885295886 
1.004784769932037 
3.565534441141983 
-4.708855516576827 
3.315561970780937 
4.910306236151095 
-5.796270965530947 
-7.160789471115958 
3.910205249813036 
2.800157595947637 
-2.317068759026227 
5.653133356364323 
5.886619289035551 
-2.691002062124496 
-0.903374319181505 
2.401069249207332 
2.853348156534309 
-0.5210591829226455 
1.814771701367434 
2.220796974138851 
-5.265672581957928 
2.737309327743236 
-0.9296490193559452 
-3.26564391825955 
-4.324946435222462 
-0.3832035290541718 
5.78868613858346 
-4.890389108651529 
-5.406326566838669 
2.219860921867076 
9.269079598297411 
-4.401613847906018 
-5.048644285252299 
5.351772848052081 
-1.07078104189032 
8.735769515356717 
4.362361006932554 
0.5064814084723297 
-3.201851128358511 
-8.537581225308639 
1.99968928308835 
3.64387698774891 
2.081307501836707 
1.70905005736694 
2.231731796180967 
0.1669700835481171 
-5.109909396870527 
-4.35514200843236 
-5.448243414514663 
-1.059404522219978 
7.620122854182371 
1.459023243208765 
-3.266819417866278 
0.08507537227945601 
1.185251445385843 
-2.447914452146514 
1.134349208034763 
3.871060807328964 
3.655133500402527 
1.924636065893454 
-4.203422352616293 
-3.468822843149722 
-3.098125911019071 
2.830258253292599 
-0.435722891141239 
-1.365371329922644 
7.451383184781535 
3.088630412980375 
-9.000486431464692 
-3.82481973972046 
2.967678458595277 
3.146787832367028 
-0.7162507193982274 
-2.731772475714784 
0.629521187019473 
0.7146766676684513 
3.486778253060395 
5.2707512622752 
-3.380182088937403 
-3.625527369925685 
5.615271489296917 
0.182682339153259 
-10.3888253927947 
-3.619117752755012 
4.085105497679804 
6.215695302311883 
4.411297043714401 
-2.26480514034597 
-4.974894494553428 
-2.587722818509719 
5.101126409484706 
1.48938593691759 
-1.502364673316367 
-2.064319800493856 
1.231805615605164 
0.2116943820103335 
0.2062050403924632 
0.7679741422027722 
4.147519084896008 
2.237187807903699 
-3.177794621489909 
-11.60178063754962 
-4.698851425632602 
-0.9837311271602426 
0.5695767011467153 
10.45930592034372 
-1.851405308848957 
-5.346981515843311 
1.589492079145316 
2.475509041410255 
-0.1468441343451264 
-2.302054133484697 
5.583955470102088 
3.769849229301312 
0.6936170535994465 
1.54472653324334 
1.76331852626823 
1.933673689191703 
-2.385770286766215 
6.651944855722037 
-2.057456047108185 
-3.827618998619025 
-0.3844922581143929 
4.477846024735021 
2.394636354586732 
-2.748723930732201 
-0.2464631382132935 
1.665926933541763 
1.54745929727734 
-1.614108567555796 
-2.62219929772937 
-5.17508353528301 
-6.348063572548357 
1.031035704984647 
4.027492821680613 
5.855683656332981 
3.475453937975968 
-5.086143906804018 
0.3912531982250686 
-7.389354336910442 
-4.318564077891622 
2.108172875433593 
-0.2996351688799044 
0.2961333888337927 
-3.372350356492244 
8.092142087807824 
10.25613148407559 
-3.206289427652416 
0.3620272915744149 
2.571055397689519 
0.1490725930643796 
4.229585303606171 
1.225300272352006 
-5.667151512081648 
-2.174284438997359 
-1.742132649749482 
-2.329274700999874 
7.130116953039866 
2.219474192269298 
-6.652524517991692 
-1.932483416037763 
-1.891275120449605 
0.9345138983750527 
-1.017674472265316 
3.553045994201629 
-0.4016426169466755 
-7.231751079325598 
1.610186902166136 
-1.112122691146297 
-0.9604428906921045 
4.230982286675357 
1.124717402562898 
-1.47470977289294 
3.857526357475387 
4.994689137879274 
0.9364995876541299 
-2.771339504291472 
-3.508253451444115 
1.273828148595161 
-3.327232395389732 
-5.71300524252381 
4.115508448102584 
1.541206833790155 
-0.1744872428671809 
-0.5468139708682358 
-0.7858334090888859 
1.132007668958711 
3.227307391545991 
-2.003266247329555 
-3.469492945134727 
2.635728244304594 
4.937366975026285 
-1.618569239464911 
-3.715560163993888 
-1.656520296835296 
-1.16051008408482 
3.770280348531322 
2.602396145189363 
1.553007742588768 
-5.062033264819084 
-1.919216600607192 
5.36842110972316 
-0.7398799429770678 
1.944680498408375 
2.345119338544315 
-1.89599495251608 
0.6863101479270186 
-0.2670449271083765 
-4.492638095156415 
3.398602921774145 
5.457318066317108 
-3.296914513908506 
-0.3496536889405534 
4.330186670752126 
-0.2942994696187012 
-1.58600148822465 
-5.624058363845014 
0.223960081168287 
-1.022455600350203 
-10.19563614985461 
0.004606994547426496 
4.923759392872856 
2.029896803078795 
7.267992438943318 
2.442303788159841 
0.9253023568664432 
0.4584417725326532 
-5.927864004160355 
1.529259282701287 
0.6030924649852405 
0.226423910304598 
3.723990463423108 
-0.5204073071730291 
5.632060691724168 
0.578934136832584 
2.120790425052492 
-6.356570763153782 
-3.109927075746847 
5.532715107452303 
-2.18008027537226 
-4.736925369243377 
-2.522623493274191 
6.482008951570494 
4.58930539734749 
-2.421372631488515 
-6.318989182986434 
2.6386029702641 
4.940730059232455 
-0.6891813627033631 
-2.584832708025876 
-1.989614230917472 
-1.807758955647239 
-2.551751930832351 
3.217543335692207 
4.9860087747414 
3.093410804029148 
-2.102980198557418 
0.2417951941184049 
2.087623705879163 
1.261115904762043 
-0.002817210283399753 
0.0106777150073607 
4.199986135612047 
-3.125748360028501 
-4.087781652322793 
0.3386240707095945 
-0.44198766639409 
1.958484706503807 
-2.909307598498194 
-4.923395252649473 
-3.729055530272531 
-1.647240329094987 
-1.039690268345032 
-2.337582368061189 
9.023379795035046 
-0.03936458175778802 
-1.118133768061282 
1.558888646879063 
1.734324803788431 
6.622851828399785 
-0.9774634958005906 
0.6444607182605949 
4.006806216149574 
-2.051603198587006 
-5.955666324300643 
-3.929558755479516 
3.003680776843725 
-0.2205876201341048 
-0.8540792593770873 
4.168765065662254 
2.626532931088619 
2.764729652844146 
3.369573291907312 
-0.7444202900148472 
-1.187182820224842 
-0.8183451209107129 
2.88972073786 
-2.428100756657562 
-7.67098015326597 
0.8175293326454618 
-4.05710757475966 
2.522492346753345 
1.979632073738914 
0.8245027137198475 
2.453841586776754 
3.189124981666867 
-0.4706062946782415 
-4.479424632538382 
1.055231688872156 
0.4888212077587594 
-6.788970013680844 
-5.492137431514955 
4.238626298115687 
1.023301190158284 
3.504563155836558 
5.340516271216392 
-1.318361439983026 
-0.1740893376814758 
3.140446809503084 
1.331642245994205 
-9.684114851066623 
0.5270706744484115 
0.1107588400126622 
1.487539962882063 
7.530087692036912 
-1.523007601402901 
-3.987051316605768 
3.213132223880134 
5.180140208296847 
-2.502797642000306 
-3.026533365324245 
-3.323823055153199 
0.4551849001126632 
-0.1949669574865145 
-2.221155617090347 
5.870891691840641 
3.249458202640431 
0.3845174497305439 
1.094256232000353 
-6.257123663335713 
-2.865543639544097 
0.722689071078314 
-0.9023157837144106 
2.464681298299252 
3.016610955989734 
0.1180238720458296 
-1.115633452379595 
-2.226436816211659 
-2.575608207426082 
-4.588804533797322 
-3.060513160085625 
4.365083052407914 
4.920540311939025 
0.475189045832528 
-0.07013722792407742 
0.2892298698918996 
-1.54581111077209 
5.477050442548572 
-3.975314921357737 
-0.5953262387395087 
-1.413852414828985 
-2.090034977984047 
4.864422180281953 
0.4179756080421733 
-0.1670005287850017 
4.407596357798461 
-1.401085116425247 
-4.714708600851763 
1.526964559985723 
-0.3186039375589226 
-6.787845758770514 
-0.6533538586816027 
5.704255460996158 
0.04274653563396336 
8.311473284295161 
2.885219320834148 
-5.377715267166256 
2.367657284417137 
-1.491108046079792 
1.519549389598653 
1.121912956918193 
0.5040161405192805 
1.21946602309324 
-4.339349098870568 
-3.759535870540788 
-2.631774717302427 
1.323607906225164 
2.905026309184472 
4.962513153820947 
5.850010285764006 
-7.202610832041389 
-4.709720623517254 
11.53256690201536 
4.50813507081183 
-2.123274640153937 
1.653276726692019 
-0.9563665862634109 
-2.284762277553851 
-5.098507113140975 
-5.048251506506462 
-1.596819545344548 
-3.052762075967363 
0.437514316592598 
2.133108117770692 
0.8010606369714705 
-2.863234472918987 
7.564231770399712 
3.223759088628932 
-0.4373084814018692 
-0.1988766757137917 
-2.811542428305979 
-0.1951877735321761 
2.596730406944978 
1.138288795658476 
2.236277342016013 
-0.01282042220266869 
-2.339412751425152 
-1.845239600051463 
-5.014778684621433 
6.676334303536123 
2.771527760147124 
-3.266905504560596 
-3.12488088180305 
-1.370073169674539 
3.888113193716677 
3.807499033439675 
3.096253422972784 
-9.03235284323118 
2.64334538088444 
0.444728186581498 
-6.767292274171991 
2.077669241301233 
-0.1028827029724704 
2.432935004361074 
5.208264302539969 
0.4790468833851115 
7.530532086678657 
-3.289487801845304 
-6.916900106513209 
-6.656107019574385 
-6.075528303776886 
8.620667368486595 
9.250571057944718 
-1.304732235739704 
-0.7373100734233486 
6.562453911414455 
-3.104247720419609 
-3.598351487473279 
-4.277711573698576 
-3.653438210294815 
-0.3685504442174724 
-4.811906209683337 
0.8767717094807203 
5.998147596559722 
1.024908855686667 
-3.77667648338251 
-3.366106898520064 
5.345870297655908 
3.069575388275451 
6.940485457425708 
0.1699453200679164 
-4.148649339223824 
2.497287229203152 
0.1653518214720055 
0.8607968254118801 
-1.284632228818503 
-2.497902948370729 
-3.698893596692641 
-1.452914749315841 
0.9817702936270942 
-1.159240436004318 
1.065340911650418 
6.4236661814514 
-0.3708181444437722 
-3.787592805953944 
0.9673873301387416 
-0.646926338093155 
9.257497977235321 
4.351377026957598 
-1.979627864068604 
-7.569594834434588 
0.5957789071867829 
3.844872568661617 
-0.1508326132057617 
-0.800890114706312 
-1.868040715507941 
5.831597343442009 
7.326976752573229 
3.114296785002139 
-7.601688214928608 
-8.443227296562592 
0.5621475380106118 
-0.7544410678047649 
0.7957159651692247 
5.5480919162029 
-1.23728587092979 
-0.2846150430749128 
-0.4747463296699087 
-2.089696789631091 
-3.865758967830951 
1.234133528165913 
3.151268312835696 
3.13534628153293 
-2.049376821266677 
4.787030219367729 
2.826975690743529 
-1.201599381691115 
3.624215183626715 
-7.10800041844627 
-1.534652437192976 
5.723683377437447 
2.600785333704836 
-0.3727281274059192 
-0.2312270095253482 
5.295757239227365 
-4.407331032619638 
-3.207637561662952 
4.493253256186281 
-0.09754251594809671 
-3.340714042690027 
-6.286456649651213 
1.742624748494334 
2.383269666723901 
1.206659832770669 
-4.264829403427991 
0.5341721472554301 
4.408476978683657 
3.050176299877025 
-1.742040705391351 
-3.196082734508336 
8.733886339701748 
5.787268678351949 
-0.9515214954465308 
-2.564667435807408 
-7.511155025387577 
2.895361178108173 
-0.4817661346752435 
-6.748814815563456 
8.159321422326032 
-1.106818841242338 
-4.910649732668508 
-0.4873406072136323 
-2.228173793008635 
3.911972159479428 
4.613071458744256 
-2.177776849398155 
-1.196073837682043 
2.957957726962947 
-0.8203907510579372 
3.314038855768759 
0.1434995235481941 
-8.412156338313057 
-0.3310544107343074 
6.239597473158833 
-0.7195550508195727 
-0.102098837273423 
-4.703547165272079 
-0.9035539818636948 
2.493635646807858 
4.332124330500524 
6.086043075229002 
1.74771755920337 
-6.782533891977841 
-3.833244755163208 
2.121042653254027 
-1.772886396558431 
-0.6501713686080193 
-1.590577390113383 
7.027349912680844 
2.777483616334683 
6.045111184988957 
3.952376958671274 
-6.577325862485969 
-1.576198216908687 
-1.509673359626412 
-0.8427316869452941 
-9.379804451062594 
3.420355126745227 
1.783392026162228 
-3.970923845699747 
5.734303505468537 
3.846244517323327 
-0.6556488484113557 
0.04483111809280277 
1.607423576820841 
0.7724300197821621 
1.011989697297188 
0.4678953651610953 
0.9084563176812595 
-6.690176892455679 
-0.150110609301542 
-1.320345151525144 
-0.154548854820745 
4.70321607227496 
-1.774470538460558 
1.491506950938972 
1.096378614200551 
1.311238566146536 
1.398728996011426 
2.273897786098024 
-1.712493533092663 
-3.998516819408228 
0.9444195517087145 
0.4772543230242129 
1.533535259242174 
-1.38713953880358 
-0.7958717001443463 
1.351175469621296 
-1.935300109430111 
1.65875722319292 
-0.2893671811700534 
-4.042568766242378 
4.673669802817594 
6.360448133464772 
-0.262792564698063 
-1.806219116462174 
-3.627077530043846 
-3.204533260437111 
-3.169262180980083 
1.213214878724242 
4.014226052689916 
1.185383487857952 
-4.251433780742058 
-7.05043953939281 
-2.709469575264869 
4.765899957563747 
3.544888990142285 
-1.332798485418935 
-0.04472998560161328 
-2.023187296667353 
-0.1894783705862542 
2.324989728789415 
0.2210183799799572 
2.125531654464441 
3.86821010903985 
-8.264571931519264 
-7.784713706455255 
6.488573521743383 
3.538378546872587 
-1.345039466781636 
3.868247702314429 
4.806149358879652 
-4.362826217744903 
3.292405976324821 
-2.83845930947041 
-3.303191695461219 
5.692100683754663 
-2.588081652070061 
-0.5666437984827142 
2.677903522355601 
2.328220815041081 
2.408917263751997 
-0.4783889045082507 
-5.487824141874304 
0.666506585225532 
-1.15193134093394 
-1.038429387417459 
2.064390636418243 
0.3766764449765673 
5.396222417382784 
-5.595889234954643 
-8.02723262262508 
-4.898797321736568 
0.3384080171550938 
0.4840773607487017 
-2.818166612040927 
7.511697592290266 
6.949433099476011 
-7.055813266785327 
-5.706114791682846 
4.931472038057968 
2.71381371475446 
-0.7792311553839052 
6.429819868598432 
-7.668832426086595 
-3.833089232544793 
5.609264022607948 
0.4866341586158731 
-2.234830982770942 
-3.368690707662894 
5.510326329726086 
1.611818771963897 
-0.2879740052039581 
3.876099574465528 
-2.539949721686717 
1.376579000469083 
4.258696083375034 
-2.678192078417248 
-1.064252919630846 
-2.989844409077997 
-3.581745483547979 
9.149333785215562 
6.119317714401171 
-1.496335864200373 
-4.446682188596104 
-4.027570564264688 
1.531797029024332 
3.647432509992658 
-2.675717828154835 
-2.804592279021204 
-5.347278896099053 
2.803100572628722 
4.68806126913986 
2.391450055764301 
2.891586067115489 
-3.200803629881966 
-4.506360903435407 
1.156865217470669 
3.930149648799139 
-0.5807811876174649 
-0.8680883489930066 
-2.145252299696075 
5.086660355969839 
2.946930764916222 
-4.564635598736261 
-4.159040365214941 
-0.9009537890608963 
2.452086516937449 
-6.360196640359184 
0.3173431499054579 
-2.03313852779458 
-0.1963579899314929 
10.30133484351682 
2.852663291094768 
6.707054825976141 
-2.686953147073313 
3.755156282187365 
1.688721722968422 
-7.704422601176537 
-4.348088672549677 
4.070712928294899 
8.453369369471995 
-0.603760751560355 
-1.643320089730132 
-0.3584234310229654 
-6.659893102966705 
-0.1525976696832604 
4.317536769063949 
-2.618643075410322 
2.582765547653733 
-0.5606220330858471 
2.121808889269702 
-1.078111775947566 
-6.152535418431328 
8.895820836594156 
6.664900695580667 
-6.089916755723598 
0.8435139176331136 
-8.563927403633036 
-7.342362622386874 
4.954811462453812 
4.508550167570977 
8.174168122957299 
-4.766592199102603 
-5.379216760152621 
0.9296186853535647 
1.145763967853889 
0.303805096450764 
5.117909560281521 
-0.307644605769066 
0.5046756603902406 
-1.11886984312545 
-0.5381077048151012 
2.605758183413577 
-0.3385307405212196 
1.265940656990249 
3.580137914450616 
-3.240670931180384 
-6.747523779028093 
-2.995200087633868 
-2.534840565235748 
3.325326607234413 
4.065597078798844 
1.039314471556504 
3.954255800527611 
-6.000184830880515 
-3.582239637043724 
2.330049706081147 
5.529184925931271 
-3.718357333242399 
-2.193983708105727 
-1.445801718023314 
-5.433611826410638 
5.855164120414479 
1.83142803386974 
-3.72066471024894 
-0.8424131579618508 
1.844596359403937 
0.3663918221020309 
-2.04682903945605 
2.655137523088792 
4.093329469641218 
3.295487069674344 
-1.179992325072264 
-5.129137884093124 
6.413301622945438 
-1.113972896632931 
-1.59663119083694 
-1.467794517186451 
2.837630329414302 
3.574748498631887 
-2.40010124225388 
-3.861912320629242 
-4.749209673159661 
-0.07215721662880221 
5.76245582106858 
-1.651827915149242 
-5.67206159306713 
-0.4214164807634388 
7.032746523721989 
1.563905751868819 
-6.503345462664281 
8.983121247887993 
3.272801276866326 
-3.631791646921112 
0.7449226196840227 
-5.270007878599169 
-1.409383620332162 
9.240195632412796 
3.438600357375035 
-2.333821112733693 
1.08182524396083 
-1.877069309234353 
-1.808396967683307 
-3.671055418426183 
1.376432425798245 
-2.698156539202115 
0.992180128117533 
2.496723861482207 
2.850604843929863 
6.919341136414905 
-2.998329625897374 
6.38801122441948 
-4.050337818547194 
-7.897501976485163 
0.2160248081995739 
2.439166756826645 
5.301133635104845 
0.4866056982832021 
-1.788718510113754 
0.7216693352861822 
-6.779465602094464 
-2.105169925062544 
5.643087305936781 
5.198870598009203 
-5.885836190150449 
-4.295030054739875 
0.2395922609445548 
0.2115561791908022 
1.547566179316371 
-0.2320984277251734 
-2.199457943911142 
-5.215337913167859 
3.711227283043656 
-0.7598111278946452 
-5.734383568156884 
2.768185447057443 
4.143311663277446 
-2.840362701044107 
-0.3994602430105566 
8.762005511052198 
1.980472463164053 
1.376976507449456 
1.448577614811739 
-7.170560836927168 
3.006384395154878 
5.782720142870426 
-3.805536947977071 
-3.009443012385428 
-0.4853840652086289 
-4.042689254067544 
5.280779447139098 
10.6475668811681 
-3.965498879129595 
-5.760490380710272 
2.871720148307852 
-3.278292135627611 
-6.80661672572014 
-0.3264167040218272 
3.01669602106495 
2.527189763621742 
7.108055960938024 
2.646872179159605 
0.03180211247731806 
-6.302389502874611 
-2.448493254036766 
8.575020821093831 
-1.926965800421135 
1.912470960552186 
0.4821263416473532 
-3.136063665341141 
-3.521837679528496 
-0.7790342575856262 
2.677956273531316 
-5.251667937859064 
-2.28655442261199 
-0.2670649255699674 
6.319202745484441 
4.105200569080475 
-4.093096819775081 
-2.879333714668155 
5.612453091861127 
-1.39721473397916 
-1.444797744405474 
5.241208662608814 
-4.588743433994891 
-2.96506256064621 
0.57358338021219 
3.206193108449728 
4.500099857752359 
-5.05140443204842 
-5.769162738225448 
3.964438523118231 
5.360576744151805 
-3.034673130833061 
-0.3657185787556491 
-3.751513465615339 
-4.539907934302868 
-1.299508734428893 
7.531624449006935 
6.833807504803859 
0.918383029681811 
7.054739803981216 
3.94568437661505 
-0.3640341253832749 
-3.40831933639884 
-4.104223423803776 
-4.216757710696898 
1.616457830003495 
2.232166055975668 
2.966064419963318 
-1.280935330381684 
-3.521540731026484 
-2.114449239573912 
-2.380832746645597 
-0.9745645935619286 
-1.534381531696137 
3.716354126389335 
6.031316046016721 
0.9968005077685985 
-0.1151737056545835 
-2.576066153555604 
4.925438373954463 
1.125785723430116 
-9.613210187023846 
-3.289773250602879 
7.725207935082758 
-1.181694208359251 
0.4820681372002554 
1.701350979692136 
1.095457762974176 
-1.497854037163842 
-3.893244268315246 
2.417130754530174 
-6.453890777763491 
-0.6831523747399904 
-0.5159943024314858 
-1.567415868729115 
6.413745822278885 
-2.741475588504177 
-1.246939775346443 
4.668956650204125 
1.571463838583865 
2.395029788299314 
-1.450365650834715 
-9.51596170547203 
0.9218078673640453 
0.8870895006475752 
0.8043286607123279 
9.815305543323568 
1.239238871778549 
-5.212010223832379 
-6.487386584374141 
1.552556966412361 
4.347188741701297 
1.455134323540233 
1.316088966837173 
-2.561813783581391 
-2.560396456190205 
-1.377698782893967 
0.9765602083862696 
-3.489552563706377 
-5.314430053802361 
1.045129697255748 
5.178997543174948 
2.433154497023654 
-3.701457630821101 
1.549646300029522 
2.461216406800206 
6.81279961723597 
-1.030188262804518 
-3.561887640146017 
1.717985234797309 
3.213441472220461 
-0.9190147009365548 
-9.550201060515272 
0.4102129942234052 
9.204178826703924 
5.250422252159777 
-2.491775680725352 
-4.03445254270087 
-3.374666883842091 
-1.032681016517842 
0.8098895113405959 
-0.6482254995511758 
-0.1552021812429226 
2.477276406936936 
-0.7363284619405243 
-2.829344015315951 
2.825340626459938 
-0.1141664715500843 
-4.143180528042009 
-2.452669286971532 
2.90999987980073 
5.764543855492556 
-3.987892769106612 
-6.646969982384665 
5.883500327853982 
-2.152044500615138 
1.924972432898002 
0.3136685575669794 
-4.77197057332191 
7.915281348692762 
7.064057792577425 
4.974365611521452 
-3.14818624601758 
-6.823193219649697 
5.658540687711574 
0.6019911935672375 
-5.861424233137084 
2.051718822503552 
1.889437699083788 
1.531464116846295 
-0.7885094882697541 
0.7680650824630247 
1.73531683556758 
-0.6361536625535884 
-1.975265758015806 
-2.319985404326087 
6.617876427162955 
8.021639834613799 
-1.059661422154671 
-2.717449632317662 
2.751819046873588 
2.874867500483641 
-0.4178363228115294 
-0.9865003085098578 
-0.9917320187999124 
-4.134773397578869 
-4.461061162064746 
4.849591389386195 
3.782153480735255 
3.094263135201673 
2.471382436275963 
-3.008935548769646 
-1.598650280249183 
0.01954315926974237 
0.2441984024518207 
-1.927939530625274 
-7.34693347056708 
3.693848180363724 
7.304827583985027 
2.466993984540399 
0.7013977736295107 
0.5679567549967928 
-1.133869773211101 
-7.586209953809759 
-1.583348065213475 
5.759608254404792 
1.208258296510969 
-7.038688584471387 
-0.8005791062904978 
-1.220092078505071 
-0.1699080036151412 
-3.986304460875613 
-0.42288996870983 
4.961148819759813 
-0.7745964209951128 
6.075877594293075 
-7.653202463053727 
-7.137040423305526 
0.9464290314277333 
6.756335113096136 
5.337158042877447 
-4.634881486558672 
-8.183342174779254 
4.233455038376143 
13.00250165665623 
1.075680088930596 
0.1847690817032039 
-1.884062822699015 
-0.3242901737277373 
0.4650211577201805 
0.4919130065976916 
3.338801467711079 
-4.273272586116869 
-1.77160575411105 
1.088001118975188 
0.8935302960796109 
0.5015804740786309 
3.882971258358595 
2.271675161583706 
-1.069302339567911 
-7.795086353477615 
-6.788718278292951 
-2.04249085050112 
-1.975364497664909 
6.098464144043442 
1.83121577895023 
-0.5535867013014421 
-8.171444140556375 
-5.365802320525566 
8.50132724537629 
4.411147665570171 
2.227541655527116 
2.650233060972806 
-3.54812541416087 
0.2878192493270457 
2.458825321386207 
0.2149763780756492 
0.7301523250016855 
-3.006799146138278 
3.088873800973752 
6.095469554800519 
-6.782231195347717 
-3.279368587959163 
8.831238156321561 
0.9448655685064135 
-4.646573625735712 
0.7128348977386691 
-3.782214493143687 
0.6371324074584064 
1.11919142560503 
3.092994790849785 
-2.407433551770219 
1.644300327553277 
7.704148043517372 
-3.596132686351491 
-5.766269586008133 
-2.701824612089073 
1.752851720667468 
4.883615873892497 
1.863635689047681 
4.749740757180958 
2.714158144172198 
-13.82571971924676 
-3.613484856964363 
9.367536889598799 
1.586995587321591 
-0.3848335273260259 
-1.798590731881398 
3.290506621560986 
-0.4346180256184645 
-2.28460355081552 
2.9442896712394 
-5.804465459652542 
-0.9572099773221286 
-0.4926911336500598 
-0.5452034731470168 
7.284633071607674 
1.329123480103745 
-7.293116009710334 
1.982145410349307 
-1.216816640748614 
-5.133200554020853 
1.072798360582402 
3.176457225077419 
3.910752531391172 
-2.496267874978654 
-0.4223689895450635 
0.455945131363594 
-5.302605851161052 
2.281981658318496 
7.834386732181877 
1.827386027564144 
2.165545615311438 
-4.581646483562013 
-7.841829391740382 
3.987794379070762 
-4.22969578739527 
2.757559688746106 
4.611042856758192 
-6.723377277510988 
3.275249677501356 
1.19333761980987 
-2.932653562183642 
-1.698537566423582 
-1.269010667906855 
2.630526795765117 
0.9878923016293024 
-3.801815155665176 
4.783692007957984 
-2.955823538903355 
-4.634746749747652 
3.755242259090558 
4.871729336598962 
-3.58484647689825 
-2.918226054415897 
-0.6241743482184997 
-4.421782460464046 
2.074155920852763 
-0.773608230659767 
2.262024937204735 
0.8140842807836248 
-0.1435459121891842 
-1.099294825195382 
3.373201263430131 
7.031636736627389 
-0.1234874915988303 
0.6306525938289554 
2.208771885934512 
-5.430150362186075 
-4.482680624878756 
-0.7127930699594901 
-5.393413102644637 
-1.533168234612299 
5.662311739842502 
-0.4734493963873688 
1.680482905503492 
7.163686657629258 
-4.656231046402153 
-0.9280667087230858 
-0.149806854667541 
0.9293733785302601 
2.566172244417053 
0.03645723340450336 
-0.3801816804421996 
2.939423263272803 
2.595114919278186 
2.851546263160621 
5.5761374750209 
2.454215850346687 
-2.813497457459249 
-10.70896525629458 
-3.618269374570151 
-2.904474115324593 
6.372490500930787 
3.972303797061755 
-0.723348033355472 
-1.083542585193641 
-1.887761277326039 
4.507030882774941 
4.625404107145092 
1.744101305728889 
-3.443655548505606 
2.147545617852182 
-3.161412944867812 
-5.494365260983586 
-3.069327899567156 
1.286957622930754 
4.265108124243802 
0.5222324347351748 
5.258217006989919 
-0.5769032804643074 
-5.870017074605827 
-0.8721911613666316 
2.055502957008646 
1.934413914928706 
1.933207362533838 
-1.445318468920885 
-2.144466112344754 
-2.246638189035556 
-0.2877645823788111 
5.83614194718835 
3.852939813238805 
3.388901390601222 
-3.6215134944276 
-3.432098075256688 
0.661328915521439 
-1.759786480302252 
-2.027901575669012 
-0.5026194902993544 
-3.910914659325571 
1.383873171384515 
-1.860105650938506 
2.189898577797227 
-4.27592619361291 
1.120928668406506 
4.509078190009855 
-0.9564050047817886 
-0.4398453858267063 
-1.953675198655465 
1.169217601809632 
0.8061681275708052 
2.966611781405049 
0.4277940834770276 
1.724402028207967 
-4.048867374117658 
0.1094880000041593 
-3.527349941228168 
-4.744849026216651 
0.02550424793549274 
1.233635125600217 
-3.122073887889809 
0.3328508036385217 
6.994344927577989 
-1.037027672213236 
1.07332512186328 
-3.302662581741703 
-4.039046968451935 
0.4340127904848601 
1.573675213550782 
3.407952823225954 
1.339556571196131 
2.835808302917172 
-4.77728465982289 
2.907352531086051 
6.340806044558804 
-2.451902537795206 
4.009651586043857 
-1.01979137028214 
0.2622170443305332 
1.901873176811262 
-1.554820497864368 
-4.169201476178107 
-0.721863669996355 
1.183557237374656 
5.33758102047576 
3.31704835659125 
2.199509678686967 
-3.388401721861124 
-7.974895324658966 
-0.1430135081254242 
-0.8705644489693738 
-0.3412221152473023 
3.867121397241479 
2.281306311258231 
-2.675732485635065 
-2.750237644957375 
-0.5028589262701565 
3.222317522556844 
-0.6724483688955605 
5.636779663677324 
4.871789666137865 
-4.664586669247101 
-7.319836544905942 
-4.531165388468692 
1.53808443535555 
3.759990079819559 
4.080184876033637 
-5.015607721283782 
3.182174325642801 
5.296483831851797 
3.188640485243987 
1.932777829548417 
-6.229208957512675 
4.811876374881072 
5.07860369865803 
-0.4353462878252405 
1.236969299084805 
0.3940426479886639 
-3.567999745977458 
-4.504614986213498 
-3.249893280415108 
-0.1241299741835416 
5.805232931196864 
3.164230362515911 
1.102243798712417 
-0.7273217352156124 
-1.674931875647519 
-1.320789664238884 
0.6764734160056515 
1.373179870633452 
-2.709347004975994 
-2.369436469381064 
-3.043557250201322 
-0.2801412462784296 
-2.340131512324305 
0.3915010964459097 
-0.7827729401138985 
-0.8939310639871867 
0.6850408967593937 
1.128471968280857 
4.539449392266068 
4.79296422779387 
-0.7611416319575439 
0.2372977578087046 
2.773422814997359 
2.999486544802931 
3.069882458424648 
-7.665320028421721 
-4.503048116355924 
5.027098568657296 
0.04702161648322487 
-1.280356179297859 
2.012830621171205 
8.39609669786975 
-0.3909010130730409 
-6.748962751534297 
-3.057144710784291 
2.79693067507848 
1.66545499390622 
2.116197608263667 
-0.03843023942722652 
-6.145529207617865 
-3.985461321222363 
0.1474748442569465 
8.143024230084642 
-2.035606661669195 
-6.25910930228314 
3.263288124519861 
-1.954913954529524 
-3.303277226173551 
-0.3301287449949883 
-1.267264413065742 
1.312789552918991 
2.760853078789409 
5.21142380339444 
-8.187026782185351 
5.035396451924671 
6.879682053657119 
-1.427311883401845 
-2.02728016130665 
-4.124985959739802 
-0.1157775909633223 
-0.4491055734065311 
2.406249354093617 
-0.1178623100913804 
0.5287330896261431 
1.373430266525588 
4.476063579427989 
0.03317508233317799 
-2.250526136292065 
2.224890854250359 
4.217885440802194 
2.633579271331134 
1.044095280420794 
0.6074257957338534 
-1.885080785453708 
-5.567769110665671 
-3.237893840097457 
0.9675964269400629 
0.6817338559974768 
0.6423222100574225 
-3.968720694301562 
-1.843000948198446 
1.670086194631875 
3.542961031661211 
5.171462585697634 
2.854411770373658 
4.200415249945538 
-2.53009088367767 
-3.683060988292719 
-3.190425120065924 
0.2152516243086209 
3.269228755678649 
-2.123113363733974 
3.834002594220866 
1.333992536875356 
0.2868224142468265 
2.357518750002478 
4.155604265120743 
-0.8242234298461008 
-8.384901803554811 
-8.458892180757941 
-1.398791540091075 
4.692351039783897 
3.601026683454004 
8.853550371080539 
-1.229854342706399 
-12.00102211353094 
1.425042385439802 
-6.045234409226893 
-8.695260466488801 
7.521695647119736 
6.054466598787987 
5.892135117452277 
-2.184969491349308 
-1.206683553198753 
2.724604866816175 
-0.767238737160766 
-4.786031988457742 
2.896418281139472 
6.696851164738791 
-4.38341580416072 
1.877827110224933 
-5.930540142322315 
-3.000028196998542 
6.504794940809139 
4.47508981326212 
2.553485710544468 
1.62496403061942 
-0.622933543950028 
-1.278871835420041 
7.652052951873769 
-0.6724167658514233 
-4.875035774238533 
2.246475819127022 
-4.503733237309793 
0.6486429025462388 
2.291739429179465 
-4.517576244559026 
-4.555047898252555 
-3.207677745325377 
5.798075733556528 
4.460693376443549 
0.3599493475284564 
1.055130530395889 
-1.555529414468297 
3.05210005226334 
-4.405297109256513 
-6.044143710939344 
0.1031918395858401 
-3.571252199679766 
7.243115986234384 
2.283626966431813 
-1.404039680180938 
2.420713834855573 
-3.088070329452484 
-2.463608222676644 
6.062718257888154 
-0.7952482908206678 
-3.902655241562844 
3.006606602011859 
-2.088535877496504 
-3.826519292318077 
0.08134799137432053 
-3.374766165731353 
1.825263741180962 
4.097900344393972 
-3.593614837153401 
3.252079747264087 
10.36565815733977 
-0.3547240924542335 
-4.762152551156808 
5.159104150027829 
2.117722931414096 
-0.5632602109333084 
-4.392943578762077 
-8.169028253212215 
1.389386211789616 
3.169353356441951 
6.616610533502887 
5.062678204508407 
1.699909083593594 
-3.574181249185922 
-5.455482720158953 
-4.634881694385561 
-0.5126236210866569 
2.042055612924394 
-1.819411923245332 
3.077868077710996 
3.256169734762618 
-2.951151277799606 
-4.645717418782635 
-0.641246275597364 
1.785704839207081 
3.569193566101098 
0.8315150940486516 
1.474175208711711 
0.2303064814998259 
0.9170828303313844 
4.526959222391591 
1.996109768658473 
3.479119489422669 
0.3049141345789634 
-7.519898214140811 
-7.028715010466388 
3.298165417113057 
4.331438025626239 
8.256280366930257 
-0.1393823960493152 
-0.7384566386466673 
2.657182251865839 
-5.126943081969946 
-3.40925694362772 
-3.677125674057451 
-1.241452042928657 
-2.577323771330576 
-4.028534061714254 
4.970520791840713 
8.273553138446401 
4.290976805757374 
-0.9431237183238896 
-3.400453573701972 
4.987975293675538 
1.904342005431138 
-1.060417680088727 
-0.589387393183476 
-4.757028018680415 
-0.9498842367746493 
0.6545861888018519 
-1.542882806508131 
-1.886363878357717 
-1.949154575369916 
-5.319688994153851 
-8.241833485389353 
3.261370464544509 
10.56402458927557 
6.676046103064636 
0.7517023435958423 
-1.48363135448427 
1.822856228303448 
-0.6378088967493885 
-2.146417656365574 
1.462647703078987 
0.3865126993354946 
-2.576999033203736 
-1.800793606763051 
-1.085559397255896 
3.880538986126301 
-5.300069437008657 
-1.495715824799979 
5.575537888067616 
-2.242983959902721 
0.9166967225900566 
0.8279892680267402 
0.6882828641864762 
4.193720236953867 
4.763387697056822 
4.111446804432446 
-0.3695056221538676 
-6.878713407493554 
-4.441780645705069 
2.336406455804627 
5.557868532689771 
3.591484124648146 
-0.5779310829507114 
-5.665820334312994 
1.434136089030175 
0.7191054756376319 
-8.18038579195925 
-0.819290936240206 
-0.9676308522445241 
0.9907448094143858 
0.06655999597757693 
-1.981565958852089 
-2.154332120729903 
5.044013765091174 
4.376823974603605 
-2.673722963060948 
-0.9510872111833414 
1.178564858759152 
4.365283150279676 
-0.3484838072257867 
1.347065792785328 
-4.255541687862024 
3.230200523753013 
2.895029415511314 
-4.647175779564359 
4.805083015871587 
0.5903206754077037 
-3.610079854700422 
-6.211736601061254 
2.192518576513405 
6.569040930780294 
-5.052595469693776 
2.777251585380685 
3.120844015214078 
-1.445242632456257 
-5.313920967024863 
2.852383361219331 
2.08261208597926 
-5.271786522629066 
5.092771031424819 
6.564723246293275 
-1.98274364742402 
-2.872423019203354 
-1.139544161064568 
-2.328785594725654 
0.1592039109990757 
1.264263558104377 
9.170132385995018 
2.056316986708225 
-1.13945534475203 
-2.666482198801774 
1.269466364679138 
5.382536162543503 
-0.3099241243089113 
0.2610970482953535 
3.797810360115163 
-0.09035754616350113 
-7.356666552580572 
-1.692270136489426 
0.7165945873386413 
3.487962845443389 
2.946839472976561 
0.6115725878025008 
0.5203128939263655 
2.116147935328815 
-3.606273588441931 
-1.324819990562626 
0.6579859976848121 
-9.190271960089817 
-0.9576671411123291 
2.787588062756035 
8.264758551198108 
-2.651774969953984 
-1.737943277814144 
3.927217140369513 
-0.2052148778439768 
-0.4785224140555946 
-4.569137137600304 
-0.8834749021590247 
0.6028380888851936 
0.199166114142275 
-0.2627931105977542 
-0.4048121525849986 
1.744421261090192 
1.60679961310999 
0.7821781492874174 
0.04873679111036039 
-0.1615002400198709 
3.151829919842827 
4.263435799374387 
-0.07986694710007515 
-3.636513959699066 
1.288811526752619 
2.336611098986729 
-5.714570421705946 
-2.014632267444072 
1.978113920284975 
-5.89595044466305 
3.593873985156251 
5.986096243666524 
5.497456440877141 
0.04870909041406492 
-3.553319517820022 
-2.844786202132831 
-1.714959041717061 
-1.998641863707304 
1.394744809652244 
1.80691220560008 
-0.3786248118677888 
0.5381083965043783 
0.0967404720413978 
0.5432237732436828 
5.150664416076673 
-1.559621466675094 
-5.256609946777214 
2.630228239588471 
3.788959853433478 
1.222969168867441 
-2.637195244600819 
-0.8205237972402207 
-4.134895798748828 
0.7832996934453634 
2.069992729958393 
1.343638468615554 
0.5187495436026417 
-0.9500504759902898 
-1.054223996340258 
1.272339393405388 
2.707081205603883 
-0.6824300408189048 
3.923886814871479 
4.29005682973112 
-3.226882259748253 
0.4250802049334411 
4.643077534876553 
3.906136384559615 
-4.163149255149075 
0.3354998661399025 
1.209024905088106 
-5.416017150248365 
-4.168169826727958 
-4.094983974364886 
-1.59018263257294 
5.793113615539434 
0.5256818871594842 
-2.152566033412878 
6.076596698090734 
-3.146768220401979 
1.585292967933236 
1.004809179142642 
-3.087050416420105 
6.229094484072963 
-2.969028452005191 
-7.728790341931351 
-2.2293816371296 
2.046256491720522 
7.230613087883565 
1.988868027223208 
-3.555157749050341 
3.924759517850058 
-4.024563328953901 
-5.674042021311066 
3.29961271508555 
1.813427375360674 
2.566073559196141 
1.325103211580403 
-2.093062646149946 
-3.14956578700933 
-3.418651722558135 
7.960252803971941 
8.847020148403004 
-4.205200862001774 
-6.251981387396388 
0.3993591502339237 
-1.285968645712075 
-8.289277095947904 
4.468051012721816 
8.47689394625294 
0.3250501104964063 
2.958698170108171 
2.493408553503088 
2.363440742545779 
-5.564863205179281 
-0.3037409518416919 
6.703407988735675 
-1.366518482346872 
-3.8562320570188 
3.87460088885955 
-3.094500398468816 
1.368274504485221 
3.015949668879362 
-3.586857364335925 
1.509398388565135 
-1.924060036010518 
-2.758088642292317 
2.34910768479716 
1.196517181315401 
-5.952097643840401 
-2.405449251584112 
0.6982707834037676 
6.555073131174335 
5.670197255803144 
-1.020332185659798 
-1.575882745600557 
-0.6610095973183286 
-8.340885677448098 
-2.255042510675494 
3.48985555209065 
0.01333117387856926 
0.7009058449300951 
1.374860332145227 
5.2036498905688 
1.163550040758353 
3.264477577429578 
-0.9695307057145901 
-3.960334282268654 
7.233936805434428 
-1.308452925236683 
0.2349098601085473 
8.691023183668197 
-2.139765304899618 
-2.513921995123801 
-4.319565367552976 
-3.332148868504967 
-5.999165817770225 
-2.0994744405422 
6.684937957928645 
4.903757781817403 
1.8118323679519 
2.192958035166667 
