solver_type L2R_L2LOSS_SVR
nr_class 2
nr_feature 1984
bias -1
w
129.2930497163188 
-61.97937064304586 
3.366810703263546 
27.86509654213994 
3.943470816547745 
9.158455948942805 
6.479851960587302 
4.314715525874891 
-0.09668881823137183 
1.702214028496917 
-1.297025053012087 
-1.790594808590289 
-1.081949109844259 
0.3374961204794361 
4.095084565843156 
3.570170834020885 
0.8140531906446066 
0.8126380777347334 
-0.853565527931244 
-1.957434169837633 
3.519095643898463 
3.50199827219387 
-2.256304825509877 
-2.451266218802477 
2.216013116513896 
0.7220559691138908 
-5.772584272773635 
-2.515823388546253 
-3.101367366592834 
1.798982029212026 
2.166137961230161 
-1.135253037124783 
0.9975450707095378 
4.407937977006887 
5.592500808282667 
-3.830982299535351 
1.358284724835863 
0.9457488981416079 
-0.2840714199268406 
0.2522808257725102 
-0.8023139645474822 
3.213361570462573 
1.324614009975398 
-1.505608561584417 
1.407717714416094 
2.019698305416659 
-1.339309398629147 
5.085596485813991 
1.465961110947319 
-3.004320433458708 
-2.380665323077621 
-2.353476689633287 
-2.637162137024395 
-1.353828465251933 
3.920196245507871 
3.574772788309883 
-0.5660849910408728 
0.9277560110025139 
2.842669139663831 
1.646759079774648 
-2.292623252139637 
1.743818974693173 
-1.771236928555913 
1.354136117123378 
3.661871224430068 
-6.671158135365741 
-1.80806588078013 
-2.764326910833975 
1.20957288787143 
6.478924060578974 
3.968438043844889 
0.935345892154264 
-0.5458038830459138 
-1.954542183575039 
-2.89739571139065 
5.243455712494469 
-2.321532133915591 
0.3677336315642419 
4.831507848971986 
-0.2299040316774478 
2.920388014125004 
0.5996658987186015 
-4.182378800056815 
1.567681061444566 
-2.518212236784979 
1.300169215210796 
2.310739407234398 
-0.1237221642004976 
0.7350719853065097 
-0.6442382328923741 
0.5147819001047679 
-1.30313454950104 
1.342346197788739 
-2.562495999086119 
-1.878445806509212 
1.97351132765608 
3.384056516485996 
-3.9589604233205 
-2.192848247390302 
-0.3531689026634688 
0.9952576390303099 
5.093560559985557 
2.855354690969655 
-0.3984765400646437 
-2.312859607961249 
-7.286334524167676 
-3.796597116620814 
5.437418746268771 
-0.01923255544339579 
1.341406662899204 
0.1988623606530669 
-0.9225695145673584 
3.257307149124697 
-5.394303268170692 
-3.904431139880515 
6.552816283141295 
2.410978393748231 
1.310192031501967 
-0.4196226914653579 
-3.178742722302037 
1.089856499286024 
4.154617152677034 
1.245524829693229 
-1.306412631514641 
2.669936673517792 
0.353073007460603 
1.835668613451142 
2.702898938907436 
-1.729762676790888 
-1.487797381932354 
1.564842560581901 
-0.1186116837233662 
-1.746309776349183 
-1.35061893712336 
0.8456497042159131 
-1.895992574896893 
-3.060896379805425 
1.117810631763279 
0.141914065875606 
-2.262851083286631 
-2.494343415537345 
5.686440237840684 
0.5073506593283706 
-0.07430131896033557 
3.988287006907532 
-3.696634701484734 
-2.432655207329131 
1.38383849552928 
1.951504120211584 
0.3878713985672435 
-2.583404714119095 
6.374229640936423 
2.486186796842857 
-1.366299204039136 
3.058943146461639 
2.991480537614681 
-3.313881032141642 
-3.336458760792584 
0.6230390835226163 
-2.194178590892439 
3.105482878243115 
1.639975782604792 
-3.721007352715942 
-4.694967453993929 
2.178115788236184 
6.892755289043402 
2.963590486567143 
-5.950956087241638 
1.666831020003259 
2.25367852218496 
-5.613708000444249 
1.673810131637621 
3.469171306551143 
-0.191849582577789 
4.372183919747274 
3.815370186388776 
0.2583930358264189 
-3.947687923319708 
-3.980672367962839 
3.519395037822933 
2.591810256342065 
-2.201285090935792 
-2.269023062803878 
1.398572215284421 
1.614457681870161 
-2.857353866591385 
-4.175234736093266 
5.345540901515984 
4.621173420190425 
1.472461582091461 
-0.05632608482378437 
-2.265610909297948 
-4.663570795430285 
-0.4202216973806125 
-1.153154359224522 
0.8208772998362267 
4.453271807044196 
3.92513223193669 
-0.2584671611947182 
-3.945509398794383 
0.3869366699565412 
-0.04432863536412798 
3.24812366931492 
3.01533551734336 
-3.819282492196036 
0.699999726868974 
-3.367887864931442 
-4.229800218356044 
-0.3823554573125907 
-2.497963097238488 
3.350825162977108 
2.136350546945349 
2.889095445380677 
0.08078853049967426 
-0.5575076113365114 
4.477187814129433 
0.5433565538566139 
-3.315489842256233 
-2.285045445301228 
5.678602974830651 
0.4715799096237086 
-4.516699705154634 
0.7727249204719765 
1.254716984132768 
-1.81157407327514 
0.1491071184478312 
1.624509491366822 
-1.996242536459295 
-2.522662023760826 
0.2293187809723727 
6.150889276754902 
0.4312386293318493 
-3.447823820975397 
0.5311904880288907 
1.297430642772562 
1.675070128987934 
3.135133509222509 
2.917689573481706 
1.046326184244218 
-5.485271981164441 
-5.684622860481894 
0.9631751285854787 
-1.480824749730912 
0.5646510844593877 
8.706493358038086 
-1.007914524150761 
-6.203446642110884 
0.4839771126761519 
4.744085068795607 
-2.422279254474461 
-8.385922693697824 
6.320180358088953 
3.459799847370708 
-1.289939962768705 
4.723990705780349 
1.694467198438381 
0.2902167811738939 
-1.106459874696342 
2.641984008398548 
-4.409432661209736 
0.3772838574912942 
3.802314305702726 
1.764228240119298 
1.3242193967192 
-3.388299673304933 
-3.836082220068333 
-0.7563550842285977 
2.610939803217811 
-2.584761229693837 
4.018831401120013 
1.453628759113695 
-2.253270181931864 
-2.120008965709457 
0.8744948052398721 
3.358437514234996 
4.719656523263332 
1.314255495490428 
-6.271491548167631 
-1.04654766631632 
-0.4707903677101786 
-1.464816184981188 
-0.6737611769747844 
4.822049682516021 
-4.079565595904671 
-2.416615738327875 
7.060610206745507 
2.613799079290746 
2.137518532167285 
2.059499826205008 
-0.3481606077855086 
-3.025492227888272 
0.9200430159747023 
-1.052611345726673 
-0.6503554239922438 
1.817534296698683 
-1.337969861675889 
6.01736538673416 
2.247509622483949 
-7.795707964723893 
-2.749549138495357 
-0.3504857752188849 
-0.09824367849067739 
4.358457233220508 
-1.293021429716502 
-0.1679650764595836 
-0.015376957399268 
-0.7787936484214277 
-2.916474739184556 
-1.193938211251322 
4.874675409863043 
-0.9174934588568663 
-8.210081438060207 
0.6688089300503495 
6.233705669177517 
3.351340809036397 
-2.358094101393263 
-5.633036186233332 
5.015740265197936 
0.4109299613888224 
-4.549544666272407 
2.827718803284652 
1.298044806536852 
1.064225323978739 
1.110183803233175 
-1.330046426946052 
2.859055867874763 
-2.270136437185239 
-7.227344972411421 
1.51900200071133 
4.254101012337587 
1.375298159269224 
-3.142760903979479 
-2.636983406651884 
-1.411071068999242 
-0.07033381016557573 
2.484989637818618 
7.546237074562135 
1.170089145832415 
-4.149745685833532 
2.412827967108763 
4.089063539114381 
-3.786674271903326 
2.443295030755881 
-0.5636243552573371 
-6.154378632559556 
2.68682367599392 
0.8296942604679426 
-4.644020155813633 
2.636817230256816 
6.508324944379947 
0.7013499828507451 
0.9165832521390802 
1.760176574111033 
-5.116194854226768 
-0.5841847983631885 
-3.935799418747955 
-1.389204447949909 
2.610020998110517 
-4.102785751879603 
-0.9480585078376008 
-1.370739606983595 
1.080867460812883 
3.574139479839824 
-0.3114160180502327 
0.5859291506850054 
2.627579910122189 
-2.489427985222572 
0.7864483442129423 
1.504232449308053 
0.8929751261500377 
3.318864314924555 
-1.581094132192066 
1.148510725812258 
-0.06478621235589045 
2.92981303132992 
-1.033970809350335 
-2.984285062170951 
5.733410875756483 
2.735060217878144 
-4.538468061694919 
-4.323108890764385 
2.812538831773034 
-1.097932443100552 
0.2682352415779576 
1.789185049447822 
2.508379274444762 
-0.9622588198429769 
0.9434064660479738 
-3.488282787247801 
3.403691987120617 
3.00037273709601 
-2.494829940057369 
1.18408277022262 
0.7903213180986152 
1.794087811436288 
-2.198234013396744 
-4.46791288421067 
-1.907457435088596 
5.501511885954353 
2.436963936030144 
-2.062351103472821 
1.737778067828649 
0.5317419543099695 
-7.255825469638282 
1.7971705279224 
1.938630090540087 
-0.1438067274046834 
1.255778084248983 
-7.908848785827849 
-1.066757376424695 
3.437246327076041 
0.8270317840676135 
2.013296763525178 
2.078767098793135 
-3.872825713952936 
-3.273014608540318 
2.073363467390855 
5.506533983640945 
1.261918612507059 
2.577605344738217 
-0.6298462331294279 
-6.123329550257146 
-3.457041380069299 
1.011191048371053 
0.8356439187011022 
6.120698489890516 
4.152764861271295 
-2.200249697083857 
0.842357086464148 
0.3374451146982196 
2.495276981430085 
-2.64967410249321 
-4.886123080753277 
1.834393121887494 
4.854866552068434 
5.777070844440117 
-1.441832466291261 
-2.586377697454099 
-0.2028411209467037 
-3.176014594329338 
-0.1941664987652776 
0.7495286480771048 
1.180567675437828 
0.6791740397831849 
-0.00323544137317615 
-1.883992315987478 
-0.7243564656981465 
1.558901911383409 
3.499119746901779 
-2.506618803011637 
-0.8732377371406445 
-0.7283237416330076 
0.1032863253257705 
-2.001134451497669 
2.76250250727573 
0.06954301123853891 
-4.442009907301713 
4.962521791703252 
2.614835564146222 
-5.467295991536433 
-1.671762636913302 
1.094382935122333 
2.750814632570441 
6.101165796886356 
-1.768853603335732 
1.436805328734291 
2.721298411985499 
0.1248099998748392 
2.290490242131844 
0.02679841928626032 
-4.168820381303276 
-2.000875063520652 
-0.8005859193675756 
-2.962935527066371 
-1.30393471437333 
3.601146884066358 
-1.426680069680932 
1.768962680243657 
0.7133364766604597 
-2.851266707280709 
-1.650024308859466 
0.5592027807590276 
4.852362954238324 
0.5222486732196756 
0.07191174596273579 
-0.02774534018359244 
-2.723936148973622 
-1.314278066924823 
1.989726675913659 
1.45026667565499 
-0.08502477505149042 
1.332515073597591 
-1.133096500414462 
-2.025817890056104 
2.566835414669979 
-0.4340235435323184 
4.206356083284311 
1.350989316704739 
-0.8500766682070904 
-8.672584036499762 
-2.30063549359731 
2.797253922758437 
1.308745475173904 
4.706394801240784 
-0.2269525020354635 
1.465852668197278 
-0.06273594104993155 
2.065101148273595 
-2.715905574920357 
-2.35231113828406 
4.170074563757808 
4.148780108053045 
0.8769879217019282 
2.577726248213443 
0.7335439008616934 
-2.208715383669117 
-3.360135240758733 
-1.774867634523624 
-0.6356554795464824 
-0.02511861535850089 
-0.3025399149519681 
-0.8682501929666384 
1.15574125063707 
-0.1243664796184485 
0.5238593254654527 
1.428775870651274 
-0.3820374670152989 
2.32163357273182 
1.045387276224654 
-0.3286865306754189 
-1.848706652286492 
2.627456009966799 
4.310655519707923 
0.7121427809994115 
0.4383323422759027 
-1.157645101736835 
-0.2945576609688436 
-2.06041295266932 
-4.10965842282077 
0.4532004645700926 
-0.04382437440234449 
-2.607031255494208 
-0.9270309764439693 
2.504435665787874 
0.03275330476504629 
4.599186616775007 
-1.09930575857619 
-5.045718772190087 
5.612062701755909 
-0.2182387705985724 
-5.958499780959461 
1.322741134755756 
-2.817790675241667 
3.307228494832035 
6.459515903880255 
-0.7565147327384426 
-0.2047929435368768 
-3.912714988381185 
5.553267269612841 
-0.09440703508566678 
-2.629571784486553 
0.1791275999851601 
-6.035731452393694 
-1.563772470938803 
3.81441917133564 
2.889096388805379 
-0.4043446168463931 
3.438554563672257 
0.2762178299526757 
-5.098193925057012 
-0.03762275185700443 
6.656641575216191 
3.28834029390748 
-1.982199441373588 
-2.327945603152354 
3.034714679750125 
2.079130443872967 
-3.494228705509553 
-4.722090253495456 
-2.487526335642725 
7.525570895426696 
2.337400621421992 
-7.23534175857098 
1.383115307783885 
7.606364320135737 
1.848281709071971 
-2.584717751300468 
-2.047835047227498 
-1.491656715597728 
1.724121297390235 
-1.740282610741592 
-3.036939938415658 
1.26298358129748 
3.163871703680118 
0.5227379052729415 
-5.3992007459302 
1.006787442850183 
6.4124709055045 
1.488717435283849 
1.430236296152807 
-1.837325402531764 
-2.130995496544436 
3.532794936060237 
-4.599752816758444 
-1.296960634657784 
1.264120225867978 
-0.1616798353213895 
-0.494224857604545 
1.780157037119394 
-0.9413927020795803 
-0.3404274992252886 
4.853825683241241 
-2.350854214184557 
-2.275132732130623 
2.084441138447552 
0.2104389694341743 
5.303211199048173 
2.701510909736573 
3.357056839169324 
-2.299420163774824 
-4.64673827555321 
-3.830034316294044 
1.751269500293221 
1.469539576472483 
-3.245790461107564 
5.363288426176108 
8.820824366663079 
3.018368738003875 
-3.32247488710776 
-0.7643726352546518 
-5.065241540668799 
0.5250120307494506 
-0.6069112671950866 
-1.696854962327604 
-2.379478611274334 
1.909942547001513 
4.141777395218642 
-0.1175166029135957 
0.3909306821278158 
1.593506104915422 
-3.42814121651822 
-1.475273392648184 
-2.613101685495204 
3.228157571655267 
2.411492631410205 
-5.128345183540027 
1.712357882559541 
2.1971853052051 
-0.8787595416727579 
-4.0628919721124 
-4.148995329369427 
6.341728275031894 
3.405285231961503 
4.01803139230209 
1.541792533876408 
-3.607382978614716 
0.4459989779532458 
0.4515616342894051 
0.7453159714295382 
0.7646179096221992 
-1.610461551630857 
-3.889553515046552 
-0.09058760322006966 
-4.068571191084896 
1.467556415514856 
7.464468968577514 
1.036135113406127 
-0.296514741612665 
2.075432669580187 
0.9995907377933207 
-0.05060028049855621 
2.542043294218808 
-1.183463227729973 
-6.555592558405765 
2.858875616502655 
0.9260498194080886 
-8.240874680984378 
2.086702606175575 
4.873346138838475 
0.01271532687314367 
-1.367148557961454 
-1.241274152945941 
1.417651497292046 
-0.1046013819770209 
0.0486521919397256 
0.8127139219801314 
1.549168502646123 
1.784389937882096 
2.917392137827042 
-0.9749618889315272 
-3.353668791682359 
-5.050601552548389 
2.28086691947699 
4.595115843349459 
2.827522292818218 
-3.590800101402168 
-2.847223748311094 
0.7995768643373243 
-2.841290117630125 
4.098802285257618 
7.166517229062483 
-3.809713143315391 
-6.41281256935398 
2.244993746638943 
-2.581186849237368 
-2.261289448356918 
2.056348211667437 
3.336088531743441 
3.531729146176695 
2.28662311891076 
1.565965360206674 
0.3305993548812733 
-5.744004365716754 
1.018072938309871 
3.08546995758974 
-9.804631251323782 
0.3218863903690659 
2.928178336839061 
-2.162496020809069 
-5.082332903181173 
4.077986516463197 
4.544686572716689 
1.825928000671306 
3.45297065419657 
0.4585018780256297 
4.521524580763355 
-1.174923510079324 
-5.934239452707515 
-2.880317772500404 
0.9979628272631744 
-1.94090067733204 
3.169760862435952 
5.262957740253742 
2.038775603327188 
1.051742873683348 
-0.2835667206959765 
-1.700339091347117 
-1.524713874234563 
2.566096329213844 
-0.2344025744310659 
-0.4157766920359973 
-4.316093088670811 
-0.8226187018588542 
5.513624967991308 
1.091603597771338 
-3.288574704564234 
-3.44886793860643 
0.941243491393562 
4.489382250887881 
-1.642040201107156 
1.220747059643979 
-0.2879008960390746 
-3.770631699271988 
1.040051322872748 
5.089075762889697 
0.7237486063934835 
-2.6104758932097 
-4.718559031496333 
-0.4553397232216443 
1.466360890568752 
-1.346112910481392 
2.300001622640611 
-4.140086396337894 
-2.650570110472892 
3.557932615349007 
-2.188345332093074 
-2.940136563048128 
2.494279987830907 
-2.197949306447364 
0.7974269228967303 
0.3973918680026646 
-1.218585234936447 
7.247683669120194 
4.050089249515257 
-4.999422507827544 
-4.41294565314312 
2.291529606769522 
0.6013979454090549 
1.619439534510674 
2.79810264604092 
4.236747797924811 
-5.845994619284146 
1.506672297886032 
4.65694161266179 
-2.427999891488988 
2.601104819776338 
-5.975044414236856 
-4.77896617482845 
2.740332635937668 
4.662495260854519 
1.053638855356484 
1.277775291298548 
0.5789832898036057 
0.216209514226178 
-3.748191327596207 
-1.284438041435111 
3.540972498381988 
2.433004593561319 
-0.01819206456789054 
-2.473720387749756 
0.3828693373523402 
-2.31299267575664 
2.358252575960967 
1.440008642161869 
-1.691587580701037 
-0.1165601606751989 
-0.4943640977377437 
-3.623564879819297 
2.054563539776332 
-0.8256650992533968 
-4.102593249512867 
3.3198877652659 
0.7449379491536222 
-2.373381441818669 
0.7093633257910799 
6.428787599374308 
1.354516895393606 
-8.098333651827021 
-3.095123625034228 
4.582773001056703 
3.669529357512737 
-0.4690225471803624 
3.826751746144374 
2.922765800931566 
2.160359938601536 
-0.2061645638170845 
-4.564416027972187 
1.023471509914142 
-1.591190841518962 
-0.9210976089837832 
8.056940902393356 
0.6740079245672963 
-2.047039605421014 
-6.231784135114822 
-5.159435239372882 
-0.5059069542594292 
-2.65925047044222 
5.957303137676872 
5.133188059888042 
-3.501944063520297 
1.099337581406086 
-0.4260782845706373 
-2.317094259308198 
-0.8411441656885524 
-2.570422630576068 
3.186357787690461 
2.503987790987473 
1.403518171972458 
3.438381079026209 
-1.410335517400207 
-1.315705981073094 
2.190519306884224 
4.186579890246611 
-0.4385622799620007 
-4.910477892026269 
-2.446008983272581 
3.803987436815701 
-2.146911417717145 
-3.234245990439137 
-2.67398711299285 
-1.489665131449827 
12.09452114439232 
3.446614580611976 
2.201677239464193 
-2.518590633354634 
-3.904634038725523 
3.655008892986038 
-1.801818939032936 
-7.282054847838228 
-0.1668803216974094 
7.72110340089247 
3.419610006216359 
0.06107529577623385 
-2.898950115246484 
-3.44724678897028 
1.768960646389718 
-0.6947435999344043 
0.4860530140519036 
4.41177431597297 
-2.670223447170627 
2.183540481627245 
-0.7436909202843385 
-8.143240602994815 
3.083622795039741 
4.100282383298079 
-3.766212414624025 
-3.746815230770559 
-1.387952419965556 
-2.24416542208385 
5.528519498951781 
6.50340985061032 
3.519067258840903 
-2.233289411444203 
-1.178593379997851 
-1.491206947175064 
-0.9916133589660431 
-0.9470059259381598 
1.258833755474452 
2.091304676342197 
2.893112725130162 
1.167047661551683 
-6.390123478635914 
1.504599276313077 
3.477781759829944 
-0.8423346654945086 
6.421362241281256 
-3.651144405109083 
-7.388798976427219 
-3.303227564704915 
0.403811115116435 
1.663771864670675 
-0.1567226315090089 
3.70167160283318 
4.038602329993583 
-2.670516703452899 
-4.539158258201717 
-0.01956074376026202 
0.6517920338368224 
3.61628276262611 
4.055869030036249 
-3.554180152340492 
-2.809495493070207 
4.383873143112412 
4.050634216745889 
-5.581497199337675 
-2.360483369093289 
3.164936878857594 
1.927069622884111 
-5.516456534621648 
-3.299925807609248 
-0.3908421678698436 
6.12995463033423 
4.693990051283887 
-5.9705593564167 
5.244772742588702 
-0.2590471799433918 
-1.336360695831143 
-4.443971283803277 
3.780717197365465 
4.963621252177768 
-3.347172879231251 
-0.6901363815813409 
-1.362052033959612 
0.6215784265230934 
3.841395799688958 
1.527784708813715 
-2.068065406503695 
-0.4787468064674125 
7.668015444258714 
5.471427436060876 
-3.300567015473875 
3.209481664864776 
-3.291931608743143 
-4.694868898594832 
3.700720628135506 
-1.832870505276327 
-5.201672496692818 
0.9885985841102143 
3.084051718945798 
-1.857689169891332 
3.222577874687491 
0.4471894345662017 
0.02512356758983916 
2.656170695233041 
-0.5562668488018976 
-3.213430728468078 
-4.92296381466678 
-0.9812207279863707 
2.829460370613783 
0.6413800859813199 
0.006784897143501843 
3.211479323558796 
0.4221883851580907 
0.7737281052718441 
-0.7306910289259804 
-1.232279083154864 
-0.562587114830674 
0.7608924346289967 
-0.3591303858252227 
-1.809604737530087 
-2.753873046038196 
0.7305991313852206 
3.917107075403069 
4.927035496144464 
-0.5156954735035477 
-2.524666252104543 
-6.11896002444829 
2.025958742858697 
6.31969987287448 
0.9560505148580232 
-0.1856835837984516 
-4.623364382418914 
-2.594704079767793 
3.655211049028807 
-2.110385743217409 
0.5240809014858553 
4.993506141107913 
-5.762954776073715 
-0.3171165989661811 
2.690769537749256 
-2.333516875437481 
6.052158821128368 
2.760467281609208 
-5.944612265701255 
0.3632222450879932 
2.707458367146737 
1.76617508037185 
-0.4683390684387497 
-3.749827506413405 
-4.190689343338861 
5.136231124545704 
3.946653384427265 
-3.450416181868695 
-2.905163579555805 
3.51288482110623 
-2.07148395878181 
-5.941111813758137 
0.9859201059198887 
1.003278799693967 
5.149289406745021 
2.237930726923113 
3.261505750169665 
3.860131798831141 
-6.496317512113825 
-3.907621382541497 
5.10822988000343 
-2.509186553660273 
-1.656468466174319 
1.415890824372336 
0.3953569951722235 
-0.3711952419322961 
-0.6009852019884531 
2.407184192668959 
-4.37517679913659 
-0.6126721593027872 
4.350045083860788 
0.3670158928951915 
-1.590577489643554 
-3.006310167620623 
-0.7072675134106244 
8.10144969585218 
-0.9345618096771954 
-0.3063524193593993 
4.26365462724202 
-0.06310120757206644 
-2.622214795289894 
-1.222869364971699 
-2.162611167782862 
0.953138191927118 
1.041873105079054 
-2.222962781445404 
2.589623591892573 
-0.1514708987332291 
-2.191079741375197 
0.3380005137501008 
-4.256292572799786 
-0.7834152257684873 
0.2320802537209922 
5.476569092566795 
4.446182639123579 
-2.328873333070266 
6.505985942652832 
2.873786984534744 
-4.594681311821249 
-2.332086364884548 
-0.9797421010194489 
-3.885757438367221 
-0.3364539619395056 
3.239979825468651 
0.8564152117368277 
-1.450811528223055 
1.79938641125251 
-3.637259959955944 
-1.581617058593503 
2.419199679402689 
0.3903609040328923 
-3.673209747184124 
0.8951439944038447 
6.339345915974058 
2.09069346203929 
-2.562341893316491 
4.082004699269565 
0.4619383226157802 
-7.761615033592201 
0.6585728669157624 
3.916739195255326 
1.828496970349308 
2.35609020727507 
2.055604635138118 
2.805018212617265 
-2.094998358970077 
-5.598920901828161 
0.2818354145009643 
-2.089974486384951 
-0.500846370207892 
1.291606531697187 
-4.331765523652145 
-0.8321129730772272 
-4.142324843821019 
1.573720211015842 
4.33501675862118 
1.635766140437807 
4.849295529261354 
-4.414907138668899 
-7.920750052741686 
-0.9281717329306188 
-0.1779645103627955 
1.173212091131599 
4.181786879161004 
-2.035957146137123 
0.757880262897631 
0.6968317675729044 
1.330124150071452 
7.208806205808873 
2.110393991650801 
-2.466309623406704 
0.1085542918066682 
-0.03158482808761457 
-1.993464268722114 
0.9595743920386544 
1.093381024089158 
-3.540458698689055 
-0.5223848300571833 
3.108528434681505 
0.1027048611801351 
-5.100867618465248 
-0.2705771454298079 
4.656267629274393 
4.019306734174191 
-4.56081736139753 
-3.844591794362797 
6.895889681271645 
-0.016483063787112 
-5.420595735951264 
-0.7756867471870055 
1.633667661519725 
2.652306097107166 
0.2366171961650571 
-1.386789221586298 
1.091116113037796 
2.619288691270486 
-3.44089245498209 
1.870030433675013 
3.266609935794528 
-2.988727978021328 
-4.321305538667824 
-2.821421552350436 
3.032263957711534 
2.376660234780336 
5.547283688713964 
-2.243587021696732 
-3.349038753933288 
0.6885620067030264 
1.471420044069787 
0.6260603813418683 
-3.045675557675722 
-0.0497949198482253 
-3.979100608054782 
1.781588252574112 
1.39937561782117 
0.9516652655851899 
2.050324573220433 
1.576411109426435 
4.23843701912859 
-3.032959566096903 
-7.335927883752137 
5.120964143424096 
-0.1804596197777884 
-2.076810611068526 
5.746930266639182 
1.019010796109136 
3.020043806457785 
-1.970914092383395 
-4.49050086241313 
-2.070020805629407 
-0.2990577562780106 
0.3276206314653451 
3.476307730132383 
0.1071447663598712 
3.518031158868231 
5.093492431073929 
1.512480493332168 
-1.806673162515387 
-4.097045517679455 
0.1877069271973239 
3.823121975857405 
0.1024803176528269 
-2.160449776447639 
0.123147626549913 
1.273931663909597 
-0.084618547142133 
-1.790579884635453 
4.56120591930586 
-0.3324558902505555 
2.480421741004896 
3.042379230507548 
-2.809041757143599 
-5.713872610944191 
-6.386245960337165 
-0.0735406880263257 
6.378621273631021 
10.41425111664661 
-0.1987299088302075 
-2.024490372268271 
-2.131561512719367 
-3.632702886113692 
-3.6749389171595 
4.925996113324745 
5.054143087039574 
-5.15398653813853 
-3.772707860874439 
-3.281048374380069 
-7.109565841448712 
-2.088477026353776 
1.610054123456093 
1.159207935086183 
1.484674992492613 
0.1022855680833294 
1.839130230050462 
5.488851270518042 
-2.975171743116753 
-3.195464151994433 
1.998931878734198 
0.4335571649505755 
-5.322033678027395 
-1.253451557317822 
6.847228598445548 
3.944185519502673 
-1.647520012397501 
0.5168194000771485 
5.127680112854681 
0.5126389972862889 
-0.2336408044859868 
-4.675719577202969 
-0.0871974679432856 
4.144887397658649 
5.170765103190261 
0.4353886192749827 
-5.955974451673333 
0.8022166824639909 
-0.87793917595008 
0.8946755528279311 
3.279978517735084 
-1.400274475055561 
-4.615051700784198 
-4.440120667792393 
3.860871060868874 
-2.587023625662507 
-1.907610499388518 
-2.706313405483193 
-1.300665928475911 
2.287812743717617 
-1.102111612016561 
1.556215388270609 
-0.7464713511143427 
1.736896509075615 
-0.4577495433715777 
-3.416362468416923 
1.599967438853542 
2.520105382402091 
2.900769336274578 
5.322701713808873 
1.298603614635766 
-1.47873292180533 
2.993053202254223 
1.358996809510549 
-7.073334048799845 
-1.457711105336662 
4.8227514611014 
0.3497959304618395 
1.717241053790669 
3.346287586736902 
-3.326762876068267 
-6.25897235303882 
0.1692426126176595 
4.251902875240034 
2.15565279638289 
0.6990887776593432 
-0.06354321372687396 
-6.997351339071068 
-0.9944848003667995 
-0.04230843550950644 
5.644923047179634 
8.170904166555827 
-5.773986171837005 
-5.226321913604642 
5.129917218645952 
2.53289277994014 
-2.269255822925341 
-2.961402958612389 
0.6679265512914019 
-1.903443926354826 
-3.691645691385325 
3.444363645925436 
4.510028622740909 
1.038597785074463 
1.650960266342559 
2.022818721182669 
1.886119814657395 
0.5374823672330187 
-4.328793720888013 
0.1562934391465829 
2.630987401960896 
-0.9116148142750659 
-3.264119514510715 
-0.4913041575347612 
0.2677102936430881 
-3.444611292217654 
1.885935883646165 
3.06556150590229 
0.1385249050647596 
4.645831233897066 
0.8432075859081667 
-2.077783101226565 
3.912204762686779 
-2.439197713030131 
0.4470980082121953 
1.741132401423272 
-4.250851255654244 
-4.563019152067619 
-1.196557666246348 
2.481063260679504 
6.878788445776419 
0.8700875627158901 
-2.467250477983291 
-4.190073435978496 
-7.46993516602926 
-0.1619510286544608 
0.2868503122218614 
-3.756769187604806 
5.817238982282713 
5.649089892123447 
-3.160285165132057 
2.482106988350941 
1.409823167186379 
-1.276515498473827 
-1.69787864646464 
-2.235936190498116 
-1.888660767634452 
0.8259402481616736 
-1.198379310287618 
-2.694036711912965 
-2.943307561227056 
0.8041167651760641 
-0.5321580627755197 
4.733332796189057 
3.122238671137664 
-2.187956574060783 
0.2052152165526734 
-1.218011545065315 
-2.782968348037631 
-5.586216913737768 
2.336382978959045 
1.489661919901467 
0.3340348916050779 
7.977524664704481 
4.580176235571645 
-0.2915710140604465 
1.403994838856248 
1.647033409495853 
2.562842888210422 
-2.406751024467469 
0.2477563501493428 
-2.134855638460403 
0.3322766780988303 
1.365304711812181 
-5.554070646147903 
3.147890083381849 
8.088062179816648 
2.773530385656244 
-3.972137303417412 
-4.203730413428366 
-3.848572160169602 
1.995047433220695 
-5.066830072737622 
0.082751544179008 
0.08033417480080995 
-0.1240852392891046 
3.134889091604768 
-3.084422723575784 
5.807132255623583 
3.338965875178138 
2.498108475812093 
0.8414371447954629 
-1.131158678901236 
-2.259616490506294 
-0.2846676021168615 
-3.741697463484412 
-2.837338173400872 
1.007263623051037 
1.75233558931724 
5.447119804205342 
-2.255317639978636 
-2.10282596184342 
-0.4236916253154598 
3.735068644108222 
2.881875387181982 
-0.354653815255082 
-2.075857444126421 
-0.4701097148802335 
-1.087856104319078 
0.1860039471063417 
-2.680748028248495 
1.663808196300714 
8.7097632611351 
0.04522678041828156 
-3.888149787451267 
-4.204365566387133 
2.814026394267784 
2.151237806328766 
2.156585751037265 
-2.43160374866839 
0.1081097606197223 
0.7205946911550927 
-2.628851485831881 
-0.431724219469935 
0.01556913667075614 
1.881876050584264 
-1.598500970077899 
-2.652746646885281 
-0.6070627341891685 
3.38974480091434 
1.674902567524683 
1.047389293209136 
4.429065491121248 
-3.047976752426991 
-0.861113736606533 
2.070538362391773 
-1.614209607703307 
-2.95140444542254 
-0.4621817053313893 
1.893157262283081 
-6.423834905846429 
1.504998736323198 
4.00635923446607 
0.665403094744584 
-1.99453349176068 
-1.327113870060632 
0.1053707124951919 
-2.749266398511406 
-0.7283690950945434 
-3.363393899818569 
1.445178462244398 
6.090542917804048 
-4.484353991169805 
2.966054804408141 
5.113390201817914 
-1.857603751201587 
-0.7234506132422885 
0.620529504340557 
0.3985591058334737 
0.06261329777768718 
-0.6875663346157628 
-2.542593001412683 
2.626476773418042 
2.352080246092288 
2.341623530647844 
4.532191642855164 
0.6173455391557905 
-5.019013601161229 
-6.077016294051635 
1.964197888321659 
4.3426848486389 
-0.1352221657948284 
-0.2881020839795598 
2.465928320041491 
1.230404445967555 
-4.891127043225165 
-6.994375482321093 
1.212833572933034 
1.044760993121706 
4.053519046422628 
3.384848944847981 
-3.011244685553777 
-2.882413424182591 
-1.057214026896879 
-1.644322983175707 
1.796661187660394 
4.570569791241232 
-0.6932879386014078 
-2.053413008068331 
-2.525374122216291 
6.679337427635962 
6.498459132520747 
-3.096025176510303 
4.550817731243707 
0.2545405839302066 
-2.41877528024132 
3.400141669273829 
-0.2515084487471956 
-1.386012582636623 
0.6043830696417724 
-6.6905838402297 
-1.742472635561036 
4.149117652396245 
-1.696751515965273 
6.354431183949441 
0.4554994076562867 
-0.04231842264806997 
0.5425776630373975 
-3.487720013651308 
2.435570557919416 
-1.911181538307706 
-0.7151544539869882 
0.2296845615677149 
-3.299978130106387 
1.203079724112618 
-0.5094686187160566 
-2.091373180751472 
0.4069064889609891 
-1.711594923347899 
2.260175843067639 
-2.110721864379848 
2.673623999924863 
3.698271311959467 
-5.483500163550009 
1.796464365343384 
8.946491764237985 
2.48884118494807 
-6.82816053078002 
1.95876651654474 
4.496311767968248 
-0.7833423177373142 
-1.720778152195178 
-0.4042301084199086 
4.458662043586045 
-3.962118345168953 
-0.5866763977283325 
1.678719626354055 
-5.328382077201747 
0.9975725007787307 
4.87777599732166 
-1.41514769356185 
-2.988260367955654 
0.998304250109604 
1.078477159806749 
1.840391345116678 
-3.44968804671912 
-2.060405028040601 
8.629136527543963 
-0.2187282125137261 
-3.462544357345097 
-0.3271728187363231 
2.7821520419221 
-3.100303948890501 
-2.47426743341897 
3.176901736720387 
-3.488005658508786 
6.068437384052699 
0.1685288040400179 
-3.631166854433059 
-1.193218217162457 
0.5300705026847795 
-1.326718291399745 
2.401876926177345 
1.175678945169832 
-5.205860385119219 
2.765534578134161 
-4.311428794497806 
0.1956731517242125 
2.707151558572865 
-3.39867982023408 
-1.75890833664715 
1.670445447720544 
6.674188244282573 
5.606166247647675 
1.620967343054624 
-3.74621221830095 
-4.639702521079903 
-3.590411063799768 
-0.7686030456473185 
2.443141798310214 
4.335162203945246 
3.624334520383388 
-1.978179166601547 
-3.102210735769624 
1.69177583831375 
-0.442077881142277 
1.69244346690395 
3.023848003941037 
-1.670927519466081 
0.5260436445535579 
-1.326925112897459 
-2.402237458802913 
0.04888055380222498 
2.299023040255532 
2.533264893282122 
3.950718976253911 
-4.178671047961699 
-3.074998355517077 
7.072700158676517 
0.6933502877332993 
-3.837970644925761 
-6.877229782444336 
-1.832645423478521 
3.748794554734866 
2.953705462079948 
-0.2454187413625171 
-0.004012157483733161 
-5.546883028609977 
1.177426735654183 
-1.368844446764741 
-1.454907450276838 
6.980928545131868 
3.640853640924216 
-0.9942543774705105 
-1.094625036092866 
6.318599024181087 
1.58964321446927 
-1.711341546933324 
-6.33041803178208 
-1.947264650641069 
4.009027374093784 
3.204481907403431 
2.154103447848578 
0.8012934508849257 
2.153127996499633 
-2.379520252698058 
-0.2849689064346501 
2.462605750983155 
-0.9997442880948034 
-3.092811831425014 
-1.119505205804701 
4.060357510317044 
3.985516879031038 
-1.475144201951883 
-1.342687184511481 
-4.305945120591645 
1.496441040467903 
3.173423690676025 
-2.586592283284546 
0.4318407533513258 
-1.292554076519411 
1.981447666786826 
4.176811784195536 
-4.519546846039722 
-1.589898215818418 
-0.1598281275698531 
1.175234188953901 
-1.06101585666262 
-2.945068539889074 
-3.70852298764615 
0.501367659826524 
7.097742081233188 
-0.1004258820993889 
-1.822955682341425 
-0.1035723463189548 
-0.5190121333638272 
-2.098106148244472 
8.11717640905608 
1.870293638473606 
-11.80041990710133 
2.742543295676402 
2.697846208845947 
-4.681428194026484 
-2.688037775486822 
-1.407676948025553 
5.761918505252984 
2.960951865738673 
-1.709981827528198 
0.5955711626783714 
1.840103113216524 
-4.675042557984279 
1.236606097498456 
3.228300948716321 
4.858403720376817 
3.547867083960923 
-5.556300456713903 
-0.8571151967969406 
0.2472065788285885 
-4.255666030519095 
4.34713991004787 
7.959631748261301 
-1.97562663650705 
-3.746697169615993 
-3.467309797306904 
-4.442875852443537 
3.610387969396712 
1.829688719726739 
1.133636738221692 
4.112751910775296 
-3.660009551762662 
-2.378275074122449 
4.044713206472693 
0.7731226071049427 
-4.697774234402266 
0.974064319937899 
2.504674845798379 
2.745210485622721 
2.824975678038785 
-0.284572476837884 
-5.423004533746154 
-1.511609550756045 
3.06363495950382 
1.420644028541215 
1.067137414743943 
0.2157969457806457 
-0.5455319151647181 
1.844468293967407 
3.216784007047662 
-7.262308803837148 
-5.700339417831336 
4.643584890220533 
-0.3316937130354141 
1.324846461579573 
5.393232995462784 
-1.361525170208342 
-1.862078615550239 
-0.2256711444759592 
5.041835753798129 
6.659510711945467 
-0.7938813197559945 
-0.4355161695448798 
-0.9071241463454234 
4.88407253306937 
-0.6893616053842667 
-7.227594872207359 
-3.094751587226204 
-0.9125520911215297 
1.590203638372436 
2.42419660950565 
3.348596924477289 
-1.827112433475715 
-1.696507545713076 
-0.6778837983115775 
-3.721918879522428 
1.532235493126335 
6.752577478331686 
2.376928593419781 
-1.666908547283238 
-0.4238930252875935 
1.558612270115231 
3.642392956560384 
-7.027611359527336 
-2.225352057785422 
4.410353006303291 
-1.370557803032146 
-0.7968542219848569 
-4.286435011269452 
-0.9191665045989066 
-0.9000662502249047 
0.7340094639328077 
3.806112545501145 
-1.717040320909352 
-1.099229541463268 
2.197237112687101 
5.415795281132809 
4.054713280743139 
0.7268035294856413 
-5.168281083650616 
-6.528601170810179 
-4.172474495842239 
-0.1829533311129228 
3.978989000493367 
5.465176097109421 
4.459711229487626 
-4.217042197108855 
2.237606581708293 
3.570554195785296 
-0.6290342977995318 
-4.494788605783757 
-1.125552169003189 
-1.364438670438836 
-1.589329037482423 
-1.040802608128653 
-1.623976763287077 
1.991109451139093 
0.7587824553406844 
4.378568076211574 
0.7744626620548553 
-3.671295816751464 
0.6271425393000338 
2.736722043267583 
-1.685451702475259 
7.421563132254947 
-2.211517583535275 
-4.037363771352462 
0.8774525909255789 
-2.197964384707584 
4.629877034112021 
0.6089342946686084 
-2.772708572784146 
-6.589867558993117 
1.366081208560331 
8.542279143895094 
-3.433708408516495 
-1.661381930185666 
2.028115441722474 
1.767942469560822 
-0.896089309542954 
0.8571263801387881 
-0.5760120483652821 
-1.006266176023038 
-0.0887385489088479 
-1.012233413288341 
-1.225635402828132 
-4.844322570222783 
0.8730994124828581 
10.17498428576096 
2.401410846744357 
1.070311597164436 
4.980725261394422 
-0.9182609321803578 
2.589301055540545 
-0.7230718771177805 
1.4116569150453 
-0.2772924308111298 
-2.493212690411518 
-0.3564175442718935 
1.684495258462258 
-2.057404900587636 
-8.414769212792262 
-0.2394724694342262 
-0.3303519973657158 
4.069872256646745 
5.103399460618189 
-0.4788263660691491 
0.4372936967915654 
1.499025612925826 
-2.687657209426927 
0.7023310664486023 
2.182722895730372 
-3.842430490670366 
0.6626085687168826 
3.90456046824686 
5.193714940868024 
-0.1498755105978345 
-2.899310633071083 
1.461507469200822 
1.654620213094739 
-4.251426303028084 
-6.436166341373699 
2.0403383193233 
0.8224079914655195 
0.8736079802501207 
0.3979533164653174 
1.366699961386076 
0.0395208504802282 
-3.279415414691976 
4.382102167511683 
4.43048466771825 
1.920975858960316 
0.8673973030823611 
-2.594757880981527 
0.8204012764366447 
3.863956352979222 
-2.996024029721227 
1.057302923781073 
-4.714490855952043 
-0.7144333999433735 
2.351775032253504 
-5.432420270690669 
-1.952086764616711 
7.717825183036019 
4.932425061019586 
-3.292598434258493 
0.5133718357805137 
-2.058598360411981 
-3.141142989475892 
-4.171381105193248 
2.839119132384887 
1.513063806074746 
-1.023197259513204 
1.716880653006746 
1.189612671190007 
-1.109139293665728 
6.204319816697139 
4.328100165118625 
-2.331609475873589 
-3.598980493158044 
-1.720873973675027 
2.204280576949073 
1.067645352388783 
-1.51650896363713 
-8.909158519059551 
1.594267552639655 
1.164105689994446 
-0.1679345986695283 
3.502755994707996 
2.811321888132301 
-0.514406513628781 
2.648763685911598 
-4.923173140419737 
0.1107038101747328 
6.369928975110406 
0.2750591226172736 
0.8923910133498844 
-2.097274851457302 
3.400996033945428 
2.947085431646669 
-4.220225508601149 
-0.9644708578600435 
-1.077166261954724 
-2.461407932112964 
3.052650898642356 
0.2579635653327711 
-1.044122448668129 
2.606004635942877 
-4.004798818406933 
-0.2020635030862679 
6.237385400175476 
-5.330222125412753 
-1.6151948867873 
2.104484667899307 
-2.312014874187555 
2.357257375726329 
2.990159318146012 
-8.115371431555811 
-2.088733383666756 
8.406037986931807 
4.117642893173732 
-1.56872063991786 
-2.147780263809519 
3.858379285382316 
0.3110677251153603 
-5.269962352349429 
0.4246236013629933 
3.192267982667453 
2.685182607502223 
3.656796336810217 
-1.893982816825502 
-5.373563655558732 
0.6771648100445316 
3.53856789456544 
-1.199169348502858 
-0.4487266801357907 
1.040728524717416 
-1.21222146880584 
-2.227967080621569 
-3.613644987129177 
0.004187792556283961 
2.917789419015743 
5.041252876681187 
4.325468114609054 
-0.7112750664528076 
-0.2457979140859526 
-7.074952913466897 
2.004048228126721 
10.03639119468214 
1.152544270175237 
0.4828944008158799 
2.390051875180557 
-1.909085585319052 
-3.105129574488335 
-1.355203443533035 
-0.6087728973074353 
1.32197857312283 
1.747480991268026 
-1.031357526487622 
0.5316445382815983 
-2.390776013210828 
-6.063255057567278 
-3.026234501756271 
-1.595783495176963 
10.64844947355776 
6.427910015619515 
-2.744912512704952 
-0.2616321784514447 
-2.439201860151173 
-2.278621498239857 
0.6433283683121671 
1.073928967867163 
-1.312433713235651 
1.827030428405791 
-1.312547117849728 
4.103655145440247 
4.855701493222811 
1.233665197232146 
0.9062187578423292 
-5.480080295508819 
4.409089895379607 
2.445782040175492 
-0.7402201773624256 
4.321725369688503 
-0.1752300525237624 
-0.3512630094820151 
-4.145001114850086 
-0.5608877719661753 
-5.647066463329597 
-2.16473733566321 
10.40197320601171 
7.853108571914958 
-0.5059774665032031 
-2.666972440147793 
