solver_type L2R_L2LOSS_SVR
nr_class 2
nr_feature 1984
bias -1
w
82.12773129909071 
-45.89972373057395 
2.551619103325655 
21.77149661942113 
6.553299296403576 
11.71103532599475 
-1.311822255560249 
7.061497447467517 
8.075504858478324 
-2.60843132684506 
-4.249930046069998 
-4.533861406685245 
-1.411460785070518 
0.04146750524593874 
-0.3581505067596542 
-0.3542012084393044 
1.202879752965797 
5.898900173348381 
0.4019258447414382 
-2.423085733571879 
1.421035612615124 
5.164374808247272 
-5.62429549905641 
-2.741496274418648 
-0.1233224407097332 
-1.19422007505509 
3.461426623468042 
-1.742942192123942 
-6.934209830744289 
-0.753339753511728 
2.072523563336946 
1.940554983368695 
-1.599920493678842 
-0.3347604413928985 
8.434817671680996 
1.04705194953336 
3.420143325617619 
3.298700765516032 
0.1317123511186148 
-1.260075161996706 
-0.3619050174733938 
1.193328668312103 
-0.3228762074643329 
-2.088120611744482 
-1.06895330770172 
0.3306403005390974 
0.6004705565190792 
4.532193566574571 
-0.4447447317245909 
-4.01522215985636 
-4.192720522970138 
5.287044800522226 
1.942035968901721 
-9.437522156215314 
2.969085530241828 
7.059387774302973 
-0.2839213970629152 
-2.109436408930828 
-0.6653793918646306 
-0.5313511030743089 
-3.509556857807043 
4.438938831884446 
2.107913196011344 
1.671330241258974 
4.420976662489608 
-8.021140984293435 
-3.747868547175966 
1.648148159826133 
1.666548517524397 
4.822057826193434 
6.834822532486764 
11.24177249418855 
-4.07445425320058 
-10.59870404650285 
0.1690394983394199 
2.335646769030416 
0.455873430733892 
0.6306292600933191 
-1.140287589158477 
-0.008695120226888899 
1.269343836137024 
0.746949093227347 
-4.930293208044757 
-3.67670434241405 
-2.609696564999843 
-0.7515891439820173 
1.562811059884782 
12.1336795625939 
6.539970070783503 
-5.084912579414889 
2.143399030464199 
-6.534046924084545 
0.1960099023766703 
-4.416385473825512 
-5.437267997838052 
5.125582083856496 
-1.546223802978201 
-0.2312639425142343 
0.945014849521341 
2.668514342789219 
1.083601979552633 
0.4548445686367427 
4.974890082408788 
0.9613742755109291 
3.873818113859782 
-5.728852280843232 
-0.9630056734425525 
5.017598006945305 
-3.129348850471672 
-3.632401348602249 
-5.964521656306404 
2.719940954978209 
7.549973934373246 
-1.322826234944489 
-5.435104021165439 
2.136493244001828 
4.549306887727436 
-0.2285875428465508 
-3.261695254198238 
-0.03520937917129278 
-1.203590432116395 
0.6248052785174973 
2.74806550481512 
4.008634229074858 
-5.567625764673041 
-1.793890099445664 
3.73878150550083 
6.230245864330201 
2.575767044077837 
-3.390530643352376 
-1.58802146069167 
-3.016262112103144 
4.294779810831468 
1.714685231375125 
3.74519018165181 
-0.9628385700064555 
-4.24054055222876 
-2.626153871305766 
-1.911210648917726 
-1.861051581808306 
0.9783041496869613 
3.565464293447279 
-4.685713730662524 
3.309606692126252 
4.910225101824927 
-5.774788715422613 
-7.140062982185974 
3.894667746394752 
2.777405024411889 
-2.303028911888986 
5.646338582134353 
5.87071785381684 
-2.69496270787226 
-0.8904601427444396 
2.40978489744722 
2.862587504075198 
-0.508266942756571 
1.822891995291259 
2.212201093769972 
-5.272100722239335 
2.725412075973348 
-0.9242532342042458 
-3.256298150342956 
-4.334374995782702 
-0.388321615066618 
5.777139434383417 
-4.87936018280988 
-5.391962908027113 
2.209188965799884 
9.261321285516159 
-4.384657633148692 
-5.0484417773691 
5.331893497037885 
-1.084098910928222 
8.735560623329553 
4.369600479960471 
0.5248963355305025 
-3.194400381452528 
-8.539783324115572 
2.004327379706671 
3.629444592247602 
2.078868083316058 
1.709852670161788 
2.225958909654793 
0.1713736388524903 
-5.0978884367164 
-4.354718458368299 
-5.455629296557087 
-1.049646405437601 
7.601971569332836 
1.450780467533528 
-3.251502098836808 
0.09104845242296226 
1.187266555099254 
-2.459966932322418 
1.129019944661981 
3.883502881585525 
3.668949409824849 
1.91358957336875 
-4.214251154029194 
-3.461709517114334 
-3.088191685747271 
2.8191093507847 
-0.4489675152255791 
-1.362143849458032 
7.44197068821893 
3.074346784090773 
-8.978602302011721 
-3.800769965709409 
2.956429147913901 
3.149047735996716 
-0.7149999720031517 
-2.739712092439809 
0.6360655109405142 
0.7104506645024325 
3.494369791277534 
5.265675383390905 
-3.378082788421999 
-3.616662703531313 
5.614512250506337 
0.1756410389123628 
-10.38682794992226 
-3.591122397384575 
4.06231417392858 
6.221210138456962 
4.418260706621311 
-2.283742163565599 
-4.969139691847658 
-2.589294339942495 
5.0833708735408 
1.473916143771484 
-1.485327000085968 
-2.059915354012411 
1.246433498850525 
0.2180138661606383 
0.1993570605297343 
0.7622535152845569 
4.141765250807551 
2.233841029526505 
-3.179029561082935 
-11.58768363129488 
-4.688894844362871 
-0.981676785708591 
0.5534051971766878 
10.44466922198224 
-1.835425586575916 
-5.33256200977477 
1.587757618183301 
2.459540453445554 
-0.1395788956141788 
-2.29757991307116 
5.571212429449696 
3.763393189422469 
0.6936712213724544 
1.552959759681881 
1.762986107537259 
1.936151199946968 
-2.380945087383302 
6.638694483199799 
-2.063694616649526 
-3.815446972980951 
-0.3858360855687728 
4.470942495331935 
2.397135111523758 
-2.752586248976409 
-0.2417396358821572 
1.662506616792738 
1.536961302009619 
-1.616104728130972 
-2.614186153126401 
-5.168549028288909 
-6.333207134767126 
1.021591993454785 
4.01708754462412 
5.855446769463393 
3.47034315641758 
-5.078839398897908 
0.3939979982495325 
-7.374585080032349 
-4.310387563348924 
2.102779717108596 
-0.3045495537018431 
0.304568427515063 
-3.366806772864612 
8.077927249025555 
10.25210748277557 
-3.204175715904892 
0.3613474855205259 
2.577903267315265 
0.1405923119771368 
4.205173373209434 
1.218901054329309 
-5.651242772086695 
-2.17707277160114 
-1.73973741951194 
-2.324128063230488 
7.116917246336436 
2.215741402490198 
-6.638397081029274 
-1.924679464008025 
-1.89443351783968 
0.9448439354321033 
-1.034135992336695 
3.526740739564494 
-0.3835940451724897 
-7.202923036543373 
1.594606427859807 
-1.115286218375336 
-0.9452116596047644 
4.22989742706639 
1.119094762428211 
-1.489297558581504 
3.849676836383127 
4.990766087721017 
0.9453509800355796 
-2.743648061435138 
-3.506591804468992 
1.247549141258982 
-3.329793021002385 
-5.697853919468223 
4.119312455401783 
1.538362808354742 
-0.1804898725223301 
-0.5439095953869065 
-0.7880339872767121 
1.133262553099939 
3.230227646805386 
-1.985879928932105 
-3.461830450863693 
2.615363831846679 
4.919162577364643 
-1.617638841315474 
-3.702229127020738 
-1.64016766171088 
-1.158782517717799 
3.772455158319212 
2.590857664341457 
1.5410627353402 
-5.04772603150644 
-1.908512775396559 
5.364082838577039 
-0.7453736232048108 
1.934196868158662 
2.339002858803988 
-1.89070337554702 
0.6792762720574522 
-0.2645254730183199 
-4.485046903115166 
3.395436788541476 
5.445702239678044 
-3.29493274081024 
-0.351521691576576 
4.323869177841667 
-0.2856227007612693 
-1.582208854326973 
-5.631044478806169 
0.2264567357774679 
-1.007006241546205 
-10.18959542851545 
-0.001240996526300764 
4.919746650879869 
2.027783561778659 
7.272315826840355 
2.435571314891323 
0.922945686486692 
0.4625967768500776 
-5.915965285931761 
1.539207364911082 
0.5801753477416599 
0.2117920218112948 
3.737415237891537 
-0.5084946930211959 
5.626888681828717 
0.5734881625920792 
2.119915118744249 
-6.356976875725096 
-3.106064113538855 
5.523888104862944 
-2.180064868858497 
-4.734268529100706 
-2.516504138536893 
6.479229728365767 
4.569994710941272 
-2.422830882264813 
-6.303859015851004 
2.637111661642212 
4.926472886493165 
-0.6966329367130195 
-2.556476145784626 
-1.983908716307117 
-1.811473963133955 
-2.544194784228619 
3.203654120137295 
4.980236302392497 
3.085193184935915 
-2.089160680197561 
0.2469233592284972 
2.078418560409687 
1.263549103486324 
0.01328556469068639 
0.004056928478056667 
4.168615285860549 
-3.107978887306376 
-4.0691425461018 
0.3221097464812678 
-0.4446523535670858 
1.953192032042488 
-2.916935173943439 
-4.909854455861215 
-3.712938130376798 
-1.655830988820943 
-1.03734559761745 
-2.345550088423375 
8.991243225311541 
-0.02824037182828567 
-1.090796518121617 
1.56147587111516 
1.717420578656157 
6.627829046480842 
-0.9641680750727305 
0.6391193088994528 
4.0083862884841 
-2.040733085896815 
-5.950411999309968 
-3.923603207460216 
3.002885724473476 
-0.221837452258817 
-0.8655664078265743 
4.162219188952351 
2.622635863567524 
2.75696960557376 
3.368457623395938 
-0.7481974538507672 
-1.170843282376673 
-0.8176778020867461 
2.890848732551597 
-2.4251351539203 
-7.668042241276847 
0.8282811024441827 
-4.059934371664604 
2.519934761875078 
1.973201278944401 
0.8021823848458529 
2.439858520164492 
3.199165576172914 
-0.4650903585047083 
-4.474967397279369 
1.05605152505839 
0.4886712302949986 
-6.781616329857308 
-5.492892141686372 
4.229285260580167 
1.030023037980926 
3.508173397408273 
5.334540449975427 
-1.319960811167312 
-0.1818740234148703 
3.135395327552361 
1.350615447838463 
-9.65912638072653 
0.5264996132188028 
0.1019003190373664 
1.476589393526548 
7.513814402647727 
-1.524974898765324 
-3.98213885849943 
3.21176207488576 
5.177866023049019 
-2.493081050699943 
-3.027533529792688 
-3.332746402239332 
0.4565666111734147 
-0.1957579220321524 
-2.224801965432592 
5.861596854781159 
3.23790479389293 
0.3788535460629109 
1.094902710888878 
-6.251318189495388 
-2.854532971706612 
0.7315785732936522 
-0.889672670542766 
2.457254127983905 
3.008196420526027 
0.1186664707046573 
-1.104647696240286 
-2.221640906134773 
-2.567466535400952 
-4.577810909840243 
-3.067366816063772 
4.356178637515526 
4.909130563888964 
0.4666013481332709 
-0.061519178532638 
0.2998621095731458 
-1.545211754382902 
5.463530670170416 
-3.965377797498354 
-0.5889316263461888 
-1.408304671438372 
-2.09441711362669 
4.843692386788858 
0.4235869402918628 
-0.1852906448036458 
4.403372428107826 
-1.392965660525767 
-4.703581291524649 
1.538800638766588 
-0.3351737350892319 
-6.787053137129972 
-0.6511663805245846 
5.706558882646908 
0.04964674570656126 
8.306730247392471 
2.875671153366215 
-5.39871598633694 
2.366112671082108 
-1.462706529039348 
1.530609661995525 
1.128740957344817 
0.5027077217672448 
1.225441881808025 
-4.33981507507087 
-3.777246169593566 
-2.626565544739122 
1.327241793439456 
2.889674785660181 
4.966633020261035 
5.845403098858553 
-7.203003740865411 
-4.691166846643316 
11.51716040948695 
4.498267108797951 
-2.118899536183351 
1.652388115696646 
-0.9466123628569684 
-2.266731202209533 
-5.093673520620483 
-5.053499092146485 
-1.603123100061951 
-3.053214348737114 
0.4462056808540482 
2.124841494184876 
0.7978058170095388 
-2.853668999923261 
7.558005928825257 
3.212631376058997 
-0.4392315378648921 
-0.1893432396882273 
-2.801816578011092 
-0.1975020204860925 
2.591977135018022 
1.133771658575305 
2.239037947471779 
-0.01434346465659188 
-2.344043984433419 
-1.836095798910309 
-5.009389712605285 
6.677864531003777 
2.759881224713519 
-3.27652488112148 
-3.110286100893692 
-1.361389611116863 
3.873106989595432 
3.805304516104546 
3.102480421498537 
-9.017446698827442 
2.63943386353224 
0.434121619399135 
-6.763019005273171 
2.073309428557571 
-0.09512753842700702 
2.434569579057698 
5.207419439781412 
0.4742807080462285 
7.525009398546444 
-3.278990211118635 
-6.908450153432194 
-6.64780746508173 
-6.069215078084956 
8.608680796483554 
9.227945349526442 
-1.306831419760194 
-0.7366065774206649 
6.556467720862044 
-3.098969859429334 
-3.595935534806691 
-4.282499362583316 
-3.642924050298466 
-0.3582167277507862 
-4.808638981444886 
0.8842981801942839 
5.997719059243283 
1.022731401008916 
-3.77433928551474 
-3.363581449304066 
5.339264570236383 
3.069835375946337 
6.927405836970173 
0.1701172672178798 
-4.146148069101573 
2.489461860406743 
0.1654857518392273 
0.866807484751391 
-1.288862504624632 
-2.509946617868978 
-3.7074852949445 
-1.453579939732768 
0.9868511911085438 
-1.156453355278577 
1.071020736341459 
6.424996553697826 
-0.3580289349333784 
-3.775115243115192 
0.9648912488968293 
-0.6488691967523287 
9.243975652620041 
4.336043787861038 
-1.975202986192439 
-7.560216787768336 
0.5943120439741654 
3.825368292449631 
-0.1517129701962839 
-0.7733699698098713 
-1.866370456133725 
5.824981175292003 
7.308030671942784 
3.121120166076237 
-7.583755765149566 
-8.443670625565547 
0.5713642131712822 
-0.7514839243120461 
0.7854619654405822 
5.538964357991561 
-1.232128945866637 
-0.2796752290268456 
-0.4731548813941199 
-2.099315127186467 
-3.855886375869432 
1.229440146582701 
3.14084717203969 
3.14807144836214 
-2.053369036477157 
4.779024887495111 
2.819732294615843 
-1.19875798403756 
3.63732017416914 
-7.102749919357265 
-1.527786520570923 
5.730736998499559 
2.587976222844866 
-0.376093495190683 
-0.2226619376404952 
5.306041957380417 
-4.413707781264004 
-3.213666381966085 
4.479184647510669 
-0.115715542338689 
-3.339631420285835 
-6.280997915713324 
1.734214691435688 
2.384248199409083 
1.220903454389569 
-4.256661956331747 
0.5371386895424062 
4.399099611669198 
3.044308658046087 
-1.749144353541147 
-3.188475065381817 
8.732225104319534 
5.784669593981198 
-0.9462620697415323 
-2.552418658033643 
-7.499921656205525 
2.897894656081722 
-0.4823620420938489 
-6.758495672621496 
8.150323033915138 
-1.099023151336832 
-4.90400410997699 
-0.4909887094357837 
-2.222825937397035 
3.907726060252208 
4.610178237058027 
-2.167408231158752 
-1.205748524082371 
2.939790910002346 
-0.8177710377838625 
3.312866941857451 
0.1450754484772572 
-8.400208503632905 
-0.3296267035196019 
6.239190456337123 
-0.7305884060447388 
-0.1007436253913212 
-4.686883834890678 
-0.9085053254308529 
2.484290820725847 
4.328672589548355 
6.078218072750718 
1.745456847281982 
-6.766564871537275 
-3.820346771273701 
2.116942473141341 
-1.772225876603723 
-0.6513258590809988 
-1.601437683644866 
7.023099267519454 
2.774669362019101 
6.040916939010607 
3.951044355325604 
-6.574246800452965 
-1.567653198797788 
-1.503639296883994 
-0.8384916042916059 
-9.381471823504054 
3.41607625139609 
1.780445077142811 
-3.966330217585655 
5.732502876943963 
3.842888912178644 
-0.6477648384931023 
0.03416654416483733 
1.59481157981252 
0.7745032510037062 
1.007277340246976 
0.47030761203125 
0.9103603091241476 
-6.685364859399614 
-0.1410443886114057 
-1.324206241253851 
-0.1587726484218634 
4.689736789831995 
-1.768665471981675 
1.491530193659158 
1.108531812221917 
1.321679574885897 
1.380410378776025 
2.272192108485277 
-1.708168181756945 
-3.987115794413145 
0.9475182412482472 
0.4817307558643114 
1.522254679338907 
-1.396231072140075 
-0.7753690097325827 
1.361250400146493 
-1.935724537792778 
1.65318045874004 
-0.2975866421506834 
-4.029082966512815 
4.679845201027066 
6.345018542255804 
-0.2531845632273714 
-1.804174199412339 
-3.642906049585918 
-3.19696719252561 
-3.164240684738991 
1.201439698388045 
4.006860373678877 
1.191923638536472 
-4.243225762904606 
-7.047174488788795 
-2.703936132747896 
4.755086825066948 
3.542168280922279 
-1.325912279465876 
-0.03659525222868484 
-2.020662960691479 
-0.1943891397887967 
2.310226507474935 
0.2045815033550973 
2.120812300466689 
3.874388401573277 
-8.232718718291103 
-7.771899381109148 
6.48015370703335 
3.538613125805234 
-1.352075228740574 
3.848459396704317 
4.805459745896755 
-4.355717979835647 
3.301647748098365 
-2.832983258209441 
-3.305086192319346 
5.677345149779519 
-2.581003395045466 
-0.5633061784494208 
2.672606347901344 
2.327452485874684 
2.406027992755123 
-0.4813132733678266 
-5.483511921351856 
0.6704834155645953 
-1.142587069432848 
-1.019747568907603 
2.053282527270415 
0.361976009546249 
5.390908116097935 
-5.59717638321909 
-8.00810972627089 
-4.888287110657868 
0.3202551219524538 
0.4673717586887188 
-2.806579931363361 
7.504004935000287 
6.935051159817921 
-7.050054860443758 
-5.687401205011573 
4.943783930968893 
2.708332037040691 
-0.7951289796209781 
6.418365664447098 
-7.653552733825611 
-3.806068148366331 
5.616236428807081 
0.469912701219133 
-2.219879423149203 
-3.381750859353595 
5.501548521344769 
1.611930188859063 
-0.3038465945199674 
3.876086004822607 
-2.531237418287835 
1.387265920856722 
4.258165982064884 
-2.674293267905448 
-1.042790571835737 
-2.993075093884576 
-3.576611010401591 
9.149539986324726 
6.106831746425613 
-1.493178062970043 
-4.444054350566936 
-4.022972014851931 
1.53554362386503 
3.641669237815079 
-2.685625199091011 
-2.817157311163637 
-5.355407591946173 
2.803279457977961 
4.689680566579081 
2.372380211263895 
2.887771186792979 
-3.180109090777827 
-4.47599147293022 
1.15124260243949 
3.92153970917753 
-0.5615481196831721 
-0.8709265824345885 
-2.148308025073898 
5.069527947963363 
2.93019600932068 
-4.548911669248565 
-4.153171897940313 
-0.9050756117247019 
2.460511675363438 
-6.347209977632721 
0.3139768294396917 
-2.042823959283964 
-0.1988696614627162 
10.30294915398952 
2.853229650081084 
6.727078929132487 
-2.689782976567397 
3.730087105319075 
1.69506885594839 
-7.69347924981977 
-4.341263198632152 
4.069536578818425 
8.44204976923327 
-0.6064240391442288 
-1.640471061487117 
-0.3632851712387089 
-6.65259647193575 
-0.1466914000444864 
4.302636175972727 
-2.622560729359856 
2.583522781100192 
-0.5579889369829822 
2.121904630148142 
-1.059637272141541 
-6.13568747057835 
8.875223347613545 
6.64329506073236 
-6.088844936137554 
0.8428745594840098 
-8.554033066574837 
-7.335863862854456 
4.945322430835922 
4.513168077444202 
8.179991076922958 
-4.772230289363576 
-5.377207244323309 
0.9321351451154893 
1.145650936965284 
0.2976892566346187 
5.105886298842156 
-0.3016092181776321 
0.505961143738156 
-1.117071573843266 
-0.5354456969072147 
2.613030937793225 
-0.3310512603355188 
1.254897942768394 
3.570332876899704 
-3.233560669417773 
-6.739165263091987 
-3.002880319794652 
-2.526329657324098 
3.326299004061893 
4.067871640294308 
1.040543865579592 
3.942825004778771 
-5.995944661902961 
-3.578033268251897 
2.325140484002445 
5.522835328448426 
-3.727186131304848 
-2.1800119024164 
-1.426930145531676 
-5.427182596089568 
5.831764387063989 
1.817573051935565 
-3.707510218779273 
-0.8388468057208652 
1.838108978208246 
0.3669010581134715 
-2.038385279878375 
2.641667555653016 
4.096281822071052 
3.293172532125152 
-1.180731157946235 
-5.11568531756068 
6.408308800074828 
-1.116839007462197 
-1.597575292956379 
-1.467060765279984 
2.831727358183976 
3.55262045319557 
-2.400364700406367 
-3.857065548065972 
-4.734877818403422 
-0.05975415584539023 
5.755801526598857 
-1.646288988230595 
-5.661626335952801 
-0.4330236854875897 
7.028189660842025 
1.556403504833557 
-6.482586964799116 
8.987159494083349 
3.253566595116 
-3.628458760991898 
0.7399292409847318 
-5.241213018524133 
-1.404553572648451 
9.216867180587048 
3.433868417106553 
-2.315132702060205 
1.070144680104853 
-1.896499213059361 
-1.80026880247217 
-3.666580525130424 
1.37019768070502 
-2.692107336008389 
1.006798641111796 
2.511510085081568 
2.83847431564835 
6.888784295921033 
-2.986715634106034 
6.390488594092003 
-4.04496188819861 
-7.875118028481494 
0.2079026681687106 
2.417008569779662 
5.29026387751444 
0.4869417838005741 
-1.775416069518457 
0.7176138560321246 
-6.765187595918382 
-2.097848255024387 
5.636484017331588 
5.192561695069764 
-5.898287158425155 
-4.288163376973948 
0.2499885660380733 
0.2084093079753382 
1.541485080458704 
-0.233131796874633 
-2.186435717779838 
-5.214294528383412 
3.709918017523165 
-0.7534008584845076 
-5.731249475533613 
2.75660157144452 
4.133530489457147 
-2.837553959233904 
-0.3902154294537354 
8.746458409690648 
1.975759994544076 
1.382344452306105 
1.450703791152 
-7.161553052155345 
2.997406688800525 
5.776469450137735 
-3.797814385478357 
-3.019028192822276 
-0.4713881855632257 
-4.015403793185595 
5.275271487995564 
10.64411772957071 
-3.972814799665138 
-5.74591106585068 
2.86774345498611 
-3.292614246187119 
-6.804683810221589 
-0.3247677206642801 
3.015759410681294 
2.527453186219148 
7.090845512896101 
2.656859289105986 
0.03185494572689566 
-6.30057897008431 
-2.440920689231295 
8.556355180021772 
-1.924273914254024 
1.897548875998864 
0.4931948764813995 
-3.112963580210951 
-3.535272006071828 
-0.7932127910251426 
2.691220233849941 
-5.235465858755547 
-2.292117553917913 
-0.2699004865727285 
6.314692618575631 
4.104009757075339 
-4.078216335020626 
-2.873392745557358 
5.599923491485768 
-1.393971268403686 
-1.451563093158437 
5.232530788600042 
-4.57498608861747 
-2.966766959314582 
0.5770676355997195 
3.206369151542454 
4.485055604867431 
-5.039670553182785 
-5.756050422772834 
3.956718304946655 
5.352652565873873 
-3.03411121536176 
-0.3562545900553597 
-3.749179815646603 
-4.541413988685811 
-1.302715859064343 
7.526351667259211 
6.838984899573773 
0.9213087419845781 
7.041510037415072 
3.942181785459319 
-0.3790504623327969 
-3.394861353440483 
-4.078667234675745 
-4.220798147047736 
1.634969046660705 
2.226392639770729 
2.942540410674123 
-1.293154884081305 
-3.518384593181168 
-2.094689233691179 
-2.371994815604418 
-0.9737862732062854 
-1.54604365333916 
3.698678005371261 
6.043311479418057 
1.007359705993661 
-0.1091635879217344 
-2.56635757659473 
4.919630283166629 
1.115504310753123 
-9.600280156787258 
-3.288215178829327 
7.726566129244798 
-1.186444637284004 
0.474048639490041 
1.703961981626789 
1.083122056590849 
-1.502349417509111 
-3.881473777444622 
2.429137027415261 
-6.452828646688276 
-0.6866640083607236 
-0.5163714758580684 
-1.558649334019057 
6.403877491615871 
-2.746730120061134 
-1.234363004081748 
4.685874289200116 
1.547573145358119 
2.374920360132197 
-1.446655810856792 
-9.496251030287269 
0.9172518070202098 
0.8620482812212 
0.8134810030808438 
9.785793263010985 
1.238557222601328 
-5.191265677430371 
-6.483135891229191 
1.573812019604786 
4.337511625449697 
1.453000244718378 
1.322714611063114 
-2.56676429066819 
-2.562908310762499 
-1.375277593313643 
0.9651428293723325 
-3.492058346476769 
-5.301852722999631 
1.035028075879294 
5.173994860100122 
2.444230375906374 
-3.699946069886114 
1.55021562446469 
2.460264926797576 
6.804990971538974 
-1.023955097405908 
-3.558127814607779 
1.712822494923421 
3.199237348513539 
-0.9308134509583466 
-9.530417099751057 
0.4134221954882066 
9.186558319618767 
5.244316001174394 
-2.499184500362639 
-4.032441337386354 
-3.359539541980415 
-1.016273501082859 
0.8072573875546144 
-0.6562084247459701 
-0.1494799981514563 
2.482213545380466 
-0.7526460123861342 
-2.833106840493668 
2.831188839038769 
-0.1297769592373173 
-4.13501370234255 
-2.430988994397937 
2.904427988423019 
5.755236060696157 
-3.990429532567375 
-6.661776493462118 
5.894238946735469 
-2.135017964177977 
1.941239352076321 
0.3214139506701958 
-4.776463289968966 
7.911930573933196 
7.037514976556431 
4.965192081693961 
-3.132936043266772 
-6.816404416230569 
5.638530044894483 
0.5916246881586228 
-5.848294597272871 
2.060922428284429 
1.881250305229291 
1.516458302994665 
-0.7721875487709809 
0.7776659512611074 
1.73947318173317 
-0.6432294329712931 
-1.976047000673355 
-2.31441209014007 
6.60881654357221 
8.015315568948836 
-1.064623843592685 
-2.701091056478087 
2.761480396095909 
2.86914285514845 
-0.4284830383694681 
-0.9937020215362454 
-0.9927675351213566 
-4.132682978070349 
-4.456689090592422 
4.846291753775058 
3.787356183452547 
3.088712295651092 
2.458636643446069 
-3.00828218429979 
-1.585702673347901 
0.01282792554315192 
0.2354507917990452 
-1.907686259182735 
-7.328784473681869 
3.682795536188641 
7.28366899016727 
2.461092226266785 
0.7113342752435127 
0.5675197598906724 
-1.122381978473982 
-7.568436476638533 
-1.589608126233069 
5.759678051621598 
1.191267966362067 
-7.043759380227852 
-0.788843245725119 
-1.224790836019833 
-0.1667975110468438 
-3.979795368884078 
-0.422307808772855 
4.963072234938681 
-0.7820168856761767 
6.069353425180605 
-7.638994982476845 
-7.128654167990454 
0.9411936911176259 
6.749707151416279 
5.332393288802852 
-4.630502220980475 
-8.177413055799175 
4.223866108522073 
12.98852536686517 
1.075416988821413 
0.1936084553631793 
-1.87179516314812 
-0.3191770306559041 
0.4603472010926196 
0.4801099748840381 
3.330092396124862 
-4.280625034136619 
-1.755627667952401 
1.095685745690468 
0.9048711103652477 
0.5077334538690118 
3.879526609777409 
2.259908620582618 
-1.083070862051533 
-7.78825891912678 
-6.772032207255217 
-2.043647020305511 
-1.983865442476008 
6.099910924851183 
1.820344401755989 
-0.5593152158653328 
-8.155362313287858 
-5.353822156708265 
8.476896806725502 
4.403438906506576 
2.238867566373 
2.642019693592499 
-3.537523620872856 
0.2975969387645234 
2.465513499506237 
0.2200444768748566 
0.7160670564830136 
-3.011961507087223 
3.077847371706363 
6.102433407554789 
-6.759853715348567 
-3.296144715507384 
8.806535398169048 
0.9518964728064939 
-4.623270776044288 
0.7231872699287266 
-3.782926183346466 
0.6291913202470829 
1.114222938123295 
3.100657137267672 
-2.406639965841558 
1.639952345678768 
7.685824217868721 
-3.599315130500523 
-5.755199799666915 
-2.691226855732586 
1.749380757704365 
4.883542195843267 
1.862240982025749 
4.725717685308762 
2.717482756844834 
-13.8030718576848 
-3.604261826713303 
9.35065190480479 
1.572665941259928 
-0.3605731004247385 
-1.793279278052359 
3.279628594626962 
-0.4515289806499858 
-2.299854137982158 
2.959926558298386 
-5.778577198835503 
-0.9645645488297039 
-0.5006552264325599 
-0.5424874474164161 
7.26234226540867 
1.337469559582995 
-7.28161150843418 
1.974597783575854 
-1.21335401167945 
-5.126181768579343 
1.079245582186847 
3.157301079032985 
3.893996357251468 
-2.49891108301524 
-0.4228409293987129 
0.4636887668191084 
-5.294059468454581 
2.300749645174851 
7.823508465636753 
1.821340320571945 
2.167399270645648 
-4.564616516044715 
-7.836675754593689 
3.966068912686432 
-4.217288364775303 
2.760776612055012 
4.604358531380789 
-6.724639427566104 
3.275140515629094 
1.193502449978069 
-2.926242442169778 
-1.692494205640017 
-1.275217483437818 
2.603286031729059 
0.9935969530439429 
-3.780471708855972 
4.783029626215384 
-2.959990816448202 
-4.638206183963368 
3.751416374577243 
4.862040844690018 
-3.571854154895694 
-2.913526346751897 
-0.6242414963358625 
-4.418628825834778 
2.070181078444292 
-0.7790331156297818 
2.25861860529827 
0.8154732043156105 
-0.136127089307736 
-1.098757385314384 
3.360635507023369 
7.018981125830537 
-0.1298123438973595 
0.6338536881645951 
2.222438500087242 
-5.414122637874391 
-4.47313348414639 
-0.7230396204570227 
-5.391101738930179 
-1.530041136392529 
5.658552655721436 
-0.4712518997991565 
1.675743530816249 
7.15046758236345 
-4.646822492725092 
-0.9251836320255412 
-0.1503877249271713 
0.9258106743970869 
2.567807344887231 
0.03824735736516723 
-0.3809878952259257 
2.928439701080797 
2.602779921576313 
2.869951839446303 
5.564963195846402 
2.452299926217196 
-2.806017005287234 
-10.69237892415294 
-3.616365493665268 
-2.910377786690947 
6.35700500597934 
3.961858333928309 
-0.7201503826389819 
-1.070520997605124 
-1.877823275113933 
4.503132498864841 
4.612365779404789 
1.745933208210475 
-3.444361275106651 
2.14387208836006 
-3.167874725495682 
-5.469014397327844 
-3.064470420753659 
1.277988052549733 
4.258481776286207 
0.511156034996932 
5.253050421375025 
-0.5882299067742558 
-5.863600978251496 
-0.8721967014137151 
2.068167027009921 
1.940154168559564 
1.937663953763362 
-1.43753940263362 
-2.16684505002814 
-2.261583246073096 
-0.2731411684815162 
5.851668792918455 
3.853600903413049 
3.378857900836703 
-3.618870948288729 
-3.419745158846301 
0.6417766623888925 
-1.779788376574711 
-2.013809859830462 
-0.4893736718879877 
-3.933829272105362 
1.37373439625268 
-1.846949520332163 
2.202958808631003 
-4.256532833562305 
1.125221564623614 
4.524268714043783 
-0.9602188612587937 
-0.4538316415558734 
-1.959560977829781 
1.156024584956098 
0.7987396722117386 
2.977440749917498 
0.4210933338281737 
1.717737743874667 
-4.039124806707075 
0.1003277986680566 
-3.527483509045521 
-4.718275166038372 
0.02570763800051884 
1.223635675590379 
-3.135988453162551 
0.3417688992826212 
7.002292146186064 
-1.042906816305598 
1.071778817041886 
-3.306920266013736 
-4.031253594531721 
0.4268888134012201 
1.574503345749708 
3.410646177707531 
1.330054772249662 
2.826874134450854 
-4.770432163415101 
2.907879789310702 
6.327543032289451 
-2.449024930153293 
4.012477065759314 
-1.013138004384679 
0.2769003917533108 
1.894356183056502 
-1.561753600143605 
-4.158137056323464 
-0.722940710143263 
1.176556314739742 
5.332575339706138 
3.315772907037817 
2.202192199804362 
-3.388834303118171 
-7.961604803409257 
-0.1392747080651501 
-0.8747276879487458 
-0.3370371185956787 
3.854907522962532 
2.271018499266028 
-2.672401882224267 
-2.744606055522123 
-0.501968451338402 
3.212070149229319 
-0.6637602939369154 
5.632757343870116 
4.850972329609617 
-4.664300736753756 
-7.312460366864767 
-4.520511744815026 
1.538371186252016 
3.761159132148693 
4.092308829168175 
-5.007279317128915 
3.18463043422679 
5.282335406172265 
3.166125224601902 
1.938717959762223 
-6.200791629654191 
4.801235735404809 
5.061011269595226 
-0.425410890842153 
1.227871339693931 
0.3859357595799075 
-3.544799140239321 
-4.503689046205425 
-3.248924803215929 
-0.1358825869284341 
5.792250077893843 
3.171098907488179 
1.10519254385569 
-0.7255400175870947 
-1.675537122048065 
-1.319829636909962 
0.6716179223633931 
1.368949543655105 
-2.709852442960794 
-2.379784810766379 
-3.036486175915687 
-0.2709317186497556 
-2.338149797470474 
0.3920802935871621 
-0.7837052563247197 
-0.9033764919159901 
0.6859242049689195 
1.136407031931035 
4.530837140970755 
4.790589853646392 
-0.7538858945972821 
0.2448707449118438 
2.771449001885218 
2.984856216099907 
3.061915787661714 
-7.655126204307855 
-4.50389577271497 
5.018100649076493 
0.05173245128022961 
-1.254984676980405 
1.997799733371584 
8.370784650721495 
-0.3833989544962825 
-6.735323580776661 
-3.044154832658234 
2.791258428013142 
1.666150385087263 
2.107357385425217 
-0.04348762794387617 
-6.13636039106046 
-3.97552933599893 
0.1502405359752472 
8.126612089639403 
-2.019390851631517 
-6.264992824509778 
3.257131022851988 
-1.925953113662175 
-3.314472041865987 
-0.3405608835574295 
-1.262248345188713 
1.302656475453418 
2.745116217872388 
5.21007481492221 
-8.166217019853867 
5.037055355461705 
6.869771448202462 
-1.415478309945206 
-2.021595058406791 
-4.125330651864941 
-0.1195930370042237 
-0.4498417806790382 
2.412128030577559 
-0.1268379064478401 
0.5279172401019897 
1.373328798177573 
4.465888089919484 
0.04080506200011616 
-2.261474028576783 
2.206120596569913 
4.224587001143917 
2.648555953878855 
1.050457090904069 
0.6159359664300258 
-1.891315363853864 
-5.564656286692023 
-3.216696940269361 
0.9524855867950255 
0.6716955218992976 
0.6256190413746078 
-3.967990437737269 
-1.821306592537548 
1.672745493119598 
3.548036951388464 
5.152617571431859 
2.848557510529355 
4.194092091597081 
-2.517293628811328 
-3.682173519357127 
-3.202551721757964 
0.2383722459837559 
3.267221674568055 
-2.130221624217548 
3.823648104441185 
1.343020773275891 
0.279054762782785 
2.356618669671081 
4.159900865998519 
-0.8293753015060219 
-8.372612644810143 
-8.44995204548974 
-1.39336260890501 
4.677447463705088 
3.58993190768536 
8.841251336539891 
-1.226513949022438 
-11.98327210642283 
1.420939657610413 
-6.04420349715325 
-8.68016693344412 
7.507286864892779 
6.043369614274451 
5.891557945970095 
-2.178871444278994 
-1.189006730309789 
2.717489421187926 
-0.7802869549547075 
-4.770932125251736 
2.889958337642252 
6.685808819647738 
-4.378834632903363 
1.876488808101598 
-5.92411053133774 
-2.987155180963315 
6.499019492296195 
4.460160158723001 
2.546419651772697 
1.624363571158705 
-0.6191048528383265 
-1.281408104412441 
7.648308640498511 
-0.6799320909540846 
-4.866262981759892 
2.248276424801117 
-4.510026231701023 
0.6482627964590567 
2.288810969044159 
-4.506313197151081 
-4.548314797430939 
-3.210020705323161 
5.790549162935433 
4.454310095007723 
0.361504981938834 
1.05763094335184 
-1.55476959989849 
3.060747832648231 
-4.396964078787815 
-6.039441913210908 
0.09860343736332729 
-3.564477015175123 
7.241050350706391 
2.257398256899005 
-1.412919494679543 
2.44476942956532 
-3.071408278175283 
-2.473957470291186 
6.0456770795988 
-0.7998559641071693 
-3.891902794362558 
3.014221499664217 
-2.078854780583189 
-3.837760410866311 
0.07664015906182745 
-3.381875371314249 
1.817996685741848 
4.113527594367781 
-3.583725390299384 
3.25300399744309 
10.34975033242137 
-0.3635094057049191 
-4.7526598448096 
5.133159949624443 
2.1134394888791 
-0.5253141178785121 
-4.387184783530571 
-8.158692365794677 
1.387640533206198 
3.145213912877348 
6.608092960241988 
5.061245605314391 
1.715428799833637 
-3.564516863427562 
-5.440307168800921 
-4.652846925613781 
-0.5310147216913987 
2.053683796795448 
-1.820986122815377 
3.077522990537763 
3.243892407597661 
-2.938122551940979 
-4.634509827000302 
-0.6400205728785013 
1.770044298259547 
3.55855665839112 
0.8457249917175451 
1.480730559107622 
0.2274875235378273 
0.9231395762082905 
4.535999493421747 
1.992102725573721 
3.457838779531616 
0.2947996744188739 
-7.497549842754883 
-7.010232122733473 
3.297566041086501 
4.317713520200725 
8.248537550437611 
-0.1467397066350448 
-0.7413281423010681 
2.661907676080286 
-5.119654208550089 
-3.402413022148503 
-3.676193003903574 
-1.240139049382369 
-2.577487706736151 
-4.037016528689872 
4.964601024710065 
8.26612401870069 
4.281461046425881 
-0.9282562961195292 
-3.398099215539481 
4.980504934908146 
1.902413710822327 
-1.069576986030669 
-0.5908106414128559 
-4.739764127802916 
-0.9439754693815879 
0.6485339427443755 
-1.540428388568504 
-1.883449512337956 
-1.955201897104144 
-5.305744014425817 
-8.221226198468262 
3.259541569534248 
10.54509851870094 
6.666868456971629 
0.7515523444125074 
-1.486754215745665 
1.816349927071355 
-0.6209837977714346 
-2.126309482293333 
1.449231811829501 
0.389127478658285 
-2.577552578757667 
-1.800485001856791 
-1.074052138838719 
3.862395687872147 
-5.305484198733199 
-1.486127074865261 
5.558050802410381 
-2.236872458027015 
0.9216941379078963 
0.8295396835349419 
0.6995908206684169 
4.191861506753458 
4.753490050856715 
4.095337057054054 
-0.3675611200838351 
-6.861222688754232 
-4.436924303690103 
2.329008608649796 
5.546578617763877 
3.568705283402481 
-0.5722159449783093 
-5.634842562736643 
1.433706543241769 
0.7093722405552679 
-8.161688062730899 
-0.8077713789101999 
-0.9611186243044727 
0.9866283107718269 
0.0552778798118994 
-1.99457791775751 
-2.159043195120577 
5.055526258385158 
4.35674169723108 
-2.685827705033975 
-0.9290018713545014 
1.202557057472602 
4.355690493879116 
-0.352030668584326 
1.35022354111668 
-4.252632346188006 
3.220730986854955 
2.889772965292344 
-4.62462497421889 
4.800202261422903 
0.5798065862771425 
-3.602364070140104 
-6.209367406701205 
2.185003586259601 
6.563883476761838 
-5.058968849931316 
2.789318775405413 
3.113911428228559 
-1.454660430808436 
-5.3044572957697 
2.848867002227261 
2.08265397760923 
-5.267007285988464 
5.093636139823667 
6.565653596633459 
-1.993923717668936 
-2.868311630494655 
-1.128217577315048 
-2.338846733844755 
0.1636793788315617 
1.258279162703682 
9.15948123548598 
2.062812206561253 
-1.14212862336146 
-2.654233795641283 
1.26738126269957 
5.368119612913048 
-0.3045470832001967 
0.2613748129526126 
3.791885451297864 
-0.08329633016129179 
-7.339471901668784 
-1.68866679399515 
0.7094446626883392 
3.47344128247394 
2.937286588339784 
0.6099996037358695 
0.5340012973445674 
2.107439607841139 
-3.620505885145543 
-1.317095210822428 
0.656740379539721 
-9.16728693169415 
-0.9513406219222617 
2.766488385283533 
8.252504919458046 
-2.63574502487311 
-1.729928954345632 
3.906591439751607 
-0.2029300383756993 
-0.480976740201888 
-4.545581419788978 
-0.8733199184102793 
0.5947894190922994 
0.1883112623240925 
-0.2695884327656933 
-0.4011045058868232 
1.739808851431137 
1.605311111984479 
0.7851678044434405 
0.05599268769272291 
-0.1655252996821807 
3.15827471962373 
4.245316457049114 
-0.08943114113019242 
-3.622335886632752 
1.278790792126006 
2.344211018384871 
-5.707424032898182 
-2.014301264639339 
1.983125241618258 
-5.898341704540814 
3.596821474410029 
5.978291605661521 
5.489037795436848 
0.0646845561184569 
-3.543680121814287 
-2.842259886364435 
-1.710990075850727 
-2.005110336715703 
1.386233577445168 
1.811492431034089 
-0.3789118591196234 
0.5383620429936179 
0.0983810149340112 
0.5393150411925501 
5.136959286877976 
-1.559169237908356 
-5.242422979026331 
2.627666422072076 
3.777394026406133 
1.216671903900036 
-2.63992776955775 
-0.8296839262792537 
-4.127226614291483 
0.810302648938254 
2.070978042795554 
1.338398854136536 
0.5162338637151226 
-0.9600205595505076 
-1.0662094185098 
1.269836182031372 
2.7293525581717 
-0.6502821758306714 
3.895146644899864 
4.284108083119322 
-3.221760405548845 
0.4197189104862992 
4.660168377673466 
3.886822839283332 
-4.165358818286257 
0.3340886775532205 
1.20624328578914 
-5.409123288308854 
-4.162114341128127 
-4.091000552088919 
-1.573268633028067 
5.789263357867934 
0.5246613527752999 
-2.163030360476166 
6.078546877289567 
-3.143105915138077 
1.572474716503344 
0.9976475553592692 
-3.089685978189685 
6.242911619693243 
-2.96857051829759 
-7.71502008267677 
-2.226556952615482 
2.049919775578931 
7.210156999440952 
1.98720887842079 
-3.537283980182786 
3.90667430159444 
-4.001459472355118 
-5.665874431254609 
3.282698938739646 
1.827094032547889 
2.554257641559855 
1.318313560522517 
-2.094408352044761 
-3.13791345941393 
-3.411293433129042 
7.934102531838668 
8.833901496636578 
-4.20467742527862 
-6.236113219976476 
0.3936314904834788 
-1.282360489851916 
-8.275289517334544 
4.469023286779751 
8.490146267933657 
0.3250540822262112 
2.930616296194109 
2.475600388453653 
2.386127600409365 
-5.547111436274401 
-0.3250442063162981 
6.701322719288987 
-1.374779423450599 
-3.871873447453348 
3.881006587686588 
-3.069356440218384 
1.380581537822036 
2.985678159160016 
-3.583305603849309 
1.512381191196115 
-1.933264047255024 
-2.752322708567733 
2.342613934578574 
1.212080536144512 
-5.93673216478342 
-2.401144077708264 
0.6948016682885353 
6.529466427387973 
5.661058142787425 
-1.009917407430207 
-1.572260994460306 
-0.6606043531581385 
-8.329904382807145 
-2.262045744753237 
3.471360243187123 
0.002079475742918881 
0.7016584130055715 
1.386018996854544 
5.202847345791509 
1.169432741207809 
3.26550440966331 
-0.9540753024675184 
-3.954321537036555 
7.21423940308128 
-1.304852657931151 
0.2295736905006808 
8.681662248821759 
-2.130388274167308 
-2.49876154387095 
-4.321598766752229 
-3.341775472539835 
-5.991931218745557 
-2.098308879282135 
6.682503396245087 
4.891021173011239 
1.813898161997621 
2.199542295262663 
