solver_type L2R_L2LOSS_SVR
nr_class 2
nr_feature 1984
bias -1
w
3.646273735962113e-05 
0.04476302933340307 
0.04125243690063767 
0.05151197439112934 
0.04157272257456738 
0.04822586369897514 
0.04002631052842838 
0.04840309995045014 
0.04144468616578913 
0.03982186238222371 
0.03355881228672079 
0.04626154734930415 
0.02884113936486738 
0.03930594934810212 
0.02799273902045963 
0.03689821606584265 
0.03108015376660842 
0.04341976460279048 
0.02912572417024068 
0.04045862985559611 
0.03421586657063228 
0.03880898158447613 
0.02202198557228752 
0.03412805874969482 
0.03303840013783552 
0.03416918767334533 
0.03502634438430946 
0.03821897825854558 
0.0276182954556953 
0.03836610716072848 
0.02753256750037255 
0.04642751608306966 
0.0309145625959006 
0.04831544277509956 
0.03725193409492031 
0.04892304091838451 
0.03212518217490092 
0.04692518925819683 
0.03272603227187618 
0.05217306705380023 
0.022336928750293 
0.04445411349242084 
0.02316874624606951 
0.04368294930279564 
0.02380182418560251 
0.03867764991544877 
0.02740856401056522 
0.03846594739850998 
0.03571763100619386 
0.03920209685863283 
0.03325522689932081 
0.03545544358688746 
0.04293025098733857 
0.02817491836041114 
0.04292553658688156 
0.03359099567730123 
0.03928409760985438 
0.0333588313484622 
0.03364020238888651 
0.04036243090163167 
0.03397419217089763 
0.0455998849982947 
0.03789567827530937 
0.04254214984143861 
0.04545740335547301 
0.05198394382424012 
0.03810404955061437 
0.0524101981117615 
0.03502105257072643 
0.05564823128114286 
0.04378684593083525 
0.05166698996844005 
0.04330811125883488 
0.04277711183609498 
0.05203977340530019 
0.04734903312097612 
0.05198407723114418 
0.05256992195889977 
0.04435668914817537 
0.0570977550760083 
0.04101486987283269 
0.06150257891831896 
0.03336862735443336 
0.05528027180004155 
0.04075828045901875 
0.0515844284737421 
0.03630424745378029 
0.05872734013876114 
0.04390881507945875 
0.04421730903679369 
0.04624534727623373 
0.0433970225399639 
0.04230241605433813 
0.04066192145363547 
0.03462270535194808 
0.04895982064045159 
0.03945988571335324 
0.05456939497715289 
0.04722683408783676 
0.05479035079166054 
0.03713320200421213 
0.05778903631033797 
0.03198634033330564 
0.0502181006673057 
0.03703311525262791 
0.04391166365905998 
0.0378869167806548 
0.03716728897833642 
0.03040359139405529 
0.04773421083849983 
0.03000104539332632 
0.04721671253634638 
0.03359335545984741 
0.04538968975734026 
0.032331710056652 
0.05050588156293663 
0.03407663938200922 
0.04496911581441104 
0.02969002167001243 
0.04446019118695525 
0.02287274658139244 
0.04688234048555651 
0.02708759576653803 
0.04929302045640296 
0.02568420034704321 
0.05163125442696911 
0.03101784862949864 
0.04249966739567596 
0.03890845323443715 
0.03349011638886307 
0.03705374071416821 
0.03467238498880276 
0.03579393066519972 
0.03922613579584428 
0.03211027473941785 
0.03771400696254217 
0.0264264972356949 
0.03847873169473399 
0.02915693922936612 
0.03992145747187058 
0.03115411222811411 
0.04039645320398923 
0.02728947022447189 
0.03990814330194858 
0.03667301586506973 
0.03764901445596459 
0.03386978942149328 
0.04970194005320937 
0.03039278747117547 
0.04249338634797336 
0.04029702425712547 
0.04257624872454367 
0.03934217361365627 
0.03476776263868975 
0.04314468252672411 
0.04233331181360947 
0.04199655260376359 
0.037251047867282 
0.04289663638587646 
0.03302167967637077 
0.03369702488764402 
0.02779698446617488 
0.03363384583339409 
0.0287707725398952 
0.04147037366594731 
0.03227684809530256 
0.03841992939984398 
0.02773542212283685 
0.03981286704232635 
0.03471997096281933 
0.04444296722045396 
0.02548991640975731 
0.051851507612686 
0.02926092564146316 
0.04951676729851921 
0.02944299356473782 
0.04138229885946933 
0.02400605707546394 
0.05041786773245162 
0.0314157108111259 
0.05346802161565338 
0.02943168457206288 
0.05343147047273172 
0.03574050385732733 
0.04242577840444516 
0.03751681684061311 
0.0351338334260075 
0.03760076565890779 
0.03569710138553811 
0.03743047413508519 
0.04523271263577289 
0.03186165850012955 
0.04420380539458424 
0.04086123573279832 
0.04141431324666391 
0.0390417504680094 
0.04004746510668283 
0.04241305269911563 
0.04191725009628765 
0.02683191906114349 
0.04061566406156469 
0.03001049211097793 
0.04637685592165765 
0.02774575043976796 
0.03649317813152928 
0.0256908656563517 
0.03920218782264512 
0.02064460827840875 
0.02991407762830695 
0.02964379244688663 
0.03540674798583187 
0.0292536013088825 
0.02608157655327793 
0.0325786268858763 
0.03363831919071463 
0.02407067957287704 
0.03992348122524506 
0.02419534366599722 
0.03515647360903466 
0.01710838265123726 
0.03108850074196427 
0.02048834403707824 
0.02902174068345043 
0.0247166709214268 
0.04337161866370799 
0.0262600453401302 
0.04147863870315634 
0.0175892853893097 
0.03475687116474529 
0.02907051067014986 
0.03360731765025399 
0.02056617557295796 
0.02403253647730927 
0.02551753936176085 
0.02509755247207587 
0.0224786852439795 
0.02525591722466213 
0.02307449989663826 
0.02995894900460983 
0.02233203322448333 
0.02641989270257274 
0.02051988714284446 
0.03213712751532692 
0.02179476190353389 
0.03573581034846611 
0.02366040286281386 
0.02709566350516468 
0.02776755949759957 
0.03408372470008206 
0.02578884889827852 
0.03738432323708741 
0.03213674887294492 
0.03944337713194199 
0.02512495414576265 
0.04268873660292612 
0.02098564220889411 
0.04309500511280638 
0.01743491721927177 
0.04877412040143116 
0.01264167777434015 
0.04601809934374829 
0.01521772815914055 
0.04483640081640297 
0.01595886785242412 
0.04489672285599283 
0.01514148485117159 
0.04665622329154945 
0.01557738449153833 
0.04382681197620308 
0.01765230677717969 
0.03762852076171588 
0.01964741949103351 
0.0384482473065993 
0.02069765359588268 
0.04079591994044918 
0.01750507176873117 
0.03214766629224743 
0.02365556433141354 
0.03356273692119684 
0.02076607769438833 
0.03874087973199901 
0.02152095018384985 
0.03806934860575922 
0.03142647391677225 
0.03980060095193104 
0.03054821745575309 
0.03540346859511262 
0.02941989842601916 
0.03719450073775032 
0.03167155855858288 
0.03835544677650089 
0.03627560211741249 
0.03513030723596479 
0.03192995712288244 
0.02884512597764891 
0.02970973021963583 
0.02827184375596959 
0.03563412698242164 
0.02486041328964681 
0.03388553487539234 
0.02582602597836912 
0.03445135718927423 
0.02532966458859368 
0.038607199678397 
0.0276821016717469 
0.03294977175388466 
0.0322501276379549 
0.03926547117095283 
0.02807235448925062 
0.0389941734047306 
0.03350147044334219 
0.0446200183064853 
0.03317794744906402 
0.03992964130122587 
0.04026692060388986 
0.03763667003396619 
0.03266653619310284 
0.0375241845555951 
0.03551049715153562 
0.03083212190872132 
0.03502374568576405 
0.03786408621761074 
0.03193508238801119 
0.02516673682487453 
0.04040909433787195 
0.02246549931400256 
0.0460891014887396 
0.02194875483453603 
0.03254075132785479 
0.02262499163694731 
0.03702845394923247 
0.02801170470650075 
0.03296645265784149 
0.03280586488083453 
0.03135736870865709 
0.02990951311420056 
0.03030892737543192 
0.04025969822652605 
0.03046655946453623 
0.02899704449983963 
0.04314909251965212 
0.028838306955178 
0.04041804904201964 
0.02933679886826306 
0.03659732731211916 
0.02238449719222263 
0.03635220437714352 
0.01877381740695259 
0.04403807957328681 
0.01883511470273765 
0.03336195521427369 
0.02433802385644841 
0.04532175140942885 
0.02797848556410919 
0.04874691524287542 
0.01840679478629596 
0.0442711142752299 
0.02236902398458819 
0.04176934714821498 
0.02477580398463809 
0.04766523458647395 
0.02371285379079069 
0.0520207283637262 
0.02455941272963786 
0.04930101865376658 
0.02951808970943315 
0.05150728296414671 
0.03289128204887606 
0.04824602134046226 
0.03021788674043978 
0.04983475118351145 
0.02697246330351769 
0.04460483444924329 
0.02431981339921149 
0.04773588442881382 
0.02760876109453663 
0.04217550513308843 
0.02394027021841868 
0.03964456152438316 
0.03448786203734715 
0.03993538698499906 
0.03210251597437984 
0.04695348547730295 
0.03328950078771773 
0.04080943640767906 
0.03202542872865047 
0.04887714074642385 
0.02696841575252336 
0.05159704233087721 
0.0219362355108163 
0.05133132886943208 
0.02776613479644611 
0.05385279655285158 
0.03110104885281509 
0.05528514600300391 
0.03163820007888341 
0.04774210367662556 
0.03886889506077971 
0.04709628057699323 
0.02391625720148754 
0.0493837891248446 
0.02632873040295379 
0.03961298580174704 
0.0236607832668548 
0.04293131393242107 
0.01820138372784144 
0.03775262420195451 
0.02212618787706854 
0.03417644707595852 
0.02458525148700847 
0.04410081384551076 
0.0306430784235974 
0.03373248968509081 
0.0369707439196947 
0.03605821832180395 
0.03623796084758479 
0.04006940824990472 
0.03967758300403808 
0.03715469614210896 
0.03590996464666835 
0.0367162864744219 
0.03900796606997155 
0.04188135330019593 
0.03562376232413774 
0.03090137183312253 
0.03131508677014095 
0.03714763459853695 
0.03283499687734517 
0.04488922425332274 
0.03661507535939251 
0.04803344588940692 
0.02864447536250046 
0.04398742182153115 
0.02748103481939652 
0.04916390450268775 
0.03170367288467529 
0.03938791224470517 
0.0300925632356889 
0.03879687661304825 
0.0211255255244242 
0.04550024830155593 
0.02904588728280614 
0.03350841825471245 
0.0316044434700361 
0.03585239606361239 
0.0322417511024732 
0.03599416983768811 
0.03126831049511114 
0.04180464953619119 
0.0332129348380605 
0.03737541265597727 
0.03334551298938353 
0.04434616639211691 
0.0353939412080975 
0.03803088369321743 
0.02212521410497553 
0.04674470208106892 
0.01641223449888305 
0.05129978586084299 
0.01584908068799611 
0.04980617672014408 
0.02304406971518035 
0.04887441183913822 
0.02801142203235136 
0.03928331624134976 
0.02344295196626785 
0.04371620078833462 
0.03031572195030328 
0.03437187612031227 
0.02867279935407115 
0.04027476862764344 
0.02242872794834182 
0.03733656940636265 
0.01910825015779424 
0.04203619695633625 
0.02638650217457921 
0.03390625028968752 
0.03014165005798827 
0.03429482630209814 
0.02752631804122391 
0.03532147767711387 
0.02322143277932025 
0.03456512409703029 
0.02166801110835092 
0.02970468386937902 
0.01692614156313415 
0.03346484214105786 
0.02060791595591425 
0.03164304187608606 
0.02851015884634889 
0.04115060509546732 
0.02979743691334871 
0.03707167595922779 
0.02750071116024512 
0.04033561193388746 
0.02704103991268508 
0.04102425931929746 
0.02754853677653902 
0.0377744453111742 
0.0329165220538921 
0.03813703266718856 
0.02702600944701193 
0.04649088543482077 
0.02923878451100572 
0.0533477004105484 
0.02978818739951949 
0.0415054515012094 
0.03225572510798938 
0.04180753834788863 
0.03575411079265906 
0.03638601203725884 
0.03611363365977133 
0.04150067584602487 
0.03364730607999585 
0.0483262945334758 
0.02636422914427856 
0.04815937204431055 
0.03117953874238544 
0.0448521380244629 
0.02509889852148051 
0.03285452814122456 
0.03304830423171825 
0.0399604375561928 
0.03270648825146907 
0.04029516832040935 
0.02941050357057763 
0.03886271739471367 
0.04136455872483582 
0.04433085949534073 
0.03925176275099285 
0.04091488236149432 
0.04036243236673579 
0.03201462918609047 
0.04186227953235955 
0.03958214644657251 
0.03855925690434037 
0.02745351215210319 
0.03247114788084431 
0.03675847203729948 
0.03202389562104715 
0.03822147546199871 
0.03471192293049002 
0.03385536124565675 
0.03580014011536223 
0.03890903272945786 
0.04162753987465182 
0.04156345337808378 
0.04026965685097121 
0.03981455689706251 
0.04357361817520188 
0.04233724851645192 
0.04174473065113292 
0.04300051148307186 
0.04249213580620222 
0.03461726791031806 
0.03661748791982639 
0.03469917436190101 
0.03438306896504702 
0.03737418751856317 
0.03243452104060394 
0.03406601095223269 
0.03083435596599296 
0.02617191351439972 
0.03326860235196368 
0.0201691807875197 
0.0363723279798521 
0.02098058307428598 
0.03451088615678693 
0.02034360169718715 
0.02870376509935086 
0.0223503340139034 
0.02568107564492691 
0.03633099353025643 
0.03066050681631417 
0.03178855307282138 
0.03202057550798244 
0.02432339345080365 
0.02582642944793304 
0.03709444718774695 
0.02083386038731536 
0.04289678479300715 
0.02850049896520475 
0.03939860911783197 
0.02768261566222826 
0.04055174538574453 
0.02341062760875588 
0.04317937762527957 
0.02533975641948136 
0.04110641525914017 
0.02907867938126168 
0.03851318439516732 
0.03728921806764387 
0.04382305390504843 
0.02818750979539332 
0.03888097624200697 
0.03024906223144152 
0.04712846988891639 
0.04075344031184364 
0.04014762951168699 
0.03218101828481228 
0.04575461016508846 
0.03145317243810659 
0.03727655924129419 
0.03939549355354507 
0.03858871013888947 
0.03261007850819991 
0.04185691709853058 
0.03053562625153642 
0.038885413191976 
0.03040740583702615 
0.04972862935938888 
0.03601636583323274 
0.04786074845182065 
0.03768690656386148 
0.05526376372192163 
0.03801942064614596 
0.05708837395097289 
0.0401118343597133 
0.05172705421829571 
0.02826322780027053 
0.04698742227283926 
0.03857127485916868 
0.04793405046499415 
0.03331386793704152 
0.04459671081037606 
0.0391564421130529 
0.04361769402253328 
0.03670649494271791 
0.03482461277694227 
0.0323883799197191 
0.04466048786498026 
0.03762847104167355 
0.04425460507261114 
0.03823687341124007 
0.04734886686895758 
0.0322814335047031 
0.04426395058616935 
0.03253119623287188 
0.04514771661155502 
0.03737136771606139 
0.0520758794057349 
0.03966799624042335 
0.04918465106011131 
0.03707675716291006 
0.05372150699004371 
0.03607244752896398 
0.0568690448704812 
0.03762180114843942 
0.05234776417935444 
0.03463201031624275 
0.05754232551017548 
0.03815502655717985 
0.05085541071823065 
0.03619651762698937 
0.04904440402202796 
0.03115390860738095 
0.05166552648598853 
0.02659096369100895 
0.04699304123474744 
0.01601629997421965 
0.05375140876700296 
0.02502722706018881 
0.05254284400801826 
0.01675787243184405 
0.04954844762271709 
0.02509347049081762 
0.04972309352670876 
0.02926722577434406 
0.0430971939495196 
0.03570278432954056 
0.04283603860060984 
0.02618887731170756 
0.03365794754653838 
0.03237920436907694 
0.0338553416673763 
0.03234001992507436 
0.03416650609853275 
0.03383663423003398 
0.03434390909392275 
0.02670521883708433 
0.04340030266238914 
0.03405299228154262 
0.04593109796574261 
0.04166916472745417 
0.03913613166212776 
0.02904762915786963 
0.04666712381093491 
0.0277594427220793 
0.04579225972758314 
0.02663443347712448 
0.04338799821839047 
0.02196124771311406 
0.05429915616828485 
0.01574890286772818 
0.04351870290299933 
0.02456501710713006 
0.04460503592079396 
0.02318810165390982 
0.04943814277874709 
0.02088584387807175 
0.04995727488533432 
0.02171786069132202 
0.05780414797957072 
0.02634495835684391 
0.0515936598944938 
0.02520411974249444 
0.05052726709334926 
0.02656953998795401 
0.05425469093391592 
0.02190465855104819 
0.05490593804285981 
0.02295395037572054 
0.04944788492202294 
0.01670466309323521 
0.04481125733022656 
0.01767882163609265 
0.04209046070576866 
0.02525530218726646 
0.04406125184271393 
0.028663007983583 
0.04335337488429472 
0.02567145371544458 
0.04054019868709451 
0.02392398041598315 
0.04939910008484145 
0.02061301746563189 
0.03990638243815421 
0.02390041664358639 
0.03706129373877731 
0.02655118700105153 
0.03666187507217767 
0.02636578258363828 
0.04363451740573596 
0.01971532160009044 
0.04770955926266131 
0.02798599693814648 
0.04850768721078774 
0.02785734922895764 
0.04946293443936926 
0.02221978767739035 
0.03854125701036133 
0.02727170398265877 
0.04291645158617388 
0.03287424643366831 
0.04006785748336657 
0.02432519610727378 
0.04480617456311252 
0.02413128778322404 
0.04726966478755787 
0.02879975076310799 
0.04779462792688099 
0.03579233291427478 
0.0523685668560718 
0.02996098495695473 
0.0446994569107833 
0.02452486375553079 
0.03864116265185934 
0.02845657378831852 
0.0318215763382682 
0.03041672333848057 
0.03970277340894399 
0.02525635292426658 
0.03185682919475482 
0.03279859154125464 
0.03688644157532665 
0.03119035910659979 
0.03736824337782327 
0.02723075165979329 
0.03796680003212376 
0.02574712416677866 
0.04017358128977498 
0.02783796501466812 
0.04553172920517765 
0.02857410154318246 
0.04764837260690507 
0.02158643506601316 
0.04639166501749496 
0.02936450112801115 
0.04862722375540326 
0.02355306107653461 
0.05189789127576936 
0.02682887112021395 
0.04473447069159042 
0.02703622326096064 
0.03605897850451584 
0.03085445451627992 
0.03331716658560041 
0.03164383584657218 
0.04089103186419109 
0.03024487300670923 
0.05057977911048855 
0.02631979114204681 
0.03510318651086171 
0.02081885420955178 
0.03457626306870788 
0.02128817360403942 
0.03292409228638178 
0.01758362613862074 
0.03621309280208487 
0.02103524386319213 
0.03227959069254184 
0.02210869924841806 
0.03417099371366418 
0.02246329263148926 
0.03219389558472049 
0.02467622056056256 
0.04322765713434178 
0.02184037945361415 
0.04151741662726895 
0.02516358230053663 
0.04790301697352107 
0.02059971393488256 
0.03853347923979977 
0.02180275582040342 
0.03760266555547695 
0.0160593000293497 
0.04191887121895465 
0.0248618191943928 
0.04237087539746964 
0.02574413885498213 
0.0454217092620226 
0.02474732877296255 
0.04435579350327198 
0.02933959801234886 
0.04388183195921595 
0.03626632642849609 
0.03859182844976701 
0.03393905652600464 
0.03766066021054622 
0.02443189937780861 
0.04237869941932236 
0.02819955612608533 
0.03507249900520627 
0.03114160039642279 
0.03518739579246121 
0.03680407639570929 
0.04024872181435261 
0.03222231406274301 
0.03743014732043795 
0.03165470473093393 
0.03749718981239013 
0.04297729819417258 
0.03769397478669265 
0.03981235157733353 
0.03627867814927042 
0.03865170997736925 
0.03849054610353356 
0.03961337763543241 
0.03154225289059672 
0.03734264443943233 
0.03606046690059185 
0.0461880149483147 
0.04029615643261487 
0.03844622630997786 
0.04100483738925348 
0.03791049026240466 
0.04331893446964824 
0.03564931974072677 
0.04139197317203465 
0.03689593242254776 
0.0410910570655031 
0.04837874140956477 
0.04017086715066225 
0.0462493223846295 
0.03846954854629086 
0.0431503348633395 
0.0433913291357214 
0.04133606302550971 
0.04480690624072644 
0.04768770594799927 
0.04014797790435835 
0.03620471883082264 
0.04546973136191648 
0.03586146579543475 
0.04504888855286179 
0.02893705813494704 
0.05540676734067566 
0.03147181760460197 
0.04839555088599458 
0.0402121962096305 
0.04738947363799722 
0.03856102178191453 
0.03476123270629649 
0.04286519972073369 
0.04079212856923581 
0.03398577321682963 
0.04725768566084768 
0.03644684177599642 
0.03587418019747619 
0.04100488704396931 
0.04233432631392724 
0.04693921323307114 
0.03427546561588193 
0.0422761621181225 
0.03643860778498852 
0.04016186856061838 
0.03270866839329048 
0.0431653480667146 
0.0287431867751229 
0.0430859350845318 
0.03092786498051718 
0.04203684836170612 
0.03483329380733004 
0.03280256353906343 
0.04017651093631523 
0.02880211798848048 
0.04145378882037432 
0.02540561373672544 
0.04097255984232858 
0.02898902539216305 
0.03741960896995566 
0.02968201124452823 
0.03793743177152975 
0.0255005342939078 
0.02715013475885254 
0.03637624580139736 
0.03231589571404616 
0.02951355008137943 
0.0319719011966978 
0.02445393730481049 
0.03431299055786153 
0.02912971728793927 
0.03357114646931526 
0.02519852651958645 
0.03617689812504477 
0.02389657109881367 
0.04294374821976443 
0.03281421577067891 
0.03996219074916717 
0.02450170432715473 
0.03737291155503636 
0.03206236313558605 
0.03201452103277348 
0.02961092453135234 
0.03233780818538384 
0.03109269562046158 
0.03284759647887713 
0.02488385848892951 
0.04272049936231281 
0.0259453771003188 
0.03626540546376474 
0.02101874297959154 
0.03726977381601534 
0.02493243860976547 
0.03342306133237204 
0.03237684461375584 
0.03396052229043949 
0.03011473855600943 
0.03953275926837374 
0.02735968491649342 
0.03731420188414226 
0.03006274027979554 
0.03461076260029899 
0.01775190571042795 
0.04726704364179703 
0.02602010009395014 
0.04560876002383252 
0.0335946118638303 
0.03909440439136799 
0.03533680244790746 
0.04560493275530087 
0.03972853110499358 
0.03293278571612286 
0.04313365288580154 
0.03629366460694465 
0.03814540576359479 
0.03081965040662946 
0.04212229146438023 
0.03346604891567972 
0.04038501430873961 
0.03690859041652399 
0.03947368724153329 
0.03439494855096707 
0.03103278506109694 
0.0451153264083036 
0.02936060674874486 
0.03787872364426174 
0.02509027801011976 
0.04025235810054952 
0.03426698899308069 
0.04281522591172159 
0.02643299167783964 
0.04613316156131764 
0.03371534120469315 
0.04241434091855563 
0.0412186171482982 
0.04922947386885053 
0.04853491160119078 
0.04262455671479549 
0.03715041318363386 
0.03829620512115435 
0.03988396866529534 
0.05187088295238474 
0.03717421622026996 
0.04396800941561219 
0.04638524010180094 
0.04442908274789076 
0.04891443015648364 
0.05256399532556414 
0.05194814885426417 
0.04412624489888292 
0.04505892418751118 
0.05145781909430557 
0.04511022664986071 
0.04585686452276542 
0.04892539765834491 
0.04309542760490701 
0.04152548294755926 
0.05110176679208673 
0.03632898125043976 
0.05219368600928392 
0.039777415705397 
0.04767530198695231 
0.0344064253919988 
0.04875490901444701 
0.03384141520233343 
0.04279134051443167 
0.03591278596024427 
0.04929050323387197 
0.02457410199241482 
0.04839509457320385 
0.02756400359750685 
0.03858408262457402 
0.03298785654518021 
0.04984579918472418 
0.03628593287908474 
0.04440426728132111 
0.03640143052177924 
0.04983774513402665 
0.0308082070785266 
0.04746227110415858 
0.02906454582048218 
0.04144869500487798 
0.02454076214332923 
0.04825555042085172 
0.02638969143213824 
0.04439508616118892 
0.02847536452056737 
0.0348798348936646 
0.02852780814326408 
0.03562730746207032 
0.03275000351949801 
0.02523216521575723 
0.03138638635867155 
0.04049951275166162 
0.03425658159439431 
0.04397362298080512 
0.03190198472596856 
0.04216430065917927 
0.03260827657447601 
0.03565536237077492 
0.04204478615387638 
0.04087083297580878 
0.04074036085597545 
0.03731566275043788 
0.04621472345474553 
0.03884317615380325 
0.04462920324299771 
0.04107758232306161 
0.04551858663719483 
0.03564145711614294 
0.04257451364343812 
0.04443872086500836 
0.04290794818418597 
0.03449268613837744 
0.04738173473185553 
0.03468646675607961 
0.04542355908592692 
0.03514206949011379 
0.0483118246047767 
0.03378025002230722 
0.03757316565927157 
0.03930542069444564 
0.03428756260109861 
0.03342676855277852 
0.03149187935240688 
0.03602491179995429 
0.03990546686327172 
0.03464944414125183 
0.03651136988371263 
0.03605805402877938 
0.04344541718123832 
0.03806668817344354 
0.0387307428232181 
0.03400387566484175 
0.04647252886120602 
0.03557212506554023 
0.04890449713009497 
0.03276780457817511 
0.04225196333184687 
0.03461269131233123 
0.04638880285017932 
0.03281685844625765 
0.04120200686603385 
0.03513095815632063 
0.04038996460394075 
0.03141578842124411 
0.04748287400934339 
0.03528017632075676 
0.04461880311658616 
0.03853181347032801 
0.04477792909238757 
0.03467904753250805 
0.04795047657182432 
0.02774899316157057 
0.05194139887706294 
0.03676987471566107 
0.05156442549812924 
0.04191638541297499 
0.05175973000287061 
0.03385354672032313 
0.04527521296758204 
0.03127409608834793 
0.04863367919988157 
0.0320778929032545 
0.04634440486388427 
0.03932637388869964 
0.04426811813089217 
0.03834443652816327 
0.03975908570477354 
0.03787784591034919 
0.03857983806202578 
0.04432526822762641 
0.03909278086230816 
0.04745933711393197 
0.03432269122173143 
0.04789399596016366 
0.03390402922616956 
0.04679645823418409 
0.03740242245112373 
0.04284833222438825 
0.0355258864251961 
0.04206928490467605 
0.03799149110393027 
0.03641912030175098 
0.04648637534843311 
0.03737551153083316 
0.04292541901982961 
0.02486242916613465 
0.04081594148869808 
0.0256862637049248 
0.03599688266927829 
0.02721267055653775 
0.03669695737842117 
0.02835415372300572 
0.03787312532348645 
0.03527020948782902 
0.03517950373748838 
0.03236345491218597 
0.03206337870571266 
0.02908300848682879 
0.03414431456532805 
0.0359925162115823 
0.03987824091418253 
0.02711657442484684 
0.04282952034647403 
0.03947788516276356 
0.03345750631652178 
0.03695070389833899 
0.03478019422994395 
0.02760539233961939 
0.0462362046403107 
0.03256569101796635 
0.04020271158446423 
0.03554157900883033 
0.03573328246391691 
0.03192267440075605 
0.04607569790617228 
0.0368255587608757 
0.03786525349538523 
0.03168817019630647 
0.04165356881775339 
0.03966077718651361 
0.04078085238967113 
0.04548363729211705 
0.03949430184900381 
0.0479754778749466 
0.04553515218259019 
0.04523234123197219 
0.0576058357934629 
0.03058738331693331 
0.04289656507520852 
0.03988710640712262 
0.04383906706757228 
0.03538628789869549 
0.03463374367666723 
0.03693340721825758 
0.03557059255934593 
0.03284301423336088 
0.03607229698319278 
0.03344746948647932 
0.03374435631073664 
0.02967448051139614 
0.03884146534572324 
0.03569728590119409 
0.03463804922822597 
0.04267468392702373 
0.03273136954716885 
0.02903933034895542 
0.03521895552177244 
0.03659420009382337 
0.02665018908535519 
0.03307733691593187 
0.02746448116223533 
0.02682620399490471 
0.02429004367219494 
0.03531053538019645 
0.0223970597187196 
0.03223974463740096 
0.02424104650296079 
0.03111583577499018 
0.02253096965325404 
0.03411876974868033 
0.02528662847736133 
0.03990950611373833 
0.03020134535849216 
0.04232433697158384 
0.0353563180952078 
0.03997968025418083 
0.02432545355495631 
0.04436534718742814 
0.03609612031274302 
0.03996347928272806 
0.03236198791427815 
0.0324425867399337 
0.03385021160232428 
0.04123271525231959 
0.0324257199715144 
0.04223177243472119 
0.03361763542411444 
0.03004227500628581 
0.03415504554834849 
0.0354076660741608 
0.04333737745119761 
0.03213286754872632 
0.03014170815088841 
0.04304504148710695 
0.0257738905404843 
0.03472986686893544 
0.02704924988562422 
0.0376272748645199 
0.02373082940078659 
0.03587323525931804 
0.03024754395103427 
0.03469895292250835 
0.03200134935600984 
0.0424691935966949 
0.03490624467023477 
0.0354909791186979 
0.03462122064454665 
0.04129566046335232 
0.02908192643146768 
0.03701511964280683 
0.03400808592276272 
0.03787795401607 
0.02791972177778785 
0.03017061956454319 
0.02885307346161046 
0.03709569603565752 
0.0190106092618018 
0.03121399135118493 
0.02115771644587845 
0.03467468684876227 
0.01781837343524223 
0.03435119979716386 
0.02530946933839247 
0.03862181554114953 
0.02742981862383053 
0.03385760731621201 
0.02740146166250263 
0.0306079919722184 
0.02699377603657832 
0.03563791828085464 
0.03006405451515529 
0.02727646059353207 
0.03572934869285606 
0.02351114318728053 
0.03214101282353272 
0.02425081998417628 
0.03139247767191787 
0.03106649283802677 
0.03528764674280443 
0.03162588649565731 
0.03531210303361836 
0.02758931806639004 
0.03454409797401026 
0.03286830311008151 
0.02662577866251907 
0.0293061682330604 
0.02561050383411706 
0.02998060981711744 
0.0176537716692032 
0.02266675173255032 
0.02209951634802483 
0.02861681062672559 
0.02143223836463305 
0.03065515037802529 
0.02310482292763158 
0.02267677328957525 
0.02877898231993787 
0.03133357260693181 
0.0219754691867938 
0.03525331025388444 
0.02233140871842213 
0.02919656117637635 
0.03301083912653673 
0.02209813909890017 
0.02533258721573081 
0.02460987631554796 
0.02545812238673909 
0.02887410769060882 
0.02725732824642391 
0.03370323503652857 
0.0276983034547697 
0.02885282344515928 
0.02850650324472322 
0.02791467258797455 
0.03555944024784426 
0.0313729053034833 
0.03604508687036298 
0.04253494460358646 
0.02773852755709203 
0.0366904112327131 
0.03589330296931586 
0.03801339258691275 
0.02777472357425615 
0.03381020388876531 
0.03268724804976742 
0.03973359873909164 
0.02249171357886594 
0.04160764459468744 
0.02337636211797915 
0.03557307452101691 
0.03317870989822148 
0.0354595718696553 
0.03121428288391765 
0.03723371654471384 
0.03513438409614291 
0.0297446606636281 
0.03688248527522988 
0.03506873243646874 
0.0496484181154843 
0.03904070127387016 
0.04790821771048928 
0.03463380576405722 
0.04358161222159242 
0.0366699427808047 
0.04477688056032554 
0.03646356218925079 
0.039734577742374 
0.02738347866675358 
0.0390482261668839 
0.02893173586198159 
0.04195753973835145 
0.0276740435269922 
0.03769798024030297 
0.02723554232632118 
0.0372972421155124 
0.04339639601863038 
0.03383108823469777 
0.04291894089181322 
0.0416556552213672 
0.04486262717810654 
0.04635110353366699 
0.04728731886262199 
0.04163659020513387 
0.05234729222348895 
0.04272649139993547 
0.04403495513183362 
0.03953787913793667 
0.04275571865487316 
0.03801477018034667 
0.03376082261083015 
0.03120685903791035 
0.04486608561313109 
0.03815636723861945 
0.04134443634062041 
0.03692448493119175 
0.03564598517705572 
0.03013281589358214 
0.04058864255527748 
0.03492281802517894 
0.04233629180971078 
0.0283305445842477 
0.04749028054975909 
0.0318606211830452 
0.03723957904162369 
0.03062501830607905 
0.03744254253556228 
0.03940333907785044 
0.03079214662497276 
0.0438483525065225 
0.03334410208009654 
0.03402386816599192 
0.02519438723672673 
0.03633343598917222 
0.02706599534645771 
0.03633374134320538 
0.02605703067888025 
0.03039904336163463 
0.02268846609335376 
0.03461524955286018 
0.02755040417503541 
0.0342837453666948 
0.02531149152438511 
0.03207184269898015 
0.0313592658363322 
0.03202670149363947 
0.03379848633843534 
0.02418052784006223 
0.03799921808490048 
0.02595986520201584 
0.04244296606601154 
0.02427120153938276 
0.03831294598211258 
0.02801127961469991 
0.03061924632217798 
0.04088143686507879 
0.03296796602885926 
0.03832812874690269 
0.03191810270682827 
0.03582979530285945 
0.02538695649419078 
0.03687972551627265 
0.02409635625739209 
0.04159302580521337 
0.02134539840289694 
0.03019365363688118 
0.02496440765707243 
0.01985292127507797 
0.0305626370169423 
0.02975658264562964 
0.03531476778815626 
0.0318641233766369 
0.04430231010373707 
0.03278744060970205 
0.04623593959730618 
0.02987749300028425 
0.04312689476561016 
0.04036914164632551 
0.04107668579112923 
0.04171455917636299 
0.04557984895008833 
0.03907907511338879 
0.03949282263491821 
0.03908917118845636 
0.03385833691871184 
0.04015906091065384 
0.03452399678170995 
0.04103513603921865 
0.04043240633917723 
0.04806029134887073 
0.04104753444881386 
0.03720393563755233 
0.03397679037474365 
0.04315409308868089 
0.03483304359923289 
0.03951091832759412 
0.03590782955563915 
0.03781192174657495 
0.03130839050223871 
0.04308878372135643 
0.02691274421559591 
0.03645204146925481 
0.02719884322364521 
0.04337928229839116 
0.02184199337521496 
0.04536403392265938 
0.02382783256489954 
0.0471554775617146 
0.02609097827141607 
0.04947889021140941 
0.03041639991508584 
0.03815181531863222 
0.02520506981635702 
0.03776445013069361 
0.03517091242157427 
0.04164900055878849 
0.03583708200506436 
0.03824050178286152 
0.03662179968300087 
0.04066510118224822 
0.03522714397708168 
0.03992485703356751 
0.03803046455773382 
0.04283540354505787 
0.03740805353274324 
0.0443815875305102 
0.02858028975637693 
0.04162310454123049 
0.02365650229152354 
0.04613080039011475 
0.02250450455348026 
0.04644179549572804 
0.0286130206800894 
0.04686331991373204 
0.02333132618896061 
0.0441784554238407 
0.02198076408521786 
0.04266788267046797 
0.0253513872322809 
0.02794801029065294 
0.02488444179421851 
0.03979331581299258 
0.02966388033232064 
0.04223952695665168 
0.02376088896459228 
0.04010025019432718 
0.02242886444118282 
0.04520873131989567 
0.02778623460053301 
0.04269408156638967 
0.02967112252741123 
0.03964960555401453 
0.0255761247506857 
0.0399117892204964 
0.02414816459425155 
0.04020965038308123 
0.02159808412084877 
0.03332934552048893 
0.0152785349481115 
0.03352977096650293 
0.02226365611257594 
0.03373976691646987 
0.03063247648520406 
0.0372051348152571 
0.03259382409246997 
0.03700698359097188 
0.02279421600237659 
0.03203271689856841 
0.0328602139203576 
0.04054945797643541 
0.04071770389574812 
0.03365189220774932 
0.03672510975416943 
0.03603154991025519 
0.03862037619866198 
0.02893034413100408 
0.03212220276934853 
0.03159394101154159 
0.04294685138725543 
0.03562342077530432 
0.03012376272877678 
0.03333769221469998 
0.04297694556374016 
0.02660570006146363 
0.04893316622989829 
0.02760936616746443 
0.03511821623512923 
0.03168193319918745 
0.03406864631470311 
0.02828997559777714 
0.03186043705628458 
0.03258817550035706 
0.02825422742717982 
0.03758206732519477 
0.03472446008715223 
0.03621713322548143 
0.03540371476776396 
0.03736631706299993 
0.03054273548800172 
0.03797335403593485 
0.02697742261058669 
0.04260867073851643 
0.03038952901558264 
0.03719870655869021 
0.03128897736420618 
0.03264747161075936 
0.02960226553083753 
0.03700629582036064 
0.03224290144927923 
0.0352905367473591 
0.03631064213381884 
0.02918493706256819 
0.03177582869622732 
0.03169996396086382 
0.03403634092440793 
0.02897935219060022 
0.04044977116539137 
0.03025301326704808 
0.04359179106500604 
0.02933592046395888 
0.04073302386463143 
0.03485343904498844 
0.03952285929623101 
0.02485540521269569 
0.03911816139002396 
0.0243657509266007 
0.03871059815326233 
0.03312557950005705 
0.03592197043588278 
0.02949977819995112 
0.02765325134137009 
0.02385089520906468 
0.02607811971758238 
0.03055227350827552 
0.03203670854884919 
0.02536460189434337 
0.03375385345917787 
0.01841506538209753 
0.03288669981297412 
0.02444285998487244 
0.03547356964525796 
0.0320714872918272 
0.04190271640314011 
0.03389909702719804 
0.03498570850065586 
0.029438012295351 
0.04119398515119882 
0.0301710783414918 
0.03920417292605981 
0.02916428701896119 
0.04308542440884632 
0.02570069936129847 
0.03914949197659871 
0.02680546512227374 
0.04257086700286693 
0.03641495791017448 
0.04348622857177165 
0.02908275834887761 
0.05045855135464006 
0.03069921831246664 
0.05155506938838325 
0.03118404841685208 
0.04898995990827842 
0.02089604815953638 
0.04867355320641855 
0.0148585621208545 
0.04490821433344381 
0.0217521303923 
0.0348501542307854 
0.02329356158377221 
0.04251061185478969 
0.03000418475492029 
0.04549541588599276 
0.03041689917265616 
0.04309917164553265 
0.03247880591577647 
0.03919177589464085 
0.03360023543152097 
0.03434804991977684 
0.03700075171206874 
0.03697974493427248 
0.03611550562315455 
0.03492838794686889 
0.03814552689724025 
0.03643542660452963 
0.03745272965101216 
0.03829381045328292 
0.03594492431262856 
0.03680424899144936 
0.03966554560284918 
0.04400544709284905 
0.03796082247878266 
0.04136692938697348 
0.04857930956686213 
0.03834017669745052 
0.03856793760898018 
0.05018433041947169 
0.04633693738929891 
0.04436559381397338 
0.04034334791805614 
0.04718580964855123 
0.03769148137204912 
0.04755773145488757 
0.04367376541572251 
0.04522349690739144 
0.04351267580667014 
0.03975375593865577 
0.04093905022030775 
0.04017952987040012 
0.04375140119146798 
0.04344892754969776 
0.04123587704741664 
0.04256635135259557 
0.04258469567424427 
0.03433269643913038 
0.02404226506102679 
0.04499557436268775 
0.02512872665364729 
0.03628051947107167 
0.0385051170028025 
0.02900965351498508 
0.0319848778744829 
0.03603217105392344 
0.03145980596132825 
0.0403290530498866 
0.02564746012228762 
0.03835116467581189 
0.03487375949080899 
0.03422271977593837 
0.04181631144776692 
0.02957632270487646 
0.03637373939734518 
0.03392844493242644 
0.04282549207779263 
0.02737908970816853 
0.0398541134931121 
0.03693303394488503 
0.04718558260056195 
0.03714728070111829 
0.04078355983889487 
0.04359189811662201 
0.02910734137025825 
0.04568398489201766 
0.03176699016553367 
0.04440341216364053 
0.04106650078169286 
0.04320936238550497 
0.04205958038567336 
0.04026870078106176 
0.04613381716415983 
0.03598246623317683 
0.04068546494924442 
0.04913106206834444 
0.04130315134345166 
0.04648863476199461 
0.03950324430332953 
0.03760582724705483 
0.04052507276060299 
0.05191959110603017 
0.04572335928334166 
0.05005651284122042 
0.03460870763426423 
0.05417138358662978 
0.03344014067511033 
0.05734126640132212 
0.04779725395756707 
0.05060664361478119 
0.05289744104044167 
0.05247493031820158 
0.04549898681814036 
0.05028022871918389 
0.04772772384238854 
0.05339008646727152 
0.05013284411977293 
0.04688442621109572 
0.0474029558283423 
0.04372561025440189 
0.04879398421384128 
0.04521375439432491 
0.04189423681146054 
0.04711496492010734 
0.04605064898328386 
0.04275158862756669 
0.03757565099401358 
0.04408766144772405 
0.03490125464534571 
0.04773041614737778 
0.03665673252178081 
0.04172446869048715 
0.0328227957157407 
0.03802319658428829 
0.03315178083981373 
0.03918527960868969 
0.02994069264976731 
0.03795026621980083 
0.01905919604299277 
0.03625735696351267 
0.02641119055912206 
0.02665355606740442 
0.02879182808732371 
0.02838891496481036 
0.03478002593153009 
0.03353155675968619 
0.03598150795445994 
0.04066468212387625 
0.0375822456896662 
0.04333543837607941 
0.04203461304362082 
0.04044115697104671 
0.03779392356753345 
0.03842080947087183 
0.0428090548835918 
0.03504725210852633 
0.04030358538531309 
0.04014574261125238 
0.03304351915364834 
0.03561375834661994 
0.03152994095624824 
0.03591303145423243 
0.02940437502585083 
0.03317445999128115 
0.03956141556167501 
0.03559519681021799 
0.03480393826143966 
0.02942546135758031 
0.0366046775519424 
0.03378312458652111 
0.03424561468521715 
0.03252519556344183 
0.03981411446228006 
0.0343732805847309 
0.04492035198734585 
0.04409193118911676 
0.03656654163109627 
0.03695455804611074 
0.03801398801937261 
0.03304890230800089 
0.04764753159883319 
0.04329868032536767 
0.0486795466579895 
0.04304963212706115 
0.04239492109028839 
0.03924904935679646 
0.04432845721063151 
0.03981197602213072 
0.04544516456213993 
0.03891799176707793 
0.04665607116617794 
0.04059861972943969 
0.04467630637718954 
0.03642563657259947 
0.04113196427611707 
0.034614356725128 
0.04461462479460007 
0.03798681123377414 
0.05022564576022132 
0.03327300736225858 
0.04946044089631613 
0.03145944084870006 
0.04690188102923698 
0.02407572609782715 
0.04456877033006382 
0.02614053964051348 
0.04253360765456571 
0.02998074655151001 
0.04253839012487066 
0.03612188636505836 
0.04635379503835035 
0.03527968947604271 
0.04709064882729554 
0.03621179007845444 
0.04164133313754111 
0.03718965703930741 
0.04575039377752135 
0.02849763083886508 
0.04749461124627524 
0.03960399681898204 
0.04031076194770657 
0.03491893858720281 
0.04062786987589167 
0.03731453166123289 
0.04448994336297773 
0.03754849512949032 
0.04060103930125917 
0.03624744726830518 
0.04386564853855189 
0.02967949379736105 
0.03607012600226771 
0.03795446768041162 
0.03734378685450099 
0.03977218793989441 
0.0426221499532092 
0.04418282395703815 
0.04169954318686245 
0.04242341385136555 
0.04053563170558894 
0.04142442563309749 
0.04068945854737909 
0.03879842315077668 
0.04477563523880964 
0.04780327970648517 
0.05236781556355313 
0.03432716432558892 
0.0516537862027673 
0.03515205886458164 
0.04744905695667044 
0.03194250614563413 
0.04839566087585672 
0.04021087086012765 
0.04357272837333269 
0.04144391832836321 
0.04250092138525373 
0.04201740807258623 
0.03944014639713744 
0.04335143659255909 
0.04501669130822372 
0.03847855271735085 
0.04946160253698868 
0.03501265919623821 
0.05150562920955393 
0.03858548232679828 
0.04255370819568952 
0.03413158061741236 
0.05290159823139934 
0.02520770131662575 
0.04655644587119428 
0.03176646264930232 
0.04729546851357661 
0.03275121284924234 
0.04591413357422577 
0.03000475825228792 
0.03688749217407963 
0.0332147176852947 
0.03824545969965387 
0.03235804704186129 
0.03907918872800401 
0.03660460957433283 
0.03599196293918237 
0.03561885081976802 
0.03569241708929287 
0.03256523706154266 
0.04018243133404915 
0.02644280827362313 
0.04046796322255387 
0.02415600386439702 
0.03359793368256196 
0.0273747245489907 
0.03429573224924507 
0.02633292523566568 
0.03754901932909949 
0.02438724737180992 
0.03422172693477626 
0.02642990641589393 
0.03754864582907406 
0.02860136523865094 
0.03894114449032682 
0.03124307787867966 
0.04787826288368076 
0.03525631891081083 
0.04881151478983662 
0.03313014546853645 
0.04347943575075854 
0.03266010201825776 
0.03702653317075569 
0.03089003920787998 
0.03739864181521114 
0.03007337868539205 
0.0366853216754787 
0.02807243818462811 
0.03969124226617208 
0.03424095193151821 
0.03737639756556995 
0.03845826510619068 
0.02656625675601594 
0.04234313000343367 
0.02740683357738628 
0.04244759327654483 
0.02963651566160534 
0.03855061440355657 
0.03485786017766177 
0.03937834989922927 
0.03490676880785299 
0.04680683782087248 
0.02824138677562878 
0.05017192509901728 
0.0284014718750103 
0.04868704220933886 
0.02475194177860666 
0.04963542292693136 
0.0265888744629615 
0.04075337977354407 
0.03800263970578151 
0.04452440118988357 
0.03887494983917032 
0.04089133988460909 
0.02829217254688674 
0.04488266685209052 
0.02799389480292661 
0.04515538958631949 
0.03172919133824847 
0.04806327310888062 
0.02964883991790269 
0.04533717783118964 
0.03785934275740732 
0.04817303834481663 
0.03738700656723851 
0.04358602846243593 
0.03921263355135798 
0.04103509827051919 
0.04370404661297709 
0.04095251634212423 
0.04286128168939597 
0.03600321315198217 
0.04307433398891752 
0.03621025430751711 
0.04568664051002118 
0.03406610190516519 
0.04314596138696555 
0.0410929461571448 
0.04691062114857161 
0.04190851679490826 
0.04392243067048202 
