solver_type L2R_L2LOSS_SVR
nr_class 2
nr_feature 1984
bias -1
w
0.1565906196922485 
-36.54981295420207 
2.344763081159905 
11.09656419571634 
1.632740672123943 
5.959062211916013 
3.342975270273352 
3.386983345507355 
0.8883425559248701 
1.946202025532408 
-0.2455476332674572 
0.1040967769937224 
0.1796727025763769 
0.5678737647369904 
1.99588980784989 
1.987034040720623 
1.0805468735137 
0.6815248192966519 
0.1452668517139275 
-0.3570863548986575 
1.365104467795013 
1.456258151147184 
-0.9160876268710774 
-0.7980870355491214 
0.3732472063520763 
0.1934027473007197 
-2.62859271142757 
-0.8099524364554603 
-1.515767882274167 
0.4016428965219662 
1.036839019289212 
0.007249480899548494 
1.059352245610809 
1.703259417254941 
2.914194818405677 
-1.084632049991507 
1.49315132934186 
0.7437477154450165 
0.3839034433150016 
0.578277991350878 
-0.3053531332886407 
1.730492687186777 
0.5854681564597294 
0.1567287317191957 
1.007234617429273 
1.524905370912477 
-0.7950276807956861 
2.515185380301946 
0.2307225210783531 
-1.088518658072931 
-0.9800437996114083 
-1.052542286136024 
-0.5694922229420534 
-0.5003733495790592 
1.441249505218174 
1.349702284303902 
0.1073379834608949 
1.058479202170536 
1.167807467990446 
1.076739932851726 
-1.069262512970363 
1.274856158050031 
-0.7667667456215758 
0.2923044881585879 
1.647861566726994 
-2.964001317614783 
-0.04010759155802854 
-1.063008878167318 
1.073026242797999 
2.672969378197704 
1.859552433746783 
1.205922829005744 
-0.2182997296773173 
0.1622838884043557 
-1.277078594136013 
2.846925662370986 
-0.8893363036592846 
0.4596238814104218 
2.050983264360505 
-0.01537149146114924 
1.379777475281679 
0.8446140277598396 
-1.706647077279758 
1.315712643455494 
-1.090096742701971 
0.9299195682047028 
0.8184852263965088 
-0.02026881982161014 
0.4043906650964627 
-0.7885235791285636 
0.5930863465494058 
-0.7350865068516295 
0.6692461032509215 
-1.096034772730526 
-0.2922839223000471 
0.1221256617043755 
1.334975521234458 
-1.759758646254967 
-0.6762641069927654 
-0.2766036614731607 
0.4525406573835518 
1.896920362540163 
0.7941729826642047 
-0.2216064060797672 
-0.9320915772600294 
-2.679801202735485 
-1.804999478582883 
1.867800938241342 
-0.6520798438835812 
0.5736155846281511 
0.05150110869807406 
-0.3606317519628134 
1.631326995170672 
-1.611370165384801 
-1.229564466287104 
3.007575211337027 
1.13537783838527 
0.9144589434183686 
0.2311633569222754 
-1.005028515085292 
1.040921894576343 
1.829710486691149 
1.096925831473163 
-0.178246945957138 
1.594839752440687 
0.5514807012862496 
0.8867764680954024 
1.13493038864638 
-0.17850633753764 
-0.7114893119898598 
0.3783654970128967 
-0.02702467729497013 
-0.8255469976410498 
-0.8015781274623219 
-0.1532956322019851 
-1.34104431156631 
-1.479512112582834 
0.2504943818457509 
-0.3541752690862143 
-0.3486825379487822 
-1.509827748762269 
2.296789876932438 
0.1759234601433908 
0.1693048097410107 
1.827255414152837 
-1.283382125740266 
-0.3073427230600776 
0.9448680794665248 
0.7076563724543422 
1.189010655152664 
-0.4255660772940553 
3.088425403678131 
1.083681615052695 
0.03133096384606333 
1.320815915357987 
1.277156249253449 
-0.8562600129834441 
-1.360511464477343 
0.3341028938925323 
-1.165432959501709 
1.197331925115497 
0.5440856402888412 
-1.020292870822496 
-1.804234312508195 
1.007580670670245 
2.183954913645285 
1.660803617105858 
-2.227490512511478 
1.074465764794739 
0.9413869946004733 
-1.901703396251714 
1.156171563966795 
1.785249970296315 
0.2215388188690999 
2.36554901400647 
1.614242587313715 
0.141169034228559 
-0.8447337366058264 
-1.466947448861811 
1.301698315312152 
0.422186598215957 
-0.5832683975123604 
-0.6763801161629456 
0.7153057286972367 
0.4255221605442087 
-0.730124090807666 
-1.552918025624175 
2.723408292966068 
1.450855345393137 
0.6493010549375561 
-0.1830713981593755 
-0.4932469936435736 
-1.901684065050776 
0.3017118031260989 
-0.5483790239250776 
0.2513222638160088 
1.798957197649453 
1.529057407644269 
0.2248811084312243 
-1.635371657695354 
0.7975669045556812 
-0.3677079507691682 
1.178397797394423 
1.318119813458872 
-1.756820543673272 
0.639748481869426 
-1.979380717506283 
-1.258094345607931 
-0.1030091560533521 
-1.443523818531761 
1.679328510825242 
0.7797011791139253 
1.531382287188121 
0.516700711138524 
0.08629411908703818 
2.025103799513882 
0.1590240838258354 
-0.7190078580111336 
-0.9240905156707558 
2.365412983238515 
-0.05831704844729593 
-1.719795018937146 
0.4565267079932361 
0.1042058877916671 
-0.5768439015252311 
-0.0484787529916887 
0.449307504760795 
-0.9539790760528016 
-0.6865310495118847 
0.2570344112195591 
2.584797982161154 
0.08774014839767794 
-0.6715409637075177 
0.366714458414656 
0.774835235617508 
0.940110729084776 
1.079298434335143 
1.005277239240885 
0.4764266296117033 
-1.966915208521555 
-2.025074046671441 
0.511366097502384 
-0.2949920331395917 
0.08434878442557475 
3.087634534851297 
-0.551225312836369 
-1.947167242173181 
0.1974919133054875 
1.586913357753033 
-0.7072726285925607 
-3.31684331957239 
2.887367572325856 
1.551006295987819 
-0.04666744952615877 
2.488962913353471 
0.6290440352588101 
1.336947153645408 
-0.618982994206991 
1.642759821325984 
-1.97317411148202 
0.5621433126542237 
1.635529119146904 
0.3196707486187806 
0.7640300578368998 
-1.474701157483018 
-1.23065065649657 
-0.6987154258599579 
1.443032823198514 
-1.260948544807621 
1.884167169375343 
0.05425095865246611 
-0.1485629114658804 
-0.575030862917586 
0.4507800226739643 
1.48235726109992 
1.722662261834328 
0.9804321545265235 
-2.312588588030863 
0.1363606679945535 
-0.7002262072512583 
-0.3630115858311236 
-0.4498977481987856 
2.158983025855774 
-1.361015580208556 
-0.3492907038189604 
3.35424166530701 
0.9942779046106081 
1.147148046186309 
0.9758849233099597 
0.3421502483837532 
-1.049979912649357 
0.6108470808127318 
-0.3553802379385442 
-0.384625678647437 
1.239284504329271 
-0.7701449896364495 
2.431834621028056 
0.7598275561467726 
-2.892816319628938 
-1.011757153533611 
-0.1019790448607326 
-0.6135361790323057 
1.629224939454535 
-0.9998975914639215 
0.135862019359124 
-0.504736550364962 
-0.1438804861939072 
-1.064486249598703 
-0.7839595705689192 
1.645947709516054 
-0.6885623908318511 
-3.182907377039216 
0.4240694689274395 
2.253357352410744 
0.9427465583178705 
-0.4794133317674749 
-2.012971044627878 
1.960565641518703 
-0.01814905048670902 
-1.722183853845985 
1.350223046822844 
0.672589268008408 
0.8380830916777698 
0.6113791093864969 
-1.040694437784687 
0.7787872075593326 
-0.7698578724257092 
-2.90191406688236 
0.7847203389917897 
1.019367324072156 
0.6005403836295935 
-1.297745693713936 
-0.6052245536224871 
-0.4887953690615306 
0.5049874938169188 
0.7672950567693144 
3.29075070949749 
0.6963774121907403 
-0.8937187656618091 
1.39751112204301 
1.759561171705049 
-1.571948816771279 
1.102488645881794 
-0.02327952164823455 
-2.287916177164583 
1.082955485808798 
0.4069234943146068 
-1.658394357470548 
1.293504953237899 
2.683142702771539 
0.6935603489756023 
0.2319277170067862 
0.9191919349289327 
-2.694283948953086 
-0.1097840806393814 
-2.259288898251741 
-1.028720439996791 
0.90861583129067 
-2.199324341016594 
0.1544943918072855 
-0.8761586038913315 
0.5665957565153072 
1.512473095286684 
0.07701156137516746 
0.2257240918456662 
1.607461557148446 
-0.7966134557274788 
0.6748283092733954 
0.5644945134166783 
0.4917236060633633 
1.848218136836785 
-0.4534341023892089 
1.556633352905401 
-0.1721376956792207 
1.75153695665572 
-0.2059731406051429 
-1.203051211877372 
2.616911435613003 
1.092484209111051 
-1.323816231883407 
-1.777170972111954 
1.307273030774414 
-0.7207082325892491 
0.8448823030486504 
-0.05491861125296327 
1.42730592490769 
-0.5306218589750137 
1.130258935736545 
-1.289665490115705 
1.694079405972531 
1.299661160751051 
-0.7702259652675376 
1.098213621756249 
0.2128248017368374 
0.7068633010948073 
-1.079821476461876 
-1.330525038212557 
-0.994011209670139 
2.024863731435472 
0.9110483625448011 
-0.7240208388087058 
0.4665675262014632 
0.3971102484755061 
-3.142119921526871 
0.9004527113698249 
0.2610397669849746 
-0.6238945335765537 
0.7124067127872242 
-3.270986092801737 
-0.1394443555800391 
1.018092508144238 
0.462182451122746 
0.5601472058115039 
0.9466310101524337 
-1.22320149051364 
-0.6929461992863506 
0.7574605990078586 
2.530969562400763 
0.05680785740375363 
1.434120751947399 
-0.3484969652502011 
-2.170974832073966 
-1.215573603721577 
0.7457812051103555 
0.5079121530906541 
2.674619211551936 
2.167194956560963 
-0.5859107757802919 
0.9725116915068123 
0.1558402778244455 
1.753772298287881 
-1.121396629217121 
-1.569211371894013 
1.314082585890548 
1.742877841423943 
2.09811423177764 
-0.3345282247573151 
-0.9687935768120657 
0.1201543320397629 
-1.380295048221928 
-0.2391224391242991 
0.1537281614160863 
0.547859677492743 
-0.04257980235061298 
0.2933893335652458 
-0.8406921681059238 
0.2846253931729799 
0.4082919433538303 
1.374864749884344 
-1.276281146170132 
-0.01509790419407171 
-0.8271489105117955 
0.2329067731230607 
-0.8660639695577228 
1.057645501739419 
0.1400248199300159 
-1.784500735583357 
1.884825639915337 
1.210941823517358 
-1.448557774268659 
-0.3378679222658101 
0.7234649830106639 
1.05086390405798 
2.826122445093048 
-0.6752964789429996 
1.465323115584351 
1.249246381998618 
0.3999246513037285 
1.18447410884464 
0.0732682801986053 
-1.99966970069196 
-0.978666246209091 
-0.8100342172501285 
-1.307534407454368 
-0.8795914888959281 
1.214536075132089 
-1.320339752267976 
1.155147590804226 
0.1233987773731761 
-1.177185462060338 
-0.1592296212427902 
0.05165932368236554 
2.175840517045573 
0.1992184250648094 
0.1421642550750762 
0.3200299541395011 
-0.8415432275528901 
-0.3846601996628504 
0.9724813227246334 
0.3473687833836825 
0.4013999017739919 
0.8624704206436304 
-0.0206309530257357 
-0.886144606303167 
1.845333156822094 
-0.7587886789490383 
1.908902831257195 
-0.2230745987236907 
0.3432936089454145 
-3.553794517465949 
-0.8835735706228274 
1.187867534631059 
0.1326543115201826 
2.866777642196395 
-0.0771419278374056 
1.442407263725501 
-0.1234959941299101 
1.300448770550078 
-0.5928324261621617 
-0.1809622141687685 
1.587159351682894 
1.91575760455293 
0.1898120460888363 
1.387333589839759 
0.3042470952141939 
-1.173783614327401 
-1.531874025377145 
-0.5947433669481897 
-0.5073570451971744 
-0.03186781966587814 
0.1010193358202129 
-0.4392964335589947 
0.6765202069541557 
-0.2141096304066123 
0.317434452042884 
0.9152287620406958 
-0.06486389515066657 
1.394006844736677 
0.21089389397272 
0.6227527977518015 
-0.2113962041432794 
1.415640421972633 
1.858903560301164 
0.3243763395828841 
0.307675747199282 
-0.4409683225434348 
-0.3192118151010242 
-0.9350342978383266 
-2.059410566990619 
-0.02079810360674029 
-0.3905339732466928 
-1.031362913481874 
-0.5714497060681982 
1.300261155913742 
-0.1983929619224268 
2.269771259712606 
-0.2776081794252314 
-2.221274833849765 
2.270161896791634 
-0.08347048788090126 
-2.176912088684629 
0.8895222589494368 
-1.397570968714438 
1.126735292032194 
2.803301677576702 
-0.4054957683820462 
0.7633375808130951 
-2.118970431822335 
2.584004374451977 
-0.2989338421583692 
-0.7864686771462863 
0.359171349120789 
-2.572365170902305 
-0.1859489835141347 
1.31310438779453 
1.640837303068606 
-0.309086056250802 
1.493860555928833 
0.4431984911506242 
-1.347923801978539 
0.3629788705890198 
2.703499416374125 
1.232092057265865 
-0.3716186612257343 
-0.8967084280931066 
1.370734844956948 
0.7912052274185412 
-1.47688051370617 
-1.198969958426109 
-1.243548994189602 
2.945821483487499 
0.9849445406414559 
-2.251502640950811 
1.037949999566935 
2.871219586474151 
0.7562486942383004 
-1.119491607468312 
-0.3178011400549395 
-0.8109902719789626 
0.5669152466851034 
-0.5869338595132639 
-1.223398022427357 
0.685544856714516 
0.839889588936039 
0.6677673196124901 
-1.671991897631344 
0.502313595395755 
2.646727044277795 
0.5982714580085766 
0.8212850236295341 
-0.04734315926711324 
-1.125943278807612 
1.502358859622726 
-2.14008699613719 
-0.2564281926416696 
-0.06931521171845585 
0.1983310888024222 
-0.4991524912494699 
0.9904680200673595 
0.0248115165712496 
-0.1171784780649707 
2.337699323999457 
-0.5484480563166745 
-0.427662021045658 
1.543566748307826 
0.06880736538667227 
2.48930719046127 
0.9168071658394032 
1.888016353257327 
-1.043852956236701 
-1.22671855297445 
-1.353624163193319 
0.5506108670302752 
1.068796158747392 
-0.8659465732037366 
2.841984238583698 
3.449100109693295 
1.93850201155853 
-1.53331582837449 
0.5740800991026672 
-2.702781098748006 
0.5939459948145835 
-0.6937657318826169 
-0.3106390751390891 
-1.09366801623496 
1.104805296900883 
1.460638397883542 
0.1007078114457778 
0.02534343515749246 
0.9357605944161618 
-1.761450840084623 
-0.602334258939724 
-1.405422580852745 
0.9993676541732052 
1.232689654096624 
-2.312723564625559 
0.9700526158902154 
0.7133959091339452 
-0.3568347566270214 
-0.9414431757169949 
-1.772975171585984 
3.031121272217998 
1.332071093513965 
1.831180619503904 
0.9958166604093928 
-1.0721026756606 
0.6553285261371777 
-0.03521532838699135 
0.4293719996969018 
-0.0230841702534452 
-0.1903031453447003 
-1.605094965856535 
0.2777723358310175 
-1.689266299840228 
0.7715784443312379 
2.958782334531936 
0.5603015673239847 
0.05396762931047416 
1.11325310484314 
0.7400356368086323 
0.1478257274128219 
0.8468779770958883 
-0.346029430739383 
-2.730919595363426 
0.8688543608451785 
0.3319442988122694 
-3.419080923028414 
0.9692339551731334 
1.685215899590621 
0.1400205295304262 
-0.2506176171563559 
-0.4558496016697338 
0.6571529116294437 
-0.01304120547123063 
0.428232349987168 
0.4404819260814097 
1.079725852337082 
0.2810513462472121 
1.448082962140794 
-0.6553457842844241 
-0.9562546008380666 
-1.83807191602346 
1.155434744864846 
1.235764140821192 
1.250060573161192 
-1.368381720354083 
-1.190737512023923 
0.5279113871982523 
-1.268401167515888 
1.506485072776282 
2.337221590822591 
-1.627532260008615 
-2.042488884052472 
1.105913764791687 
-1.392714213618308 
-0.3960743001542906 
0.7368847530734028 
1.689134018134975 
1.790629290764763 
1.274618656168761 
0.890987230674704 
0.1902820935971487 
-2.18123625587886 
-0.02601207674098892 
1.231660190072903 
-4.438463758265708 
0.3168531775612267 
0.3471745949874444 
-0.3187251297264935 
-2.042315793205439 
1.980274231942804 
1.939090955354371 
0.9400568310636069 
2.345412254902263 
0.2772893463566473 
2.447197064936898 
-0.6378906169892159 
-1.709561045406316 
-0.9759525745428422 
0.5976757812150956 
-0.6791696369071044 
1.431454546510378 
2.037993431446589 
0.8819699066906409 
0.7516479633890782 
0.09273239133617565 
-0.151711586766781 
-0.757247219171344 
1.220932835613472 
-0.593839127738675 
0.2159387970568681 
-1.615961204220773 
-0.5140180109104493 
1.859820806675846 
0.1347305013626051 
-1.121584234487289 
-0.8954393517614924 
0.07228597379515028 
1.952147010358013 
-1.065218787536895 
0.8189970848730497 
0.01391303918153687 
-1.404304069230585 
0.3174008379022688 
1.889433291115395 
-0.3935000184935798 
-0.8710350784746185 
-1.97329192579039 
-0.6891764288204657 
0.4317620162285429 
-1.213056289389118 
1.007421488317398 
-1.888597536852187 
-1.1952736589657 
0.8430770809357201 
-1.085298164122505 
-1.366179408969486 
1.01927657543137 
-1.146139862685212 
0.5747213666578599 
0.7224659926683831 
-0.3121729468892032 
3.148359896254459 
1.654877881980808 
-1.118591807476749 
-1.413243015201138 
1.57556645896461 
0.2027992124339754 
1.313563205550159 
0.6926666135515331 
2.461782766272573 
-2.161698967896931 
0.7570079919410843 
1.89554340411354 
-1.476854140693558 
1.436749877936125 
-2.489155863903859 
-1.366935129384385 
0.8757010652919197 
2.001676057043652 
0.4890600099787171 
0.9720992050537144 
0.3247713940309421 
0.2916482020571128 
-1.133913799641325 
-0.3135606530482184 
1.263908844481281 
0.7192824314741284 
0.3771549444584978 
-0.7910674267226329 
0.5722307595979138 
-1.421741439805337 
1.024575945378247 
0.05729071178736651 
-0.6420416715886589 
-0.3752859186003471 
-0.244783749967658 
-1.794042151487297 
0.5573745919353922 
-0.5594884564226134 
-1.537236243071435 
1.65489671243609 
0.2337444868118052 
-0.6919283983667717 
0.2870531455762513 
2.393172798877368 
0.7552896219566368 
-2.881543944573207 
-0.6888349465481891 
1.874738696352628 
1.791961142979717 
0.1818156285904468 
2.053802652193442 
1.250636223289055 
1.17808820748292 
0.1354167915451894 
-1.744520023143641 
0.5843281550692495 
-0.2334344679308937 
-0.7634482819863212 
3.385736784720766 
-0.4804625557513878 
-0.7089473079274448 
-2.49478543078742 
-2.404319938790911 
-0.2039874471855346 
-1.434102999252396 
2.19196811072077 
1.946909696754072 
-1.371335568023898 
0.695408516988288 
-0.411622238286844 
-0.9622237135018895 
0.01523928201556084 
-0.8988839842206943 
1.64751497159494 
0.9317030837501001 
0.7191977059933932 
1.703394077506094 
-0.1727703565837022 
0.0107730354585145 
0.8379249949707519 
1.946135559867014 
-0.2109041357059571 
-1.873612871471688 
-1.255619309004972 
1.497525040721071 
-0.761123458247516 
-1.302302210620441 
-0.05337935995948847 
-0.8975799456613657 
5.47436352282003 
0.9571039115372767 
1.649744461549653 
-0.8481028961252925 
-1.404449863693331 
1.770757280529597 
-0.7583311625119773 
-2.310111069573806 
-0.06781902612245946 
2.787776096383732 
1.223858343411411 
0.251214728007893 
-0.8292498286925067 
-1.222105722316802 
0.8140153229715866 
-0.189689034511815 
-0.08254408507803657 
1.813430535266647 
-1.363934019695434 
0.6369869238973215 
-0.0202897876346624 
-3.259314131461879 
0.8070067279062767 
0.7968435754839613 
-1.556203282687761 
-1.591794667669591 
0.3803554303499009 
-0.7732504556984784 
2.465097207965165 
2.206270191638841 
1.997616593660832 
-0.7272121487078017 
-0.2091870998050857 
-0.4157844366030953 
0.1157454465284845 
-0.2789796251195316 
0.7296053077154453 
0.488354921832001 
0.925299456055162 
0.7807629046280389 
-2.558180729062615 
0.8873479556742371 
1.589887481828011 
-0.8844075042466423 
2.731448225005744 
-1.77820527612054 
-2.576623663960897 
-1.548490563407536 
-0.06946728885874544 
0.5346214550758432 
-0.08265134537526041 
1.26617634152788 
1.50667953154202 
-0.5936445072431531 
-1.601552840358759 
0.2106960736516834 
0.3523347422640979 
1.455498104555094 
1.826310430625524 
-1.190479223722964 
-0.6262765280948041 
1.407112629556367 
1.398952003452137 
-2.426994737697216 
-0.7222619006489778 
0.6125589177388996 
0.9521318583153684 
-2.019476211360021 
-0.7275218765942459 
0.07065497150837192 
2.117678650521068 
2.682040693349024 
-3.042593749375586 
3.108637321075007 
-0.5674123149751081 
0.4445182825035395 
-1.829266141587061 
1.898857143627012 
1.742642290837054 
-1.385515301780978 
0.5906658720998423 
-0.4238130053766091 
0.5014066317504697 
1.727720202508173 
1.178369049643444 
-0.1031541932123699 
0.5704717207813632 
3.24160320048364 
2.8341114432224 
-1.409595799779209 
1.883086540619975 
-1.373504160807452 
-1.797354056232018 
1.549451754803511 
-1.029083210061009 
-1.711280573256564 
-0.09504677714098586 
1.169050368163992 
-1.011902748176102 
1.400251263674175 
0.1660464712572227 
0.0198163789041267 
1.161976589681845 
-0.4712698822286763 
-1.068428987769835 
-1.621032993050287 
-0.3168798909349412 
0.886665549802795 
0.2229959303727956 
-0.100486000228753 
1.525566085791741 
-0.139503440975693 
0.7362316937241258 
-0.2765055875446196 
-0.4522084453337846 
-0.1822745498303886 
0.3333796883544342 
-0.3668987399497593 
-0.6098883101842797 
-0.8990279605504418 
0.3948581200275854 
1.095401172588305 
2.155983004375674 
-0.256827354263942 
-0.340514269628884 
-2.477279703572562 
0.9841408037131281 
1.935771392582286 
0.07097285802937137 
0.2032965320168065 
-1.42840796336797 
-1.067311070373578 
1.414044051406148 
-0.7985375611957485 
0.1190907142187993 
2.453613954789954 
-2.305366435205974 
0.3664811278047785 
1.297326554079657 
-1.208037920090073 
2.542203613624311 
1.353031192096305 
-2.24733626544982 
0.5376042504986337 
0.4324569262679209 
0.6880384198600766 
-0.2686542090310892 
-0.9429251462499557 
-1.637932179930994 
1.864701976390805 
1.211236141995987 
-1.188349626847329 
-1.034651083770442 
1.244113745615561 
-0.7275944804773691 
-2.29323256639766 
0.785439851840772 
0.1906692319177173 
2.446809672400407 
0.8494757848055091 
1.625180037407165 
1.822015348420402 
-2.087374198455873 
-1.552504695744883 
2.261762927073657 
-1.356981790343461 
-0.2787868657916511 
0.168268381663628 
-0.03051341930311342 
0.2144461722469321 
-0.7407067145143074 
1.07419063511472 
-1.806315223059422 
0.07726816714789342 
1.38549147572041 
0.5045792291100073 
-0.3421357147571688 
-0.4717197631371861 
-0.2809631302577382 
3.4257545000851 
-0.2168781556781104 
0.3757826295128748 
1.421811272061424 
0.3785901725263614 
-1.023548741731489 
-0.3604130746793758 
-0.8914399858429705 
0.1265997590900751 
0.5305201372117893 
-0.6914094134273675 
0.7257125379220808 
-0.05197498112861929 
-1.438586381410394 
0.2486979622797046 
-2.017357303851445 
0.3140220243101151 
0.3234998002859216 
2.394234364280209 
2.715642703660838 
-0.8335377825256405 
3.019936290764536 
0.8745614428241827 
-1.702825335093416 
-1.013838682504457 
-0.3028867461577934 
-1.690823258164251 
-0.2678310352207354 
0.8507757763329153 
0.5686886491054726 
-1.205787620600006 
0.7871832653526281 
-1.397755478629889 
-0.3742752416480668 
0.5432001604000285 
0.3710532076513874 
-1.361139627081222 
0.8531937775837384 
2.822252798615958 
1.189239891072452 
-0.8287424415744267 
1.931186440757333 
0.4714731069752323 
-2.685755077152431 
0.694759708691263 
1.618882567863878 
0.846563041727716 
1.34469735105556 
0.6247375785850827 
1.044699073579401 
-0.5981361778427386 
-2.574846887348907 
0.1298867355020359 
-1.498845113461552 
-0.9743249229950098 
0.5210888614306988 
-2.369040055308436 
0.01939705354819456 
-2.087849239071827 
0.6515140598274854 
1.540888335083877 
-0.02345076625469232 
1.723389012550001 
-1.727748291551632 
-3.108814764265817 
-0.4784588005948815 
-0.1255299567920374 
0.01977874480843092 
2.247749800034451 
-0.8160559590601457 
1.148358882558173 
0.9603994760765844 
0.6478139030480616 
3.179721809942708 
1.132639001411052 
-0.5606501254087104 
0.4649402263420612 
0.2112539683217041 
-0.4790233379190443 
-0.03119128235920408 
0.4085692537408865 
-1.396826333686116 
-0.03693264467465233 
0.9347965405068922 
0.2023743993232415 
-2.037178829618793 
0.1844173024482452 
1.399412880115628 
1.723307584260575 
-1.07637289557823 
-1.62566319855374 
2.67157139047485 
-0.6561300191066876 
-1.758921885596725 
0.1290318941747328 
0.3653928505302325 
1.013561671046951 
-0.07325308725151645 
-0.1113143178674638 
-0.0008826697073731082 
1.253004483714246 
-1.313816779061935 
0.7466209413394341 
1.066816406231966 
-1.417046429848741 
-0.9713620933422424 
-1.167998082609641 
1.452247269355275 
0.3945623781051293 
2.595565126583166 
-0.9863942146687174 
-1.032095701828573 
0.3596507709598786 
0.1680790559370311 
0.4732047716360371 
-1.220648897007576 
0.6240774624176655 
-1.845291095364574 
0.9810324425983293 
0.2112199313015979 
0.9699790601161034 
0.9147387098134074 
0.4457010024472518 
1.45812321580667 
-0.6432305443620441 
-2.700463980723711 
2.025058904050264 
0.2575658421603258 
-0.7332332147032367 
2.772067882833147 
-0.01083467502157655 
1.733585669240113 
-0.6130623538715302 
-1.365503092806915 
-0.8782574581193578 
0.1568652830555564 
0.009277332392036035 
1.722699099230009 
0.4271922983748619 
2.005978644337757 
2.091383014036946 
1.067949268786551 
-0.2417152702900021 
-1.098981002646588 
0.2680056910317781 
1.374806499050106 
0.4023566366018903 
-0.696555816712646 
0.3100387364105608 
0.5284912454651817 
0.6104725570646545 
-0.8809218774669385 
2.147809315843937 
-0.4591688104583064 
1.008013911186798 
0.9099066989048601 
-1.092642289977907 
-1.64782380342373 
-2.556548844565845 
0.6809539311619414 
1.864029783866622 
4.01364809309896 
-0.2708344851656559 
-0.3885409186547805 
-0.9960951540944252 
-1.374145524927461 
-1.680601767862082 
1.425176554924533 
1.202909977127364 
-2.576119344750131 
-1.98714014699627 
-1.815988158021157 
-3.356770869503456 
-1.31231603982384 
-0.08726880836967968 
0.4338129698047373 
0.4579615233813864 
-0.1374705636826333 
0.6504976305794422 
2.328755376321354 
-1.073874033081759 
-0.6110671406342369 
0.6881860714361722 
0.1823087455644234 
-1.556919226267412 
-0.3246752048483474 
3.063443655494669 
1.858845810677331 
0.1036358516492823 
0.5500812431507256 
2.597275875958102 
0.2062187545195426 
0.596128584898346 
-1.558706852480642 
0.7917451110045514 
1.847281104164627 
2.06173705191086 
0.6527683744816702 
-2.306669977183498 
0.680464340466107 
-0.7605372413628946 
-0.03032364321968781 
0.7991900901411955 
-1.03340008097698 
-1.977170359433484 
-2.90808489228258 
1.041683895769833 
-2.161109452848928 
-0.8392009495690406 
-1.252195446032837 
-0.6111921907062053 
0.5880520479594523 
-0.9718819909468911 
1.249527871346174 
-0.355927301566552 
0.9261476897337415 
0.1620763948984086 
-0.995391955409531 
1.276509059905091 
1.576147058469559 
1.735211243755218 
2.423118127251309 
0.7795928539863313 
0.1389899266317002 
1.331934617938903 
0.6940525374146018 
-2.440580114865148 
-0.6383671286240926 
1.966229137997713 
-0.01218787757097684 
0.7750973604561945 
1.296526354532695 
-0.8220522058167185 
-2.320537769427137 
0.1008549165280377 
1.418146508004696 
0.9792529533467886 
-0.1564683539470072 
0.409990893706013 
-2.810127596369058 
0.07447117471877715 
0.1676899865974143 
2.232785578460481 
3.302511540732186 
-1.867874294251807 
-1.601181589172267 
2.029013988520316 
0.4156858051611927 
-0.7082538243851546 
-1.254748311533022 
0.1193830204249208 
-0.4870113910073676 
-1.308806660826034 
1.632830501551838 
1.719266566285429 
0.7161013475481398 
1.248276297142223 
1.283395603373503 
0.8397898786250456 
0.7650297951970678 
-1.626893361684686 
0.05358352560238461 
0.8967737951789394 
-0.5926745381336372 
-0.9872426259845002 
-0.2988985614984218 
0.2980213384920041 
-1.656282827699526 
0.944780889081926 
1.412420224615701 
0.1877030080642304 
2.100969467827949 
0.5508279347497208 
-0.5920466715296201 
2.078110189189268 
-0.9274309957969024 
0.4574806696043725 
0.1985058752027136 
-1.593853384912056 
-1.84834833954514 
-0.3404831615482757 
0.5751283703704961 
2.50028615173698 
-0.1480502497093985 
-1.016796201943803 
-1.685423124355065 
-3.532535230401388 
-0.6692114602231299 
0.05777826149295443 
-1.62918037137081 
2.02888665791192 
2.155005680773925 
-1.625662702754366 
1.570339443988832 
0.2620078654951148 
-0.5049427767249643 
-0.9656559756711731 
-1.308615078205605 
-1.093214271109903 
0.0708499032328946 
-1.418536198798848 
-0.6923627436983142 
-1.724438323467961 
0.3970632130862097 
-0.6091118380509694 
1.948844982108338 
1.086351670621214 
-0.9100368756521502 
0.03631574885405973 
-0.7528615881709683 
-0.5295770049426284 
-2.307414241207976 
1.794357324737902 
0.9061225985637447 
0.5992747667171007 
3.72247839329284 
2.26377749309623 
0.9300057893461388 
1.346467023949747 
0.7972802747799991 
1.976514415287568 
-1.119630446970671 
0.6093221895198355 
-0.6931273089507951 
0.1015173594488317 
0.8503463176945104 
-2.101457351341677 
1.632365092283831 
2.761107679489266 
1.225415701654746 
-1.808804784392095 
-1.359678130455462 
-2.271944355058742 
1.312996204764873 
-2.66327026273331 
0.2446066616906525 
0.2396709608854737 
-0.170078494739435 
1.851930477914697 
-1.368601841584982 
3.330151019315621 
1.179547393344012 
1.543097163624798 
0.2397336954856296 
-0.3394845330388988 
-0.8173445137923041 
-0.008558479453076775 
-1.808913530884768 
-1.161241799982152 
0.4525969813773619 
0.4430524676457909 
2.46538434563145 
-1.163866136253563 
0.08047233410091459 
-0.2474823222226301 
1.770040612848548 
1.013706094706607 
0.2091342838657135 
-0.4893596061533056 
-0.1275864368594437 
-0.4743058884256852 
0.3592800982653947 
-0.8101450315032162 
0.7034462159155888 
3.700297318962498 
-0.1618394467983528 
-0.705530185798345 
-1.616017538420786 
1.549000882421857 
0.2520905167288806 
1.077513268736674 
-1.157926640519341 
0.03560197481883581 
0.4385575756665347 
-1.433923099615055 
-0.07606242336908295 
-0.2363473325249608 
1.022543708527142 
-0.5781795057648318 
-0.7772468369455193 
-0.2310847767914929 
1.4938694134353 
1.038347443572819 
0.4047539715241472 
2.185158676778332 
-1.186336414314004 
-0.4037514712138441 
0.4661721796994148 
-1.288788796327963 
-0.9630380270353333 
-0.9593864351704934 
0.919009824770023 
-3.074775269193498 
0.8533123558607657 
1.007663311589104 
0.1514275549537427 
-0.879031517993527 
-0.7587749545520487 
-0.1701734445010505 
-1.505690060033189 
-0.2946774119554547 
-1.194731653992194 
0.5298869852367782 
2.847123553175601 
-1.628687966159695 
1.866074369818772 
1.866108142185369 
-0.4936136654132783 
0.4258094887770315 
0.4245060992695679 
0.2863073501475885 
0.09346127361090585 
0.2567926140995901 
-0.9869197256916047 
1.460779250574977 
0.9556539884485107 
1.08031868090765 
2.031859596747969 
0.1520994487931937 
-1.598543493475485 
-2.124038129193819 
0.7183364829918958 
1.430662931055202 
0.06540442508058866 
-0.005850866316489955 
0.6708169014861336 
-0.3125437510564376 
-1.768342961934265 
-2.872076201319645 
0.7362091584450047 
0.1531337791605864 
1.488478574450462 
1.05506936920278 
-1.751505999238656 
-0.8722762414896018 
-0.4231065519945799 
-0.5480712718889242 
0.7926237911498298 
1.828208942509993 
-0.0747279655295561 
0.2820402950402829 
0.07879724003486338 
3.089140200493826 
3.332239178352201 
-0.7948495065580186 
2.354196888834665 
0.4426966799758977 
-0.3386557686378968 
1.296311506531795 
0.008116090520001751 
-0.6407650492347085 
0.3542568888341228 
-2.54468837404998 
-0.412293673971151 
2.093233559037829 
-1.208546182656831 
3.062845851233847 
-0.2081244635558335 
0.5196893976162162 
0.5046697240540466 
-1.873113356604012 
1.069784444341976 
-1.384246059314955 
-0.4461978618069762 
0.05884109659307168 
-1.80314553199219 
0.2976740870461244 
-0.6096999334881 
-1.188169642728563 
0.4622597810758209 
-0.9735351961831934 
1.511327022796622 
-0.7310020779198478 
1.24812634013192 
2.04077742418507 
-1.710797472955354 
1.23644978667063 
3.267670397502561 
1.675218354387278 
-2.249188881672668 
1.08895744242095 
2.136079528918905 
0.1340848326877234 
0.1122979838931213 
-0.4387988903961949 
2.175600718630414 
-1.85030831580453 
-0.3300586704042013 
0.5667351463860152 
-2.188101158629843 
0.4967671927202694 
1.619939307441534 
-0.3837397633614039 
-0.6487489988270068 
0.2831070326464373 
0.1653121486314907 
1.049873585162625 
-0.671758391897447 
-1.154599362080354 
3.291661066005017 
-0.03688471365925606 
-0.9562858627987069 
-0.2552961240331498 
1.329343418933515 
-1.342353799635017 
-1.501645396689966 
1.676860296803435 
-1.79875887056616 
2.818153759075354 
-0.3691503679275551 
-1.108555407288044 
-0.9147912850376501 
0.3281206427877071 
-0.7572112239697478 
0.5481245141404594 
0.477617442308026 
-2.68983261302574 
1.721494194854212 
-2.546177244921213 
0.2368307767880735 
1.095988597917025 
-1.275647592813761 
-0.06157988206631648 
0.7600549367203824 
2.83472273386891 
2.109210515191674 
0.91423749253918 
-1.301366222650526 
-1.503352333150948 
-1.368023455847069 
-0.3141907344812612 
0.9592684624721516 
1.592184718573818 
1.831920146962999 
0.03630297215292799 
-1.14177831730809 
0.974169629052103 
-0.3816111832081567 
0.5841941549173345 
1.229963847733515 
-0.5830243759441702 
0.588624036357138 
-0.6165033806914876 
-0.5044231995181807 
-0.03998807502421244 
0.9201548976752177 
1.019213554131404 
1.692225977236018 
-1.232243676164494 
-0.9185381785947445 
2.502072390923406 
-0.3421210147023149 
-1.070324929725162 
-3.00708668471481 
-0.85178184554424 
0.7538712697451988 
0.820772602414185 
-0.7766868332609641 
0.4819826254110718 
-2.571221972482522 
0.98659839445501 
-0.5301889525564536 
-0.178460782346382 
3.186028205637855 
1.5453133882874 
0.496804948616982 
-0.03218813918982594 
3.378503481851979 
0.3398231931816839 
-0.02402248640005164 
-2.307151179541522 
-0.1404681327179958 
1.601675506528465 
1.009588949629581 
1.373459086824484 
0.3664499343262745 
1.504521578543005 
-0.892836488570744 
0.07308207885269599 
0.8461567933244231 
-0.5021037739286913 
-0.7488022203868284 
-0.2963522041364286 
1.590702949177339 
1.341688016305402 
-0.8653200134494711 
0.08388472202417456 
-2.024488239275446 
0.651020380637769 
1.182012113287651 
-0.9872150115080116 
0.6279451882105148 
-0.4805059171049406 
0.62991212727482 
1.776158975515607 
-1.948391006867841 
-0.2079172140371279 
-0.4182599070908701 
0.1210778737350247 
-1.003170643736227 
-0.9709181557620955 
-1.14081830223692 
-0.4367118211625295 
2.811577707309778 
-0.3229084817486657 
-0.4449405670815092 
-0.1310134769752727 
0.1128291289609591 
-0.8549379772069363 
2.453213538689477 
0.919471334432902 
-4.387623055035518 
1.047213812498657 
0.4899682083796336 
-2.111699649089899 
-0.3929925813891639 
-0.752834083848068 
2.28273207799158 
0.8095333081631855 
-0.1240194560124294 
0.1808222651355107 
1.241122149804013 
-1.586923913195739 
1.38777466735452 
1.338577974524881 
1.841117374544069 
1.982908807925476 
-1.75722711454692 
0.3174957380454 
0.4783252846834548 
-1.58490053702754 
1.644595508919933 
2.863898389372019 
-0.8686567023371189 
-1.119243649329204 
-1.077719998584185 
-2.318468840990633 
1.673379590420824 
0.9062262666336494 
0.3912281217241991 
1.747053415562749 
-1.549704594111655 
-0.8114645626100623 
1.460234143654445 
0.4972909714590274 
-1.633163771488973 
1.113354247758701 
0.7186592483855391 
1.514144673482438 
1.036810200060359 
0.3555214253500623 
-1.676111854191972 
-0.04911034797947456 
1.245250804026368 
0.3998079108171105 
0.2646498112344959 
0.1241327540038936 
-0.159302287779164 
0.3207176452826768 
1.535814365101887 
-2.803127553424138 
-2.170100977580901 
1.987704425259521 
-0.2728670482361892 
0.7738181633885813 
2.42300255877117 
0.03237599938235342 
0.09518663973411225 
0.4283577371327098 
2.33145446387104 
3.469922495566554 
-0.2429542577463035 
0.7949133479060294 
-0.6847821235317822 
2.090049701508823 
-0.3630851489426233 
-2.808230480646448 
-1.419256046639598 
-0.6382107217988081 
0.9512958283945133 
0.5837416773579952 
1.560881484230072 
-0.6149724663957498 
-0.4246632635406768 
0.1407623894915271 
-1.028908813584422 
0.8190244758786065 
2.398042375841587 
1.22152874865751 
-0.3390091969172699 
0.1598888639885043 
0.09760578083250995 
1.663903125873523 
-2.874655857468437 
-1.039905384579425 
1.698707857341847 
-1.227930731831901 
-0.1781512906399693 
-2.281511166343642 
-0.2243521890696168 
-0.8742296890972231 
-0.1218012693435554 
1.904366431285227 
-0.4435803819504022 
0.01248261682145919 
0.854241042322411 
2.370210814400245 
1.552993520290394 
0.443170720620726 
-2.142016230836527 
-1.980484997126881 
-1.460709365116025 
-0.4285946639802433 
2.001514168345719 
2.043753664227697 
2.430355763811466 
-1.547315014293134 
1.597317705705679 
1.042597813117651 
-0.2577070592314588 
-2.135169642389616 
-0.347145730828588 
-1.12857321478094 
-0.8789680693702061 
-0.4253980327251776 
-0.7818558454584427 
1.161937598303061 
0.2331895444312698 
2.255982632569671 
0.2509604181655835 
-0.9196688657511666 
0.2495176356648414 
1.901138949244103 
-1.231055665749389 
3.665762835947476 
-1.098350640213397 
-1.370254573480726 
0.4963488372581126 
-1.44315026839867 
2.183184697016214 
-0.2563150678942474 
-0.7325631465982073 
-2.131734597258159 
0.1051096788915804 
3.325840999276252 
-1.539182694068239 
0.07066127375937842 
0.5365641864979631 
0.9190047955495044 
-0.2737076399975231 
0.7591447762091336 
-0.3521908243674481 
-0.5360734417444878 
-0.1764928879744595 
-0.1538170172589052 
0.1447005657992245 
-1.324972013671985 
0.9180032644800282 
4.327616806884806 
1.550725832758544 
1.322022952268675 
3.058924757583149 
-0.04179076746587511 
1.944783612155134 
-0.1599488753174398 
0.9506330442792907 
-0.1689560916955149 
-0.8573628738441315 
-0.5762518493071825 
-0.04632347675013931 
-1.012544193286864 
-3.668415405998929 
0.1678211700889908 
-0.4067734945844307 
1.642508178631109 
1.823383350487296 
0.1180084043841395 
0.415618504081946 
1.184705377804615 
-0.8364947867860529 
0.2411421093389455 
1.466255324105533 
-0.9904349852369455 
0.9558060276440572 
1.34544534975954 
2.030650689958454 
-0.01691814686251054 
-0.6609829217311131 
0.2861133629691412 
0.02421012763759538 
-1.317078942300852 
-2.601110690153654 
1.070266486060738 
-0.1694542409852721 
0.7278581484369042 
0.4242387378414982 
0.6117061403443979 
0.7408865577789395 
-1.193921530983421 
2.201775230829465 
2.033569169735664 
1.129632390545304 
0.8442582168092613 
-0.4593618316063074 
0.279501505753854 
1.844010383908926 
-2.052128785761902 
0.8999446790666907 
-2.115052585976797 
-0.4274266582689933 
0.8034945605107391 
-1.761545526630802 
-0.622429829335219 
2.67873507970104 
2.16114932144865 
-1.882185904485881 
0.531083510327459 
-1.368898353360433 
-0.7073106079046858 
-2.004770859799406 
1.564822860807409 
0.2356368939766934 
-0.04606589868708341 
0.8011514774937426 
1.041099811427643 
-0.1996642227404425 
2.312955263536632 
1.881606492741569 
-0.5822150733802191 
-1.217817527691535 
-0.9103444823827957 
0.9476097260149408 
-0.5318569132192202 
-0.3532257916740903 
-4.296808587246598 
1.127783340197416 
-0.03436479864626231 
0.5993377467165668 
1.078313660130417 
1.711156946913665 
-0.07648855626356596 
1.895618089452115 
-1.732091774602799 
0.3103901548789076 
3.015381346282614 
0.2610309288089682 
1.020170319205135 
-0.5801351061459004 
1.40836261326789 
0.7987850409173822 
-1.696899832456749 
-0.4327213166609572 
-0.4325145824389277 
-1.151995853303242 
1.070034276697022 
0.2835555102540862 
-0.5020932059403617 
1.185586763761014 
-1.474009151202051 
-0.3787956493301053 
2.202289555060134 
-2.645317316821532 
-0.1333432179062833 
0.6909574704403912 
-1.007408801134412 
0.8723533430537416 
1.598451507514381 
-2.632175643078689 
-0.2670326447872384 
3.220599115382114 
1.736700504161446 
0.1412951167694598 
-0.6867361090605463 
1.534491256532198 
0.2037218315751555 
-1.391369633368298 
-0.03438097645088119 
1.834695584186617 
1.196900534460173 
1.465214559655455 
-0.4488273712527749 
-1.846672500359128 
0.1131125345680785 
1.106435705274734 
-0.5119692218676449 
-0.2515258951877981 
0.5041833441995781 
-0.6381244670900984 
-0.3934011370767344 
-1.264751832949171 
0.1846463880774832 
1.56290600650385 
2.093762946896373 
2.536312128424632 
-0.291312336274617 
0.9357649136191054 
-2.168694967514993 
1.44713994372699 
4.179001519618027 
0.6278658147166472 
0.7096608238669759 
1.50233547503906 
-0.5122772235834289 
-0.9486779072811351 
-0.6745384572685339 
-0.2650375248331749 
0.3622118767324485 
0.2132796365719578 
-0.7280388835044891 
-0.1230521899597139 
-0.6478252774075731 
-2.813494481526187 
-0.7434860571188496 
-0.9028440227701833 
4.085625688003099 
2.51581337313834 
-0.8216192002021179 
0.3942321409940915 
-0.9642435678851513 
-0.4502392881642512 
0.4303063464893347 
0.9415299999748798 
-0.6250772411268896 
1.359928550911898 
-0.2159008505998861 
2.348284586388659 
2.553612924183802 
0.8199582057622208 
1.647808751576235 
-1.930627050005448 
2.131762265822665 
1.298577268409903 
-0.0177796467923947 
2.488755639764641 
-0.4666161489410704 
0.4911175404919536 
-1.883410133841397 
0.3975992767913394 
-1.777523923900642 
-0.5237354228320826 
4.279042659440075 
3.210100179547097 
0.9436198855261636 
-0.4781691550369291 
