solver_type L2R_L2LOSS_SVR
nr_class 2
nr_feature 1984
bias -1
w
9.140445425997163e-08 
0.0005120281618861735 
0.0005493601913388847 
0.0005598450839501289 
0.0005499716775665914 
0.0005565368419002306 
0.0005489143920456569 
0.0005569069545679582 
0.0005487514849977987 
0.000548960574165585 
0.0005405248692931466 
0.0005549448347509647 
0.0005372841971447251 
0.0005483738103521257 
0.0005364013601064525 
0.0005464574773512616 
0.0005392390014551606 
0.0005533528702995161 
0.000537725083180483 
0.000548420282779606 
0.0005412419996529134 
0.0005477235232000954 
0.0005303143435314628 
0.0005427064633997552 
0.0005418748925474568 
0.0005428600003397645 
0.000542667470291783 
0.0005461196282702324 
0.000535725246280245 
0.0005479741567013718 
0.0005362932386900884 
0.0005577577360509245 
0.0005389348187082586 
0.0005578002545017128 
0.0005457658364467242 
0.0005589781489303376 
0.0005410048256740635 
0.0005559723316887063 
0.0005414131997966704 
0.0005616760226805272 
0.0005316347097222664 
0.0005546975236709973 
0.0005336932723649903 
0.0005536962722725169 
0.000532918566506165 
0.000547302506352523 
0.0005364959704021843 
0.0005481330544796971 
0.0005452323400112609 
0.0005486364499240377 
0.0005432494982192113 
0.0005432408470627206 
0.0005530726635315343 
0.0005370964699257578 
0.0005526904524226695 
0.0005412525320224221 
0.0005491380190553564 
0.0005416738124359913 
0.0005435147211360525 
0.0005482542754077045 
0.0005448652432638911 
0.0005532665213762842 
0.0005494878043071755 
0.0005517072277507011 
0.0005559944375826274 
0.0005609231102496395 
0.0005481193223752927 
0.000561388214481037 
0.0005454997167369093 
0.0005656321265001888 
0.0005537873642107304 
0.000561941898557548 
0.0005531661833226411 
0.000553005453832842 
0.0005620621771565991 
0.0005580814851198028 
0.0005631766974768821 
0.0005620760576436138 
0.0005555213618328467 
0.0005687721799625439 
0.000552135843064244 
0.0005712511914649161 
0.0005438990153479059 
0.0005653467228582204 
0.0005509171803445746 
0.0005622500527040836 
0.0005465998828828708 
0.0005695358048950538 
0.000553810717299682 
0.0005553900669964975 
0.0005551083663346393 
0.0005554866203016591 
0.0005524550357842288 
0.0005516855148807924 
0.0005427640944815869 
0.0005618893441722095 
0.0005473826239546983 
0.0005682266836092439 
0.0005553990072705146 
0.0005672804599104206 
0.0005468579571288205 
0.0005705659140245409 
0.0005416733353257776 
0.000562325409938212 
0.0005469948493078378 
0.0005558371608255955 
0.0005481451664565077 
0.0005487355937098269 
0.0005414678363955308 
0.000560356825642765 
0.0005395362192039009 
0.0005599847578803455 
0.0005430446943642469 
0.0005565484886834271 
0.0005419475443270707 
0.0005616917444114433 
0.0005437652264567221 
0.0005556935762454165 
0.0005396164646994937 
0.0005553113725696147 
0.0005321448278829609 
0.0005570077522233227 
0.0005349739770149017 
0.0005592454984702131 
0.0005335384803153212 
0.0005618032580630472 
0.0005396684464395513 
0.00055264670006852 
0.0005484369662189474 
0.0005440677051961279 
0.0005467139274702815 
0.0005450508581186911 
0.0005448414396586535 
0.00054896173007939 
0.0005398855381968889 
0.000547894677591055 
0.0005341250903466028 
0.0005488825475491071 
0.0005374319935488301 
0.0005509625778376282 
0.0005412877048163038 
0.0005505660578605245 
0.00053682583204144 
0.0005508207976885291 
0.0005468870681881415 
0.0005487213261978712 
0.0005445172604345437 
0.0005612781282868151 
0.0005411812043760783 
0.0005543436431019659 
0.0005514641383488862 
0.0005544679207895548 
0.0005510000932685099 
0.0005478342930320591 
0.0005542471128566038 
0.000555363709075038 
0.0005523651123594706 
0.0005502558574353037 
0.0005522595175480878 
0.0005452642251222447 
0.0005438357341317248 
0.0005400959084814803 
0.0005428875106630911 
0.0005409099045375496 
0.0005501732747848897 
0.0005432620785370568 
0.0005476201022287351 
0.000536340573209621 
0.0005500079730956798 
0.0005446096864729369 
0.0005535416885176283 
0.0005352452925782457 
0.0005614922822608894 
0.0005397757745855541 
0.0005577636805158848 
0.000541228815998262 
0.0005504763408750211 
0.0005351231925624141 
0.0005591027353913421 
0.0005415755656468821 
0.0005624542554737684 
0.000541060678125396 
0.0005624318313460285 
0.0005453060591441696 
0.0005516690394456398 
0.0005477771704841532 
0.0005439802862948505 
0.0005464324772206209 
0.0005463288543785231 
0.0005475944620595343 
0.0005556551900005173 
0.0005417690791443827 
0.0005551380417312862 
0.000551585978802001 
0.0005534002517560305 
0.0005496419156948884 
0.000552435153702566 
0.0005518414903070654 
0.0005540709247635139 
0.0005370251547944336 
0.0005518861160562819 
0.0005398342408346645 
0.0005591295149748168 
0.0005384707997069658 
0.0005482077857234276 
0.0005349746166161867 
0.0005512696303087952 
0.0005292577718278261 
0.0005418256814278572 
0.0005383189670527395 
0.0005468597684909472 
0.0005364084220523102 
0.0005384248307333621 
0.0005399589437838484 
0.0005444471901720603 
0.0005336952937006994 
0.0005524763507787082 
0.0005332270277521726 
0.0005474697600113502 
0.0005264301742054352 
0.0005432970754589814 
0.0005305603660189837 
0.0005410589300218119 
0.0005347378464064642 
0.0005542332261841406 
0.0005366477330726121 
0.0005520416965170287 
0.0005266583457390105 
0.0005454485508418126 
0.0005389333142536448 
0.0005438807353468704 
0.0005290900529518679 
0.0005343514750057647 
0.0005357182043276261 
0.0005354733736676376 
0.0005333227343679301 
0.0005357700125927469 
0.0005346932609226636 
0.0005399988998996343 
0.0005347269336953968 
0.0005365700419624778 
0.0005325212383989227 
0.0005435211534693756 
0.0005328506485060057 
0.0005461008660352141 
0.0005351241018263975 
0.0005381299994987153 
0.0005387421845697633 
0.0005452106775220472 
0.0005367993298360968 
0.0005479284519987092 
0.0005423025405768363 
0.0005515151515315939 
0.0005359313907251108 
0.0005549796820126623 
0.0005325913578844938 
0.0005557674631451099 
0.0005293234525959587 
0.0005609787997138675 
0.0005238619277936232 
0.0005575634643542046 
0.0005275434800707893 
0.0005589070692902811 
0.0005263105259734372 
0.0005580142453704409 
0.0005261788082321784 
0.0005595896401600311 
0.0005252528110312175 
0.0005565012934906746 
0.0005282508210453451 
0.0005496220949231676 
0.0005299735687710617 
0.0005505781586930774 
0.0005302581016190199 
0.0005525901742013999 
0.0005277333387456743 
0.0005440833803734902 
0.0005352847374121832 
0.0005458062144491166 
0.0005319482749644259 
0.0005489650033589102 
0.000531710415747853 
0.0005496451957044341 
0.0005415966442987895 
0.000551029830499931 
0.000540996925706833 
0.0005464924687073778 
0.0005400347861904502 
0.0005476706952711293 
0.0005422950198056975 
0.0005493679257557862 
0.0005474764702481814 
0.0005466655803824542 
0.0005434577871571183 
0.0005418820703576847 
0.0005406437997903395 
0.0005403473901591935 
0.0005463144828400619 
0.0005381594547603966 
0.0005443528567159737 
0.0005389125421160936 
0.0005452139734224288 
0.0005383943864732426 
0.0005482869425364391 
0.0005399212396419644 
0.0005440907983197292 
0.0005424111347754351 
0.0005490227139627687 
0.0005391589876232641 
0.0005485559703964641 
0.0005453325082726198 
0.0005551697078679976 
0.0005437987805867248 
0.0005491274457530602 
0.0005509087448921751 
0.0005473074440861475 
0.0005442301769242661 
0.0005479382853800272 
0.0005477246675446763 
0.0005418839705421161 
0.0005462877365365091 
0.0005484457916399383 
0.0005420163551983515 
0.0005362553941921117 
0.0005517490973948944 
0.0005330807480730291 
0.0005577800506250043 
0.0005320888265074519 
0.0005440879261467364 
0.0005324328023326418 
0.0005485533164032042 
0.0005383887558096716 
0.0005440718885660839 
0.0005421305418884182 
0.0005416543543869145 
0.0005402414646508997 
0.0005385800022803007 
0.0005508560521279705 
0.000540136700767138 
0.0005395235139656993 
0.0005526279577412357 
0.0005387188220668675 
0.0005503804503984782 
0.0005381989474124296 
0.0005475681781954328 
0.0005316735075743188 
0.0005461239856749956 
0.0005274413937539828 
0.0005532546812994216 
0.0005280298113400888 
0.0005420130990175317 
0.0005342002375108098 
0.0005545280490046372 
0.0005362271894370431 
0.0005581239087669102 
0.0005257479366632717 
0.000554508971932969 
0.0005303556378548819 
0.0005523230069729053 
0.0005349086303568507 
0.0005577010875442924 
0.0005324239676938126 
0.0005619131286563518 
0.0005339070912822383 
0.0005597733152005475 
0.0005376419662645359 
0.0005630004076500229 
0.000541647207374294 
0.000559478463555197 
0.0005383334346057819 
0.0005609470648456719 
0.0005351941661128361 
0.000555396441642436 
0.0005328555619630227 
0.0005593244398544079 
0.0005367734197742061 
0.0005523246454869309 
0.0005338109157145516 
0.0005510169375233697 
0.0005434326853657381 
0.0005501726063983595 
0.0005411980401148044 
0.0005587847767826437 
0.0005416236370662579 
0.0005539426629669186 
0.0005398543204873725 
0.000562616507771348 
0.0005331158754439677 
0.0005645229006039038 
0.0005282954323190794 
0.0005630110041964167 
0.0005352767244203599 
0.0005657013052244405 
0.0005396160036750761 
0.0005668263709379598 
0.0005392367368936106 
0.0005593615593486089 
0.0005463793906846696 
0.0005582209998702096 
0.0005317158256196267 
0.0005609368640373127 
0.000534080714664364 
0.0005516531629437597 
0.0005301358524043979 
0.0005555545816835704 
0.0005256084860131422 
0.0005505907272442613 
0.0005286027931060298 
0.0005478072566278895 
0.0005321885058682616 
0.0005558969017800131 
0.0005396224991595004 
0.0005448869415127483 
0.0005456295080146045 
0.0005475713157673739 
0.0005459154573981175 
0.0005501033866488709 
0.0005498088605248309 
0.0005465479122548578 
0.0005460018912524077 
0.0005469853954497609 
0.0005498755680316399 
0.0005520399706585862 
0.0005461901675974501 
0.0005420852427746928 
0.0005407067755887611 
0.0005478996763834547 
0.0005424413532702744 
0.0005544235581647827 
0.0005453432644838813 
0.0005579624587382223 
0.0005375721266741625 
0.0005544828449629169 
0.0005372814377933748 
0.0005591463621801395 
0.0005418396470999296 
0.0005480766529012905 
0.0005391719987277889 
0.0005506330451651556 
0.0005305961445285311 
0.0005552463295354363 
0.0005387047720355897 
0.0005439427747891273 
0.0005422296511383988 
0.0005475887863018825 
0.0005430493709348491 
0.0005480324053365017 
0.0005417029095628468 
0.0005550114459173346 
0.0005432408401584748 
0.0005497249629622297 
0.0005429099889174471 
0.0005577771737097187 
0.0005452128090382772 
0.0005519532080777652 
0.0005315933734764261 
0.0005594989216133492 
0.0005269982138333104 
0.0005625676096882951 
0.0005254280220434871 
0.0005610501678372429 
0.0005329463567586632 
0.0005601500338926812 
0.0005377414886741945 
0.0005502601345644478 
0.0005325722231829933 
0.0005553904951568435 
0.0005387511256530079 
0.0005454026912359112 
0.0005374949022091356 
0.0005519050250529012 
0.0005314498096314531 
0.0005481955342323897 
0.000528221388927386 
0.0005541097301447351 
0.0005370234793569798 
0.0005457784401692316 
0.000542120660819894 
0.0005465862134736791 
0.000538653759122537 
0.0005471307469585146 
0.000533473977390828 
0.0005482415785571609 
0.000532806310902019 
0.0005431958237626391 
0.0005278401142472621 
0.0005466560150404015 
0.0005325482210514337 
0.0005448986467838053 
0.0005407777207001911 
0.0005536096241894849 
0.0005413200504891853 
0.0005486476034887022 
0.0005388166486828336 
0.0005520248777985397 
0.0005386128398544324 
0.0005515840761269507 
0.0005401095685291657 
0.0005479821471781264 
0.0005449653087423253 
0.0005486442029790777 
0.0005394609606841669 
0.000557351436092903 
0.0005419693077968888 
0.0005646621542416123 
0.0005419504854115335 
0.0005545884259766798 
0.0005437306300386516 
0.0005536521523268075 
0.0005464413331201894 
0.0005483067593245085 
0.0005459900205057324 
0.0005533674277816237 
0.0005442722313655995 
0.0005602530738120007 
0.0005378737906983227 
0.0005590028580899998 
0.0005428060935244493 
0.0005573311309661873 
0.0005360875110212609 
0.000543997699347014 
0.0005429844319880217 
0.0005531607902785935 
0.0005427886817570736 
0.0005522343128591384 
0.000540807518541952 
0.0005515520375299828 
0.0005517503230383646 
0.0005566005817127472 
0.0005502423050280425 
0.0005523547968321547 
0.0005517310900844046 
0.0005440746615073954 
0.0005516333253636715 
0.0005528954850769366 
0.0005471863710244975 
0.0005396976603364487 
0.000541493138044118 
0.0005494156237621909 
0.0005425360399256451 
0.0005516411280624754 
0.0005437980201045195 
0.0005454542040262575 
0.0005462736467651149 
0.0005504753349486305 
0.0005526933979848386 
0.0005532929352689762 
0.0005522330184168808 
0.0005500941534759834 
0.0005548629139165216 
0.0005520114555698928 
0.0005536478112338572 
0.0005537402421813979 
0.0005542170226488993 
0.0005439176252709043 
0.000549646664029348 
0.0005446390486176685 
0.0005463812654087538 
0.0005462772996767059 
0.0005426126849368138 
0.0005431819415499257 
0.0005414509033756709 
0.0005359477854092391 
0.0005427499276380238 
0.0005294757235588459 
0.0005458022886008944 
0.0005295674629504774 
0.0005438872792845705 
0.0005285918508390985 
0.0005385114273082564 
0.0005311000229078925 
0.000535164721962605 
0.0005452703728323107 
0.0005385463941581008 
0.0005413277095365731 
0.0005400860709858274 
0.0005344814109725228 
0.0005338454471002569 
0.000547450554404895 
0.0005299436182159536 
0.0005520456508696927 
0.0005363226484245907 
0.0005485217493076559 
0.0005363975256314074 
0.0005503734901319176 
0.0005331070187002033 
0.0005518522288807168 
0.0005358770862358118 
0.0005495624071170889 
0.0005386327926054944 
0.0005473128909074283 
0.0005474142545854122 
0.0005538177127197779 
0.0005388577535372323 
0.0005484894064888996 
0.0005413043947158484 
0.000556487679329214 
0.0005524625489035659 
0.0005492074043187352 
0.000542813679460939 
0.0005554560659409997 
0.0005414361491353622 
0.0005475655767302174 
0.0005490471844150431 
0.000550590705793373 
0.0005414772191062047 
0.0005529837882763265 
0.0005387227582223507 
0.000551618609962147 
0.0005368678017754444 
0.0005621766540279201 
0.0005439928254174772 
0.0005589173137372393 
0.0005461039422872086 
0.0005667285700537812 
0.0005452191955821716 
0.0005692487496946005 
0.0005473520148708667 
0.0005633553189911191 
0.0005355731560624481 
0.000557693263940631 
0.0005448690939109847 
0.0005577083505920009 
0.0005424737018795772 
0.0005563977552799284 
0.0005479538825357898 
0.0005565926040020095 
0.0005452418869534838 
0.0005460931187248256 
0.0005431650678811719 
0.0005559995400950375 
0.0005471939375693051 
0.0005556909101127324 
0.0005476804735129969 
0.0005593764616346164 
0.000542121998372588 
0.0005561507541230659 
0.0005421689795284842 
0.000556720553091847 
0.0005456827203846802 
0.0005656446278784192 
0.000548534685260094 
0.0005616619139834798 
0.0005449830734178338 
0.0005678187876328536 
0.0005433783630920757 
0.0005707671378466372 
0.000546003259521897 
0.0005662565001051698 
0.0005430488817674055 
0.0005707834671058597 
0.0005450356368724174 
0.0005647294945649103 
0.000543697927208619 
0.000562955887019091 
0.0005385326342718761 
0.0005644465616107755 
0.000533205767549053 
0.0005612830006499688 
0.0005236711195995578 
0.0005667372340534 
0.0005320853074856466 
0.0005644790209444466 
0.0005248327014856145 
0.0005615680406256037 
0.0005337721984150607 
0.0005622951214674177 
0.0005370003797512005 
0.0005563249055152303 
0.0005448124824642564 
0.0005549880110636425 
0.0005358128202742897 
0.000547464757718868 
0.0005444697141334049 
0.0005477515375923387 
0.0005439673331571791 
0.0005484214262685216 
0.0005463125261851747 
0.0005478913178462455 
0.0005377095581213524 
0.0005566042172282107 
0.0005444998374557685 
0.0005589609876316762 
0.0005513996913900187 
0.0005521092264331722 
0.0005390756660580096 
0.0005593521760965568 
0.0005367033922076955 
0.0005589171387421345 
0.0005370680262774557 
0.0005548064047392047 
0.0005308901706791003 
0.0005657527432357027 
0.0005250702612224578 
0.0005549250157474861 
0.0005342598071087722 
0.0005558580320191435 
0.0005325604122197013 
0.000562409943752175 
0.0005291098508755965 
0.0005642663775229554 
0.0005291412653920125 
0.0005710808463472042 
0.0005368155923893038 
0.0005655606445833564 
0.0005360733338679891 
0.0005646223010624169 
0.000537344021420992 
0.000567670559258369 
0.0005340213414871035 
0.000568304363661122 
0.0005352243401589628 
0.0005633479474433863 
0.0005293387829441024 
0.000559561056513111 
0.0005286075335914793 
0.0005573537843036508 
0.0005368402722309557 
0.0005570459981349614 
0.0005389034978152168 
0.0005580268044573907 
0.0005350677515289449 
0.0005546641113048497 
0.0005327517285654038 
0.0005636992115077322 
0.0005298437608026319 
0.0005550721097954638 
0.0005348422519760133 
0.0005517713734189598 
0.0005365604056976073 
0.0005504897527874718 
0.0005358402920507787 
0.0005564928235744541 
0.0005288393158789529 
0.0005613851324462421 
0.0005375729187773487 
0.000560224450384431 
0.0005361281186874292 
0.0005616304919317897 
0.0005303740263425165 
0.0005516324451946806 
0.000536657014649442 
0.0005563402249729362 
0.0005419367374375778 
0.0005533846673709267 
0.0005342742136333038 
0.0005567388667327805 
0.0005346874683659443 
0.0005603680902025165 
0.0005383517372576039 
0.0005605650751837727 
0.0005456242586101618 
0.0005649782066592515 
0.0005400318946009891 
0.0005582248669791586 
0.0005330874349017879 
0.0005522234129255693 
0.0005378472008090833 
0.0005468053623781902 
0.0005403553895071956 
0.0005535600171160023 
0.0005345541835861178 
0.0005448140421244166 
0.0005419080793784857 
0.0005486707533094148 
0.0005404839745055923 
0.0005499928744304173 
0.0005372472097346769 
0.0005486362011251004 
0.0005349175184254564 
0.000550775764104564 
0.0005376005681405051 
0.000557799385389516 
0.0005382438007523909 
0.0005601971128870931 
0.0005311489307882092 
0.0005578079474569468 
0.0005385580678365207 
0.000559239772353058 
0.0005318642599912242 
0.0005632742914777598 
0.0005353731682124649 
0.0005566607023038277 
0.0005358100585631392 
0.000547863649132759 
0.0005388168972454694 
0.0005438288254887663 
0.0005392465404675723 
0.0005518922305051427 
0.0005389758362988448 
0.0005627779834183012 
0.000535220505630474 
0.0005478104676403819 
0.0005300531117835715 
0.0005471450664615061 
0.0005292698037738569 
0.0005459100505985424 
0.0005259799076894513 
0.0005489064088282081 
0.0005298159874174663 
0.0005442091134105065 
0.0005311694465698208 
0.0005444245149558155 
0.0005318264080022103 
0.0005427388656314764 
0.0005347639817748848 
0.0005541255660041432 
0.0005315880094582381 
0.0005524389569837836 
0.0005352060345739617 
0.0005578149598425435 
0.0005296729198244738 
0.0005497644778792922 
0.0005318904823550229 
0.0005481833111217053 
0.0005263591345662866 
0.000552270149540699 
0.000535832990896333 
0.0005528450732643187 
0.0005367117970971317 
0.0005559925377973033 
0.0005355319326078082 
0.0005556883930059606 
0.0005399871629647469 
0.0005548376574254544 
0.0005463019155764582 
0.0005497889451735613 
0.0005433006350956541 
0.0005482298004702593 
0.0005345009290309818 
0.000554026105146885 
0.0005395182883411717 
0.0005464783031704816 
0.0005406689765716774 
0.0005451090435726466 
0.0005461874270994722 
0.000549069565710582 
0.0005416838956220608 
0.0005481666859205619 
0.0005403265106347955 
0.0005472052190720474 
0.0005522349570269763 
0.0005467158912014085 
0.0005488870106023572 
0.000546324836851421 
0.0005477299256293618 
0.0005488033204545172 
0.0005496553917944063 
0.0005395343922242344 
0.0005454133139689791 
0.0005446351667923773 
0.0005543132520269343 
0.000550722481906856 
0.0005470663467840053 
0.0005515797438441794 
0.0005467458553413185 
0.0005540440080836221 
0.0005455041365055508 
0.0005518200546132913 
0.0005465828514136803 
0.0005511334339788729 
0.0005600152839080782 
0.0005507221592520091 
0.0005580495931353384 
0.0005495336703428778 
0.0005544701895599881 
0.0005543702021736483 
0.0005531411321056379 
0.0005565903956704938 
0.0005586987847249414 
0.0005527833989051626 
0.0005466051914770255 
0.0005585120667997294 
0.0005465572380784006 
0.0005578441924220996 
0.0005399856263455939 
0.0005669131969688002 
0.0005422453684774973 
0.0005595958435292586 
0.000550000566638096 
0.0005582261848590605 
0.0005490898114115111 
0.0005461387447484039 
0.0005533719035185873 
0.0005515436717381823 
0.0005447903636309365 
0.0005573081868141052 
0.000546627900906785 
0.0005466225631423428 
0.0005511267659084724 
0.000552645186001555 
0.0005560783975922831 
0.000545367882907332 
0.0005518644256907499 
0.0005483946096184341 
0.000549132685992216 
0.0005456698949322288 
0.0005535417913610552 
0.0005419821473856304 
0.0005536756828864634 
0.0005440399158551562 
0.0005540317579187228 
0.0005470771624021745 
0.0005440418879010705 
0.0005522811633083609 
0.0005407218412607699 
0.0005536460189544396 
0.0005365785028744359 
0.0005534192317448866 
0.0005410067843918459 
0.000549601457819237 
0.000540775870596234 
0.0005497056976686294 
0.0005356782693059611 
0.0005372112351076783 
0.000545996593406823 
0.0005431215869633183 
0.0005385837726658317 
0.0005428969994953721 
0.000533232501244388 
0.0005455867476548734 
0.0005394734966057441 
0.0005437160562210215 
0.0005356722080278736 
0.0005463188246367395 
0.0005338265202298729 
0.0005539820115911659 
0.0005434764613229165 
0.0005502417983471621 
0.0005348415130483835 
0.0005493163494087065 
0.0005434828201141167 
0.0005435941435682689 
0.0005402308645136378 
0.0005445627866644008 
0.0005434539453135628 
0.0005444100914814611 
0.0005374445664237747 
0.000554390888555624 
0.0005383740702349809 
0.0005484095898562686 
0.0005345990720522399 
0.0005486928311587927 
0.0005375380140162541 
0.0005450913783159288 
0.0005444289984647886 
0.0005444783627887457 
0.0005423801738956948 
0.0005514427326135954 
0.0005401479948272381 
0.0005480423603795079 
0.0005418219596157558 
0.0005453431673873312 
0.0005288316579655306 
0.0005596572836406842 
0.0005365908139888667 
0.0005572118753232382 
0.0005438456712693292 
0.0005504797987960222 
0.0005453801072311039 
0.0005583178078304641 
0.0005511628078241616 
0.000546144685665801 
0.000554133693314103 
0.000548393228156991 
0.0005497202400489243 
0.0005421685535389944 
0.000553419436313961 
0.0005449667097824412 
0.0005525735793958291 
0.0005482171190943357 
0.0005514476173281087 
0.0005459621650143327 
0.0005422968253546323 
0.0005579430988197607 
0.0005412349987619256 
0.0005492279700131022 
0.0005371883492367854 
0.0005530885701423295 
0.0005464497961852379 
0.0005546591946720127 
0.0005388232181780338 
0.0005580914261331018 
0.0005455847864439018 
0.0005533718933996995 
0.0005517783167664287 
0.0005604968470946316 
0.0005592903078739671 
0.0005535775849566082 
0.0005475417743606008 
0.0005485424508558375 
0.0005493474404845014 
0.0005635538719119101 
0.0005460671652854094 
0.0005557957461451394 
0.0005576475636856627 
0.0005549594141699833 
0.0005595926422124948 
0.0005635531370464272 
0.0005629059266095018 
0.0005548859455591848 
0.0005565371502008105 
0.0005620482146666797 
0.0005566420031073981 
0.0005568053259280364 
0.0005595689424191777 
0.0005544245141221857 
0.0005514262164309583 
0.0005628221205227253 
0.000546631675316737 
0.0005641427123370964 
0.0005508732181530062 
0.0005597554588539951 
0.0005444317776301579 
0.0005606205768617986 
0.0005454050696091082 
0.0005547065887253682 
0.0005477167224910537 
0.000561212806958034 
0.00053557020036423 
0.0005604309074912585 
0.0005376602050745461 
0.00055022928655509 
0.0005439719974082426 
0.0005604622396599124 
0.0005472431612257823 
0.0005552335142889815 
0.0005478059811309769 
0.0005605375289051913 
0.0005430767901719237 
0.0005570947196087579 
0.0005399066257783644 
0.0005522827617437087 
0.0005351415375688061 
0.000558999494060833 
0.0005370581395813823 
0.0005547765782032706 
0.0005392310705945281 
0.0005459127480704359 
0.0005395616747147717 
0.000547124592878024 
0.0005439341608939629 
0.0005373504256918247 
0.0005429410125540429 
0.0005530542895887633 
0.0005454519043527811 
0.0005560978310118649 
0.0005423263210369569 
0.0005555927370348475 
0.0005426736952162328 
0.0005508720304045741 
0.0005516896617135648 
0.0005548118386844815 
0.000550128454113696 
0.0005499668540199727 
0.0005542162260286064 
0.0005502239628828099 
0.0005528023380650756 
0.0005532754115078991 
0.000554241926217019 
0.0005480108889759018 
0.000550275099082534 
0.0005570962366441434 
0.0005512954480466544 
0.0005467299765678157 
0.000556545568649802 
0.0005475594457622061 
0.0005542557420895428 
0.0005475003242284276 
0.0005566859761341391 
0.0005443476799109408 
0.0005468219141428615 
0.0005503163598396948 
0.0005428684015153889 
0.0005458209101437409 
0.0005402015454326857 
0.0005463418474207581 
0.0005496126466029606 
0.0005448674877170847 
0.000543704930594551 
0.0005472371548479166 
0.0005527361435426733 
0.0005497804967160176 
0.0005487347479981091 
0.00054591995484935 
0.0005555087311527988 
0.0005469730362593859 
0.0005573428105134448 
0.0005453075410726743 
0.0005511686703699293 
0.0005478634674166125 
0.0005558321239898807 
0.0005453801541475519 
0.000548413570367499 
0.0005493654031583572 
0.0005490403494537837 
0.0005443514071709664 
0.0005552296467141762 
0.000548203493270537 
0.0005526197618517775 
0.0005504482878500118 
0.0005531982737851461 
0.0005455622256954081 
0.0005572485847468532 
0.0005397092792337067 
0.0005610333436536964 
0.0005468857320578981 
0.0005612127090732936 
0.0005537547977036667 
0.0005606997644071871 
0.000544837677408128 
0.0005540207633151019 
0.000542718041329916 
0.0005573852361014529 
0.0005432256612887551 
0.0005557096268357398 
0.0005513846616743684 
0.00055472058792078 
0.0005511128872728149 
0.0005504023822779792 
0.0005511624027623402 
0.0005506302744612884 
0.000557792273892403 
0.0005497725206101752 
0.0005606377543469942 
0.0005448976738514556 
0.00056085703210967 
0.0005438487545477742 
0.0005602389471206382 
0.0005470355714180322 
0.000555216163792083 
0.0005446918061214177 
0.0005539197266965378 
0.0005472822245370841 
0.0005477274342312914 
0.0005548175869056044 
0.0005466071184881927 
0.0005516475744742405 
0.0005354275896574096 
0.0005504661083154564 
0.0005363949348309193 
0.0005454955366649046 
0.000537044503368489 
0.0005469255466124585 
0.0005385712316926339 
0.0005477420413912317 
0.0005463004893474389 
0.0005438712384258373 
0.0005452118397848465 
0.0005419965044769159 
0.0005403427330943578 
0.0005439731523331865 
0.0005468761777647409 
0.000548733663894987 
0.0005394653545077259 
0.000552560806634509 
0.0005504673350522497 
0.0005446651555500877 
0.0005501639636634458 
0.0005454087614046531 
0.000541807200959146 
0.0005568054311008536 
0.0005459680782788165 
0.0005509267341829904 
0.0005492537974710318 
0.0005464176327651465 
0.0005447279602428054 
0.0005575879670975789 
0.0005489444627233761 
0.0005482752805672386 
0.0005438150364075698 
0.0005525722045105976 
0.0005509739758132866 
0.0005511126630543302 
0.0005574423390001152 
0.0005514986735012966 
0.0005600621291215452 
0.0005573562846238716 
0.0005566834513043581 
0.0005699794891168146 
0.0005418431897234791 
0.0005565133732031446 
0.0005510358024482887 
0.0005570127357078128 
0.0005461830910723391 
0.0005475981005000544 
0.0005470081092816032 
0.0005474010633183901 
0.0005437341438279892 
0.0005476140131314573 
0.0005453515973275126 
0.0005447470595559763 
0.0005417323946947739 
0.0005494566378986961 
0.0005478189305339002 
0.0005449228529041007 
0.0005558161101254948 
0.0005418297943243661 
0.0005408940715973682 
0.0005438961232346213 
0.000548633884447249 
0.0005359311104932363 
0.0005453500721325056 
0.0005370642340473215 
0.0005382163965320495 
0.0005328677696504898 
0.0005459207529283039 
0.0005317057119864773 
0.0005415924346593657 
0.0005340434345405781 
0.0005417321257691199 
0.0005316195003985104 
0.0005441587200886669 
0.0005341772148021336 
0.0005497272709148441 
0.0005401942401508328 
0.0005534995824105221 
0.0005446676341124822 
0.0005513985875733112 
0.0005347173496043319 
0.000554197100091953 
0.000547434004935845 
0.0005524374260377334 
0.0005423299580966665 
0.0005454576295480477 
0.0005439215434571555 
0.0005536029584235696 
0.0005435540392500401 
0.0005554239511126537 
0.0005444802461876857 
0.0005429002727403669 
0.0005448136819292717 
0.0005485998670734321 
0.0005530908377252378 
0.0005451573568305229 
0.0005399374524074172 
0.0005565910200633791 
0.0005357921550900281 
0.0005480134073723012 
0.0005370821803997913 
0.0005507118649110791 
0.0005352844847528318 
0.0005490465768500211 
0.0005404078897941068 
0.0005475562455544981 
0.0005427871497134494 
0.0005541048944201967 
0.0005466432716410249 
0.0005460507931505145 
0.0005451549245524498 
0.0005525309257671099 
0.0005398562455322941 
0.0005467651273911299 
0.0005444731404768247 
0.0005493308300411149 
0.000537892951245801 
0.0005405453604165981 
0.0005393549934450721 
0.0005485041716925914 
0.000529958834065199 
0.0005402968648885092 
0.0005323662553538943 
0.0005452286638702594 
0.000529710331315953 
0.0005449863040607341 
0.0005371774225639043 
0.0005503117093514868 
0.0005394524785951943 
0.0005458205788679153 
0.0005397782047361257 
0.0005414975501009345 
0.0005390328056032089 
0.0005462353979264579 
0.0005409731761084953 
0.0005388041220782643 
0.0005463019700760824 
0.0005345833280286221 
0.0005441023041659972 
0.0005360547072360735 
0.0005414346319710106 
0.0005418744041046025 
0.0005453705332422789 
0.0005425815131537806 
0.0005452590850963942 
0.0005382116758190457 
0.0005454393193185367 
0.0005442979651169914 
0.0005372537023398767 
0.0005404497670731641 
0.0005362659726533116 
0.0005405959265149502 
0.0005282954572809074 
0.0005325121360186293 
0.0005330089521031693 
0.0005383651999374016 
0.0005321085484857124 
0.000539905042032445 
0.0005343355241591201 
0.0005321631289366595 
0.0005385938333770028 
0.0005399737791197458 
0.0005309038097087038 
0.0005447330059607467 
0.0005328488256261522 
0.0005379339301991701 
0.0005437248032609943 
0.0005310739200868775 
0.0005360071026661829 
0.0005343118565319725 
0.0005363943737187748 
0.0005390060057339294 
0.0005370238108920278 
0.0005436323403709416 
0.0005374343597162049 
0.0005396508495480634 
0.0005386441396351307 
0.0005378979396637207 
0.0005465747094741357 
0.0005415726711140167 
0.0005465593748714715 
0.0005520414986151886 
0.0005376888660478246 
0.0005463807095537687 
0.0005460986630690108 
0.0005472395048255076 
0.0005385390712242746 
0.0005431148597856103 
0.0005436394109682368 
0.0005488554829247029 
0.00053390697191691 
0.0005496790104797771 
0.000534636883697559 
0.0005428477652844677 
0.0005433980063382108 
0.0005436393980112022 
0.0005403127218297316 
0.0005454173665208795 
0.0005457121468464867 
0.0005374489207328551 
0.0005481157216794851 
0.000543680350258745 
0.0005605899241436165 
0.0005489469212022638 
0.0005598543446142499 
0.0005435675900333362 
0.0005541497332705313 
0.000545309289444966 
0.0005569131740356619 
0.0005447640443377431 
0.0005529408103613115 
0.0005353611050329184 
0.0005518378553502724 
0.0005356065564960077 
0.0005549149622913678 
0.0005343822963901916 
0.0005492199342897846 
0.0005325145289482926 
0.0005486574693916302 
0.0005496055306814407 
0.000544806027060237 
0.0005496233141487353 
0.0005524313714917416 
0.0005516249969678817 
0.0005566035418259872 
0.0005538380039914688 
0.0005530289757213545 
0.0005594726464697518 
0.0005522388221376245 
0.0005525152433513641 
0.0005498573171244788 
0.0005505220368921317 
0.0005480982043841737 
0.0005422373056010227 
0.0005409206132821882 
0.0005527599767622553 
0.0005484386684793689 
0.0005505713356030581 
0.000547878914136458 
0.0005445608399432494 
0.0005413549936757194 
0.0005506397318573502 
0.0005447444910247806 
0.0005535230914063365 
0.0005382857835495495 
0.0005582699226801676 
0.0005416725309383063 
0.0005472060127803945 
0.0005420441061739435 
0.000546507403060825 
0.0005495589429175961 
0.0005405453814241995 
0.0005544261676512362 
0.000541915797464339 
0.0005448129758765908 
0.0005349933394781746 
0.0005476375259226227 
0.0005361215360273903 
0.0005486128648109689 
0.0005359189348315421 
0.0005423307469227341 
0.0005323715364764396 
0.0005460183264377411 
0.0005372871356023299 
0.0005456342009295569 
0.0005352455397977755 
0.0005432732275169619 
0.0005414641945381071 
0.000542746105984836 
0.0005437916738384948 
0.0005350217787900337 
0.0005485961055741074 
0.0005374394793598109 
0.0005535614528395394 
0.0005356398105821323 
0.0005487637241101239 
0.0005379970179200497 
0.0005416855571543784 
0.0005507790265826867 
0.0005440072848581765 
0.0005482826570972127 
0.000541894548103243 
0.0005455151552040689 
0.0005357634993879011 
0.0005453326059149825 
0.0005348373117497351 
0.0005519054797647253 
0.0005309211215697267 
0.0005405449422698061 
0.0005351443181032009 
0.0005304945047102281 
0.0005414708895120636 
0.0005402634296969868 
0.0005446242445283591 
0.0005411451249401768 
0.0005543938977443315 
0.000543598924269898 
0.0005544053660349436 
0.0005415979287773928 
0.0005516420867621124 
0.0005514009176106002 
0.0005499333055460951 
0.0005522627532422325 
0.0005551001868505456 
0.000548819837028109 
0.0005493549495331243 
0.0005493866091658885 
0.0005438607444623132 
0.0005517600397649776 
0.0005451616476294977 
0.0005504622888413374 
0.0005520751678033014 
0.0005581786469128644 
0.0005522984787106733 
0.0005464203649247892 
0.0005440081281575611 
0.0005524383347799405 
0.0005462307341018417 
0.0005477365588112728 
0.0005467394891231849 
0.0005470274421273581 
0.0005414064245619841 
0.0005517057158679733 
0.0005379175705917682 
0.0005450656254921279 
0.0005390313875989222 
0.0005522871066981702 
0.0005329608732126014 
0.0005554373928343683 
0.0005361930091664557 
0.0005569261398712773 
0.0005384709190283095 
0.0005590408665310246 
0.0005423142830732226 
0.0005487815644172318 
0.000536319176587779 
0.0005478328006592758 
0.0005448689274030955 
0.0005515940937640522 
0.0005461184113627146 
0.0005476256286094794 
0.0005469501116603277 
0.0005488021915382914 
0.0005475253480688586 
0.0005491375647756996 
0.0005489889485926868 
0.0005505328751580771 
0.0005485727995568742 
0.0005539948187820212 
0.0005383412825623334 
0.0005519963691371127 
0.000533733000064253 
0.0005576435406210335 
0.0005332156899816093 
0.0005573115863557847 
0.0005392388867267077 
0.0005562653258920537 
0.0005349423420801827 
0.0005537874905353965 
0.0005333217042521946 
0.0005532166956781385 
0.0005358233493301418 
0.0005377953515432551 
0.0005349627461990361 
0.0005503204712208538 
0.0005403544244470667 
0.0005526577881946195 
0.0005345906296243729 
0.0005503915240367028 
0.0005326537350020368 
0.0005553656845535705 
0.0005386455695668595 
0.0005525712073203249 
0.0005419839731079432 
0.0005491214048378649 
0.0005370896584418134 
0.0005488354816130291 
0.000533790940324724 
0.0005499278705208203 
0.0005320571808047421 
0.0005417281397530043 
0.0005268260780225555 
0.0005420018664845608 
0.0005327898701696185 
0.0005425933140592572 
0.0005418041232772643 
0.0005460032464385123 
0.0005442703079744985 
0.0005464179299681561 
0.0005340301374736618 
0.0005418646762288603 
0.0005435060494821528 
0.0005496199821682659 
0.0005509833009107538 
0.0005428188675049951 
0.0005468898862144282 
0.0005454109826031219 
0.0005490961326931429 
0.0005393567051476662 
0.0005419422772821228 
0.0005422244248004474 
0.0005525142420430092 
0.0005450558681026835 
0.0005402358540906641 
0.0005426360905509309 
0.0005524127536398725 
0.0005352285159993587 
0.0005573691758253396 
0.0005379410402248121 
0.0005435840355493049 
0.0005412021022252154 
0.0005447221079401994 
0.0005364531109978482 
0.0005421137981724323 
0.0005405507940597004 
0.0005383674546270287 
0.0005449055595364266 
0.0005445094349998178 
0.0005444292648273076 
0.0005454740443939178 
0.000545256170092514 
0.0005409381318328393 
0.0005446136571039208 
0.0005388792825999075 
0.0005510600327875951 
0.0005425282458854048 
0.0005454180209131936 
0.0005441539287898011 
0.0005414905491103083 
0.0005414280175910811 
0.0005459063000762484 
0.0005437554969683519 
0.0005445979790290793 
0.0005467588980996138 
0.0005392148511998418 
0.0005400118027326881 
0.0005420798068972824 
0.000543966306602042 
0.0005389482014540547 
0.000550017512096466 
0.000540040242994098 
0.0005523276162489619 
0.0005401645096410494 
0.0005498605822495103 
0.0005456918323410105 
0.0005479904078667483 
0.0005345141539240621 
0.0005476735904464962 
0.000533092607323439 
0.0005478328993452807 
0.0005417148482891604 
0.0005468526810492885 
0.0005389057912357988 
0.0005362089005128525 
0.0005330180531593179 
0.0005345522471876497 
0.0005387730979080228 
0.0005421178080507467 
0.0005341547577286573 
0.0005436933978751513 
0.0005276889189023797 
0.0005424118836659371 
0.0005326354455434298 
0.000544436357634165 
0.0005404770913217843 
0.0005508434216847752 
0.0005433113972833349 
0.0005448428865242111 
0.0005384167214404083 
0.0005502662946264556 
0.0005397678694812301 
0.0005489344998537135 
0.0005384757205277089 
0.0005522829761304501 
0.0005364841116929066 
0.0005500054867214226 
0.0005375271346588835 
0.0005528364110682511 
0.0005467683516370926 
0.0005532789657155947 
0.0005390041182006408 
0.0005595018253889965 
0.0005407626904959192 
0.0005606406698863563 
0.000541940233477127 
0.0005592149816805216 
0.0005317610258026027 
0.0005587972240143801 
0.0005254094638831368 
0.0005543687829290728 
0.0005325721693914232 
0.0005448619280132988 
0.0005344098773116149 
0.0005515917467449771 
0.0005407478065144096 
0.0005559274795545479 
0.0005401770117218495 
0.0005541628107632587 
0.0005430321171859492 
0.0005517923155840567 
0.0005443963591022406 
0.0005457203879369061 
0.0005465200129631164 
0.0005492117180080825 
0.0005462618105610614 
0.0005465301627236321 
0.0005477536904664443 
0.0005492808957575934 
0.000546638043198732 
0.0005515573384873172 
0.0005461387171013821 
0.0005489263366079886 
0.0005506141871355574 
0.0005554018387649755 
0.0005475460308996559 
0.0005534926187720324 
0.0005572178954414462 
0.0005502702272546917 
0.0005462264410331418 
0.0005627674688326324 
0.0005548507483857504 
0.0005568171952343615 
0.0005491044751137813 
0.0005582803146926949 
0.0005480637575547494 
0.0005591670430103616 
0.0005536594991814951 
0.000556166278235087 
0.0005551660974373223 
0.0005503726871740251 
0.000552210607629416 
0.0005516548865985015 
0.0005547429607930572 
0.0005549746014868742 
0.0005513903011169005 
0.0005549702378798377 
0.000553275628348697 
0.0005468590269337948 
0.0005339793895858221 
0.0005579340870934521 
0.0005349283333601268 
0.0005473140773441959 
0.0005482463361566567 
0.0005395991871462643 
0.000540594942510404 
0.0005467221767082185 
0.0005405735704526292 
0.0005495161439078453 
0.000534039387158247 
0.0005490343884018212 
0.0005447432724963864 
0.0005449688754284171 
0.000551842501307112 
0.0005412262465671908 
0.0005462275968770156 
0.00054548007727122 
0.0005520103312707986 
0.0005394185725764264 
0.0005493816610525183 
0.0005481805739338657 
0.0005571218048933126 
0.0005477739606623591 
0.0005507397202895732 
0.0005544815626699149 
0.0005387501911757585 
0.0005565603588140168 
0.0005428942016421118 
0.0005550050861125154 
0.0005519842342663062 
0.0005531367511303588 
0.0005521060843326818 
0.0005508654279055126 
0.000556261906856958 
0.000545962614628866 
0.0005512605214585723 
0.0005592826069645648 
0.0005503472742143338 
0.0005577957867942945 
0.0005496847877998899 
0.0005495530722073173 
0.0005501413570298657 
0.0005648506091469179 
0.0005555337550702793 
0.0005611523629721143 
0.0005459313195046538 
0.0005668748114645956 
0.0005449107465074849 
0.0005695028261871973 
0.0005591313226703639 
0.0005619206688906849 
0.0005655003168254693 
0.0005644006877518015 
0.0005564570496825986 
0.000562636317620292 
0.0005590973624775177 
0.0005651276113585556 
0.0005611329601859936 
0.0005599945224522266 
0.0005577544117656864 
0.0005553694949119514 
0.0005595906794241731 
0.0005563599692716048 
0.0005529307548617132 
0.0005565205768561549 
0.0005575214633268308 
0.0005531404867087656 
0.0005490187468284629 
0.0005532421994379274 
0.0005468979585172828 
0.0005568869038673109 
0.0005476307820588769 
0.0005524711280925123 
0.0005440091322460676 
0.0005476742947147284 
0.0005437989875553265 
0.0005495411963028269 
0.0005404985556740257 
0.0005494046727217358 
0.0005293905906671 
0.0005472435230989899 
0.0005366632182931003 
0.0005361988706547102 
0.0005384095471254329 
0.0005381541343774435 
0.0005454256716939333 
0.0005432629232275014 
0.0005463112557098492 
0.0005500560915867225 
0.0005485043258596383 
0.0005535387488642753 
0.0005545890989671075 
0.0005502889595701366 
0.0005493082633125352 
0.000548086912984619 
0.0005526662628081651 
0.0005448908275410919 
0.0005501673723263112 
0.000549916944221918 
0.0005433166606196835 
0.0005437216602634473 
0.0005416620076720945 
0.0005429821703168285 
0.0005392782665232878 
0.0005412727822201865 
0.000550670253146853 
0.0005448732848958185 
0.0005454158027185802 
0.0005377850876610252 
0.0005477934502005594 
0.0005422660132505924 
0.0005455076377385706 
0.0005394297741421723 
0.0005496273852628503 
0.0005418098844367405 
0.0005562729304547202 
0.0005521054557189178 
0.0005463324479066222 
0.0005467283373892581 
0.0005477195444934638 
0.0005427771086807347 
0.0005575602143063927 
0.0005533252879969504 
0.0005578368153744001 
0.0005521597885216229 
0.0005527386572807839 
0.0005485320726345794 
0.0005541050302842422 
0.0005507377237640144 
0.0005545207916256524 
0.0005488519736027741 
0.0005569312376065623 
0.0005512722598210097 
0.0005544921898816829 
0.0005478366929310413 
0.0005497971929166979 
0.0005453215816959503 
0.0005539282589806701 
0.000549594193906364 
0.0005592052242443151 
0.000543485043106438 
0.0005577818220659278 
0.0005399802546147925 
0.0005560099818103177 
0.0005320700761125048 
0.0005537128173204451 
0.0005349643233034809 
0.000551679739481442 
0.0005396140500974407 
0.0005528130832236834 
0.0005449978248220391 
0.0005576098397892325 
0.0005442950546843266 
0.0005566819722427959 
0.0005463672759846367 
0.0005521574371854138 
0.0005471621249859845 
0.0005560884498365808 
0.0005382443813880762 
0.0005581525510621877 
0.0005499454004175257 
0.0005507530875986714 
0.0005434050482247918 
0.0005507028790393474 
0.0005450301279640835 
0.0005546431985129381 
0.0005467982470509872 
0.0005508839295525607 
0.0005482596709740626 
0.0005542628769693094 
0.0005402685108380369 
0.0005462273144096955 
0.0005482790094386796 
0.0005483152746061549 
0.0005489027685862732 
0.0005544553969011511 
0.0005533925777719504 
0.0005534095565030358 
0.0005519900074091136 
0.0005524696663520539 
0.0005510236785506052 
0.0005496981792861961 
0.0005487789428056305 
0.0005533990921707725 
0.0005581761478698439 
0.000562267209698007 
0.0005445674762868343 
0.0005617949071487885 
0.0005451303444313493 
0.0005582446084489285 
0.0005407312329448996 
0.0005585327820791607 
0.0005483664806398866 
0.0005523764839631401 
0.0005496626621242156 
0.0005534316172060449 
0.0005515177854055658 
0.0005497380170381812 
0.0005525994140687135 
0.0005551612506131045 
0.0005471101384446182 
0.0005593223750111038 
0.0005440152369798291 
0.0005618129012381071 
0.0005477555810957375 
0.0005538695572274087 
0.0005427401351955768 
0.0005626277455303703 
0.000535463133460527 
0.0005571812054180599 
0.0005413395157636119 
0.0005574293883363397 
0.000543039327353873 
0.0005561899608265523 
0.0005410029652588456 
0.0005476539330771727 
0.0005443142004743223 
0.00054947629420719 
0.0005427146369852383 
0.0005503001243433424 
0.0005472474270006989 
0.0005446546539263058 
0.0005448448033444525 
0.0005447344075387194 
0.0005427654304192244 
0.0005498470011397433 
0.000536385969705012 
0.0005489522519085097 
0.0005339230038971949 
0.0005416599970280373 
0.0005369163646021125 
0.0005432158005692695 
0.000535993126831612 
0.0005472197443537274 
0.0005332918170106011 
0.0005426341956294831 
0.0005371006940441367 
0.0005468364734603812 
0.0005375799349920559 
0.0005500223372426866 
0.0005394922640643688 
0.0005601556375702979 
0.0005448934174121048 
0.0005607121365924799 
0.000541744934934423 
0.0005540538739017456 
0.0005409644811239545 
0.0005478615064285193 
0.0005404557408523559 
0.0005465841023222982 
0.0005384106989258204 
0.0005457526152899057 
0.0005365842012847465 
0.0005485793156569805 
0.0005418299269439954 
0.0005473923460841003 
0.0005462106310326672 
0.0005353637427925602 
0.0005506423418661281 
0.0005373583528263135 
0.0005496611485534987 
0.0005380053522718732 
0.0005470226501780537 
0.0005433768709367953 
0.0005473775839176283 
0.0005439687350249679 
0.0005560439663451595 
0.000537107876754396 
0.0005594446326167866 
0.0005373180918765521 
0.0005583603790845238 
0.0005332971353410024 
0.0005590251088423204 
0.0005353259483895932 
0.0005502887842533323 
0.0005459610871088219 
0.0005553590033567171 
0.0005470822447843417 
0.0005520001531332595 
0.0005376828215189286 
0.0005555121407277441 
0.0005384747144144895 
0.0005551139545561933 
0.0005429226715819859 
0.000557147933658484 
0.0005404089231516941 
0.0005538633698575871 
0.0005464124022699248 
0.0005567966437820473 
0.0005469008969768931 
0.0005533480205493507 
0.000546791440539428 
0.0005511229494615144 
0.0005512734214584711 
0.000549405358516756 
0.0005522104077702408 
0.0005459059333308317 
0.0005513707736887502 
0.0005461827531933208 
0.0005545247025584259 
0.0005428380014176937 
0.0005513965804320424 
0.0005500416992187831 
0.0005566140016219045 
0.0005501654835461206 
0.0005532221388603434 
