solver_type L2R_L2LOSS_SVR
nr_class 2
nr_feature 1984
bias -1
w
8.473320210554375e-07 
0.004557904567909467 
0.004882117913776513 
0.004986641883773365 
0.004887856860518051 
0.004953591133967223 
0.004876680725141034 
0.00495705723815268 
0.004876939118485377 
0.004876833706303907 
0.00479506029683139 
0.004937225515850957 
0.004760859864176101 
0.004871051140469184 
0.004752069438997872 
0.004851300273326653 
0.004780727264737603 
0.004919812073919679 
0.004765066241011162 
0.004872842332307357 
0.004802124823530192 
0.00486473891491478 
0.00469129771349262 
0.004814971331260423 
0.004806265044018506 
0.004816361278879834 
0.004815616355300489 
0.004849913982851211 
0.004745639116490237 
0.004866430512326259 
0.00475051331585305 
0.004962211806867826 
0.00477783273782967 
0.004964873669171927 
0.004845569623743865 
0.004975963169196972 
0.004797486294617201 
0.004947128336833363 
0.004801828600030263 
0.005003607035794652 
0.004703287420642379 
0.004932914291599063 
0.00472241668526909 
0.004923180249750774 
0.004716377639751241 
0.004860916197637163 
0.004752196277880239 
0.004867943963678387 
0.004839083256488639 
0.004873244226386935 
0.004818697908907202 
0.004821273144242209 
0.004916790455319002 
0.004758444813838959 
0.0049134484876557 
0.004801526810529408 
0.004877810425053736 
0.004804972400134004 
0.004821577791647424 
0.004871314031497508 
0.004833884760039022 
0.004921733208812922 
0.004879298045685255 
0.004904365763741504 
0.004945653212780631 
0.004996830933231879 
0.004867542357005913 
0.005001451075298601 
0.004840796231561352 
0.005042714934675376 
0.004924249511019808 
0.005005479873513674 
0.00491821465309502 
0.004916167555489057 
0.005007012288711581 
0.004966338779446408 
0.005016753323840467 
0.0050077684467335 
0.004940247018361685 
0.005072120512280471 
0.004906422885654412 
0.00509923451473274 
0.004824757159947861 
0.005039798226610596 
0.004895366769174197 
0.005008121904708264 
0.004852015528473938 
0.005080773580818534 
0.004924618169165677 
0.004938842460545586 
0.004938830558789107 
0.004938680122000817 
0.00491074297603385 
0.004901944583970077 
0.004816228093600578 
0.005001714979863282 
0.004862658957461398 
0.00506420537724943 
0.004942509746325596 
0.005056151859909924 
0.004855220483507736 
0.005088638669861808 
0.004803399099243456 
0.005007015240816295 
0.004856268501312174 
0.004942319993278333 
0.004867410160703159 
0.004871701842584559 
0.004799631914465243 
0.00498663938869328 
0.004782142947530084 
0.004982745917642268 
0.004817328421790302 
0.004950302205082073 
0.004806134406329416 
0.005001699921477635 
0.004824219585528186 
0.004942263128290078 
0.004782420618652957 
0.004938262485459434 
0.004708465127925541 
0.004956080650633555 
0.00473842714597363 
0.004978646708782229 
0.004724120314381455 
0.005003920119828034 
0.004784468568945243 
0.004912348835945548 
0.00487113763101876 
0.004826007174092987 
0.004853736513358891 
0.004836047528160269 
0.004835729669838536 
0.004875900434673864 
0.004787703877189503 
0.004864690751812407 
0.00473020049013845 
0.004874262816140665 
0.004762600308087946 
0.004894279731749347 
0.004798941676338877 
0.004891344752525133 
0.004755053183842292 
0.004892972616233289 
0.004854883589954474 
0.004871763064068496 
0.00483065443580994 
0.004996716407294162 
0.004797125814732999 
0.004927034826649038 
0.00489953727725386 
0.00492819380203224 
0.004894313272762942 
0.004860400254797794 
0.004927481191946199 
0.004935694283906204 
0.004909559866854943 
0.004884612606135074 
0.004909724975875793 
0.004835586778280202 
0.00482455342183073 
0.004783812145276079 
0.004816142360355155 
0.00479211679660687 
0.00488970257350159 
0.00481700445575581 
0.004863599695247297 
0.004750617626796128 
0.004886292796039796 
0.004831733772552567 
0.00492296875017004 
0.004738220048190037 
0.005001849023866039 
0.004782601193082897 
0.004966245151154233 
0.004795583359289449 
0.004892345363116872 
0.004735319970717715 
0.004979093227715363 
0.004800980932224328 
0.005012270625782156 
0.00479405710843293 
0.005012008091024077 
0.004839006993418194 
0.004904088339457171 
0.004862856938591467 
0.004827663429393137 
0.004851150732652416 
0.004848968004204355 
0.004861136267959306 
0.004942490706780693 
0.00480318588566972 
0.004936668006587227 
0.004900377299874403 
0.004918011589210939 
0.004881056259079427 
0.004907872781889914 
0.004904443281694574 
0.004924518751779278 
0.004755318145795932 
0.004903689932279793 
0.004783825959659025 
0.004974336471825522 
0.004769054838454613 
0.004866354432291028 
0.004735803358037527 
0.004896528362516393 
0.004679411147787942 
0.004802261878886465 
0.004769932679879162 
0.004853133685935543 
0.004752651798152293 
0.00476766659898107 
0.00478784764248976 
0.004829756216355492 
0.004722480663870812 
0.004907948739135716 
0.00471848845450779 
0.004858157518647741 
0.004650150549248232 
0.004816560582658602 
0.004690522705952217 
0.004794357939561288 
0.004732358715155098 
0.004927525126087478 
0.004750996112669207 
0.004905970809677399 
0.004652674214790211 
0.004839865295852059 
0.004774455202298347 
0.004824680485747722 
0.004677628609214854 
0.004729328160491842 
0.004741877831701125 
0.004740485869059563 
0.004717124159063807 
0.004743277487230851 
0.004729885350077123 
0.004786169822393496 
0.004729282419262486 
0.004751752033202323 
0.004707679257558185 
0.004819795740487081 
0.004712108339063379 
0.004846868473102385 
0.004734332584085281 
0.004766355211790476 
0.004771110587639221 
0.004837077732780374 
0.004751627621740155 
0.004864993806447269 
0.004807657334163658 
0.004899035960829767 
0.004743136687239609 
0.004933448078250311 
0.004708774695880307 
0.004940883497420018 
0.004675731284619923 
0.004993561311098924 
0.004621908729045287 
0.004960222124132129 
0.004657386227253893 
0.004970602435171124 
0.004647432302052942 
0.004962844703121485 
0.00464528260011833 
0.004978817670554508 
0.004637680394071041 
0.004948213349513337 
0.004666554576095199 
0.004880224174836477 
0.004684131561849187 
0.004889625439787945 
0.004687889274516035 
0.004910156676751553 
0.004661856553089759 
0.004824891988265473 
0.004735720700123318 
0.004841730994426008 
0.004702909303760173 
0.004875758526330955 
0.004701757714602082 
0.004880923329352635 
0.00480069253359627 
0.004895181388684526 
0.004794391290230742 
0.004849950666257478 
0.004784586569218838 
0.004862481152542427 
0.004807183245024386 
0.004878777010812236 
0.004858337650922296 
0.004851112876298829 
0.004817777186206101 
0.004801454214483761 
0.004790369007049698 
0.004787252718097983 
0.004847407366411901 
0.004763870771692839 
0.004828045362708452 
0.004771681143112021 
0.004836303100573668 
0.004766505106409568 
0.00486834758382758 
0.004782778335421763 
0.00482461747297044 
0.004810206010783014 
0.004875599597951497 
0.004776578369224541 
0.004871179709095279 
0.004837449093157468 
0.004936120865278809 
0.004823579875309341 
0.004877306395019523 
0.004894693112891683 
0.004858525000911574 
0.004826801085105196 
0.004863903757204296 
0.004860977421630913 
0.004802577898278685 
0.004847779834538748 
0.004868771370173081 
0.004806483189399817 
0.004746224322426333 
0.004902327447743719 
0.004715023905022467 
0.004962216175683905 
0.004705646436798033 
0.004825477505554715 
0.004709487103791274 
0.004870170925638234 
0.004768351194444187 
0.004825859404417691 
0.004807042277490212 
0.004802684108547913 
0.004786901785769706 
0.004774390781767131 
0.004892739013407565 
0.004788287693659458 
0.004779474559644081 
0.004913449358537375 
0.004772218366199752 
0.004890414457422772 
0.004768243930067684 
0.004861093133168988 
0.004702447764163891 
0.00484812165904817 
0.004660857399174218 
0.004920119181636062 
0.004666095147842614 
0.004808393990246379 
0.004727000807838258 
0.004932920506465561 
0.004749215062383971 
0.004968724477907341 
0.004645520359284241 
0.004931558122565978 
0.004690823052728109 
0.004909328197878674 
0.004733763153481244 
0.004963754192580871 
0.004710642180344648 
0.005006074603545927 
0.00472473355873577 
0.004983988253333354 
0.004763559551369137 
0.005015042426312909 
0.004802868471622382 
0.004980130586655791 
0.00477048392225332 
0.004994946772474891 
0.00473897693615296 
0.004939820599731524 
0.004715225480693464 
0.004978158593686027 
0.004753633385326189 
0.004909880537140847 
0.004723160957227551 
0.004895319272312086 
0.004820488461715743 
0.004888260994288914 
0.004797968875811665 
0.004972469845310046 
0.00480315658435988 
0.004922479403053781 
0.004786067946958236 
0.005008509634125171 
0.004720683397476874 
0.005028556266941001 
0.004672238647154548 
0.005014934504569308 
0.004740663392148145 
0.005041637239099404 
0.004782855665055894 
0.005053237401541557 
0.004780173333242809 
0.004978496992113043 
0.004851695902519122 
0.004967664380557653 
0.004704688264345828 
0.00499429544877877 
0.004728406698152045 
0.004900846223116354 
0.004690507847267793 
0.004939148574348611 
0.004644092849660437 
0.00488924171613851 
0.004675172742395074 
0.004860432694653288 
0.004709691085526316 
0.00494352366601589 
0.004782409342575848 
0.004834168217832013 
0.004842886716446806 
0.004860597345482995 
0.00484452924566318 
0.004887674658046878 
0.004882946483246001 
0.004852882509604988 
0.004844918686675392 
0.004856214407661346 
0.004882719327227331 
0.00490689214290145 
0.004846225309498551 
0.004806110615633271 
0.004792808450584113 
0.004864798584018991 
0.004809889659470093 
0.004931503936874473 
0.0048399605692363 
0.004966436725708901 
0.004762005360768051 
0.004930963198652925 
0.004758026985320469 
0.004978223519215769 
0.004803211747486559 
0.004869067700384292 
0.004777794156853476 
0.004890842822732343 
0.004691556638066641 
0.004939484763112287 
0.004772420407812857 
0.004825607629102132 
0.00480649869282854 
0.004860515533141435 
0.004814472055143533 
0.00486459527531425 
0.0048014505361286 
0.004932975060190511 
0.004817315125434887 
0.004881159918268776 
0.004814553080467352 
0.004960379690165254 
0.004837278573250273 
0.004901536141473153 
0.004701474395720027 
0.004978408828070959 
0.004654168893196305 
0.005010894595337343 
0.004639656355177023 
0.004995758580421189 
0.004714445299455586 
0.00498669148625732 
0.004762629364525491 
0.004888137897014548 
0.004711653892678361 
0.004938591387277694 
0.004774277007270135 
0.004839468432873682 
0.004761244887538394 
0.004903756388997169 
0.004700541254147917 
0.004867581925773835 
0.004668133599648727 
0.004925263057150916 
0.004754334693331904 
0.004842167503638911 
0.004803693355927116 
0.004849733696022591 
0.004770091555548014 
0.004855750171381853 
0.004719305875735301 
0.004864589201727502 
0.004711574024608987 
0.004814364110546129 
0.004662162721623111 
0.004849312798716483 
0.004708033211637595 
0.004831669764961698 
0.004789945949788361 
0.00491973062105923 
0.004796283142955492 
0.004871202877036906 
0.004771514486989488 
0.004904857710642879 
0.00476918412858096 
0.004901820537627104 
0.004782954073104571 
0.004866236001436347 
0.004832158655109622 
0.00487252826536476 
0.004776636120046121 
0.004959178291175234 
0.004801392588931684 
0.005031731783208107 
0.004801910064285115 
0.004928868737123846 
0.004820551410007468 
0.004921000548340763 
0.004848624963246824 
0.004867443070637227 
0.004845115606901171 
0.004918126920809434 
0.004827028043749642 
0.004986927222996705 
0.004761964098953127 
0.004975738160119349 
0.00481116331007641 
0.004957067197491622 
0.004744766720227965 
0.004825312441004041 
0.004815019211324762 
0.004914465442191424 
0.004812911348959222 
0.004906726574188931 
0.004791526511190925 
0.004898957668314018 
0.004902219728057662 
0.00494994854838239 
0.004886422125440461 
0.0049084756161778 
0.004900856948406916 
0.004824903125013275 
0.004901809799651033 
0.004911618504837892 
0.004858721625239257 
0.004780927250355359 
0.0048012994870493 
0.004877570453746195 
0.004809946718003108 
0.004898922941364662 
0.004824267541657975 
0.004839225779548812 
0.00484739610270523 
0.0048894898302894 
0.004910882314840377 
0.004917474552132767 
0.004905206444866557 
0.004887221131805751 
0.004932319787843032 
0.004907116020548286 
0.004919413738453972 
0.004923101310917799 
0.004925300416716072 
0.004826578756959056 
0.004878019695725481 
0.004833019164949607 
0.004846567307904739 
0.004850652568501613 
0.004811060665756327 
0.004819440852032859 
0.004798896237442333 
0.004746270274498194 
0.004813237210188151 
0.004682089227286313 
0.004843824105105739 
0.004683891466152837 
0.004824730941738718 
0.004674556136313545 
0.004770430511072574 
0.004699060716523759 
0.004737345620514191 
0.004840552251388256 
0.004773085973874179 
0.004800398784719706 
0.004788275070771407 
0.004731249373004245 
0.004725892044656303 
0.004860732811680466 
0.004685567794647503 
0.004908162708156658 
0.004750884994830055 
0.004872970024126223 
0.004750577180183655 
0.004890661352781887 
0.004716495049855386 
0.004906854142096837 
0.004743172694780347 
0.004884238100995282 
0.004771945448229942 
0.004861338285569339 
0.004859087498336353 
0.00492496911226981 
0.004772858027618297 
0.004872165117439004 
0.004796882815403475 
0.004952484160667849 
0.004907690317449724 
0.004880070126243762 
0.00481251187740645 
0.004941794669432524 
0.004799520371176712 
0.004862188668625284 
0.004876035454819765 
0.004890399754468197 
0.004801277737819336 
0.004915420200221086 
0.004774566605704368 
0.004899824534787757 
0.004758117456533829 
0.005005782065175432 
0.004827560226042937 
0.004974883529990399 
0.004848159057410915 
0.0050525296007187 
0.004840776381132627 
0.005076922921980223 
0.004862053721085099 
0.00501863559798691 
0.004744187501051252 
0.004963137176922534 
0.004838359457463264 
0.004964407835000257 
0.004810966141979373 
0.004948860850337265 
0.004866191268100108 
0.004949376219294319 
0.004839398044353746 
0.004846425245037472 
0.004815917720115548 
0.004945429204068587 
0.0048576566446929 
0.004942245008993075 
0.004862649800540979 
0.004978380892283397 
0.004806576190742399 
0.004946317146445392 
0.004807289240596447 
0.004952403535649589 
0.004844023854750201 
0.005039249135249417 
0.004871879984118876 
0.005000744663939221 
0.004837509384788005 
0.005060391553190761 
0.004822146401049152 
0.005090126960380855 
0.004847086137831405 
0.005045008848265475 
0.00481747459578711 
0.00509109218500696 
0.004839194462119396 
0.005029781064235409 
0.004825043502071401 
0.00501198022773251 
0.004773545362964382 
0.005028243522663116 
0.004721159256156889 
0.004994771435978643 
0.004624547040235545 
0.005050881013366343 
0.0047093771881381 
0.005029542566088539 
0.00463559957513681 
0.005000316321862916 
0.004724271159707889 
0.005006913504130375 
0.004757700031486171 
0.004946396145488255 
0.004834168573003804 
0.004934300362909489 
0.004743554181243906 
0.004857051624296408 
0.004827149974139801 
0.004859799997371178 
0.004822670244863248 
0.004866073577693084 
0.004845108946927302 
0.004861620581673965 
0.004760848471288529 
0.004949184109594407 
0.004829407381949239 
0.004972966494636693 
0.004899272529904248 
0.004904520066847759 
0.004775639393553697 
0.004977327446439174 
0.004753202996298422 
0.00497245222912103 
0.004755031320609135 
0.004933415025692631 
0.004695053238823577 
0.005042842360308624 
0.004636343854760646 
0.004934632958416066 
0.004727817906444588 
0.004944156541678226 
0.004711204635429153 
0.005007620055995141 
0.00467807886056225 
0.005024597872148255 
0.0046793412742886 
0.005093998623638138 
0.004752405006008414 
0.005037963485265635 
0.004744483345983814 
0.005028426697420147 
0.004757313678271125 
0.005059705109418037 
0.004722457784875499 
0.00506606602923773 
0.004734297845135378 
0.005015881036689644 
0.004675025992071306 
0.004976969047360268 
0.004669755094805644 
0.00495425263246399 
0.004751302997407933 
0.004953921139726141 
0.004773552256723684 
0.004961666433619318 
0.00473619841667774 
0.004928699969505308 
0.004713727205059406 
0.005018822412777495 
0.004684149438386741 
0.004931483489594332 
0.004732090548342875 
0.004899004853415704 
0.004750418968956473 
0.004887241454672611 
0.004743855827798673 
0.004948445137709289 
0.004674270717652009 
0.004996386213097039 
0.004761059872317969 
0.004987133743703821 
0.004748206945150641 
0.005000642007642822 
0.004690802924391547 
0.004899555042476923 
0.004752161787132866 
0.004946213229026571 
0.004805359313153946 
0.004916792805133419 
0.004727671296431917 
0.004952004142626232 
0.004731065834558432 
0.004986891856659391 
0.004768928547950632 
0.004989226237373499 
0.004841340349259603 
0.00503355215592082 
0.00478512031948231 
0.004964898666899846 
0.004717480150035692 
0.004904804434031211 
0.004764094619385712 
0.00484891971855281 
0.004788524342453432 
0.004917805009755173 
0.004731279516356996 
0.004831412085197057 
0.004805058390554423 
0.004871373560041641 
0.004790598280857579 
0.004883590529776421 
0.004757353389956438 
0.00487238761757566 
0.004735068709392766 
0.004893875971556133 
0.004761199040627074 
0.00496211336186852 
0.004767740796960397 
0.004985787315070762 
0.004696915836636059 
0.004963246178456952 
0.004771461520063186 
0.004978519542263311 
0.004705584569406784 
0.005017956582945984 
0.00474038842099813 
0.00495113660721493 
0.004744472571009994 
0.004863302575581388 
0.004775508602561992 
0.004824482031490285 
0.00478027815283515 
0.004904531201256654 
0.004776201198385683 
0.005011931976722134 
0.004738432344070825 
0.004861607441253976 
0.004686341809511286 
0.004855121347672565 
0.004680022567741321 
0.004842241900373272 
0.004646611990806944 
0.0048725395053122 
0.004684502783202519 
0.004826480333447519 
0.004697701323984929 
0.004830642596058126 
0.004703915220489039 
0.004813456867343874 
0.004732414576384115 
0.004926909337382649 
0.004701064767135514 
0.004910026285852528 
0.004736896160673841 
0.004965017978082684 
0.004682748642835239 
0.004882916394490584 
0.004703751431192076 
0.004867880337450896 
0.004648210463293456 
0.004909039725859807 
0.004742170436905567 
0.004914613408874845 
0.004750979684795252 
0.004945988692816546 
0.004739423341074659 
0.004942005341115177 
0.004784165933385097 
0.004933938537870886 
0.00484810924500793 
0.004883132392160929 
0.004818901966318817 
0.004868294667698676 
0.004730086556606803 
0.004924957111244094 
0.004778775763520208 
0.004849761896983 
0.004792476711068494 
0.004837839067090175 
0.004847855004809999 
0.004878771467269641 
0.004802750848067688 
0.004867411820365242 
0.004790150683196919 
0.004859049907178088 
0.004908557208193067 
0.004854993450176065 
0.004875327070374269 
0.004849823215065299 
0.004863797331782156 
0.004874287913653858 
0.004881919262974176 
0.004784418381714718 
0.004841871907408705 
0.004834727242881839 
0.004930830077632759 
0.004893374560577314 
0.004857783131118201 
0.00490178183596479 
0.0048543126115393 
0.004926260463325621 
0.004840671027743545 
0.004904394767050199 
0.00485168881201834 
0.004897983723910602 
0.004983708523707934 
0.004893253161058281 
0.004963857987198129 
0.004880758940354869 
0.004928641603266989 
0.004929221606818005 
0.004914765681150681 
0.00495045417641979 
0.004971314781256497 
0.004911374266814086 
0.004851088483919538 
0.00496818255320994 
0.00485024296222764 
0.004961804716387963 
0.004784099061081667 
0.005054035939155259 
0.004807014232563761 
0.004981204874628312 
0.004885778824514493 
0.004967940521492933 
0.004875798021020073 
0.00484637483942932 
0.00491864180754689 
0.004901160701640221 
0.004832485544490036 
0.004959642979097147 
0.004851602252936831 
0.004851922298061369 
0.004896660705676133 
0.004912669478134253 
0.004947370350080946 
0.004838929978502883 
0.004904674259030712 
0.004868143729689993 
0.004878085774285545 
0.004839667195627601 
0.004920484820686654 
0.004802414482387089 
0.004921548741215046 
0.004823149726606518 
0.00492341268961645 
0.004854573314214558 
0.004824402235397911 
0.004906792202566727 
0.004790361403043366 
0.00492034305886324 
0.004749792517898251 
0.00491775490833507 
0.004793057897733486 
0.00487988658176669 
0.004791854255987414 
0.004881421477513459 
0.004741956726288485 
0.004758491047776235 
0.004845817743213017 
0.00481670402110146 
0.004772338905935924 
0.004814282617376767 
0.004719178874710976 
0.004840789547741856 
0.004779693199915936 
0.004823459961094137 
0.004741497987006108 
0.004849492871155069 
0.004723689989688298 
0.00492506045563465 
0.004819320634834338 
0.004888556450252404 
0.004733377172502606 
0.004877319530109061 
0.004818492089581468 
0.004820529344520128 
0.004786930982606256 
0.004829458486200076 
0.004817057302874439 
0.004828724793562076 
0.004756733654473804 
0.004928412901459642 
0.00476619102108345 
0.00486804995668446 
0.004727062453282014 
0.004871759674211033 
0.004757647449066701 
0.004835433724538664 
0.00482724368073514 
0.00483069699410041 
0.004806502994895481 
0.004898669919308215 
0.004783559663400314 
0.004866070778397432 
0.004801552054255056 
0.004839085264867935 
0.004672457821655127 
0.004980253249232175 
0.004750709515002929 
0.00495675977539063 
0.004823666439179663 
0.004889688869325794 
0.004839309482556008 
0.004966465114985833 
0.004895473516621632 
0.004844116944024184 
0.004925723727552801 
0.004867935403165374 
0.004880892759339183 
0.004806602830438537 
0.004918239354640697 
0.004834423058706996 
0.004908724197807923 
0.004867172350837935 
0.00489771572021131 
0.004844337379413137 
0.004807054484043356 
0.004962653695686096 
0.0047957161379651 
0.004877272535126527 
0.004754997810987222 
0.004914101932316329 
0.004847510486827101 
0.004931040924521681 
0.004771005391632593 
0.004965230077971497 
0.004839311105734025 
0.004919234231917247 
0.004902854976393662 
0.00499012250781389 
0.004977776422599891 
0.00492130100040983 
0.004860723283213046 
0.004871826863425774 
0.004879899768371221 
0.005020223549121415 
0.004847806271666423 
0.004942491067163741 
0.004960780589842737 
0.004935675318827583 
0.004980944594322714 
0.005021086951009342 
0.005013768505431304 
0.004934677010911048 
0.004949438725503679 
0.005006496159026038 
0.004950421676646818 
0.004953655060638065 
0.004980722050296985 
0.004929369362624933 
0.004900204652387724 
0.005012905903339977 
0.004851737560713232 
0.00502583134533063 
0.0048931919726237 
0.004981792203110697 
0.004830053106687738 
0.004990716762960825 
0.004837915031900825 
0.004931496186680822 
0.004860731765674515 
0.004996561349509239 
0.004740231997004459 
0.004988601606979524 
0.004762183731150759 
0.004887040761211037 
0.004824244327487894 
0.004990583348649493 
0.004856971986589358 
0.004938039538784796 
0.004862094940224752 
0.004991214369737981 
0.004813744451413829 
0.004958052496504711 
0.004783746748259541 
0.004908452053141743 
0.004736372122991543 
0.004975734079232153 
0.004755439776058831 
0.004933933190194492 
0.004777089003855445 
0.004844469955850323 
0.004780056508648195 
0.004856020304238891 
0.0048236263980979 
0.00475747966339033 
0.004813278535267458 
0.004914017862767011 
0.00483883716471302 
0.004944966464404225 
0.004808523577894538 
0.004938344511784068 
0.00481244712353905 
0.004888985249325779 
0.004903175115483524 
0.004929897237800398 
0.004887908950495203 
0.004882976260177269 
0.00493049851572665 
0.004887066289941527 
0.004916135095890608 
0.004916596178334841 
0.004929899156620714 
0.004863714078061935 
0.004891482380373824 
0.004954219417606471 
0.004900882736098361 
0.004851023662316928 
0.004952459126463193 
0.004858533374963138 
0.004929972980327462 
0.00485854950326083 
0.004954804823401349 
0.004829168890983097 
0.004855095371733347 
0.004888336199941255 
0.004816345990755656 
0.004841737625280174 
0.004789538601759858 
0.004849427329249734 
0.004882474262766056 
0.004834789881713469 
0.004826428541773539 
0.004857331151788399 
0.004914233258780289 
0.004882107665425974 
0.004873363993161484 
0.004843248915470805 
0.004942306778830288 
0.004854394613875693 
0.004961369847080406 
0.004836358773246886 
0.004899042992432011 
0.004861053308380627 
0.004945072570678121 
0.004837037240336657 
0.004873573991870018 
0.004874893339876029 
0.004878131065872944 
0.004826306886264865 
0.004941099906521893 
0.004864849721003241 
0.004914713952805905 
0.0048885132492173 
0.004920011069073051 
0.00484088690948142 
0.004959454800598619 
0.004781053334158763 
0.004997544322322995 
0.00485507124375107 
0.004998672421736606 
0.004921673066193189 
0.00499437764610552 
0.004833517548885979 
0.004927808708042431 
0.004811787901318062 
0.004961429448034001 
0.004817232579730421 
0.004943899710767981 
0.004897740800079277 
0.004932672509271129 
0.004894185538769386 
0.004889225660311278 
0.004894042812819748 
0.004889811825474005 
0.004960143489469816 
0.004882865228922068 
0.004988937137669883 
0.004834214215933977 
0.004991383620888424 
0.004824480199937527 
0.004984598156721776 
0.00485671263319913 
0.004935661846988721 
0.004833835592670818 
0.00492329493354523 
0.004859580618814118 
0.004861991166425949 
0.004936099579939802 
0.004853246425320988 
0.004903938954552504 
0.004739837444915069 
0.00489098116692777 
0.004749301442716154 
0.004841452632555499 
0.004756828408099672 
0.004854851545632159 
0.004771619571404667 
0.004863434185079927 
0.004847958372612789 
0.004826134003638232 
0.004834867041489514 
0.004805889378415361 
0.004788084532114346 
0.004825778176018251 
0.004853892449244338 
0.004874564473812858 
0.00477803090949891 
0.004911776554195898 
0.004889711583786671 
0.004831015352625073 
0.004884009490115683 
0.004839169678618386 
0.004799236779732961 
0.004953200559093898 
0.004841821737329308 
0.00489423907468817 
0.004874292954241949 
0.004849192037136144 
0.004830133035935371 
0.004959911476240542 
0.00487312702093184 
0.004868086293181632 
0.004821834983445368 
0.004910424434769625 
0.00489441727816935 
0.004896538642306362 
0.004958335314762297 
0.004898398604135276 
0.004984365386233629 
0.004957194184126464 
0.004951340896709937 
0.005082759474765111 
0.004803151165554151 
0.004946592222742799 
0.00489520266971277 
0.004952077210799283 
0.00484711188117358 
0.004858146006691195 
0.004856221076495309 
0.004857512305324244 
0.004822484918789803 
0.004859981143574158 
0.004837426170024329 
0.004831913429393583 
0.004801054612673284 
0.004879468400747247 
0.004861862458589862 
0.004834498288290801 
0.004940593577005633 
0.004804962835854964 
0.004792913131120044 
0.00482610520139867 
0.004870094240922186 
0.004745697741078746 
0.004836963547983627 
0.004756625525124729 
0.004766655360474922 
0.004715853216415802 
0.004844667386176373 
0.004703343350124734 
0.004802868319689156 
0.004726133481854374 
0.004802752615070613 
0.004702736308032984 
0.004827730931931025 
0.004728554723554344 
0.004883706024226666 
0.004787402077728894 
0.004919795113722052 
0.004832978077648569 
0.004898468867955826 
0.004732173551072667 
0.004928352636979436 
0.004858204428956919 
0.004907580195659683 
0.004808811499816878 
0.004837109514311259 
0.004824618972265601 
0.004919348439875336 
0.00481964066766047 
0.004936578256646089 
0.004829236647207046 
0.00481171452644753 
0.00483282830715139 
0.004868319572978102 
0.004916687295982816 
0.004834092948432954 
0.00478508147044973 
0.004947798828548132 
0.004743321608751393 
0.004862326516505766 
0.004756184454177526 
0.004889545815216883 
0.004736355225022111 
0.004872786232465653 
0.004789289016471652 
0.004858227619787213 
0.004812320945915456 
0.004925191541370574 
0.004849723233699467 
0.004845897689284542 
0.0048362875624479 
0.004909892256641856 
0.00478299577712377 
0.004854035554302044 
0.004829543387655248 
0.004877616700114166 
0.004764314935198456 
0.004791064026402777 
0.004778281192298148 
0.004869413902427624 
0.004683746287701233 
0.004790117734947304 
0.004707517535095337 
0.004837646037845993 
0.004680127328031241 
0.004835121485350928 
0.004754832770494188 
0.004887081772764951 
0.004777410182721062 
0.00484184862789631 
0.004780253517100935 
0.004799892722991778 
0.004773210839066833 
0.004847607344400454 
0.004793989620065876 
0.004772132104205801 
0.004847688427033068 
0.004730463980420613 
0.00482400690668726 
0.004744293892452763 
0.004799642094073756 
0.004803691599987001 
0.004838965664571962 
0.004810578814240197 
0.004837993273729957 
0.004767247810935616 
0.004838660144347592 
0.004827127388744581 
0.004757080653760736 
0.004788988572064424 
0.004747176166052375 
0.004791076393917378 
0.00466747229207781 
0.004711175000581064 
0.004714300762268923 
0.004769832988780131 
0.004705576083842126 
0.004785850675085065 
0.004727196541768438 
0.004708128778987993 
0.004771506853101616 
0.004787261882677088 
0.004695671817049189 
0.004833833299924559 
0.004713209676375649 
0.004766736052182747 
0.004821775493277667 
0.004697834848498955 
0.004744629987791466 
0.004729363767823696 
0.004748200046944979 
0.004775810328753315 
0.004755913444642472 
0.004822321648841875 
0.004760065576024861 
0.004781469830875194 
0.004771687407441044 
0.00476493897713785 
0.004849954303559028 
0.004801410993346876 
0.004850418908558937 
0.004906971572008959 
0.004762421460235605 
0.004850156336076532 
0.004846221646109494 
0.004859295402702491 
0.004769978376442593 
0.004817940567233631 
0.004820766454726308 
0.004875577783356877 
0.004722897821778344 
0.004885109336842476 
0.004730383754275259 
0.004817771832815219 
0.004819305678727481 
0.004824569022191699 
0.004789811300750272 
0.004842368723085086 
0.004842043320362517 
0.004763247050568273 
0.004865314719820996 
0.004824491993509126 
0.004990438172133684 
0.004875597703263801 
0.00498190108377435 
0.004822969694892181 
0.004926536573641409 
0.00484073961848703 
0.00495228873547468 
0.0048356900771923 
0.004911276842145104 
0.004742063971465055 
0.004900770304618766 
0.004746090849373751 
0.004931348172706775 
0.004733824284171869 
0.004876126640225178 
0.004716886941783687 
0.004870668535882413 
0.004886701768447811 
0.004832626845516629 
0.004886296330254034 
0.004909129299394502 
0.004906269357569926 
0.004951465643338655 
0.0049286634571595 
0.004914350637353428 
0.004984342373240645 
0.004908703433275759 
0.004913129367287265 
0.004883931637586023 
0.004894048838307082 
0.004866590862733115 
0.004810332972220679 
0.004795279751826463 
0.004916263056853058 
0.004869765554897053 
0.004892754334628246 
0.004863366825947398 
0.004833010997597805 
0.004797767977660005 
0.004892436174156967 
0.004833346999213715 
0.00491987373547744 
0.00476860102962998 
0.004967819112279255 
0.004802640522920483 
0.004858136915368275 
0.004804424141835767 
0.00485220761132764 
0.004881106681655956 
0.004791738214821812 
0.004929255731021925 
0.00480684307685342 
0.004832848411763082 
0.004736111149530378 
0.004860486532942508 
0.004748268735644115 
0.004869086406035591 
0.004745251851513755 
0.004806646440111873 
0.004709987081661273 
0.004844157826580237 
0.004759065100557728 
0.004840389733400836 
0.004738426183142748 
0.0048169585681927 
0.004800419503297226 
0.004812252510248777 
0.004823828149049285 
0.004734850162224455 
0.004871153966773699 
0.004758261986451378 
0.004920187503519067 
0.004740407708828132 
0.004873022351993336 
0.004765670436783241 
0.004801477075059616 
0.004893613780229486 
0.00482472824952621 
0.004868591029690431 
0.004804875648095488 
0.004841226640082174 
0.004743080546820573 
0.004840911151237996 
0.004733375318025926 
0.004904411439179191 
0.004695606179001626 
0.004790745583302953 
0.004737129167620838 
0.004689897232642885 
0.004799530899707778 
0.004787782025812498 
0.004833023046794373 
0.004798076848228255 
0.004929811896547474 
0.004820784758901481 
0.004932240453291052 
0.004799709876659523 
0.004904207793589588 
0.004898599189242027 
0.004886696732556457 
0.004907838793166773 
0.004937553700267993 
0.004874375208910651 
0.004879710269531217 
0.004879376634125415 
0.004824592989392554 
0.004901548101745552 
0.004836800310470408 
0.004891220922526526 
0.004904733754671462 
0.004967537228198494 
0.004907415503807848 
0.004851050207820406 
0.004825963834985057 
0.004911175132151857 
0.004846559082849359 
0.004865434926003469 
0.004852301543796892 
0.004857144026703997 
0.004799850441509859 
0.004904669283863648 
0.00476385206540793 
0.004838274882440048 
0.004773975811698468 
0.004910163602867972 
0.004714107577891443 
0.004940258219786221 
0.00474493609467345 
0.004955520286172653 
0.004767686789944307 
0.004976928448793595 
0.0048066982508824 
0.004873029128667715 
0.004747688225735036 
0.004864227785477501 
0.004834913693852716 
0.004901998463037413 
0.00484670350621782 
0.00486298332797787 
0.004854960519524993 
0.004876247865262835 
0.004858337305064364 
0.004878319797529478 
0.004874583797699017 
0.004894102999069201 
0.004870155607847805 
0.00492641400414641 
0.004769502216355337 
0.004905525228046177 
0.004723013584363005 
0.00496062216263003 
0.004717070503963774 
0.004958046774504653 
0.004777386517912961 
0.004949356235037148 
0.004733225804125793 
0.00492431796826155 
0.004717326019447182 
0.00491745862127571 
0.004743395502330623 
0.00476404976249513 
0.004735266518092387 
0.004888477828829283 
0.004788463083715265 
0.004911981344393535 
0.004730654625632492 
0.004889463605711311 
0.004712030739946374 
0.004939357299592874 
0.004771174219362829 
0.004911751244265936 
0.004802827781228983 
0.004877731795574081 
0.004754853579278663 
0.004875525804360037 
0.004724116571217968 
0.004885471034195395 
0.004705806263104271 
0.004805051244476367 
0.004652206114920569 
0.004807665955668465 
0.004713086338132657 
0.004813129944323605 
0.004802479693570408 
0.004847269671858296 
0.00482654406092009 
0.00485068469860313 
0.004724683528598402 
0.00480463654180247 
0.004820200582373632 
0.004883082555041563 
0.004895469040832293 
0.004814942602282276 
0.004854670751668097 
0.004840607006599158 
0.004876382493140347 
0.00477876240266371 
0.004805657179970696 
0.004807182582735416 
0.004911696418586804 
0.004836947414363749 
0.004788271132640215 
0.004812907419706317 
0.004910871075183664 
0.004739630710943062 
0.004961611872549785 
0.004764713601940494 
0.004823746812001437 
0.004798277759187521 
0.004832471183500098 
0.004752420764718353 
0.004806858494005068 
0.004793659609259473 
0.004769568977375824 
0.004837985406314735 
0.004831377021553421 
0.004832160250150556 
0.00484068108590152 
0.004840812661882092 
0.00479493581658089 
0.004835904801366264 
0.004772521794742797 
0.004898181321727452 
0.004808733667513086 
0.004842022301316048 
0.004824145715000581 
0.004801977738393127 
0.00479814889628009 
0.004846070741061968 
0.004821813794741457 
0.00483247884534127 
0.004853161987005468 
0.004777747007908334 
0.004788361657345873 
0.004805967686244902 
0.004825874463042808 
0.00477512561708931 
0.004886861464999785 
0.004786231864510058 
0.00491096730881562 
0.004786224539368805 
0.004885840975725938 
0.004841463779452202 
0.004867921662981506 
0.00473109845013389 
0.004864652432468692 
0.004718015147824693 
0.00486556431866746 
0.00480442032222149 
0.004853574168448821 
0.004775333839867624 
0.004750005592933967 
0.00471672968462907 
0.004733558262492261 
0.004775445421565949 
0.004807283993402541 
0.004728561819759827 
0.004823227289429187 
0.004663308670640798 
0.004810929349447844 
0.004714085074933707 
0.004831889273498554 
0.004792246875618281 
0.004895998167693988 
0.004819383449301676 
0.004834918620146469 
0.004770959097684138 
0.004890123687724343 
0.004783729660141718 
0.00487603723308626 
0.004771144550293756 
0.00491018937055844 
0.004749466163436021 
0.004885427537989005 
0.004759979949380391 
0.004914464314997899 
0.004852846800324796 
0.004919485048396044 
0.004775727846687712 
0.004982644662031632 
0.004793143019613013 
0.004994014740560022 
0.004804099625272367 
0.004978384469455641 
0.004702173056352227 
0.004974323151670121 
0.004639043453886077 
0.004930838191562851 
0.004710377548013136 
0.00483508876208611 
0.004728444956434212 
0.004903512531397912 
0.004792281056582545 
0.004945242858105209 
0.004787784389467753 
0.004926824459713553 
0.004815400165277661 
0.004901239386811394 
0.004828790770536963 
0.004841997268131184 
0.004851616446251542 
0.004875882818254419 
0.004848305668168628 
0.004849830791983876 
0.004863904581189978 
0.004875867865473702 
0.004853255335639817 
0.00489814430403648 
0.004847078013149785 
0.004873192866615534 
0.004890943722927935 
0.004938823444275857 
0.004861915178454255 
0.004918856057004678 
0.004959802389559119 
0.004886886823624655 
0.004851091599930316 
0.005011093112986101 
0.004936301405718023 
0.004951730021475594 
0.004878547707014532 
0.004967997142772826 
0.004866211841949321 
0.004976243413074978 
0.004922639371443296 
0.004947024776159261 
0.004935696887215816 
0.004889490401153535 
0.004906589877396987 
0.004901275522713289 
0.004932232012098476 
0.004934389422995907 
0.004899689476701189 
0.004933277298861893 
0.004917911429823413 
0.004852005345664333 
0.004725813765073369 
0.004962246303387863 
0.004735489738984924 
0.00485833939518371 
0.004868734993601664 
0.004781702991493111 
0.00479358052620485 
0.004852829598513107 
0.004792783096266156 
0.00488258249978465 
0.004728311818578662 
0.004875970213861921 
0.004833606200691956 
0.004835213857840928 
0.004904445088900018 
0.004796708777882025 
0.004848481331401863 
0.004839340394612051 
0.004907138342941558 
0.004778176780288588 
0.004880450990160843 
0.004866786966764461 
0.004957368832505225 
0.004863506582128933 
0.004893538203090361 
0.004930289361684476 
0.004774015830336798 
0.004951113353091972 
0.004813687243540236 
0.004935902521837224 
0.004904875396702997 
0.004918073562381376 
0.004907180313036526 
0.004894552862627884 
0.004948642442446039 
0.004846296467594948 
0.004898111421450344 
0.004979328220002826 
0.004890855473380928 
0.004963099462771006 
0.004882856836613971 
0.004879901569162284 
0.004888137161238862 
0.00503169377259728 
0.004941833686404673 
0.00499694648433319 
0.004843961877032658 
0.005052266415835978 
0.004833603931629107 
0.005079204679376915 
0.004975996421230694 
0.005004393591437502 
0.00503818293555564 
0.005028445322752498 
0.004949718824394438 
0.005010269652827781 
0.004975612858524599 
0.005035919983546029 
0.004996433768921726 
0.004982921365263673 
0.004963414390730704 
0.004938418798097299 
0.004981214718511118 
0.00494887504349206 
0.004914297401336207 
0.004952576751648862 
0.004959680701365796 
0.004917555996901453 
0.004874657253981958 
0.004920033366734657 
0.004852761289102375 
0.004956477669275208 
0.004861294883351097 
0.004910369875646648 
0.004824785435970442 
0.004863701300661478 
0.004823336769997221 
0.00488150603382304 
0.004790422380071073 
0.004878797059953345 
0.004679579159037659 
0.004857744350112179 
0.004752439561125476 
0.004748994208122789 
0.00477066482060838 
0.004768277525324236 
0.004839592746048129 
0.004819389478549108 
0.004848849198622112 
0.004887717948615207 
0.004870069196970693 
0.004921583792681317 
0.004928955239130657 
0.004889489352322116 
0.004877410553645719 
0.004867706871770694 
0.004913001702382329 
0.00483549561449271 
0.004888032685676132 
0.004885853950718932 
0.004819021956145615 
0.004825901152749643 
0.00480264519936893 
0.004819750656701421 
0.004779108423037107 
0.004801411536752941 
0.004891570569823972 
0.004835987412383101 
0.004839632867571584 
0.004766201105628585 
0.004862739483322455 
0.004810878130483281 
0.004839822353558796 
0.00478442323681574 
0.004882775212463274 
0.004807589052641513 
0.004947404258305832 
0.004909863122351006 
0.00484992491877641 
0.004853989828795991 
0.004863873745327185 
0.004814528146414063 
0.004962054812577867 
0.004919667372438608 
0.004965745627117412 
0.004909109854486409 
0.004913327213848426 
0.004872610584002909 
0.004927704669893131 
0.004892670977743124 
0.004932728463271113 
0.004874994206004193 
0.004955399086182372 
0.004898288172121215 
0.00493157319772409 
0.004863035029569237 
0.004886011293585421 
0.00483872553003012 
0.004926561846266653 
0.004880343165141226 
0.00497973715944137 
0.004820920194153451 
0.004966292295045777 
0.004787877493219605 
0.004947604411374762 
0.00470941074021101 
0.004924582422498968 
0.004737323823541933 
0.004904260999532896 
0.004782858105440238 
0.004914243605171438 
0.004837626119495896 
0.004961040474693861 
0.004830426156533656 
0.004953745962961345 
0.00484977785373251 
0.00490738885368358 
0.004857955545373708 
0.004946925567591107 
0.004769037713585967 
0.00496716368862481 
0.004885346411059023 
0.004893425803343315 
0.004822162092448839 
0.004893337454725778 
0.004839362726578344 
0.004932653439972649 
0.004855184572003675 
0.004894908132780058 
0.004866487077338911 
0.004928559747010773 
0.004788311762591804 
0.004848472420487093 
0.004868749608487342 
0.004868362169841881 
0.004876454048570501 
0.004928753819489272 
0.004921259738927871 
0.004918419174151706 
0.00490679599516435 
0.004908771526417834 
0.004897081818815565 
0.004884578544765148 
0.004874200812479179 
0.004922082208210262 
0.004967696328820972 
0.005009244052906287 
0.004831752851998865 
0.005004256444635212 
0.004837681611276753 
0.004967947277926196 
0.004795119087465965 
0.004971627480675249 
0.004872235335158082 
0.004911645902552338 
0.004885108984500618 
0.004919648684473937 
0.004902103543585791 
0.004883477662295689 
0.004913230858753565 
0.004937899040833701 
0.004859062913979158 
0.004979845080496054 
0.004827642048979026 
0.005004206815039693 
0.004864821315505741 
0.004923547340736536 
0.004815301773370906 
0.005013055437843359 
0.004740546167265961 
0.004957493417287469 
0.004800120893827166 
0.00496054755560322 
0.004816239396050599 
0.004947971492380867 
0.004794996278075214 
0.004861979541182683 
0.004827983705215482 
0.004879622142630214 
0.004812873249914939 
0.004887847081220493 
0.004857864726897783 
0.004834451557080348 
0.004835527868922976 
0.00483480727095561 
0.004813550451883339 
0.004885159020945692 
0.004750051594446463 
0.004877624684047024 
0.004725627520169457 
0.004805184818182778 
0.004755844939661033 
0.004819717551194755 
0.004746459188317791 
0.004858839368422971 
0.004720354975539178 
0.004814485655700269 
0.004756312828841224 
0.00485545587112287 
0.004763170997016525 
0.004885175372561176 
0.004783180363294283 
0.004985080474418207 
0.004835544235811375 
0.00499106727259368 
0.004805299007439491 
0.004926046684888184 
0.004797868185762952 
0.004863788388633182 
0.004791278531024238 
0.004852981862420998 
0.00477234367474411 
0.004844786652889292 
0.004753878353473422 
0.004873272492774324 
0.004807478638496098 
0.004860016789712457 
0.004851123295749464 
0.004741148642314848 
0.004894814337376088 
0.004759676183516839 
0.00488633810026311 
0.004768029814638647 
0.004858446996411418 
0.00482157739920939 
0.004862591955287598 
0.00482684101000684 
0.004947793144778459 
0.004758471904246504 
0.004981784926537831 
0.00476050849658153 
0.004970451486065865 
0.004720742272070765 
0.004977466230459262 
0.004740811948743133 
0.004889905972349957 
0.004848105067133281 
0.004939048127023293 
0.004859033580088166 
0.004905117427669501 
0.004763632236614923 
0.004940819954117524 
0.004770242204474747 
0.004937666433818698 
0.004813862918986134 
0.004959042773767819 
0.0047892640501611 
0.004926849867144496 
0.004851992095739718 
0.004956068550980604 
0.004855726224810768 
0.004920196745516445 
0.004856965292746961 
0.004897523018629539 
0.004901823728256405 
0.004882299426907953 
0.004909080736396495 
0.004845545265926202 
0.004901938343847556 
0.004848226912250744 
0.004932831687467725 
0.004816212869900165 
0.004902258188418118 
0.004888020179765344 
0.004952671636053767 
0.004890099811508586 
0.004919215493924075 
