solver_type L2R_L2LOSS_SVR
nr_class 2
nr_feature 1984
bias -1
w
0.001765593643316131 
-0.8326964148714374 
0.2696295558068472 
0.2476920503855003 
0.239405790613969 
0.2426998504755419 
0.2776217551332649 
0.2344775578998426 
0.2469068364847318 
0.2308948898820255 
0.2202377861000455 
0.2087217527743108 
0.2369694357629661 
0.2221630033570408 
0.2653837826426417 
0.2548598793467659 
0.2502678240854677 
0.2317818887265961 
0.2229387731164844 
0.215176176081944 
0.2299586296297089 
0.2413368018353149 
0.1871303985510884 
0.2075416184195636 
0.1993907939159182 
0.2244160028068539 
0.1464492674354904 
0.2115738442055519 
0.1717711855288559 
0.2317410043505787 
0.2296720622793152 
0.2371180765790168 
0.2470657141778539 
0.26472917170983 
0.2781013757960379 
0.2327772600241225 
0.2546673137735044 
0.2692983810353811 
0.2290670401894294 
0.2722897185278739 
0.2003187444430451 
0.2991947332839442 
0.2108736672965087 
0.273344300681335 
0.2143724458636117 
0.2960263402971364 
0.1711349848966251 
0.3026824507945895 
0.1867002395983272 
0.2324046409917511 
0.1698315535992994 
0.2177523438670711 
0.1847152580851788 
0.2251503602215763 
0.2060361748138423 
0.2563323943896232 
0.186938416766491 
0.2630045094425852 
0.2003008301383166 
0.2580741735901778 
0.158656870216097 
0.2634626684607161 
0.1706218684927149 
0.2311763224771104 
0.22032937303948 
0.1713314785893311 
0.2033660312666248 
0.2081646397668714 
0.218087412408767 
0.281984255407717 
0.2247423878603428 
0.2739835341784773 
0.1727238802526161 
0.2613432567175765 
0.1563099453714349 
0.3009850556401208 
0.1658975788059826 
0.248370145308679 
0.2099834446272368 
0.2351636433201705 
0.1969631729452005 
0.2492853443962649 
0.1393037126015822 
0.2478963947101568 
0.1455225168389906 
0.2239388936567182 
0.1797794281416034 
0.1916067896787001 
0.180849979571708 
0.1583809803903675 
0.1862854532145277 
0.1513837859412241 
0.1839309513830615 
0.1356166074052784 
0.1753883104414402 
0.1494868209977718 
0.1949866856748667 
0.1221067307514859 
0.1587169898100118 
0.1511345328889159 
0.1720661243896799 
0.1920439937939255 
0.1657858465283083 
0.1657517271286965 
0.1337717329959031 
0.1306674133155599 
0.1171204579199721 
0.2064907646407183 
0.1372514045035244 
0.1951251043117785 
0.1587863775754647 
0.186983764463673 
0.1985002737858042 
0.1751172001269121 
0.1582908164595645 
0.2509615538472657 
0.2033588136946378 
0.2183930474500815 
0.1951525133581566 
0.1823965998875282 
0.2156651490936193 
0.227130170769286 
0.2127662508286705 
0.1965026238778824 
0.2185430206385893 
0.2077589877965457 
0.1974127989839843 
0.2040700631452894 
0.1756475433959436 
0.165442346890407 
0.1624272040932489 
0.1798075506194136 
0.135662377285597 
0.163231364614272 
0.1341038117024611 
0.1508624238692284 
0.1109639453950324 
0.1861591002551869 
0.1329687739210064 
0.1899230844035483 
0.1172817561186578 
0.2337351725045525 
0.1622850833421481 
0.2075366083042999 
0.2023885902928957 
0.1857711807326498 
0.1788543757324422 
0.2326498798784548 
0.1940889857821692 
0.2512004215934753 
0.1885686019989091 
0.2719696926464125 
0.2105869906974408 
0.217842901264536 
0.2187800875878402 
0.2247813670432275 
0.1887248137827416 
0.1672941874499124 
0.2053014783208302 
0.164995451648713 
0.2243736423468768 
0.1919958210623143 
0.1945484934385908 
0.1475649082594216 
0.2282700701798038 
0.2079496493313834 
0.2495161414010451 
0.1455871323603349 
0.2374664235709232 
0.2012253873872525 
0.1817350676329201 
0.2127501367662069 
0.2392344968311101 
0.206254455564636 
0.2425592272350008 
0.2272602415721041 
0.1833805330471774 
0.1989195027188292 
0.1484146065991848 
0.2285850535443877 
0.1606912939353248 
0.2048897646694588 
0.1451388915720366 
0.2238431011377597 
0.15882283365601 
0.2040234410717706 
0.1216677252216773 
0.2637353874384299 
0.1613421926449551 
0.222862521214894 
0.1422111763368701 
0.2033892809713242 
0.1126095825240119 
0.2097870243758272 
0.1402368506497498 
0.192472952511229 
0.1824596910228216 
0.2076362847028749 
0.1624694601076194 
0.1520394648602934 
0.1724900736109016 
0.1689204497654214 
0.1689350833296106 
0.2007151548097991 
0.1158069695342146 
0.1970949351898457 
0.1014342964024327 
0.1650240992576006 
0.1501298545086224 
0.1419923644720987 
0.1851866943122119 
0.1793563129335042 
0.1880787543682714 
0.1843666567512059 
0.1606810542270926 
0.2062043107619468 
0.1598116276537429 
0.1621706339580456 
0.1414847746811544 
0.2089247350242234 
0.1561730757668328 
0.1271155975889334 
0.1727182796393177 
0.1473749144232941 
0.1620638787056532 
0.1462685939919687 
0.1764407776221132 
0.1275426997867808 
0.170926611360844 
0.1534265875710538 
0.2285051916186419 
0.1416978350954417 
0.1834843843511559 
0.1512289776645564 
0.1996827514145435 
0.166693131042452 
0.1991410750381926 
0.1633379476946385 
0.1916745865102176 
0.1220285584142495 
0.1535539942303474 
0.1608233527216333 
0.1851550023763937 
0.1473934889331862 
0.2347674030365753 
0.1350889238408794 
0.1601190782757826 
0.1533544451119061 
0.2130395955016143 
0.1441361023884995 
0.1391461421765684 
0.2041767649487722 
0.2299278216853591 
0.1571938355710026 
0.259879386136752 
0.1586130892685862 
0.2522259176319801 
0.1352162272730349 
0.2438574038177185 
0.1170220089415915 
0.2092396099612696 
0.183656786226551 
0.1820387891034958 
0.1818945741836516 
0.1468327121397169 
0.1491753909355752 
0.1495379739076345 
0.198331285696987 
0.1394871895808926 
0.2024461891747921 
0.1572447857081017 
0.1738282633601585 
0.1657124284676735 
0.1671281226123874 
0.2105244709455309 
0.1851129317198987 
0.2106118968980822 
0.1164810482138848 
0.202838028357494 
0.1353548314759853 
0.1894554797551848 
0.1386967469670123 
0.2340156996801451 
0.1290364962718711 
0.1921294003516972 
0.2081472798253421 
0.20510506113595 
0.1649380894096018 
0.2064699330132454 
0.147978749952678 
0.1683655360533864 
0.1437927226147451 
0.1766999034441301 
0.1114916402083205 
0.2125893557059381 
0.09327108899211689 
0.2216010691314834 
0.1140080089695807 
0.1258144161478658 
0.07784037154682467 
0.1634255167337227 
0.07204534644622444 
0.18980396129648 
0.06308438453289451 
0.1657230409669224 
0.07010764555295257 
0.156976480514988 
0.07682685018064714 
0.1331185759857745 
0.1172710760185869 
0.1335484148318631 
0.04464777640973513 
0.1591366597181193 
0.1352584065569334 
0.1611962724586573 
0.1013119517550958 
0.1184890664374713 
0.1416898306558637 
0.1535936552793487 
0.08079689121180395 
0.182178591360847 
0.1184596198330276 
0.1801345810004371 
0.1172452605734284 
0.1443257104040304 
0.1118226563014479 
0.1615976894906753 
0.05582642681817451 
0.1983819392047132 
0.108670479933047 
0.2056138645135849 
0.08266817415508333 
0.1905355342390657 
0.1019634102650929 
0.2133983913980496 
0.1243490696207003 
0.2611869062792893 
0.1331493055955264 
0.1943852991602012 
0.1518065783589255 
0.2280850019688762 
0.1014980151886464 
0.2127779483675344 
0.1300386951514556 
0.1529814156062645 
0.1466981530915351 
0.1917078828618105 
0.1004936598264357 
0.2063113252712143 
0.1704582126109206 
0.1942426823510976 
0.1216416760916007 
0.1931390043063225 
0.06979598868760611 
0.1631380045017339 
0.08122581357812024 
0.1291499892743755 
0.152177903220073 
0.1067435146971586 
0.1584973607765681 
0.1330958033980435 
0.1660621715221303 
0.1809160656734066 
0.1678499124820593 
0.1595131145247735 
0.2005186506785665 
0.1489148301410372 
0.187206709423845 
0.179423941625668 
0.1796344679267808 
0.2099377548165819 
0.1621165847495556 
0.2131468924473318 
0.1694126918439659 
0.2066575697475903 
0.1769437620742342 
0.1431146904578127 
0.2314517749338425 
0.1653493363289858 
0.1718824995865239 
0.1092059733413443 
0.2177837785512811 
0.1191733566355924 
0.2219779065543382 
0.11732204669927 
0.2277519438048312 
0.11933087185721 
0.21466456020207 
0.1166406028722111 
0.2152206418736698 
0.1639627158022449 
0.1662522815331851 
0.1700026354778205 
0.1675996172699688 
0.1551747331452808 
0.130949359861846 
0.1279127704280325 
0.1256748058431642 
0.1756830271575317 
0.1564370498754431 
0.1290560214080697 
0.1439851881329448 
0.1481866571707715 
0.08218402155873165 
0.153822700214835 
0.1453564787472544 
0.1152979296988701 
0.1730649979086666 
0.07429484292564566 
0.1640699091937253 
0.1384190537243976 
0.1791383056587698 
0.1376467590069672 
0.1896339168790106 
0.1193703356541686 
0.1718974094146783 
0.1556073144990106 
0.2286354304256095 
0.1415193726277287 
0.2123006716525358 
0.1466592415153034 
0.1475510458318116 
0.1431406256433976 
0.190213760595164 
0.1832446220172888 
0.2167983615280303 
0.22138975762911 
0.1546646429990927 
0.2124562752615632 
0.1581587895389373 
0.2298738159442554 
0.1309263005989598 
0.1672534293492876 
0.1786344897809561 
0.2174707747207515 
0.1716740473239242 
0.1817594659986569 
0.1182439911871321 
0.1880848767642315 
0.1018741325561113 
0.1732554292952036 
0.1227798024576692 
0.1923585697131091 
0.1153814092812088 
0.1928557373247844 
0.1044203870543872 
0.1926478241177554 
0.1231878235899282 
0.2033473789599023 
0.0952052972344075 
0.1749616167798688 
0.1076661088035087 
0.1736470541159846 
0.1188695979592558 
0.1793122337601273 
0.1504143017299162 
0.1264830985400097 
0.1849386941304253 
0.1726029696633078 
0.1458558754565975 
0.1434219781077264 
0.1850653022718232 
0.1608585977039825 
0.229308061779833 
0.126503485796915 
0.2113798192232282 
0.1509930931969993 
0.1817035017777968 
0.1457379817674735 
0.1685247719864023 
0.08294827708728104 
0.139963765768626 
0.09720358725209227 
0.1327695034560868 
0.09624214410466982 
0.1724667070927741 
0.08996761924374623 
0.1782838970909875 
0.1327215122345259 
0.1294489410387988 
0.1453329698176548 
0.1426526643929184 
0.1914124020779449 
0.1488838746185265 
0.1631901558284416 
0.1550331507087747 
0.1519720921821309 
0.1414849296016975 
0.1927825209436939 
0.1497233015955645 
0.1893716634873484 
0.1625989323263076 
0.1903720027713101 
0.1260325075761471 
0.2305533106901293 
0.1201773644849466 
0.2224766708821466 
0.1377346573594774 
0.1914885378334585 
0.1005008632193739 
0.1526805916654482 
0.2029044369164093 
0.153978318270393 
0.2558850212146983 
0.1503955102301613 
0.2399757210896105 
0.1487577681508997 
0.2288634866149819 
0.1416806456669661 
0.2091267473741308 
0.1666137255215258 
0.2375415457517121 
0.1373974883068573 
0.2246285323520975 
0.1436428070864851 
0.1641101928129847 
0.1093949532350753 
0.1707423995922018 
0.1274387382053058 
0.179672679083408 
0.1443471490166981 
0.1639281546093826 
0.1527963896094204 
0.1698883840295317 
0.1438175563102088 
0.2007002500569808 
0.1324837271757623 
0.2133429893618906 
0.1351434039343371 
0.2065923857262343 
0.1308947700519962 
0.2108125486590022 
0.1589719540779306 
0.1777199052878052 
0.1305898885114245 
0.1569030362674059 
0.1140018219907327 
0.1454988212847745 
0.07962302963469733 
0.1573889062170291 
0.1079130114411396 
0.1462504066088649 
0.1074012394147788 
0.1894674901796283 
0.1225346789905781 
0.2013764130820961 
0.1334427035850017 
0.1197529455656883 
0.1834301439627936 
0.1558353901502907 
0.1157173279398734 
0.1751898646484426 
0.1307845388377953 
0.1660405184497381 
0.2126369487710303 
0.1402536863535862 
0.1921415785155929 
0.1072635390982904 
0.220421357454284 
0.1544476885825201 
0.1544463848037286 
0.1782653560736978 
0.1166557679649017 
0.1808215570411567 
0.1773769196278528 
0.2184750768118077 
0.1557010467651883 
0.2146760031955716 
0.178678530815628 
0.1694635614274657 
0.1820880354164029 
0.2319311202955694 
0.1897702845480732 
0.180895782656755 
0.1585928261417194 
0.1978651683042181 
0.1914489525668687 
0.1424631200301918 
0.1719214267978396 
0.1406415477622646 
0.2314789934883879 
0.1792725159148082 
0.1546388896771287 
0.1825879297791877 
0.2257281715977738 
0.1766981324020694 
0.1560763868074211 
0.1543043092554275 
0.1620931750384218 
0.155485485968409 
0.1773247050714087 
0.122979074311025 
0.2011020876751168 
0.1491126894501185 
0.2065833502593678 
0.1185055835384172 
0.2021740945209342 
0.1880935238119208 
0.2103915201806124 
0.1532173194145929 
0.2117986152703622 
0.1115041037616445 
0.237814061418759 
0.09630415319579159 
0.2068129328222051 
0.1311208539709352 
0.2156634092725075 
0.1356127243659196 
0.2273956319496594 
0.16676471904613 
0.2060902564341288 
0.2110706080434079 
0.2000716767776189 
0.1692948391096938 
0.2385241025681049 
0.1773868862648772 
0.2456396526919624 
0.1925909531177172 
0.2332944773045135 
0.1681554421600142 
0.1686992570319653 
0.1789041661039459 
0.1769570671911209 
0.2301388042365285 
0.1519224884949212 
0.2730195808915882 
0.1983505318084678 
0.2682334385530422 
0.1002407945524257 
0.2441223164043992 
0.07278129717133325 
0.2354359242682396 
0.1060234219371059 
0.2088847471714566 
0.09676172217067298 
0.2256203580890426 
0.1367183895088047 
0.1938115212356651 
0.1175109206802159 
0.2026410575164694 
0.08826395157706558 
0.1589886316516092 
0.1036764119225374 
0.1782690921942997 
0.1634299721209165 
0.1151286736753595 
0.1695329580091408 
0.1709813656128187 
0.1454971983599934 
0.1531008230012903 
0.1229415177664114 
0.2172101380857252 
0.1856020271052235 
0.1902894169118482 
0.1925788071747545 
0.1305312609602199 
0.193872702453711 
0.1317702205902918 
0.1950027310320164 
0.124949760035466 
0.1895224698351444 
0.09474203524197029 
0.1927527509568775 
0.08958025989517573 
0.199958910973046 
0.1700965778951717 
0.1911149850100225 
0.1220454284998189 
0.1975567876890986 
0.1343556640132379 
0.1791147313041452 
0.1254538612118913 
0.1674365110173673 
0.06385937396182502 
0.181312022827485 
0.1126429799432553 
0.1132136480850778 
0.1261069957165389 
0.196309252251422 
0.1126395030955899 
0.1732091120515095 
0.0969189241925083 
0.187706552234643 
0.09965428896985487 
0.1923167361257097 
0.1059931636280196 
0.2073694475258798 
0.09498503192076561 
0.2095885729181741 
0.08001243670970253 
0.1599846850812354 
0.0666711303086978 
0.1943074503042211 
0.1101022332721436 
0.1861610184250274 
0.07866747740319688 
0.1380758920758448 
0.1176315104286529 
0.1311064714460423 
0.1389014418270285 
0.1861487630594484 
0.08912478993351579 
0.1269382335231695 
0.1443899119685228 
0.12376149172748 
0.1283686999583959 
0.1641861834052028 
0.1582026656036884 
0.1911744563412277 
0.1495865128367061 
0.1815462645619665 
0.1223243800673697 
0.1334035039801826 
0.1085267300715337 
0.1954652914380927 
0.02756751786142124 
0.1822825788013927 
0.109466351328614 
0.1815783831468762 
0.08541827644923393 
0.2153027938804484 
0.1646641717895536 
0.1923501195823091 
0.1934306601669144 
0.1779731225168249 
0.1979692322749845 
0.1576267288738105 
0.1234686818845385 
0.1549504527038901 
0.150156614093554 
0.1617353930469775 
0.1564679865673168 
0.210139431136265 
0.135346820937869 
0.1895048383048995 
0.1122546177023816 
0.1798610433164698 
0.08839850228840028 
0.1939668561399189 
0.07937524475396 
0.1740195070508923 
0.06272033939170342 
0.1475466495669652 
0.1133982278387989 
0.1570008425552653 
0.05859812753824045 
0.1498736288713872 
0.06578887095660199 
0.1916333089618637 
0.04541745455660391 
0.1662171820689928 
0.07013597342152622 
0.1131849867539232 
0.07039501717283531 
0.1641308349781343 
0.05025317233635002 
0.1128739273928361 
0.03600978176720406 
0.09884464530840413 
0.08408602221786846 
0.08189953015543824 
0.1041730944506532 
0.08132595151441964 
0.06814778472455929 
0.1270881265036486 
0.07125182749273076 
0.1083145177112291 
0.1169867724878311 
0.1207441365099964 
0.1158401672059492 
0.1774302605493587 
0.1083549663205342 
0.2302129230374932 
0.1414963764073126 
0.1735024029314624 
0.09205393253529806 
0.2231652219247143 
0.1184029376547299 
0.2214045200574472 
0.1267720487063126 
0.2374657397759999 
0.0907250311324404 
0.1892477308730288 
0.1677100028687328 
0.1334481243679743 
0.1688999078878694 
0.1122709143883227 
0.1250511269023678 
0.1679043223548638 
0.1749300970934255 
0.1640573429418588 
0.1610488436927603 
0.1648977343783391 
0.1370239766465413 
0.1468339283324573 
0.1209546286286669 
0.1838882129731367 
0.1263970353509424 
0.1751459917670805 
0.09390632813022254 
0.181542640180979 
0.06491444867391376 
0.1820857536325768 
0.08292029606385384 
0.151042732635795 
0.08055662889848206 
0.1526261056321888 
0.06095689260306675 
0.1631804392874716 
0.08431389356971571 
0.1293134096890481 
0.1333788993177016 
0.1608631717594065 
0.09728035399336826 
0.1651299995569989 
0.1508529631172915 
0.1773188620541182 
0.06792840808883273 
0.157591573525806 
0.1463716893408219 
0.1969362740147224 
0.1232549486221378 
0.2046205143514579 
0.1351133826288125 
0.1837547604599653 
0.1135576552979187 
0.126028147532212 
0.1136877073122127 
0.1514748744450335 
0.08350459473636196 
0.2048809762101329 
0.08840906417212779 
0.1273791090562917 
0.06211594237005787 
0.08661866291859235 
0.1062266847170817 
0.1038197038749908 
0.1528738864467013 
0.1642739054617158 
0.100026379989399 
0.1495805265498923 
0.1146208330646194 
0.1219596222853786 
0.1388050198418037 
0.1266177765294934 
0.1762137343568451 
0.1575217691819196 
0.1609420864541266 
0.1790580314965541 
0.1494436638977887 
0.1526058411626988 
0.1674165280676069 
0.1831460887573779 
0.1513296662126599 
0.1094623685996775 
0.1436326283118862 
0.1596136503066065 
0.168249465330976 
0.1038197385907203 
0.1951716286944757 
0.1043128768208656 
0.291971775557512 
0.1324004316525076 
0.2231453355221173 
0.1133040890480153 
0.1626678113778414 
0.1619915490980561 
0.1600235689068298 
0.09522714724819761 
0.1667455848626181 
0.166503643858632 
0.1827498941652116 
0.1265448446022984 
0.1512289619233628 
0.09528987507591423 
0.172392005181653 
0.105762270652771 
0.1492227228124903 
0.131660299496173 
0.1278224271241634 
0.1008020965509756 
0.1593507527054578 
0.03202808983186028 
0.1723115787604767 
0.08707753748725339 
0.1454806321626372 
0.05031187506321252 
0.1904883548334966 
0.06589693554255142 
0.2197840507417342 
0.1121842754141552 
0.2212383941367901 
0.07482223498423794 
0.1798511869055612 
0.07847330443082334 
0.1842672078123711 
0.08179816054606978 
0.1881676633830313 
0.09920759374381571 
0.1796691967178925 
0.1141202605830355 
0.1186308726909527 
0.1130436805377549 
0.1923426864574466 
0.07185918796429673 
0.2083670705145902 
0.05942523651397792 
0.1199804540076835 
0.07209151709219973 
0.1523128458183372 
0.1078292286651514 
0.1548036013924691 
0.1251110705486875 
0.1772589670824004 
0.1076446478717965 
0.1292182929087547 
0.1252986281920665 
0.1687817055445967 
0.1471037110348114 
0.1911838407425861 
0.10737262636521 
0.1566829192846612 
0.1494076814571706 
0.1813826269043484 
0.09056885714967285 
0.1482091341264414 
0.1450970575562369 
0.1727192655046338 
0.1240006400296056 
0.1438832804901085 
0.1794658703859215 
0.1719067340353803 
0.2462472850928587 
0.07918262828693233 
0.2624736143003793 
0.1264947050862623 
0.2167468533831083 
0.1195876077231386 
0.2279396486766766 
0.192596330543928 
0.1575198423915674 
0.1991741500210605 
0.1680150576901664 
0.1997393963794817 
0.2031462376287899 
0.2189826222093361 
0.1686965077982368 
0.2136653086517972 
0.2157901430344459 
0.2480233001407391 
0.1275506710263974 
0.2230132414508647 
0.1240531469994447 
0.1421161363341137 
0.1713238684184455 
0.1353741952601787 
0.1151068261102633 
0.1434104995642243 
0.1515105232708217 
0.1256592114347342 
0.1509587384797682 
0.1498782820570512 
0.1220946171900957 
0.1724402395357423 
0.106706591561542 
0.1358597963485919 
0.08784456916689617 
0.1470479333377731 
0.1198817952902868 
0.1575698912732804 
0.09647856526144383 
0.1881829201801401 
0.09151124488230977 
0.1781808345112171 
0.09467690447373062 
0.1538268928901853 
0.09464082419735541 
0.1679167536350792 
0.09162905165739059 
0.1515454386105788 
0.08276210575027469 
0.1694865413977824 
0.1083111299501209 
0.200393683312967 
0.09161888936224263 
0.1611596958220775 
0.05487680015867672 
0.1774136155520108 
0.1290646735854952 
0.1523179061945741 
0.1173683833978453 
0.1282530233305967 
0.09978658317212495 
0.1691194586991084 
0.1162977097070192 
0.1390830482824338 
0.1785535413254882 
0.0960926234518145 
0.1511456317832391 
0.1587624342882341 
0.113526849577253 
0.1775094232264084 
0.1642577935299753 
0.09126462366157166 
0.1505704790918985 
0.1246853337925836 
0.1514650253569204 
0.1176536284667026 
0.1329601688718563 
0.09928119209341092 
0.1679543627073548 
0.148315151019293 
0.1177266770908368 
0.1206654175630276 
0.1572480768119453 
0.1318068477554389 
0.09361267152857823 
0.1727957271122442 
0.1316792936601359 
0.200988080435133 
0.1412637281362137 
0.1840549028634604 
0.1651347820579939 
0.1230972928134487 
0.1039841142842382 
0.1923250825798693 
0.1063013587196693 
0.1434488470357484 
0.1401373355666587 
0.1291803951669432 
0.1613940050060677 
0.1041854466115374 
0.1767153131653371 
0.08621322756838233 
0.1684067853384633 
0.1359453709951217 
0.1857894628578751 
0.1114668445729649 
0.1762982060558552 
0.1107660934370464 
0.2352260894765934 
0.1133280786306607 
0.1843508221522885 
0.1325318769867538 
0.1826773019712666 
0.0990514769679498 
0.1587468091144141 
0.09774344214234555 
0.1599717285126677 
0.1236095883315056 
0.150319244451284 
0.1217991808220969 
0.1514234938931379 
0.08852692653615392 
0.1521168458407707 
0.08899761661982895 
0.1521316688108894 
0.1467921315418874 
0.1680065949246747 
0.2095350134571402 
0.09933019800292578 
0.2065120281005718 
0.1157315271288212 
0.1307568840634808 
0.0779085943945631 
0.1527822684265163 
0.05774946387854123 
0.1525689092528306 
0.09237937920903833 
0.1731593009064802 
0.05379401073417664 
0.1747661700915075 
0.06162765584376577 
0.1569210331281915 
0.09567982785634041 
0.1708567138426112 
0.07739459452765779 
0.1851898441539546 
0.1562792958420827 
0.1833652141805565 
0.1004077284730566 
0.1909938236045083 
0.1271604078555336 
0.1090606149054048 
0.1322004174423441 
0.1748080361169996 
0.1235074839794891 
0.1615824655385175 
0.1175249235587051 
0.1450325528043442 
0.09665781387775056 
0.06560682087693727 
0.09784630184120402 
0.07929708049092885 
0.0686653279802899 
0.1248658180810189 
0.03799689044187751 
0.1120005899170738 
0.05214464866466776 
0.1201550664556105 
0.1221556200888343 
0.1010869506090286 
0.137235615384655 
0.08016533664981076 
0.06731852611026289 
0.09827820790558972 
0.1329301927200452 
0.1053777918767196 
0.1967140573512983 
0.1006892908622275 
0.1856319070289756 
0.1447153272632181 
0.1679852511746081 
0.1827547841541678 
0.1826737011799827 
0.1179221356454219 
0.17474670134412 
0.1249139548630397 
0.1579124162822327 
0.1097314470633743 
0.1688700177897522 
0.088356396455743 
0.1581797658929903 
0.1232146261664941 
0.1585672792101497 
0.07879889529628936 
0.1580036145441527 
0.1341456934632138 
0.1762166035464542 
0.1094689837403531 
0.1060724525731061 
0.1694737091104076 
0.11264821892867 
0.09688276474240984 
0.1378094937656918 
0.1199344546015698 
0.1471910062490474 
0.1127359769599059 
0.1386935187253727 
0.1097147594493546 
0.1557044730790516 
0.10090572307442 
0.1368277074642131 
0.1429186840797841 
0.09702206384088978 
0.1245710993764376 
0.09983925169866512 
0.1656517177500215 
0.1251786784421533 
0.1870340431996618 
0.1092499649197543 
0.1200711801285035 
0.1446098915629913 
0.1262635354657158 
0.15647368959239 
0.1046445444612177 
0.1695029390749659 
0.09401442105039154 
0.1742892478282446 
0.1235627167796435 
0.1796861813808216 
0.1470265638151525 
0.1637385942807019 
0.1660595966739904 
0.1453239916859445 
0.108518852004416 
0.1776955139539148 
0.1703464434198414 
0.1296355799859034 
0.2248813770774336 
0.1324607240159671 
0.2101416973077473 
0.1287434099680806 
0.1570229351362384 
0.1240431848626683 
0.1815766293541984 
0.1432337708825107 
0.2062442398963143 
0.1603468866760241 
0.2102395647379967 
0.1876416822380363 
0.1923539467519012 
0.1528249795462265 
0.1444720370398831 
0.1584755682987267 
0.1735855784877834 
0.164159914349315 
0.1320459573553033 
0.1549764305959608 
0.145387041004498 
0.1588339002594167 
0.1126467115367529 
0.1739878908575882 
0.1168177697536655 
0.138632462849268 
0.1440701297927935 
0.08976839984992953 
0.1109494339249037 
0.05091750679385171 
0.1494319320404953 
0.1095376689440168 
0.1921509742307135 
0.06858561439167835 
0.1144002184120992 
0.05224518208494078 
0.08538408493095519 
0.03436213706061515 
0.116198888078765 
0.07079364169789842 
0.04680947336297779 
0.02324029743942799 
0.0565674013945562 
0.000699635560114876 
0.06342193202135318 
0.06434590506113899 
0.1025739762984878 
0.08798247968903854 
0.0979996300058293 
0.104929996274042 
0.151767059599024 
0.09174308064312262 
0.114392955603314 
0.1383115746834695 
0.1247661889947425 
0.1210114196893288 
0.114536593426425 
0.2095223246907386 
0.1566447992089566 
0.1659269519106784 
0.1354262565027176 
0.209910396442356 
0.1213246114381829 
0.1779442931778089 
0.0922342108291281 
0.1736956312831499 
0.1441308924187092 
0.1777467663390968 
0.1247752197022274 
0.08834187512460362 
0.1171677173005598 
0.1001979835223055 
0.08337033967693132 
0.1188359484100932 
0.05583159263103733 
0.07543802273250062 
0.00815384488071245 
0.1240999614620958 
0.02729231874376398 
0.09577044531032904 
0.06266530525726607 
0.1044114413728951 
0.1054780043098638 
0.0978845838370529 
0.1440742035775911 
0.1206420088673271 
0.1429591607293849 
0.1511892039213343 
0.1149605481428095 
0.1825914061076151 
0.169748199070792 
0.1954738087702156 
0.1792615257271925 
0.1794747158161523 
0.1458566360135892 
0.1909149466403477 
0.1413159994336105 
0.1315970942515894 
0.111861352102578 
0.2053884112682325 
0.1126403084507383 
0.1902306779994365 
0.1347405644418841 
0.1708092522236851 
0.07587583162420401 
0.1809693677116251 
0.1299926875801752 
0.2020644059841413 
0.1002568105129008 
0.1918897579832946 
0.0647597075746921 
0.1850460811274646 
0.1211118814278867 
0.2161257370573555 
0.1732352802963602 
0.1406803785769876 
0.09930718602688038 
0.2001996041652971 
0.1233273728590594 
0.1526208059622128 
0.1066259039315864 
0.1595154462565294 
0.1283801668724975 
0.1417001586119084 
0.1665051993819791 
0.1897227236620569 
0.151706976626357 
0.1932568821863592 
0.1618650778245385 
0.1765684602706263 
0.149841377033925 
0.1336363470980571 
0.1278829674847616 
0.1743099844756711 
0.1022291133969977 
0.1442997025540516 
0.1059422455027688 
0.1675026626389136 
0.07531201300404455 
0.1755375619134932 
0.1293178258499333 
0.1600918373383686 
0.1392433382211352 
0.1604213174839906 
0.08738406265407123 
0.1860694802564991 
0.07308185706377096 
0.1487803188224626 
0.07751907802754023 
0.0992416080473054 
0.04058732661061099 
0.109539707575015 
0.0760381613869774 
0.1392935773097189 
0.06117431904722292 
0.06913307596464605 
0.04393164370952581 
0.008871424968950804 
0.05528487296272203 
0.06582306067047364 
0.0532976128921805 
0.09298114539773636 
0.1247994208076622 
0.02378606445484178 
0.1360753960954394 
0.05574266936670453 
0.09785222983488293 
0.03495372973287135 
0.08024493007664792 
0.03845928552844956 
0.1142185731291291 
0.02737714019552933 
0.1155132969519086 
0.03316932416619592 
0.1381789410336796 
0.0700143782664345 
0.1707558300582691 
0.1189036912114463 
0.124148614946236 
0.1188228270051257 
0.1250654678849267 
0.1388797293336515 
0.11094600689644 
0.1932775515910657 
0.1726114389572996 
0.1807336020598626 
0.2362085586531391 
0.2129106385823465 
0.1984176745507839 
0.2042694150655716 
0.181671262356576 
0.2172361172246746 
0.1495507658372274 
0.1813570546044845 
0.1629349949974208 
0.1560687917500847 
0.1897522741190611 
0.107183431936427 
0.2043258818954303 
0.1744672918854395 
0.2003403914441718 
0.09389020171855611 
0.1536361378399904 
0.0786214590015742 
0.2011485464192019 
0.07799322357353346 
0.1712886949984135 
0.1511062531090304 
0.1541756407190217 
0.1914839606854951 
0.1243956188607947 
0.2248421088181138 
0.1667746182905686 
0.1884974966332693 
0.1489863142087074 
0.1465694700725195 
0.1318624381007944 
0.144239106994252 
0.114939091875803 
0.1168702823278021 
0.1654516901072732 
0.1380372956356235 
0.204874658223872 
0.1031949846188825 
0.1782802716845929 
0.1205672979334417 
0.1968926343738989 
0.1463291424041731 
0.1717206110945849 
0.1356318805507881 
0.1567436693536722 
0.1324588535708221 
0.1643862844820824 
0.1308371575900274 
0.1598805007787387 
0.2125320630735069 
0.1363888403605157 
0.1450282089924723 
0.1063242157824699 
0.1718882783900741 
0.1313831620562205 
0.1566944662181478 
0.106971628536203 
0.1219063363143558 
0.1472281305716975 
0.08288229400152951 
0.1394625763571622 
0.09617587827753428 
0.1599751392534697 
0.09033649745146816 
0.129795841030307 
0.09730991353522407 
0.1687864804744111 
0.1162552446648487 
0.1466223125390069 
0.1281623885907701 
0.1230314064331764 
0.07193769083195252 
0.146957215429919 
0.04018268890510047 
0.1296861463223041 
0.03911075526054184 
0.1615923546109535 
0.005760318188930962 
0.164358439226598 
0.07734500769760461 
0.1479897599275703 
0.06234099642576846 
0.1321822212048179 
0.07238505626195621 
0.1217074338302289 
0.08293571845662544 
0.1410576843836018 
0.1051879483041996 
0.2126415083561328 
0.07706476203878307 
0.2051909424766113 
0.1445322155646614 
0.155824208067275 
0.1358485375808414 
0.1670529624055388 
0.1366444699630853 
0.1590805402928394 
0.1426328547262964 
0.1398681169557919 
0.1645688058072577 
0.1719706827187967 
0.1510132046089434 
0.1928087065299759 
0.1304825092463595 
0.1396470896688849 
0.09005758940934254 
0.1709443062002934 
0.1404628006482946 
0.159187302378202 
0.1178773446772245 
0.1670991723997687 
0.1016798768330368 
0.1322695016764947 
0.0676426036275273 
0.1699353495939633 
0.1254587853770677 
0.176020461246168 
0.1394318963093565 
0.1210953500030363 
0.1276433628070063 
0.1544428418182475 
0.1334784909494703 
0.1908331149916014 
0.1867383021455497 
0.1859215119310761 
0.1772007419640628 
0.2074954232639043 
0.2167267722092136 
0.2624079144439753 
0.1534977245145614 
0.2409012560391737 
0.1716665032536193 
0.188962892433062 
0.1746909109259077 
0.1838091577606054 
0.1406127714660216 
0.1757042779334742 
0.1152915041769361 
0.1528804273285444 
0.1947656336681713 
0.1207065230392855 
0.2080758748733191 
0.1363045137772823 
0.1585899132965837 
0.1548287294223769 
0.09503356193665435 
0.1611992209294697 
0.09884615884434608 
0.130614811803101 
0.1285404520072776 
0.1043155063841832 
0.128328367942446 
0.1330385169723942 
0.100447226202289 
0.1717282628601415 
0.1085628078161345 
0.1968426837411123 
0.1292539663893008 
0.1873070643525993 
0.1910411522860298 
0.1441577081168197 
0.1820084365559927 
0.221166324735776 
0.1898772025955474 
0.1427102639009496 
0.1691349350701807 
0.2232351008810226 
0.1526740987710795 
0.1939805903745949 
0.1289115280111141 
0.2179873369573782 
0.1073199167128449 
0.1595231416267238 
0.1451077585435305 
0.1224147933393167 
0.1472695379730323 
0.180629142690624 
0.1369168305207293 
0.1494440112655163 
0.1399216305713517 
0.1456591574942598 
0.1564875372512986 
0.1429427327932338 
0.1111517982979549 
0.196199158074001 
0.1341615636777058 
0.122106408827298 
0.1280712534624275 
0.151968803736255 
0.1134055866221769 
0.08400208963092391 
0.1726517512301041 
0.07771921657359539 
0.1944364534277092 
0.09733681353757623 
0.125961799267552 
0.08920697238772764 
0.1386205680583643 
0.103975091373443 
0.127941903195246 
0.1361462029990461 
0.0611091793583577 
0.1704816595244401 
0.06922361399940964 
0.1425899603616899 
0.1480386340795281 
0.1119090681475102 
0.1411002255669195 
0.1446517634062295 
0.1915604115882305 
0.168413254463627 
0.1638688835286776 
0.1135818487080735 
0.1268625079281414 
0.1090258864838421 
0.1464519311649984 
0.1466921696271256 
0.1776760454261445 
0.1650752358126377 
0.1635701657211601 
0.108748797795758 
0.1754286047713801 
0.1209146414125515 
0.1602454094230419 
0.1502507916435677 
0.1380886515053784 
0.1468113686974856 
0.128820169316597 
0.1297130644518693 
0.1408780250472498 
0.1428975281295443 
0.1653188369898175 
0.1532627790493885 
0.1337562141462448 
0.1043815839607225 
0.1934644944301729 
0.09683370256653272 
0.1473646370280473 
0.04689159046996706 
0.1474890930568338 
0.1121516481089429 
0.176019410589518 
0.09555735818164206 
0.1854459578262778 
0.07595115511998851 
0.2044108696003347 
0.1260581048347658 
0.181637192036698 
0.2108070687793211 
0.202249977999534 
0.1800011901685287 
0.1804725000234504 
0.2379036531625329 
0.1784268793338959 
0.182820477656774 
0.1368013759500816 
0.1687213334837672 
0.2099160308955721 
0.1714926704928363 
0.2122053280023449 
0.1517827542346499 
0.2176366210659347 
0.1323083595032563 
0.180142814163065 
0.1566419855933318 
0.1636580640148627 
0.1316490740405392 
0.1647936037111485 
0.160672999303967 
0.1868837606607595 
0.107587797549957 
0.1742885931758131 
0.08238625137020403 
0.1729716662260553 
0.1398316100400162 
0.139407911168017 
0.1394403155132189 
0.1413889382996583 
0.1288312235953629 
0.1755917547297229 
0.07772810198885677 
0.1373456135681358 
0.1042202118929619 
0.1294435235792498 
0.0951445752632552 
0.1077767584568589 
0.1097123110517892 
0.1028567941498123 
0.1811896823058632 
0.1056818302647466 
0.1358311523039108 
0.1115056473661234 
0.1458591852369401 
0.1071554673042274 
0.1715594078966348 
0.1352720485152072 
0.07500981414679093 
0.1365736190031557 
0.1598125312714454 
0.07900135136786093 
0.1645225409135979 
0.1087835749889115 
0.2128783476965756 
0.1348233367337978 
0.1864207785259961 
0.1347790950924789 
0.2106570112193896 
0.1193004469753207 
0.2167940986656073 
0.178423075414372 
0.2098141698088689 
0.2011989889170247 
0.1513391329456168 
0.1808022773179379 
0.1818385481418313 
0.1444349535534477 
0.1950103434747854 
0.2152687603951639 
0.1445146279865701 
0.1551586179510951 
0.144864176070051 
0.1252307378896488 
0.1887500554100022 
0.1921527406838493 
0.1626570891191692 
0.212868328903343 
0.1231470641173208 
0.1795841908963621 
0.1685976643653587 
0.2064669032304643 
0.1192982339310523 
0.2316307014286071 
0.1519284552024469 
0.240719911846391 
0.1635569813934427 
0.2207795930228204 
0.1313195306238706 
0.2150648906779294 
0.1714330635893357 
0.2082360739271509 
0.1556784386889054 
0.2014844730923125 
0.1537588145994865 
0.1994005220897271 
0.1861476909615364 
0.1536155861863423 
0.1244861208866466 
0.2406992614224788 
0.1567728041805206 
0.2319114978274274 
0.2089462369970252 
0.2237747027128181 
0.176965938683892 
0.234561224790254 
0.2099764462690951 
0.2950394051550834 
0.1497890853001162 
0.2437457407324016 
0.139875783735428 
0.2522677779750706 
0.1501404884375016 
0.1560385529017337 
0.1326352024272808 
0.1730672828010624 
0.1785328427972133 
0.1875623725765785 
0.1875196140056867 
0.1666665853238871 
0.1561155664764034 
0.1818426445791778 
0.1467387135144438 
0.1904321846083437 
0.1866222783427095 
0.1932197762963066 
0.1454568917801916 
0.1678885455018056 
0.1406381833337594 
0.1888380743713373 
0.09699406635243388 
0.1275300850496807 
0.1727269998558627 
0.1110135224112771 
0.144360307010775 
0.08786455593934234 
0.1457283950085501 
0.1210294645760614 
0.1397151322564951 
0.1842305739370164 
0.142842345587063 
0.1569287229916564 
0.162287341821591 
0.1998195825978357 
0.1795737501650979 
0.1699377032511158 
0.1189720140332838 
0.1310675684387572 
0.1410791031694 
0.1442866891259575 
0.2084769373952161 
0.1807977063064485 
0.2167815979933254 
0.1206364269669967 
0.1998782199813973 
0.1584320595046336 
0.1557384289346709 
0.108258328141569 
0.1462460074695404 
0.1318410126581608 
0.1204419838444598 
0.1650599571962111 
0.1236584818854938 
0.2052325336506756 
0.1400602918880833 
0.2368800450297332 
0.1368592761112427 
0.1906837733288035 
0.1317791747697775 
0.2533350998366708 
0.09973523686246344 
0.2800839022803031 
0.1134767404590962 
0.1844273198013753 
0.1475727766516022 
0.1674987612101187 
0.1899616200611229 
0.1899840091631686 
0.1425098422104495 
0.1750516112162274 
0.1478009061598174 
0.265338505692864 
0.1233173042210477 
0.2240500375818224 
0.1625210330546523 
0.2313592123261581 
0.1638226753143567 
0.2325397556491724 
0.1727685259886625 
0.2034617287605555 
0.187172564140324 
0.2149048385644328 
0.2122642394300516 
0.1955058829691626 
0.2341781306621103 
0.2925251855830139 
0.2485851774677678 
0.240984659106746 
0.2819161592424349 
0.2031596983833329 
0.2624638846908899 
0.1916054262318121 
0.2363050145714678 
0.1817571600103616 
0.1887379621812963 
0.1707270691399299 
0.1823007911099324 
0.1691063053685384 
0.116134124261308 
0.1911111336297975 
0.1683706485279385 
0.2144279414869454 
0.2110762346765771 
0.1953793923477818 
0.1925974150396055 
0.2059704840268352 
0.1800382998288638 
0.1788865301123852 
0.2243111259114809 
0.1674950211166849 
0.2175732851517526 
0.1950633452100873 
0.2255976800200042 
0.1736462660990301 
0.1832331717480232 
0.1794804389010151 
0.1787216597694069 
0.1621298840812987 
0.1388654042614892 
0.1997784985022003 
0.180828554698737 
0.1964015722756596 
0.2067517192903527 
0.1863802521766822 
0.2236981933253559 
0.1512091244007588 
0.2519555467077896 
0.2024424397602893 
0.2335573635677587 
0.1823216802285406 
0.2053735260049914 
0.1618599637051809 
0.2336663035851951 
0.1095705720688038 
0.2123834810573829 
0.1212146134715595 
0.1731978292925513 
0.1712400884162249 
0.1479206663272283 
0.1601132501738175 
0.1999677985139511 
0.2195499965113993 
0.1111401484457677 
0.2008210067006362 
0.1160934520398818 
0.1793745806322876 
0.1119248472065702 
0.2138091395849082 
0.1557117051948747 
0.1777973815250502 
0.183407292741591 
0.1911261453115492 
0.1820100303313798 
0.1889208890918636 
0.2276291076042935 
0.1373902618492537 
0.1822313038466168 
0.1130471495562992 
0.2313804081558289 
0.09831761678504607 
0.2189749802848773 
0.02978597489819159 
0.2539785239145588 
0.108429241167164 
0.2515954144033501 
0.1380871036142858 
0.2692793731620054 
0.1333689227337189 
0.270074170972137 
0.1191591671690109 
0.2251173105091302 
0.2136205761088388 
0.2129858435887671 
0.1878989125692243 
0.1927303386666809 
0.1878661241269277 
0.2021964680940381 
0.1332001807411757 
0.1829111538303525 
0.1544145979571099 
0.1648359311108238 
0.1803651443469527 
0.1923507079745827 
0.1533349637389084 
0.2056859645941339 
0.1440634324436107 
0.1750362077811939 
0.2074468983183446 
0.1320262728453079 
0.1839100336623131 
0.1977722963298348 
0.1681749107985633 
0.2107942726252586 
0.2201883030055187 
0.1678480517807759 
0.1903861414188053 
0.2675632228334945 
0.2181517168294493 
0.2277041864042556 
0.1734808211669697 
0.2522052163934712 
0.1875428943152194 
0.2154012103884435 
0.1751559550700787 
0.2732243098471895 
0.2079521414688156 
0.2581584894105213 
0.1881515039154767 
0.2042865822114115 
0.1897709852119233 
0.245425529270874 
0.1810892848694421 
0.228888124584181 
0.2001145944806115 
0.2258500964721393 
0.1978135380149913 
0.2258487797963649 
0.2052362010589782 
0.2834991126684963 
0.2317666980330015 
0.3151765544326617 
0.1915081720999102 
0.2900785947477525 
0.1726424662189825 
0.2910136920068274 
0.274741078464124 
0.2661041409885135 
0.2205305847779045 
0.2763673861218438 
0.1900830194365419 
0.2280571791740135 
0.1821198729788333 
0.2271103141891943 
0.1961040007651412 
0.2208828497069125 
0.1803555358385665 
0.2105727509615638 
0.1964819028327954 
0.1683818596828916 
0.2007825284112777 
0.2072196154277698 
0.2790305997319246 
0.2760198100156961 
0.201523604311628 
0.2619938610384994 
0.198730639078195 
0.2597397547580461 
0.2303251196829625 
0.2954523552294082 
0.2137565443524065 
0.3063801031635279 
0.2329490780354308 
0.3265528273040105 
0.2887620410015169 
0.3017494446644037 
0.2850052128498849 
0.2540300875072719 
0.2799072570727414 
0.317832039320447 
0.2359401186651511 
0.3491575844116552 
0.2127369275977401 
0.3135910880372821 
0.1941637771192766 
0.3032605048329704 
0.2075658537813541 
0.2744711249368004 
0.3061670686083809 
0.3271712702570516 
0.2629586546535622 
0.2631474161569221 
