solver_type L2R_L2LOSS_SVR
nr_class 2
nr_feature 1984
bias -1
w
14.43605303206831 
0.9830537144660227 
0.6282834990132952 
4.47202203831406 
2.186123837070117 
-0.9698400207302024 
-1.427736184578465 
6.407663398730403 
6.364990585998331 
-6.936178470845465 
-0.8857597499678359 
5.694559305582929 
-2.452744572392751 
-3.490444534737269 
-4.574025995221806 
-6.113605052405872 
0.3835877394616959 
4.584960550069607 
-0.350702983555522 
2.319371273374954 
8.59452455769607 
1.103995588929723 
-12.99115011874083 
-5.33679313208861 
2.584873049171332 
-1.855029983151157 
6.509934335792704 
1.574706669811219 
-5.506360566860788 
-5.956575321850159 
-4.186877267847078 
2.737735800651745 
0.210721857313281 
3.093891239139912 
7.333648260253027 
3.73311881597723 
-1.111110839677683 
-2.144335343317091 
3.121081104079449 
8.043740392064503 
-3.954811961812859 
-1.639129921080911 
-2.896366689662491 
1.184742547412717 
-4.667848222499313 
-3.781515465444548 
-2.517432487407898 
-1.244814390675661 
5.962767337806996 
1.916551502243133 
-6.023230057596114 
0.9044414494250588 
5.667343325215194 
-7.43726730252453 
3.652277387528851 
0.7553071914154281 
1.197260146547577 
-5.811011158926857 
-4.055386882153192 
2.275534004889403 
-2.728883196795667 
3.285019327374106 
-1.667376856376485 
-4.705959081171351 
8.725157681730856 
5.92404233128571 
-2.435194706816783 
0.6374963063656268 
-5.982529615729597 
3.362140473582203 
3.974217510938678 
3.12982834372819 
-2.733583336276273 
-8.610327474721396 
5.09476636266271 
-0.63230438731371 
5.44533426484411 
1.360347803170172 
-0.4972358528056294 
2.609266757231518 
1.019998301242045 
6.154331638180055 
-9.177386514913987 
0.1062937903679803 
3.370513588283543 
-4.929352779241579 
-4.662456962746624 
12.24699854261544 
4.463753772818053 
-5.985226841420679 
4.05101836240296 
-1.270685461213179 
0.8071019363523629 
-8.751794322223629 
-8.305444873889053 
1.300047382698035 
0.7686071836447682 
5.815485670710525 
11.41130771050746 
1.719287870624532 
-2.262792851208836 
8.048701242188812 
-6.741303909637449 
-1.686926833510705 
1.650753539961536 
-0.5664647665602298 
4.864003525101385 
-10.51336005110042 
-4.191512355741825 
4.087232174366051 
-1.928675371036628 
2.249459678292631 
0.4570830032855038 
-1.641769656571113 
0.2637698431163538 
6.813000805210725 
3.763376157279264 
-3.595854703779156 
-0.02708633966503206 
-2.395122370607908 
-7.865847092075216 
0.3811103277898983 
1.568385694478128 
2.853202504679154 
-4.54648050848907 
8.039237737240713 
0.1305886901083523 
0.4584169265796239 
4.370754199833104 
-7.353111620026035 
1.989237276088232 
-3.146794686639503 
3.526028153313656 
3.20619406935703 
1.490220735201707 
-1.231900742487561 
-6.400448651103599 
-1.860292873921717 
-1.338782326781615 
2.7342139668115 
2.369982848310688 
-0.6432069643956545 
-7.961577793691914 
-1.306091142234902 
5.779358658974951 
-2.881527336026313 
1.71888707784023 
12.0318970264316 
-6.371124616654121 
-3.536579398116797 
3.355833509374069 
2.594707647764344 
-1.1144591103147 
-9.743589250927089 
3.580724302126683 
8.75743906015623 
2.514276003920923 
1.643384499275238 
5.884199078400277 
0.3181287532867986 
-7.519359071038681 
-6.343127613919818 
-6.331876441815478 
-2.495947082293367 
5.241257585131803 
2.976593070455418 
-2.467165537251158 
-5.670015843302647 
-2.933633456175189 
8.841202806434884 
0.4770961812467398 
-4.767636837353575 
7.557502761232615 
2.587060646552477 
3.995488730430782 
0.5761940348077468 
-9.97784166562179 
-7.602475165969701 
4.402435785616931 
3.464297745002261 
5.461596043977366 
-2.406280855714315 
7.47698955135061 
1.74841403943615 
-1.039376636498466 
2.379669293801836 
-7.169507940915054 
-1.143117809953692 
-7.690826072788152 
4.422564376778895 
5.723242681947006 
-7.127260454005203 
2.636400077972643 
4.809582255525721 
0.2937000578862459 
0.08446731330006932 
-2.494513624600931 
10.86221358525263 
3.099601539466125 
-11.00461948301229 
-2.956073364817978 
2.482643671371481 
7.535808664188385 
0.4240884002992331 
-4.140946218942864 
-0.952496895020463 
5.077077762831641 
-8.405679597045438 
-7.772838672382388 
5.805121638718414 
6.382799703217416 
-1.673937463087316 
-8.552491198429157 
6.559763107819554 
-0.5660932737933888 
-2.492836680210164 
6.968212320501215 
2.855087684184576 
0.255401476201039 
-6.43230175229793 
-5.364147054330048 
-3.825464752689916 
-7.363727678775002 
1.315798321450863 
10.39790546435417 
7.471666694880688 
4.989074554168528 
-9.782686592674178 
-1.091361697911872 
8.937506565726069 
3.274390069453601 
-5.994104111008306 
-5.929436687996128 
1.168574045113214 
-2.117821436983652 
-1.402675727041026 
-3.45481800505646 
0.7451785210555626 
3.925583628599423 
-0.4064032419908131 
-6.486465584544691 
-2.869679366018656 
1.987574533532804 
-0.3860328107034292 
5.536828190839294 
-1.92872121590505 
-8.597348657166306 
2.043235025790859 
0.06557640131095799 
-0.8197399228326399 
-0.150875922137741 
7.293332058577738 
0.2247467613447025 
0.3960952574466622 
1.518359194693359 
-2.069080120067335 
-1.926131573986031 
-0.3476181102229852 
6.487442057497788 
-3.124324637345876 
0.7802170454173701 
-2.396835918983096 
0.9101741580423076 
-1.226074356612733 
-1.057637330875359 
-1.244423431901815 
2.727684076210804 
0.1834753877896113 
2.950616770859625 
-1.000937409659198 
-4.329771142336652 
-1.316364557340472 
-1.110188699514389 
2.370100823857363 
4.192602023357979 
-4.62171541845809 
-6.051287805680803 
2.075103491180501 
-3.085417267621717 
-2.354036886113592 
2.689343216853487 
-4.899653889064953 
0.3642078745734664 
6.796907518001961 
5.183936546596728 
0.6836501958015199 
-3.569090975816423 
-2.327267049156859 
-0.7377271118014928 
1.757443238364925 
5.490929919135647 
6.561854868136694 
1.164458030405522 
-2.09257098352016 
-2.74957480260017 
-5.369205923126715 
-0.2780889295522257 
3.769823919759939 
-2.533223712714303 
-2.178823253028065 
-2.361443169884584 
0.3118775594706155 
-1.480353940830309 
5.11379076246358 
-1.672775553646387 
-7.09236253257463 
3.308178158979971 
3.938524974886014 
-4.110689304505334 
-1.429639263528653 
2.134620821608501 
6.324549939584911 
-0.7395201969527392 
-0.04400944960343907 
6.351130372200738 
0.09062662616386905 
-5.999193336306604 
3.260830252733475 
1.955289578399169 
-5.202518024380278 
1.077102830697908 
8.948064485172331 
-4.502131253470828 
-6.450291246967453 
1.437343215052441 
-2.112153884078115 
9.595954973521133 
-1.922948892550987 
-7.21232203161362 
-4.531353741744035 
2.005279787569037 
0.9956331557319162 
-1.07021959385024 
3.391221872535759 
-2.1827198914604 
-5.117670712744618 
-1.606739219601745 
12.21758796244329 
-6.138859993639184 
-2.5347850865762 
10.45882436988398 
-0.1351271905515371 
1.660364606791215 
4.178667985613171 
-3.677706078779351 
-2.989202156544364 
-3.389029841920211 
-3.124927152255259 
5.670848752758702 
-4.18869809288923 
-12.24086213623297 
-1.317634004830176 
5.811210415267575 
7.816562956818166 
8.716691924877694 
-5.947208818260304 
-4.039750554361302 
-0.2933124368715818 
-6.598983900516518 
0.9007575340484185 
2.596846976997074 
-0.05065146261635436 
4.311447276655177 
-4.672387692701064 
-0.101462758471911 
1.866506747223845 
3.23506626865582 
4.431707736867057 
0.134964792011499 
1.776907929780463 
2.592079134799992 
-2.014132315699641 
-3.123611678020619 
-5.075100096867388 
3.663049052068258 
3.141146000806403 
-1.597512106715121 
-8.02081849329551 
-3.580379021862707 
7.1753040250372 
-4.109199406080198 
0.8350810417788604 
6.022368143802131 
2.567863186363951 
-5.499875477042867 
1.826053196821362 
2.159676055806436 
0.02993292496031158 
1.026319051471062 
-8.560672194958537 
-0.2460959804570081 
-0.02279288015373481 
3.37868088357184 
2.186733974724277 
5.84466801888374 
-1.333374470286228 
-2.427410243669235 
13.28177429375857 
0.9860827859194673 
-6.491193809590007 
6.521250357817054 
0.5044529614003089 
-4.850003321765989 
-0.4094967364742386 
2.777251792535115 
-7.156292590235637 
-2.784768120846938 
-0.9285308350156372 
-9.811659898608099 
-3.595459924161633 
10.71961164617987 
0.8931621849376039 
-6.448615074098338 
3.554228767888606 
-2.176761113331657 
1.463120359487861 
5.864023558874883 
4.183098151061434 
0.8059758832134331 
-3.894780821915657 
-3.735950758666998 
6.457209519647184 
7.528283242634187 
-0.1098165820728086 
-11.28325784334881 
-5.538284638232538 
-1.66882436888242 
0.8229016947227178 
4.817525972172305 
7.282219999301571 
5.149574330305585 
-3.639405413453192 
-3.974379444408709 
-3.395810948889022 
7.919284072666931 
4.063397489448606 
-2.168519126573847 
0.9793366461903854 
-5.441367719058614 
-9.160437143376228 
8.986316546018394 
2.608825155787799 
-6.700831522171744 
1.411443728117804 
-1.335528141052724 
0.8527088273876297 
-2.274069415231511 
-0.7668861929334946 
4.931298793249574 
2.675495209778 
-4.850305662694024 
0.9673545944721462 
4.673966240944402 
9.489382811522574 
-6.965361944161749 
-5.629450886732746 
0.2896611218430576 
-6.431501293877268 
4.862158417397885 
-6.496149392672256 
2.190138887220194 
1.817300534509943 
6.186044257859174 
5.118230598800862 
-6.7268874398819 
-8.102224185849355 
4.355021499806516 
7.230318072952016 
-6.333577354040664 
2.619703710954812 
4.813266724252104 
-1.971220406026347 
-4.555933307412979 
-7.386384333512376 
5.967284584200015 
2.045934945992804 
-4.481567018279732 
5.036644163935572 
0.03234636961385567 
0.8437090724243981 
1.720865097089137 
-2.323363559536267 
1.169161988749118 
1.121557172819204 
-7.256255304806944 
-6.849783628132553 
0.6838415791207096 
-4.132892618947836 
-7.090471872466157 
4.545992913245628 
9.557905811947119 
3.033931101935662 
-2.845233829367984 
-0.7061221444618436 
1.881465599627995 
-1.887515479389399 
2.050139040885671 
-2.365492331777511 
-2.049178400972497 
4.859246996552406 
-4.549698700988302 
-1.990552329896491 
1.287035297888924 
0.8851119424031275 
13.93610681178755 
-1.449981850426771 
-4.822147583979924 
-0.7400826150186486 
-1.223302789682507 
2.009500193687277 
-6.16875912459997 
2.121339553891357 
0.1211542682648259 
3.858120715012899 
4.829783481862129 
-5.801995689679753 
5.428294938926649 
3.251737165478655 
2.296202753315268 
-7.609840866695585 
-10.46529028311732 
3.906672771826338 
2.275665666966528 
0.9591545688695414 
-1.277947278867257 
-10.11427967145176 
-1.758548206637462 
7.943433512863612 
7.88168834759459 
2.025994254447133 
1.561546778702997 
0.06783761272160924 
-7.992141741033991 
5.755566675331157 
8.864901627283897 
1.201765490607746 
-12.42052621228283 
-5.673369218418877 
3.308005224472164 
-2.865967784277839 
0.4701408185885174 
-0.06415478532545385 
-4.36627986030545 
-2.791072716896136 
1.871980443376428 
6.519153738745768 
2.197028841084826 
-1.73829442240954 
-0.9571962100945343 
3.233095528863783 
3.395928042052923 
2.2000270007803 
5.32208911602862 
3.285134785061682 
-2.734030339277383 
-3.145094821527755 
-2.747739089243817 
1.076180790851714 
4.730975781448976 
-0.4058158857557527 
2.034779682058862 
-2.559987933427113 
-2.964310955060323 
-1.335205708946282 
-4.743965434867167 
3.539538049637919 
-1.760957483200704 
4.591500234847645 
-2.849310694451268 
-4.28859989721756 
-8.655146189920881 
-6.506874284315292 
10.6024761856294 
4.081684300259523 
1.060654360925757 
2.808460061554601 
-12.34618331152547 
-0.1576813353883698 
3.147505906678936 
-7.831363387103779 
6.777631350130221 
6.528485989825002 
-0.3141289366752182 
0.07622655176168475 
-0.760975185816368 
-3.525459266894048 
2.728240741312507 
-3.293100794278527 
-0.6874261039131317 
-1.646786992055641 
-1.708886674224152 
9.341605895520525 
4.552200063313196 
-4.984708213400487 
-7.546328334899798 
-5.895560212770635 
8.46980231091286 
10.47233004935425 
-5.176076962375638 
-2.838029140847897 
5.660556858860121 
-3.055137048205909 
-4.980665554442435 
9.347358516461302 
-1.48627924713888 
-3.856912229481969 
1.842035039687485 
-3.429555059759291 
-9.117436886855799 
-4.362817904449173 
7.134907585696101 
2.856159921790692 
-3.284991397655778 
-1.304917172829721 
3.741787600095029 
3.988785467605114 
9.155167600838409 
8.204807290742414 
1.558885535711499 
-12.40702194424007 
-3.562424090210943 
6.970670794934652 
2.044481904089734 
-4.997802309689572 
-0.2370593031056368 
3.855074065912531 
2.681870384028202 
1.55286072464077 
-11.71379447210482 
-6.668472176314048 
2.895551329409508 
3.29098274719047 
0.7996482796282383 
5.169107469707654 
2.020481849395647 
-4.285178365072995 
-2.880568311299334 
-4.213445114179698 
-3.473021491082519 
2.345139863208019 
6.118201228256987 
5.323946945610526 
-2.956137540465132 
-1.362226092461972 
1.441223480674697 
0.6417264161550459 
5.330977681073731 
2.129370902787366 
-2.247160246309761 
-1.758274209344251 
6.633359382764762 
3.35958541217719 
-2.735791107238901 
3.190760531052848 
-0.2362179423188633 
0.175124096388467 
2.59561946773887 
-0.3520727972939138 
-6.108570274556358 
-12.00813872303472 
4.0011160002118 
6.966350623971364 
1.915812858547409 
-8.688776707038921 
-0.6642849388542941 
0.3737426736551339 
4.900056003501003 
0.4193527418107545 
-1.084560513229724 
11.34979172226249 
4.583083383667101 
-8.308202541892776 
-7.893331068756188 
1.478355732701617 
-1.22317407098914 
-0.6945499932937993 
-1.785538617053333 
4.756743687328533 
-8.45726825748284 
-9.428917144428194 
3.281878041675204 
1.500886411393028 
7.732415206518074 
14.25676229153057 
-6.149483752976076 
-5.625363462359136 
3.62984915051886 
-0.2573824098915521 
-0.4563150563613387 
-0.2508009332155803 
-5.382602039092186 
0.3822293160242077 
12.60350586668585 
-7.299597603516524 
-6.196891191314951 
2.108399045231411 
-3.521343218533672 
2.391176160740439 
2.253750926948611 
-4.033344535468085 
-3.079326405711571 
-2.940869910185574 
9.0100606223552 
3.393313461002921 
-1.054144689989333 
-0.898013638945514 
-2.699234045210027 
3.058107617152322 
2.877587823876901 
-0.760009111768863 
6.479770321379233 
3.812281737695506 
0.5361026319871195 
-6.287138379189372 
-4.952091350062434 
-6.809970961985409 
-3.190258218594977 
0.2288919990011824 
2.850432636063345 
7.263618477535221 
0.5764464816318577 
-0.02247513936050453 
-5.85808337083124 
-0.925679874355035 
8.960973523589292 
-2.949985082157231 
-3.933648641568647 
0.7162964384984035 
-2.083572334474811 
0.3067510948462729 
-3.172635339311003 
3.335715892005665 
0.2358117048593935 
-8.368840992859992 
2.04671277142106 
5.191730364197923 
5.421106966702372 
4.042601935063979 
7.069644170052796 
-6.600763271809376 
-10.68216679572354 
-0.08939509619766048 
3.097888764843443 
7.733502070269128 
-4.574407053343734 
-5.430964751691905 
-1.831605123728672 
-5.214492641401775 
3.772358804922707 
1.090479103878658 
1.171676608644542 
8.135908555315766 
9.329282343878416 
2.180407656904892 
0.4417697012348283 
-5.473174915452057 
-2.54519009902664 
-1.266520729512378 
-8.916696995262244 
2.526291198032821 
6.35357775894267 
-6.561596130078974 
-8.350249943430461 
5.044887836442989 
4.076139608153623 
3.358755035158094 
0.1460558620622608 
-1.368944654391395 
-3.528015532980247 
-3.44127115192321 
-2.303212929084346 
0.5526512827122587 
2.719302516637794 
3.208496901808507 
1.830602593883503 
-6.379064486957508 
-0.7781842862936207 
5.736659129399183 
1.634922131049383 
-4.772291030532063 
7.528400755754898 
2.047861324700587 
3.304435306322138 
-1.532628741642359 
-8.628571080352105 
2.079528582232678 
-7.917937352268795 
1.422644954700651 
1.614953592907053 
5.127376986963601 
16.43931868718572 
1.271482405457808 
-6.789792819501063 
-6.083646586838858 
-1.525561739463081 
1.135392063071272 
-5.239478675315432 
-5.778033052118035 
4.208713880493483 
-1.109398168379712 
-5.09875835596817 
0.4870688746528098 
0.4141983745712117 
-1.250298371522563 
-6.749372860146342 
2.932657179577846 
6.353887438752347 
-2.053199975729344 
-1.341173324179154 
4.672252090285607 
9.079919777161932 
-1.17547482779358 
-2.930383264322356 
-0.4975362178381685 
-4.874481540599839 
-8.296825332841633 
-0.792969787339536 
2.754361051230194 
1.843774607607848 
-0.1489235612259009 
2.274387528387222 
-1.952036458879685 
1.376275532995235 
-0.993436688872547 
4.359991937261395 
7.73899428094904 
-2.018315127157099 
3.899580199064576 
-4.012018406516892 
-7.629463959991337 
5.081853553370314 
-1.876164612628069 
-5.068483409189147 
-2.749205964242923 
-1.377466776081714 
7.06486407592312 
4.705224144729658 
-3.3314125264419 
-2.877381316880099 
-7.393710737041733 
1.04903294126337 
8.021835318295979 
0.5713317094123868 
0.7989233896271106 
-0.5309314759744117 
1.258906322744378 
4.967343297551404 
0.08585376168478284 
-8.52661838800533 
-5.514147156807645 
-0.8505913328362065 
10.04348713950769 
3.691896488119867 
-2.402998933670638 
-0.2207440665815161 
-1.020484513291506 
1.437993026810398 
-3.482561030660477 
-0.7883298043911198 
-5.004527000747252 
1.393326224570722 
9.540979869214452 
1.331451696373959 
2.830716486992604 
-4.368948900339038 
-1.394163701319697 
0.6087490712610443 
-2.555405629051649 
3.865222339225986 
11.05724108777359 
-4.853252384388799 
-5.880015713342227 
1.2415146411774 
2.046748028251287 
-3.746598668031116 
-9.158813531425411 
10.95657586431882 
-3.135245431640828 
1.212851445735703 
8.092287192720153 
4.076240766584442 
-2.400135182467197 
-10.44689896819511 
7.211049641819647 
-0.3163226726860786 
-6.330766973893851 
8.806920077991744 
-1.884678123272049 
-7.777174860685758 
0.5673247089366591 
7.541078995569776 
7.160359020873254 
-5.014362485301057 
-1.258660927542213 
2.323831428544122 
-2.598722936464283 
-0.5372447934626868 
2.216046655190405 
-4.569915294064255 
3.529109295863927 
-2.103724891706304 
7.144719476612376 
0.09329506647206784 
-2.672555233964825 
1.584594214468814 
-2.74992692438579 
1.139359771998284 
-5.840643037453809 
3.621167713388243 
2.355721167682559 
0.572784976186709 
-0.6501850204723492 
3.904020691899951 
-8.389296163277882 
-8.004066478978261 
10.74587618941123 
-1.414171436921726 
1.051318720327623 
0.07886622418672505 
-5.191613941560933 
0.6821989363395019 
1.315561506900355 
-2.187295819393329 
-2.113366392030289 
-4.106867206069317 
-4.159938913083913 
8.037790436748782 
10.15711503559237 
2.407559905324787 
-9.537183974039248 
-0.3052467977868795 
5.076397206884149 
-1.99667097392382 
-0.2813492378236004 
-2.335482819903862 
1.741931500816629 
-5.520837760626772 
-2.362334300741622 
10.95337232480655 
1.580661880151965 
-4.012472703995381 
-7.055969687478273 
0.1278283305573026 
-2.194486797482353 
-3.418139707189164 
4.472039859434224 
-3.467766673667374 
1.318162307478246 
4.978918955544936 
-0.6276163575408652 
0.1752919689461425 
4.536334650709132 
-9.010457660082984 
-11.67317703694828 
7.710152801454041 
-1.470431794406317 
4.259449237792984 
3.84953142051594 
-4.403148784052649 
-0.8044412418179658 
10.03088249985669 
2.840461868073065 
-7.131668186748225 
3.655563566142333 
3.057532129119995 
-2.330216983359697 
-5.135799321368417 
2.936981590679008 
-1.748613775099031 
2.643699818881598 
3.289121801081021 
3.814999981887773 
-6.424225934531083 
-4.257307861441097 
8.433708906871239 
-1.473438933800174 
-6.493042990983191 
-7.500506889406861 
0.6031265167781229 
8.277110114057484 
0.05254464373310347 
-9.476787685428596 
2.767300003930623 
-3.07630089424961 
-3.474059650626808 
4.240104224233544 
8.077959989514477 
10.97087391591993 
-0.6076463285823367 
-7.36183893659526 
-12.16965211678255 
1.165885015259743 
11.90700719061975 
-4.844740604673454 
-3.906571981543056 
0.02119014010617031 
-3.320244213840237 
4.192716852200259 
9.834667404878523 
8.257394947716985 
-6.759179103617326 
-3.05475071655149 
6.218587125516333 
-2.187476572732454 
-2.121032377455096 
7.934114655693327 
-3.85219972866491 
-2.446753161938956 
3.94663271226734 
-4.203563066097746 
2.597744686572938 
4.33195106526736 
-0.6443545533810343 
-1.949655931388681 
2.32551451787829 
-0.5142815836473706 
-3.778354230570834 
4.401000993092529 
2.701361275718973 
-8.576454063074953 
2.868616123281711 
-3.851716002910358 
-10.72568807613958 
2.218277749022713 
10.37585940748458 
5.960828241048778 
-3.240499881502127 
1.610893048871421 
4.735535334549067 
-1.399732015209227 
0.9803168478979624 
-0.6004182780155468 
-5.125180502531185 
-3.185630875414861 
5.710211889768193 
-1.587067945390424 
3.689758545653218 
1.643890330170407 
-5.411504918081021 
-3.373773418682339 
3.381634064642408 
1.065156023546821 
-15.82408007151581 
-3.64089912691305 
5.166139476937392 
4.22087592051151 
6.937005964567478 
-1.049770968567038 
3.215289133423922 
-5.525071786068277 
-6.757307792852261 
5.367311403138194 
2.39446118198505 
-2.037897213220825 
-0.7634656631255927 
3.29012954731565 
-1.088796318770264 
0.6972094746761588 
3.188113151715086 
1.587435569291945 
-5.959321738895142 
-1.75645673499486 
11.01732059292145 
0.3061550597817642 
-4.483324316035717 
2.292963816061068 
-1.284327554972784 
-1.605961894054006 
1.60035557033797 
8.765362278562172 
-1.973099338456128 
-2.639030151079434 
4.269662035829965 
-3.299082348951195 
-6.326407979015586 
-7.842556864117192 
2.810622912144179 
5.135524184814206 
-0.6388064310789446 
-4.378132042466222 
-0.3964445846863485 
4.413313302870742 
2.201019323192323 
-5.182442637392706 
-2.947870566677104 
3.232947372297966 
2.837693113260866 
7.530172405113383 
-1.88308314523228 
-6.005155354369812 
0.3275361007173988 
6.004542020443449 
-1.310838370674229 
-3.340201262878351 
0.9702762070202593 
-5.107105366086509 
-4.239928828015866 
5.019718679975787 
1.935982460609481 
-1.048904512435532 
3.773157615597923 
-0.6577364835333255 
0.3422007721642267 
-0.4813977240069301 
-10.40146103876122 
3.571318030435212 
3.031156483776496 
2.644767331328973 
11.23470500665507 
4.089713821126273 
-4.001261687921707 
-3.990090386621584 
-4.455549082481062 
1.885529768207873 
-3.037848839959404 
1.164955836613754 
4.390309339155621 
2.482247624432608 
-1.353787468888226 
-1.861073836594801 
-4.207782421112999 
-2.598703187916214 
1.692906411852302 
3.743008992231461 
3.294500437113967 
-3.103316755016428 
2.200337651438009 
-3.336131203406072 
3.28289175487501 
2.390306580175459 
0.970436654639497 
-3.754660228601352 
1.195369285780706 
-2.5801940439014 
-1.864445086940588 
10.18805240862964 
8.873659521740844 
-0.06713100730071168 
-10.7591131093029 
0.6795003589130444 
-2.721629706200719 
-4.701572778670064 
-3.118237813098804 
1.550056964063431 
-0.6559482888192758 
2.146383472564906 
5.866736526693353 
0.3701205295025502 
-0.1088502550239798 
-6.007142189701701 
-6.123426360794007 
-2.163396114801396 
7.544840480652437 
4.085697951996432 
-10.01462488640505 
6.328274675587898 
9.122585676135815 
-6.28295186843981 
2.769573422597368 
-6.38135430383616 
-8.965620244949401 
9.168570334092241 
3.349963535726704 
0.9761578231964434 
1.810811133708336 
-8.017915590758101 
-5.518103144538751 
9.09714669246225 
5.244755938683149 
-6.347361211103509 
-7.338571596576153 
2.645941388977551 
0.9570116812040376 
-1.14554413554392 
3.104963578244902 
-3.120198379068477 
4.535860648611268 
1.783284973804407 
8.539008123978372 
15.54906765391797 
-11.81387557910226 
-6.866441302772145 
5.258295969901608 
4.900185441066538 
-2.885002306931211 
-4.999329030548636 
2.937204975852899 
-1.964519609593299 
-2.303218458216169 
1.238526700118744 
1.182105568550613 
-3.44416983507313 
-6.033411738061293 
4.213335619083871 
0.7732723003180327 
0.4404493304724252 
10.07651576185838 
-1.53085016620446 
-8.85235590569477 
5.715435694705441 
5.493772476458664 
-4.258510739814687 
-1.896498877887409 
-0.5086052975617514 
-6.3250459699292 
-0.1034831103793072 
3.98744046398737 
-2.914940671699496 
-0.8091088871957213 
0.1194648728915002 
-4.458778773585029 
-6.540505278845571 
-2.593872955354192 
0.7930437214726314 
2.969403535728927 
1.098968182289387 
4.549243647923549 
9.964850869796431 
-2.994666767302651 
-13.27170857395179 
6.503190248312197 
9.348514726999724 
1.573332397014925 
-2.816565418109732 
-8.238314673874088 
-0.5478341690308731 
3.779616508874179 
1.789807959497145 
6.912765853848006 
0.2531438477947629 
-8.649411124440672 
-4.849835111409003 
1.973543959195259 
13.3223235603462 
-6.099026611627473 
-3.650856825455 
10.76158420620092 
-4.183270204836952 
-5.189895037978144 
1.187211358675184 
3.598354646962443 
-6.9629837983063 
-3.830090913247974 
0.03732692040238869 
-3.919069416913789 
0.6784859574592899 
5.68636555672845 
3.904659599966947 
-1.469994733494137 
2.938476924951517 
5.032132178950501 
-3.538034655895165 
-1.856940450128169 
6.064860179791487 
6.044956254537819 
-3.378227694218817 
-8.228775494739223 
4.242267659746271 
4.262852582145841 
-6.566778630989822 
-5.147200985027494 
0.2179378019907157 
0.756782240981434 
-8.016690798407279 
-3.103750461665091 
3.543206502322214 
8.429866635333077 
2.949349639228837 
-0.4234222139647543 
-2.242330235935286 
-4.746092403889956 
-3.633409757153942 
6.478402102267939 
-0.2872518423120919 
-2.18807031747853 
5.746092992155106 
-5.133258952880706 
-1.759440380213845 
-5.586341381250173 
-2.036154824148797 
4.408006409353192 
3.911018634515975 
3.185946926813938 
2.229694748376013 
-5.23727242377271 
4.175937667454141 
5.631231847635722 
-2.067583801128819 
-2.588011314046795 
3.184352983447293 
3.504595638969702 
-9.168998110733275 
-7.27668404870415 
0.01549994553360276 
1.783066196254982 
-1.967262960125832 
4.319463083110497 
-1.944718535985243 
-8.74628900220954 
6.000779902015171 
2.52206169453725 
-3.13382439280656 
7.190789503094128 
-4.043179225570485 
0.9997744925782147 
8.647347064438776 
-5.105389072175049 
-4.139604864659853 
-4.097969823903901 
-5.160815616738325 
-1.053137485229244 
1.646253813320331 
7.426625720091961 
-0.399980658514777 
-4.936124425649332 
-3.520832862711281 
-5.060127882614202 
4.295110230387779 
-3.667522334364052 
7.805627511242011 
10.23538637514944 
-8.433189176250664 
-0.2024187621816959 
7.750179540399171 
1.680328877524315 
-5.891640929541474 
-4.695124758736006 
5.674033407656536 
2.900068251853201 
-6.820461966519152 
3.590861178071509 
-6.052706330470714 
-2.065403477982477 
4.01178548842258 
-2.363197765249773 
-2.760429912089145 
3.265171038812317 
-0.4553000568110715 
-6.140713742910009 
-5.410761351570152 
-0.2341975488050594 
11.56499417227004 
7.01002429153182 
3.836725766751058 
-2.206431057647888 
-2.110347097325407 
3.01433086995564 
5.132152671611963 
5.311520397620311 
-3.625864006316863 
-7.977020274790713 
-3.099252603466253 
-0.9175939180331829 
4.019713462675475 
-2.579928405221292 
-2.626679115912657 
-9.908495851038941 
1.484298555644257 
8.223586415716635 
-8.724647240550222 
1.228013039450264 
2.782930588409539 
-0.06764373294279447 
7.483130371464203 
1.965077124473683 
-1.516463521027603 
8.175562497419495 
3.689300459473227 
0.7603338478479534 
1.766402662141308 
1.903538966870615 
0.648376566296611 
-12.30537231963716 
-10.21646205207777 
6.93176522706474 
7.475867443283102 
2.288989015037406 
2.525555099037822 
-5.707456629821917 
-6.444652847980096 
1.196074338378173 
3.38631702870824 
-0.5495906412825353 
-2.882330253973294 
9.277277064210615 
0.4627759686194055 
-4.721078948671014 
-5.987563097954013 
3.513253751992421 
3.922425427701019 
-4.222154806268541 
8.602423270650943 
4.427571909944498 
-3.578742202868434 
-4.992533449931686 
-0.4633167401885855 
0.6650565628846337 
2.291618638823294 
0.2358865275986306 
-4.947297356034921 
-5.996991170286972 
1.487785261783272 
2.467367478906917 
0.8078447465016144 
-5.798934516621729 
-0.3550616499472967 
0.5424158222868294 
4.880314524193804 
0.7619148210908829 
-6.784301148420603 
0.9869793534878153 
0.1538998492244531 
8.972648620307377 
-3.996727469382802 
0.6828149779204589 
-5.686940748444129 
-5.646396556547857 
10.03861721858338 
2.506277700554771 
1.770456908733723 
2.844368408240012 
-1.703924647027222 
-3.539296280029356 
-0.8577460894214379 
-2.364472645798244 
9.986769921132773 
-2.568249668007575 
-1.934538138422258 
-4.89316062017912 
-14.923615165136 
-2.117418182273423 
0.6982335941629372 
-0.803058406223411 
2.033467001452387 
5.94591793676584 
2.635265132754608 
6.713190666444853 
-5.834722281183141 
-2.156845506261286 
3.59859452021189 
-1.115554802628419 
3.708662117809921 
8.089834068948161 
0.946209026658779 
0.03110160719148377 
-1.995531551647833 
-7.000177507596822 
-2.48369599272294 
-4.661160062699098 
-2.491140582598034 
4.678189169918925 
13.25395991243837 
6.284479548875673 
-6.781233377078591 
-2.952309476383266 
2.912149713948139 
-0.6459021498588913 
-0.1109056583361291 
3.546098543579559 
-3.443997358401137 
0.2885201965141468 
4.008308157806145 
-4.862683413384948 
-7.485272933894699 
2.663664767464153 
1.643658742541305 
-4.272506332418226 
2.436040705805114 
-1.847535643269228 
2.2066734636093 
-1.722357435875912 
9.520558198301469 
5.936860058966441 
-6.987696594204319 
-10.03828319056669 
-3.096907468442825 
5.153309783736741 
2.415512572561859 
1.596399888646451 
-2.253249833303369 
1.958272263893716 
-0.3891767765237491 
-1.578809104955893 
-0.7019773361249827 
2.433074779293795 
1.79808609839258 
7.141003977419415 
2.711601321160763 
-2.23069900415339 
-5.275789583066557 
-5.300161840122216 
1.220579959654563 
-5.242882514613901 
1.98311860519085 
6.098098577741543 
4.510519382616188 
-2.006002363634126 
0.7210979987168425 
-0.9477288390217192 
4.113900357179317 
-1.749646979905241 
-15.21445463052554 
-3.182432418456769 
3.483650586770126 
7.765282027394291 
4.559993976824798 
-3.472530145340809 
-4.600199592348341 
-4.266607420073564 
5.032721833945653 
4.099130209844809 
1.64501718853771 
3.746356778174662 
0.0248065778523865 
-2.137875008734396 
1.039689881590434 
3.100083588742125 
5.582510131586995 
-1.563720843971615 
-5.687094931383034 
-11.58235407665352 
-2.052438348950865 
-2.894430048555651 
-2.142744929303181 
5.601068445651246 
6.678419409484832 
7.362054164866038 
-0.1610134839001409 
-12.00465338195605 
-8.423382760753729 
0.782557896230236 
9.917348793091232 
9.270698427526792 
-2.755280554162658 
-0.9746450648232748 
4.783397097542495 
2.028672669436097 
-7.557354851284681 
-8.234488899167355 
-1.313154775911303 
10.44262528571956 
4.18682004952342 
-11.69353208109414 
1.167058683655414 
5.003331310123373 
-3.048130005340539 
14.39233657346392 
-2.544827833885178 
-6.392340526236016 
2.35371173582381 
-2.019478753321347 
-3.350256475138298 
-1.002243272556337 
-1.755630163848253 
-5.569248637768874 
3.952150723923158 
2.765056751146341 
-0.6592279447750697 
4.680722723251804 
1.559610522401988 
-1.947451394422067 
-2.448326761074781 
-4.949518752371064 
5.987053252625799 
2.040560024606759 
0.7279954500072622 
-0.8116246538956688 
-4.827896723303561 
-2.775748863062516 
3.109068207391155 
-0.0747656379857501 
3.370089361297267 
5.686944706719495 
-4.534182134358561 
-3.785276949126118 
0.005810994395097382 
-2.645490433249022 
-1.561695112252307 
1.685717467741738 
3.224824497215202 
5.387522631053232 
-4.538517396445456 
0.7705812916774399 
7.909320712460071 
-1.241632201866846 
-5.245144665938994 
-0.9373672927835106 
-5.389706772981187 
3.639581394184679 
8.262193748627091 
4.221760891294599 
-1.004825049459672 
-5.377590074801541 
-5.811247483168986 
-8.151930004429541 
3.954591650646324 
3.793346798087205 
0.5515637764826042 
0.8191411925042917 
-9.677859898247107 
-2.472539359826015 
-3.200320787191311 
-2.900808881936036 
6.582146656132081 
8.763740302490676 
4.612537085657503 
-5.666683891629885 
-2.371913943105004 
3.428443850256372 
1.826103125947775 
-2.936773519178284 
1.81334998548292 
3.994604366934004 
-4.006898137311858 
-3.788376623306831 
-5.679666064947601 
-0.5068146386310284 
10.56655188867745 
0.3535765720978274 
-3.373756822003451 
0.9514397879896918 
1.067602474151378 
7.253407252415889 
6.461764111138312 
-1.253018484457399 
-4.891633529381082 
2.827030919151246 
-8.969564439769888 
1.899759905683362 
-0.5003499964406933 
-11.89308538383334 
-5.122934498646546 
1.933880685480752 
5.926500954546008 
6.869232267169512 
0.1137167829580756 
1.678355924902728 
-0.0470521148188284 
-1.177211734296163 
0.1381525818585216 
-3.705974459032009 
1.56759460980701 
0.7432567008657118 
-0.7818019720446594 
-1.615141065380991 
1.094045228267682 
0.2660649031455884 
0.1714774444615664 
-2.526542789132421 
-3.855024497680819 
-3.642637858815531 
1.880873668374148 
4.41863747915303 
-4.628467822728018 
1.109758392293922 
10.73669565370081 
-6.828918597091279 
-7.706176321073896 
9.225715662850165 
8.52659528563869 
-1.978922834460551 
-0.8472879110284782 
2.232627449270714 
-4.924849484505739 
2.715383461277008 
3.065275325227007 
1.630760683231388 
1.76021409289707 
-3.64529477251728 
-4.259287763082238 
-3.664829217075 
4.735540885817331 
4.874330713772163 
3.327100817277145 
6.265455886160994 
9.764981321138148 
-9.917338981634842 
-12.78329501009773 
8.32835766391927 
-8.809691167864235 
-0.4301000390840579 
10.53494246659627 
-8.471866690773671 
-2.075192954398493 
-0.3483787166711539 
0.8284073319778181 
5.484615849178677 
-8.021833811249767 
0.3030952849096509 
0.487773113142951 
0.9048258792486743 
5.017832120847245 
-5.643662836298547 
-5.033270884558322 
1.962312310956492 
5.691190002082713 
-8.713340430845243 
-3.199265147620695 
4.021752113916897 
9.481948003213557 
-0.4388754097819652 
2.91751983274717 
3.33127734405382 
-9.312819414018371 
1.200066216217531 
-7.547171022408876 
0.7448034119280545 
5.654002286708107 
3.00237782305482 
0.8997997089185964 
-1.84566167463622 
5.329121933536016 
-8.361600359738016 
-1.57182438680799 
8.068371607969246 
0.9847126460571546 
3.350477837395859 
-3.529785053344719 
-13.78322490163787 
-1.343563706479385 
8.979525589133337 
8.976895661839276 
-0.078455408912133 
-7.661869749372991 
-1.759033987495236 
-10.39246048752118 
6.141622547770358 
7.229199077382312 
-1.36819304392488 
7.901510585756832 
2.154085991352022 
-3.817151031725809 
-2.311711952150937 
1.665445861854296 
7.106627969379725 
2.36255630032086 
-2.438706222036904 
-0.6778641645370496 
-3.989808368337096 
4.405912097671514 
0.7178142378874706 
-2.965498767484025 
3.981054815780587 
7.429255356876041 
-1.908318822051153 
-4.45331231075444 
-0.7443602803625717 
-3.076956311014285 
5.074838806328795 
3.509864888153832 
0.210897143016548 
-2.128594428055246 
-2.653414458519709 
0.9173875286146811 
0.7186564743209363 
3.7752834488404 
1.293394094497099 
-11.19042153999225 
3.105175969003045 
-1.299000018798464 
-7.693605692222327 
-3.882208405725254 
-5.777482605669571 
1.296509519392144 
-1.775008373417511 
0.6361734940511774 
3.685996059660182 
1.119712363482845 
4.586106446270916 
5.954319681804143 
1.850647096978672 
-3.129797065004989 
-0.9235024671961798 
5.197269473623503 
-2.203601615875068 
3.631655318611707 
4.351927192530352 
-5.015150099906423 
-2.15898768939953 
-1.444077215830495 
0.3041562017579257 
-6.962535213537039 
-1.854013538364409 
8.632058029009809 
4.933465745709058 
-3.208846615084332 
-5.838546914466777 
1.081446043133787 
0.4440174956988405 
-8.344141302675192 
-4.234460527193473 
1.781642613020441 
-1.556813361693282 
9.141109675496613 
11.01940815539759 
-4.304708069493603 
-3.993102291367996 
-7.870296076607763 
-7.817619906675774 
6.319348712445443 
6.794493770404762 
6.158491249560758 
3.83091652396496 
-2.591028380582402 
-2.158926462808807 
-1.514019187187458 
-0.333183720674904 
0.2273349517864191 
-0.7644015635133151 
2.83454031913954 
4.392477935488385 
0.857229137932461 
-1.879463722574843 
-6.076844763069151 
-3.004994566435512 
-1.221438744267157 
4.358639221002772 
5.812831926725718 
0.4703736404525651 
3.529221372943012 
2.421168977085665 
-1.367398392955258 
-8.671397170257476 
0.02602703808398077 
-3.258878377763333 
-2.472670213369863 
-0.7285525670822376 
-1.900410175352886 
3.15269435223009 
3.315111165689816 
1.97871530738873 
4.616540746483345 
-0.8575292435959728 
-5.027572455455084 
3.330069056336493 
0.254194017645779 
-8.21343209311167 
4.622167903694727 
8.494869089192647 
-3.992811466740891 
-4.291420913915401 
-0.01819808339707277 
1.233580046328048 
3.575590019283007 
2.7733122590194 
-1.69687194305095 
2.379090289167733 
3.309901874943978 
-10.80566679862969 
-5.85961498686271 
0.7415009310868237 
-2.20953886136378 
0.5990031784854352 
3.253503071935724 
4.885574035315647 
1.436458168858911 
1.392815986352736 
-1.580682152319564 
1.032217451027964 
-3.271524197834674 
-5.112178231335716 
-1.005640595763588 
12.05666538691972 
8.152290688129925 
-7.476134851671939 
1.196169661092035 
0.5084371902724848 
-2.22796928019493 
-8.751829904797358 
4.533497498347247 
4.721776114543652 
-0.3945221213518768 
1.88435701837205 
-1.225158937176732 
1.715567371307045 
-6.157826720290777 
3.763964285577247 
1.149190283592413 
-1.666113250372459 
2.708969308710222 
-3.134841554838809 
5.695235391245093 
3.366811522501284 
-6.517852138216401 
2.326725851721763 
5.432475322705764 
-9.962771832252445 
-0.5151464771858234 
2.23015319526838 
4.230967396689781 
3.530583862655566 
3.556434522092773 
-3.259272684537504 
-6.499592333185912 
-0.3016703114798019 
-2.18793020886067 
-0.8868662791075074 
1.128320057770099 
2.500827776007999 
-0.08622795189174166 
2.191827361245249 
-2.827524279746337 
2.495138319072841 
4.378847972950171 
-0.8577758216405963 
1.682484589658557 
-5.188803880415997 
-4.6732086085233 
0.8053727540512053 
-2.319494320392881 
0.195377299417283 
2.55706097955772 
-2.443614437613441 
-5.390479205069902 
-3.657345101074628 
1.778424303967207 
-1.116263227583343 
-4.651676172977139 
0.3136750810484129 
4.862577642871429 
5.077670669855255 
8.785697379791962 
1.563861872601792 
2.055000279318356 
0.5295310803384332 
-5.000174095886524 
-1.699989913802861 
-1.262327960480954 
-2.75564101385353 
-2.833494382614493 
-4.964469851139446 
4.12660722466236 
1.107819669644638 
5.163506563231254 
0.5213335571771527 
-6.356019280746782 
3.274743315819679 
-3.542297756747485 
1.719588013612819 
-1.092363266114608 
-2.294624929009425 
4.695104450493965 
-3.187164969922637 
2.317114589138443 
3.027059890587336 
-3.703502390938804 
3.671942299120015 
1.850053974045032 
2.43257315047641 
-5.526163626983715 
3.06182801285744 
-6.596351740914953 
-6.890572355197889 
7.619491926827555 
4.393828133958529 
8.445539403332743 
-4.42036834306505 
-6.724596682023565 
0.743806577139799 
-4.852750063340268 
-0.5964555624895712 
1.252843634754405 
3.398045726076598 
-6.791807792375867 
-1.066805744746277 
5.447263803317255 
4.321358115134205 
-0.4306238020956949 
0.2014135010056927 
-0.6706242277963343 
-1.163567664048828 
4.487309464063223 
3.586861862982866 
-1.744545183862002 
-2.755507091815846 
-0.80162723031018 
-1.555135489891253 
0.3890896974858707 
-6.223600864766031 
-1.291431568411962 
5.158477686597738 
5.674514950532934 
1.334623342753773 
-0.4981814794245742 
