solver_type L2R_L2LOSS_SVR
nr_class 2
nr_feature 1984
bias -1
w
3.958846049662014e-06 
0.01463801114913002 
0.0167260497940751 
0.01682366721891708 
0.01671589877019022 
0.01684936379599201 
0.01670831057921163 
0.01682638456972036 
0.01671308888058725 
0.01676965814118181 
0.01661217638080891 
0.01673721829504439 
0.01666252295199111 
0.0167722083842126 
0.01665249643596262 
0.0168186024130057 
0.0166688805991454 
0.01685503684261339 
0.01666263973728992 
0.01674628188102451 
0.01658932366441697 
0.01680654150684454 
0.01660233664816532 
0.01673029472979591 
0.01665984225432818 
0.01672712129456704 
0.01665164452501409 
0.01669497386737374 
0.01663096653747825 
0.01677756933014416 
0.01671379848500363 
0.01686452766953233 
0.01671066342693921 
0.01679035687698974 
0.01681164544886629 
0.01682777734408413 
0.01678484677114288 
0.01681847308467294 
0.01675002891789259 
0.01679875654828999 
0.01672735952551584 
0.01682841954410504 
0.01675096477416187 
0.01680828991576356 
0.01669242092195127 
0.01677680691739434 
0.01668104950082766 
0.01684203246927049 
0.01668630587320198 
0.01676768916727662 
0.01668891158734285 
0.01673076899602465 
0.01674759115112663 
0.01667690680828622 
0.01673918555060511 
0.01672272083662476 
0.0167115765445829 
0.01674255413810294 
0.01670161409920387 
0.01672800968540719 
0.0167105607751732 
0.01675850003768881 
0.01677670974133141 
0.01677623621813014 
0.01677786509379611 
0.01671817509570411 
0.01672420782615242 
0.01680306098482055 
0.01676138627535107 
0.01687764514254323 
0.01676741770122955 
0.01691452849721834 
0.01668266990644907 
0.01675236750678422 
0.01672261732026154 
0.01681464272605111 
0.01674821183433526 
0.0167502565553826 
0.01671793858020076 
0.01681751059285241 
0.01672786636537846 
0.01675393374507331 
0.01666963991206971 
0.01673530306138838 
0.01668117979622271 
0.01677523643523865 
0.01671362522121935 
0.01684329895986788 
0.01676154145608034 
0.01670460807461393 
0.01673180755567269 
0.01671487172076463 
0.01673451207191069 
0.01670367469147915 
0.01661377967342322 
0.01685225728500903 
0.01661376525616481 
0.01686196833400587 
0.01667306702572929 
0.01683645692869943 
0.01675414630675244 
0.01681742169032965 
0.01677313344878217 
0.01679234890492227 
0.01677069089182586 
0.01674791512483085 
0.01671203911910932 
0.01681523494811869 
0.01669614452849507 
0.01681605053903043 
0.01663043636946197 
0.01685014302381836 
0.01672298892455871 
0.01678431389659711 
0.01665165207131044 
0.01681452771310615 
0.01671251325030887 
0.01678842786270848 
0.01666207805485843 
0.01678420648593866 
0.01666661818714555 
0.01676538725319916 
0.01663433892172917 
0.01679286899298191 
0.01658818169617171 
0.01677096499186191 
0.01667138138075778 
0.01678733388937801 
0.01671829016648303 
0.01671150906024516 
0.01669117872750445 
0.01669074462419599 
0.01670706373974769 
0.01668678380676433 
0.01663752663629749 
0.01668242702467913 
0.01657629766558428 
0.01669826959255695 
0.01659035357206925 
0.01672599597042092 
0.01664871808173585 
0.01675762142999311 
0.0166027997789718 
0.01678214371914376 
0.01670336319291366 
0.01672344406306119 
0.01667203648489778 
0.01680668226048507 
0.01674932248092686 
0.01679976809998176 
0.01679687069529764 
0.01685036710503353 
0.01675640249776145 
0.01685144084931513 
0.01677003169975141 
0.01685335582502426 
0.01673680002003708 
0.01681495959264907 
0.01671904181454715 
0.01672880990151437 
0.01672702154163827 
0.0167511400137263 
0.01664439493507475 
0.01673671121292251 
0.01662052545848331 
0.01676541496757364 
0.0166207896222298 
0.01663720135854104 
0.01670759409316639 
0.01675025657020864 
0.0166619722177779 
0.01666327380674215 
0.01676034514010282 
0.01668944039865846 
0.01672927692065165 
0.01677522009721589 
0.01667408445351804 
0.01673070692331376 
0.01658561800027549 
0.0167243529676032 
0.01665775935850215 
0.01676499826896705 
0.01665603199149954 
0.01668312122194029 
0.01664820541917799 
0.01664577629641039 
0.01659622687705028 
0.01661310785947089 
0.01665853758262292 
0.01672556194352748 
0.01667238762308717 
0.01666142153697216 
0.01669825182672554 
0.01671812732103757 
0.01672075985661458 
0.01670351558879585 
0.01677672338400201 
0.01666321467401762 
0.01676228805895663 
0.01663737528450422 
0.01670889591055301 
0.01661021678681847 
0.01677421026034668 
0.01667323768780435 
0.01669611365317396 
0.0166823986907307 
0.01672137829795605 
0.01656869975139957 
0.01669188334341981 
0.01662468292875066 
0.01671052599194363 
0.01657298444793141 
0.01671974832180396 
0.01658958820909456 
0.01668580386879659 
0.01668209657955807 
0.01676038261791245 
0.01661895341378862 
0.01669524766239067 
0.01667966938779632 
0.01669517058374316 
0.01661480487631575 
0.01666931154276232 
0.01669610005445469 
0.01666881972981241 
0.0167292075080186 
0.01660542536596539 
0.01664450648522528 
0.01660236635271587 
0.01673538212548196 
0.01660397718148122 
0.01664074358183894 
0.01659672426138311 
0.01671319448931049 
0.01660164379577561 
0.01672801976914083 
0.01659972323570385 
0.01676057577100893 
0.01659869249468609 
0.01673762141330382 
0.01654363043303805 
0.01669829014999754 
0.01667451576208746 
0.01668168647439864 
0.01674240523958779 
0.01670350702198307 
0.0166916416584541 
0.0167314837678843 
0.01674992392303799 
0.01673554024749552 
0.01672275749149249 
0.01675269273542821 
0.01683281531230955 
0.01674125402272493 
0.01685214455730385 
0.01674401255733878 
0.01687999708222446 
0.01670236724765695 
0.01687514145204879 
0.01666977549700192 
0.01676672838124741 
0.01673423882020216 
0.01685282605831806 
0.01668368072100866 
0.01677364593281123 
0.01668964462499545 
0.01676500239298797 
0.0166439786871319 
0.01672303487306894 
0.01664418759413482 
0.01667351685751841 
0.01663424485650239 
0.01671216288281904 
0.01666230336467967 
0.0167233174653213 
0.01670822763255386 
0.01664835907229336 
0.01674432267467616 
0.0166465919405959 
0.01669060488448789 
0.01666020145126346 
0.01666126066022325 
0.01673568063599875 
0.01666058020033066 
0.01676908731676928 
0.0167723636070504 
0.01669903530924745 
0.01671190004714664 
0.01671809347437433 
0.0166852042163973 
0.01671400262968174 
0.01670470450794747 
0.01666072717247201 
0.01667891519045163 
0.01672244129810697 
0.01664966674484179 
0.01673025521823771 
0.01668295131361475 
0.01667394907647404 
0.01664589369955283 
0.01669754493726605 
0.01666433605610774 
0.01670351818661711 
0.01662670575125118 
0.01671247656168465 
0.01659756788114987 
0.01667592273056323 
0.01659210011548713 
0.01669345055567394 
0.01663057637311824 
0.01673360264105421 
0.01663668689670758 
0.01671204567229441 
0.01662668992840871 
0.01669226997867669 
0.01658654685688099 
0.01669620251079534 
0.01662082304984775 
0.01671856453353374 
0.01659142540583957 
0.01673550949724691 
0.0166279828826961 
0.01668793839610715 
0.01663786928514843 
0.01672452286668932 
0.01664181685143392 
0.01677745822716701 
0.01662507239333325 
0.01671701876335734 
0.01663723508097303 
0.01676854758174924 
0.0166464410773253 
0.01670592955144982 
0.0166321915377689 
0.01668342940832941 
0.01668317162012625 
0.01663738658313385 
0.01669835718117436 
0.01666527747060954 
0.01667195019105403 
0.01672425660754526 
0.01664544707474785 
0.01673018215630004 
0.01662437838500134 
0.01675447551852745 
0.01661715873755191 
0.01672446389028445 
0.01655975147476512 
0.01673612786365259 
0.01663694381140329 
0.01667116049416554 
0.01662466365213786 
0.01672380593072115 
0.01655180091939892 
0.01668830282829974 
0.01648016136153003 
0.01672170872617719 
0.01655572232410889 
0.01667146391732418 
0.01665705535717949 
0.01676488799382858 
0.01662972550267587 
0.01680343480965553 
0.01667366459070484 
0.01677150288121307 
0.01663831932778017 
0.01676362387624762 
0.0166455976450702 
0.01679908767872173 
0.01660474098381053 
0.01683574393797534 
0.01658907628854926 
0.01684998282147548 
0.01657359884218202 
0.01683906842172945 
0.01656788066559914 
0.01670644770319532 
0.01667299516836742 
0.01673257200351465 
0.01659725987660868 
0.01668732780557518 
0.01666583864898948 
0.01677991642379873 
0.01660995456551419 
0.01673423607398815 
0.01661766695266634 
0.0168263070149296 
0.01653272503712634 
0.01678192618880213 
0.01652448585348 
0.01673925869029259 
0.01657110628069383 
0.01677810698914418 
0.01664974226674709 
0.01676803917308022 
0.01657835877057674 
0.01673406010650343 
0.01660763150825829 
0.01669748828017711 
0.0166088359086701 
0.01668370245444389 
0.01662409392142567 
0.01667236336460835 
0.01652821479594041 
0.01671141402119539 
0.0165628486350948 
0.01672708600831276 
0.01650883668343287 
0.01671630059002725 
0.0165647098568113 
0.01665920975045435 
0.01666064944062176 
0.01663908322129975 
0.01671277204008264 
0.01669005588932698 
0.01668452536956474 
0.01668795465260968 
0.01671467156193365 
0.01670324429484353 
0.01669519769691469 
0.01669408346529138 
0.01673351576220974 
0.01667088332714739 
0.01666394514731979 
0.0166896732019135 
0.01666819964587977 
0.01669769815105318 
0.01663939322198108 
0.01671360772193784 
0.01663057974037922 
0.01672077526619721 
0.01662244644648669 
0.01670495225042365 
0.01661763598857564 
0.01668350854182798 
0.01661378016669696 
0.01664339128443879 
0.01649495646756437 
0.0167856398439926 
0.01652254321019123 
0.01672027834420476 
0.01657956890438029 
0.01672672719904434 
0.01662560448280875 
0.01676551951299643 
0.0166311203119199 
0.01672299413001769 
0.01662628772112917 
0.01677506187451554 
0.01656098269744218 
0.01671723496509791 
0.01662696341309038 
0.01680432457193253 
0.01663821745839982 
0.01686952893121151 
0.01659510692291181 
0.01679913748388913 
0.01665429486047674 
0.01677325144223177 
0.01655311863479215 
0.0167552038293574 
0.01662863318122564 
0.01673606791008146 
0.01669339452636502 
0.01669482719373679 
0.01663465771930106 
0.01673428005989649 
0.01664000471496208 
0.01666960248296315 
0.01661140549390111 
0.01666919470290693 
0.01661676790574106 
0.01667810795490422 
0.01658643045471494 
0.01676447939731293 
0.01666679521918691 
0.01670671373228377 
0.01670883264127622 
0.01667534954547635 
0.01664168759497061 
0.01671217813965269 
0.01661017266923078 
0.01677258794482431 
0.01665575029859919 
0.0167616775842222 
0.01663543958465088 
0.01674498054778903 
0.01664251730363213 
0.01675840510491175 
0.01665235756220201 
0.01680299399701428 
0.01668772579517739 
0.01676026724316277 
0.01664993898348043 
0.01679411096881697 
0.01662946346408847 
0.01677984560786739 
0.01666128378017769 
0.016721894860472 
0.01667929858914064 
0.01669271439673741 
0.01674339374368155 
0.01671751361883764 
0.01674653331713562 
0.0167445683080598 
0.01672521738894504 
0.01675140147080911 
0.01671394467947669 
0.01675240972332436 
0.01666243912468602 
0.01674230445250888 
0.01672910210280317 
0.01673531890728046 
0.01678281607681843 
0.01679852931397538 
0.01670703284669563 
0.01676367200513035 
0.01672929217572677 
0.01679530677159484 
0.01674082653423341 
0.01672882370429 
0.01669951073643891 
0.01676003610477528 
0.01667061129372339 
0.01673945000652916 
0.01676666671499489 
0.01679174621995351 
0.01676084339156978 
0.01680580875053866 
0.01672346483254845 
0.01671492007118404 
0.0168478897413001 
0.01676458375385649 
0.01669579525893557 
0.01677514004889615 
0.01664308103719141 
0.01669393456184563 
0.0166173057577802 
0.01666454587232233 
0.01668412097413877 
0.01670256183047989 
0.0166717895866412 
0.01666909541574256 
0.0167639506625216 
0.01665976404626083 
0.01682439180204473 
0.01670883959707617 
0.01680067544190684 
0.01666683628275219 
0.01675119278374055 
0.01665285646395979 
0.01679531195085356 
0.01668373307811872 
0.01678177918785806 
0.0166390776688104 
0.016774217482808 
0.01667163063455026 
0.01670692349090672 
0.01668612475667132 
0.01672003983609056 
0.01662300730946097 
0.01672789578449288 
0.01662831338015889 
0.01673928467762122 
0.01661535299779846 
0.01674409454377802 
0.01652638693604322 
0.01672078656847485 
0.01659422955934647 
0.01665681173915191 
0.01664298740856202 
0.01669526402625254 
0.0166343439013876 
0.01668372334747191 
0.01662178629203678 
0.01668404369091461 
0.01663120415195469 
0.01656718717501952 
0.01665551024895237 
0.01657555867942609 
0.01671955301992605 
0.01661365644576578 
0.01668058358757016 
0.0165898505042876 
0.01673926918923066 
0.01657631432310331 
0.01662921615273102 
0.01660867416795905 
0.01661012516074508 
0.0166051261119602 
0.01663406249692568 
0.01662809582781259 
0.01676109067218103 
0.0166488874930534 
0.01671414452876386 
0.01667010625669412 
0.01677423534774706 
0.0167265686519689 
0.01677256933680588 
0.01669253253086747 
0.0167180004858238 
0.01668274161111666 
0.01673842605130678 
0.01666382045178216 
0.01678365786498024 
0.01662166973122131 
0.01674728696285618 
0.01661135992926983 
0.01684170210330012 
0.01656997644564189 
0.01684232481801097 
0.01667767901851133 
0.01680550791656752 
0.0166387672111076 
0.01684808216572992 
0.01659953085699031 
0.01690058482544725 
0.01663284366383693 
0.0168206016376061 
0.01658069688355652 
0.01678731424281456 
0.01662758290520806 
0.01673447540304485 
0.01671656819121856 
0.01678508273173639 
0.01674489930886421 
0.01685145542718309 
0.01672070798777622 
0.01670365134187001 
0.01670586724104516 
0.01674409393534071 
0.01671070219355666 
0.01674383457595189 
0.01676674844018921 
0.01673461268522125 
0.01675061043118137 
0.01672941936545403 
0.01672203530239167 
0.01671624902309251 
0.01670968170935967 
0.01683609012845419 
0.01672704204014746 
0.01677956157050182 
0.0167035069921576 
0.01687763338446246 
0.01661179914059197 
0.01690358565264108 
0.01660972766921542 
0.0168568633916515 
0.0166719391958287 
0.01684458875760769 
0.01659637496446042 
0.01683799190250779 
0.01663523231803855 
0.01681071290246806 
0.01654620693195487 
0.01684081074510662 
0.01651326916470524 
0.01686230466396982 
0.01649592963677895 
0.01686171449851159 
0.01653011052759751 
0.01681685527687965 
0.01654047359232592 
0.01680393956376501 
0.0166264145981763 
0.01681400219594833 
0.01658344416366395 
0.0167960677364153 
0.01667909150670528 
0.01680933623205362 
0.0166195073567883 
0.01682690399188506 
0.01664677070799348 
0.01683746974383699 
0.01669243931901074 
0.01677368489800577 
0.01676763987527856 
0.01680490309816485 
0.01664219036047975 
0.01681323687961758 
0.01663159637807574 
0.01683116250294813 
0.0166451608381815 
0.01680135925985562 
0.01662571050699445 
0.01682416953074639 
0.0165724834799452 
0.01683769760382636 
0.01663859160133163 
0.01670082801647427 
0.01659336110998027 
0.01680041213793006 
0.01658407009785764 
0.01678142759016375 
0.01658928807001135 
0.01676282662200687 
0.01663265907068614 
0.0168342547791567 
0.01663528518495353 
0.01685079398696844 
0.01654354466826573 
0.01678681082339417 
0.01671805739374711 
0.01679993976959902 
0.01673153774947704 
0.01681389583895524 
0.0167695453330354 
0.01682634846749577 
0.01677410334364288 
0.01684477222540556 
0.0166627579686661 
0.01682839902386534 
0.01667851792924116 
0.01686839976980864 
0.01657782881937171 
0.01688625404054938 
0.0166988550314481 
0.01676709029337614 
0.01669639375569141 
0.01686243612950451 
0.0166339684456415 
0.01682090959795066 
0.01663188611908258 
0.01681742783061127 
0.01664348347383982 
0.01681463249451971 
0.01669990387487386 
0.01674916692085323 
0.01664969408263312 
0.01675376733011343 
0.01660792620557559 
0.01678414065188463 
0.01657766614639146 
0.01680447310422022 
0.01662112372137819 
0.01672664074201962 
0.01657868975015198 
0.0167383147120567 
0.01655974907398567 
0.01672397060308497 
0.01661161416981371 
0.01673437106885772 
0.01660045634167146 
0.01673148637083306 
0.01659276790814325 
0.0167232004677964 
0.01659416453242093 
0.01673642466280672 
0.01657973414943312 
0.01669277655534609 
0.01662880665113782 
0.01674512457027557 
0.01657451860743836 
0.01673438173369917 
0.01648661798976198 
0.01672638361872994 
0.01652470979293191 
0.01676273274207541 
0.01657815731889649 
0.01673030072178162 
0.01651575632033666 
0.01666757169422051 
0.01651591654779501 
0.01669257720021334 
0.01656840312033008 
0.01669686504872901 
0.01659354730488265 
0.01663945060837833 
0.01655726386621583 
0.01667459091198462 
0.01659863164590254 
0.01672668277304411 
0.01661509826141174 
0.01670023319178657 
0.01652753145313682 
0.01675982695812579 
0.0165814168850347 
0.01670123211394571 
0.01656398776535409 
0.01677074147650952 
0.0165176940461049 
0.01676278525464711 
0.01653868794704509 
0.01670598352148533 
0.01656958511715549 
0.01665113843439653 
0.01652354408248796 
0.0166955981725104 
0.01656566508913401 
0.01672921828153802 
0.01655996808462975 
0.01668985067413874 
0.01655807910435076 
0.01671061894959564 
0.01647828842538732 
0.01675666049678338 
0.01647927676302367 
0.01675862564376544 
0.01644947547224618 
0.01666030701819882 
0.01645748851636112 
0.01663991857666365 
0.01652224995101909 
0.01664129740809682 
0.01661060483417481 
0.01672168692785016 
0.0165302831439419 
0.01667720825364061 
0.01660225835324298 
0.01670893340648472 
0.01652929158656205 
0.01678344990363149 
0.01654174100141673 
0.01667698022301407 
0.01665401651256302 
0.01668090150051174 
0.01665865331994663 
0.01667066749866292 
0.0167043034618892 
0.01670599643524029 
0.01664482923194205 
0.01676708625734735 
0.01662182788744041 
0.0167326216293185 
0.01664887899627657 
0.01670101462052203 
0.01659795284239715 
0.01669886730288594 
0.01658390942872743 
0.01680260586750552 
0.01668410844014107 
0.01670179336567515 
0.01657644677765608 
0.01663155111324169 
0.01658615708867993 
0.01663404728516521 
0.01657053240481952 
0.01666301710426366 
0.01654452524307191 
0.01664636189590994 
0.01663320643117241 
0.01661034334352711 
0.01663975190553059 
0.01661193861427844 
0.01660575365782985 
0.01663301648845576 
0.01668924797753933 
0.01653965036405764 
0.01660298316746624 
0.01656423777569773 
0.01664085247501232 
0.0166627011124865 
0.01658164831756904 
0.0166327604742747 
0.01660725491792256 
0.01669132240215294 
0.0166393169760843 
0.01665877896002397 
0.01670261837161953 
0.01663852240230081 
0.0168846907267573 
0.01665446219311848 
0.0168836249231499 
0.01666021858456061 
0.0168360644126721 
0.01669625501762793 
0.01675274479005372 
0.01670307638271631 
0.01677383580447446 
0.01678315202749639 
0.01671058923552515 
0.01673107105746855 
0.01670847342452879 
0.01669301795380611 
0.01670964144952696 
0.01671734790898608 
0.01666718918385846 
0.01670413884976991 
0.01665113580364276 
0.01667585316364105 
0.01669522519525399 
0.01662529476717709 
0.01673920591061253 
0.01666473518312039 
0.01664796249649159 
0.01660077311709797 
0.01663825398935164 
0.01654436154489112 
0.01673996306449694 
0.01657400262571219 
0.01676212547799983 
0.01655790679720226 
0.01670159126897235 
0.01662170726772956 
0.01671516173620163 
0.01664944487619963 
0.01677334926015262 
0.01664509945397322 
0.01674576583192482 
0.01666064004589697 
0.01676127518710402 
0.01666083588499396 
0.0167305334087593 
0.0166365110293256 
0.01676191128302163 
0.01660106779671039 
0.01667733951221418 
0.01661011594079124 
0.01672558604304044 
0.01661671925471549 
0.01676290469785353 
0.01657983094602091 
0.01672697006772386 
0.01649390127364307 
0.01666104420798975 
0.01657159249926942 
0.01667090197335298 
0.01654972403254993 
0.01660266899512891 
0.01661114817283803 
0.01661556722991333 
0.01665226674816125 
0.01664769220996203 
0.01660546751494659 
0.01664014002460127 
0.01667435451255386 
0.01668076717098066 
0.01665932611624976 
0.01668499903881663 
0.01676185751817616 
0.01671163143246544 
0.01673567421572535 
0.01662005899544336 
0.01680642660335778 
0.01670356691879467 
0.01671953608580787 
0.01671422577576378 
0.01672765246709907 
0.01674418415379808 
0.01668566494870861 
0.01675736900360797 
0.01665825965346387 
0.01674149508539281 
0.01673303469538795 
0.0167446075052372 
0.01662423942343655 
0.01678123053295603 
0.01673790130603054 
0.01683406134905461 
0.0166232944129793 
0.01685397658493238 
0.01668638167147442 
0.01673738293934139 
0.01675158599408591 
0.01672017454678767 
0.0166991368376939 
0.01678187903978491 
0.01670639039880416 
0.01669374422184383 
0.01674107948000342 
0.01672489490718394 
0.01673847750811063 
0.01670588844022288 
0.01671263150491123 
0.01674143063122463 
0.01667881792217786 
0.01679293155616149 
0.01665586935779544 
0.01687368239768978 
0.01657197673805694 
0.0168646337817501 
0.01658359595495388 
0.01673214135157291 
0.01668132125830292 
0.01676696571775705 
0.01665347494580253 
0.01675037011925849 
0.01664680485070311 
0.01675799916373773 
0.01657505385633343 
0.01674298442045574 
0.01663208832182906 
0.01676289872049155 
0.0165568443191118 
0.01664708036263282 
0.01661949828413959 
0.01665958013200323 
0.01661778771345405 
0.01663505972718713 
0.01660461510501678 
0.01657796028607254 
0.01668579095921553 
0.0166005264010915 
0.01664754830558451 
0.0167318099986321 
0.01668368904762955 
0.0166884888531463 
0.01668635638429698 
0.01676772946013554 
0.01669471701942545 
0.01672863470432314 
0.01671023886743526 
0.01667615260940496 
0.01671246245937188 
0.01671376754052583 
0.01667679973681918 
0.01665177150462264 
0.01672707067926075 
0.01666273815240846 
0.01675993160610277 
0.01676774822350343 
0.01671205604712223 
0.01663315381422598 
0.01674765564011053 
0.01668766669783173 
0.01668583362176468 
0.01672664451688166 
0.01676819105929768 
0.01670418282718176 
0.01679678533763589 
0.01668753214365582 
0.01672543727034673 
0.01667955375864381 
0.01664842795890428 
0.01678275961530734 
0.01664834075232839 
0.01676481151199917 
0.01666361256481263 
0.01672499655888424 
0.01663303877475391 
0.01664521686603079 
0.01670829862402662 
0.01660854895747129 
0.01669805735523961 
0.01663881829062096 
0.01674321039830815 
0.01667781515403381 
0.01669359745441107 
0.01665990355992544 
0.01674660380984463 
0.01668295125847312 
0.01671579396765302 
0.01672512436459452 
0.01671201373693047 
0.01667816660664383 
0.01672843225203644 
0.01668425485849311 
0.0168000385465364 
0.01662102804842392 
0.01682572757656001 
0.01664662958927061 
0.01685014015583162 
0.01660312487537399 
0.01677315465500188 
0.01658145437743528 
0.01671298782621116 
0.01663627848132306 
0.01679401333266579 
0.01673155754747694 
0.01673403276358534 
0.01669980065075058 
0.01674107884746096 
0.01666139105804336 
0.01667125936327651 
0.01667250253554602 
0.0166553239839872 
0.01666544984348986 
0.01667237826196407 
0.01664927704956209 
0.01658745588147785 
0.01661732285918301 
0.01659819330501495 
0.01661354663718921 
0.01665524705901079 
0.01663425021322476 
0.01661072846374955 
0.01673230960879566 
0.01659676070465673 
0.01661886626457945 
0.01660394292389561 
0.01670638547519193 
0.01664854568118112 
0.01663664943694662 
0.01661035819468147 
0.01670249594114845 
0.01660869887856667 
0.01662094584269516 
0.01666960561731851 
0.01660975401192622 
0.01670444465864681 
0.01656585905882241 
0.01671699690710791 
0.01646717219718878 
0.01674405775683061 
0.0165849605366984 
0.01669134022397008 
0.01660901628920123 
0.01668926936726419 
0.01657382134726887 
0.01670989140075851 
0.01659113739730603 
0.01666005335569305 
0.01661776999759633 
0.01662584009663975 
0.01661067887899268 
0.01664468756833248 
0.01661516112863396 
0.01677737310136759 
0.01658149518951422 
0.01666573696686631 
0.01653735118487571 
0.01669443927942003 
0.01659820732431004 
0.01667886807944025 
0.0166003406756081 
0.01669463576312253 
0.01661661214675072 
0.01672967428077198 
0.01663130237364963 
0.01674356455231709 
0.01664351521255717 
0.01679659134189371 
0.01665876277750573 
0.0168122069798491 
0.01661424350325032 
0.01681973517219567 
0.01663646026226491 
0.01686163763018 
0.01663077407816346 
0.01674443646332121 
0.01663664222979526 
0.01673133255372963 
0.01663628213477617 
0.0166477541639173 
0.01660716490938246 
0.01667022590617005 
0.01662940902080745 
0.01665974637794267 
0.01660434214694246 
0.01664745733277914 
0.01661785452550984 
0.01665340809279902 
0.01663807795497212 
0.01665283628726289 
0.01665691283546654 
0.01669766998377592 
0.01658464621269447 
0.01678652077701968 
0.01664999470237778 
0.01669526527165013 
0.01663963611213423 
0.01672895715095953 
0.01666440551486596 
0.01676525112758963 
0.01663449285430587 
0.01679409568242237 
0.01670528596369719 
0.01684392620629924 
0.01673609937122127 
0.01683755041660819 
0.01680546615172671 
0.01686681511195798 
0.01678428913308849 
0.01683215313598816 
0.0167191548170856 
0.01684699180524948 
0.01679980032835645 
0.01675058622413342 
0.01678683554434684 
0.01679698919153106 
0.01679378350657348 
0.0167862996140511 
0.01676532378400487 
0.01682927948162002 
0.0167994252123066 
0.01682990000272142 
0.01678618462234786 
0.01685574424401419 
0.01687025353817824 
0.01679245005589886 
0.01685064185957765 
0.01680619070074472 
0.01685261515392535 
0.01674003366491972 
0.01680640621967142 
0.01669831975434521 
0.01676217116985813 
0.01668432421256082 
0.01680704891736292 
0.01674985814187573 
0.01675577783548572 
0.01675315416833287 
0.01669379661877525 
0.01672185895915113 
0.01669932026360297 
0.0167600865511717 
0.01664862001804011 
0.01665913099473875 
0.01666850445655674 
0.01675011535348046 
0.01664859623688588 
0.01671840555247567 
0.01663477482196796 
0.01667373779838922 
0.016522545798875 
0.01663018462113479 
0.01662303606242452 
0.01659519852980842 
0.01656672898317564 
0.01662908166356701 
0.01658311293834749 
0.01660276523897131 
0.01657604374661254 
0.01658141637273734 
0.01672070460659045 
0.01660280121842785 
0.01670912057343645 
0.01658245917291251 
0.01667217121284893 
0.01660347432957478 
0.01678423374682756 
0.01673782341706839 
0.01668987281905653 
0.01671213567859366 
0.01672727198430837 
0.01683278762191695 
0.01672838595488976 
0.01677950860376291 
0.01671731227465762 
0.01674290700046037 
0.01672304835751613 
0.01673413132426891 
0.01671178194749499 
0.01669643059238251 
0.01667167749873019 
0.0167365921739578 
0.01667392593577201 
0.01670575674003898 
0.01665710724423169 
0.01670256538632187 
0.01666591828468122 
0.01664284471207404 
0.01656546342653242 
0.01669366041164577 
0.01658200699250695 
0.01672628598758324 
0.01664561884870418 
0.01665724148143592 
0.0165878469105049 
0.01667088899130154 
0.01671504374278105 
0.01667896310810418 
0.0166979998183133 
0.01674443220211264 
0.01663573488405219 
0.01671767304632089 
0.01668861231987745 
0.01673628552993581 
0.01670579127606103 
0.01664889161293511 
0.01669797859076449 
0.01676650038214656 
0.01665966373219639 
0.01671210107815145 
0.01672835774249131 
0.01675898996229961 
0.01665540358580416 
0.01679689854408473 
0.01666661964526361 
0.01675699662036239 
0.01670410880419999 
0.01675785824175628 
0.01667009051951772 
0.01675812631965888 
0.0167255609219895 
0.01669959183900636 
0.01670531661458365 
0.01671850206544647 
0.0166903270044998 
0.01671904260593479 
0.01669554967095751 
0.01671870376972726 
0.0166865986488533 
0.01659932748173143 
0.01667909209521373 
0.01674884643652593 
0.01667345367752129 
0.01668641226072821 
0.01666431584270617 
0.01665499965886962 
0.01668271147661919 
0.01657630331622584 
0.0167200319183975 
0.01653389047822396 
0.01668538107451894 
0.01657927651043023 
0.01668586193365151 
0.01661248710139097 
0.01665738558835479 
0.01652029364499071 
0.01662128269439885 
0.01659590641556833 
0.01660667744352035 
0.01659866840269978 
0.01665789703626407 
0.0166317309643074 
0.01662893697685231 
0.01662041729932033 
0.01667862404435963 
0.01660517821408559 
0.01664435295998377 
0.01666921799728704 
0.01663673911028509 
0.01666601482346693 
0.0166174329379632 
0.01655734697003318 
0.01667746981865677 
0.01659266982729007 
0.01661974165661786 
0.01665109597536555 
0.01653483822824453 
0.01665041732561822 
0.01658447327802289 
0.01659575331295667 
0.01658505264934301 
0.01659956174679534 
0.01658981267549376 
0.01662737825686536 
0.01658006579600749 
0.01660841786939537 
0.01658776281714831 
0.01651539831724584 
0.01663761002921353 
0.01658857324899219 
0.01656327474757154 
0.01654037020185049 
0.01664111798394579 
0.01649582478798346 
0.01671792208303758 
0.01653695205780396 
0.01671772042537722 
0.01661655045003463 
0.01674841388947736 
0.01659548831491321 
0.01671696856278369 
0.01664615448928962 
0.01673239391296934 
0.01659262530594705 
0.01677385888097133 
0.01655198843448413 
0.01671320443424046 
0.01655729478761665 
0.01671333487841098 
0.01655347360002937 
0.01675057688730843 
0.01653977363012456 
0.01672179268225574 
0.01663838989215776 
0.01666969998775217 
0.0166237231472897 
0.01670769659614598 
0.01661955242759576 
0.01673473164112143 
0.01661794556733586 
0.01675212655684942 
0.01665334214760272 
0.01672618520074327 
0.01667544878948814 
0.01677454686719511 
0.01661772900402376 
0.01672145190266286 
0.01655496838829152 
0.0167120285285836 
0.01657591553510002 
0.0167572543670792 
0.01669247955380137 
0.01672944224140294 
0.01668002415941949 
0.01672241113023425 
0.01675021387894568 
0.0166885169674924 
0.01677676657913885 
0.01661064561955462 
0.01674844367783918 
0.01660467405303273 
0.01666844636707405 
0.01665727473755979 
0.01665047134282285 
0.01667389165481638 
0.01667453721580705 
0.01669372315763731 
0.01662085558137693 
0.01663623668423189 
0.01667022692945262 
0.01669648946032768 
0.01666105211197317 
0.01671536800141446 
0.0166897887284603 
0.01665602534345094 
0.01668249714565344 
0.01665263612458966 
0.01672718707832748 
0.01666721294864043 
0.01671858035289063 
0.01660647255043083 
0.01666617209659408 
0.01659475419628465 
0.01665026095759425 
0.01656157193543112 
0.01668125495357927 
0.01655316250060405 
0.01670184997498709 
0.01657651880361301 
0.01667837255031823 
0.01655209054435084 
0.01668604620472794 
0.01662992537859021 
0.01664366994129105 
0.01663274959285762 
0.01658751882784495 
0.01665257459102382 
0.01659324194041093 
0.01663329312140741 
0.01659489116811583 
0.01668924049281272 
0.01651432331311337 
0.01665704325286245 
0.0165570430475439 
0.01662082356696302 
0.01662248975133756 
0.01665435765666264 
0.016594994176214 
0.01660833435600906 
0.0167078601711942 
0.01665321379387343 
0.01662780949942708 
0.01668215543465926 
0.01661035658827918 
0.01670750024972907 
0.01665521821859114 
0.01673277949241595 
0.01670288423344983 
0.01671420261128183 
0.01669417813504476 
0.01671988030336369 
0.01680257024767235 
0.01670025830347826 
0.01682143530783602 
0.01663199532932012 
0.01681910766601093 
0.01665947914158956 
0.01678378136640524 
0.01659367245864488 
0.01674244453039226 
0.01663143130345194 
0.01681048357731006 
0.0166180157090157 
0.01674873697791545 
0.01662520626484835 
0.01664731216263879 
0.01664303684500494 
0.01670932953084426 
0.01663856541882278 
0.01677415558632743 
0.01667225878470157 
0.0167095590512442 
0.01669200305692377 
0.01677588154906456 
0.01672939267065783 
0.01678868432277204 
0.01672625139283948 
0.01679718919299826 
0.01668172061562927 
0.01672157038121716 
0.01668345426951791 
0.01672694220777373 
0.01675256082943675 
0.01678105876403821 
0.01668933013107467 
0.01679651407817161 
0.01672903500272408 
0.01684134142312848 
0.01676676226547466 
0.016729738255073 
0.01672029754507469 
0.01679710045755624 
0.01673600946340693 
0.01670929693650613 
0.01674721529508942 
0.01668484767402913 
0.01673855184354291 
0.01670563039915286 
0.01673717600529535 
0.01673634539392129 
0.01670348629011938 
0.01673244127829691 
0.01669467607367527 
0.01668947481401071 
0.01670176127925027 
0.01665250852395532 
0.01668937738335968 
0.01660496835729681 
0.01669794969817524 
0.01661757871852774 
0.01670616831071839 
0.01663894355268395 
0.01671503891704013 
0.01664693535077514 
0.01672782324715588 
0.01670114571160572 
0.01673834756163997 
0.01678750297643514 
0.01674041047641312 
0.01675118397562226 
0.01669430381603354 
0.01670569396773214 
0.01671611580737191 
0.01672681853656095 
0.01662752440500833 
0.01669163508843337 
0.01672526184802607 
0.01669657012923713 
0.01669822588038466 
0.0167227314033131 
0.01673432716377248 
0.01672450478539324 
0.01665261489423674 
0.01669845263131239 
0.01669621052974598 
0.01670513124079075 
0.0166408683437887 
0.01670641815690455 
0.01659679252148394 
0.01667880825799996 
0.01660593274275217 
0.01676473824231176 
0.01664346265806098 
0.01665298245786207 
0.01668364345753537 
0.01668100998513712 
0.01660814968073376 
0.01671995258153288 
0.01661845174446972 
0.0167336284469829 
0.01661157118934348 
0.01674737252338784 
0.01664058928694688 
0.01674798127779703 
0.01672652146397197 
0.01675611891227579 
0.0166611426195133 
0.01670820915293631 
0.01668271168191671 
0.01671880721495069 
0.01668590977306371 
0.01670866199001673 
0.01672466837187715 
0.01672758514821157 
0.0167308880466567 
0.01675020863663414 
0.0166407164850448 
0.01680899855714832 
0.01671678499236158 
0.01681584358239759 
0.01668163617916148 
0.01681532319571616 
0.01666643713163758 
0.01673695650885687 
0.01664968711212595 
0.01676853152630411 
0.01666943521865418 
0.01673473902600925 
0.01668858930114991 
0.01666170946368224 
0.01673834935965691 
0.01673674691491894 
0.01674900425389414 
0.01670573420472419 
0.01673023206649105 
0.01664884147985981 
0.01671693041724706 
0.01664929520597066 
0.0167170132150097 
0.01668340766336806 
0.01664594347315088 
0.01669039608891066 
0.0166365416811326 
0.01667526233117417 
0.01664235692252312 
0.01671267870423566 
0.01664032661642689 
0.01655742024721803 
0.01658789814289969 
0.01657145522091096 
0.01664415231836088 
0.01664427361704595 
0.01668478706923987 
0.01664463191106897 
0.01656184864678169 
0.01666106068089475 
0.01657604452679688 
0.01658706736467178 
0.0167003380498571 
0.01666638516940245 
0.01674353205274907 
0.01668815957915381 
0.01668884321278176 
0.01669710238712624 
0.01669098700816234 
0.0166902339337857 
0.01669343624583654 
0.0167552656186774 
0.01668797160054618 
0.01679380986735031 
0.01669754068889289 
0.01674115237945923 
0.01678115397264458 
0.01674459521399235 
0.01675946554390641 
0.01671308844279882 
0.01676664305796765 
0.01666330689939543 
0.0168282245842434 
0.01670312634123454 
0.01672451693461457 
0.01672188519683572 
0.01668628059428064 
0.01667950193957322 
0.01673430205910321 
0.01663814298725776 
0.01673731113037616 
0.01662040527858349 
0.01677046564093923 
0.01670267849797654 
0.01670341847907942 
0.0167141699546459 
0.01671181416208675 
0.01674215433787393 
0.01670524325201742 
0.01662880010101634 
0.01672217785615843 
0.01665283091163612 
0.01678562317081378 
0.016680583468249 
0.01671123793758904 
0.01674099962445095 
0.01669025915205091 
0.01673208387664035 
0.01675722808564521 
0.01670391508695756 
0.01673771486576464 
0.01670155372568816 
0.01670368926282858 
0.01667063843006799 
0.0167100268746999 
0.01668738023854397 
0.01668966349835681 
0.01678021397849914 
0.01669795844880195 
0.01679283704308115 
0.01678432939781005 
0.01673731805614425 
0.01675738839894612 
0.01678577313946511 
0.01676421270133157 
0.01671962807120271 
0.01680977018252887 
0.01664617163098276 
0.01683750806316138 
0.0167350608374861 
0.01683782459507577 
0.01674671477487208 
0.016769408772791 
0.01672712227459038 
0.01672807066399579 
0.01671721789772784 
0.0167196841059468 
0.01679990391500039 
0.01670955876430334 
0.01675033958366407 
0.01674054586815646 
0.01671137502988415 
0.01667911296452427 
0.01674487539811756 
0.01675070411966655 
0.01674495666987798 
0.01672698965228415 
0.01679430173934267 
0.01678768989567408 
0.01677002768376646 
0.01683498906267451 
0.01679693455975712 
0.01680287654327921 
0.01676771885770071 
0.01671332620826142 
0.01672852857870957 
0.01680871280551198 
0.01675162430898709 
0.01683502755532063 
0.01671492706881278 
0.01674568866742826 
0.01675740303649238 
0.0166702954545965 
0.01673295489338298 
0.01673212984020926 
0.01672883832582891 
0.01672693516879619 
0.01669671446190212 
0.01676793342735363 
0.01680671289349809 
0.01675674441357777 
0.01674722614772368 
0.01671925246538835 
0.01676488626937549 
0.01670430869632358 
0.01673670568825424 
0.01670997270167267 
0.01670887677127519 
0.01669096012641252 
0.01675956387025337 
0.01669100290534725 
0.01668835971424931 
0.01674612631321718 
0.01674171683554161 
0.01673052581597993 
0.0167849233729956 
0.01684395370912515 
0.01678317326386868 
0.01686718559763231 
0.01675714147199139 
0.01680856588372534 
0.01675988540682394 
0.01679410607001105 
0.0167403175561209 
0.01680094960352436 
0.01675873016289406 
0.01675565608819224 
0.01670848610449193 
0.01681181474603944 
0.01668576172690677 
0.01677183472804131 
0.01673398150997707 
0.01679012374040234 
0.01674813382432435 
0.01682024201363743 
0.01671062417273871 
0.01687005000648446 
0.01673451919047102 
0.01683227306075066 
0.01675864854268192 
0.01675978968044531 
0.01668130277511774 
0.01677962715648411 
0.01677398794655002 
0.01675837932794189 
0.0167443486505427 
0.01671091256313189 
0.01671527062561783 
0.01674875049506683 
0.01659322435295629 
0.01673210555409621 
0.01665194878639113 
0.01676002630899974 
0.01668419647088329 
0.01674276399441268 
0.01668703520739585 
0.01679398667320383 
0.01678482725618721 
0.01680166232553502 
0.01676093231130277 
0.01678001466058036 
0.01681289932852177 
0.01671507255052752 
0.01680914906863548 
0.01671407154765943 
0.01679484009695054 
0.01678434975167059 
0.01667533486997777 
0.01681024460852089 
0.01665537634572115 
0.01674299804088508 
0.01667713936301352 
0.01679545892452985 
0.01680182845224182 
0.01674811767375834 
0.01676496575760315 
0.01683121924605161 
0.01674252138671739 
0.01680991160005557 
0.01671588375760539 
0.01683123051772469 
0.0166694400116814 
0.01691149242157376 
0.01675516963200932 
0.01683766491887651 
0.01675181868378371 
0.01685202865262597 
0.01674244394607945 
0.01687700574148517 
0.01677988650598711 
0.01690508511028076 
0.01675312113749177 
0.01688207119382445 
0.0167439956755953 
0.01687220878044747 
0.01683699918650694 
0.01681851402530649 
0.01676206016547855 
0.0168568599147916 
0.01678156140474089 
0.01676375358364761 
0.01678945103546444 
0.01677128426920129 
0.01678110202747674 
0.01679383242070012 
0.01678884012693987 
0.01676253521638197 
0.0167226564946884 
0.01672402285221768 
0.01661818940054548 
0.01679573563316779 
0.01654445707556185 
0.01680143253438306 
0.01663165691270977 
0.01683827800104731 
0.01664671764510782 
0.01681656648126007 
0.01669683902052894 
0.01681112064859305 
0.01670265787284425 
0.01672588014019614 
0.01674806015966456 
0.01680001644064822 
0.01674462756446086 
0.01680977454397749 
0.01673548855697683 
0.01683022185415717 
0.01678762045532462 
0.0168059719767854 
0.01673831692926276 
0.01679226368197735 
0.01672319119400512 
0.01680885924448845 
0.01675703958862322 
0.01675523181640814 
0.01684346710810323 
0.01678931885541119 
0.01676761026137642 
0.01672662975610068 
0.01682351481228494 
0.01673422210568448 
0.01679961990803411 
0.01681513151000472 
0.01681585674758667 
0.01678062445650225 
0.01676139531607783 
0.01678805288745081 
0.01675484618172515 
0.01670831668859484 
0.01677924093897278 
0.01673382652057261 
0.01677687012467054 
0.01678895356596238 
0.01678210648001652 
0.0168106901020148 
0.01676895592422032 
0.01683305095632209 
0.01668097498723714 
0.01683810220953255 
0.0166779662834126 
0.01679709228137783 
0.01662985181089865 
0.0168695809681567 
0.01665091515799774 
0.01685754554631929 
0.01670029386774145 
0.01685989138035556 
0.01669627339391592 
0.01683931736398846 
0.01671179269723526 
0.01687483114583796 
0.01674279909165902 
0.01688031348171094 
0.01672279561778892 
0.01688578826478638 
0.0167083326925835 
0.01688462836819063 
0.01671587224129744 
0.01686371330775157 
0.01666501397448345 
0.01682438492117764 
0.01671805678776131 
0.01678011907344562 
0.01669376750558522 
0.01681408132102794 
0.01667373022479803 
0.01686530581531809 
0.01672265765736251 
0.01672992598284853 
0.01672250753131441 
0.01672788440144308 
0.01672708740185155 
0.01679909620310537 
0.01665384306072035 
0.01682548514785318 
0.01664927526574192 
0.01672646301862909 
0.0166579743467413 
0.0168079662879734 
0.01671314075047452 
0.01684612833831975 
0.0166222121429879 
0.01682484047672285 
0.01668819131883481 
0.01679327581264716 
0.01667929334850134 
0.01690901935073905 
0.01667112291737583 
0.01694701578871887 
0.01670249990387041 
0.01690869374816447 
0.01666495440029078 
0.01691752011721457 
0.01674170823124168 
0.01685625163460322 
0.01670582260504073 
0.01682873634603113 
0.01670387571410776 
0.01677703650107217 
0.01674469348893146 
0.0169038711833764 
0.01667587109566433 
0.01692701005347225 
0.01667932601906198 
0.01688004864732887 
0.01665468064523211 
0.01686502068439914 
0.016688079162564 
0.01678558736187403 
0.01664926535778583 
0.01682879337424795 
0.01663243003647663 
0.01680484561969996 
0.01673351526317732 
0.01674307222718201 
0.01673277482187864 
0.01673066125602574 
0.01670761722580241 
0.0167514709173182 
0.01674572157718535 
0.01670424232927191 
0.01673940849085892 
0.0167228753199025 
0.01681658589317743 
0.01676650808674418 
0.01678618436178533 
0.01677796876088307 
0.01677165468221694 
0.01679513825674766 
0.0167432368450388 
0.01690311254490599 
0.0167138520425484 
0.01690831527139943 
0.01672001411501711 
0.0168771905839771 
0.0167255809234745 
0.01689247736376159 
0.0167707392531699 
0.01677239477316436 
0.01681717835634404 
0.01679457925476831 
0.01670014668274219 
0.01693205804416709 
0.016703757971285 
0.01682331335548503 
0.01668562850874105 
0.01681342453466263 
0.01665743275814633 
0.01677603848418871 
0.01674733886481619 
0.0168740295944509 
0.01672249335128361 
0.01686362445145358 
