solver_type L2R_L2LOSS_SVR
nr_class 2
nr_feature 1984
bias -1
w
2.755288562457667e-05 
0.07665429977025211 
0.09534808595032444 
0.09510074708818982 
0.09511266037116256 
0.09507805001077843 
0.09560631842216465 
0.0950566489909502 
0.09502226558189308 
0.09516290613676263 
0.09469674501844032 
0.09488360824531432 
0.09515205046920053 
0.09511112155558801 
0.0954373812080687 
0.0955586116201279 
0.09524538784410858 
0.0954055116069419 
0.09506177924465355 
0.09489876170908985 
0.09483499276059006 
0.0953393471652957 
0.09463873292434119 
0.0949632261206355 
0.09486393129016829 
0.09516595568638588 
0.09409759209366626 
0.09490097289465625 
0.09444881117770991 
0.09543362985084071 
0.09515068467237597 
0.09580888604961729 
0.09519799066278024 
0.09575635664324697 
0.09559953342485973 
0.09555688589928867 
0.09541847865290187 
0.09574581267459389 
0.0951226040225446 
0.09586234386771471 
0.09493611588440272 
0.09628868114943961 
0.09525605508789578 
0.0959776086941571 
0.09503654212379255 
0.09595857514266411 
0.09458533137212281 
0.09621006937719472 
0.09481844434398082 
0.09546264393588474 
0.0947294969273858 
0.09501193438288807 
0.09490481326298536 
0.09528825073476434 
0.0950243566175363 
0.09537445086461246 
0.09484322478381059 
0.09556270016462673 
0.09499250410881149 
0.0954132867933449 
0.09473931902771701 
0.09542538451442011 
0.094978144070406 
0.09535924860546843 
0.09528827377154828 
0.09469948886777543 
0.09503162823116833 
0.09507345041449423 
0.09525400314881566 
0.09599839963212815 
0.09523442725994143 
0.09596799211253801 
0.0946650661551095 
0.09582770625880151 
0.09452347848932251 
0.09630872316128414 
0.09483650838233934 
0.09554213291132571 
0.09526651129338892 
0.09579186574884926 
0.09512606708702719 
0.09556948779203191 
0.09443674079096863 
0.09560225649963844 
0.09442069280437675 
0.0954487072469233 
0.09479362617593771 
0.09514184382351616 
0.09474332882537595 
0.09486618536855315 
0.09460462500506574 
0.09495312274191997 
0.09481524033218476 
0.09459433613813607 
0.09437668592867805 
0.09507380186645802 
0.09453925677962365 
0.09492090862830348 
0.09422290240712065 
0.09500235378131187 
0.09463716427788792 
0.09547690506671654 
0.09454525194544608 
0.09509700484700677 
0.09427525191779841 
0.09471737532581172 
0.09415930287248805 
0.09543043696920155 
0.09451213046496848 
0.09550846933304628 
0.09445977411506055 
0.0954624983508366 
0.09484906031199081 
0.09506164404404006 
0.09448153099967911 
0.09581974739849231 
0.09495463806524734 
0.09539787157958336 
0.09492174450881857 
0.09507515332964224 
0.09500995843698817 
0.09539502793366644 
0.09472503945178201 
0.09505278001600774 
0.0947825504422079 
0.09520846317144281 
0.09469958848211155 
0.09517193463677455 
0.09463460359236738 
0.09486247192948478 
0.09450863497068371 
0.09497067004040097 
0.09413335746555475 
0.09468490035193089 
0.0938773755460722 
0.09463935563947629 
0.09361755405222084 
0.09503635693857149 
0.09395150381449988 
0.09519535441186848 
0.09413546569075541 
0.09548332328746434 
0.0944830768046889 
0.09535927476134275 
0.09501969933630547 
0.09516930284841164 
0.09486894263270373 
0.0957278633274951 
0.09504746881451219 
0.09597605613498944 
0.09506547134098803 
0.09618905091055323 
0.09537018912955615 
0.09586296520826496 
0.09534614419346274 
0.09592786445967187 
0.09491509621214525 
0.09533499094789463 
0.09490282517526848 
0.09517903047581661 
0.09523652314397855 
0.0954567975533084 
0.09479012343639118 
0.09497101919286059 
0.09502779045636353 
0.09537192794643784 
0.09532296551959984 
0.09432514734610545 
0.09538007949553226 
0.09510652740568161 
0.09460470170154864 
0.09520756831070312 
0.09527464892362202 
0.09528386806487332 
0.09505078715251332 
0.09573472308252982 
0.09458422373526142 
0.09533037385385497 
0.09414697237678009 
0.09545753575996889 
0.09431620118159956 
0.0954815936466645 
0.09415925283180325 
0.09529843445302495 
0.09434505494596343 
0.09522643040604052 
0.09388738117941564 
0.09555837314022625 
0.09460195649378894 
0.09538601026669355 
0.09437661586416762 
0.09513961631957586 
0.09416205344531275 
0.09534774221475033 
0.09462968733886802 
0.09514080578846576 
0.09513148361120696 
0.09507756463858641 
0.09488629115561065 
0.09466741157148185 
0.09482329549746533 
0.09475600088027816 
0.09504980385560707 
0.09523046072413154 
0.09433499083869386 
0.09492765388687679 
0.09425037150900478 
0.09448178930268714 
0.09473036012572196 
0.09424104887006235 
0.09499880889568232 
0.0943326863952431 
0.09519914307337406 
0.09441477845042322 
0.09464547979248893 
0.09503503594225518 
0.09495683910521012 
0.09448500491489757 
0.09473153494736807 
0.09501019980274182 
0.09486702695856947 
0.09430555925397001 
0.09501118506356122 
0.09448798837341719 
0.09469219050939247 
0.09454321190388397 
0.09478542758491106 
0.09409847234231819 
0.09476914855776007 
0.09451035051673579 
0.09527278695012922 
0.09413596978694605 
0.0948353969372691 
0.09453200584137515 
0.09500932601166145 
0.09480512293455967 
0.09503517802391233 
0.09490761861817967 
0.09488074486873319 
0.09463970820434398 
0.0945089421617361 
0.09494757742503122 
0.09505359853793639 
0.0946417480242206 
0.09536876155021418 
0.09458915148432935 
0.0947390859149706 
0.09468271905930314 
0.09527906743886835 
0.09459315017827186 
0.09443705315621088 
0.09503905858955256 
0.0956171266174419 
0.0946863907896692 
0.09596735539224555 
0.09483210909113281 
0.0959619377568474 
0.09466337918013558 
0.09578152867634822 
0.0943549438617455 
0.09529659740076896 
0.09522013483357127 
0.0954636897770893 
0.09486031557831087 
0.09493400031341875 
0.09464967623885404 
0.09491655608282046 
0.09489450515977681 
0.09476332477016218 
0.09509576884594606 
0.0948207585124473 
0.09475319168309031 
0.09493420542325705 
0.09453112100549421 
0.09533781111247241 
0.09482471878879302 
0.09536814763473379 
0.09437550968518187 
0.09535095369662162 
0.09447570584358582 
0.09484844619281335 
0.09430996465329419 
0.09554066903102097 
0.09419586597420831 
0.09505499662003203 
0.09502907890204886 
0.09515363439581245 
0.09461155062955325 
0.09504863134627467 
0.09441902893165845 
0.09475808331395233 
0.09447101837882181 
0.09492189441727754 
0.09419159945099974 
0.09556451964179068 
0.09387845228252924 
0.09547447679046095 
0.0940278305304041 
0.09473276157838487 
0.09360923312706096 
0.09505688404463362 
0.09358413143782061 
0.09531558259196973 
0.09329720365745456 
0.09491517758334596 
0.09362192316124859 
0.09444966512553721 
0.09344330829084194 
0.09436553886279828 
0.09381189646822641 
0.09449551073377052 
0.09325904244969298 
0.09454273626992239 
0.09392849927104101 
0.0945589199011441 
0.09367306865165603 
0.09429392032999097 
0.09422088304853517 
0.09476337460764399 
0.09372203376541471 
0.09487765857309606 
0.09401623894758908 
0.09464972069763335 
0.09410843728922212 
0.09450885066025184 
0.09396915171642647 
0.09476481630970029 
0.09333083889204248 
0.09511574333471541 
0.09380201599612394 
0.09519612613888874 
0.09364542846672649 
0.09496284773291397 
0.09366296013211207 
0.09504251331793047 
0.09406334649812181 
0.09516139625249491 
0.0942096502368054 
0.0947405242203594 
0.09439075399030576 
0.09504310946750948 
0.09376830313724691 
0.0949613247380945 
0.09388872109260919 
0.09453859976310973 
0.09413608493107434 
0.094697994187516 
0.09357503665125556 
0.09472628681271529 
0.09437427186325904 
0.09449281869062158 
0.09400656910615776 
0.09457289173425909 
0.09319870770340809 
0.09428719936940715 
0.09316102782288285 
0.09407841739589441 
0.09399792479892223 
0.09390532117370871 
0.09446197329789907 
0.09406948708171918 
0.09428780141651907 
0.09451266023465457 
0.09443309666866138 
0.09438283732000176 
0.09454321388196285 
0.09445294950549521 
0.09453547412858099 
0.09471850582859745 
0.09434162762443368 
0.09500232760243157 
0.09418894452685247 
0.09496750630363826 
0.09432185342509894 
0.09503785804372945 
0.09452128200879409 
0.09413197134134656 
0.09519418328332258 
0.09456967139854823 
0.09443013562598752 
0.09379411427249321 
0.09492858064166081 
0.09416911220971982 
0.09484134538701547 
0.09437646195431461 
0.0948118232417635 
0.09449950739005145 
0.09436509542153025 
0.09432664183286756 
0.09441079236920381 
0.09456957746702571 
0.09412319136767304 
0.09465068547236372 
0.09431110661411109 
0.09444397391820067 
0.09376527502196395 
0.09419668826230046 
0.09368232572997091 
0.09458891158815462 
0.09404732992727032 
0.09419433089265229 
0.09391783487144052 
0.09447994669238802 
0.09305501923943969 
0.09465284602769669 
0.09387375382027915 
0.09430246108595797 
0.09399897339784917 
0.09404496219515489 
0.09410988857807896 
0.09435037650845275 
0.09450722331151537 
0.09424039267985181 
0.09455501579785816 
0.09413032141427451 
0.09456149160829065 
0.09422963002884417 
0.09521442214462232 
0.09397395444198145 
0.09504614514713221 
0.09418964403107441 
0.09453261888776891 
0.09414099736916254 
0.09489252475323241 
0.09474087713093705 
0.09494509417883781 
0.09504149755275851 
0.09434854321585126 
0.09473950344616733 
0.09421510174594647 
0.0949887853719391 
0.09397435419490976 
0.0944607058581204 
0.09461417546664029 
0.0948734215883017 
0.09459790334772211 
0.09428181969861493 
0.09385614017960649 
0.09491840475653171 
0.09376154865869982 
0.09438360921178254 
0.0940126438152166 
0.09470855176030064 
0.09411207586100662 
0.09495051077335323 
0.09404000576772102 
0.09499817796035238 
0.0941669416461645 
0.09531030325759642 
0.09380713375044682 
0.09485576250439186 
0.09385572275978432 
0.09503323497884855 
0.09401985329360617 
0.09516955845511245 
0.09428469496925516 
0.09440271612341743 
0.09484291830642619 
0.09458954438550352 
0.09427786218848755 
0.09427563560306823 
0.09473495305810602 
0.09445702224052795 
0.09515084557791317 
0.09405120859762499 
0.09486598268669312 
0.09441501921232774 
0.09444182919625929 
0.0942470602646308 
0.09437548544939711 
0.09372497795756222 
0.09412214609396456 
0.09372033233099082 
0.09407291618917475 
0.09392889818437671 
0.09475056236332394 
0.09383746016229312 
0.09504826374367779 
0.09435917642129946 
0.09439112434061681 
0.09440775752760686 
0.09436228200407694 
0.09521604093714479 
0.09458957880032522 
0.09490622199925536 
0.09460908558311269 
0.09473935749086861 
0.09466723149001072 
0.09516904535314061 
0.09480725918648185 
0.09499197520242544 
0.09479973879522881 
0.09485353874765447 
0.09439341726377753 
0.09528281396743118 
0.09438002417828725 
0.09499255974466506 
0.09474558094601741 
0.09460969263649745 
0.09429006815893495 
0.09425023031931695 
0.09540380106725016 
0.09431493106527361 
0.09599671250791431 
0.09436728903748605 
0.09574598702475562 
0.09465900370400322 
0.09549761830644317 
0.09435909457580324 
0.09516263799813235 
0.09461830495901857 
0.09530149843904953 
0.09430095400989102 
0.09531829185101805 
0.09437342695329405 
0.09486261829387251 
0.09382561668535994 
0.09493347353626878 
0.09430389289697892 
0.09489799154869373 
0.09423675995392332 
0.09453167630918149 
0.09469413053369879 
0.09462221981097062 
0.09436985292935891 
0.09516793760192813 
0.0943902996736391 
0.09510288852543991 
0.09434324771005402 
0.09514781902244962 
0.09414303509890147 
0.09525396853549836 
0.09453856136865783 
0.09461616206707009 
0.0944846305190869 
0.09419386968359966 
0.09413116173884643 
0.09413847674244613 
0.09385684067990542 
0.09451961676219013 
0.09428814423242647 
0.09415817320732675 
0.09395503091554848 
0.094837057781225 
0.09410473506687728 
0.09506273284297402 
0.09425812849323416 
0.09440517792545129 
0.09450806017210876 
0.09464747489233685 
0.09372353669769784 
0.09495678582001912 
0.09408528297739559 
0.09482521199457332 
0.09466000280787688 
0.09480990712244917 
0.0945845424938299 
0.09429326599641913 
0.09468747419279119 
0.09445234607023446 
0.09406037339310649 
0.09476706286999176 
0.09381244890660423 
0.09459388223545544 
0.09434219048779569 
0.09495912399074977 
0.09399813529955257 
0.0949169903715551 
0.09417905189133893 
0.09453912721584111 
0.0943092492018313 
0.09511445106509908 
0.09441689325354577 
0.09431185160735621 
0.0942136020719084 
0.09450224780984504 
0.09465912980555773 
0.09392838694334915 
0.09450397365645391 
0.09410030804660179 
0.09488133460976586 
0.09424749528460721 
0.09411405464610036 
0.09443905547856103 
0.0949417427381419 
0.09455722359829265 
0.09402605906218318 
0.09448001360942931 
0.09404714638730982 
0.09430443903236239 
0.09427446944857815 
0.09406487612720096 
0.09472479007031913 
0.09441650624276408 
0.09471778756745451 
0.09417781380558779 
0.09463099131770918 
0.09498915233850976 
0.09466860868253242 
0.09443677568343138 
0.09480067447937178 
0.0938995398964266 
0.09516630375617922 
0.09368856501938398 
0.09515408289905086 
0.09390145663230089 
0.09507264998282186 
0.09383097948485734 
0.09548226634677537 
0.09383942351664235 
0.09519884248404466 
0.09457001875541357 
0.09487547855432715 
0.09423793620776894 
0.09532869255952414 
0.0941095253401605 
0.09550677507495592 
0.09427003700502887 
0.09528231870404885 
0.09403129539626719 
0.09445328785296224 
0.09396635222359001 
0.09434586624981545 
0.09500133238208559 
0.09444999432807891 
0.09537673077808197 
0.09511088591324643 
0.09528648189378676 
0.09380373918067789 
0.09545167497843539 
0.09353554440126605 
0.09513465007974516 
0.09387846380048395 
0.09483069058356315 
0.0938688179847223 
0.09507119378426324 
0.0942340755439913 
0.09469557175611533 
0.09398773862557877 
0.09453893053295846 
0.09405876252647812 
0.09417245619914108 
0.09402207656810903 
0.09417810912931775 
0.09491837467499556 
0.09341979743176076 
0.09495208103030865 
0.09416858590190716 
0.0947219844369417 
0.0939931096837384 
0.094370306958029 
0.09434377040609598 
0.09513033322741254 
0.09417325893365244 
0.09522610330166924 
0.09354057616782704 
0.09503302713897509 
0.09340253570858018 
0.09532395990751624 
0.09350516344668561 
0.09503722908270182 
0.09308430960677547 
0.09488583506138758 
0.09320412749456838 
0.09497691643768488 
0.0941150537255887 
0.09498512752245988 
0.09345185573879732 
0.09517469616966118 
0.09381785412666722 
0.09480872126186975 
0.09379893619717475 
0.09498871074764891 
0.0936131922230804 
0.09514535046348578 
0.094006419691735 
0.09452964420674016 
0.09429288194056737 
0.09522962120451245 
0.09389026741897859 
0.09493550172032375 
0.09362278418138063 
0.09503520219864375 
0.09351369579640013 
0.09507539543326464 
0.09363092427257468 
0.0951587412896122 
0.09332858702878756 
0.09525461398801875 
0.09344202505360932 
0.09443259651879646 
0.0930367824556845 
0.09478121467697559 
0.09354914631448091 
0.09467855545569312 
0.09330723040128865 
0.0941563975762198 
0.09365000616040042 
0.09439478657633346 
0.09365679612933765 
0.09518411169599435 
0.09301901867280453 
0.09440013183913316 
0.09412875860547956 
0.09448583021937736 
0.09404739885266307 
0.09491541329282198 
0.09432288967703653 
0.09505853322940738 
0.09448186044331895 
0.09496680896681181 
0.09422127122415164 
0.09458260967591753 
0.09414434269738588 
0.09537123163312625 
0.09301903262188618 
0.09533075055618656 
0.09396676038494674 
0.09491723705445333 
0.09348687349321352 
0.09556140409317142 
0.09413315522045872 
0.09522797729146305 
0.09432309324908131 
0.09511548636611528 
0.0944385501957955 
0.09506069002319595 
0.09398868001975226 
0.09495110168786269 
0.0940789992704177 
0.0948500894908218 
0.09403318790832926 
0.09516243830451249 
0.09374420292382585 
0.09508524313457181 
0.09358802189854684 
0.0946358901065143 
0.09309031661219345 
0.09485709590312585 
0.09296289291717931 
0.0948164716289512 
0.09300195347199981 
0.09461351539846612 
0.09344570247219253 
0.0946796673315568 
0.09303467514345701 
0.09435270229812341 
0.09320822599648547 
0.09497604286208139 
0.09281972820490168 
0.09465458459699572 
0.09311155784375999 
0.09407882079742416 
0.09316011154505871 
0.09476265807279452 
0.09267984176600787 
0.09425050936152364 
0.09269177950258627 
0.09435082848823338 
0.09328416452310705 
0.09397046889695815 
0.09337572864793162 
0.09381527194156786 
0.092985791915758 
0.09405996851277917 
0.09305134466012194 
0.09403151431932145 
0.09364623158723522 
0.09380157150107477 
0.09348675189646349 
0.09437470667060696 
0.09353015800798831 
0.09521895068493523 
0.09385249073976468 
0.09470472337421645 
0.09333485720319082 
0.09500673387735886 
0.09354927663301299 
0.09485205387894946 
0.09348091518181462 
0.09514625533821709 
0.09316264489961193 
0.09475810509576071 
0.09398912935060875 
0.09416605747900955 
0.09386342665068638 
0.09370351050428508 
0.09336573186534908 
0.09435376937759477 
0.09407204277280833 
0.09453234089559991 
0.09396986866516766 
0.09463951058495143 
0.0937746366077713 
0.09444094144692329 
0.09338991186693629 
0.09489168111914753 
0.093522309277424 
0.0947455408720345 
0.09325815753959471 
0.09466783868746 
0.09299577658321857 
0.09436121037884153 
0.09322750732850772 
0.09410677176697815 
0.09334437559706484 
0.09417381820610313 
0.09307551491381784 
0.09428485709613031 
0.0933522942472025 
0.09374656428513417 
0.09368158562150533 
0.0943066470239113 
0.09350280038883446 
0.09423299526740822 
0.09408774659678236 
0.09430992570062964 
0.09337338753648439 
0.09412783097387042 
0.09416441181018829 
0.09452887724819552 
0.09389330316482948 
0.09474565851097548 
0.09398399517358132 
0.09446032813603349 
0.09365450911700506 
0.0939208678005134 
0.09353235247636525 
0.09405874963518274 
0.09336057675253236 
0.09478032899277807 
0.09364252686582751 
0.09394452276567609 
0.09304630221379732 
0.09325391935296029 
0.09347561335150345 
0.09322654803010065 
0.09396677552746165 
0.09418313524563046 
0.09329065603178467 
0.09384554900863422 
0.09355247672688077 
0.09344301560484421 
0.0937707034639329 
0.09367958083046743 
0.09416523419972637 
0.09403043756426588 
0.09418742265159501 
0.09382623200076892 
0.09371965258513873 
0.09365669236961768 
0.09391857429749821 
0.09430024454191023 
0.09385107062636218 
0.09357007690428402 
0.09383428942833924 
0.09409567782122724 
0.09428044276886088 
0.09347749483987884 
0.09453359386229664 
0.09340291267620981 
0.09587044046594026 
0.09376625684939871 
0.09521145206908578 
0.0936686558182423 
0.09452113268817428 
0.09413033469294452 
0.0945776277207475 
0.09359492649420612 
0.09450627967989404 
0.09444044989778795 
0.09455634002502744 
0.09410973119457801 
0.09429056043292355 
0.09374111110551295 
0.0945710567799113 
0.0936019319947442 
0.09428653962864159 
0.09379697997839598 
0.09388821899668028 
0.09340478163743059 
0.09434482431454165 
0.092811609838134 
0.0944706394671757 
0.09324159300644572 
0.09425440781894108 
0.09274068959323527 
0.09460129090030124 
0.09302362424407734 
0.09488143925130167 
0.09340588888062103 
0.09472774192037954 
0.09318698733117084 
0.09439283330268228 
0.09338190906755547 
0.09432526960054244 
0.09359385491067891 
0.09462335337290481 
0.09383112933044842 
0.09457623594013417 
0.09395600537937407 
0.09421169361725686 
0.09378898640941473 
0.09482076580160285 
0.09334723838819255 
0.09510412940402756 
0.09324552780742951 
0.09407747544789524 
0.09342540349937281 
0.09455596656117454 
0.0937441817305871 
0.09441926107088647 
0.09386221492413364 
0.09447587050716114 
0.09338765991312899 
0.09388990204624965 
0.0937188186975937 
0.09419711057480742 
0.09396740623545752 
0.09437151605093071 
0.09364724382559028 
0.0943128017896564 
0.09386848200768079 
0.09458232877213463 
0.0932882476796678 
0.09415193437466984 
0.09400326977334009 
0.09452792056148734 
0.09367201451531508 
0.09418361419368869 
0.09455370524040453 
0.09465536975243351 
0.09517160152273285 
0.0935828682565331 
0.09544947096676876 
0.0943773768145799 
0.09486821289564291 
0.09435410205172445 
0.0949917199700008 
0.09506444929109464 
0.09435911480170141 
0.09535319527780801 
0.09432950096588676 
0.09518143434546722 
0.09472610864293637 
0.0952804892299558 
0.0941522380810484 
0.09526759510079538 
0.09486944057611985 
0.09570266809366842 
0.09376800459629105 
0.09525287751913747 
0.09372932158404744 
0.09429608079971313 
0.09449492690950491 
0.09411804736679481 
0.0937844288927879 
0.09412736997058754 
0.09409840615678229 
0.09390699051918749 
0.09431233177829504 
0.09440019812870533 
0.09409771773722019 
0.09454254637164482 
0.09373689399370072 
0.09426826970038098 
0.093399961368936 
0.09432881276819154 
0.09373919641843791 
0.09459354982506421 
0.09345491669036454 
0.09486971242649193 
0.0934468575360221 
0.0946396667039246 
0.09369965035602595 
0.09450452197965271 
0.09342100586644647 
0.09468843313339846 
0.09366267242103962 
0.09453352334111541 
0.09337782024004297 
0.09474612016589359 
0.09365474607348317 
0.09495326099074346 
0.09330706832663858 
0.09430997106205936 
0.09299064904326339 
0.09450149975342501 
0.09368199660151182 
0.09417905687391748 
0.09344534450482174 
0.09375391418452185 
0.09354247930752699 
0.09404508445706342 
0.09374352994115152 
0.09416133588058517 
0.09414123092207072 
0.09361811117734752 
0.09396153441104051 
0.09429935006923201 
0.09353621897290415 
0.09457692993881169 
0.09402568025493824 
0.09370773871548621 
0.09395317895730479 
0.09387355045091628 
0.09403674416673914 
0.09367358271749819 
0.09392638716817585 
0.09356547568163612 
0.09432143927305275 
0.09420828150648579 
0.09384724494412797 
0.09373918444880057 
0.09421515417811487 
0.09413227624033368 
0.09357532726653575 
0.09460669263113951 
0.09396206053321643 
0.0947386543207453 
0.09407535075914615 
0.09439286413081432 
0.09425986042191507 
0.09393675308338491 
0.09346120150011572 
0.09463327948348536 
0.09352358386776702 
0.09421270938938905 
0.09384934500554419 
0.09421843816380539 
0.09388541462150946 
0.09369806895728053 
0.09425933481028378 
0.09346880374565358 
0.09416705970363143 
0.09397370693683153 
0.09429275089421477 
0.09373636986181348 
0.09432571076039191 
0.09377219334437965 
0.09500179395809934 
0.09382137301123016 
0.0946001403253547 
0.09406884365543294 
0.09466534913273286 
0.09367028099872106 
0.09434270827525058 
0.09351029931488977 
0.09458580009193047 
0.09370203496168499 
0.09480720591683429 
0.09360359801713089 
0.09457393140076825 
0.09322695452495186 
0.09433631861612601 
0.09298430541884765 
0.09409301385879318 
0.09360251918379627 
0.09438345085998072 
0.09434680164817458 
0.09371211098365774 
0.09412775216627688 
0.0939189916236251 
0.09350084069234028 
0.09344742739284974 
0.09386658551867565 
0.09334736223875784 
0.09380228611035822 
0.09360289428007972 
0.0939298058886513 
0.09288415673898541 
0.09410107243341227 
0.09304408657577172 
0.09379208247207427 
0.09364513459329513 
0.09394850538139689 
0.09309649399527038 
0.09427407981103832 
0.09387593797322964 
0.09378733701203606 
0.09349375135253651 
0.09423803463596511 
0.09386042595488421 
0.09354445069468736 
0.09395518804165746 
0.09402346758121927 
0.09376857260003656 
0.09376181282535559 
0.0939295901205266 
0.09367091670736051 
0.09383724075268625 
0.09294589050013671 
0.09372815509733805 
0.09267622468638502 
0.09374287794362285 
0.09339971976114696 
0.09319341462744819 
0.09309498898968366 
0.09334320371957144 
0.0932139752770553 
0.0938694677236389 
0.09309525639042174 
0.09385118301587148 
0.09304295730899308 
0.09334738208464825 
0.09317592060337372 
0.09368798338789269 
0.09335317384416411 
0.09465895901861911 
0.09318333701716278 
0.09440222466179475 
0.09359109257945439 
0.0943187783286332 
0.09398697608621027 
0.09441015584873746 
0.09343652986519509 
0.09449962208731882 
0.09370342262194326 
0.09446248347196624 
0.09358996627473538 
0.09465964811407078 
0.09362232247805832 
0.09457732816731268 
0.09373866445660496 
0.09452649250332264 
0.0932649502443539 
0.09447984055330139 
0.09371305422252796 
0.09474963845450657 
0.09341117396273586 
0.09384662520785565 
0.09392930179379914 
0.09380586050299557 
0.09322745851973528 
0.09397163427203876 
0.09328395494326687 
0.09369181961845606 
0.09328618831333445 
0.09385603331577415 
0.09341985919185447 
0.09405150127509601 
0.09331176990002069 
0.09369887322933491 
0.09387626756017195 
0.09336848926134803 
0.09363631929905726 
0.09354784430335776 
0.09384926407205672 
0.09413772005498174 
0.094289809654972 
0.09368178942623547 
0.0935963923987144 
0.09397858234766748 
0.09347305308996731 
0.09437639430020657 
0.09341395971617722 
0.09426281327460211 
0.09358360099045934 
0.09471777263666215 
0.0937765704515743 
0.0949558571999258 
0.09400198457287384 
0.09465181196889134 
0.09422918259215375 
0.09452149866849281 
0.09364342770700637 
0.09466738155897529 
0.094426209344218 
0.09405544205960176 
0.09479126479379138 
0.09407822070440429 
0.09473253622762412 
0.09388695307099776 
0.09408487297010369 
0.09396151163663716 
0.09464013011336486 
0.09417129074147408 
0.09484956388794261 
0.0942457272474909 
0.0949777387370624 
0.09448077737330871 
0.09502576839684307 
0.09410326797874026 
0.0944648893429436 
0.09409797822114115 
0.0947122151361882 
0.09401853286033243 
0.09408317949317094 
0.09406627472055787 
0.09416251970999664 
0.09428058611626047 
0.09373088141320271 
0.09446466554491885 
0.09370354204320282 
0.09409717526984425 
0.09391955274172706 
0.09378123066389384 
0.09336863232509976 
0.0931519996265445 
0.09367646984577829 
0.09376387087134717 
0.09421253749717309 
0.09337792389806569 
0.09348408720644348 
0.09306489957816107 
0.09300246648384697 
0.09273110039705365 
0.09344881346702516 
0.09285309227995529 
0.0928410275431001 
0.09260888087408052 
0.09279663200157576 
0.09228574998889033 
0.09282761567084459 
0.0928948430839882 
0.09341323694505597 
0.09338690747693199 
0.09325023444984926 
0.09361160319558119 
0.09398206000772824 
0.09320811274598123 
0.09378485346277309 
0.09416989580307387 
0.09364503621039551 
0.09411378977731844 
0.09355040359762042 
0.09490049242582579 
0.09417679911680883 
0.09461502015295296 
0.09391188636918396 
0.09500498665992918 
0.0937168305726692 
0.09474311551263455 
0.09326164190346656 
0.09466649614023076 
0.09378464223298995 
0.094799151356169 
0.09363429600710348 
0.09385197967810074 
0.09355753177722322 
0.09393652646354196 
0.09348690664097824 
0.0941303540987708 
0.09295224412279497 
0.0936354795426009 
0.09258685046740156 
0.09391385302125871 
0.09295218600982964 
0.09344107950302712 
0.09310541043343444 
0.0936567802795501 
0.09359446239029059 
0.09332729502515477 
0.09395682391747008 
0.09387361350231666 
0.09384402365673364 
0.09401813285534905 
0.09366570940367634 
0.09453066874622724 
0.09431219377630615 
0.09425002027464387 
0.09445463812071614 
0.09436166915660191 
0.0942438760103943 
0.09450256771603831 
0.09418810362869498 
0.09410429643624516 
0.09391740728148902 
0.09489889524308447 
0.09397381249324772 
0.09457192805317044 
0.09413837193083302 
0.09433398558282186 
0.09334227341075324 
0.09461050214539053 
0.09382550495980833 
0.09475221791640781 
0.09378186022821466 
0.09478691240265619 
0.0930787857029393 
0.0945336675818005 
0.09366210589603953 
0.09487019844604595 
0.09415830764215448 
0.09404963346757722 
0.09359663236133337 
0.09478706827091786 
0.09379766214076327 
0.09425263935839652 
0.09364681438474486 
0.09422808350128745 
0.09386926390064206 
0.09391042356951278 
0.09430963947561932 
0.09436854433406786 
0.09411162285131598 
0.09431855104944918 
0.09431616217745185 
0.09417821431969663 
0.09394006389870138 
0.09357910478406214 
0.09355148424750415 
0.09414227670148487 
0.0935623482457391 
0.09370517389837997 
0.09363131273498079 
0.09398429922841096 
0.09330791419599906 
0.09417721143538903 
0.09389145177878737 
0.09409289791033139 
0.09377128136322603 
0.09402968905946203 
0.09324359317256409 
0.09444227314708487 
0.09315921548162603 
0.09389302782995237 
0.09334885060192889 
0.0934165612538374 
0.09287821371707458 
0.0933827977046985 
0.09313651972746578 
0.09369658572239603 
0.09303439277449185 
0.09288197855579083 
0.09297285805217834 
0.09227066297227304 
0.09311686363689287 
0.09280145083687533 
0.09319195578486807 
0.09288479523313797 
0.09388968388877804 
0.09202974324163897 
0.09383100656456397 
0.09252042375765461 
0.09324470695279719 
0.09231908326487272 
0.09334523098023371 
0.09227816298631837 
0.0938175939920851 
0.09232739500360848 
0.09378650884748579 
0.0926333592622567 
0.09420194555086879 
0.09284185705449284 
0.09429819376196272 
0.09329873160677928 
0.09411827985289518 
0.09324111824783494 
0.09432719118286464 
0.09340645365185221 
0.0941263162528061 
0.09372494321718368 
0.09478511416653125 
0.09362592600928196 
0.09517889803070961 
0.09369138851250497 
0.09478922303059617 
0.09377932329927455 
0.09454481865713515 
0.09399550871202846 
0.09420066740106159 
0.09363862844174169 
0.09424475396813632 
0.09335783890344379 
0.09472672610430746 
0.09295416902878333 
0.09454341111140094 
0.09388457674413137 
0.09465876064081019 
0.09294419778195792 
0.09414263576807094 
0.09291143747824308 
0.09456041733302288 
0.09279934284411667 
0.09435963619265249 
0.09379173704285061 
0.09431612152125422 
0.09415320084160861 
0.09406379500045699 
0.09469338137044049 
0.09424541067183538 
0.09453178314452401 
0.09408634299516719 
0.09403610319595637 
0.09388073893322932 
0.09385617914798944 
0.094005849196158 
0.0934123947197672 
0.09428201411507328 
0.093759614269076 
0.09475789405592669 
0.09319181130540022 
0.09453711656327365 
0.09359182631295469 
0.09480660521463469 
0.09372005937462548 
0.09472893904083526 
0.09375469883924573 
0.0945158543531687 
0.09369306130359094 
0.09449165998323883 
0.09368082335436186 
0.09444168522059262 
0.09453414771104086 
0.09416926138873621 
0.09388213828078024 
0.09377859437304874 
0.09411310492398968 
0.09405163258603599 
0.09407021721675042 
0.09391891610600617 
0.09380298170004098 
0.0943082058160947 
0.09327574601971628 
0.09398054039259401 
0.09351096003545546 
0.09417064727781922 
0.09344014585102393 
0.09387777057383723 
0.09332333587777258 
0.0942308997956042 
0.09357430345552999 
0.09378376404958393 
0.09374728514029541 
0.09389101825592344 
0.09296558598326171 
0.0941364416969221 
0.09275065099857119 
0.09401931787265885 
0.0928624654707052 
0.09431995537608694 
0.09224180489777301 
0.09412355915231255 
0.09310341432308553 
0.09423726174085806 
0.0926075937664925 
0.09424983864360405 
0.09276805830137612 
0.09401797555281273 
0.09295340588921823 
0.09412927051083295 
0.09330555431318685 
0.09470188829483479 
0.09309199599343131 
0.09473137717124691 
0.09381945467599112 
0.0944631150594014 
0.09384393544415684 
0.09418840189043928 
0.09406137750008615 
0.09422934703574967 
0.09405645336793295 
0.09387632582292063 
0.09407196373063494 
0.09420964895805535 
0.09419458032460677 
0.09422840562919955 
0.0938922360227544 
0.09388381455115954 
0.09336022868455343 
0.09408053618018972 
0.09402556879049448 
0.0939672764595892 
0.09395797762025543 
0.09409898750929929 
0.09367387219906 
0.09395965607582625 
0.09356388804919269 
0.09428143063674604 
0.09416066192137952 
0.09430308786339982 
0.09421727160801721 
0.09395378686764332 
0.09396564308746033 
0.09419288679253915 
0.09377651105109028 
0.09455065870857216 
0.09441954562222764 
0.09441117359992529 
0.09435057488240836 
0.09440340562169351 
0.09510214599147994 
0.09515129292471876 
0.09423010432053236 
0.09466217967387942 
0.09446837093208735 
0.09447479598312088 
0.09423491757946589 
0.09455409839518482 
0.09395734207824018 
0.09467210678864357 
0.09382153793154695 
0.09431432626472577 
0.09460286440787317 
0.09372290396037648 
0.09491275728051644 
0.09392390482637336 
0.09437555680966986 
0.09427573803792508 
0.09357934157487219 
0.09421456976881715 
0.09354596857369234 
0.09403486548822189 
0.09395572113165299 
0.09375557362618538 
0.09397747879794309 
0.09402791478607805 
0.09359188050004788 
0.09440299066601852 
0.09378163836870804 
0.09461163927157684 
0.09426164950771194 
0.09443696510163292 
0.09475735442576642 
0.09391165825740226 
0.09432832138365248 
0.09483427353018944 
0.09454649674972038 
0.09381976675205535 
0.09453086534444446 
0.09465025290131251 
0.09418611292747743 
0.0944245364922154 
0.09405393163733144 
0.09463965760167078 
0.09393961405512055 
0.09415829108989687 
0.09422544437575639 
0.09385965126799739 
0.09414000499377671 
0.0943042577461343 
0.09397313642599178 
0.09400223696311885 
0.09397628131742534 
0.09398563729856502 
0.09419532698686423 
0.09415140416092309 
0.09362332535643204 
0.09472043075620366 
0.09381039096496208 
0.09374059722092609 
0.09385586557978209 
0.09401036962383531 
0.09358145489802165 
0.09319585784062641 
0.0939973852002918 
0.09344086033710128 
0.09422314306332669 
0.09349196753557894 
0.09392496915687994 
0.09316289682362106 
0.09397404162982112 
0.0932741128997705 
0.09384685607064587 
0.09347866035696305 
0.09310533993641124 
0.09398815260360172 
0.09325948782778444 
0.09365193317134556 
0.09410914234884828 
0.0931107016805483 
0.09431348376298769 
0.09376265085694525 
0.09487395775247702 
0.09395748634803451 
0.09472712097614584 
0.09351852659727308 
0.09417239611502369 
0.09348451962617478 
0.09432139429611491 
0.09393764949834947 
0.09443874397104363 
0.09425122460754934 
0.09389671462537949 
0.09375255174449017 
0.09432496426759196 
0.09380805493658105 
0.09411012466229743 
0.09407395135757193 
0.09373761298187144 
0.0942259499318181 
0.09371553762624379 
0.09405795378501804 
0.09372655410641628 
0.09397897170166186 
0.09399977774838308 
0.09391273254200599 
0.09380160641142321 
0.09339902193687331 
0.09473018601297514 
0.09346681372139967 
0.09384830207829897 
0.09291844223154212 
0.09383980576116663 
0.09342751295108107 
0.09442026914465121 
0.09336950445406225 
0.09450492497402871 
0.09327530580131395 
0.09462665338196481 
0.09359045928826232 
0.09429264917796634 
0.09449115057367337 
0.09448884387387456 
0.094375178883087 
0.09444883584557096 
0.09489051262251172 
0.09427459963013385 
0.09445722987629349 
0.09396562687249539 
0.09425690266372827 
0.09461852415779791 
0.0945575902965516 
0.09493784633942877 
0.09434420471460657 
0.09488665390745515 
0.09407546025674172 
0.09441552268387697 
0.09422859098808849 
0.0941109012153914 
0.09400012633128116 
0.09411793444499145 
0.09441841721292085 
0.09454485047796687 
0.09390119830137064 
0.09439749548208232 
0.09357504356073464 
0.09426477108529191 
0.09420610807596048 
0.09401985095783015 
0.09425866857993179 
0.09385769204899298 
0.09408538328580264 
0.09444594643597544 
0.09338227494032053 
0.09416736886224117 
0.09379719724998944 
0.09436403861563425 
0.0937491069027363 
0.09391236466625484 
0.09367179386608554 
0.09401171551679252 
0.09450480740210859 
0.09392058702703686 
0.09396608351803011 
0.09421286682445967 
0.09398297078467265 
0.09424993722391772 
0.09441918353406688 
0.09432927549557306 
0.09360042949100697 
0.09421190561331662 
0.09421758335937384 
0.09376494765333587 
0.09410023569653679 
0.09403612557213256 
0.09441392065003605 
0.09442000861716776 
0.09430960502359617 
0.09441368760904266 
0.09459846490743322 
0.09402659623903831 
0.09495651946676958 
0.09473227382722904 
0.09481969166329629 
0.0948499485370579 
0.09452925510493038 
0.09460416162571161 
0.09476343201159662 
0.09441144751585877 
0.09484889318911309 
0.095146731446201 
0.09418754346291916 
0.09471974254654722 
0.09429393446413023 
0.09443486236050809 
0.0946126905207883 
0.09519924871524765 
0.09431965827922582 
0.09507699919858763 
0.09390780668092641 
0.09467930718181451 
0.09416397645443718 
0.09497734733260581 
0.09377212334034718 
0.09498208988771552 
0.09397299273698205 
0.09535223962076449 
0.09434912499682331 
0.09517346981255705 
0.09406359529735418 
0.09528927209682253 
0.09443067771531513 
0.09519290659147457 
0.09415615356006712 
0.09521273142986773 
0.09419829872602668 
0.09504976762360978 
0.09459662443455999 
0.09447504966571547 
0.09398327691108478 
0.09539955759968254 
0.09425478163404659 
0.09531473724735293 
0.09505835105326235 
0.09517189676789536 
0.09469740076478174 
0.09517682390674742 
0.09486633971657715 
0.09590622912792485 
0.09425593626334502 
0.0952724251227885 
0.09424526756503161 
0.09538306791944424 
0.09406659789613768 
0.09461434443653044 
0.09410140645243895 
0.09488042982940904 
0.09445795441760235 
0.09520136875837749 
0.09457758108203554 
0.0946458800638008 
0.09454052507850905 
0.09507760064419186 
0.09448271180089932 
0.09506038270648985 
0.09484884338651464 
0.09492275347078966 
0.09466969578913464 
0.09476553591396064 
0.09432645504965133 
0.09506168227250093 
0.09395808011760001 
0.09432092598722167 
0.09465586724673423 
0.0944010562938324 
0.09424977966782397 
0.09390197874220391 
0.09435361355723887 
0.09414821793413169 
0.09433805289583094 
0.09446627929921605 
0.09445745268825304 
0.09437752922538997 
0.09465753670311965 
0.09460460629481293 
0.0949366902435502 
0.09431534287384682 
0.09414338868951554 
0.09421745859875148 
0.0944129193561332 
0.09416221798882135 
0.09500700320944751 
0.09466525942931033 
0.09507976901738993 
0.09426234722651643 
0.09486897694605287 
0.09456081078136004 
0.09441144325101572 
0.09381104779292315 
0.09418774273962423 
0.09410001346533853 
0.09410538611479756 
0.09444054590691214 
0.09409449432646018 
0.0947962525586071 
0.09437146512356337 
0.09528332808985016 
0.09463096540972987 
0.09476376156648282 
0.09439196241198855 
0.09538234762278139 
0.09376831899603012 
0.09568617762454018 
0.09393021673352529 
0.09471708641626379 
0.09435112439272161 
0.09425378439005443 
0.09477205467735664 
0.09429489915049892 
0.09425456702575172 
0.09434625234506433 
0.09453776343668559 
0.09546887186591968 
0.09421218860694262 
0.09490216341450797 
0.09471914012503381 
0.09498531365155775 
0.09476250988994106 
0.0947108401618757 
0.09460741804658113 
0.09451257117746201 
0.0950467987767296 
0.09473207041223609 
0.09502542995848147 
0.09484752350977757 
0.09524041358326034 
0.09583350482728957 
0.09543085428827938 
0.09534893120802057 
0.09563998456131936 
0.09480019035426403 
0.09566296734742055 
0.09470823297103811 
0.09530793131276685 
0.09490162251354398 
0.09469005874312036 
0.09461316839163664 
0.09483897346021637 
0.09473498502559323 
0.09407863947956692 
0.09508727199607156 
0.09439781154023771 
0.09519115180390041 
0.09496057840992697 
0.09515386561469205 
0.09470767740522616 
0.09500680605738758 
0.0944649458972765 
0.09442216921423034 
0.09505572914977022 
0.09422128598651529 
0.09499849650070548 
0.09464269731785611 
0.09507483882107039 
0.09458950629510392 
0.09486104927173974 
0.09449638612202567 
0.09499480777241483 
0.09433887503128677 
0.09429599052323814 
0.09492835794954096 
0.0948953309254691 
0.09485312483744418 
0.09513163528264182 
0.09471103060433989 
0.09537625079273281 
0.09446194514361694 
0.0956233874936278 
0.09463390025653096 
0.09537824940491575 
0.09428912168755224 
0.09509726076210546 
0.09435994127601836 
0.09541552996567934 
0.09433047476889581 
0.09522257487228017 
0.09418853854294326 
0.09477651952981266 
0.09464319771577165 
0.09467081892236352 
0.09432098153100314 
0.09534761094665148 
0.09494080164881774 
0.09442592438272809 
0.09481429676780354 
0.09451078603667154 
0.09459296687177476 
0.09394918007087812 
0.0950061674555671 
0.09431886854987671 
0.09470471131968215 
0.09484689054251776 
0.09482048141576906 
0.09489866902298708 
0.09473391296231777 
0.09548490523739153 
0.09400244335389189 
0.09491677613875642 
0.09362763993568687 
0.09518883977403884 
0.09347695180925186 
0.09546225280118678 
0.09301243925965476 
0.09571734329489519 
0.09377221531851794 
0.09567204921748228 
0.09397066755203952 
0.09579162076802274 
0.09399857928339117 
0.09588080386188071 
0.0939006153252005 
0.09559999589750796 
0.09476889309729156 
0.09518729060743328 
0.0948199018511717 
0.09513878827786135 
0.09469443097111895 
0.09515444866156474 
0.09427916461629968 
0.09499164571545314 
0.09462949270706374 
0.09490525783296382 
0.09491679917424731 
0.09527123996341345 
0.09451263522930102 
0.09540933995010631 
0.09447762647830844 
0.0946471264895645 
0.09487612671821963 
0.09427954512312783 
0.09482433782242056 
0.09507017021919213 
0.0946312539513223 
0.09499416241073275 
0.09513757540212703 
0.09449680780248304 
0.09479545853457043 
0.09567146421617768 
0.09510093778583335 
0.09540989778769229 
0.09451972518634152 
0.09544475897959971 
0.09498591677536891 
0.09524557572405049 
0.09454385865980902 
0.09616505269983519 
0.09475831100797355 
0.0962282698586286 
0.09481496860639546 
0.09562723762750522 
0.09464440850628836 
0.09580822743671512 
0.09450115850924187 
0.09570604147648348 
0.09491708467707047 
0.09539078100512624 
0.09467938585135872 
0.09538084477428647 
0.09478478252270682 
0.09594152163975207 
0.09488001533829446 
0.09648299436509582 
0.09450085222920823 
0.09601117465924668 
0.09441206362349772 
0.09623244185505973 
0.09523598032404695 
0.0956822644355223 
0.09492557921078899 
0.09581563726309586 
0.09451716245745363 
0.09542573106852267 
0.09465956802221355 
0.09538080884316558 
0.09481135626505839 
0.0953272103148929 
0.09473866975807327 
0.09515265264686823 
0.09485803851793366 
0.09475695324056434 
0.09493582885079188 
0.09502052373012178 
0.09596350075531707 
0.09576232441991074 
0.09523513159964851 
0.09584064879071562 
0.09511808157867646 
0.09602277372178433 
0.09531180332788688 
0.09651197497564638 
0.09499391971419735 
0.09654559097146109 
0.09508537916159125 
0.09634718910400174 
0.0956705124121629 
0.09626840055785602 
0.09584504140499001 
0.0954252556636746 
0.0958441384452659 
0.0960653192864189 
0.09510228460164354 
0.09670763258554492 
0.09511636726088549 
0.09613517413222153 
0.09494087715578239 
0.09610960721562725 
0.09485229614275595 
0.09568776295898249 
0.09586719395567117 
0.09646311041643631 
0.09529653170953845 
0.09571669741254023 
