solver_type L2R_L2LOSS_SVR
nr_class 2
nr_feature 1984
bias -1
w
15.68319507209932 
-45.58704286256813 
2.562543816843799 
21.52683125296696 
6.454230718156374 
11.65518704260841 
-1.25463712740054 
7.003878618790281 
7.98471846015576 
-2.526065141240989 
-4.179450533266495 
-4.480497980867233 
-1.401820603441886 
0.01627363884748828 
-0.3798681061822315 
-0.3181474747741147 
1.21305067992605 
5.825561675370281 
0.4193412768770715 
-2.356290112931026 
1.366577434896677 
5.091647128971792 
-5.545126502398526 
-2.704437207606798 
-0.1371337339642958 
-1.204711370505596 
3.401022476366279 
-1.731370107412964 
-6.840653924807199 
-0.7479917420105567 
2.026845176525899 
1.929209854228367 
-1.560915975689577 
-0.3254078201590926 
8.360813189330843 
1.039959606270072 
3.407328811479778 
3.292008483788273 
0.1658861721868251 
-1.214555590283909 
-0.3710591074001272 
1.139166886327293 
-0.3263803156591225 
-2.036407947694554 
-1.054278962523131 
0.3380172308286242 
0.5796723427261066 
4.499639911842706 
-0.4619577356140669 
-3.937249559411615 
-4.148984104092921 
5.173759418371051 
1.934126461320851 
-9.303785602192191 
2.930782780154479 
6.911675561881381 
-0.2745993883733949 
-2.033060560130302 
-0.6472067839020857 
-0.5177087538478886 
-3.479049179044969 
4.390189226667523 
2.071272454677304 
1.631366852122409 
4.36749511404418 
-7.896700420716211 
-3.661899206571503 
1.643232525571481 
1.647793493643922 
4.773990493859042 
6.769411378421053 
11.12400809371435 
-4.020993850744008 
-10.43758267642294 
0.1753690661910502 
2.285075613925747 
0.4482107264710162 
0.6160525232071388 
-1.135793438389336 
-0.01682441536261227 
1.22699321197834 
0.733097808437483 
-4.879538505267253 
-3.609394806684365 
-2.560854648868164 
-0.707853175366442 
1.537665480818414 
11.96640951754794 
6.435926060337523 
-5.064312321051757 
2.177520388935785 
-6.455277795746131 
0.2003062485186916 
-4.360354088161285 
-5.354591813242877 
5.060385477309173 
-1.576730278637659 
-0.1949718255251899 
0.9099970798281872 
2.63604464220369 
1.12174542688402 
0.4424771315584051 
4.935322918046065 
0.9407768771199687 
3.848878053965063 
-5.654622084530059 
-0.9457315620350478 
4.928116449214145 
-3.108322930096006 
-3.548702555839879 
-5.889614834455426 
2.634660442673788 
7.426331630508511 
-1.277308676914539 
-5.35664013935801 
2.13435754604231 
4.497609746043114 
-0.2239288056305651 
-3.227909107687603 
-0.02336160361299887 
-1.156920497828605 
0.6139001813288791 
2.694968993565489 
3.97258916879114 
-5.496321422594185 
-1.727393238150931 
3.691853973713517 
6.145697655500946 
2.562244217044377 
-3.351081478466623 
-1.548551683690919 
-2.982432131665811 
4.245126770198461 
1.683107994829043 
3.682104608218796 
-0.9797328797783209 
-4.161833735440283 
-2.594553313165839 
-1.892994687475861 
-1.854050673333317 
0.9034792527342939 
3.535290698862858 
-4.616024841091701 
3.261471612798734 
4.834594239280209 
-5.676037808089459 
-7.014494060643218 
3.826865532053616 
2.717357591673291 
-2.237257481226368 
5.5858582153835 
5.793763567809637 
-2.64823724693692 
-0.8439962593504632 
2.393172584199626 
2.856356985141892 
-0.4703084475012282 
1.804198950179509 
2.196712602200396 
-5.232949494268246 
2.675829189607485 
-0.9264947328604891 
-3.206435973507086 
-4.296568608543329 
-0.4139868095760479 
5.686952836942448 
-4.818839553698228 
-5.280245312231618 
2.146951181863431 
9.119024674643995 
-4.293477420029252 
-4.961120369327463 
5.275905773146256 
-1.106123775139823 
8.650427986856441 
4.313276447939015 
0.5404337193788579 
-3.116680667652899 
-8.429165930306278 
1.998709634144139 
3.548532634218763 
2.051645041236938 
1.698595060470268 
2.19148415114773 
0.1716158092726404 
-5.038805057032659 
-4.300403209745658 
-5.382546386336921 
-1.041327568904034 
7.464426851831466 
1.40594483629852 
-3.186953136906386 
0.1047343538645681 
1.188211831625465 
-2.432277565569176 
1.125231939639769 
3.851107967717846 
3.624045951225864 
1.882432919048734 
-4.170041488668464 
-3.385437253897098 
-3.069991921644446 
2.775565804465902 
-0.4525653556617836 
-1.35170108287309 
7.332800453871725 
3.003360450296361 
-8.823249771417409 
-3.714112097102681 
2.884741569413528 
3.097634195656662 
-0.6930127727019738 
-2.699506970618942 
0.6473767368305996 
0.7102945275939163 
3.461816382732445 
5.187780463389027 
-3.330871621438316 
-3.547965043986012 
5.523216418588135 
0.1498608422853143 
-10.23990483003735 
-3.495240089287985 
3.963730328732793 
6.121941671769377 
4.37035875709956 
-2.269249105095881 
-4.879334343381927 
-2.552199966778446 
5.011225191446464 
1.411083193929177 
-1.452497869464011 
-2.020326599090322 
1.261774352332498 
0.222706934905491 
0.2042875107530725 
0.7260266021301721 
4.075436606348587 
2.168504400261842 
-3.134944006490763 
-11.42690516884403 
-4.625539684889502 
-0.9765320625995829 
0.4821276589655438 
10.29340653223825 
-1.788505864031555 
-5.223639449848394 
1.575582077447532 
2.411294868456357 
-0.1162099236935221 
-2.25847152272694 
5.506789713210583 
3.719747800450041 
0.7208394465913379 
1.572749821386877 
1.745747389206818 
1.947755680894583 
-2.362115524627552 
6.559759420110145 
-2.072271206628343 
-3.731208146343366 
-0.3681764412096348 
4.392041946361332 
2.367381160374027 
-2.708742002910431 
-0.2195884581417915 
1.620288420994985 
1.488146922404284 
-1.61033585865845 
-2.583851242292494 
-5.095779964451312 
-6.224981944600898 
0.9943496229136287 
3.937045559973107 
5.775121193513299 
3.42790431002398 
-5.024067340751778 
0.4101221004611685 
-7.277351677181159 
-4.247189352547262 
2.051504488924659 
-0.3317676155417569 
0.3339613188952187 
-3.312573741467946 
7.974094594104232 
10.14528852563292 
-3.137321939844837 
0.3863145627157833 
2.575824928798423 
0.1286651603555199 
4.114270169767242 
1.19491539056887 
-5.54996554021586 
-2.158277675880024 
-1.722695537022088 
-2.304969486694383 
6.993695346476878 
2.189155916033144 
-6.543171510422006 
-1.880955471410486 
-1.889650129896104 
0.9461717820940378 
-1.063026619659406 
3.435688324650065 
-0.3526716489682994 
-7.094694649490578 
1.563649229044429 
-1.112621021540813 
-0.9087056758484179 
4.179440094207327 
1.107657017028469 
-1.468616069281737 
3.798291092492608 
4.932787287639758 
0.936285658573592 
-2.672395941773927 
-3.454644775514707 
1.187819092428004 
-3.295627897647097 
-5.624761000371139 
4.061775184984098 
1.506815141085909 
-0.1742290420733456 
-0.5390055758865364 
-0.7821912278437088 
1.115326173519523 
3.215560407189765 
-1.935088526471019 
-3.405478482098488 
2.552535600611496 
4.824699947686974 
-1.596099969238538 
-3.623436524234589 
-1.577045999532522 
-1.153338871996697 
3.712977330778837 
2.520750586059979 
1.52734772307741 
-4.947653616196441 
-1.860632877011029 
5.289253697126938 
-0.7438151635748081 
1.895476249954601 
2.300398455417513 
-1.83977647008515 
0.6577854253533587 
-0.2508075674875835 
-4.413025439084399 
3.355618023927139 
5.360262767191077 
-3.230014346845971 
-0.3341752707020806 
4.251784646461734 
-0.2908189531103295 
-1.563129276501773 
-5.602748884886669 
0.216477138638592 
-0.9911206032397918 
-10.06246945715262 
0.006734614337051703 
4.85109071413909 
2.000881381393022 
7.212014106963648 
2.406368632649247 
0.9222752283085279 
0.4988094479614154 
-5.824914765471669 
1.531193224275197 
0.5398831861816437 
0.203601198158907 
3.72929377306059 
-0.4749011235800464 
5.586111799643404 
0.515857646036029 
2.12444538915605 
-6.278529285377211 
-3.076953160458751 
5.437467040826247 
-2.160947003208388 
-4.646216115155651 
-2.483319656743817 
6.373491977727132 
4.48889597949421 
-2.371040882720422 
-6.216847127040334 
2.607178951831709 
4.824941064696694 
-0.6977052257109824 
-2.472049126053177 
-1.954364178125731 
-1.783211075211192 
-2.501499029316022 
3.153965390163424 
4.907669644872713 
3.063079538712508 
-2.042153267957303 
0.2672426353574918 
2.050524960387464 
1.243064282673216 
0.04528873762924493 
-0.01670076811054459 
4.078158227310078 
-3.057084745262751 
-3.988004058802403 
0.2930815997758554 
-0.4581901220483775 
1.912674852393149 
-2.92512225439497 
-4.835101918093743 
-3.661120496896849 
-1.658049801585367 
-0.9922976654828521 
-2.348249212724554 
8.85242873887899 
-0.02693417783573691 
-1.029974401835027 
1.573473392835002 
1.688986861243325 
6.566887503068923 
-0.9221057766274219 
0.6307470543535102 
3.953021506503481 
-2.001318830004562 
-5.856879304878918 
-3.870454492587006 
2.960745600087147 
-0.2361887591409708 
-0.8668002895880015 
4.119911386126562 
2.603723707666808 
2.738512188608501 
3.328433305927067 
-0.7398127710601663 
-1.118939865297988 
-0.8252182949910635 
2.828336387906536 
-2.395504329516411 
-7.589650734371567 
0.8531921010616704 
-4.033915973090418 
2.49098089064195 
1.934943562682839 
0.7846814970277816 
2.391615864671205 
3.157654201878263 
-0.4414850409891926 
-4.413192829311648 
1.037679864201002 
0.459407678874616 
-6.688149509404337 
-5.430421766672408 
4.161734618980394 
1.017973258031879 
3.473844486173731 
5.281570072381673 
-1.305802366042555 
-0.1829072424707763 
3.079408704500352 
1.38558111453066 
-9.506087280236903 
0.5368163641117929 
0.08072772798915427 
1.432537574763155 
7.39748876117089 
-1.502006897976281 
-3.882183395769254 
3.172704416884621 
5.097960244251247 
-2.454695440279527 
-2.976725529178729 
-3.317538428677229 
0.456368989616013 
-0.1916443344286962 
-2.213573332704481 
5.791154441736233 
3.173485408214697 
0.3589813631813903 
1.096901092800682 
-6.173992079329583 
-2.802395098315261 
0.7340854343775566 
-0.8750273643948402 
2.406734206274352 
2.940929702741255 
0.1103640527991734 
-1.061950492505942 
-2.195383261602731 
-2.540523466881031 
-4.501687461796679 
-3.046647109372611 
4.303801742514183 
4.83802634626411 
0.4418509758777291 
-0.04168763742505086 
0.3470588747042603 
-1.548427769635028 
5.39235381204016 
-3.914562488271701 
-0.5551032238082171 
-1.383305176039416 
-2.084801732441696 
4.754404593840056 
0.4247474187405908 
-0.1920895077810043 
4.33050308238539 
-1.367298804731037 
-4.640525173135622 
1.522554503406021 
-0.3324841003180494 
-6.686997349606891 
-0.6427231441959804 
5.643172475830568 
0.03065573349361364 
8.218886666295379 
2.855250616689756 
-5.348164551693378 
2.363944491958378 
-1.418356220141256 
1.528295072295272 
1.12647003294602 
0.4895558065903883 
1.215319906559022 
-4.292663822709603 
-3.756974036715524 
-2.587103991992854 
1.319212346263076 
2.832118640607081 
4.908023123344958 
5.775599374156889 
-7.082350759516722 
-4.577543259906493 
11.36855405500426 
4.434922036190392 
-2.071449772536382 
1.636991051885718 
-0.9325063483154605 
-2.233447467525223 
-5.041169604219764 
-5.017077697355601 
-1.611885870310901 
-3.034039224590109 
0.4291891067903287 
2.073034797275912 
0.8217423988553361 
-2.803191790098767 
7.476114973314433 
3.152410983189946 
-0.4218064210950688 
-0.1660136481225602 
-2.746524566969466 
-0.1861842122332055 
2.547721927616239 
1.103689804941879 
2.227559777106258 
-0.01397034815033673 
-2.324227403860319 
-1.789911134668877 
-4.969064046552364 
6.602166230342741 
2.697679519409968 
-3.223354498981327 
-3.025218811601509 
-1.33842857864616 
3.809877200553211 
3.720769162712544 
3.095212418304995 
-8.898324703665276 
2.606998609220158 
0.4114572537893461 
-6.68164902165235 
2.06579289483773 
-0.08024881486195418 
2.410506172040905 
5.166088629778279 
0.4384585440529541 
7.434231137808151 
-3.250763166062538 
-6.804151055787027 
-6.536419117174211 
-6.000672725359342 
8.480970418555438 
9.066682088992334 
-1.258856718680788 
-0.6991408077748729 
6.471920760672793 
-3.097155742560404 
-3.551953327454544 
-4.238829711431345 
-3.612906480775994 
-0.3429545884433446 
-4.750044816880473 
0.8666356833055702 
5.911117907025932 
0.9955274059313799 
-3.693197973000796 
-3.291700121860656 
5.296360184966822 
3.020244446755027 
6.840551961608702 
0.1917861727031716 
-4.06890747002116 
2.451620888890444 
0.1366471592391793 
0.8614353214449056 
-1.283716577897456 
-2.499301455957327 
-3.68069061879789 
-1.438200376207411 
0.9791912648717876 
-1.143472747767568 
1.059743850574555 
6.351978675017262 
-0.328427204114068 
-3.684271978878423 
0.9957469248776132 
-0.6564691600592771 
9.113028630548998 
4.240789807366523 
-1.916417386540158 
-7.443179946932118 
0.5890633839390961 
3.748620095409001 
-0.1453992371884699 
-0.7034451098652524 
-1.831714768934546 
5.758787828994172 
7.177814640433202 
3.095817890449001 
-7.450784435396855 
-8.341329771040048 
0.5616959540208863 
-0.7551555868666128 
0.7575650666274258 
5.466719988684657 
-1.219536872217549 
-0.2517190007264372 
-0.4821073757502523 
-2.078859339399757 
-3.797155958463096 
1.224276931677976 
3.087564942003875 
3.133637895842385 
-2.027093108052727 
4.730403762561446 
2.779201079724931 
-1.192662444453022 
3.637719580307334 
-6.986518315822089 
-1.47890342393054 
5.650518528485839 
2.537000795141014 
-0.3534794419209378 
-0.2130529760332699 
5.258753169624117 
-4.377985468481275 
-3.186295245189001 
4.404077868025313 
-0.1546202128212028 
-3.2937297958982 
-6.212546746555239 
1.723889837176319 
2.333829251349673 
1.231643640895569 
-4.184646201870253 
0.5495551275077689 
4.322331007496336 
2.988447021277142 
-1.691699597904965 
-3.126619710077541 
8.622180253190221 
5.697345128628765 
-0.9281345718956572 
-2.478618925447353 
-7.411536580896829 
2.85630941247053 
-0.4608291871368904 
-6.711569694405828 
8.029292124184904 
-1.083341549807799 
-4.822330259082351 
-0.4774063157430723 
-2.192838586591999 
3.852336349157051 
4.540084630941988 
-2.120437460670642 
-1.189133475737044 
2.893765029600656 
-0.8196026878235116 
3.269433448516779 
0.144693565403591 
-8.275758318658582 
-0.3148231228887797 
6.141362664668631 
-0.7618968138372871 
-0.06732619455630463 
-4.603604450577497 
-0.8811819806305373 
2.43687556918606 
4.267401564344101 
5.988825013279991 
1.713352398817285 
-6.657013410663455 
-3.74622666979523 
2.094578465905545 
-1.765799301134866 
-0.6128683327324284 
-1.593099911570313 
6.964885263828201 
2.744605494918741 
5.970194916316589 
3.919159224458274 
-6.496387786458431 
-1.53307624228838 
-1.519248570135071 
-0.8079747440650242 
-9.296096725382714 
3.357423454588757 
1.757168508607018 
-3.899864767834846 
5.674953275199817 
3.793110439640095 
-0.6210287075318492 
0.03011328150618611 
1.569181910387454 
0.7781883196182439 
0.9940100808576623 
0.4456593239203505 
0.9164521448359113 
-6.602688435680904 
-0.1199690605454742 
-1.329554133729662 
-0.1759585323065651 
4.618859778822294 
-1.754029158599993 
1.498336984395502 
1.120141645186081 
1.318082669417026 
1.339957494205577 
2.248733906726137 
-1.675173205445059 
-3.908710159842515 
0.9407517384245351 
0.4533235545931787 
1.50148358480623 
-1.393053063989848 
-0.7452041069509922 
1.377275305056238 
-1.928510829695541 
1.60848699683527 
-0.3031664312743322 
-3.961437637980305 
4.652521773112262 
6.245799630817295 
-0.2495296221464199 
-1.767082952082426 
-3.628307046480565 
-3.136812254086146 
-3.119673289210344 
1.145644758994445 
3.927949510845802 
1.171464972623355 
-4.175228348828717 
-6.942703397034158 
-2.674169475378862 
4.662219054700221 
3.479079207953531 
-1.307382532886794 
-0.01360483778732401 
-1.979825553305046 
-0.2023649167005365 
2.270219684051369 
0.1944005590583651 
2.06890057127701 
3.836188854730141 
-8.07306850873249 
-7.657682709444886 
6.386345293171313 
3.483684348082967 
-1.322371011029925 
3.781543127989392 
4.75996610402694 
-4.29637047120509 
3.281111282248341 
-2.795094577205263 
-3.264088755740629 
5.596387585703792 
-2.539052728675254 
-0.5395012686451672 
2.629391700902546 
2.294187576742519 
2.369995659270915 
-0.4604996572749013 
-5.413711217332969 
0.6764314594444775 
-1.124903717069683 
-1.001422118799289 
2.019483786443446 
0.3120594640759646 
5.307314415866654 
-5.548600999656479 
-7.876189838808629 
-4.836993703966658 
0.277687921200661 
0.4341586705220697 
-2.767169358619929 
7.395135112368783 
6.816032431322165 
-6.932654566176399 
-5.57093973022727 
4.893872683935454 
2.688839440325097 
-0.825495235153898 
6.343214267965887 
-7.546433055086935 
-3.722041102169703 
5.546332580947333 
0.424973749026169 
-2.144735395533299 
-3.34533716932994 
5.436621548920697 
1.589709739268659 
-0.3200410492451728 
3.847514226913251 
-2.491656534880494 
1.386985876599736 
4.204198230937981 
-2.645987752414217 
-0.9809163733966321 
-2.924566061259163 
-3.535879743416421 
9.044453426289898 
5.993414971520067 
-1.474545814662788 
-4.364833388120419 
-3.961787789319569 
1.50024807219846 
3.571157159958551 
-2.679750832521208 
-2.772057997215972 
-5.297940608706829 
2.771836502721051 
4.624179838866169 
2.311654553918571 
2.860185684024954 
-3.102446912450926 
-4.37169719568833 
1.119128142813088 
3.858168321819901 
-0.5533328344815676 
-0.8450105065003329 
-2.119619534620356 
4.991719802801037 
2.868430900103809 
-4.481916805264244 
-4.0981820466945 
-0.9298456679750876 
2.44855725995761 
-6.271168866915494 
0.3152302216019743 
-2.014923974222659 
-0.1914872342000725 
10.21280869315864 
2.790268533875355 
6.712153209064988 
-2.657288074286218 
3.674518090368999 
1.694060271481126 
-7.562148071228518 
-4.244210747580764 
4.007441655271181 
8.311680694396133 
-0.6058442255242715 
-1.617919738817447 
-0.3659157862046907 
-6.555994456759768 
-0.1457811718970241 
4.226253202087705 
-2.608811326802924 
2.571023730364969 
-0.5593451485377527 
2.107046841761933 
-0.9962080321587871 
-6.032584840438505 
8.724033986150316 
6.51795341523865 
-6.042369507364499 
0.8417178936960413 
-8.42312026046574 
-7.233508202361108 
4.866428286237438 
4.419444588992474 
8.103358119006357 
-4.718197310288204 
-5.27553122243743 
0.9391374631620965 
1.146009192332033 
0.2858628162355729 
5.033709302825033 
-0.3127935316895387 
0.5164768328256694 
-1.093393526907803 
-0.5300624439194171 
2.598376766656691 
-0.3125403190737535 
1.231460235623148 
3.501541313738772 
-3.191886308362757 
-6.643142801684224 
-2.973971467882417 
-2.496953703697315 
3.270808217303027 
4.029670729159604 
1.005643440200324 
3.89517857411036 
-5.908539155230434 
-3.49787171760504 
2.266665846575697 
5.423685684224566 
-3.714652089619317 
-2.13983054651201 
-1.384216711496677 
-5.355387378815796 
5.743115212604037 
1.752700590021131 
-3.644214716427719 
-0.8144067199874208 
1.799285032974873 
0.3682646346486017 
-1.981069366397238 
2.611478148405781 
4.05620438375491 
3.251988723912495 
-1.13863852313377 
-5.046740404760969 
6.348721980712518 
-1.113695242472035 
-1.564678424416099 
-1.452393646762234 
2.78505499789157 
3.466340541739969 
-2.39467831667677 
-3.796599583463233 
-4.657548129537763 
-0.07252262680082582 
5.669550148692352 
-1.618412027636945 
-5.568751023166699 
-0.432323766167262 
6.918069057122318 
1.549226234004931 
-6.371841602500917 
8.901144522910158 
3.176588383686352 
-3.578875264896854 
0.7622935071700759 
-5.121131989598374 
-1.374018330776163 
9.069096897138243 
3.380349815435718 
-2.263862999023405 
1.053381679412259 
-1.907717443595029 
-1.761871164638311 
-3.625500842725553 
1.350459423945652 
-2.651961358150727 
1.039385560085207 
2.508599264328838 
2.790371868628117 
6.798385409992347 
-2.977070224293641 
6.339582411222641 
-4.0049339525001 
-7.714664684914433 
0.2205272018460195 
2.33421666256578 
5.211503390391629 
0.4654026233021023 
-1.747895298965774 
0.7068589827785943 
-6.661128446429472 
-2.052362311120564 
5.517029563941988 
5.121834004969504 
-5.835811917557778 
-4.217953049105271 
0.2597765325329063 
0.179932102681382 
1.498689697928339 
-0.2565605091804093 
-2.131723931958449 
-5.155910127506603 
3.65133399226325 
-0.7560049128711531 
-5.652495782516286 
2.728974426176292 
4.080002543401584 
-2.773022359821462 
-0.3630958242848511 
8.636353208864064 
1.943412984127618 
1.370665175144049 
1.465096952050882 
-7.05045625468465 
2.950891396241807 
5.674040555917997 
-3.753713939985059 
-2.981484976193167 
-0.4287659694872785 
-3.921034306167281 
5.201683669341681 
10.49610335683299 
-3.927597661259413 
-5.64591227680912 
2.823941875772126 
-3.281659665334819 
-6.725354468971823 
-0.3105208484828372 
2.993447317312314 
2.48648187766499 
7.008579873249245 
2.628953935696781 
0.04450982303578351 
-6.204064903654911 
-2.419633163507986 
8.442202676093412 
-1.913743815449555 
1.887515271466686 
0.4826616582980705 
-3.03723970736878 
-3.494791352137375 
-0.8420426658330233 
2.655877193032625 
-5.16001585066324 
-2.235023688709056 
-0.2842264171288473 
6.238337850931463 
4.041616300016034 
-3.995941830163628 
-2.82083006339274 
5.511708836223368 
-1.355838931634646 
-1.447438809243961 
5.143470933346528 
-4.510187096171682 
-2.923773939210592 
0.5679595448161563 
3.162247232706515 
4.39956170646456 
-4.954933383289965 
-5.64596352027418 
3.87619334545603 
5.269724170147712 
-3.020451520526937 
-0.3364600380679552 
-3.70287943665552 
-4.452829349955927 
-1.271763608277461 
7.439679562375262 
6.785466560635407 
0.932588283189947 
6.974591389390673 
3.882317737638609 
-0.3970658918281961 
-3.327744565501348 
-3.966104580292454 
-4.187707487972115 
1.617286083466318 
2.171939931565605 
2.885899653630431 
-1.297390493518943 
-3.494535648127096 
-2.04572304652606 
-2.34544398835725 
-0.9632231898478685 
-1.5356045295624 
3.617529175263 
5.99284152283393 
1.015911652669649 
-0.07006597042284135 
-2.522035031920888 
4.851377498164338 
1.093563635961495 
-9.447642695337821 
-3.262686855281339 
7.635239262434546 
-1.187110003546608 
0.4712646394026734 
1.660467092169402 
1.044001853996001 
-1.478545445143177 
-3.835763920494693 
2.427245088800181 
-6.407983463097334 
-0.6880314619505393 
-0.5102012856005446 
-1.534009782367784 
6.33093938461705 
-2.714455956009062 
-1.190037499889284 
4.647171892695495 
1.481100140894635 
2.310381287802533 
-1.401356217625727 
-9.35384897851257 
0.9093432411639856 
0.8264613957419592 
0.8073329387530983 
9.64088651940461 
1.203730871293919 
-5.072057445687414 
-6.386688007907121 
1.560825192479079 
4.257079907081556 
1.408508579994172 
1.312894679222532 
-2.537978928007364 
-2.517748061184975 
-1.362415698581584 
0.920131785779021 
-3.455999485450016 
-5.219211172809827 
1.012206992718675 
5.086226686508822 
2.434625687537972 
-3.643669205016742 
1.568129446965405 
2.417449996990546 
6.729580384793075 
-0.9838551552549722 
-3.494483370968992 
1.680466912979045 
3.114476478875891 
-0.9117312852813706 
-9.366462682369045 
0.4317507067504526 
9.025930150768533 
5.150235987648105 
-2.468281830221018 
-3.980990695576867 
-3.316137117567871 
-0.992591321552778 
0.8037418352067989 
-0.6637835296235962 
-0.1625927048390705 
2.460481146329996 
-0.7494653602215203 
-2.808051614039434 
2.806110617331764 
-0.1483029284423 
-4.072272875898537 
-2.381147318144117 
2.844991936490282 
5.661772413052931 
-3.923968609760061 
-6.575466839941239 
5.845036183262692 
-2.119251782971064 
1.941503033022247 
0.3477219646751073 
-4.691384523127611 
7.835352995785868 
6.892938686758174 
4.893548050729562 
-3.050206861504801 
-6.715390569026598 
5.544104464516833 
0.5769433852087411 
-5.760862714629904 
2.05910569454207 
1.828424867767558 
1.489406245902636 
-0.7300970486329065 
0.7879221729542512 
1.735004122221387 
-0.6425554252080816 
-1.921315748755556 
-2.270080533827151 
6.527927462266973 
7.915438349855632 
-1.042842226442376 
-2.624115305323536 
2.75965160902977 
2.827805966626106 
-0.4458299788508863 
-0.9992006270321139 
-0.9824183448518629 
-4.060872726379532 
-4.390588720885132 
4.798413792392994 
3.72986774075722 
3.039400317324615 
2.418955211781234 
-2.968956628234514 
-1.553817149804806 
-0.001428073576066002 
0.223105544185588 
-1.851744660727935 
-7.210566595626618 
3.647709362541405 
7.156956728738177 
2.409753799448903 
0.7172807690029446 
0.5690143938245568 
-1.088484320952207 
-7.469685059466646 
-1.582082395591806 
5.663729125161366 
1.145977729360759 
-6.96768991702393 
-0.7580307539348801 
-1.243359847259105 
-0.1646600312846798 
-3.94093404126458 
-0.4234051860379197 
4.937739238495391 
-0.8142330573400492 
5.98345455242839 
-7.539470195548742 
-7.005086393586958 
0.9189188419801131 
6.640833980813333 
5.24313599888591 
-4.534401534366405 
-8.022280904017087 
4.172150036035154 
12.81796248114619 
1.036361531967705 
0.2265402545510536 
-1.815504147347218 
-0.2927173449178884 
0.4572456860011143 
0.4441300664123368 
3.297213809893004 
-4.226577065886394 
-1.696295400279439 
1.091855129915722 
0.9127752930517014 
0.4921196089259739 
3.804385094448259 
2.193739452109628 
-1.07914201728212 
-7.699905501319981 
-6.67528921322879 
-2.022217773138866 
-2.009026094105238 
6.021629403221213 
1.743000418072195 
-0.5584651433613265 
-8.018994885079882 
-5.253213795023181 
8.343498059608915 
4.324111103977869 
2.242367658093314 
2.619856254331784 
-3.472508472178934 
0.3279917485251671 
2.442047058948707 
0.2125213480914596 
0.7164080846148096 
-2.974143500077217 
3.019118109229169 
6.041712618815614 
-6.634738720092767 
-3.257589844479436 
8.64238119663516 
0.9276600442058638 
-4.543234207699967 
0.7496626899903539 
-3.747501659192336 
0.626005400355819 
1.084391378106287 
3.088523872947178 
-2.362953910457545 
1.610797669898125 
7.56400850074396 
-3.560045248535948 
-5.645608553376031 
-2.641350969079224 
1.724870413662499 
4.810885094527739 
1.845498724528877 
4.629326198451343 
2.696211997193768 
-13.57213315372575 
-3.532280879635808 
9.196632393356207 
1.514939743649331 
-0.2945645563526591 
-1.768210270158252 
3.218571023458572 
-0.4734951397927333 
-2.302705948000311 
2.949472518370301 
-5.715293973112562 
-0.9392088523241189 
-0.4818187468281585 
-0.5434240383431119 
7.112860547360043 
1.335231482932344 
-7.179215823033911 
1.947280292175168 
-1.198695753295605 
-5.057754051100414 
1.083009186568163 
3.072272913116383 
3.838859607833932 
-2.484082791292488 
-0.4142541179118311 
0.4886948002387232 
-5.213801183929315 
2.292185975313846 
7.703918661380534 
1.789151689718272 
2.155582913160085 
-4.46465083937549 
-7.754755964391038 
3.904243020943666 
-4.168938540090745 
2.713921383016792 
4.550992143971575 
-6.641598063250566 
3.244648312056425 
1.167167557062773 
-2.8756310528886 
-1.656685507434405 
-1.283528261730599 
2.508769618860542 
1.002933663720779 
-3.720725834765844 
4.729740171566952 
-2.952500243354145 
-4.574229184886194 
3.701723136653881 
4.778371990529597 
-3.514319855462151 
-2.859699734014866 
-0.6264180013972055 
-4.38210535780132 
2.060226436996409 
-0.808699339154434 
2.235440300153658 
0.8018026049861114 
-0.09983583391221935 
-1.064251787069117 
3.315961177646655 
6.924011160788723 
-0.133614153708694 
0.6287676874793245 
2.208314619849145 
-5.34208342708247 
-4.425799681667765 
-0.7172443258605535 
-5.323025513642399 
-1.525645939837582 
5.579629475796576 
-0.4551401329160059 
1.649593628158438 
7.061745164985926 
-4.580542874697863 
-0.8757130884501081 
-0.1501532358989991 
0.9067367192791973 
2.548558441354154 
0.05193426442269937 
-0.3707146341275039 
2.907613128563705 
2.605033931080994 
2.865352245644143 
5.476379833408552 
2.391899015918733 
-2.745325670162093 
-10.54041695145526 
-3.534640660737036 
-2.909226792933155 
6.249819006474607 
3.893120418119275 
-0.6992939475929467 
-1.013356573362677 
-1.824613030449806 
4.459368698423463 
4.538362286072926 
1.743539355525853 
-3.427589855397714 
2.110787300208298 
-3.137369710821094 
-5.354039345168577 
-3.029612579430306 
1.231249910162163 
4.19903833632363 
0.4901354666951095 
5.179132156017426 
-0.6011070795508821 
-5.76350842010449 
-0.8537761262029652 
2.058924270175142 
1.902025591725432 
1.917316775569185 
-1.399095322899398 
-2.167294322504058 
-2.231054700416736 
-0.2530423566830335 
5.805161753444923 
3.811779040010348 
3.342338442896697 
-3.567928714977998 
-3.355868402136108 
0.6092186745182478 
-1.796270753687033 
-2.005454704420866 
-0.4699798495150981 
-3.933732088491796 
1.350814580856859 
-1.848745238738643 
2.194053484558014 
-4.185501339833093 
1.129192349335462 
4.486986457346034 
-0.9541199159670812 
-0.4463537650502687 
-1.94086971345888 
1.141046288596476 
0.7639824661819884 
2.972178064004297 
0.4012494039522808 
1.707482075902548 
-4.016085660837379 
0.07664914205398043 
-3.503546958071168 
-4.642656791604412 
0.001087840626596339 
1.195993685737853 
-3.103073709810473 
0.34190299517417 
6.93100799662801 
-1.057895334863357 
1.07023256972733 
-3.279620093436266 
-3.953665649614876 
0.4218282440661232 
1.537577633736268 
3.379603828449816 
1.308275910231792 
2.820682217732211 
-4.693390774263904 
2.887301343938207 
6.251013340840405 
-2.418362790627074 
4.001856933573437 
-0.9935012259525434 
0.3012291468721732 
1.848026523905697 
-1.543903393657883 
-4.097071918745115 
-0.7022383175952802 
1.147347047938498 
5.26905000963917 
3.262259369315589 
2.166309338635798 
-3.348708733741458 
-7.850752565699914 
-0.1224226114816778 
-0.8838721671797944 
-0.3269844062312969 
3.785844227140445 
2.221809852317371 
-2.644987156174698 
-2.693418728393233 
-0.4921661059868624 
3.184258894781136 
-0.6384168577784188 
5.5584542287465 
4.750143982327877 
-4.632099443324513 
-7.195029674552548 
-4.447018197118514 
1.52060655916249 
3.711274074189037 
4.056145072884876 
-4.93101370038155 
3.184591125646723 
5.217139793125184 
3.109057922066312 
1.959132722019523 
-6.079606057618611 
4.744295286474127 
4.98411479486443 
-0.3960059184239152 
1.199572398078132 
0.3700323474970973 
-3.473518291105396 
-4.444427210422956 
-3.195202491744928 
-0.143354439528134 
5.698100804451202 
3.125031688009624 
1.101173072471284 
-0.7019594138921516 
-1.64746937970365 
-1.311251008716253 
0.6387011322466239 
1.330859930083938 
-2.694858726996182 
-2.361545507991455 
-3.011029782202508 
-0.2664717056795568 
-2.328732821352 
0.3782661651115986 
-0.7819909441964701 
-0.8894943764596378 
0.687681468990971 
1.150559563880012 
4.47625405660856 
4.741375487545632 
-0.7048360663795549 
0.2630194459169194 
2.742339141295786 
2.913484362574386 
3.02217278865152 
-7.540403180772662 
-4.450889557080445 
4.959136553165764 
0.05763766461568505 
-1.190525473151288 
1.954575254506394 
8.234483349712431 
-0.381913939684437 
-6.603653061541629 
-2.98644150905526 
2.742021585147755 
1.62599512514118 
2.048961460374061 
-0.03609921137067991 
-6.035827357071386 
-3.906574505053682 
0.115329588631117 
7.995582078902358 
-1.976699370154009 
-6.205320566752507 
3.194488282192834 
-1.873564187518696 
-3.276272363885281 
-0.3473601398804729 
-1.244178122015106 
1.27795439169341 
2.652857069439375 
5.173218013542736 
-8.036345386858825 
5.003654054035785 
6.768027565288998 
-1.380894949733611 
-1.969973190434342 
-4.078287166758438 
-0.1128988984675912 
-0.4588806522912811 
2.393216932158446 
-0.1307846300420197 
0.5468837271571141 
1.351363441778594 
4.406195257606891 
0.06281852119768881 
-2.214672109702577 
2.17447064465157 
4.174463774292962 
2.640955731142871 
1.049932468771854 
0.6128460797250066 
-1.878278195358505 
-5.489012486219089 
-3.156887479610156 
0.9129579885361226 
0.6223209961931678 
0.5886152671326669 
-3.90594088668589 
-1.740705215689834 
1.67338477638958 
3.510833593608153 
5.06764279524239 
2.793988603299755 
4.144875114846933 
-2.462723083960022 
-3.608730930583119 
-3.175464366520263 
0.255054008459146 
3.236979122018421 
-2.11647339328992 
3.786208670005493 
1.326311594390208 
0.2925732607632703 
2.326014328239817 
4.088997030674416 
-0.837119296126503 
-8.247566023622538 
-8.316332112812114 
-1.389273236518394 
4.590174628053647 
3.487998527516309 
8.701954992090073 
-1.200883402912689 
-11.82966923925072 
1.400303201426971 
-5.977696661809468 
-8.550267623375078 
7.396091531473258 
5.928419792210799 
5.851537080743345 
-2.121581752554578 
-1.129476464361953 
2.671340476409222 
-0.7907570766945247 
-4.682799873476284 
2.842227788516099 
6.593987741327127 
-4.348993460488987 
1.877991345213909 
-5.83631220525287 
-2.913374224969422 
6.411627686693968 
4.37404156995123 
2.514832016694469 
1.639047393746347 
-0.5668244507923585 
-1.283781545002003 
7.56186281166418 
-0.6800102773230903 
-4.787780269354212 
2.23354821498313 
-4.480728924004719 
0.639949520284012 
2.222809223381189 
-4.454428328774727 
-4.452856896977531 
-3.168083452256325 
5.697509147480008 
4.378458745451076 
0.3690785692651501 
1.081767859960491 
-1.546889261188326 
3.016006544210634 
-4.351005563598269 
-5.956606683004923 
0.1175949860163942 
-3.541994953739967 
7.149553678015696 
2.185225563280614 
-1.404776691114489 
2.449786156387588 
-2.997666371847441 
-2.448195836961726 
5.932371505155098 
-0.7963630022606464 
-3.824450213789156 
2.983607607123484 
-2.058909810227169 
-3.816378930505362 
0.0815908249165902 
-3.357888403543871 
1.782789013195716 
4.085681086344698 
-3.503248196277208 
3.231630382973294 
10.20011562319006 
-0.3431229613396799 
-4.659115569946877 
5.058273576685926 
2.058905278744346 
-0.4761487824655816 
-4.306464500887336 
-8.046111521050898 
1.396456815699431 
3.071684860981467 
6.519411975932994 
4.985505158101127 
1.711751114692195 
-3.50619420224684 
-5.352252438480354 
-4.637746289446919 
-0.5573887832465267 
2.042911216275 
-1.809252629543063 
3.033006863083515 
3.168615822784586 
-2.889348816065525 
-4.55178140392051 
-0.6192610449996858 
1.730986192271004 
3.515884028532299 
0.8550642137150994 
1.510274919875666 
0.2372299101589171 
0.9217477766036937 
4.50909573132078 
1.963027399004296 
3.39454083100527 
0.2804025689494725 
-7.375103376017551 
-6.889881724437476 
3.28417671573348 
4.218031626114614 
8.156007790576613 
-0.1601615702143999 
-0.7346415019050623 
2.637958189683359 
-5.079913373369981 
-3.340525881016735 
-3.638529208936852 
-1.228500827871494 
-2.560790004608605 
-4.00249783909479 
4.911199577082785 
8.161486014307346 
4.233448744055059 
-0.8529769732439808 
-3.346558446282044 
4.917687894845022 
1.879410343599794 
-1.073171018615943 
-0.5955514056343454 
-4.676670974855558 
-0.9302805386940097 
0.6069683304319522 
-1.540773231665121 
-1.871701689452576 
-1.950003828999285 
-5.212243226376829 
-8.087978706993074 
3.219741603405819 
10.37514925172478 
6.578365612539363 
0.7771559907088603 
-1.438411806597023 
1.798024175719397 
-0.6013760884652011 
-2.078834589721155 
1.408916409176132 
0.4003467966226952 
-2.544050713354694 
-1.781260856388849 
-1.075258460701432 
3.804351167988739 
-5.257525181060658 
-1.468266912746566 
5.482004654135198 
-2.209129758594561 
0.935914495207641 
0.8296856814661402 
0.714220731611495 
4.151859527052713 
4.690667974147749 
4.037467067062901 
-0.3385827486825803 
-6.736046268354312 
-4.379233691963809 
2.294455355745546 
5.483944466429227 
3.464749260448275 
-0.5597717344446899 
-5.526667119773216 
1.391196456340468 
0.6812567511294496 
-8.060572600818393 
-0.7695499026693596 
-0.9668243444580392 
0.9643980553355658 
0.03008999353085943 
-1.971962511394306 
-2.135589149260776 
5.000345636678191 
4.296594310484284 
-2.653505593202382 
-0.8758607912339281 
1.196618213114792 
4.301611791453598 
-0.3627437505390749 
1.379207428059055 
-4.190386701453238 
3.176527550822905 
2.849593946751138 
-4.546069711269065 
4.755210327847836 
0.5293772657289032 
-3.537947649230446 
-6.118397522899594 
2.12091546377615 
6.474985465312672 
-5.003273697481381 
2.778081543458375 
3.05119569476971 
-1.433241895904938 
-5.21757794560003 
2.822710304388025 
2.066905480195087 
-5.192870320327012 
5.025875105870178 
6.482085598511024 
-1.962890282636335 
-2.819736543421273 
-1.092381094039199 
-2.329188553728812 
0.1944901186673882 
1.242723385614976 
9.047358174154214 
2.041429526101772 
-1.110284988987918 
-2.581040271825869 
1.266393213617842 
5.298261395333329 
-0.2844475520509116 
0.2573231906669692 
3.721369450237447 
-0.07551858444772068 
-7.227795155010562 
-1.651034423884957 
0.6927291624248778 
3.413976703440817 
2.884829744576433 
0.613440186824487 
0.5320401216568048 
2.076866068212463 
-3.598587174437392 
-1.306843052147237 
0.6608466190995347 
-9.039915108798406 
-0.8993390771244775 
2.67110300050649 
8.13024561395442 
-2.595596052152033 
-1.666436522176725 
3.831332118296892 
-0.2257687565993232 
-0.4538600034202228 
-4.475801564251218 
-0.8385220699249883 
0.5723450230503204 
0.1691065332134529 
-0.2609941014778785 
-0.4022269653798604 
1.727673078089255 
1.591025457095256 
0.7720135761106378 
0.09458597626017558 
-0.1491778669157341 
3.127339239586356 
4.171486992214644 
-0.08661479953830446 
-3.556449819067856 
1.242988650181736 
2.332608756819089 
-5.634955416695875 
-2.0126166070924 
1.983992889937529 
-5.818566215150739 
3.566636540001589 
5.872782542045267 
5.420863751297017 
0.07045613844801064 
-3.476330667773466 
-2.7989942125252 
-1.686838327108931 
-1.990995515242774 
1.354633854391796 
1.790412381492683 
-0.3691763181076336 
0.5430589871904579 
0.122344480806911 
0.5257983874818603 
5.035406286342505 
-1.524587533641652 
-5.131703811078765 
2.595729162165559 
3.70165345459139 
1.18895385569025 
-2.623062265754851 
-0.8087337399366267 
-4.087399371187967 
0.8289518892819393 
2.033267816005456 
1.318570978257343 
0.5207249381372491 
-0.9492580686756668 
-1.039732541343226 
1.26393680931461 
2.734996735161328 
-0.6100000019983356 
3.829578123151334 
4.258121888062424 
-3.167851478088296 
0.4333996789890374 
4.61264919363065 
3.81971604501401 
-4.12948203447278 
0.3195087676492396 
1.173307090335877 
-5.352094007983603 
-4.101295953526146 
-4.035500087412527 
-1.556860610680427 
5.712246880874429 
0.5272319834891973 
-2.155585077381636 
6.017579051294682 
-3.118614194458328 
1.563810204303575 
0.9746914040403049 
-3.072985942705327 
6.195583960503576 
-2.944077144258474 
-7.583441999166736 
-2.18588806125025 
2.012541261254906 
7.086948070167201 
1.970216717025222 
-3.485806954720511 
3.845285915339659 
-3.919078347810112 
-5.570451648042669 
3.213204599025161 
1.822986635125249 
2.509009875187607 
1.301960555969455 
-2.064063944461553 
-3.070539984257821 
-3.358594058243702 
7.789363281361227 
8.701012956244865 
-4.14626772267071 
-6.117592978291601 
0.3797126199093085 
-1.250673757087443 
-8.160723723518364 
4.423424545408752 
8.407127964359077 
0.3309701210884065 
2.902964060751265 
2.421416351987822 
2.415204259834212 
-5.447869672422075 
-0.3399144125118264 
6.60928823239708 
-1.380295032350491 
-3.846348000517887 
3.866673977260674 
-3.013360734539535 
1.378700485026581 
2.919342951428607 
-3.541184039137798 
1.506816026544651 
-1.944403353378753 
-2.723349632801902 
2.295219381356506 
1.218369158320954 
-5.849227457291743 
-2.336846153179384 
0.6774491681438261 
6.404498001041925 
5.568181009692699 
-0.9801324978908593 
-1.551842309978575 
-0.6515421455880798 
-8.207933928469446 
-2.235841988753725 
3.393865703350139 
-0.02135667025880976 
0.716504731325177 
1.388063579707434 
5.170780118736582 
1.16662061083999 
3.240494642920932 
-0.8943279892132467 
-3.893256659452986 
7.119754399931541 
-1.287182685951787 
0.2232087227081282 
8.577331293465781 
-2.114104875415936 
-2.437299070142856 
-4.29139326721815 
-3.303813438645682 
-5.913443104206046 
-2.08731122041894 
6.594489249921124 
4.820610663063937 
1.83155303908409 
2.215388079344385 
