solver_type L2R_L2LOSS_SVR
nr_class 2
nr_feature 1984
bias -1
w
0.003409048062760847 
0.6205908235172204 
0.4059181625083926 
0.8581559070538087 
0.4591748528927952 
0.5365670243080969 
0.3558322572279939 
0.6068732382472736 
0.5688470249504903 
-0.1800634070565888 
-0.1024235970289186 
0.4670099513176605 
-0.462015156246857 
-0.151638680989698 
-0.5110876312903773 
-0.3618380424053897 
-0.1652688687022942 
0.2673259521200932 
-0.3225736926849984 
0.06457721977339495 
0.1849401342097001 
-0.0992729116117472 
-0.9518394834211882 
-0.51934109511565 
0.05503289894520989 
-0.5002519623491376 
0.2716795672729551 
-0.1457011396136963 
-0.4341102119545145 
-0.2316803372737793 
-0.3992402793314783 
0.4512756227926062 
-0.08598604619435614 
0.6004028674925255 
0.4760561549160837 
0.6308956635742303 
0.03697749554033025 
0.4177847354453063 
0.08430419465989046 
0.9117172898139769 
-0.8044545352007144 
0.2300141719564055 
-0.7814287125190919 
0.2144272416344665 
-0.7661240130205963 
-0.2167007651601245 
-0.480444759510327 
-0.1537538841301822 
0.1832767253771518 
-0.02761758510200114 
-0.1651846512995381 
-0.3243152895432882 
0.653613266599423 
-0.9749538765753154 
0.6066624253145823 
-0.4861161687179229 
0.2440139225556126 
-0.590183867227064 
-0.3012282160825844 
-0.03628809486264968 
-0.2904622079218142 
0.3583543334787823 
-0.01146522287353895 
-0.05454895607778398 
0.668712123842053 
0.714702917509848 
-0.04275470377802499 
0.6644985215215804 
-0.3684698303483938 
0.871390040506927 
0.3964346989542339 
0.4859840095145301 
0.278767590711144 
-0.3380337067336091 
1.024208229126544 
0.04879521335621461 
0.9856913031591173 
0.4854388595244816 
0.3108472641219541 
0.8415318685046611 
0.08152807290416407 
1.225296885797472 
-0.6239291350810034 
0.6672413194705891 
0.1273673253870533 
0.3121618496722422 
-0.2728328238420684 
1.06903615573849 
0.417343539515656 
-0.2079533260759826 
0.6446458819077137 
-0.228241985862183 
0.2873074092160061 
-0.4663509594092781 
-0.357481629777162 
0.2668939533902349 
0.1556152541700131 
0.7637269302268573 
0.9341145109466577 
0.7775796560639738 
0.009165298229005983 
1.092815756195237 
-0.4104471752291974 
0.430865735094939 
0.109990314653841 
-0.08274465629183103 
0.2431405071146177 
-0.6440387870945445 
-0.3962271586066624 
0.3595889850763229 
-0.380133999296848 
0.301092318689541 
-0.03481751830734282 
0.1765695738557292 
-0.07477876908175134 
0.646100215860509 
0.1040287883976552 
0.1263456989686892 
-0.2396699912348862 
0.1106615578151234 
-0.8332856315047261 
0.3633964167119229 
-0.4219678197346816 
0.625552330399342 
-0.5814640335878217 
0.9110554069726775 
-0.1347436760065261 
0.1501229850055504 
0.4971680081627456 
-0.591575646306743 
0.3245980004829659 
-0.4316014054691099 
0.2386646174947845 
0.02610600735148994 
-0.07023610166849835 
-0.1296729001228801 
-0.6003112511893149 
-0.01787787485271588 
-0.3704853872697982 
0.1049263314070685 
-0.2156199127311516 
0.1463492141549725 
-0.6327321025742585 
0.1083876092046691 
0.1866124447156451 
-0.07205342029371907 
-0.106508033249958 
1.042088768755069 
-0.4782611223446548 
0.3431028297800699 
0.3471056350379124 
0.4160342182066858 
0.2237686326649818 
-0.2610968114454415 
0.5305436499338901 
0.5664012361626261 
0.3808740635823135 
0.1553023093978248 
0.46233259503645 
-0.1563521473060971 
-0.4354580392157974 
-0.5778000282469627 
-0.4555662076607693 
-0.4398036192169701 
0.2353840447238576 
-0.05931184240044122 
-0.1278558954275933 
-0.4123870558891264 
-0.07376810039119792 
0.2777108044813272 
0.2988922757064244 
-0.5426104063251901 
0.930320666841529 
-0.1831519444632813 
0.6702492333400432 
-0.1680465023486363 
-0.1029749799154963 
-0.6928016676044034 
0.7538911493962355 
-0.01173839740658847 
1.01940222855392 
-0.2533110769661666 
1.050975865766996 
0.2723531297647028 
0.08777431304432326 
0.4080850462172097 
-0.5281307762971069 
0.3535267904205183 
-0.4465545022883208 
0.382239815230499 
0.4559295075581672 
-0.160941353485515 
0.4111643244119005 
0.6660102835645004 
0.1740669559689018 
0.5318132761671583 
0.06876917670756272 
0.9238167509989588 
0.2712397044057045 
-0.4733631494956791 
0.1834232231282833 
-0.06132678118890206 
0.7429063978271465 
-0.1932859739245398 
-0.09812079865292837 
-0.3352062515219858 
0.2502836960623201 
-0.7619619762909997 
-0.5809832027229158 
0.1179994370684619 
0.0194863311575163 
0.07266462301100632 
-0.8068064357933801 
0.4620927187400913 
-0.1174130847240921 
-0.2812667741826074 
0.4471573974972752 
-0.2111239837046351 
0.03314592114522173 
-0.8272892799823793 
-0.3573428506197627 
-0.4896787453320925 
-0.5072832167919802 
-0.084595084403239 
0.829460867410264 
0.08142875789366154 
0.6558780990447414 
-0.7279542444904534 
0.0849492953775534 
0.3434853782300131 
0.04560921204415767 
-0.482052000693011 
-0.7826530908886772 
-0.0111689722448722 
-0.6645191418399286 
-0.261761493235121 
-0.6258052496179124 
-0.2196144313384321 
-0.2320298228794419 
-0.2769046787482732 
-0.6127086435238699 
-0.4361030708411046 
-0.1396484576901121 
-0.3214709215402337 
0.1296921650885842 
-0.1661514640033836 
-0.7340853157349764 
0.2058535103398801 
-0.1573373232699149 
0.04945268813686513 
0.05477109639863433 
0.6586154137437404 
0.1710319754450865 
0.09654436912849028 
0.3637451663135648 
-0.2408397706266766 
0.3115010196120842 
-0.4868941908392158 
0.8109898723855945 
-0.8636207693016721 
0.5171038596055053 
-0.6360543774213322 
0.4086559511086253 
-0.5384361304123665 
0.3800412501679474 
-0.5945872576182234 
0.5874297300456421 
-0.5865845214139594 
0.4001886116667827 
-0.4466074364702562 
-0.1229134572990143 
-0.3279551527754342 
-0.004887777449217754 
-0.2387562916517681 
0.2584988846794488 
-0.6148146066181502 
-0.4883667467256237 
-0.1088163001777391 
-0.2960532418702087 
-0.4483100562148247 
0.1984833059099668 
-0.4491417231906496 
0.1438720561407778 
0.3614470148007646 
0.3619114226579651 
0.1833157247101681 
-0.004146557652393486 
0.01558681838244474 
0.1809956311310866 
0.1879084553971216 
0.3704617658513871 
0.5407759211107005 
0.1091978294262904 
0.0471942912857828 
-0.3956387682854889 
-0.208865337207174 
-0.3965022634104662 
0.2817820535905151 
-0.6376919000181029 
0.07666819669149186 
-0.5812580104271817 
0.1092529685745494 
-0.5935076023882779 
0.4631903345082308 
-0.3891215628800248 
-0.1104810782186867 
-0.02107039623425025 
0.4980301424373436 
-0.4398370561013925 
0.4265984676187746 
0.001496298072814933 
0.9427518001820686 
-0.0648695044561412 
0.5712933199788606 
0.5156971255919147 
0.4029432437367116 
-0.218113889534052 
0.4599861271551975 
0.01630417035101172 
-0.1107891548211392 
-0.06327142078667489 
0.5950767850972825 
-0.3485718487742364 
-0.4891472787301197 
0.3374006479515093 
-0.6325712870557471 
0.8669948367723058 
-0.6316704279676987 
-0.3680928503775334 
-0.5764960738648214 
0.0578152117945362 
-0.07297612012642164 
-0.2803909609827906 
0.3299586758644563 
-0.4296852641814297 
0.07580527891574401 
-0.5058741614637 
1.048046208431115 
-0.5732572800822102 
0.05184561871851235 
0.5802307591305226 
0.06964263807245434 
0.2153684987901353 
0.1833924620563947 
-0.1831123234454849 
-0.4093941521206387 
-0.2559485360074579 
-0.6771640910415782 
0.3979845919662543 
-0.6517727071329584 
-0.6444266898864225 
-0.1744553486097767 
0.4048327453242942 
0.1912894872443128 
0.6326156739471069 
-0.6995263326740978 
0.1264552450829557 
-0.3486015758247162 
-0.1383242113367304 
-0.1508536753110071 
0.3866268618183368 
-0.2912479667216409 
0.7486339544707025 
-0.2895544622253038 
0.4730067365812181 
0.1442608164349693 
0.6518816152359771 
0.4107116535500878 
0.3475941457846297 
0.1799289917215782 
0.5255554415210338 
-0.1490126210032313 
0.07258447696948163 
-0.4192231725813441 
0.3742561034922548 
-0.1026439460036149 
-0.09491908592157411 
-0.4807145564704547 
-0.3067596510703076 
0.5004647415975511 
-0.3041640833043451 
0.239433639903793 
0.3419247331494673 
0.3387841888209724 
-0.2629790217902063 
0.2605909013991432 
0.391472116938932 
-0.1526765297001197 
0.6061465446669904 
-0.6302148196758216 
0.5963196934285211 
-0.09169294277358825 
0.8214361194050669 
0.195256210751751 
1.012326701482233 
0.2269758320666246 
0.3303355525407238 
0.958120567441146 
0.3468801853792994 
-0.4036948331024183 
0.6272819121402863 
-0.1599533162152696 
-0.2081137868303838 
-0.393990683783305 
0.1644874826026821 
-0.8973362309945222 
-0.2753299100392985 
-0.5450259953818242 
-0.5776352810484841 
-0.418940076968151 
0.43769158114958 
0.03555516603376842 
-0.4892894514451752 
0.5396271114083024 
-0.2727234111218593 
0.411820370318712 
0.1697381002399065 
0.6650874275905528 
-0.0952850224993041 
0.2878736357296012 
-0.1974302654710934 
0.6164289576069768 
0.2900101973274457 
0.2963381544459278 
-0.7708274656303066 
-0.09579863916945777 
-0.2223348446042944 
0.112668993312453 
0.4559776026342381 
0.5220618004607348 
0.6997950027641796 
-0.1962901823705959 
0.2877205561242469 
-0.2626209714161771 
0.7777842907822108 
0.1326417578283298 
-0.07737850349636916 
0.00414763227733317 
-0.1418815719868753 
-0.8015732006838671 
0.5249395973260553 
-0.06412477960690276 
-0.5626100063603532 
0.1695445890867824 
-0.3568245596570933 
0.2192731457044719 
-0.3480313184329474 
0.1472895969263612 
0.1681035285856354 
0.3495121376294695 
-0.2931849666003739 
0.3920966921163924 
0.3148619913249572 
0.6230614195401685 
-0.3087458641113993 
-0.5386100336641727 
0.4455167416257042 
-0.9901094477597477 
0.8632208993272854 
-0.9883149776067187 
0.6970720184854338 
-0.3127848810406886 
0.6866609447093202 
0.09784526119211948 
-0.1586788076043738 
-0.3479984837454141 
0.3422647184149431 
0.3247431959998496 
-0.4762237356885359 
0.1531318860361068 
0.1301551511626466 
-0.3731831981909385 
-0.1136951631194001 
-0.6776990597503546 
0.3628416880141351 
-0.02913147382395728 
-0.3345168227422967 
0.3066335694632317 
-0.2412079682479065 
0.01676905999456957 
-0.1314146872656058 
-0.294704889584491 
-0.190054577947416 
-0.4478394139836961 
-0.6543007651385919 
-0.8819001703116477 
-0.2915426445690736 
-0.5774018237662846 
-0.5016230431989834 
0.1020159050013929 
0.4098040707892086 
0.1649356674518659 
-0.06513708358671084 
-0.06679337616432962 
0.1969810734541667 
-0.1747401616645287 
0.2336389397494581 
-0.1522087618958468 
-0.1114869300485298 
0.3281088564797578 
-0.1750721102393358 
-0.2111338734475527 
0.5476897955929819 
-0.07946516799225575 
1.213079527028935 
-0.07780718649431044 
0.06978333830187761 
0.1360421613158253 
0.1014693225777071 
0.4121109022120876 
-0.3771979565829244 
0.4199856074029822 
0.08307972813721572 
0.2093784768526484 
0.6941118254535835 
-0.447353121271945 
0.6912649041764422 
-0.02860326804179265 
0.3630840412596901 
-0.6531293231424971 
-0.6902386914517405 
0.08193978969176249 
0.01146672576486511 
-0.03677708818336617 
0.03299123631903819 
-0.4169875081961825 
-0.0125463216206398 
0.6465066731146775 
0.5086434763357873 
0.4014781181746759 
0.2293028141016268 
0.4704409253696477 
-0.5386953156446603 
0.6148013456454056 
0.1727971006191182 
0.3215432344060554 
-0.9437637185262092 
-0.2432589725995673 
-0.0138761063791777 
-0.2862368110601209 
0.07304135553264619 
-0.01918179681000877 
-0.3179050761779283 
0.01144489391265781 
0.1349748016915887 
0.5564643811260804 
0.3665298109851728 
0.380869235375671 
0.2338870355037075 
0.6925590304328587 
0.4926941647689587 
0.5490980157673091 
0.6062698824718733 
0.6486754127230234 
-0.08832787163770117 
0.1491660751996492 
-0.06255456459410698 
0.0404034928655401 
0.2713291474156498 
-0.09122663634534477 
0.01467183117220947 
-0.198031167073336 
-0.6090526702880539 
0.05507132386329836 
-1.068136513733223 
0.3639177374519896 
-0.9902253355101358 
0.2383053000333723 
-1.056381994988303 
-0.264686380811281 
-0.9484871583547284 
-0.5062227116596034 
0.2996794578068093 
0.04230479727107488 
-0.1891412257238442 
0.1689087628795078 
-1.006416261479969 
-0.3114603062744583 
0.09137963812711979 
-0.7763174827737899 
0.5368479798175909 
0.0004873446163432792 
0.1330141733400965 
-0.1314209383494488 
0.1932378628336998 
-0.5718715204820921 
0.3819789546319103 
-0.4083431774217312 
0.1569511541293503 
-0.1292072555870104 
-0.09631664320588479 
0.5903823673232077 
0.3467002475436357 
-0.2680192896877238 
-0.1641138385016293 
-0.1625320412399198 
0.6037657746294237 
0.7710835209192519 
-0.09502490628243986 
-0.05749461986303041 
0.4094752380358312 
-0.1157713619163297 
-0.399031352588549 
0.6077382603272549 
-0.2970594998969337 
-0.06274077846991161 
-0.05018293462315498 
-0.2498032173798123 
-0.4042733842413611 
-0.3019564943499412 
0.5700743943697903 
0.1887151456799996 
0.3142371813546727 
0.293812858404173 
0.9441820241175943 
0.3655370212141761 
1.096279193163629 
0.5589360769569778 
0.6047051191059787 
-0.5790384038370766 
0.1622320715318354 
0.4228822417021855 
0.3058763730381436 
-0.1335176509941437 
0.005438916060763175 
0.4195407335759089 
-0.02709053037116373 
0.1802281398496282 
-0.8271794783029505 
-0.2334758543831201 
0.07184139623926693 
0.2829643634055767 
-0.0243411299064791 
0.3654979011391988 
0.2453718009637294 
-0.1672160881189623 
-0.09861784617536665 
-0.1502502298563068 
-0.05381699504873832 
0.3192871469508315 
0.5422373621572666 
0.5289942354655879 
0.2264435209923991 
0.2998230869298074 
0.5827139469825163 
0.2607301086369203 
0.8485649099262303 
0.4221872490462861 
0.418984820574857 
0.1792736502303283 
0.9021350295595824 
0.5531649494269467 
0.2923516015220651 
0.437938243646451 
0.1758480480332804 
0.02952463894748827 
0.4289556745341526 
-0.2910021431673528 
-0.01375068558071948 
-1.19623244816947 
0.6588609434427657 
-0.2630532991632304 
0.6019581965278247 
-1.014748558949171 
0.4202921738873194 
-0.2944258966284701 
0.5128923542854341 
0.05033104767760549 
-0.01810797931600464 
0.6145725044852658 
0.06912844180553367 
-0.3187148165583188 
-0.7249569643355418 
0.1896291107385033 
-0.6398895998640072 
0.1980031489129482 
-0.6180098370243322 
0.3311398717325083 
-0.6290327865454477 
-0.336253066281147 
0.1588317151433998 
0.3551110453991751 
0.3691442085368319 
1.102608909734721 
-0.3129236130495039 
-0.03209956048927717 
0.3316177201787304 
-0.05168532177310271 
0.1764555695661636 
-0.08985727611677825 
-0.09037292822245403 
-0.4193954839991982 
0.9119564657295782 
-0.9462501790986164 
-0.1481126714542681 
-0.1479463631206986 
-0.08318180677664158 
-0.2479368136407666 
0.3267778001923363 
-0.4673281803132274 
0.2990829872676506 
-0.3642561933154439 
1.008406607865334 
0.05614164062470388 
0.435608010084804 
-0.02470678823956873 
0.3157257659332197 
0.1122872315510594 
0.7036395612231917 
-0.2915810721566515 
0.7957364381967146 
-0.1633877370592421 
0.337384479331684 
-0.7865176383723042 
-0.04456669995755137 
-0.7004567648531653 
-0.2139193447434648 
-0.03427209181292412 
0.02650042743848801 
0.2903674336962445 
-0.003206328682127536 
0.0104554480740844 
-0.265760709486434 
-0.1340598947858239 
0.6110361567848083 
-0.4419919465671605 
-0.2330724657734089 
-0.1703574774605142 
-0.4330663608064993 
0.03348132626253639 
-0.4721662164723865 
0.02656113596934462 
0.1360829650236836 
-0.6071909103134623 
0.4647091476238966 
0.1708914664525754 
0.5608770088697602 
0.1127459096643432 
0.6419408311737633 
-0.4313290210295716 
-0.3945465401555422 
0.002676375091131767 
0.06386000584557947 
0.4730975889152566 
-0.2376088210252677 
-0.3482553953351539 
0.1928471519013989 
-0.3857459098252387 
0.4336522008042186 
0.05637208752870064 
0.5047041465790607 
0.6584467888432219 
0.9628799676361469 
0.1446831348299915 
0.2983121949989716 
-0.3487627034974229 
-0.2272583691498821 
-0.01110338932746728 
-0.8012753770683539 
0.1486917135156497 
-0.002371116124417505 
-0.3324962766596553 
-0.7117905886459068 
0.3737882977540128 
-0.1910862439157239 
0.2228198736046796 
-0.1949801465430468 
-0.1179613897600713 
-0.2063088648832221 
-0.2311518769018122 
-0.03959691464392379 
-0.01578948577557114 
0.3861267353024322 
0.0742877815636197 
0.5013147211896198 
-0.5563697356846699 
0.38428274704006 
0.1712175161894117 
0.601294245097744 
-0.359662569007614 
0.9219749689178632 
-0.0392736688177572 
0.3251612179897629 
-0.0333951374102931 
-0.4478422934190598 
0.3267970856484972 
-0.5974174633757099 
0.3714880992256287 
0.1084849982527421 
0.2914454456337514 
1.042120892474551 
-0.04610209405904979 
-0.360063823716905 
-0.5037320411582134 
-0.3783664771400666 
-0.4040231066593271 
-0.5062449819396758 
-0.7403041561084741 
-0.1258577838945662 
-0.3984979934681258 
-0.5121815729619487 
-0.2731268996061822 
-0.3100197813844927 
-0.2426203337562067 
-0.5687890690328002 
-0.03426874518501598 
0.4077074443050849 
-0.2821280056552375 
0.2016063266146048 
0.006016225447079468 
0.7738862442780278 
-0.4203526306042321 
-0.1322211353187879 
-0.3791608226562999 
-0.2115466405477112 
-0.9415780045202451 
0.1504437467994627 
-0.1898973292377259 
0.2278717543842549 
-0.1772258057061702 
0.4719738636882608 
-0.2932492270189055 
0.3982896758400893 
0.02901972849099069 
0.3955032199808631 
0.5924597491431249 
-0.05818062867099161 
0.3505756545282248 
-0.1252121618078502 
-0.595568002594193 
0.3432611516113544 
-0.303678713697963 
-0.3140724004526079 
-0.1132533291580372 
-0.2564752828630562 
0.3866357297939754 
0.2060124646483585 
-0.1269531545062038 
-0.05064841671529401 
-0.2626679653408314 
-0.02373384417216046 
0.749186311399079 
-0.01303242690976681 
0.4110421784720531 
-0.1122100007851912 
0.2412126164540666 
0.07972495351561286 
0.2771196136666308 
-0.6147749750606286 
0.0498398365389351 
-0.1929161838294567 
0.8596764046266524 
0.162871400387614 
0.1027979855821292 
0.1517156159058674 
0.07560755941937834 
0.3283841451342913 
-0.1422932061845061 
0.120643377800212 
-0.08139571877580104 
0.1129310677604465 
0.9287006839723875 
0.02376896847107702 
0.6881992791292085 
-0.1864669133942185 
0.4097915550759467 
0.2569755147968814 
0.2609514769750093 
0.3753848892239357 
0.9043767172624972 
-0.137053591833445 
-0.080867177296552 
0.3163921704840704 
-0.04634175216044728 
0.2383122275183487 
-0.6877644039283676 
1.235738653839031 
-0.40747240669125 
0.5964482453131201 
0.3863898008097524 
0.5493830740354606 
0.1809493381240514 
-0.5494079032634593 
0.5916002423459243 
0.06428467367611292 
-0.293794933603387 
0.710794242006113 
-0.03981821431720545 
-0.2805604418386935 
0.3551206058583258 
0.3862666045846948 
0.895659051585373 
-0.3056508074755953 
0.447656670421132 
-0.02640725742338312 
0.283461997155749 
-0.3393536839562642 
0.588383587871589 
-0.647548124500278 
0.6559688223520825 
-0.4701199626220764 
0.630569509405142 
-0.1283830856302565 
-0.1335329446186908 
0.3085957079208785 
-0.4229475074240963 
0.4157952304154901 
-0.649150979017276 
0.3964442892911044 
-0.2792362407050115 
0.08788786718482328 
-0.1821604367799534 
0.1817214841701159 
-0.5312112626809214 
-0.7480454674090928 
0.5235024923252725 
-0.3045116026974284 
-0.08708287544999288 
-0.2783500727763279 
-0.5304311318552001 
-0.1190226200510475 
-0.09445607365734462 
-0.218115083651446 
-0.3921729585118818 
-0.03305026373216648 
-0.4982664824803642 
0.6066202105556709 
0.320944635708522 
0.341399441576444 
-0.5106210275142578 
0.08874124106413653 
0.1959507241938863 
-0.381032920838593 
-0.01044818920905966 
-0.3783421818926496 
0.1385152551255369 
-0.3586486904256683 
-0.432942460087225 
0.5426553317019399 
-0.3213627537256774 
-0.1257917372770779 
-0.7848353643397746 
-0.02094836141910919 
-0.4495453842474328 
-0.3633841872172593 
0.2102601193193588 
-0.3302442957331825 
-0.01885916198664651 
0.1695512909343199 
-0.2705440575625809 
-0.04914864766185032 
-0.02910270993147094 
-0.3490766778622625 
-1.184663925497276 
0.7952335556574627 
-0.5176892320075648 
0.6268509461563698 
0.1233422345499814 
0.04281659493781888 
0.1672980377607626 
0.692588108488432 
0.4899896528232582 
-0.4535433167313117 
0.7507115949525521 
-0.08965770917530042 
0.2676260458398714 
-0.5926860311105999 
0.6127340340326015 
-0.3722169268835637 
0.4483534663544431 
-0.09435664837476888 
0.4006568663829237 
-0.4047961210715637 
-0.3271289928223476 
0.5364248985473292 
-0.4704211928656722 
-0.1751141575634527 
-0.8656457382871148 
0.01493160681438774 
-0.0144578366484154 
0.173796665294591 
-0.7983319216508553 
0.4379084722783297 
-0.2290920621686147 
0.07642661804306057 
0.4058787473694789 
0.6864842755150494 
0.9908220730736464 
0.0574934170010927 
-0.1033754381127553 
-0.423675718225819 
0.1301852803431858 
0.839380549055026 
-0.1874525110237196 
0.0628897128694681 
0.5732998846031534 
0.1195160644063848 
0.7841465752249646 
0.8115031980257881 
1.037306155899494 
0.002754898678282651 
0.4084251922083324 
0.695180504887047 
0.4381717871584363 
0.1566446474103316 
0.89162296887172 
-0.08979214208655838 
0.2161646274535462 
0.6305984762573335 
-0.1611889918159982 
0.6898798263847633 
0.2566828580824224 
0.299318038547032 
-0.1630579133834203 
0.422467462649983 
-0.1507269915359125 
-0.119466499835734 
0.1160508301532212 
0.4749478388682822 
-0.8867598088257895 
0.4172111950348645 
-0.5435646189810508 
-0.471831008917448 
-0.03808237806787845 
0.6350190375663821 
0.2946275799807344 
0.1319421976515689 
0.2625239527266484 
0.6665449342713533 
-0.2131050018197362 
0.4830601711787263 
-0.3166918484248784 
-0.01369657054899139 
-0.694570469758242 
0.6572400255103056 
-0.5056886782119734 
0.3769336743640105 
-0.3542971908507438 
-0.4215426171276006 
-0.4049645586372942 
-0.2758235431860877 
-0.06360814167346375 
-1.231599441592582 
-0.2641406601667065 
0.1663955662213698 
-0.02625394321563903 
0.4965913979624327 
-0.3115355831817134 
0.3179131032532798 
-0.3397727176805918 
-0.3160591192662651 
0.4285102098276652 
0.2139264094686901 
0.2018893322507414 
-0.07225844777230904 
0.6219295226067316 
0.09363593291408964 
0.4554747255796198 
0.3063966004359739 
0.5122523479556554 
-0.1649235816575046 
0.2274776696829107 
0.6800680672823955 
0.2347129851651106 
-0.2100177034145801 
0.6125278565445783 
-0.1431625957039567 
0.4170202782897262 
-0.07144132804096824 
0.7797868297781538 
-0.2079117587190032 
-0.1748661541108218 
0.2791226445083864 
-0.4327981026151848 
-0.3156757484235416 
-0.7087340380038224 
-0.00977958841643883 
0.05402404361940716 
-0.1013510507819479 
-0.2717603993870278 
0.01267686781731345 
0.3143728046914426 
0.204049289294138 
-0.1431749736284248 
-0.1402876356751553 
0.5139061277427149 
0.02368398970886517 
0.7186062039019767 
-0.2281166106031086 
0.0606065801066162 
-0.05852716567344744 
0.4563315190446319 
-0.2205235453172281 
-0.04985211585012803 
-0.03393739929969341 
-0.1833915720152093 
-0.3682813914960045 
0.5040715553216339 
-0.01258719345100881 
0.1759528205261298 
0.2686108484240865 
0.1616240215500716 
-0.07475399777804521 
0.4291304573639771 
-0.7037514484998683 
0.774237570626347 
0.1179812195886988 
0.7237390342464612 
0.5842069795400112 
0.7725816124435073 
-0.1998951689866191 
0.2008459872209292 
-0.4640140777938582 
0.560217818889822 
-0.4290809110896432 
0.4338049762414606 
0.1961153003583967 
0.3272433861814693 
0.02378924164000223 
-0.005751272789495043 
-0.05448781822485711 
-0.09190930690299312 
0.4841224953185905 
0.04196845070446539 
0.7442930851388809 
-0.346683757494727 
0.7790237862771554 
-0.3570897639943363 
0.7179216331336969 
-0.01694482738160107 
0.4113885581491015 
-0.2160607530204337 
0.4275991414375845 
0.006872195889395323 
0.01007446901746172 
0.7972227378885789 
0.2378682069046196 
0.4193759382646203 
-0.9044050015053599 
0.2651728375167462 
-0.7165387681866087 
-0.1591451672968327 
-0.5371763590210598 
-0.04193386629802504 
-0.405891873052217 
0.07976647973609383 
0.1997559141024532 
-0.1287995310096854 
-0.08776843625637883 
-0.4385274965453017 
-0.4079344903089216 
-0.253232179420752 
0.2489258553254193 
0.26051739513414 
-0.6358856196583039 
0.5091204525516634 
0.4909198098184782 
-0.3838683112181633 
0.2103096092984248 
-0.2850443480651471 
-0.6504294986288722 
0.7617725590017314 
-0.1745923355138536 
0.1718609919595231 
0.06252999686205502 
-0.2853841004062319 
-0.338739085758638 
0.6553242496932037 
0.1263224640699631 
-0.1088718701809594 
-0.422279258192378 
0.2755045071029772 
0.2590294399883072 
0.1652124557571768 
0.7355992737980033 
0.01904548101806275 
0.9625656609174428 
0.5460526174600673 
0.7522183528223472 
1.656380837920511 
-0.5672016668377211 
0.302546241161995 
0.3361656607868484 
0.5136225705360152 
-0.08663585823982668 
-0.2658725438809651 
0.1176890294437596 
-0.09498168381943335 
-0.2362880095976243 
0.005190014887966147 
-0.1512944159709916 
-0.1205147750064579 
-0.5121358773670466 
0.3971258382538733 
0.02404707224198687 
0.08350573592327266 
0.6822704224790301 
-0.02289190282034677 
-0.5478613962285422 
0.3036376920860387 
0.1574532699393423 
-0.4248905422338077 
-0.1823267063543237 
-0.265060953118492 
-0.7073372159244345 
-0.4760332994502152 
0.04082968393421173 
-0.6394930937593662 
-0.2402555150450232 
-0.4667951561923169 
-0.3847617261070481 
-0.6480089143099234 
-0.1669375415741039 
-0.3757110511102617 
0.3198834275563485 
0.01162513388508856 
0.5055738698091243 
0.4562412075497269 
0.2807112254791911 
-0.6491238866630251 
0.732194256978364 
0.4459628776407335 
0.2905601762506753 
0.05678685350407436 
-0.3743952094455619 
0.1524636758943431 
0.4400077532516848 
0.04658610492310971 
0.5275207875656327 
0.1147892740531555 
-0.5363928045652219 
0.1271155708160875 
-0.04992883915694131 
1.023211160182442 
-0.3710312199305509 
-0.1926093936808344 
0.6453092033142074 
-0.5161572732068929 
-0.1459441799020299 
-0.3339411743148164 
0.1346081412382697 
-0.6311542782816915 
-0.05884481513089457 
-0.0464875455119077 
-0.1459968694443239 
0.12243018821141 
0.5829066112089349 
0.3881246318704522 
0.008583350555392749 
0.361674379138098 
0.5330893717380861 
-0.118713536206759 
0.1419086558207193 
0.3758253981097422 
0.2918579042141366 
-0.1508669578953813 
-0.4391278078041548 
0.009272933271342973 
0.1999897185642166 
-0.8214077653526193 
-0.2868121645567676 
-0.6058966177935103 
0.04677440997780127 
-0.9271257542370631 
0.0103679634464932 
-0.2439854827488414 
0.4869480797034048 
-0.1081176018568929 
0.04454472859351716 
-0.168907635574354 
-0.2101380885206061 
-0.2410295421210532 
0.3161037254690431 
0.005764281824377631 
-0.387278511197448 
0.5031054369634441 
-0.705652401368461 
0.1383802001629734 
-0.5996834290322718 
0.07660746560332841 
0.0354719123473774 
0.4472102146315829 
0.09096009245687967 
0.485191003735635 
-0.2708254785321506 
0.4285723811563668 
0.2366353555370746 
-0.1954592479976126 
-0.1195051134238643 
-0.2342021390429855 
-0.01723632191915255 
-0.950825041581965 
-0.6910021563441007 
-0.5022273525599087 
-0.1500469983147743 
-0.5410000884788927 
0.01933827799347453 
-0.409473998053913 
-0.7167469850043559 
0.1236537014396992 
0.06016749314664799 
-0.5180938180151783 
0.4336146659555552 
-0.5316599971497542 
-0.1114049659343244 
0.3791186042835943 
-0.7348529143990062 
-0.3521173451243337 
-0.5609333612289052 
-0.3877366614018994 
-0.2175760140451128 
-0.2054109049941814 
0.1830570635370229 
-0.1898352235345534 
-0.3453801673795916 
-0.1611470018813806 
-0.4765301403421324 
0.4487932680834821 
-0.1731428002136324 
0.489663616703416 
0.8039206569653229 
-0.3431795100940001 
0.2030350882352477 
0.4368017721204662 
0.2925123005173841 
-0.3773366294814157 
-0.1011967563889944 
0.09469532770180591 
0.4431352074736954 
-0.8788611988436072 
0.5681887428311926 
-0.8250351476532168 
0.01688035021944055 
-0.02309700339263887 
0.03016005872077177 
-0.2673373531452122 
0.2004574957260723 
-0.003422636496177439 
-0.4368372950918239 
0.04769601383387307 
0.03304598922745656 
1.161948718425945 
0.426863132471707 
0.9088736183565068 
0.01631258566474701 
0.4674707671061827 
0.2232920709139102 
0.5859908779274531 
0.2220877454880067 
0.1109888468788603 
-0.6363432616108107 
0.04453778185712629 
-0.4957709504121297 
0.332604831753718 
-0.6422501686587785 
-0.0494752791746011 
-0.7683333482714026 
-0.01709373374570261 
0.6433727844045345 
-0.3703483591360785 
0.4930421928816625 
0.3794424222584918 
0.5695266298656855 
0.8250185567784785 
0.7690497132578435 
0.381527133409764 
1.19070964073001 
0.551840886023434 
0.4283084135351006 
0.2733571732990767 
0.3384976391436539 
0.1924274724693122 
-0.4785298678332639 
-0.4424942721694778 
0.5929560675250056 
0.2964641228221538 
0.2864220144584701 
0.1631282285839246 
-0.2034282728241623 
-0.4128288847510922 
0.2583933032125172 
0.07432295333021836 
0.4275293212840191 
-0.5225524047233119 
0.9906136071995214 
-0.2021625150766601 
0.111576311388144 
-0.3767361578063078 
0.2346923617409994 
0.4336985817293814 
-0.3055567442179497 
0.8513786974832382 
0.03433019701953061 
-0.02913562404509116 
-0.6433615114947294 
0.1596363962098628 
-0.4035823799753288 
0.159274820887436 
-0.4602204114266065 
-0.3224331155126752 
-0.759794380961259 
0.09611691113157969 
-0.2959420852480533 
0.1011747838086827 
-0.5762850585094853 
-0.07416385853692359 
-0.06937655626579224 
-0.0201802503390532 
0.1032980755599312 
-0.723430475395519 
0.4428448906663811 
-0.5288195446977212 
0.8427616534143632 
-0.7351826767758419 
0.4340614171876637 
-0.4369831766708294 
-0.2197331416482751 
0.6956907838362715 
0.03981265277320381 
0.3823966740151235 
0.00938508833000499 
0.1425082610619908 
-0.5886218437764983 
0.2324251757688698 
-0.6900245939816864 
0.6636877061305595 
-0.9480382549274328 
-0.3385341147554649 
-0.6805348504914974 
-1.29453481286031 
-0.2701205417051935 
-0.3871579685587906 
0.05766876956739804 
-0.19023688293039 
0.783730094648826 
-0.1596786432817506 
0.9248976959520797 
-0.5156586307342755 
0.5767547398695352 
0.4002738197957727 
0.4091145609548898 
0.4424017306851619 
0.8351746902211823 
0.1864321668519646 
0.2556677577632202 
0.1115739286153779 
-0.2508853294881048 
0.1781286514895667 
-0.119982822444882 
0.230783543539837 
0.4545283355524032 
0.9057375146090133 
0.5826234564271778 
-0.1346183190634302 
-0.02012165485572204 
0.3984198602629118 
0.07898867436568541 
0.05547571589827934 
0.268549542094076 
-0.1096528083172661 
-0.1086674347296956 
0.3414944834525292 
-0.4396986977106003 
-0.2959573404439354 
-0.3312962540583094 
0.3013267179979751 
-0.7872669054623438 
0.4813712566724576 
-0.592602813057736 
0.6235880567971489 
-0.4121792519761352 
0.8484940174919681 
-0.01278058143622947 
-0.1938319069936864 
-0.5590111728064719 
-0.1947307574765341 
0.322857899884081 
0.1843582579703392 
0.3547146628353618 
-0.1323291519668133 
0.4138196715397638 
0.1083604476981402 
0.2504810276781396 
0.01100538636471692 
0.5399480986468104 
0.2628404258691391 
0.5613429204612429 
0.3706402006756851 
-0.188329492748962 
0.07454829825092239 
-0.5681385871934156 
0.4795086278698997 
-0.6264641184194598 
0.532686660051376 
0.01746603111130212 
0.5889149422296917 
-0.4639971183596443 
0.3527815325310235 
-0.5413940264474056 
0.2859575360084005 
-0.2678941676847645 
-1.010583677808862 
-0.2709611786346886 
0.1060501489385127 
0.1855728271443522 
0.3555770037134875 
-0.3773269457760997 
0.1224152486176905 
-0.5032041112359249 
0.6292103721326064 
0.007923951913364917 
0.4172533251367712 
0.1558557753517396 
0.1819223005580464 
-0.236240951026785 
0.2455474068857211 
-0.3145663942666726 
0.3337173135277285 
-0.5880404821805977 
-0.2856629368639937 
-1.225080248233418 
-0.2059861045173824 
-0.6098309453530242 
-0.174076132566832 
0.09860821102999481 
0.2132550454583796 
0.2213327885506454 
0.1626406614084568 
-0.7894379461925434 
-0.2828650245022939 
0.05129386166436394 
0.5848306085878149 
0.7113550830827283 
-0.05957759546367982 
0.2588926944774787 
0.180647109837508 
0.3756485106961235 
-0.4391887862702414 
-0.2718101135682921 
-0.1715994149597777 
0.6990773012573559 
0.2362444327349683 
-0.5017088918909458 
0.0441486429880426 
0.6609588422275865 
-0.5383216832173018 
1.272517287313898 
-0.4814216756187071 
-0.04946126838938531 
-0.09040433200833563 
-0.07478190397026113 
-0.429196155966023 
-0.2222665432113101 
-0.08987649780769311 
-0.5293472668398255 
0.3378508537221293 
0.1083683035694564 
0.1519976095901017 
0.2156704675061984 
0.2467017196795276 
-0.2379992546380168 
0.2689742819713031 
-0.5284197358701183 
0.7027226161463798 
-0.2125078778529634 
0.2403313145983886 
-0.169914163288973 
-0.1367640166760101 
-0.3451228408726906 
0.3104921612763406 
-0.1400268118236927 
0.2109283079483458 
0.1994856937902661 
-0.3160286215184984 
-0.2408233940885786 
-0.04385912009200989 
-0.1012315838867583 
-0.2402915565414351 
0.406816939592781 
-0.05653170497652574 
0.6912050978704917 
-0.1687764804843914 
0.3904438165497091 
0.3969268444024444 
0.2952085526967436 
-0.4920619082956198 
0.2896627009403288 
-0.5278922106202816 
0.2962763374032205 
0.2841408896531352 
0.1070864937427925 
-0.06532201600200038 
-0.6433280717672504 
-0.539904443619976 
-0.8009251110050032 
0.07905836173006096 
-0.2457131144941338 
-0.3664303362109915 
-0.128102292475939 
-0.9967462056467448 
-0.2456174188848538 
-0.4398423094441308 
-0.1031367315789176 
0.2619523466558966 
0.4910922997970689 
0.3836595039486983 
-0.2431515232834447 
-0.04198871543251882 
0.2953984814628785 
0.03300694108821414 
0.01610823700993341 
-0.0480805437395112 
0.3437778004661084 
-0.3871527902145557 
-0.07269696162979851 
-0.2943775225453545 
0.1903567547562691 
0.6277094983885128 
0.2240425056579043 
-0.08286381388733677 
0.7844906750952138 
0.1068801724303615 
0.8459134876435889 
0.1868984802699308 
0.5890276381006389 
-0.7557117500779996 
0.6098664575144277 
-1.266403224633881 
0.3028631812040182 
-0.6922939226997951 
-0.5729132958401574 
-0.6417307952236787 
0.1672753657251546 
-0.04288632095456485 
0.4864214184378501 
-0.1104307449058479 
0.2955923739681445 
-0.01547467888900572 
-0.026602158779283 
0.02190548395945888 
-0.4149797934416914 
0.2271148678895281 
-0.1675945170721898 
0.07358918487447356 
-0.3490464829129508 
0.1929100058074323 
-0.2294364018502466 
0.08898160036609824 
-0.1213310040122089 
-0.09844640698895205 
-0.2526047626337395 
0.2032548744965232 
0.3972840639860274 
-0.007777732880058751 
0.1387040706710922 
0.9650066483987907 
-0.2086575200622216 
-0.02172793622248706 
0.849382576670351 
0.7283715953617518 
0.2956735266243508 
0.1617289096786677 
0.5568237710199482 
-0.1302061106456294 
0.6057495119651912 
0.4407905325957249 
0.4146269718140379 
0.4318686944026869 
-0.07215776251814751 
0.2107425814243421 
-0.009364054962549509 
0.5746540445657328 
0.3636049089342611 
0.4244895117339574 
0.3329404547885823 
0.6068232980456938 
-0.4414950128765192 
-1.020784998167384 
0.6273084499870651 
-0.8988246958589334 
-0.1487027417242806 
0.3723518146225865 
-0.7529501659761157 
-0.243289348306519 
-0.104709498754889 
-0.3117626085231489 
0.3148638225095247 
-0.8567214662937651 
0.1401230099851269 
-0.09107755626227712 
-0.1906371369944262 
0.4741718159074114 
-0.6248409677394176 
-0.04902413877698328 
-0.2091950523635382 
0.5328843548741244 
-0.8705404395817261 
0.2052766048027472 
-0.03117243020866495 
0.8848210193254031 
-0.1092890573071316 
0.2894025277131864 
0.4098816219198881 
-0.7766160456463764 
0.5155712363870648 
-0.5650886300472155 
0.3453855088952208 
0.2542048437570436 
0.1978648764325641 
0.2835199149306982 
-0.104154239789633 
0.6453238020954726 
-0.5369481811915038 
0.1014508009396245 
0.5895817051819201 
0.1214681795090333 
0.2718480576788025 
-0.05766712261792501 
-0.6378169826565504 
0.01125974823038368 
0.6814435886020087 
0.4929700831165847 
0.4223134651444264 
-0.5401206578932302 
0.6948696962219794 
-0.6979224266421683 
1.010958021746287 
0.5970158802766576 
0.3946722102151548 
0.9755466545368463 
0.6000846427061358 
0.2856844909317511 
0.4260628597194926 
0.5088527833063335 
0.7738009293030688 
0.6988494229452852 
0.211960338765883 
0.5001504734365132 
-0.00871285508940246 
0.7043771738477735 
0.2071511722924206 
0.1341564052940187 
0.4202550248837656 
0.5956113209640238 
0.05640483300560497 
-0.1165130193466511 
0.2456524584334315 
-0.2573991836721082 
0.6386535584334688 
0.02345877378556182 
0.1512153183510629 
-0.2574976327130963 
-0.105869374681797 
-0.172559530909441 
0.03357834258009251 
-0.3757308801191096 
-0.002067552515630821 
-1.35430686605387 
-0.1030801784356346 
-0.6941088107114662 
-0.9198487582311445 
-0.5164645997725198 
-0.7535179654566611 
-0.01144794235081046 
-0.2726013458190478 
0.05327449856644262 
0.375080384922391 
0.1693180232877133 
0.5816010750514692 
0.5477095262651557 
0.3271922589498856 
0.1219836989210149 
0.1214651117691666 
0.5842435664552662 
-0.1271425490475747 
0.3271619341984844 
0.3306419513479487 
-0.3363845824867004 
-0.06829250885403478 
-0.4256655442909674 
-0.01339437981403755 
-0.6499552431176996 
-0.2500406885213902 
0.2602819219441121 
0.006318531572312431 
-0.2346505575892059 
-0.5884751740328404 
-0.1082139787042989 
-0.1981223140391112 
-0.3998100727561119 
-0.3540831851290028 
0.09992157908966932 
-0.2080203907314322 
0.5205045140728808 
0.6641323943634314 
-0.3103801299984517 
-0.06751028582074052 
-0.2476817787226015 
-0.4265157172333279 
0.6210313214784257 
0.495448814248006 
0.6690266884192758 
0.4651744675887231 
0.06943051628811196 
0.1120989172606974 
0.1987748605517201 
0.1722999686121317 
0.2812924768024865 
0.1354467649901924 
0.3727037785500089 
0.3339026799953578 
0.1675648118660342 
-0.01781537897473922 
-0.178026768130239 
-0.1401833545668174 
0.1353334030545435 
0.2490679139742112 
0.64393988790863 
-0.130228921308452 
0.5732244778851905 
-0.2161496308354538 
0.3556530609346424 
-0.8948288188137314 
0.1749603866362011 
-0.6675151075831151 
-0.009500219490320042 
-0.3347965418057759 
0.009590150401700522 
0.1800829366169045 
0.35252364189109 
0.1035389991770807 
0.4609141284935081 
0.1205675070087744 
-0.05917640738768582 
0.2031616930725222 
0.2998397151774898 
-0.5943822824670909 
0.5020183212443515 
0.3993305856788823 
-0.1373006731138957 
-0.06343884153519971 
-0.03366416064449249 
0.1400840015577653 
0.3254072013085625 
0.1512173919817441 
-0.03378837138578059 
-0.008113722636158442 
0.2864828120861452 
-0.6646943366749802 
-0.4052710740197656 
0.06955729846457213 
-0.2738550474351 
0.1804902192760381 
0.187896875093236 
0.5443928779122612 
0.0976395782698472 
0.3746418651178111 
-0.07319144423991691 
0.2818232189341442 
-0.08502720392436597 
0.01523566756890906 
0.2134935576979775 
0.8749629152224108 
0.8688482270187923 
-0.3425139410992432 
0.7113654003082034 
-0.2210423999606306 
0.3545403155464076 
-0.5220779855207782 
0.4868660635262354 
0.2612316339526968 
0.08510596726349903 
0.3528154402491587 
-0.03439076512451087 
0.4120978094368623 
-0.3279224106716211 
0.5504916092659852 
0.1664202279512785 
0.150074152459794 
0.5679069102660879 
-0.1214347992256934 
0.7506401532910327 
0.2822108324660585 
-0.07424638962556611 
-0.03810327087341197 
0.8913726319454295 
-0.8541781807474466 
0.3446602552284179 
-0.1900101370594185 
0.4814305967347558 
-0.05556346635159428 
0.4029914857314502 
-0.3058836232666707 
-0.3554725310107198 
-0.01550078585113976 
-0.1595598065755299 
-0.06754350614865867 
-0.01290509766818117 
0.3265698165059843 
-0.2290365824228398 
0.2893531649165813 
-0.2823635842604267 
0.05898551160314171 
0.1742366278419711 
-0.4477197310238298 
0.2230509448765454 
-0.6397790321463039 
-0.3748991815418651 
-0.3372227277859559 
-0.3247722343624203 
-0.3923842312541034 
-0.03305572806589521 
-0.5983805813325677 
-0.3401377293064555 
-0.4428511555824969 
-0.04855902538161967 
-0.2909041462004252 
-0.0004366053770615902 
-0.06849892842445791 
0.7791082230960671 
0.2541144900013467 
0.9203362528745962 
0.0174886231260042 
0.4633816641571744 
-0.03943451660909392 
-0.09678663723574427 
-0.2533744631213375 
-0.00128992088084103 
-0.3817910567374787 
-0.004302969422656304 
-0.6165681757482291 
0.3444595392158922 
-0.1378889226212282 
0.2284273689398813 
0.16046354694735 
-0.686776543379317 
0.4159373606642271 
-0.5658245266550226 
0.3420607623005136 
-0.3275510932764895 
-0.06731265419887852 
0.1605453272779964 
-0.06500670077392652 
0.1588783126450529 
0.5402936777189525 
-0.4306302460044082 
0.7897606553966788 
-0.395011579630034 
0.6219922448522287 
-0.7355933363509066 
0.661151129093425 
-0.6075413114095214 
-0.1196199198376225 
0.431246871036565 
0.2449833400847059 
0.4652369278921428 
-0.0993577790386154 
-0.5750312837177805 
0.2815222439154919 
-0.6186719145507946 
0.2843170316775407 
-0.2921373879553941 
0.5772488503231656 
-0.5538470147570145 
0.3483824935504932 
0.1562663192378484 
0.6479255019201657 
0.02160001900695211 
0.2608541807844664 
0.1438960803011216 
0.1061192798449333 
0.4718844013793586 
0.1750960767336251 
0.2975075458940351 
-0.2477683918438262 
0.304562727279253 
-0.2127918853559505 
0.5128001566404268 
-0.3925070160313011 
0.2804784635273644 
0.2969426135044064 
0.6526718986298987 
0.3438304624416865 
0.3838364101274498 
