solver_type L2R_L2LOSS_SVR
nr_class 2
nr_feature 1984
bias -1
w
27.11776579744798 
0.9830501535765801 
0.6273876749304119 
4.474713218957056 
2.187699823849615 
-0.972697983556453 
-1.434138485403019 
6.422995884903053 
6.372972910784025 
-6.955891998299985 
-0.8845289980476069 
5.708571507778205 
-2.452892028781313 
-3.495431971606537 
-4.578968835700685 
-6.122868703188304 
0.3821740393594591 
4.591779144010045 
-0.3511658941118154 
2.322436278620613 
8.611446982325186 
1.107419726169216 
-13.01434989403591 
-5.34419428485665 
2.590389890281688 
-1.851039566001441 
6.519332143624353 
1.579194839254484 
-5.511994310791397 
-5.966908789761566 
-4.193793461438006 
2.739498284685761 
0.2129634663768961 
3.097210420730818 
7.343304001776787 
3.737562340552139 
-1.11692293038298 
-2.154981587461033 
3.123317831916021 
8.05177215158726 
-3.954869183892786 
-1.63886576085418 
-2.896004710589985 
1.186478721994388 
-4.67166088480098 
-3.787662222239024 
-2.521411733078462 
-1.249418402707237 
5.976753452154906 
1.9196065918586 
-6.033572381418929 
0.9102812829149728 
5.672388059167575 
-7.444271232813961 
3.654829653004765 
0.7605227259851368 
1.197103246458278 
-5.821624076679384 
-4.060676821329475 
2.283387077117701 
-2.727804908539659 
3.287027946215262 
-1.673039122292923 
-4.714239189809025 
8.737352378702875 
5.93151511121131 
-2.439699161831428 
0.6340597017137284 
-5.986533158905718 
3.366555351698398 
3.975309621908898 
3.133125728640109 
-2.737623799373224 
-8.6192853542638 
5.096963058813372 
-0.6298344695523227 
5.4480015824705 
1.360175565398524 
-0.4980585051433412 
2.612592819561494 
1.024597139395251 
6.15804459556305 
-9.187828668765176 
0.1033148629185448 
3.377124297557393 
-4.942128846521668 
-4.671162773040987 
12.26817188668937 
4.474705470304684 
-5.990537411032897 
4.0501852605397 
-1.269204952365747 
0.8099521612472063 
-8.767301551557624 
-8.321455942291005 
1.300536628937664 
0.7721793968363647 
5.822643912540636 
11.43074805108457 
1.71878851309985 
-2.270632901149593 
8.058619922512486 
-6.753234768917025 
-1.696200706888713 
1.654385355509115 
-0.5594677923933338 
4.870335399430461 
-10.52714654114723 
-4.198961333535359 
4.093027093768965 
-1.92800320843039 
2.257802047827333 
0.4587051337847912 
-1.650325411032169 
0.2660028007668965 
6.822875046528178 
3.766736888789183 
-3.601200961089509 
-0.02627969316255483 
-2.399785314499869 
-7.880316124724457 
0.3828890775051417 
1.576736198273359 
2.852200293479297 
-4.549217843492578 
8.048297045646931 
0.1288542198606458 
0.4573763948814908 
4.371453274126035 
-7.361090367475557 
1.990815534561911 
-3.147551967925704 
3.531992083924867 
3.208834207113944 
1.4952565710003 
-1.231287641207947 
-6.411329097342338 
-1.864204340590556 
-1.339067301236713 
2.744269715196118 
2.381878273404439 
-0.6472770380861491 
-7.979311043934602 
-1.308386516484795 
5.787647242682633 
-2.887084603471123 
1.722829462716729 
12.05232748522203 
-6.376133850004146 
-3.55049968964045 
3.360569998582169 
2.601597892414856 
-1.118007900502044 
-9.764702874320394 
3.581031909326605 
8.770675960271889 
2.514438129478714 
1.641523982600573 
5.894926395536261 
0.3247902068277008 
-7.528923387146987 
-6.354537053527554 
-6.340500493460993 
-2.493558789164763 
5.25211573046021 
2.984351462310141 
-2.472058063974794 
-5.683203354571852 
-2.936735095268229 
8.854863594321454 
0.4760204221666807 
-4.771943034090707 
7.569123344986155 
2.595918393444194 
3.999600578853388 
0.5739766827718733 
-9.999749923241142 
-7.613565510581664 
4.412679969919115 
3.471451663055685 
5.466204062069058 
-2.409741518710726 
7.482874366023237 
1.749608147468722 
-1.040562232509947 
2.381134480038549 
-7.174646019399163 
-1.145644429843358 
-7.70351730887157 
4.432909951672901 
5.733498852731044 
-7.140974881802471 
2.637008998604609 
4.815448980828203 
0.2975595464341703 
0.07995616705462423 
-2.504936291055822 
10.87496939750869 
3.109667544674345 
-11.02149138942338 
-2.964802865433144 
2.488420729426701 
7.54777490863548 
0.4287864581931536 
-4.149243581709724 
-0.9524427483973059 
5.08716606867803 
-8.418687876946853 
-7.788528384253841 
5.819198285060014 
6.396789515154621 
-1.681774980739509 
-8.562017972636934 
6.565949910212305 
-0.5661178984170457 
-2.499624738796665 
6.977539262058466 
2.863934218678299 
0.2547070692614139 
-6.440453415057577 
-5.370171107914201 
-3.828241463708338 
-7.37830245063657 
1.318892512312273 
10.40871423776737 
7.484838677673541 
4.996003976722807 
-9.800372092727496 
-1.095342271933024 
8.954839701404971 
3.283571481235102 
-6.006040333575635 
-5.935721178836552 
1.166769304876182 
-2.11778816202728 
-1.40381987395395 
-3.459349059867536 
0.7481812319711445 
3.934628705460193 
-0.4054105943407676 
-6.498547809467549 
-2.874412351456564 
1.992404623043939 
-0.3802142072539635 
5.545707749227616 
-1.935249876575534 
-8.610123381296594 
2.045480431469285 
0.07050517589739344 
-0.8233697875229737 
-0.1522596467979523 
7.30291896074124 
0.2242399211752594 
0.3952941094147435 
1.517913349598822 
-2.07434268640201 
-1.931682830005694 
-0.3452620365479865 
6.498450721823873 
-3.122667813543729 
0.7784916985902133 
-2.398472836460778 
0.9110808223184116 
-1.229482695833368 
-1.05960111447992 
-1.245722465121603 
2.729947345400916 
0.1894311153445123 
2.956382860414332 
-1.004008530178671 
-4.337420043448708 
-1.320712050108346 
-1.110174216912779 
2.376124474408699 
4.197851317791918 
-4.626225546749297 
-6.059152652961958 
2.07756596715713 
-3.089825103113521 
-2.355274823349016 
2.693594890400173 
-4.90658227258627 
0.3625769384442621 
6.807856107662978 
5.194291032045936 
0.6802635065410162 
-3.576814605568533 
-2.332017055494878 
-0.7435780118475668 
1.762278686372698 
5.503938591980038 
6.571852873137479 
1.162508241457479 
-2.096179952981602 
-2.753122778765392 
-5.378599961067811 
-0.275622125750409 
3.778475185295779 
-2.535864808049969 
-2.185798093180594 
-2.362639734910678 
0.3117469563526592 
-1.474852481605573 
5.127546024031 
-1.679805639623755 
-7.109886140659897 
3.317185452022527 
3.946766423393585 
-4.119249561895877 
-1.435326248303894 
2.139457487552298 
6.335363770484055 
-0.7411107555940878 
-0.04948376059432912 
6.356887053489601 
0.08415322606309351 
-6.011790866234648 
3.270545985295432 
1.962027414656984 
-5.213012927717735 
1.080200849795342 
8.962941365615263 
-4.506548642745123 
-6.462702890008474 
1.43692666723073 
-2.110936818660856 
9.607162376886189 
-1.923367409739238 
-7.224675968812247 
-4.533744267156957 
2.01132631280516 
0.9985472539853244 
-1.071541267849734 
3.393547943057866 
-2.184533802015225 
-5.132852934788841 
-1.605286390077866 
12.23693949989102 
-6.147824887269265 
-2.541823637039148 
10.4733441997868 
-0.1344467974073721 
1.66211416287716 
4.184125247818658 
-3.684579011185079 
-2.991883352234715 
-3.392549643741963 
-3.124539108946284 
5.680822885831781 
-4.191983444279424 
-12.26079939037733 
-1.323345697542974 
5.820986791571729 
7.829421963346496 
8.732244157313241 
-5.952689029172552 
-4.051031787929141 
-0.2954251852642928 
-6.608085341556167 
0.9034047033021353 
2.602751374330728 
-0.04645865874124813 
4.312291553746967 
-4.681448579476347 
-0.1046415660279307 
1.869163020172036 
3.237342369823971 
4.434044029319683 
0.1395904036574789 
1.781366967010071 
2.59141939938812 
-2.018826251415896 
-3.128991361891931 
-5.082639456077378 
3.669047825663269 
3.15393343032162 
-1.59919773562773 
-8.035049370510519 
-3.583707528196729 
7.187511440282836 
-4.114658062720956 
0.8329350889983911 
6.03590579978025 
2.572314097755696 
-5.509796366315583 
1.825235311065315 
2.165224121641001 
0.03579566036632362 
1.020179231349689 
-8.57422742161563 
-0.2489995316143458 
-0.02213015376108219 
3.3848537752312 
2.189396835091925 
5.84958485145124 
-1.342690346338706 
-2.433448999394393 
13.302700981375 
0.986756046924437 
-6.505219097094599 
6.531766954428765 
0.5115592995857835 
-4.860587030209161 
-0.4100132413862693 
2.785669262491089 
-7.163525312513567 
-2.786010635805237 
-0.9239200022637832 
-9.830673180455644 
-3.602690640815763 
10.74243363548063 
0.8963321557976552 
-6.457729717969447 
3.559150525595931 
-2.181870433221478 
1.459506820010997 
5.873725546340014 
4.191293556742225 
0.8046780081988449 
-3.908461910711796 
-3.743330016235049 
6.467116505430822 
7.541425251290325 
-0.1100871284830596 
-11.30080669340229 
-5.548596585588532 
-1.667492576835705 
0.828541285994621 
4.824492528824007 
7.293477114895202 
5.156288418100373 
-3.647344540205181 
-3.986044315482323 
-3.404191307120461 
7.930299688632325 
4.070346974451246 
-2.169168658610595 
0.9810029448681516 
-5.455666770600112 
-9.17103517235002 
9.002198393155357 
2.617771463547609 
-6.705705582673914 
1.413784265277157 
-1.337360843993094 
0.8515289464207049 
-2.276028094616852 
-0.7695042584952603 
4.939775640579744 
2.678617571420478 
-4.857752505198237 
0.9642894426756091 
4.680552546034004 
9.502225792716336 
-6.974745296947004 
-5.637033899852115 
0.2893353896610431 
-6.435716164644477 
4.863012614163033 
-6.503750061332671 
2.190117405790583 
1.823465836381375 
6.197707150226991 
5.128357444484553 
-6.738632138616281 
-8.120417732775451 
4.360179740761392 
7.243309972569814 
-6.34220868921508 
2.623815324524027 
4.828322319358292 
-1.97238008595924 
-4.567682176978122 
-7.396389977859432 
5.977823331479567 
2.051748913672566 
-4.488893787240427 
5.041915008821048 
0.03396703687039169 
0.8424240713561706 
1.722767135249605 
-2.331870812444965 
1.173532264675908 
1.129849773888766 
-7.267505514091114 
-6.858585183012507 
0.6889778926486152 
-4.139644924395073 
-7.104443110327908 
4.555358844754258 
9.576488548957053 
3.038796257674297 
-2.851258978855533 
-0.7106378065619018 
1.882228333707227 
-1.889167086055421 
2.053680691492727 
-2.370729293809119 
-2.051345985594915 
4.864891133503495 
-4.553329046947757 
-1.991005683876476 
1.283336414685521 
0.8940819281547864 
13.95560963466768 
-1.453536532858493 
-4.835012400304758 
-0.746583889545366 
-1.221383500099887 
2.012513907955331 
-6.175320320601867 
2.118932460058977 
0.121739337277746 
3.865141769293063 
4.834688632324215 
-5.805537631438458 
5.433357365403043 
3.25379460429544 
2.296277527917339 
-7.621612048916574 
-10.47913663328833 
3.912340553716427 
2.284474580690673 
0.9689788421552549 
-1.282015301951909 
-10.13476642180265 
-1.760219043604711 
7.954741988626663 
7.894878064984683 
2.031361397557861 
1.558121455124237 
0.06101578178052615 
-8.005739604005583 
5.765359545009513 
8.885391394422028 
1.200162116445601 
-12.44283108565332 
-5.681401312307285 
3.318147233368153 
-2.865052656125403 
0.4691786472741274 
-0.06533503111937004 
-4.371207529200766 
-2.795353751052975 
1.875049301452778 
6.530680498124447 
2.199475966228705 
-1.744400568775049 
-0.9627328001587669 
3.233947527975549 
3.400489545490982 
2.201949294020338 
5.328016467452567 
3.286587062549884 
-2.738330445934031 
-3.151692126260511 
-2.752679675200504 
1.080949691804793 
4.734813321991455 
-0.4031780529227602 
2.04046166126557 
-2.56448725859391 
-2.970069850151453 
-1.337039080096842 
-4.748041450884995 
3.541660566360882 
-1.758302967889123 
4.601069439634183 
-2.844663585867706 
-4.295692315505977 
-8.670406092424056 
-6.518048124161839 
10.61940529614695 
4.089927775445887 
1.061994038930393 
2.807681922252375 
-12.36594281807226 
-0.1540031402164945 
3.154348788138342 
-7.841990406172656 
6.786500540266695 
6.543015183272776 
-0.3131025280914156 
0.0733336505115218 
-0.7653795205969541 
-3.527233938606073 
2.732844556840422 
-3.295060301961296 
-0.6922801272495815 
-1.65206118894948 
-1.709039261640123 
9.354258178830413 
4.559315495416175 
-4.994033756172262 
-7.561818469267263 
-5.906498425350762 
8.485344031345933 
10.48807457684176 
-5.186779373723299 
-2.843120115221475 
5.670258662615284 
-3.059318815540118 
-4.987152220244005 
9.362630269626351 
-1.484941086276709 
-3.862401572696879 
1.850936010410418 
-3.433099464616174 
-9.133642290412165 
-4.367842815547101 
7.147307233877591 
2.861095071904521 
-3.296531077032771 
-1.314191133931023 
3.742405236356417 
3.995157792210022 
9.168009962013651 
8.220785399857167 
1.558663596313008 
-12.42850526495601 
-3.568793582872495 
6.987110990360386 
2.047919652122686 
-5.011943349378797 
-0.236704894786935 
3.859751918591709 
2.69080207238903 
1.554931717063309 
-11.73220345858714 
-6.678073511040465 
2.898235315856468 
3.295954547537065 
0.8052764780112655 
5.179166263800524 
2.02109121473713 
-4.292836206869277 
-2.885482420954819 
-4.216495428667227 
-3.479583074050349 
2.348860220072067 
6.131194659150568 
5.329055591642248 
-2.961704175674854 
-1.368046754639691 
1.441357429419289 
0.6435475316941955 
5.335070993498324 
2.132077302760509 
-2.254922802419418 
-1.765268121082943 
6.644107575481078 
3.363001032247668 
-2.745454196970885 
3.189758574695938 
-0.231112374417565 
0.1771625428164703 
2.601824465959536 
-0.3471166032131499 
-6.117453191604644 
-12.02421406600031 
4.008063094126229 
6.983369119750325 
1.914346986107459 
-8.700959184862871 
-0.6701161407559586 
0.3765417760175825 
4.906988712849865 
0.4180880806660697 
-1.087672261593631 
11.36805442584116 
4.591835430384281 
-8.326570816489877 
-7.907936631187067 
1.482309423772021 
-1.220343997996531 
-0.697706605481705 
-1.779386951264845 
4.766632973219344 
-8.474555672941214 
-9.447249866981744 
3.287336243810725 
1.502581221929069 
7.746404409755605 
14.27742802386711 
-6.161789408589674 
-5.636320840478712 
3.63813260458084 
-0.2573769201108304 
-0.458929844337427 
-0.2539008936648783 
-5.392814031327466 
0.3880007010608337 
12.62261546455466 
-7.305102905189559 
-6.207681387567288 
2.108844466128742 
-3.523428313732552 
2.400105902619019 
2.258790353479113 
-4.039956084374764 
-3.088038747119463 
-2.946416863717369 
9.021610530616774 
3.400275202074308 
-1.058202964943986 
-0.901861177106048 
-2.701887933402933 
3.061337340367843 
2.879022891669825 
-0.7612025840277822 
6.488226709559793 
3.821887279099597 
0.5355273905132993 
-6.295864188282534 
-4.961897529179466 
-6.816202377196759 
-3.19465424263166 
0.226849692265471 
2.858220800411063 
7.275968176621945 
0.5783871129547818 
-0.02576783442537445 
-5.866745178970611 
-0.926492887252525 
8.974042640523713 
-2.950745962876654 
-3.942278048499552 
0.7187837705997548 
-2.081036240406332 
0.3022900510921415 
-3.172920983431606 
3.344282385489004 
0.2354189113019258 
-8.383938921355687 
2.046109282749427 
5.19709120731992 
5.426598585234729 
4.054562385401103 
7.080046840035938 
-6.612705031348243 
-10.70364250918485 
-0.09117206935713293 
3.106746678946056 
7.748329532199991 
-4.57792747002485 
-5.443754481722177 
-1.839376577858894 
-5.220735220763565 
3.779799157999026 
1.094692449170666 
1.167568091650262 
8.143287518309402 
9.341913873033608 
2.181751872252327 
0.4393822739674323 
-5.476956511655883 
-2.546951965897731 
-1.269727414256326 
-8.927331498837674 
2.530924360963856 
6.36601659107866 
-6.573152983209744 
-8.362516770200475 
5.05158056964714 
4.087433956106258 
3.364653750606918 
0.1458244524818371 
-1.372846639221229 
-3.533610406531705 
-3.445306403545693 
-2.304568874213194 
0.5563570899142645 
2.72325977069464 
3.212179560931821 
1.827426340642082 
-6.38897346440534 
-0.7806378158797714 
5.746071826575911 
1.635683318492028 
-4.777629387600369 
7.535766377041461 
2.053836416160888 
3.308788737602752 
-1.536327752668392 
-8.640424041723115 
2.08150338183609 
-7.929043806858477 
1.419808497146927 
1.616839669745901 
5.135733199641109 
16.46429762204376 
1.275562260518386 
-6.803346104380267 
-6.09584681676961 
-1.525412628663539 
1.139138356228533 
-5.245081819475366 
-5.782138168335856 
4.218408366154885 
-1.107936231790403 
-5.108550070639854 
0.4874347385679457 
0.4211255244598329 
-1.250407186960971 
-6.760745507656067 
2.937222465572495 
6.364708471768897 
-2.057505343056903 
-1.349582556531899 
4.67595089833204 
9.092005210934094 
-1.172190570312708 
-2.931292016708071 
-0.4981307413492701 
-4.886161837121097 
-8.31092308444145 
-0.7919793649868552 
2.759871480805397 
1.852399216201251 
-0.1486612097516184 
2.274553151199824 
-1.950643158853474 
1.374965502083984 
-0.9993540380406072 
4.364361920128071 
7.749063828770724 
-2.021227990178844 
3.899461608700481 
-4.017037047469808 
-7.639757144167421 
5.088494455650012 
-1.875739993530875 
-5.078052871276591 
-2.75387466863589 
-1.376594741761265 
7.076242325223629 
4.714431188328436 
-3.33459768215735 
-2.882075733380762 
-7.402125575394306 
1.051643583145125 
8.032080538961962 
0.5741178789904494 
0.7956253721386234 
-0.5358187047814484 
1.258406059024177 
4.979543550887344 
0.08678683344332377 
-8.544542377850211 
-5.525567418191878 
-0.8494165852761763 
10.06202101578038 
3.701539864219466 
-2.409714593763154 
-0.2226481684278795 
-1.022076099542997 
1.434847940529056 
-3.4871065073192 
-0.7891650621263107 
-5.009019644907216 
1.396702440631762 
9.552535565894228 
1.334645540929478 
2.826799517954033 
-4.374160417897478 
-1.394905160491188 
0.6051814417746466 
-2.560777606206421 
3.872539717390801 
11.07471614418097 
-4.860475316890071 
-5.89312281289687 
1.243907726787345 
2.05563713309599 
-3.753932080488376 
-9.173488526628143 
10.9714754686079 
-3.135724008755005 
1.211349506677091 
8.107101367479858 
4.082003726658546 
-2.413367664629699 
-10.46420836312297 
7.223816264780885 
-0.3132895228404635 
-6.337913403579862 
8.821081617866335 
-1.885781408306435 
-7.792107782862291 
0.5672690486174424 
7.552221707027595 
7.165831766262778 
-5.021238801253375 
-1.262213818175717 
2.327225825937375 
-2.603182557521712 
-0.534793824104569 
2.21880124884397 
-4.57694848594724 
3.531161165883039 
-2.102389596236948 
7.155381893413824 
0.09272731213659491 
-2.67934778643017 
1.585993302997333 
-2.750937975624268 
1.135569396060508 
-5.848067436852125 
3.628696842373363 
2.364046271213452 
0.5716311129267627 
-0.6540981645017931 
3.909098968771482 
-8.402380558778992 
-8.013994704376506 
10.76407198679598 
-1.414058001492515 
1.052307422186335 
0.08310674472831235 
-5.20037115121713 
0.6812397923800337 
1.317711476507981 
-2.185258122562722 
-2.114613718409728 
-4.119323107684909 
-4.166566035398857 
8.051435601399906 
10.17798425951329 
2.40743631675568 
-9.554568714637602 
-0.3107969885917125 
5.086423866185501 
-1.99377422440609 
-0.284496652680121 
-2.337432718270672 
1.740801598661611 
-5.530290631683809 
-2.363177121243177 
10.97377037896153 
1.590540658629926 
-4.02078726090174 
-7.065243635342073 
0.1265911016630687 
-2.198524956869424 
-3.42206647976413 
4.475810053259663 
-3.47311783742628 
1.320758696945604 
4.98670062157927 
-0.6258507390988896 
0.174987483101332 
4.540197920640491 
-9.022941362620641 
-11.68650020202636 
7.722094677253519 
-1.470815191962053 
4.263007492070415 
3.858014419431365 
-4.413851758920194 
-0.8119069831270886 
10.04931681039455 
2.847587577449545 
-7.144454390419331 
3.656490468310584 
3.067063358011602 
-2.336130343140923 
-5.145962163835577 
2.934898832099506 
-1.748940466674316 
2.65247553253946 
3.295985375439091 
3.817505627381302 
-6.436848696110806 
-4.26597896626937 
8.450200108994817 
-1.468185831956627 
-6.50727809477177 
-7.510379100512719 
0.6060652030112783 
8.297387046836725 
0.0510045904403466 
-9.49276395716792 
2.76910054787821 
-3.08127005615609 
-3.477575122374744 
4.245132579515774 
8.088544485951642 
10.98612411764506 
-0.6070729600485428 
-7.378956880535187 
-12.19304384731826 
1.173122344270057 
11.92900594722881 
-4.8492588290905 
-3.91431107929515 
0.01628421324813948 
-3.327826171823857 
4.198625971610912 
9.850920655534885 
8.270260624599189 
-6.773166906971618 
-3.064359952901142 
6.228688044445956 
-2.193472143048473 
-2.124954427194932 
7.945170242954439 
-3.855300925780843 
-2.450304538022896 
3.947864736541206 
-4.21258867210227 
2.597296696910125 
4.336948072362014 
-0.6435816773188098 
-1.954256537399383 
2.327687322926131 
-0.5099810769123133 
-3.779503933813098 
4.40772449110002 
2.703692541212613 
-8.58788374628497 
2.873782976454985 
-3.858322441191424 
-10.74213986398705 
2.224796825326609 
10.39628825042238 
5.972344197448192 
-3.250015119756739 
1.609856485753906 
4.737447679595897 
-1.404807459646733 
0.9835952199298658 
-0.5986839462767921 
-5.137403767259407 
-3.187559191536632 
5.718775185908386 
-1.588574202468155 
3.694009311189089 
1.648995508366747 
-5.421425129743734 
-3.378729446320151 
3.394649408804768 
1.06660851744493 
-15.84538414932887 
-3.64975836318701 
5.174424603658955 
4.232787228875834 
6.945788939868465 
-1.049961646358361 
3.219308025444894 
-5.535039707703969 
-6.768566374156938 
5.375758976322191 
2.398258707606297 
-2.043089411280179 
-0.7644059285909504 
3.294175266644859 
-1.090616689818266 
0.6984591763612156 
3.192495763828155 
1.584707539967642 
-5.9731195153629 
-1.759405016096661 
11.03602725190592 
0.3129428655175023 
-4.49279516040884 
2.290310421032208 
-1.284875981939112 
-1.617370934741677 
1.604322083137288 
8.781278230416921 
-1.971849049888832 
-2.642452842934913 
4.27219816283144 
-3.302057396480212 
-6.338114022013591 
-7.849841481899693 
2.822060571414974 
5.144318671429314 
-0.6421382934069277 
-4.386934813705594 
-0.3991514755207086 
4.420774152596077 
2.204583394637245 
-5.191492555330903 
-2.954118492840742 
3.232387557619803 
2.845677612823755 
7.544491441031165 
-1.887268165468119 
-6.017345437690151 
0.3290404880527102 
6.014208317646205 
-1.31386518653858 
-3.345137835995437 
0.9726493985967084 
-5.113004052749058 
-4.247689097865272 
5.027546377907234 
1.94229467906394 
-1.052734474889714 
3.772302615350887 
-0.65219038061895 
0.3479222720358481 
-0.4851008247779403 
-10.42055976475848 
3.574797756782525 
3.041094735971264 
2.644163683138748 
11.25626627707101 
4.093733090098738 
-4.011570059894271 
-3.995848829420061 
-4.465747858446219 
1.887903198689906 
-3.039363396310265 
1.163612227008798 
4.400143245979876 
2.487508907862039 
-1.357072851549297 
-1.863010613171505 
-4.213627200329862 
-2.60475265410729 
1.696556492713017 
3.751674259290556 
3.294618347491409 
-3.10667987209966 
2.199361386815416 
-3.341651043994268 
3.285391687754934 
2.396545025854366 
0.9729919457998509 
-3.760171441375649 
1.194545652535761 
-2.583222776229667 
-1.870281499109612 
10.20398720213711 
8.893344159824666 
-0.07309819195024027 
-10.77465976336382 
0.6806651730649207 
-2.722081267271734 
-4.712987944280523 
-3.122369215380857 
1.557568841954113 
-0.655226494728432 
2.147984495146817 
5.879046848664172 
0.3743045076531316 
-0.1117250562997047 
-6.014345755912937 
-6.134627902751382 
-2.16838692991191 
7.559326449664278 
4.091508600479763 
-10.03054992951801 
6.341542521819258 
9.134249034871083 
-6.293865834285536 
2.768329334580576 
-6.39398595722277 
-8.977365068027316 
9.180487993929678 
3.364428760504697 
0.9790228269290027 
1.809368141709341 
-8.031915308960851 
-5.5254158802306 
9.115946406214556 
5.256810635338291 
-6.361894508721344 
-7.348702823661037 
2.654397507363835 
0.9565657011518715 
-1.150292640854685 
3.103834446024442 
-3.12329363376999 
4.536171657639441 
1.785050676653379 
8.554296579204728 
15.56833034081393 
-11.83150561454548 
-6.88718097587749 
5.265866791106287 
4.910177877530834 
-2.888236204661126 
-5.00319775096627 
2.94323163887908 
-1.966053071174408 
-2.306040243584559 
1.243588887184366 
1.184209481421416 
-3.450367919957042 
-6.039521620093293 
4.218153340016786 
0.77224399995612 
0.4424638778692393 
10.09208888695218 
-1.539012259154687 
-8.870482761323711 
5.726384501796171 
5.507217384133822 
-4.263804552717723 
-1.903809918364373 
-0.5109603326680571 
-6.332972447630794 
-0.1017402869668064 
3.996197753717488 
-2.919159340787401 
-0.8051579909483449 
0.1262807496985623 
-4.466872815474678 
-6.551751020742315 
-2.597491777947138 
0.7983806335024769 
2.97268244026202 
1.097298098858571 
4.557819884915019 
9.982397268949347 
-3.005945083780662 
-13.29728882796577 
6.511290812156267 
9.367317333219974 
1.575373249462746 
-2.823325758554565 
-8.248856260727964 
-0.5504605684467653 
3.782987817261925 
1.795553418733317 
6.92301036123302 
0.2530794333720814 
-8.665141091970684 
-4.86357797071199 
1.982070433499958 
13.34285514299362 
-6.105945209452667 
-3.659307762274402 
10.77796254940159 
-4.188522321741941 
-5.203127122533371 
1.193891100263609 
3.609926039848354 
-6.970283216153462 
-3.838299655463546 
0.03522362325347633 
-3.923301053915731 
0.6796762847266119 
5.689781492544792 
3.909507783708712 
-1.47049299315359 
2.940569375617977 
5.038890103331195 
-3.54182125578452 
-1.863360415561025 
6.072795075381196 
6.058527446292977 
-3.387871562644169 
-8.244764532170493 
4.248548175618607 
4.270856786951288 
-6.572224790356412 
-5.153773227754743 
0.2255086632441979 
0.7563289457347518 
-8.031209334773154 
-3.107701641166847 
3.553834718037705 
8.443343213988001 
2.952575461123729 
-0.4271458254702358 
-2.247844564815447 
-4.755108352636806 
-3.638653290009193 
6.486522954040888 
-0.2860569843775893 
-2.189331078265958 
5.755395513479074 
-5.134909583516298 
-1.764354505034458 
-5.596137924737409 
-2.038616669848379 
4.415364612378394 
3.916442909150448 
3.193595489612982 
2.22669488405578 
-5.249061150469215 
4.180042753628745 
5.642018413429303 
-2.069592307490005 
-2.599424648712569 
3.193493235685449 
3.514541095530609 
-9.177696929572399 
-7.283965028016806 
0.01516953171947477 
1.78369147739439 
-1.96585305852188 
4.330370389829959 
-1.948984711486588 
-8.758318441386173 
6.006719983785482 
2.525461834670737 
-3.136516638059498 
7.198237443116737 
-4.04806635170934 
1.00084207349322 
8.664006652810123 
-5.106681493241498 
-4.145626237688957 
-4.103205463632143 
-5.17108330094924 
-1.056648152859083 
1.647768793073725 
7.44246761670838 
-0.3976831842218761 
-4.946290509292507 
-3.529355442631115 
-5.063969018356533 
4.301528195400756 
-3.675671916271951 
7.817086859708922 
10.24852124341807 
-8.448700064864129 
-0.2053012161068298 
7.76291384886107 
1.682919323029795 
-5.903046369875359 
-4.701377440527817 
5.68878957824013 
2.902449942730701 
-6.830896578255684 
3.592043414324691 
-6.056908576551173 
-2.064622850877154 
4.020080466025143 
-2.368350042555716 
-2.766250094346509 
3.272578569584849 
-0.4534370136863186 
-6.14895781380604 
-5.422250647561976 
-0.2347640463557659 
11.5818490549767 
7.021127384602041 
3.835587321368912 
-2.21275069341866 
-2.116087986500959 
3.018565738837567 
5.144540979829472 
5.319257002553562 
-3.637636148963068 
-7.992721884514752 
-3.105792913121406 
-0.9112344522987513 
4.029423649107546 
-2.578640952714298 
-2.632389260812826 
-9.922299975731505 
1.492086813894601 
8.236715922125164 
-8.740554357250723 
1.227616271873151 
2.787344836207876 
-0.07001138098561295 
7.492442636751264 
1.963715874324372 
-1.523268378082346 
8.184366567080568 
3.690469352976142 
0.7575828802011215 
1.771250189371938 
1.908399932928696 
0.6496868468609396 
-12.32676612504527 
-10.23432511399298 
6.944218217113503 
7.492589439210004 
2.294740146655459 
2.528684112497487 
-5.717838853888273 
-6.456449596045259 
1.198610595980992 
3.392575648525726 
-0.5546795174867815 
-2.882009060303006 
9.289090022679478 
0.4679107071195029 
-4.736884875869062 
-5.996935507960326 
3.522088911446004 
3.92641985402004 
-4.226739178747203 
8.611875078568509 
4.438219077466421 
-3.584447961632547 
-4.998684944741236 
-0.4688587643725436 
0.6668795731028441 
2.295764713136127 
0.2386774895218073 
-4.948362931975306 
-6.001918383613992 
1.486964965532428 
2.469554883689181 
0.8054774386936119 
-5.806715003786575 
-0.3569171906092534 
0.54295320295393 
4.895237133029098 
0.7685605857469969 
-6.797805293534403 
0.9801928187003742 
0.1631882334032948 
8.988424194077192 
-4.00015223751439 
0.6755903122292063 
-5.700350892113422 
-5.656962137556849 
10.04845918382867 
2.513349425713703 
1.773612341300569 
2.849094081636703 
-1.705313796293582 
-3.54234298087581 
-0.8663972773912909 
-2.364797199348637 
10.00388088344612 
-2.56377893359641 
-1.932553075174644 
-4.898746347511343 
-14.94896743934674 
-2.121087963036381 
0.7052207367918532 
-0.8005333932061693 
2.034029134222577 
5.948177455637836 
2.6441892933988 
6.722922351501771 
-5.840291717966855 
-2.166849443510103 
3.601362365245387 
-1.120842406495084 
3.710902852313908 
8.103533744145667 
0.9504954699299314 
0.03235143139950301 
-1.998608601140944 
-7.00837650062806 
-2.490250457858282 
-4.669837443977998 
-2.500053310680118 
4.68211148338805 
13.2791272247901 
6.295242884585901 
-6.79603643673669 
-2.957811548837521 
2.916032715264938 
-0.6482186717240096 
-0.1094285667280864 
3.549004093549058 
-3.448821921742729 
0.2902581075407286 
4.015646969840945 
-4.871738345661868 
-7.499006896681583 
2.673373069707776 
1.648683377676477 
-4.275197028715258 
2.438413653453863 
-1.848496084004267 
2.206493385550494 
-1.726214232747328 
9.535200985597763 
5.953664240305547 
-6.998985161123189 
-10.05756438000279 
-3.100199287210857 
5.162810818845962 
2.418006481658272 
1.592682995691848 
-2.255415451035184 
1.959071568251071 
-0.3905306995753307 
-1.579775505945974 
-0.7031243987682319 
2.429236440336834 
1.801890242572492 
7.154006070380778 
2.715019396890771 
-2.232481460930237 
-5.285072928392118 
-5.310234031088102 
1.222536447780959 
-5.248262335223661 
1.985681972844173 
6.110717962523594 
4.514795991094604 
-2.00885865288502 
0.7202421790077477 
-0.94376036020725 
4.122430471865393 
-1.752305814721065 
-15.23716632275397 
-3.190384432166544 
3.496514191510786 
7.779740605014145 
4.56565443591357 
-3.480009617303962 
-4.613115803965932 
-4.271784288846494 
5.042061162137016 
4.107159127217995 
1.643565773739283 
3.749419501067791 
0.02387725111555898 
-2.144739837565316 
1.037976809076182 
3.109443631221506 
5.595054676956864 
-1.56329643139251 
-5.695337494135726 
-11.59544602255211 
-2.054232444050588 
-2.897149955461149 
-2.150307866331894 
5.611574079514867 
6.695520865035163 
7.374143311237459 
-0.1640959874133318 
-12.02680783018028 
-8.440438320980231 
0.7835694126993998 
9.935939958327257 
9.285655212573303 
-2.762574959200112 
-0.9806181672907998 
4.79242063944468 
2.032416210911912 
-7.573829203967551 
-8.246536300344522 
-1.312179942852058 
10.45763788062783 
4.195881763822797 
-11.71160233162267 
1.165214236428604 
5.010689837999143 
-3.047309602277899 
14.41159986598119 
-2.548038523690625 
-6.405844300846802 
2.357861507425417 
-2.02480798614428 
-3.352404921730443 
-0.999301509830679 
-1.758340145464063 
-5.575826449353663 
3.95535813567894 
2.770912629362661 
-0.6607035152420886 
4.686267203453601 
1.564453843776717 
-1.951697755384071 
-2.452857643351785 
-4.953002186886009 
5.991915686810419 
2.043634509726388 
0.7275623491619958 
-0.81629960078444 
-4.834491378983526 
-2.7780912621053 
3.109556757950047 
-0.07196183510820567 
3.377286791624181 
5.701749874145785 
-4.538859874818245 
-3.795769678893338 
0.003832352331428662 
-2.650332937309642 
-1.56032555343919 
1.68594952622069 
3.234343668442444 
5.391554794116805 
-4.549265360306822 
0.7742075045672625 
7.917121353655581 
-1.246149859836362 
-5.251096046904883 
-0.9413221664593102 
-5.400159282000158 
3.648030382689715 
8.278129605647983 
4.226184894890873 
-1.008602230819045 
-5.383265712361816 
-5.818751903925158 
-8.165290459729041 
3.961867186860688 
3.806265679652771 
0.5567482939544642 
0.8197985526625539 
-9.690488278667317 
-2.476411112095801 
-3.203894655657391 
-2.906828053724901 
6.594322080594671 
8.778765420162591 
4.615365436456729 
-5.677816608796757 
-2.381055945570942 
3.433954054567362 
1.831895649036117 
-2.943784937394559 
1.819196782227583 
4.003228946370704 
-4.011026227512648 
-3.794723484014853 
-5.69002343566561 
-0.5090144589975316 
10.58225718764088 
0.3589111468459375 
-3.380659180434072 
0.9438226245012128 
1.066441993736604 
7.268133786276507 
6.471527855635885 
-1.259299907036358 
-4.898680124239223 
2.828809879449392 
-8.975204868490893 
1.906145892774771 
-0.4969033021221953 
-11.9142495149744 
-5.131665203469725 
1.940092273300528 
5.939060054976316 
6.881063067547677 
0.1126769310533485 
1.676849794199243 
-0.04853099330251158 
-1.183027658637114 
0.137717156878245 
-3.708816696437732 
1.56915940372571 
0.7445780583321077 
-0.7845725649319597 
-1.610987906754131 
1.097625929537785 
0.2641557391320692 
0.1707786912456434 
-2.529649162757572 
-3.860580139675416 
-3.645057007733785 
1.884656975968787 
4.421962561836962 
-4.638476275507077 
1.115027303164952 
10.75402526795798 
-6.838832935802232 
-7.722881993813241 
9.236390063953012 
8.541542654518668 
-1.986074757606866 
-0.8499010385675327 
2.237496193206391 
-4.930880810174009 
2.720481175190632 
3.069309269971197 
1.625027971968592 
1.763332747891892 
-3.649257193332899 
-4.268722474583839 
-3.669305909851262 
4.740889700625964 
4.881336001189315 
3.326798237936241 
6.277171519342966 
9.778403080137128 
-9.931230884511779 
-12.79795925502933 
8.336576283153923 
-8.819561464660405 
-0.42889118391887 
10.55415812776256 
-8.484292772086881 
-2.081397542322805 
-0.3492476724798408 
0.8365282012064741 
5.49519614241733 
-8.033945833997844 
0.2975653387334281 
0.4906832938909667 
0.9077777415524829 
5.020599489043483 
-5.65087663940763 
-5.040386690830947 
1.96959604869254 
5.698617705393302 
-8.726418348011762 
-3.208233968591561 
4.031663299928435 
9.493863377943427 
-0.4370420452387681 
2.921542155913446 
3.332576154606536 
-9.323802028145122 
1.195966856116983 
-7.55707195181748 
0.7432287894146938 
5.666917960033038 
3.013314708223515 
0.8980205357102671 
-1.848705799300334 
5.334469804499962 
-8.375967502538684 
-1.574207742436548 
8.081467967549564 
0.9881147820162912 
3.359300617748756 
-3.537843065264618 
-13.80871101076767 
-1.347160509000395 
8.997388679618826 
8.993603962738122 
-0.07924012828933194 
-7.671132902777753 
-1.76993751795372 
-10.40813137806396 
6.148866177231893 
7.241239061125984 
-1.370599667504443 
7.911056023095407 
2.158618484919316 
-3.82536485802237 
-2.323503115753907 
1.664954105038238 
7.12144817832877 
2.363352689383581 
-2.444110488408328 
-0.682282516448979 
-3.998859526483793 
4.414061640730062 
0.7218219752819909 
-2.97303920154217 
3.990545483957681 
7.441647610925504 
-1.911455692134968 
-4.462824489962649 
-0.7498413543682811 
-3.080882315736001 
5.080225707933665 
3.519503240426917 
0.2116198398302676 
-2.134561811138976 
-2.658033492843517 
0.9178956404291709 
0.7210265153138466 
3.788674260227432 
1.293610243980388 
-11.20749879278732 
3.112292297349419 
-1.294190310185092 
-7.70359798231587 
-3.889720963714604 
-5.784343052344463 
1.298512847102811 
-1.774420782899873 
0.6402563700349619 
3.690319001293645 
1.116196950931802 
4.592699655110788 
5.965515051585834 
1.848153405467055 
-3.143517457872954 
-0.9250251216023764 
5.202893983931157 
-2.206571148620364 
3.638351986202128 
4.359309844416118 
-5.022746700618113 
-2.166642809418017 
-1.442020183671235 
0.3059698332432391 
-6.973457753461998 
-1.854281465531155 
8.648946794008459 
4.942565451453969 
-3.213821070379525 
-5.849488530706137 
1.08754793330938 
0.4496156709741426 
-8.361339198520135 
-4.242128027990036 
1.784499713475502 
-1.55710440646101 
9.155175689589331 
11.03581972109138 
-4.305166292596902 
-4.002027982392401 
-7.886648397277875 
-7.826892235681999 
6.327286862429981 
6.806932769542167 
6.165943482971727 
3.832878817690158 
-2.59363718273948 
-2.164764416415719 
-1.516547465312608 
-0.3326563929714957 
0.2258365261126664 
-0.7672555777990403 
2.837554622104435 
4.3992441799664 
0.8590491234772796 
-1.882990532919709 
-6.084612038970719 
-3.008383511243022 
-1.223206472374108 
4.364561824151681 
5.818279409140753 
0.4726777755967526 
3.537549696503907 
2.425940669264079 
-1.373874387901326 
-8.685924330971471 
0.0276888688776898 
-3.255987942830623 
-2.475876821802633 
-0.7307504910151409 
-1.903182905141035 
3.158878628294427 
3.319043850340332 
1.982976993340877 
4.618924437440205 
-0.864451266847765 
-5.036004347680898 
3.338308679616405 
0.2551431524468022 
-8.226246246242976 
4.629809932250477 
8.511353443679692 
-3.999828216091446 
-4.303509212929735 
-0.01459764516263147 
1.232635382658394 
3.581669684328682 
2.780506706687136 
-1.700607231858153 
2.38742235792884 
3.31164968131961 
-10.82305368246001 
-5.868077633086537 
0.742624153971375 
-2.207984231721023 
0.5975371700669184 
3.257310999582618 
4.893151919852298 
1.435371201111212 
1.391438096376589 
-1.582461844044099 
1.034079571705824 
-3.273825796529204 
-5.122692193404935 
-1.009983983019033 
12.07630314123125 
8.164433756688984 
-7.490159086043724 
1.193858012593492 
0.5162605248658543 
-2.233813194617722 
-8.767378193733434 
4.540979451326988 
4.732795868171669 
-0.3938808260680571 
1.886462553110276 
-1.222834147971856 
1.71549807347456 
-6.172611604812599 
3.766800483200113 
1.15429911704648 
-1.670614156221001 
2.71193948110235 
-3.135687479760681 
5.703374877763179 
3.365669056502867 
-6.534333585760125 
2.336952882461889 
5.436577964693868 
-9.977562466063844 
-0.5151677727657548 
2.232665179926798 
4.240539710337107 
3.538263476619827 
3.561441895606817 
-3.26435166382463 
-6.509748648245263 
-0.3019129001939883 
-2.189993569703426 
-0.8913044256655003 
1.128743916119694 
2.502452483715163 
-0.08128797644899971 
2.189211023922474 
-2.831631204748201 
2.501524387095016 
4.388056574364062 
-0.8544388779970603 
1.677020082150652 
-5.196062728056712 
-4.680215286427187 
0.8093056096972678 
-2.322515112608518 
0.1985562721874648 
2.564467968859616 
-2.446180879864273 
-5.397650418041939 
-3.668098779956302 
1.786535801389263 
-1.112706726727009 
-4.664775609752072 
0.3132070556576814 
4.866291837774724 
5.086291738247998 
8.796568168495723 
1.566027591355878 
2.058308100560167 
0.5286117763303637 
-5.007168104237324 
-1.703039684966705 
-1.261175959283685 
-2.758834803499935 
-2.839448249151574 
-4.97029161373075 
4.127044718488009 
1.113609706109761 
5.176759863491999 
0.5220033348674582 
-6.36816020786663 
3.275772788535243 
-3.540514979948688 
1.718896342778488 
-1.09015469227189 
-2.291555791283582 
4.699715897871969 
-3.195487577148301 
2.31339211151666 
3.035602273476786 
-3.709519674133536 
3.672995322711565 
1.860669018440989 
2.434234907004203 
-5.531890778628465 
3.061342671489837 
-6.608269498127865 
-6.903405075775553 
7.629600093490996 
4.408729789001248 
8.457803459107385 
-4.429300963934256 
-6.735739295798425 
0.744554116313865 
-4.856607951024761 
-0.5956006538415372 
1.260947369280666 
3.404062469084834 
-6.803333187981174 
-1.072679658304163 
5.457663651071643 
4.324055543354129 
-0.4324124788512937 
0.1984550294104609 
-0.6738485573025002 
-1.164223742140601 
4.495380651344995 
3.595291774616344 
-1.750715768013492 
-2.760408260683622 
-0.8046354531790104 
-1.554075710047371 
0.3890267393295411 
-6.23321062394649 
-1.294036637413066 
5.16698167114562 
5.685456105963341 
1.332210308006963 
-0.5029511751281235 
