solver_type L2R_L2LOSS_SVR
nr_class 2
nr_feature 1984
bias -1
w
0.0002288987776632911 
0.0494580328035267 
0.1346961639816482 
0.1435629760630274 
0.1327372804862212 
0.1461768997347093 
0.1304468593440826 
0.1432625122792306 
0.1356540731899825 
0.1356493858968822 
0.1265469503630337 
0.1337705763335846 
0.1270546840059224 
0.1360688473409187 
0.1261558604687641 
0.1391962811338148 
0.1284831636515811 
0.1417275289084629 
0.1265236510313369 
0.1367689545799584 
0.1239561233163892 
0.1399433737172376 
0.121346513003187 
0.133322202090117 
0.1254869806427218 
0.1326451838416527 
0.1282543465161977 
0.1318363839133422 
0.1247658679854686 
0.1349762357447788 
0.1310250821415091 
0.1385005642881653 
0.1329666233580933 
0.1367116314977854 
0.1415970962468894 
0.1387144174740936 
0.1377586540279374 
0.1408616851349436 
0.1349241431171209 
0.1374955666713717 
0.1307656551611449 
0.1381639076137025 
0.1294625207554688 
0.1368612368807293 
0.1279093037902687 
0.1379124789728302 
0.1268999044781333 
0.1412178648416579 
0.1262287312973309 
0.1344690656644912 
0.1250943190756666 
0.1357791315471055 
0.1306084068185231 
0.1269283743148728 
0.1309927846670812 
0.1353243186626238 
0.1279637338924167 
0.1353700961856276 
0.1269499346383035 
0.1353038414718767 
0.1248530422167962 
0.1390939920612816 
0.1294319500651437 
0.1364200817672388 
0.1327814921751599 
0.1313940367303649 
0.1290247032502965 
0.1398061418834133 
0.1313717134745203 
0.1443005416372201 
0.1334376733518969 
0.1471745040023704 
0.1254342205680746 
0.1311138640198227 
0.1290194630451529 
0.135871655710196 
0.1280605214472187 
0.1331926262476384 
0.125155913684605 
0.133381013008448 
0.1262189080181047 
0.1328922269139076 
0.1221612846498192 
0.130055169396483 
0.1244084708493766 
0.1322672673629831 
0.1271992825628413 
0.1385702355452332 
0.133215042807165 
0.1235221602427778 
0.1333584709902224 
0.1217178074438817 
0.1297182473877642 
0.1238130274007423 
0.1236518986977415 
0.1329544384459507 
0.1242512975236959 
0.1317340988346396 
0.1293768003637184 
0.1327232097996586 
0.1327561273077805 
0.1298921496289133 
0.1347419202823993 
0.1293478927937584 
0.133630326706374 
0.1253818250563284 
0.1268744572633107 
0.133084975047306 
0.1227728179595087 
0.1299676289747736 
0.1208015173228461 
0.1329348150367552 
0.130307697720817 
0.1311725025196449 
0.1226224606510878 
0.1341332009821818 
0.1284771375595065 
0.1329036883580472 
0.1226561754445917 
0.1320255377949142 
0.1250287880904074 
0.1323048354072671 
0.1260075776715291 
0.1355291911760236 
0.1215115187180067 
0.1325850520791909 
0.127458164070917 
0.1342087481891351 
0.1295848086391811 
0.1252595204754097 
0.1264886580289113 
0.1237363984384326 
0.129867025061185 
0.1252267248473642 
0.1267878229935757 
0.1234399411254231 
0.1209337040827582 
0.124264836503295 
0.1206624643852316 
0.1250681416233649 
0.1209202701313024 
0.1308285828644065 
0.1181751632362291 
0.1309731781186911 
0.1262553262370374 
0.1245734364865833 
0.1217866666544801 
0.1313753395770591 
0.1290910129319474 
0.1298141305709154 
0.132797280614416 
0.1346690166963678 
0.1273103983287402 
0.1311192463398168 
0.1304321098183018 
0.1313140860033853 
0.1293714418115124 
0.1274869389202611 
0.130664398183374 
0.1211127121615382 
0.1291260870710804 
0.1231286087700092 
0.1235486407344227 
0.1221107970670803 
0.1229421416888297 
0.1284165660018146 
0.1215365256487899 
0.122717693137892 
0.1272358029228071 
0.1300893794070597 
0.1260609721602664 
0.1217298230186442 
0.134325558352437 
0.1220378983278653 
0.135447553744696 
0.1267161726655175 
0.1273747363152473 
0.1242715501234056 
0.1197640352518323 
0.1265130760163952 
0.1261121843646065 
0.126126196748835 
0.1258491200244517 
0.1242184424820943 
0.1243209395002878 
0.1183390151951314 
0.1202985137399447 
0.1194581566530675 
0.1210702366086816 
0.1266038882366721 
0.123103009148896 
0.1209567010091804 
0.1240669139664174 
0.1241718852108137 
0.1231064849281232 
0.123029732710294 
0.1274757784376809 
0.1224945471821783 
0.1267607014551596 
0.1174816962113486 
0.1240052068986418 
0.1158448820303664 
0.1260590512320349 
0.1192980691660717 
0.1213531369154914 
0.1245202496215417 
0.1227666960948974 
0.1151135133080354 
0.1202416033219426 
0.1204928071866487 
0.1234635704663216 
0.1199070689136302 
0.1215795326988103 
0.120796933696638 
0.1228889324257589 
0.123166761403362 
0.1250748990465755 
0.118577606946325 
0.1192602064532427 
0.1237101203637825 
0.1195718375748442 
0.1149070963098566 
0.1174510249351478 
0.1231902307850677 
0.1209943350254373 
0.1253367581356847 
0.1155805412687408 
0.1208205894140362 
0.1148404970272623 
0.1274660392184679 
0.1162409584619393 
0.1220358290873022 
0.115359146015366 
0.1241912454178664 
0.1156991455074362 
0.1236770591655561 
0.1150460535070952 
0.124572828952823 
0.1164364249104633 
0.1199242286739739 
0.110611168852379 
0.1171496807953243 
0.1199943294732491 
0.1183394743970284 
0.1299495125828364 
0.1192493776530717 
0.1228467051030426 
0.1235430126701873 
0.1284523763910938 
0.1238149732431868 
0.1275654191419471 
0.1280455951724554 
0.1339894956707264 
0.1248738304670705 
0.1353259877960265 
0.1227436255054063 
0.1369881635736676 
0.1176619295762192 
0.1379370497827162 
0.1164036952059333 
0.129157135849777 
0.1195117932368302 
0.1301061502767818 
0.1204290323921577 
0.1251333639220466 
0.1189306591314063 
0.1248297356873204 
0.1185364069448993 
0.1213578915414833 
0.1157959374974049 
0.1184317365828266 
0.1156690238667471 
0.1218974937365453 
0.1207926194131593 
0.1240345748776706 
0.1234096173534164 
0.1160594767998733 
0.1228712312095336 
0.1149038186168168 
0.1189032240182334 
0.1223771804221236 
0.1190662210023443 
0.1258030905272768 
0.1191871294982523 
0.1301845122498149 
0.1296089389496116 
0.1235403938759021 
0.1231072524331901 
0.1273221690514173 
0.1204539365654406 
0.1252256451863066 
0.1207426753885437 
0.1183092934129734 
0.1172420614025694 
0.1198790590698747 
0.1161707215579389 
0.1235312993837216 
0.1203461969029567 
0.1141276045332801 
0.1172944955870947 
0.1171906005886937 
0.1182648537556051 
0.1177995602719898 
0.1178111203418388 
0.1212156121914302 
0.1104706090390921 
0.1238925623194295 
0.1141258918918871 
0.1228519142740386 
0.1186015662820089 
0.1246951941742986 
0.1162161301841529 
0.1262022883415598 
0.1192524705265805 
0.1242609182061978 
0.1137848926298463 
0.1218628028465469 
0.1148844107773211 
0.1221605586004885 
0.109984311072451 
0.1267846700177835 
0.115071137157631 
0.1255851721475024 
0.1144294109765286 
0.1255454931245345 
0.1161865374559211 
0.1297450580992857 
0.1158672419599046 
0.1241591883268544 
0.118081887488814 
0.1293951271812933 
0.1172453747123234 
0.1244014252937273 
0.1190209380637428 
0.1246531240109051 
0.1210018544033237 
0.1261825631318683 
0.121741288320265 
0.1247709848833945 
0.1192378984230739 
0.1312810857714499 
0.1185855116035499 
0.1304638064391702 
0.119544390911558 
0.1298686822374729 
0.1174676851667423 
0.1305512993206267 
0.1135612465415702 
0.1334590177175649 
0.1196593177075853 
0.12870456244367 
0.1164250542658055 
0.1323947825427761 
0.1140336932179626 
0.1284514435711778 
0.109614455687983 
0.1292367270266067 
0.1152347635896296 
0.1232839788385832 
0.1188581709941793 
0.1342358483791112 
0.120456561872811 
0.1385916361553771 
0.1229737868701908 
0.1336896758378671 
0.1231623723339223 
0.1298430622018429 
0.1220134149846891 
0.1341587302731028 
0.1198309111221834 
0.138156682511769 
0.1179848582622906 
0.140539975850197 
0.1155172144267386 
0.1370901070471711 
0.1130062088425193 
0.1281758099068694 
0.1213939385549886 
0.1270611559238209 
0.1166207135368496 
0.1260221839924273 
0.1230288275642123 
0.1304890524666443 
0.1197718108571521 
0.1219925322975913 
0.1220524386889484 
0.1294224659419537 
0.1186048506430934 
0.1274685827453613 
0.1171575434344797 
0.126987434485171 
0.1183344848505208 
0.1303877889003353 
0.1231701875467512 
0.1302741804657453 
0.1188191987028476 
0.1266468452409411 
0.12199552884119 
0.1244360345342724 
0.1211772646948593 
0.1217540441102489 
0.1228627440448108 
0.1190768812549115 
0.1171851727957243 
0.121181655290152 
0.1177764037478323 
0.1220725320573217 
0.1152267192875772 
0.1185373018160175 
0.1174411220521658 
0.1183590101073791 
0.1229574837948118 
0.1182054938839856 
0.1291969166983568 
0.1222345202213133 
0.1233263295930445 
0.1264429139662402 
0.1250416026287075 
0.1298839042872308 
0.1232028799714604 
0.1263455355316842 
0.1246899651519698 
0.1243480588962118 
0.1186626100535809 
0.1231136812378572 
0.1226513983893842 
0.1252849048357672 
0.1191244841363644 
0.1305516014959704 
0.1208986107305812 
0.1301265383604268 
0.1194762181661217 
0.1268395771264731 
0.1163178933790758 
0.1262618087463078 
0.114942762771965 
0.126107359019322 
0.1062581867691127 
0.1307913394209619 
0.1078149302259399 
0.1305677282692262 
0.1129429575010445 
0.1290861102686273 
0.1146069824227869 
0.1290526937667022 
0.1145847745047371 
0.1239044062138984 
0.1152128806004623 
0.1255814865313156 
0.109910469831655 
0.1224313935742029 
0.1178743610585425 
0.1278713901407642 
0.1182255053551154 
0.1328829329580213 
0.1148959885873307 
0.1294234635801037 
0.1173988203039994 
0.1313606483203665 
0.1102674920386309 
0.1296662832970064 
0.1168227382049628 
0.1275981097853759 
0.1238692704350704 
0.1243560339653776 
0.1197912226018762 
0.126163903485651 
0.122429943332436 
0.1215926285503518 
0.1183886543600864 
0.1197023832187824 
0.1182948823069865 
0.1229138035168439 
0.1149478048439291 
0.1278716919621614 
0.1184047228551992 
0.1226376126641333 
0.1185531980169412 
0.1182121463980984 
0.1145287474015325 
0.1233325382438866 
0.1139286222636847 
0.1236758568057305 
0.115836917219618 
0.1231552026222479 
0.1144474672655911 
0.1223603896186322 
0.1121025398996257 
0.1235064574112684 
0.1121326411709801 
0.1303522586408362 
0.1179648967075871 
0.1287948424222272 
0.1148419015193172 
0.1318750915695806 
0.1120653764889061 
0.1338905774761691 
0.1122297796672697 
0.1291966891103866 
0.1156415316829322 
0.1254704899877424 
0.1208428708600878 
0.1269028771621212 
0.1203224410658966 
0.1282102869489705 
0.1199434366729911 
0.1235490575739318 
0.1209281892080451 
0.1274020146463651 
0.1181892652021788 
0.1261303584045721 
0.1273574833738961 
0.1256340531817501 
0.1304071104414499 
0.1317957299495457 
0.120112948237044 
0.1316091805740413 
0.1220278343792157 
0.1298650683167741 
0.1251592555569651 
0.1271771935523814 
0.1242601812489553 
0.1240702392494474 
0.1209763461490687 
0.125839095788257 
0.1266201545364222 
0.1287061264102623 
0.1292077644122656 
0.1313818820977164 
0.1236502799875754 
0.124790942753733 
0.1349477116455493 
0.1278166787246905 
0.1245983388695551 
0.1251162058203579 
0.1227946944115124 
0.1202279236643798 
0.1190038484834638 
0.11598173176074 
0.1212005569930115 
0.1175030947292636 
0.1242299230948812 
0.1196302779946469 
0.1293498888791125 
0.1188278569255233 
0.133600068035721 
0.1232563338086508 
0.1285235211320716 
0.1234086855612448 
0.1256205236836027 
0.1238221704092517 
0.1281298234098981 
0.1236272593109734 
0.1272882225449838 
0.1234429268422235 
0.122560640724474 
0.1247291235152924 
0.1188685493171382 
0.1293171939462977 
0.1256355478720009 
0.1223589737499507 
0.125064649872579 
0.1208051866594835 
0.129594941920947 
0.120855421030741 
0.130250094234683 
0.1141820908550133 
0.1280646939139405 
0.1219991332520087 
0.1203167871451537 
0.1254138146051357 
0.1251236689665861 
0.1240221187342914 
0.1287925403546799 
0.1209441597182662 
0.1283203503725681 
0.1201371795215703 
0.1167115854025586 
0.1220450753320761 
0.1142748343197186 
0.1321622528040905 
0.121946706133811 
0.1283594905996136 
0.1169220741673998 
0.13215180358581 
0.112606027663209 
0.1246915986066975 
0.1132766812787917 
0.1234877678241081 
0.1159744263328671 
0.1248390007043868 
0.1165963330996627 
0.1339676325819422 
0.1170108792694048 
0.1304596282287649 
0.1180069199137594 
0.1372948386132271 
0.1216999906663287 
0.1380865641343249 
0.1215900521820399 
0.1307127440106085 
0.1225632679581811 
0.1309943317646689 
0.1216866094949943 
0.130373434515042 
0.1198241989873424 
0.1294855193174167 
0.1208774390868908 
0.1340355376905599 
0.1220052687957228 
0.1350509843656104 
0.1282133775668589 
0.1356145783823612 
0.1230239553378497 
0.1387119429847647 
0.1227734062133887 
0.1419288040513438 
0.12596436464716 
0.1355478366077063 
0.1205595382392302 
0.1350488536627948 
0.1282849936645447 
0.1325904584173501 
0.1285479691431131 
0.1315202742541526 
0.1324382327887978 
0.134572867913847 
0.1308237506483477 
0.1249626167438977 
0.1225246207933429 
0.1288393433288395 
0.1266656145732663 
0.1285743662036538 
0.1325876152797552 
0.1258862782579622 
0.1297424140327899 
0.1258583524484453 
0.1275165722130056 
0.1255220290273836 
0.1302873326668604 
0.131479475494358 
0.1303756459656986 
0.1291397950061597 
0.1309213533580215 
0.1341166450879947 
0.1235005720692245 
0.1373446818581336 
0.1200274142589941 
0.1326467282036052 
0.1260826656231669 
0.1334697642916094 
0.1231956720594135 
0.1308664677992765 
0.125157156751169 
0.1279633477388733 
0.1166472317064203 
0.1343910893286747 
0.1155865710058084 
0.1319280667912832 
0.1106809925751227 
0.1358233963950687 
0.1158414358711359 
0.1344785193449572 
0.1137440472454409 
0.1328842520425166 
0.1205249012731395 
0.1322055689668694 
0.1191204159675197 
0.1283663899801718 
0.1245251050148281 
0.1328793493245525 
0.1170353429743404 
0.129566001737304 
0.1123042334110885 
0.1303296573356659 
0.1182563797482825 
0.1228814929661534 
0.1232232044896458 
0.1281382495254171 
0.1151229479610988 
0.1300698469363831 
0.1157169491225557 
0.1324278895654357 
0.1192567242939487 
0.1296218176027124 
0.1163333293937742 
0.1328734664596613 
0.114233522065985 
0.1329174801128757 
0.1162781006123193 
0.1244496820916784 
0.1162723991675714 
0.1343157513292568 
0.1140655480884357 
0.1325891980495258 
0.1135220472244392 
0.1312436867393059 
0.1188009675412802 
0.1332252869615652 
0.1225228259571332 
0.130898247786445 
0.1157313238043806 
0.12767042548009 
0.1239431916885472 
0.1268915980186401 
0.1240257842556663 
0.1279114041942493 
0.1281380934180926 
0.1311813021697707 
0.1245039528857701 
0.1330732065380065 
0.1129242273574483 
0.1298683825080368 
0.113455993454649 
0.1312379181296077 
0.108526734694785 
0.1314205900296314 
0.1186730426784419 
0.126410919513132 
0.122485315970498 
0.1307756437107703 
0.1187718711566329 
0.1282999712288873 
0.1202913630503203 
0.1273994225181886 
0.1202044063815505 
0.1244515397243973 
0.1207163865031679 
0.1192648404828718 
0.1185883166364481 
0.1223864189609012 
0.1160331505259989 
0.1283830696473918 
0.1140798539757295 
0.1279617397348549 
0.1170570283493214 
0.1261061235225495 
0.1168540459496211 
0.1259024666994037 
0.1153130816961735 
0.1216851578784659 
0.1168132551194432 
0.1216729864270002 
0.1167275737622518 
0.1217269210146458 
0.1133057191362507 
0.1251059124129125 
0.1116008031779284 
0.1228998815863096 
0.1132349470833516 
0.1194666835909218 
0.1173656582592337 
0.1252027035249365 
0.1111940170155224 
0.1213123668513049 
0.1069607049558246 
0.1202981505960358 
0.1082948979250772 
0.1196563522409968 
0.1120005945013016 
0.1197923520535436 
0.1076939613830432 
0.116193630924794 
0.1083148429552459 
0.122208637221019 
0.1130039214772499 
0.1201040872754695 
0.1133129248685948 
0.1203295170865764 
0.1122393111523419 
0.1240557488201208 
0.1146015063779509 
0.1242256745601934 
0.1165267195331837 
0.1208012437449994 
0.1080932577910726 
0.1301586527753079 
0.1146118596125025 
0.126709827558998 
0.1155308017660477 
0.1313626832596157 
0.1101961077153774 
0.1288494508383941 
0.1115826909382554 
0.1235139601773117 
0.1171046528856974 
0.1219012984210746 
0.1136719793095199 
0.1248691818581185 
0.1144494108106646 
0.1245707551177343 
0.1133375587898008 
0.1190082584801856 
0.112115547061781 
0.1214990094875053 
0.1079333152876199 
0.1247640180344567 
0.1067430047662489 
0.1258119082367854 
0.1025863820673793 
0.1182781307697423 
0.1025490544005189 
0.1213018369394186 
0.1081200714424921 
0.1205874433617188 
0.1147254952141779 
0.1275897393551097 
0.1077365477841713 
0.1230903296116123 
0.1140634266905028 
0.1293592611425191 
0.1097178064230436 
0.1327845856630839 
0.1079880014506277 
0.124099407647312 
0.1186072087403496 
0.1252211292014276 
0.1171112373111544 
0.1237614742594636 
0.1217220223545888 
0.1270563992117019 
0.1163783242840035 
0.1307990817529389 
0.1145666585571228 
0.128464543577912 
0.1192529716920624 
0.1245160630319553 
0.1161887555197071 
0.1262025369051553 
0.1127079001993113 
0.1333066536566533 
0.1189807819491273 
0.1239533337689087 
0.1137286585979331 
0.1213972362550407 
0.1151809973326041 
0.1249797949834634 
0.1134369958413464 
0.1220343137071823 
0.1132905160801602 
0.1235273249396649 
0.1204321074248676 
0.1220279533841825 
0.1216953335436149 
0.1190297739606499 
0.1183691177075673 
0.1203405088903302 
0.123858606630631 
0.1180999568471973 
0.1212008622774937 
0.1187974189439639 
0.1248633812043616 
0.1230401513942284 
0.1174925981039613 
0.1196404255324015 
0.1193514592939342 
0.1250862030039082 
0.1194546742049717 
0.1227645279130929 
0.1263472309679713 
0.1218846202989349 
0.1387263196753213 
0.1219319742442376 
0.1381167025120497 
0.1209712044627957 
0.1347980414188594 
0.1248321071287652 
0.1250096631338278 
0.1230812509971676 
0.1295316155619957 
0.1285798961562326 
0.1249921060564207 
0.1221794230631183 
0.123868784744377 
0.119135592157951 
0.1228943604824522 
0.1254588298620741 
0.1194692717961783 
0.12502006505203 
0.1209059632520382 
0.1232980694869197 
0.1231117984202183 
0.1165157133437841 
0.1275584965206423 
0.1223330275809701 
0.1175803463097583 
0.1180579706851077 
0.1184605832353075 
0.1102638419049688 
0.1287925393376929 
0.1145588938604546 
0.1339901166854295 
0.1105074346839782 
0.1265384830828949 
0.1142479004739218 
0.1297289823003748 
0.113936330469811 
0.1312954571390276 
0.1125688834178532 
0.1278422176354177 
0.114525055921522 
0.12512354453597 
0.1171890388972836 
0.1242764754264445 
0.115218587439315 
0.125315083269445 
0.1114254820062163 
0.1190398832861008 
0.1115339619285498 
0.1213011510997538 
0.112974211238564 
0.1277960551508449 
0.1105166671599277 
0.1269378994342509 
0.1069767298326807 
0.1220408210660641 
0.1124875357717311 
0.1246640548124487 
0.1098584633210368 
0.1187220206444582 
0.114982198180886 
0.1152617519090565 
0.1225424238196279 
0.1180153351137257 
0.1178472139118174 
0.1188950988169502 
0.1220418627022804 
0.1207609178219579 
0.1227908506549762 
0.122206173779179 
0.1280203806510809 
0.1216066615747535 
0.1264797064540457 
0.1148458936429314 
0.131637955691887 
0.1178951560906526 
0.1249556979536655 
0.1183722725352717 
0.1254727557280193 
0.1217712641743207 
0.1198931136852117 
0.1196069677528769 
0.1193520835047713 
0.1210180026515446 
0.1260448989694522 
0.123028986964944 
0.1186863310369842 
0.1260325834239047 
0.1258489023048491 
0.1297429980827724 
0.1179269907583416 
0.1348813928473543 
0.1242429245585691 
0.1252753274039375 
0.1257981450143354 
0.1252029467886948 
0.1229635916224345 
0.1324101658408643 
0.1243265826743372 
0.1243376827989629 
0.1237785114296731 
0.1232842718404051 
0.1219868093405357 
0.1227429996506529 
0.1227617946099945 
0.1245584610321823 
0.1216852811988977 
0.1305768057473425 
0.1190005125066065 
0.1359950812935285 
0.1112518989134319 
0.1357307758530721 
0.111687660721183 
0.1246239738768142 
0.1177079664170378 
0.1262994136651734 
0.1193857286437046 
0.1240142158602362 
0.1142509065126452 
0.1245404365881723 
0.1101928314916793 
0.1224619516731555 
0.115557621466487 
0.1261784348771538 
0.1110442002313498 
0.1186571016875629 
0.1163937784441522 
0.1194060699121333 
0.1171522555137986 
0.1180382377106347 
0.118024072108298 
0.1151691509270979 
0.1217995544238442 
0.1192221039980317 
0.1175661559757228 
0.1252359580402226 
0.1250568520395582 
0.1226969736056624 
0.1239775679564262 
0.1298396291064001 
0.125461209556017 
0.1243065514888458 
0.1275032505237703 
0.1189097942234171 
0.1266717438183795 
0.1252890467555457 
0.1218979203977694 
0.1213513400006158 
0.1258089541786039 
0.1211426101807632 
0.1283784692203531 
0.1292164518836036 
0.1231558248843902 
0.1189577641805231 
0.1273864866494931 
0.1197018264102003 
0.1210116185695645 
0.1228309780139799 
0.1292412690583201 
0.123016144992818 
0.1317545229407577 
0.1240057961390683 
0.1257584969202879 
0.1205431459253079 
0.121116263393902 
0.1308836937308236 
0.1204491455560303 
0.1278002854662401 
0.1223314219631324 
0.1211788740535145 
0.1224424506759193 
0.1174984445842134 
0.1262401013826636 
0.1145342013992338 
0.1254991776808373 
0.1173299774116387 
0.131063028018296 
0.1210224550660669 
0.1240237504141035 
0.1183999778215548 
0.1278905572810263 
0.1202980193570148 
0.122822374719103 
0.1234640800829633 
0.1211818580989148 
0.1198991987779235 
0.1241118695611213 
0.1228842696558705 
0.1273198847132592 
0.1176937696385318 
0.1244686231501419 
0.1216762285321812 
0.1307163141649044 
0.1181895885633467 
0.1268693719880067 
0.1203135095890282 
0.1246840127583243 
0.1252283624832597 
0.1303241352514776 
0.1331501509823439 
0.1237553465438171 
0.1331211433858569 
0.1235991174104002 
0.1272374563550258 
0.1178133812357595 
0.1260300164224469 
0.1142644755163127 
0.1263449812645352 
0.1174971611882584 
0.1260844299677472 
0.1144216503967823 
0.1202034939028683 
0.1141982433448537 
0.1218153473842463 
0.1157449686486842 
0.1235554296032652 
0.1175272286872052 
0.130392368470702 
0.1164046361419084 
0.1266867460634828 
0.1142187921862499 
0.1291316267246694 
0.117020953003525 
0.1200069621664267 
0.1125634382469905 
0.1296032518520684 
0.1139379137458877 
0.1232992633949297 
0.1165298501100441 
0.1207370037332937 
0.1178427031593859 
0.1148440038021298 
0.1211408610018736 
0.1117395595878557 
0.1188186729867253 
0.119197389542602 
0.11744286346307 
0.1243293723416975 
0.1172840345482074 
0.1200928530944014 
0.122393949236856 
0.1205879128349138 
0.1204971747190046 
0.1205907340947079 
0.1137898843311573 
0.120505048531573 
0.1213172286676547 
0.1192715694389621 
0.1293175639596287 
0.118011231470918 
0.1207038664455229 
0.1141613829888738 
0.1222066782262014 
0.1201710361309092 
0.1215791505828241 
0.1184630746659538 
0.1204309784237195 
0.1167199207218851 
0.1218150696185653 
0.1175133503282586 
0.121610103933174 
0.1144805277018458 
0.1264028202579246 
0.1200836988443449 
0.1288176712474222 
0.1158921995678452 
0.1301940027543414 
0.1199972711062238 
0.1328614201063487 
0.1203357899848069 
0.124373904990702 
0.122314550878727 
0.1245847171960265 
0.1218742133822155 
0.1177712548687612 
0.1218752347438177 
0.1261952272591891 
0.1229249780022116 
0.1210677099351627 
0.1175523326038831 
0.1193152970869783 
0.1193322659839475 
0.1224915496174012 
0.119080938930286 
0.121233479437091 
0.1219979324097763 
0.1232979789499306 
0.1182938865834351 
0.1266364946108142 
0.1210480325948209 
0.1223205291336794 
0.1203203613723342 
0.126847749251574 
0.1257585554307774 
0.1260425020987023 
0.1201036883760571 
0.1330761355750605 
0.1226266979382381 
0.1313372530499972 
0.1274879630602111 
0.1276729442718567 
0.1345831773243071 
0.1330329474778761 
0.13201397001071 
0.128605809758278 
0.1256055287963667 
0.1328492788197267 
0.1311818633770095 
0.1253011307378595 
0.1331456595495553 
0.1299368637257463 
0.1322667050434032 
0.1313675425738214 
0.131207971022908 
0.1337350209009652 
0.1295723499997543 
0.1333819743508762 
0.1288254955295282 
0.1378601198557811 
0.1355708535047375 
0.1320849699525886 
0.1298090135294872 
0.1337800440379131 
0.1312296981110956 
0.1282628342869736 
0.1271673811074353 
0.1262681220419472 
0.1261063305563764 
0.1223857415617849 
0.1314434474987713 
0.1258606875245608 
0.1278319690260007 
0.125726282165416 
0.122804338694587 
0.1224819583089629 
0.1242773843287427 
0.1231973987226161 
0.1227263398276897 
0.1169747827551514 
0.1259349622517053 
0.125542096503154 
0.1220536586434466 
0.1216535775260268 
0.119673100277872 
0.1197782809925932 
0.111464187972169 
0.1178730783754926 
0.1192603307588096 
0.1181430018019891 
0.112149243342489 
0.1177293859661715 
0.115905182995835 
0.1168852804592838 
0.1157941112437486 
0.1154856636598734 
0.1269293087752395 
0.1135294987808925 
0.1278555767443459 
0.1107172378753244 
0.1209143397265507 
0.1175756190593321 
0.1292489949166843 
0.1230197836660027 
0.1239475126559222 
0.1187507826372408 
0.1274266159269357 
0.1327656542813124 
0.1242569779824429 
0.1249801212309951 
0.1239964464193091 
0.1222684540423182 
0.1252248488650502 
0.1204139402160635 
0.1268474727030368 
0.1171436043007714 
0.1226737124476328 
0.1195853581973083 
0.1221467562679559 
0.1172521417099922 
0.1203906293754488 
0.1175137637955053 
0.1166295703410217 
0.1112844847980597 
0.1108720838203183 
0.1172333136369745 
0.1106179129205628 
0.1241893070345677 
0.1140822299493982 
0.1204142353764489 
0.1119375007225319 
0.1197471142047092 
0.1238606248699598 
0.1250562738104093 
0.1230760806600475 
0.1263751011221698 
0.1183248425096543 
0.1269161819684055 
0.1219630382148389 
0.1256620247606481 
0.1222306363697837 
0.1239001741905087 
0.1206913892540104 
0.1311453063964177 
0.1147823464949098 
0.1254566895357586 
0.1217428632786427 
0.1268954165514553 
0.1140068260034059 
0.1298648593069152 
0.114103178307156 
0.1290693196875841 
0.1188696421163978 
0.1300023661863229 
0.1189174620067775 
0.1271135194326265 
0.125479420363357 
0.1226139390712328 
0.1192214666957169 
0.1222886280893112 
0.1235371356958948 
0.1253765195214368 
0.1239534263590589 
0.1248938755187686 
0.1234364729963543 
0.1139028474184688 
0.1198231051475185 
0.1263974633980367 
0.1199556572744872 
0.1210334819961022 
0.1189592642624411 
0.1194693646892383 
0.1208018415248345 
0.1139588636582083 
0.1237577059456227 
0.1100496573991015 
0.1210112088460492 
0.1161283996993453 
0.1194241675358604 
0.1187085503698055 
0.1209145540286271 
0.1120757584117553 
0.1199856595303069 
0.1170613285210967 
0.1137567193787538 
0.1195725313847541 
0.1183733364140875 
0.122120185006132 
0.115566459995031 
0.118859409235613 
0.1197902894403575 
0.1160739401268841 
0.119942415567098 
0.1231350323090312 
0.1192968713167484 
0.1201949421152103 
0.1161857747496507 
0.1118590374997742 
0.1196014994414033 
0.1146945174197854 
0.1154042738680372 
0.1227101888681113 
0.1086856357191457 
0.1221220384938079 
0.1128978008603568 
0.1180509874003524 
0.1113243863408433 
0.1181664277714743 
0.1112632523666288 
0.1215159529611752 
0.1089084241062053 
0.122869334866185 
0.1101367025837526 
0.1160154162729934 
0.1183981025967795 
0.1205274833770737 
0.1143844129172292 
0.1157296503085725 
0.1177311300255671 
0.1126865659862883 
0.1234738696586615 
0.1141062344880082 
0.1244026324090356 
0.118126355857029 
0.1244871832610236 
0.1189508429317169 
0.1255597113758049 
0.1248895497860118 
0.1223723225733663 
0.1205517785862022 
0.1232692220073502 
0.1174771164505121 
0.1184954136816657 
0.1219459888147343 
0.1180249753682286 
0.1214822436581681 
0.126073005444803 
0.1244831265878918 
0.1236048044242287 
0.13157935409404 
0.1195769826565461 
0.1286399858070437 
0.123981282099884 
0.1281128800790667 
0.1282235442518976 
0.1285807593925454 
0.1265198543136044 
0.1304430486345605 
0.1295711872068211 
0.1285240084550869 
0.1319810888731456 
0.124897829078967 
0.1273152182330403 
0.1164562408467663 
0.1275350609819193 
0.1203200856612312 
0.1303191562682251 
0.1278669263052335 
0.1255309377068925 
0.1275102189334827 
0.1239333327531536 
0.1310986371068512 
0.1247832921941916 
0.1302455002743782 
0.1166137884206268 
0.1286128252603476 
0.1164751487848177 
0.1230272897622002 
0.116880490247053 
0.1238955533698248 
0.1224047061182769 
0.124147501073586 
0.1230828422450848 
0.1223057050836665 
0.1166511456159979 
0.1234461983887306 
0.1211563828064164 
0.1247377619229672 
0.120152326909873 
0.1251246214096599 
0.11518233387626 
0.1249103453863122 
0.1164524703870356 
0.1292021396145555 
0.1180785495792158 
0.1277879882724429 
0.1124583726792381 
0.122074957635281 
0.1127156266150181 
0.1208442487996513 
0.108994282109678 
0.1221391179008667 
0.1062321115447826 
0.1226544234390709 
0.1089141743179422 
0.1223450007344246 
0.1106952492631424 
0.1211960240552759 
0.1187909119580482 
0.1170553461276386 
0.1189047921748293 
0.1146339574340248 
0.1216525867450577 
0.1140062227210261 
0.1234950023792765 
0.1130642888700147 
0.1234782268457513 
0.1085054737038495 
0.1201022823124282 
0.1109779652702202 
0.115611289638014 
0.1153508699922175 
0.1194400676806839 
0.1174880769602009 
0.1185567987379895 
0.1264763192637524 
0.1184338173491357 
0.1242820108053894 
0.1186269267180737 
0.1215126934586164 
0.1233122140607783 
0.1249004146675194 
0.1273757205911039 
0.1276129272677581 
0.1279496141505458 
0.1257307926344378 
0.1268367526236961 
0.1360820878747546 
0.1209450486369376 
0.1359690452512051 
0.1207669826459497 
0.1326842666160363 
0.1213949026878726 
0.1302798616669615 
0.1175639362111116 
0.1297785510847097 
0.121183484827406 
0.132460544734483 
0.1230437326897822 
0.1279408559066343 
0.120730425892058 
0.1200059302527929 
0.1243686188701615 
0.1234264985402875 
0.1239265985860304 
0.1273454737390332 
0.1264454467531563 
0.1229884893671695 
0.1248736031823788 
0.125852383930294 
0.1295406513960362 
0.12705706532861 
0.1298724273864137 
0.1293540078952476 
0.1221304411973636 
0.124166180382627 
0.1240088074889206 
0.1290409961641897 
0.1312928661449262 
0.132684185320356 
0.1266387168765242 
0.1340690249165226 
0.1343746832358898 
0.1325916000119679 
0.1348991860244732 
0.1254907241440886 
0.1348473945175589 
0.1315397433142735 
0.1306245437456093 
0.1269699286202331 
0.129468061412917 
0.1235103703469098 
0.1251444145354261 
0.1236535190191544 
0.1269055686737625 
0.1269518928827177 
0.1279652976890012 
0.1235688672125665 
0.1264176901375053 
0.1200397081161247 
0.124238780081994 
0.1190026465148936 
0.1250176339302143 
0.1154578156836971 
0.1237989051578107 
0.1149064925589308 
0.124930738800788 
0.1166035825436144 
0.1261784911012021 
0.1192629486205732 
0.1278317642941902 
0.1227418058987491 
0.1297302514206697 
0.1270129033770565 
0.1311404533739551 
0.1257972862495209 
0.1281630188240518 
0.1268979936004908 
0.1278875418710717 
0.1265766455128716 
0.1229727693133834 
0.1198197703574705 
0.132432526926865 
0.1234167648537752 
0.1285903160839063 
0.1241602700296946 
0.1323291876037161 
0.1228148115721722 
0.1223204303872758 
0.1215762132298545 
0.1253809735714356 
0.1241400594699052 
0.1221016159922817 
0.1254951573699517 
0.1173678891723889 
0.1230797921035886 
0.1176470160163659 
0.1307758805403368 
0.1181393429007984 
0.1216312929739725 
0.1214986694695095 
0.1252349145045512 
0.1176036404229384 
0.1274808297050709 
0.1190109489040336 
0.1309376886923142 
0.1203052286383871 
0.1352760975092732 
0.1180506099715782 
0.1352893135117052 
0.1290311521822237 
0.1294364838619767 
0.1265793648162714 
0.1258333211080829 
0.1293835521147901 
0.1273096636188325 
0.1316516849555281 
0.1272908600806068 
0.1328495397855255 
0.1283051572690385 
0.1344215505083353 
0.1295971810894601 
0.1292347745789315 
0.1309037159197056 
0.131343762326855 
0.1308875967130523 
0.1284955669901504 
0.1287123771238268 
0.1250517053036886 
0.1240556752105907 
0.123201412317399 
0.1281933184682669 
0.1238987406772458 
0.1281181747925975 
0.123542637696368 
0.1275452378875128 
0.1274334220351794 
0.1299454064992052 
0.1296886572973867 
0.1280507304821909 
0.1282907031721641 
0.1248933461774174 
0.1238271077858137 
0.1237942435208579 
0.1237599290594985 
0.1291757164694731 
0.1201969683696572 
0.1296213321208027 
0.1220830950732577 
0.1263906054116824 
0.1231082274328284 
0.1246484884578958 
0.1204106610290859 
0.1163290478522998 
0.1158626056302436 
0.1180336794888985 
0.1243747127207087 
0.1204755358944105 
0.126685530942654 
0.1209567982908462 
0.112879311976143 
0.1239020073425296 
0.1175868501148265 
0.1183135490752348 
0.1293562254631838 
0.1263445382004253 
0.1306275410532324 
0.1257903936187835 
0.1264667520051066 
0.1291099469619122 
0.1248089246928418 
0.126514454328407 
0.1258883036458816 
0.1346750917459188 
0.1208879998955716 
0.1335384456873379 
0.122039488944267 
0.1301088319416566 
0.1315398142653657 
0.1319556798815357 
0.1306867376510752 
0.1311482043103595 
0.1309575978449134 
0.1261347028579163 
0.1350342656040893 
0.1266606898793104 
0.1243270235458403 
0.1288430172192822 
0.1214713503985551 
0.1266162668037658 
0.1255371672798796 
0.1207766655174588 
0.125035936054174 
0.121848566842281 
0.1294976044308691 
0.1259800261296772 
0.125845834120157 
0.1251999531275962 
0.1243393401476839 
0.1232896866224594 
0.1230306221512046 
0.115681394088496 
0.1286987878330249 
0.1155086984093724 
0.1332086015205266 
0.1202072064184629 
0.1274675602534782 
0.1225287079453335 
0.1266545686814506 
0.1204025160437036 
0.1303730678525277 
0.1210130232793278 
0.1261679303322938 
0.1229888953838508 
0.1269178928098109 
0.117706327829959 
0.1304754779938763 
0.1199948502896149 
0.1314578895030761 
0.1273448613660154 
0.1296915105462662 
0.1289365547658428 
0.137582179694557 
0.1274880625959582 
0.1300245189895675 
0.1307703280639229 
0.1318867331976696 
0.1261219697461436 
0.1313877018969194 
0.1197745704935984 
0.1352922895934573 
0.1260330487739547 
0.1361175921968552 
0.1269804309474557 
0.1317490506828096 
0.1223243330671363 
0.1260196865134966 
0.1209325657093685 
0.1273334680728395 
0.1279075179995887 
0.1267862511780685 
0.1286954121916419 
0.1300393730660526 
0.126075994599429 
0.1273074244606591 
0.1291500921715937 
0.1329564273874848 
0.1336907315823752 
0.1327640942016306 
0.1341007189119827 
0.1344452608898266 
0.1314205515725005 
0.1387677307282146 
0.1313886834666391 
0.1360499821297127 
0.1287303117290957 
0.1291806905090193 
0.1234247356782753 
0.1377026742889479 
0.1282088562784589 
0.1391330192464704 
0.1265185182218851 
0.130170681054121 
0.1300306939236096 
0.1235715030143495 
0.127671258821679 
0.1253032852223315 
0.1281349306135316 
0.1255086107190463 
0.1270316194617592 
0.1323340290311202 
0.1360048668421433 
0.1309963615231335 
0.1319912707343792 
0.1259251168077614 
0.1333335271770807 
0.1291432922044147 
0.1270955395266032 
0.1262525602034548 
0.1224003345879583 
0.1261454973268788 
0.1245000094350042 
0.1255736633193434 
0.1230109010511966 
0.1264365234894619 
0.1235434186237655 
0.1244809172022008 
0.1295093330151499 
0.1362842503214348 
0.1318811800761104 
0.1348069783051191 
0.1274028744406158 
0.1338879550340783 
0.1263259680176082 
0.1311652108802215 
0.1262343195081801 
0.1330047293585898 
0.1238698982857252 
0.1304054741463991 
0.1232261640794431 
0.1346013689404336 
0.1223401263453629 
0.1298092538865591 
0.1324203625454851 
0.1302986574681309 
0.1307658047256109 
0.1333061185493596 
0.1306525648505766 
0.1365460948584371 
0.1330233276474521 
0.135796235841902 
0.1305190618928881 
0.1278166662991073 
0.1260348032722474 
0.1314303164450989 
0.1331047312655305 
0.1295174813023275 
0.126763621943208 
0.125377104852791 
0.1252518880387803 
0.1294808120376622 
0.1173092157933295 
0.1297398217433077 
0.1224954326675781 
0.1294377533695895 
0.1257673337656842 
0.1287034085483673 
0.1270300700485482 
0.1320360032164415 
0.1343560628648384 
0.1278677438881211 
0.1329609820134645 
0.1288662987442089 
0.1387242904875529 
0.1274201525620481 
0.1377171444502517 
0.1273325430019295 
0.136522030464206 
0.133078754098431 
0.1295794079619837 
0.1360660167687835 
0.1307120116273939 
0.1300980727048275 
0.1297398079576889 
0.1316664091035815 
0.1386150575185355 
0.1284397863586018 
0.1376654249394619 
0.1350452002124 
0.1350935507445075 
0.1327357054528064 
0.1372264031952587 
0.1392594885151275 
0.1309896742030504 
0.1426711905307624 
0.1378487961251864 
0.1401020837951362 
0.1322297135020448 
0.141726950829114 
0.1314074613377496 
0.1436481842440489 
0.1343025792204157 
0.1487737784350865 
0.1343873461711264 
0.1428612216299205 
0.1329182250439416 
0.143650359805437 
0.1372088713691831 
0.1404689341172494 
0.1326806893294831 
0.1407010058660935 
0.1323509904128944 
0.1328309167698364 
0.1308806992536338 
0.1370713767106003 
0.1321689979206576 
0.1374142779706426 
0.1301880081104889 
0.1353129333858378 
0.1277765861140749 
0.1334513814466076 
0.1223888700134659 
0.1381920568612202 
0.1165948720192688 
0.1386409990663159 
0.1227397377306388 
0.1423540564969493 
0.1217987693579477 
0.1367766987178626 
0.1291417921856739 
0.1332953672601274 
0.1292982810340724 
0.1297834141220772 
0.1303712378444156 
0.1343893062821512 
0.1306120503141 
0.1359236615945789 
0.1303285871016402 
0.1369575319267888 
0.1337730195624946 
0.1351767411439968 
0.1344277151741574 
0.1348540845365465 
0.1352880282751583 
0.1363102356670891 
0.1339881509837006 
0.1305529042596358 
0.1342901241518119 
0.1336206973735242 
0.1310516577846305 
0.1280364060232505 
0.1374773217123361 
0.126314127840285 
0.1387659885770481 
0.1318448675472997 
0.1401558083950445 
0.1287256157203536 
0.1336247958737979 
0.1288349656011882 
0.1328728573337992 
0.1297118572361244 
0.1342046420084249 
0.133492232590312 
0.1327983219866542 
0.1351658014346848 
0.1336757973629592 
0.1366371587726445 
0.1331297766751989 
0.1368309251586173 
0.1279315767218451 
0.1393350369507591 
0.1295753595362845 
0.1392074900027449 
0.1245539216851155 
0.1400259711350306 
0.1227653625631909 
0.1407143084084575 
0.1284702696643933 
0.1414176101447343 
0.129891664886627 
0.1402159485895657 
0.1302673254595186 
0.1424013722815892 
0.1328117774858767 
0.139872924363947 
0.1324128925063653 
0.1452512058183433 
0.1259820414346292 
0.1423844974347725 
0.1287851534764218 
0.1417280730076082 
0.1215107120178915 
0.1373403247372393 
0.1246116273520715 
0.1313324313326515 
0.1218766026701352 
0.1332618632467551 
0.1221048852451257 
0.1383626849727203 
0.1261429992249065 
0.1325105577234225 
0.1303669651947887 
0.1312047671786527 
0.1278556910503793 
0.13636728654119 
0.1212842186945865 
0.1425405187772571 
0.1213331240793098 
0.1338545098475922 
0.1229181855030653 
0.1394108880018964 
0.1280513875662344 
0.1409381735899462 
0.1212332778885814 
0.1425689865633109 
0.1224770240392853 
0.1367773357079004 
0.1267804774001833 
0.1429456518637337 
0.1281728855494397 
0.1431597749142978 
0.1271528078382423 
0.1403892714204813 
0.1265187683091892 
0.1451927218158634 
0.1351202451699686 
0.1382266742345377 
0.1277501344887087 
0.1404088809864053 
0.1313488690787575 
0.135534894375201 
0.1349272172283567 
0.1487501788437458 
0.1309314484783858 
0.147563268808602 
0.130879500069691 
0.1464518861950764 
0.1268438406984182 
0.1414024325188774 
0.1335420583359208 
0.1382392569843755 
0.1258830291695113 
0.1421370959987068 
0.1257141363150598 
0.1381136875934996 
0.1321408105402122 
0.1325451491706424 
0.132018281431606 
0.1311459330182587 
0.1282776132293978 
0.134349696358056 
0.1329951412056322 
0.1290936250258933 
0.1318690203306753 
0.133316458942462 
0.1356647915201206 
0.1369755446060327 
0.1317727536274163 
0.1345795372707941 
0.1317895508621854 
0.1330045226838203 
0.1310290840400091 
0.1416493518797511 
0.1307134852723585 
0.1435263016505346 
0.1329735211322338 
0.1471849462874001 
0.1332503117933909 
0.1458317037195856 
0.1342738206472116 
0.139721388777752 
0.1378659938001123 
0.1420263573054748 
0.131081734565011 
0.1504650497998182 
0.127034778244899 
0.1427810228564388 
0.1250175606558437 
0.1402047834101851 
0.1258079878567153 
0.1382888555296998 
0.1342308556339136 
0.1436835289743713 
0.1338656368198799 
0.1438426226656483 
