solver_type L2R_L2LOSS_SVR
nr_class 2
nr_feature 1984
bias -1
w
0.3040238844371151 
1.073632984643115 
0.7513213712151356 
4.154699335776229 
1.928103657527695 
-0.5047879082189425 
-0.8188472870121083 
5.409203682309689 
5.573060037820732 
-5.888400998330515 
-0.8582371956474649 
4.81365194456448 
-2.474997267828841 
-3.070638799169461 
-4.084682766782474 
-5.315627483028328 
0.4275375340304322 
3.989845015706901 
-0.4198358449384981 
1.985271705353667 
7.166031022257256 
0.8463204366996544 
-11.18409135280215 
-4.592188042168883 
2.239036590719313 
-2.057130675277974 
5.566367021675767 
1.081267257087746 
-4.764054286942107 
-4.984414038878899 
-3.65822119384098 
2.498486700170326 
0.1530018877564693 
2.876981054390568 
6.452980746856606 
3.388304029336764 
-0.5790470885256928 
-1.453105288761634 
2.832243779852662 
7.093549450332315 
-3.841798500859696 
-1.340369603736659 
-2.898414229682275 
0.980401844648464 
-4.366119850865912 
-3.381043222071554 
-2.255375702986158 
-1.115796487405274 
4.956454238163223 
1.680241660946828 
-4.978767966827603 
0.5802509910509647 
5.094719250413232 
-6.69945352853962 
3.546340220976596 
0.2548895193952556 
1.109442472165151 
-5.028849999154337 
-3.710547615450689 
1.697773975825912 
-2.583810137487211 
3.05388602827975 
-1.334299681710194 
-4.01818382056623 
7.617754899553539 
5.190291263053967 
-2.027787640215355 
0.944997809624756 
-5.39100472807435 
3.338414959757798 
3.344020858638199 
2.520623259151485 
-2.204479770996914 
-7.510438687417818 
4.915813665194722 
-0.8281836718376758 
5.094955715377086 
1.242943600548619 
-0.3616506072517138 
2.544241683098996 
0.7353371114348712 
5.779028279858219 
-8.156845437218001 
0.2628123080012136 
2.719395508561705 
-3.956995703576349 
-4.039407989508629 
10.5385051341684 
3.826605455794997 
-5.167708255746797 
3.897192149998354 
-1.559157192276616 
0.702821990799147 
-7.631511400450274 
-7.23285367063739 
1.105943820307883 
0.5691950437561406 
5.084191890151355 
10.14405511325831 
1.987536207126277 
-1.854453534200065 
7.290731899725721 
-5.923725148340172 
-1.032111367765903 
1.461241298204609 
-1.046183131184734 
4.163336395280662 
-9.297183042179292 
-3.683617831552818 
3.558897813403628 
-1.959135699075718 
1.913867568543683 
0.4661502282966465 
-1.176633265019529 
0.3217949076787533 
5.860839361928795 
3.290732905600451 
-2.984466803901524 
-0.04498255767408372 
-2.115354162244102 
-6.935006242197952 
0.3394811626272209 
0.924933718610823 
2.734777408668666 
-4.07980669761973 
7.31540729964852 
0.03589858542622663 
0.430445921755854 
4.202837489435765 
-6.488484468407592 
1.983280752745137 
-3.034559614314623 
3.054670444853114 
2.675497646974804 
1.200013849349646 
-1.151714375022634 
-5.62538987994827 
-1.395839124808132 
-1.285927257528336 
2.081656371051938 
1.755658453745828 
-0.3831374411120643 
-6.790727134328908 
-1.087918537922206 
4.919396225721379 
-2.607081640076712 
1.252000328956964 
10.4612391864277 
-5.604918959578135 
-2.545486604088544 
2.966865460933974 
2.199606721673983 
-0.6634175736334402 
-8.128974531295238 
3.335973514247892 
7.453187868219769 
2.313269348326192 
1.56701959629021 
5.102938866372312 
-0.002107684536807651 
-6.558552499920001 
-5.500015398770841 
-5.65713105155634 
-2.409817906294892 
4.369953874669223 
2.382084761110861 
-2.154651344062453 
-4.648005887127339 
-2.58475468468105 
7.54077070372694 
0.4298823995482559 
-4.213361487370678 
6.818154275529713 
2.051419547833781 
3.490237439344049 
0.4998816024627966 
-8.442721878652247 
-6.640725135586315 
3.822257355694505 
2.774049326621411 
5.155155702900159 
-2.126622885142144 
6.893204822357382 
1.67076906089034 
-1.011046563305305 
2.149613061626471 
-6.582014300547976 
-0.6633720442569675 
-6.774981526242676 
3.645115696233176 
4.915594103972101 
-6.120493682300131 
2.474722836035411 
4.274887615054878 
0.2680942171524864 
0.5264481092592614 
-1.950523000645424 
9.425862516515739 
2.449127320161655 
-9.28389278534293 
-2.230369107755477 
1.86020636916571 
6.643636653286759 
0.2697984558366691 
-3.478646882572169 
-0.9886506527757934 
4.347295906966933 
-7.4084043205209 
-6.736685991762961 
4.725387265943347 
5.088209236163027 
-1.03625706321497 
-7.513745967230703 
5.898216540468196 
-0.4868810244079357 
-2.129269355268054 
6.1039024741194 
2.173613913360226 
0.2741661256803051 
-5.873811063739077 
-4.742215943130597 
-3.3360656377767 
-6.4651462045636 
1.274136668397262 
9.157110798183199 
6.151925738446902 
4.760395638619356 
-8.245409373193505 
-0.6750652819826851 
7.662083084180419 
2.691826683974198 
-5.22384658462664 
-5.386239550835972 
1.059132364357398 
-2.205213557023959 
-1.176094226042726 
-3.046405787393535 
0.4858336811072112 
3.111649475125937 
-0.3917372143615961 
-5.453165159675394 
-2.543785268828331 
1.568850260398115 
-0.6653548598148026 
4.746645858452753 
-1.605586424776478 
-7.556878976388445 
1.86218775124185 
-0.1181024698495351 
-0.6048073414828371 
-0.05516085903015626 
6.574239267332921 
0.3006817072256466 
0.5140865306435771 
1.425855593582789 
-1.669204686639968 
-1.480579065134451 
-0.5829720087542142 
5.664523762382681 
-3.126814401477668 
0.8494964943369243 
-2.197021568798029 
0.8164888212227366 
-1.067378522145606 
-0.736786301687496 
-1.184912971784322 
2.515908257727932 
-0.1809087938824623 
2.523037693372422 
-0.8580737420134288 
-3.674526285251551 
-1.03799975461499 
-0.9781220676707483 
1.904017693755535 
3.583309028093988 
-4.191280970767562 
-5.396294146978685 
1.820746934586011 
-2.797159737513641 
-2.259047350257456 
2.326021086444401 
-4.264035116319545 
0.3923195511005849 
5.857910373689403 
4.390143352887579 
0.8137962189345894 
-2.839579505502065 
-1.862679158914447 
-0.3933801376970904 
1.505165807192325 
4.700814981460687 
5.771279362051427 
1.19159857829888 
-1.70023754340369 
-2.453242867394204 
-4.626270312697023 
-0.4617117269298666 
3.079633685348702 
-2.393026999932538 
-1.688016292210045 
-2.192032912557541 
0.1419592827299257 
-1.644141681510529 
4.295621717590904 
-1.395476370937649 
-5.968213313832348 
2.79076854002177 
3.322664996726505 
-3.600844312420186 
-1.023632044335502 
1.81133858735714 
5.715057472185574 
-0.5632888061539196 
0.3541672841101283 
5.65709972018655 
0.2368963764775409 
-4.887086579817611 
2.83636652558766 
1.517805384368834 
-4.444174609106392 
0.6617130433677163 
7.677765344251266 
-3.988961317475329 
-5.46993638608826 
1.499989403485721 
-2.251214225384452 
8.534503075491784 
-2.095342261484817 
-6.187263132214627 
-4.053753198207226 
1.662686509588041 
0.7739342280009813 
-1.055516662552539 
3.000999667062517 
-2.045737777657731 
-4.01508423847607 
-1.640270787222378 
10.76381678234316 
-5.431068911013318 
-2.046641261610252 
9.129874362958496 
-0.07361685123337265 
1.619418647595506 
3.722087299514673 
-3.105335139844907 
-2.661922726656059 
-3.084057016374314 
-3.119008044852895 
4.820009625760672 
-3.832982534278626 
-10.46296591613963 
-0.8219482815613047 
4.953546236754871 
6.567289033127584 
7.383970632287132 
-5.278885607621696 
-3.18693193923632 
-0.3860718779404712 
-5.682914854174759 
0.7898998137720897 
2.075541312910175 
-0.3723590477450718 
4.00809033222814 
-3.859920018710917 
0.1917620510950962 
1.639971252936239 
2.980752378519722 
4.005364302167598 
0.1252265341979438 
1.656124813822083 
2.363968524128546 
-1.77110320404365 
-2.639993531526463 
-4.445919544782329 
3.174369592267257 
2.264453315494166 
-1.471056839009929 
-6.826296956853789 
-3.248729425615952 
6.251647964896498 
-3.689627233888393 
0.8566712589110275 
5.088369252917653 
2.3229594060021 
-4.782054330011841 
1.824276260969157 
1.787752185287026 
-0.278125633315105 
1.144751475972548 
-7.462525419335628 
0.1074779503971927 
-0.1306942659812837 
3.053883261867299 
1.928466388330262 
5.493085041980993 
-0.7539447052915487 
-1.958664267707893 
11.6187737616375 
0.8487349834364473 
-5.54746651411333 
5.704506919010877 
0.33831979185327 
-4.195160357273426 
-0.5647825843646408 
2.326794060244207 
-6.493023991948268 
-2.626641203685146 
-1.171141862495265 
-8.333832710779802 
-3.1976971041312 
8.968433322438985 
0.686923838609325 
-5.534559477009604 
3.441178311489952 
-1.948763821138362 
1.369705458055391 
5.003309572560899 
3.760290903454742 
0.6915227138947381 
-2.945944441482638 
-3.040648580899012 
5.49190610922405 
6.291284171668351 
-0.00288904373832435 
-9.798333716528457 
-4.721127106917946 
-1.744085466917993 
0.5868054626756424 
4.251765673981838 
6.348755047580497 
4.688198818428486 
-3.0385495399294 
-2.93298427684748 
-2.906466543079269 
6.948644707094261 
3.348144601838805 
-2.068283096807587 
0.9122411403692532 
-4.429378654831223 
-8.131213464544086 
7.643269034629953 
1.930940620705979 
-5.881325639708905 
1.367378192900803 
-1.440214081525909 
0.8794921401384729 
-2.072734779139251 
-0.584337365944842 
4.15741694798408 
2.446890563532649 
-4.096876079538439 
1.240513689860492 
3.960934308974451 
8.250482402807124 
-6.126666874733136 
-4.922387891113602 
0.4541927141952205 
-6.044847948557154 
4.482303153301698 
-6.009198843184506 
2.203254423820423 
1.414046747205473 
5.339191874817642 
4.350331836905655 
-5.654805102840171 
-6.513036857519968 
3.835565224460505 
6.05093341948018 
-5.682191471379133 
2.37759405104056 
3.787908756889251 
-1.881473551355155 
-3.584569529393051 
-6.445236117425589 
5.124639150863793 
1.669814501902935 
-3.797293829019374 
4.548257297614972 
-0.06639529897546217 
0.836976206672549 
1.389813506502414 
-1.853402992632571 
0.8510025298993265 
0.4942395290403873 
-6.33029163399158 
-6.209356790419875 
0.2438196940233706 
-3.664604892282223 
-5.993708595492021 
3.912915803606379 
8.067915590517691 
2.697425177704119 
-2.240113627721273 
-0.4721404803992869 
1.700426271243226 
-1.740391702759848 
1.857788319286468 
-2.017196361740967 
-1.906058330316284 
4.303733316838283 
-4.099773749430521 
-1.729815585951309 
1.463514412029947 
0.5063418582494452 
12.20535797851521 
-1.263447292838425 
-3.853216100581326 
-0.4653260822633388 
-1.05251585307161 
1.935609666265794 
-5.594122921452985 
2.126668943715338 
-0.07582516542707135 
3.200938022002971 
4.522803782834941 
-4.998193951661504 
4.991930803109885 
2.613648380402387 
2.063037860764277 
-6.73254702359657 
-9.258333083824779 
3.276076274052059 
1.663936775480145 
0.5548737168227158 
-0.9794693731400215 
-8.491942627778064 
-1.433692493772512 
6.799045024568685 
6.730966515287568 
1.831274870705393 
1.665943814285909 
0.5820567646474433 
-6.78824379615745 
4.955909675373015 
7.159747122711034 
1.163132807018812 
-10.80849055687942 
-4.96526742112405 
2.643875336406038 
-2.803159900111411 
0.5657227073303221 
-0.1750763619162984 
-3.871974363954783 
-2.323550927848508 
1.533385285503282 
5.515550990879735 
2.072105615747903 
-1.16910520279779 
-0.632531065535369 
3.065575986255807 
3.075515778414709 
2.046020761358951 
4.824685346804213 
3.071699287593049 
-2.335442146272661 
-2.469691505112706 
-2.383483126422812 
0.6769061209890619 
4.199298158584946 
-0.5193951968011123 
1.838663698105926 
-2.289556935016434 
-2.613920748483816 
-1.021146458274092 
-4.502443658539795 
3.205598009087415 
-2.022879454397379 
3.817332044998998 
-3.033566782679538 
-3.624820940196846 
-7.330069870650608 
-5.675064282549132 
9.085850471157046 
3.338075900622345 
0.9472211084240946 
2.737578295919009 
-10.79715205011513 
-0.3883544267661212 
2.635344595028178 
-6.902665282633468 
5.986258535186884 
5.424126640595694 
-0.2493569023384474 
0.324416470232356 
-0.4609034078294712 
-3.419349274417039 
2.396044781806141 
-2.942718563633812 
-0.4442493156028318 
-1.375265709033944 
-1.624099279833324 
8.077460798219908 
3.804251488142606 
-4.21214563381285 
-6.154032959342536 
-4.882025851912228 
7.216760919103635 
9.035499755857781 
-4.209906477201619 
-2.373749801958075 
4.929269177662453 
-2.622157226590235 
-4.467612808775334 
7.941263051962419 
-1.504596036092591 
-3.157149811374571 
1.319217875441751 
-3.075439185939553 
-7.846956461209386 
-3.943574621851293 
5.974187639195408 
2.293040646796807 
-2.513304100771559 
-0.6402513170709134 
3.756860206336584 
3.472108260352098 
8.073291894400258 
6.973848943343627 
1.59602490043301 
-10.54145290278973 
-2.98693487330058 
5.828427753665898 
1.779638439864542 
-4.208828576128901 
-0.2395572436771868 
3.437962579677865 
2.047120963972896 
1.216257479095713 
-10.21397239851335 
-5.648334098517754 
2.449327425012883 
2.802438896171213 
0.4936954935143748 
4.355530027808888 
1.868080616539588 
-3.67674126453194 
-2.510549960630911 
-3.703907921490854 
-2.98880179423521 
2.097879682303515 
5.136037952090375 
4.614073339363364 
-2.364918966221796 
-0.8397763942306582 
1.474077586730681 
0.4772417068816427 
4.73571941714582 
2.00823321104632 
-1.642516003970072 
-1.447900155266034 
5.869557650775747 
3.157163989903486 
-2.09682089547737 
2.965820084202988 
-0.4300592383821325 
0.1755576637573631 
2.190340085284729 
-0.4873654416955692 
-5.266134461994048 
-10.60491596410863 
3.549599121679721 
5.442331516726584 
1.79247570158887 
-7.669255189559581 
-0.2293248216321642 
0.1765334838750513 
4.311179043532196 
0.7212045029411938 
-0.8590711725908616 
9.640890294917172 
3.735692368183876 
-6.853010899119541 
-6.772202591719839 
1.137133147911775 
-1.558176362254656 
-0.394601455131621 
-1.985986090957678 
3.888036358445629 
-7.141338681495174 
-7.874521462168415 
2.903230642766521 
1.334277187100116 
6.528689076606641 
12.40962311619074 
-5.21870404702915 
-4.497250396239358 
3.190035261851185 
-0.2947616609014631 
-0.3012359236091831 
-0.06222162191526915 
-4.50769215797369 
-0.06424103274924019 
10.7992771145481 
-6.651666846840067 
-5.250156101351694 
1.870398049938618 
-3.174141411242416 
1.757313939470701 
1.795918377293905 
-3.502539159640346 
-2.380910597394621 
-2.56714405851747 
7.914043713585939 
2.849937834394143 
-0.7142660082974583 
-0.4992104493528522 
-2.228236449105899 
2.743216036654056 
2.735819673685671 
-0.7144634059351962 
5.714171265839401 
3.090481866176169 
0.496544847512687 
-5.674490892508104 
-4.144391682502446 
-6.054923059483227 
-2.84881615129197 
0.3782351541071098 
2.238004127708463 
6.153736002989103 
0.3940365771520021 
0.1434914276021406 
-4.935322976924939 
-0.6828533679961512 
7.804282064062672 
-2.786639829379961 
-3.311106684323406 
0.4882866192480185 
-2.187433480169948 
0.5107056632513783 
-3.060349075644755 
2.687158259105187 
0.3696067058919659 
-7.178387578082675 
2.085224088694783 
4.501470736050449 
4.74791038092434 
3.330861246617365 
6.170765839138257 
-5.618006154631169 
-8.954955559183963 
-0.01556422522664197 
2.250741776048318 
6.652149731444243 
-4.078631897291163 
-4.688368850312614 
-1.360311742658899 
-4.639694897895239 
3.18722677524269 
0.8970547235702139 
1.360454869033853 
7.286563350264546 
8.338558774446334 
1.88614174104845 
0.6540379358830501 
-4.791173704053579 
-2.391547197080567 
-1.009683229341546 
-7.886183000652141 
2.120048874458034 
5.141234165656603 
-5.60556898660222 
-7.175670665528573 
4.414378515218992 
3.164527545406751 
2.80633230638773 
0.05807353347267713 
-1.164387559629259 
-3.020372414634402 
-3.003294456702243 
-1.971703656422322 
0.5267091888959315 
2.374094129555793 
2.7013724442217 
1.777677215299719 
-5.55694827037579 
-0.5692378462740099 
4.826354851090926 
1.739573103457883 
-4.072000832721348 
6.799890663467444 
1.543831365947888 
2.733029375369894 
-1.253643801978498 
-7.491372410652145 
2.025882503788739 
-7.005106157708207 
1.6126633495415 
1.457870948222532 
4.376456532858619 
14.2818935401254 
1.027229529757762 
-5.61471671953205 
-5.138622020207906 
-1.647985839627813 
0.534407482590764 
-4.60767759413473 
-5.223820424364386 
3.338763644262732 
-1.110335831636388 
-4.39433399348323 
0.3468607765240155 
0.1094685928332382 
-0.989258229586265 
-5.919079081663316 
2.490299051002539 
5.48223487786164 
-1.594489128042164 
-0.7939545116624345 
4.002746742990515 
8.083166166478589 
-1.182938902435179 
-2.733987918963483 
-0.5361064009417018 
-4.244369740819979 
-7.366549221625696 
-0.6404439204643292 
2.158549241367806 
1.468340976448162 
-0.1317032361210026 
2.192589581709207 
-1.776635411030422 
1.416411914047288 
-0.6151434004233858 
3.774382201463285 
6.785639202177778 
-1.781975551974198 
3.583449010172882 
-3.389515313787165 
-6.748931124295628 
4.321924181357354 
-1.870919396931078 
-4.302938590652857 
-2.265940834442719 
-1.400849837933921 
5.963086010738352 
3.914512724389406 
-2.859030500109597 
-2.18189719602121 
-6.38231883837921 
0.7885165706749234 
6.98868465375215 
0.5655823771514518 
1.046780904112215 
-0.3871280592937533 
0.9446774106551259 
4.010793375959071 
0.06811327530422455 
-7.366903340676217 
-4.466162307423649 
-0.8346658172929505 
8.6529199082257 
3.08791201552876 
-2.004730722315699 
-0.06942169235779423 
-0.8704362753741693 
1.487103526217422 
-3.174600184905282 
-0.638238435720787 
-4.358562929156174 
1.16666577685637 
8.335346042209391 
0.943110617382008 
2.723821856211767 
-3.792097159739298 
-0.9609172546484473 
0.751891186984546 
-2.050651384032325 
3.311821842405478 
9.487020888322473 
-4.262015140010778 
-4.752652536730271 
1.031772809425616 
1.419732700141735 
-3.067109516774173 
-8.023642245340559 
9.799515517287727 
-2.970251435177337 
1.296398771240425 
6.793000266374102 
3.553116529715446 
-1.573569500021557 
-9.092704253188433 
6.235043541849535 
-0.3827888927895302 
-5.619084942483978 
7.617052603304907 
-1.722304058433122 
-6.457367454764706 
0.5996394176548563 
6.337141113064666 
6.409090204801134 
-4.224728059523891 
-0.806937239238486 
1.994097764586972 
-2.193090830155107 
-0.6400614323560332 
2.070608795003656 
-4.119616616677366 
3.330070996973473 
-2.165815445557878 
6.201776822267189 
-0.02648732595147558 
-2.221288825208076 
1.614509007880129 
-2.594784474916725 
1.370694174296129 
-5.180884753044725 
3.203584531219065 
1.587134892689311 
0.5351383828192148 
-0.474250019993984 
3.37064559694214 
-7.140784947864505 
-7.05891405349114 
9.266760823399466 
-1.423999267503315 
0.887509580387374 
-0.08848094147524364 
-4.618019079738073 
0.4811291540178892 
1.140283112647775 
-2.045234072693421 
-1.873158635043637 
-3.223556294588439 
-3.624533996445747 
6.946252229185466 
8.421504706989092 
2.344750799551311 
-7.90130719816233 
-0.01092430736776778 
4.218328746372597 
-2.089585441445453 
-0.1405740352340813 
-2.18843465176468 
1.843809425762034 
-4.653135019694457 
-2.248757041251265 
9.261273986899335 
1.027266491009418 
-3.2977099198015 
-6.2362186176603 
0.1031410019487611 
-2.096085265853939 
-3.109503392862385 
4.065979244451541 
-3.040641826447432 
1.29822207366375 
4.182336073585601 
-0.6260210078455218 
0.02066881452090401 
3.918070246962724 
-7.709649046524857 
-10.46240045591051 
6.831169605160406 
-1.720764129709043 
3.912643074330931 
3.277721660719362 
-3.526249398062768 
-0.4540386001512222 
8.657616022960864 
2.599646798669784 
-6.127445634855521 
3.541734480818079 
2.357377225449945 
-1.856285052156401 
-4.507372509506948 
2.795411685930143 
-1.587316733763004 
2.336778669737973 
2.529222742572649 
3.435293957150872 
-5.404403621229348 
-3.649677944539804 
7.228237954906038 
-1.623467466382704 
-5.272235445321288 
-6.70604192253268 
0.2054639188677383 
6.646756574941415 
0.1001815502303508 
-8.186801716647373 
2.501472073334842 
-2.666467617820547 
-2.816605010442379 
3.803464702487185 
6.991570135030654 
9.668307079728224 
-0.6158047332680623 
-5.981683429511748 
-10.33545491201179 
0.6952962777960358 
9.992043224581224 
-4.52796152416053 
-3.1772392829654 
0.5327845160531884 
-2.621920449081741 
3.774820935275648 
8.353379403760924 
7.251984502150513 
-5.565134193133529 
-2.378030873681626 
5.362724087699256 
-1.64008149388052 
-1.725184748254273 
6.920896286543456 
-3.598895252674784 
-1.90237857531731 
3.625699975655812 
-3.757510781665664 
2.574931981110148 
3.675757505062095 
-0.4755144002234868 
-1.658980379847101 
2.111860899016816 
-0.5589236715447677 
-3.512338636205422 
3.809263355385951 
2.462744766441511 
-7.672273795856032 
2.583346309501568 
-3.528919904531914 
-9.284463604805291 
1.827998271878799 
8.578431014559786 
5.133761813340279 
-2.506577739098784 
1.895073773725868 
4.314214005983372 
-1.247255057424951 
1.046605717539726 
-0.575370665821197 
-4.389550232152968 
-3.144152059469823 
5.172610256038603 
-1.453196910464242 
3.258904418666391 
1.127252299672854 
-4.700709210276633 
-2.95701934761765 
2.383083795786622 
0.9487943153936407 
-13.85573190053474 
-2.930701145109448 
4.323436708156502 
3.356683708346129 
6.093786926101439 
-1.116921229224149 
2.967698115475174 
-4.742408703658184 
-5.820508048377086 
4.636754924702253 
2.058184235815737 
-1.588707237793708 
-0.8069288016571995 
2.995228322096163 
-0.7492788994773038 
0.7213222467408675 
2.759296777710988 
1.591256480078822 
-4.85496453755837 
-1.395606641818312 
9.39304975985738 
0.03957290804453716 
-3.80346825046961 
2.224985408009375 
-1.101275959301485 
-1.051733580068837 
1.267371717631748 
7.736574076561874 
-1.828685583801078 
-2.353450036209833 
3.747893546630006 
-3.144027393235678 
-5.340135541818854 
-6.9660763470891 
2.072487478647026 
4.08432052120018 
-0.5559809697780382 
-3.692475489058491 
-0.2742012169657668 
3.760450183456006 
2.037511708243508 
-4.361799370552003 
-2.407084756306082 
3.043727054859874 
2.272120423082826 
6.486812650552282 
-1.665618968350888 
-4.837318393704918 
0.3209848010367897 
5.057640180541509 
-1.272445979830484 
-2.860478897648849 
0.8294984046911995 
-4.550598389489762 
-3.700834968819482 
4.385678202051063 
1.572446536327796 
-0.8870829821186217 
3.412238754257986 
-0.7532625030326731 
0.1492877226946667 
-0.1719927883120833 
-8.894628751856814 
3.336758823690219 
2.610048043589952 
2.494204613597412 
9.677701196677511 
3.68435789896988 
-3.305844579915341 
-3.377496656387554 
-4.018198415199183 
1.720172740809292 
-2.925975858804168 
1.12750526146494 
3.703393045515747 
2.166990573959679 
-1.106434373504347 
-1.565472351944576 
-3.588676741541587 
-2.176232431146434 
1.544984741811229 
2.95894572400046 
3.050066844133159 
-2.744429372035067 
2.279798628629835 
-2.9404437737572 
3.061443486639313 
1.845097644057071 
0.8384963608086425 
-3.247024027353727 
1.339786498934895 
-2.071237134357189 
-1.445576421907818 
8.814741993942045 
7.265902579999507 
0.3367820651047443 
-9.260838382937299 
0.6521027868575764 
-2.842084763322408 
-4.007247842350855 
-2.7449670130619 
1.081150254321623 
-0.8262345445889561 
1.853829929670863 
5.122895717229102 
0.152731062462932 
-0.03365693232724679 
-5.138703465450353 
-5.20503431641357 
-2.039688021094622 
6.318826850801297 
3.572326397327184 
-8.496555320162358 
5.632822795833731 
7.825071681365021 
-5.61178724900094 
2.542395052157951 
-5.417603856753339 
-7.716593439066619 
8.049069853534659 
2.411546545447342 
0.7841019009255848 
1.748518046016409 
-6.778357857723923 
-4.701142094519177 
7.693518545115244 
4.175255808697095 
-5.308089199853004 
-6.411283117969242 
2.181635497436191 
0.777834783696545 
-0.9213248641778722 
3.083630629215328 
-2.712940068760727 
4.572327737332211 
1.628539259842863 
7.28608677918823 
13.81481939168123 
-10.16396115730472 
-5.321241594315589 
4.422275648720285 
4.106340125443522 
-2.434583078602268 
-4.512758563594029 
2.466264416751059 
-1.744257536528295 
-2.022023808034255 
0.8098374128836945 
0.8015323279905432 
-2.90803011311383 
-5.328450511777004 
3.835892882449316 
0.673716009584318 
0.3891463740229923 
8.872424816596769 
-1.149532493277667 
-7.455006442115089 
4.935176863046589 
4.543647654496091 
-3.770813663643566 
-1.494941330791092 
-0.3370876526289763 
-5.769087167655703 
-0.3798504192803803 
3.365931359123923 
-2.741354596567727 
-0.8834323870674414 
-0.1867251191614945 
-3.937156437336206 
-5.556546733390441 
-2.326280063920368 
0.3278070899334787 
2.656394648875526 
1.123794499971585 
3.92438334868293 
8.448991246924288 
-2.151974215994741 
-11.06595452084444 
5.847907692542972 
7.716570926983275 
1.331297840782805 
-2.158137441200209 
-7.13091034024228 
-0.2677111374027722 
3.408466159797283 
1.2671399628084 
5.944946614908256 
0.1537434528987258 
-7.380543980991069 
-3.653098857900688 
1.432338408114846 
11.66819434265065 
-5.257996633303576 
-3.129035183687584 
9.215211602682764 
-3.918510448596793 
-4.248245964115003 
0.5758510150529489 
2.766227293125339 
-6.070265757845895 
-3.119979020704055 
0.07010295499130523 
-3.463126658403054 
0.691504842531352 
5.164686800728588 
3.531614377803984 
-1.298637301261023 
2.710837994805591 
4.43012765811162 
-2.992609570951035 
-1.341572551060279 
5.187909583697693 
5.022784184129391 
-2.670230468463175 
-7.0109337377996 
3.535341378824769 
3.48655715933319 
-5.822408278560982 
-4.414465733680965 
-0.2858563578586351 
0.5550890865890475 
-6.989799834364725 
-2.39994254436678 
2.806970208292067 
7.124048052824046 
2.392504846505904 
-0.2656201623490485 
-1.729577931367748 
-3.854976286766294 
-3.138097101970697 
5.602404075262258 
-0.3016915377732459 
-2.045261043071115 
5.05989319767315 
-4.810619665551223 
-1.351113888291214 
-4.868317597187279 
-1.782393975850349 
3.654679189204407 
3.447193056974557 
2.80203499800545 
2.33620909577144 
-4.24822758442683 
3.782559606829774 
4.760657756226911 
-1.737367863074213 
-1.997080230689013 
2.379677503543431 
2.780347060045379 
-8.12578774144986 
-6.365058910988502 
-0.2763958229141116 
1.359955029299073 
-1.880467903450786 
3.592152121021964 
-1.64730102590406 
-7.579470678201588 
5.295046981744145 
2.209078416302594 
-2.806037366826289 
6.471659685048871 
-3.616809817140076 
0.8021717087565353 
7.432849562286422 
-4.739193342178119 
-3.542841252175008 
-3.631236902312896 
-4.398720511779778 
-0.7963498650959679 
1.145854401974413 
6.093804977207909 
-0.5188018674066461 
-4.155091867081449 
-2.933176038159916 
-4.63422311960061 
4.018080980675211 
-3.119807514356317 
6.687626152237804 
9.096176425568938 
-6.959474086335841 
-0.02253961970901614 
6.629098819662148 
1.449968746464815 
-4.975932889392754 
-4.048340455408686 
4.76461438974207 
2.604117604514472 
-6.219139961742566 
3.364817653117975 
-5.574359093077246 
-1.899426949171251 
3.282744039280856 
-1.923590456018807 
-2.419539952808841 
2.667948232709948 
-0.5787486226644658 
-5.415318645641154 
-4.393909070301039 
-0.1469582654629025 
10.15054453132843 
6.016526247365301 
3.81650385605214 
-1.635038925103662 
-1.478151615179826 
2.708583523231231 
4.242733861401712 
4.577280681086215 
-2.950193957211598 
-6.834140526698057 
-2.637181191011627 
-1.213213205889736 
3.307369950796647 
-2.712399564624714 
-2.241380983486986 
-8.730873238029403 
0.9061101974180633 
7.173568392419579 
-7.441426265552398 
1.294129594604597 
2.426511897108759 
0.1738706955320911 
6.620271157710556 
2.060965258646115 
-0.9339787285391328 
7.544931587010272 
3.414779809333716 
0.6420241895024972 
1.426956340333187 
1.446472421060219 
0.5315194674154585 
-10.51352069094939 
-8.598740558923275 
5.974927125279316 
6.169381726017039 
1.880954617462875 
2.223426915219288 
-4.95914072958272 
-5.521905471249267 
0.9821348147823992 
2.937350629223433 
-0.1746372502620313 
-2.831140265373575 
8.263952169688956 
0.2173923004030852 
-3.68191367603184 
-5.201077323358106 
2.876048834776155 
3.577295926867895 
-3.653911760766001 
7.722239408116849 
3.714843437505412 
-3.007036749545811 
-4.431847519000777 
-0.2752064064471575 
0.3331300378288305 
1.830781546683113 
-0.06105129269568706 
-4.392177968599503 
-5.235875866929553 
1.303764522394329 
1.889934364415918 
0.8893474078148598 
-5.022727728705263 
-0.1707964375618519 
0.3908072710691968 
3.960194634972531 
0.5832385348237341 
-5.905276289242125 
1.291463165329703 
-0.1837885103222797 
7.808529567593387 
-3.917041599791204 
0.985028914370266 
-4.803907181685805 
-4.814727641785181 
8.810644074541173 
2.015786327993984 
1.778940188011873 
2.561789346263781 
-1.345299450502518 
-3.195444326495254 
-0.3829831605589127 
-2.261204490540554 
8.637104776234557 
-3.011807884612536 
-1.932758962857265 
-4.377355810408678 
-13.12798458525674 
-1.864462511486996 
0.2686567552380693 
-0.6728778430577723 
1.765743407021964 
5.422298454889586 
1.991456968999755 
5.939693056312522 
-5.192066874767247 
-1.343265053043082 
3.443967266233495 
-0.7619283648083306 
3.384364174803216 
7.055357431287238 
0.7631236396378501 
-0.03494961925520602 
-1.756678446142634 
-6.166366088871421 
-1.942090460183121 
-4.001550391068263 
-1.853731701747015 
4.095277993527572 
11.20468687035652 
5.533438751508272 
-5.637744849480118 
-2.429003676062415 
2.642896923597575 
-0.4781921658737668 
-0.2832059147776724 
3.16259821573186 
-2.958372831144225 
0.1223874735065234 
3.359910341468407 
-4.060301009672854 
-6.392975999975749 
1.961575487874156 
1.344533210544537 
-4.027872229563896 
2.22415370531693 
-1.76865186581681 
2.320551627868854 
-1.529336471016833 
8.216951918956759 
4.757962269780062 
-5.963898860778704 
-8.353965488970651 
-2.85842677155976 
4.326640514490579 
2.068041674274019 
1.585951377544538 
-2.061540631368267 
1.843714758451137 
-0.156402074322105 
-1.170429398747648 
-0.6692323411596588 
2.422372383562649 
1.565382551466035 
6.224365665390033 
2.297393109603297 
-1.955574009703291 
-4.362572705392319 
-4.744383642137343 
1.163592777875362 
-4.687042752686074 
1.956490973771627 
5.089868790893274 
3.930592418021797 
-1.833838020620816 
0.7857266462591856 
-1.18030034623709 
3.400516828884935 
-1.494338096432798 
-13.27114463951169 
-2.505998479240484 
2.668006694108579 
6.479430648095724 
3.903991888453648 
-2.883851646748491 
-3.577558706894602 
-3.788313725241924 
4.463347609543696 
3.422447708095027 
1.622660381237107 
3.502630473253093 
0.05752643788572179 
-1.629604768473863 
1.052963132724167 
2.321844914864199 
4.676791726429133 
-1.531594869582783 
-4.940059535461076 
-10.31234672392088 
-1.845413969927134 
-2.727980569551282 
-1.874522396260425 
4.883495638836497 
5.473666621045301 
6.205949269562243 
0.07377456975737563 
-10.27173226623412 
-6.977588140633889 
0.618275630743266 
8.417288360056848 
8.100812777194237 
-2.150016207220034 
-0.5496896612867689 
3.917304240407701 
1.783764092417581 
-6.407777148317298 
-6.985130801449436 
-1.354933431614886 
8.737821508714999 
3.6988327533168 
-9.971766516538453 
1.219568503515452 
4.514270731012765 
-2.955774225857799 
12.68585105351057 
-2.410252348259222 
-5.338657258029068 
1.972004179082645 
-1.740549298790881 
-3.14205863599603 
-1.123773493503117 
-1.445358155194243 
-4.998250420448999 
3.508026042301808 
2.424624954614957 
-0.4836093955750463 
4.142839771241552 
1.254152755711715 
-1.687842671884896 
-1.776613882829138 
-4.344162750777991 
5.330705256062917 
1.489700053958384 
0.6465288957371758 
-0.6085582825138686 
-4.114708151394364 
-2.474291042775411 
2.757493714947172 
-0.1043084492181128 
2.857511856062366 
4.705808363944333 
-4.000992752780254 
-3.182529548562664 
0.09316051383729311 
-2.380677417140905 
-1.464424787997666 
1.656901249521356 
2.482992801160398 
4.882407361868127 
-3.544864444858114 
0.7651662074430747 
6.825907373639839 
-0.8787072171712419 
-4.569124350951954 
-0.4975032840604306 
-4.713722368449432 
3.11611384380053 
6.894651288945968 
3.605258126787104 
-0.6396347247911084 
-4.869354597637209 
-5.068748913745737 
-7.128345298267537 
3.43512561551675 
2.761368928846024 
0.1116802322894983 
0.7266803714179815 
-8.626950390064163 
-2.110671786826921 
-2.795135346142099 
-2.422492380521754 
5.620667102568778 
7.478416768822922 
4.265013179037552 
-4.740882302584559 
-1.832883680531694 
2.999034271110402 
1.562031629288606 
-2.460216748677888 
1.371063782584851 
3.316028824189083 
-3.657106024649984 
-3.226227243917568 
-4.763429829329995 
-0.4275781069691864 
9.15874821028388 
0.07560313685789893 
-2.715491660760432 
1.544920070793803 
1.170022655060868 
6.106244823862696 
5.539462837661555 
-0.615679957814434 
-4.330046734845836 
2.599125246481137 
-8.256806846179806 
1.397275513189696 
-0.8454413281091236 
-10.21886773753495 
-4.35217619072581 
1.545177470250811 
4.845306047408119 
5.851298072241571 
0.1724693279586806 
1.760903541678471 
0.06400644778905591 
-0.9452309510526712 
0.1173834156621447 
-3.37294675132454 
1.535996394712886 
0.533026965730883 
-0.6746376407161442 
-1.586266719093056 
0.9765493915901908 
-0.01324624366480189 
0.0614537801453427 
-2.037213652899601 
-3.278893655224568 
-3.303166587673703 
1.496003117915899 
3.907975595588784 
-3.921072397874275 
0.9282134623876255 
9.360914826025558 
-5.801432834308303 
-6.2553697393843 
7.964759417548743 
7.253146366580711 
-1.453962706318065 
-0.6363805164002256 
2.045939533345516 
-4.379125116035891 
2.616124645967686 
2.687951547026832 
1.475520171817419 
1.558448841546381 
-3.257816615242905 
-3.407414415493449 
-2.984567681081758 
4.25253108291115 
4.161709284558406 
3.032867813988717 
5.216043901312957 
8.482499773614819 
-8.371404281938021 
-11.20663183459401 
7.354465938332297 
-7.889611270561621 
-0.584312887162781 
8.980106083310094 
-7.552500041137781 
-1.632946867096745 
-0.2742735308737695 
0.3945002371086313 
4.720361306697878 
-7.22728675830382 
0.6497813667773989 
0.3192937472804785 
0.5587855115162067 
4.527358377420712 
-5.002094026080585 
-4.143596319941288 
1.517393085166792 
4.881409255519768 
-7.710715194522956 
-2.462883362401178 
3.257270465225066 
8.41513294313903 
-0.4680524503394341 
2.622416796498383 
3.065576970486425 
-8.397437935908298 
1.501790417981686 
-6.641810980728205 
0.8617373938740115 
4.622417643325091 
2.350244755747989 
1.032189897550767 
-1.654575960755582 
4.928946760558185 
-7.278720709372986 
-1.300954427286301 
6.966820903378942 
0.7110834314729753 
2.781549277742561 
-2.856841334365976 
-11.83323600553506 
-1.129475680102898 
7.518537516229578 
7.526478744133908 
-0.02850121200660469 
-6.739664591625871 
-0.9679027426612271 
-9.17219533591004 
5.486343273921416 
6.229181936757008 
-1.150851627028978 
7.117631245494865 
1.935356656342464 
-3.036557929664672 
-1.637656050119091 
1.428825483048927 
6.059036174913548 
2.257041915693828 
-1.925012800344981 
-0.2921557186064472 
-3.439985853526746 
3.953375392884479 
0.580216250813457 
-2.47208172807529 
3.376900065201715 
6.325283509743723 
-1.698681960478082 
-3.694161045241978 
-0.4808110747333544 
-2.766817985406338 
4.656680215405671 
2.897836402073597 
0.1850868168625001 
-1.727810543003585 
-2.247588705779529 
0.9156793884434693 
0.6135771544997004 
2.891487352795045 
1.166865199169949 
-10.0974473256973 
2.441713875471081 
-1.55003163387792 
-6.987815208441559 
-3.399917840710211 
-5.316872999462664 
1.15520484871617 
-1.641516217721336 
0.5932072262838783 
3.428798130292401 
1.075367425878967 
4.277773182615402 
5.292805069130836 
1.736651922273537 
-2.448128382358057 
-0.7116738351569341 
4.742472777283744 
-1.943062194530888 
3.141878292505663 
3.80910759890266 
-4.348048527319003 
-1.793737214485966 
-1.580704179979531 
0.2538232758924219 
-6.06710429739624 
-1.685189844391174 
7.226279257435817 
4.080080317726878 
-2.588144321352068 
-5.160931792206645 
0.626768690608005 
0.2139257101983942 
-6.93253266304523 
-3.591663235217716 
1.508726392879034 
-1.466164862178295 
7.789734836831311 
9.44349343503008 
-3.947001307679251 
-3.237060616469189 
-6.636638790656544 
-6.79281473919251 
5.60035203970903 
5.822439755002048 
5.487952799782296 
3.472550982514962 
-2.236034944665271 
-1.749468154701858 
-1.248376560319357 
-0.2322962964063328 
0.2881120029838766 
-0.5448432549265122 
2.530123874357354 
3.704982411755068 
0.6074087426029183 
-1.573068453994427 
-5.291353541610857 
-2.547828013957373 
-0.9998094171051104 
3.868270876525547 
5.074757675090458 
0.3864297758783889 
3.148815903219489 
1.886498992334736 
-0.829159992606924 
-7.63483446793652 
-0.1020691955941978 
-3.234142779918272 
-2.193966030037414 
-0.7744738804775374 
-1.6847553235792 
2.860272553841616 
2.883829817188873 
1.727240565555481 
4.071255043582673 
-0.4349740556474934 
-4.200905380491074 
2.819718957691927 
0.3260394377161769 
-7.184225646058938 
4.037948755048084 
7.11348877024245 
-3.475252990612208 
-3.368370508056126 
-0.1881094736856271 
1.121143654826253 
3.231827358221924 
2.355006273137174 
-1.504757181137699 
1.817819512867314 
2.964753409790668 
-9.323612474779932 
-5.128975769565915 
0.5631184853298226 
-2.112906144941179 
0.5915355366862786 
2.852005465474375 
4.278944840273712 
1.226516600734896 
1.425204729830556 
-1.395991307564987 
0.8700713215825017 
-2.898637614301627 
-4.13189876943333 
-0.7793287755377458 
10.40613444779353 
7.125927549269559 
-6.292260924132292 
1.423283849267074 
-0.03464490889800724 
-1.678127414137008 
-7.504226869968771 
3.888230528900485 
3.88339970209986 
-0.3806702583481212 
1.777172823474519 
-1.189311254358321 
1.645606804644253 
-5.390636374506613 
3.422639304681507 
0.8073675755313592 
-1.240249269253759 
2.63552592317442 
-2.755322310927047 
5.041363264184168 
3.025153002230791 
-5.639976963670073 
1.891348662810989 
5.098495702174239 
-8.699693283694685 
-0.3612486857870939 
1.618772032711694 
3.663329887931436 
2.969328695090231 
3.11997273921166 
-2.837679618277983 
-5.649974534077531 
-0.2661583491462133 
-1.966931071170171 
-0.7975543890173095 
0.9950502539866719 
2.375278765779747 
-0.2716945492185166 
2.217679837833662 
-2.496898220862501 
2.185536304750137 
3.699201614674039 
-1.031250741117899 
1.739535370200112 
-4.54157689694514 
-4.076537042552101 
0.509105881028469 
-2.19455809592935 
0.06954943221392176 
1.948144778268829 
-2.438673871918972 
-4.574473113966612 
-3.067153568106855 
1.167302484345337 
-1.175890264898475 
-3.821824374008114 
0.4518592403716417 
4.606223039515295 
4.431126066084443 
7.766578030272347 
1.347129920230223 
1.979377286935215 
0.5760795638487386 
-4.290394796490165 
-1.508179167742957 
-1.248679255709476 
-2.487846512111823 
-2.371043988128558 
-4.559997278844097 
3.65389875451008 
0.6614426804150997 
4.510744533260166 
0.6688413777953512 
-5.691851085447531 
3.022770740097353 
-3.290188482968378 
1.621249017787774 
-1.110554565859914 
-2.162940422562868 
4.132133234198614 
-2.850558899227235 
2.338451853865942 
2.750420704755037 
-3.180254638628138 
3.496825753421186 
1.147953937133391 
2.240946877401098 
-4.991850497495316 
2.809764664671212 
-5.708964382296674 
-5.781368666927492 
6.763049043710457 
3.423421687425275 
7.385759551964434 
-3.811101033100765 
-5.813154262276687 
0.6850245929148973 
-4.466336458782592 
-0.4689054322329619 
0.7893804099885864 
3.053153644750018 
-5.814417188203109 
-0.775050677013123 
4.525308516987233 
3.948889118289749 
-0.3493208172661341 
0.2646391245585824 
-0.4128791452827664 
-0.9114086464515238 
3.790500466611393 
2.96585866755262 
-1.266612905325466 
-2.484313278853274 
-0.6957091146981055 
-1.527419590652534 
0.6301279688556883 
-5.392452003073831 
-1.061782215603308 
4.32640418718398 
4.870308079410601 
1.496337944151892 
-0.2096608448906655 
