solver_type L2R_L2LOSS_SVR
nr_class 2
nr_feature 1984
bias -1
w
2.999615256987187e-05 
0.06549025071624713 
0.07930823362205744 
0.08023583250790062 
0.07915238553782163 
0.08049705021608126 
0.07898943000666499 
0.08023317028203096 
0.07930841852143698 
0.07955626385555199 
0.07835475858018769 
0.07931075461807453 
0.07859989255579354 
0.07959352012146396 
0.07850513647090346 
0.07997265817738684 
0.07870910784478634 
0.0802735542990741 
0.07857147808643153 
0.07952459858424839 
0.07811020202094533 
0.07996398984233019 
0.07801681699327437 
0.07925929175549953 
0.07850032694480462 
0.07920658732563547 
0.07862331630575232 
0.07902276740951265 
0.07833644480615652 
0.07955701818275006 
0.07904875732926053 
0.0801313181308458 
0.07914738103197197 
0.07971151964151384 
0.08007480327431218 
0.07998648371184466 
0.07973866405858085 
0.08006951597638298 
0.07942791254720473 
0.07979206201161838 
0.07909222633290007 
0.07995774753716413 
0.07911897734765123 
0.07979660999854923 
0.07877938927860946 
0.07972240640891617 
0.07867234228161391 
0.08019063316833536 
0.07865678927390277 
0.07948547079727293 
0.07860295011940265 
0.07940185896576213 
0.07917020124332849 
0.0786639674419423 
0.07915564424321404 
0.07934095340102892 
0.0788632383232305 
0.07942903309257378 
0.07876368151323516 
0.07936152086972859 
0.07868126999133475 
0.07970936170636564 
0.07922635255176437 
0.07963188063086761 
0.07942348998325724 
0.07909578808216251 
0.07897904995421268 
0.07994042019124799 
0.0792718998033453 
0.08051753461319208 
0.07941537050523322 
0.08083890109039445 
0.07859358091654822 
0.07922479617362398 
0.0789701493235858 
0.07976316677801994 
0.07902428929716299 
0.07933310881469634 
0.07872844651917638 
0.07963063809654915 
0.07883187099644802 
0.07932944764621931 
0.0783504645204073 
0.07908675215664308 
0.07852746910197282 
0.07938414057490241 
0.07882607663217317 
0.08003505055548378 
0.07937647726892981 
0.07857953852125583 
0.07925686491200577 
0.07851973096233997 
0.0790602630159776 
0.07859121895233843 
0.0781968402625344 
0.07975110625066167 
0.07823172217207629 
0.07972146483724875 
0.07877951705567855 
0.07966900023832246 
0.07931988963618025 
0.07942548963163397 
0.07951335583719411 
0.07928685759613771 
0.07943910225581807 
0.07886911916268491 
0.07880069825526559 
0.07959889289864772 
0.0784969104403971 
0.07942375937099859 
0.07810255142493716 
0.07973979808229932 
0.07904263391384775 
0.07935727132120722 
0.07829703378711111 
0.07965471009383104 
0.0788924662891998 
0.07947203453536007 
0.07834307090408933 
0.07940378017177607 
0.0784976506235027 
0.07933843126947622 
0.07841525769269798 
0.07964023290950129 
0.07796066163405041 
0.07937713630761067 
0.07865614844260335 
0.07953960707088838 
0.07897947013810919 
0.07870173878950455 
0.07868407478510678 
0.07852409706935216 
0.07894585529765157 
0.07859140325458723 
0.07847117318264639 
0.07847028424477327 
0.07787358169280591 
0.07858435115492939 
0.07791821550095412 
0.07874878145227684 
0.07818332917595763 
0.07921314010201341 
0.07782934167332604 
0.07932589178660086 
0.07872287456157667 
0.07870779757676589 
0.0783330605072676 
0.07945207345900594 
0.07908176307244444 
0.07933413297770978 
0.07949764652712731 
0.07982780868722156 
0.07900933305539946 
0.07962848646802025 
0.07924637125082382 
0.07964727047875393 
0.07904347774471038 
0.07926264566771229 
0.07904162503738225 
0.07852890599235716 
0.07898714353556686 
0.07873892594345044 
0.07831486415837165 
0.07861815320951426 
0.07817783175063107 
0.07910150273737476 
0.07809860688051438 
0.07822583112000682 
0.07879628385229101 
0.07912991521635762 
0.0785330611081749 
0.07827848891344806 
0.079427186697128 
0.07840737310956127 
0.07935846003153312 
0.07904226690609088 
0.07865899195453122 
0.07871110711471992 
0.07784403851450633 
0.0788112226887443 
0.07851701906786213 
0.07896240179920962 
0.07849406938959777 
0.07850284080181452 
0.07837363656517309 
0.07800542546317178 
0.07792028506052134 
0.07792943577594177 
0.07822959877101041 
0.07881873903052265 
0.07840552392881001 
0.07822087575564379 
0.07857028306594771 
0.07864751094661698 
0.07861135252096667 
0.07851843920480667 
0.07910081116558933 
0.07831533335791334 
0.07899804835468267 
0.07791791526753734 
0.07861044743160228 
0.07770634948507844 
0.07900669229517901 
0.07817262751796498 
0.07840314366252613 
0.07851006954759415 
0.07859173775789001 
0.07748442484419144 
0.07832133178560596 
0.07803128853501613 
0.07858421146456152 
0.07777664676697738 
0.07851515307506861 
0.07789791000219169 
0.07844449142403805 
0.07842977632259605 
0.07888848565127771 
0.0778972719636004 
0.07827651595555153 
0.07845099260146142 
0.07829435575064135 
0.07766852507165226 
0.07806131478408257 
0.07849037607613286 
0.07826158991800462 
0.07875485177039941 
0.07767971640110384 
0.07813370604839058 
0.07762387922382175 
0.07890305503074276 
0.07771084690100176 
0.07818744993047819 
0.07762954730078668 
0.07861977182371864 
0.07767003542865726 
0.07865295090564682 
0.07762539770515578 
0.07884274372670708 
0.07770203140443159 
0.07847805711315622 
0.07713286141941007 
0.07814994882281523 
0.07823078998650589 
0.07814710592197698 
0.0790933742356342 
0.07829183011907462 
0.07846987711117186 
0.0786575961145078 
0.07904084733374715 
0.07869025205397309 
0.07887551190946815 
0.07900520036168278 
0.07971389279207705 
0.0787740487313678 
0.07987388490555929 
0.0786634056993456 
0.08008884950721053 
0.07819422786265927 
0.08012167966010116 
0.07798224315202663 
0.07915492384220942 
0.07843463870668924 
0.07957643045439243 
0.07827075504777613 
0.07895320200933145 
0.07821054919802661 
0.07889835290776254 
0.07799255117723579 
0.07851867397694591 
0.07783579876879082 
0.07813879196672317 
0.07778674965650595 
0.07850244264609965 
0.07819873918550807 
0.07867311495193512 
0.07854522746198048 
0.0778950021269609 
0.07866929721072706 
0.0778211542709755 
0.07821191455855327 
0.07830812594452137 
0.07809539925029438 
0.07882731369072199 
0.07809966029402886 
0.07922066155675896 
0.07917421225145518 
0.0785403721348262 
0.07854335803958307 
0.07883867689166883 
0.07827591526005548 
0.07870028554415853 
0.07837633636722141 
0.07807542333078918 
0.0780650019442769 
0.07842992578393264 
0.07787803174141192 
0.07867260262537529 
0.07825902181416165 
0.07789307544159872 
0.07792508425231699 
0.07816951938679789 
0.07805883639008011 
0.07822981465870459 
0.07787181196612372 
0.07846400857196395 
0.07732603683652221 
0.07846224803936669 
0.07751079569877804 
0.07847834989555125 
0.07793137035739954 
0.07875593041168009 
0.0778204745113921 
0.07875135379269323 
0.0779515304844333 
0.07855600312256336 
0.07746638960785607 
0.0784360662705577 
0.07767518425723031 
0.0785492527322323 
0.07726847451923421 
0.07888738518752909 
0.07771683769587723 
0.07861535329274619 
0.07772264950905206 
0.07876857209277534 
0.07784032063058789 
0.07923712918965049 
0.07775042374468971 
0.07865895590122912 
0.07792965245713666 
0.07917997449195673 
0.07792153596087169 
0.07862606259962539 
0.07796228370427416 
0.07854505112351878 
0.07829219866248958 
0.07843688911472117 
0.07839982817849318 
0.07847570402054575 
0.07814402761951991 
0.07910151292399775 
0.07799297038554794 
0.07908040983542441 
0.07795825285373055 
0.07915095081336886 
0.0778078543939494 
0.07906247299688364 
0.07733863540666376 
0.07927878289739186 
0.07801754526250766 
0.07872848190854002 
0.0777799569776063 
0.07916583883955905 
0.07733113873782793 
0.07878903716415936 
0.07677245365115307 
0.07897700071836349 
0.07741690817731195 
0.07842136254860479 
0.07805773799313256 
0.07944862826282549 
0.07803270646336984 
0.07986320006351508 
0.07836580194135352 
0.0794451457690528 
0.07822498905726666 
0.07919147051984812 
0.07819094676815032 
0.0795902416253494 
0.07789057639916558 
0.07997546675504569 
0.07771766535965756 
0.08017247501193492 
0.07751041365384305 
0.07992813291713217 
0.07734223246104749 
0.07884928872056457 
0.07827161900207286 
0.07889694329301349 
0.07767398438297299 
0.07864391571446037 
0.07833483564859817 
0.07929499271876572 
0.07791004296165299 
0.0786125100352545 
0.07807399220303815 
0.0794316923374659 
0.07751209764554083 
0.07912940401098031 
0.07739505641452102 
0.07891825093495664 
0.07766167486414925 
0.0792781929784428 
0.07827541876243646 
0.07922773006509561 
0.07772128448133787 
0.07887461895030015 
0.07802789113478648 
0.07859111915114199 
0.07798603114934786 
0.07837749663975244 
0.07814861401533334 
0.07817565149961755 
0.07741295161366742 
0.07846362678167561 
0.07759484759919939 
0.07858160461319577 
0.07721836529563399 
0.07833328552438701 
0.07758466041447838 
0.07807808891598274 
0.07831123791193641 
0.0779833682782306 
0.07889136110837339 
0.07843343756135344 
0.07843404365686223 
0.07866492477915842 
0.07866151067093792 
0.07892736680091998 
0.07847271068587243 
0.0786858424425837 
0.07872134642413907 
0.07847275189408597 
0.07807756778803671 
0.0784829366560105 
0.07832394842061889 
0.07864171678810573 
0.07799795541418182 
0.07901172539203001 
0.07806119575351539 
0.07901805827549632 
0.07794472422111516 
0.07876237853618932 
0.07774241756954584 
0.07863792570667977 
0.077646890546643 
0.07845802263993464 
0.07663984239273751 
0.0793354541151343 
0.07684670440277638 
0.07904273423792788 
0.07738494166884401 
0.07898584694650475 
0.0776769291621429 
0.07915059040705447 
0.07769975029256362 
0.0786741035911907 
0.07771507806425279 
0.0789920646749414 
0.07713183926174312 
0.07856483508091347 
0.07787011899927425 
0.0792485434031231 
0.07793905034232058 
0.07981367284703894 
0.07756361894681213 
0.07931368918427553 
0.07796055496572733 
0.07931375451171561 
0.07711953689586226 
0.07913900717668243 
0.07781796165323525 
0.0789379902260703 
0.07849926230283223 
0.07857515862558626 
0.07801484731495394 
0.07884737262398489 
0.0781884196515015 
0.07830887809610559 
0.0778347530736983 
0.07819891849394266 
0.07785190470507757 
0.07842043600377389 
0.07753055646804814 
0.07907407356371894 
0.07807263582096018 
0.07852728609226819 
0.07826104891339554 
0.07813995400332223 
0.07774355256699807 
0.078590350746656 
0.07757358931480389 
0.07886790670957412 
0.07787774483984994 
0.07879217131759671 
0.07771054126036538 
0.07867497790781772 
0.07760738384150007 
0.0787991134613316 
0.07765104468395763 
0.07938179998769196 
0.07813636409736066 
0.07911160805271911 
0.07779668443205483 
0.07943324731450992 
0.07755007887333572 
0.07948785074965053 
0.07769592579134102 
0.07897100650250348 
0.07796939166135758 
0.07863244104967299 
0.07854125342453937 
0.07881993066081089 
0.0785258072648698 
0.07901075705470059 
0.07841416046761771 
0.07877324939544948 
0.07842240556604957 
0.07899829788052129 
0.07804637723692431 
0.07888217287212812 
0.07885752790202556 
0.07882366204227588 
0.07926338468870389 
0.07944777676897269 
0.07834998050938788 
0.0792881393370926 
0.07855498690238075 
0.07932365032294696 
0.07878397702006927 
0.07888548909618373 
0.07855568049388258 
0.0788412628663239 
0.07824512902539303 
0.07885487884456502 
0.07897945124989952 
0.07924148922302204 
0.079103692221524 
0.07945485162531118 
0.07862661174441743 
0.07868763469204647 
0.07980573841855193 
0.07907303973000215 
0.07856253878310387 
0.07896406085239675 
0.07823404461910401 
0.07833695926939045 
0.07790579745525751 
0.07796595362985671 
0.07831775866204185 
0.07821636955577718 
0.0784388387505774 
0.07819401261999032 
0.07912680056966498 
0.07810844913340009 
0.07962894397983404 
0.07857182286286878 
0.07923752413130117 
0.0784010664295985 
0.07885984186400496 
0.07836501868843647 
0.07919223473016086 
0.07848616453777417 
0.0790849103389671 
0.07828427840148047 
0.07878224949138686 
0.07849824542969219 
0.07828186275249398 
0.07882313818095169 
0.07872613851646813 
0.07815477800706419 
0.07872605142760279 
0.07808817880474912 
0.07903406012397396 
0.07803577417285021 
0.07909146048018674 
0.07727353232675789 
0.07886648261629717 
0.07801241973337165 
0.0781485777519598 
0.07841721018255621 
0.07858800019966461 
0.07830059926858464 
0.07874922598485765 
0.07807041178794476 
0.07872282887349136 
0.07806618362962159 
0.07755732796802514 
0.07827975283657115 
0.07745331797148694 
0.07913320425212084 
0.07805401119460141 
0.07875004523107704 
0.07766424881855032 
0.0792182745771596 
0.07735952028947887 
0.07832019126173824 
0.07753594469042314 
0.07817002228577337 
0.07767564541949319 
0.07835102651161786 
0.07780898054722457 
0.07941765437357565 
0.07792123956946041 
0.07901699142040351 
0.07806999539532253 
0.07966658584901208 
0.07852344731402149 
0.07970589270440886 
0.07837162019771873 
0.07905066750099662 
0.0783862951853436 
0.07915409824019613 
0.07825538389711859 
0.07931306016658177 
0.07796910301810506 
0.07910656258147464 
0.07798592244743123 
0.07977096051507268 
0.07787427789870817 
0.07983192792425982 
0.07869143040311556 
0.07970754620181535 
0.07822868999481686 
0.08006664613974875 
0.07804692371941113 
0.08047571648493371 
0.07837263346308106 
0.07976882415343031 
0.07783999276864487 
0.07959750511768422 
0.07848322251370037 
0.07923024812934107 
0.07887852991920268 
0.07938522884742977 
0.07922258498676676 
0.0798428174393806 
0.0790276067402489 
0.07865881929324593 
0.07848889932758368 
0.07905476964026981 
0.07874594251160744 
0.07903834602894673 
0.07932459841085991 
0.07884297290792618 
0.0790927141566619 
0.07881910669756355 
0.07884212726208382 
0.0787434228946581 
0.07894828314736349 
0.07959745172240101 
0.07902673118703588 
0.07922233159086994 
0.07895620271734007 
0.07992700589985104 
0.07813734727580093 
0.08022293380745657 
0.07792841152207257 
0.07975400558279482 
0.07854057463109838 
0.07974849617988669 
0.07805152296406601 
0.07957136179033755 
0.07832872381019175 
0.07928890172602897 
0.07746075171729186 
0.07978509715224019 
0.07725802273586892 
0.07973567034858317 
0.07690244624064675 
0.07995539720433277 
0.07734316121076612 
0.07968561260471863 
0.07726654689254095 
0.07953943165427668 
0.07802209160309405 
0.0795431723523064 
0.07775756401708413 
0.0792462754499456 
0.07847643563828424 
0.07956174957146232 
0.07779185087144298 
0.07944709466176056 
0.07763698215796197 
0.07953554762900673 
0.07817200699005901 
0.07883654039818776 
0.07877836273272434 
0.07927072337844922 
0.07777817265954093 
0.0794169112551379 
0.07776653088495658 
0.07962738941332956 
0.07802698961869999 
0.07933950614209982 
0.07777560872246228 
0.07962256205439854 
0.07742804407363398 
0.07968248515622721 
0.07782745302004039 
0.07861176195287256 
0.07763389957750441 
0.07960260521079848 
0.07746719388972699 
0.07942255120469914 
0.07745907311728108 
0.07926473771563945 
0.07794734331738899 
0.07968360754564163 
0.07817196619716708 
0.07962110286821691 
0.07739074602318978 
0.07916222996968041 
0.07860673314301035 
0.07917364488885197 
0.07866944178037898 
0.07929124209137844 
0.07906742631054046 
0.07953028319773109 
0.07887855197659192 
0.0797177764374737 
0.07773798800346515 
0.07946445568593048 
0.07783591312300313 
0.07971412324020476 
0.07712258759686799 
0.07979995893591499 
0.07822099888794858 
0.07900338009482043 
0.07842891650900403 
0.07966002459471434 
0.07794889283671357 
0.07933987274789986 
0.07802717266861008 
0.07927229063967028 
0.07807140079056747 
0.07909054972933156 
0.07834191202225703 
0.07851198868365489 
0.07800510943409127 
0.07870948517468336 
0.07767928561547144 
0.07918217949630549 
0.07743776892052252 
0.07924443367740479 
0.07779394433392191 
0.07880478440847814 
0.07759941762435273 
0.07884217163213782 
0.07742969522879868 
0.07853951886911828 
0.07773703603490095 
0.07858303215565993 
0.07768340807566443 
0.07857368544750386 
0.07745379725997077 
0.07873112479278964 
0.07736160910518403 
0.07866136974936855 
0.07739304674907319 
0.07827712743173898 
0.07783912043706594 
0.07882881359311647 
0.0772534517773895 
0.07856002643681348 
0.07663398757081938 
0.07846826701331627 
0.07687363626880266 
0.07858649497685871 
0.07731442091126621 
0.07845474826189881 
0.076800694997098 
0.07798057608184805 
0.07683702046293645 
0.07843117424754976 
0.07733034160988315 
0.07832959516598224 
0.07745552275039108 
0.07809578545494789 
0.07723830020520307 
0.07846048889137797 
0.07755131797419867 
0.07869386828156996 
0.07773175505177971 
0.07838593382573021 
0.07687384015083402 
0.07917608087249951 
0.07747812500360199 
0.07872746045590612 
0.0774563601025491 
0.07929197291418087 
0.07695246400166775 
0.07911374835274429 
0.07712140565694005 
0.07856518223879501 
0.07756950667738223 
0.07823645034986994 
0.07717737305278179 
0.07859697117144834 
0.07740152096875744 
0.07872357670446874 
0.07731338990312608 
0.07823603787583788 
0.07723452790404722 
0.07846781950789206 
0.07665431398783662 
0.07885175074402689 
0.07659040394551879 
0.0789194164246093 
0.07622476427302241 
0.07806752737419084 
0.07625664533368649 
0.07815256233085328 
0.07685312255624431 
0.07811894448162189 
0.07761037283609186 
0.07886350755595049 
0.07686619533960508 
0.07841627617298316 
0.07753594651011975 
0.07891094834311596 
0.07697639478622786 
0.07942618564150827 
0.07693243597519296 
0.07847301986032125 
0.07802244122953932 
0.07855426112060329 
0.07795715058816763 
0.07842642222721162 
0.07841683199138652 
0.07876575402866097 
0.07785707661555738 
0.07924095315053864 
0.07765478488285157 
0.07895956017711306 
0.07804025410994084 
0.07859737950202182 
0.07764676294077273 
0.07868436526967963 
0.07738867229392205 
0.07953474989935128 
0.07817727348306092 
0.0785672564876445 
0.07741658000073953 
0.07811937530721325 
0.07754175172624984 
0.07833525595262548 
0.07737572377021446 
0.07828956986168573 
0.07725598335350357 
0.07830345793920426 
0.07804548296927989 
0.07806372007076051 
0.07814691017803545 
0.07789827693857146 
0.07781299085108367 
0.07806310610328686 
0.07848522733390614 
0.07753527979159625 
0.07796393372849354 
0.07768065792173107 
0.07833683834620561 
0.07834516475472884 
0.07766177652968079 
0.07802218733773204 
0.07787924815530556 
0.07858446339246848 
0.07802354251777754 
0.07831285577645941 
0.07868991330484845 
0.07817566381957719 
0.08017944366425071 
0.07824620241167259 
0.08014078446218936 
0.07821613364687321 
0.07974806692638957 
0.07859062033630049 
0.07883073997455289 
0.07851944373869031 
0.07918147034060222 
0.07917538542591825 
0.07865071510412951 
0.07858597456060686 
0.07857688278373748 
0.0782487816052712 
0.07852677547735805 
0.07871391475633395 
0.07814802893702412 
0.0786309599564386 
0.07816219079713534 
0.07841040141740802 
0.07847760207986067 
0.07780493399386849 
0.07892063993151126 
0.07830539391734445 
0.07795926210300827 
0.07778629029902163 
0.077968609641199 
0.0770976553815942 
0.0789956923223999 
0.07746923537398762 
0.07938895801936006 
0.07716880107780717 
0.07870334309953401 
0.07765528042969461 
0.07894376144937573 
0.07775566244384577 
0.07928232767708049 
0.0776578776661902 
0.07896671107411823 
0.07783608716473947 
0.07887763817038791 
0.07798935882033049 
0.07869762913463589 
0.07777209264204119 
0.07889044472179015 
0.07740364920929611 
0.07816873763608796 
0.07744801152158791 
0.07850485649981913 
0.07755845247251303 
0.07903687627069793 
0.07726027501857378 
0.07883260191077249 
0.07669004116074123 
0.07827086368642806 
0.07733881337263894 
0.07846272784449725 
0.07709453485240772 
0.07783101011552596 
0.077652599810212 
0.07768737825893277 
0.07826199867313655 
0.07798213191330677 
0.07779446693484612 
0.0779999216362223 
0.07833032343887593 
0.07828133565359552 
0.07830898800072281 
0.07838219652281553 
0.07904901768377171 
0.07846188718274195 
0.07884912329742626 
0.07768376884767421 
0.07944783913647592 
0.07821599611938251 
0.07869305996676111 
0.07828949031990026 
0.07875722465579109 
0.07861244302177094 
0.07825838457122662 
0.07854587887289409 
0.07811056137066838 
0.07855930376614292 
0.07881334234154337 
0.07868917801575796 
0.07792600443361913 
0.07901890981515845 
0.07882242157713169 
0.07945781499762718 
0.0778781709777062 
0.07983732306141268 
0.07851001748881034 
0.07878766596174057 
0.07887854398990814 
0.07871094776956218 
0.07849226328268689 
0.07938717295937457 
0.07860065424376736 
0.07854912598093319 
0.0787170055506443 
0.07862168395345254 
0.07860216782257202 
0.07850967933158477 
0.07853547576246815 
0.07876497304489953 
0.07832894395529345 
0.07933102869992752 
0.07807662400034859 
0.07998675667545393 
0.07727330432138349 
0.07993239734113303 
0.07734860224823084 
0.07872916193075197 
0.07811149962432903 
0.07897401022698591 
0.07808758894973412 
0.07877203493096395 
0.07776546265007708 
0.07883393690668644 
0.07722581999048964 
0.07864963826548876 
0.07777706003656212 
0.07894865274677558 
0.07719697669368393 
0.0780223047387856 
0.07777168229245572 
0.07811917081193516 
0.07780779388160883 
0.07793592667915027 
0.07780232269256024 
0.07752627018967126 
0.07836706130262831 
0.07785430765105489 
0.07796275444132059 
0.07876047241726319 
0.07854650905066386 
0.07842994323249759 
0.07849765923549899 
0.07917823360803877 
0.07861862299513643 
0.07869459833192975 
0.07880205503586195 
0.07816047082369744 
0.07876499093652053 
0.07868484425871947 
0.07833934153324416 
0.07819557810027938 
0.0787791547350067 
0.07822984818338651 
0.0790672658716729 
0.07914166121034848 
0.07856422819575791 
0.07797888559828624 
0.07895959648495104 
0.0782546963848141 
0.07832956267395955 
0.07860114793768135 
0.07915366146180089 
0.07851529209384928 
0.07941940974893148 
0.07849987331777508 
0.07877109913076452 
0.07826808957079318 
0.07817535960930966 
0.07930217474698212 
0.07813741572439212 
0.07905016772123098 
0.07830950668101604 
0.07849969637045291 
0.07818554404325877 
0.07794694005202016 
0.07872472894031089 
0.07761987250330338 
0.07863889150050549 
0.07790843244409516 
0.07915169334094933 
0.0782871141043764 
0.0785363335803117 
0.07805943556632104 
0.07898458106491718 
0.07826775650613663 
0.07856111728941564 
0.07862986496792299 
0.0784516683079919 
0.07822514005033306 
0.07868963750382414 
0.07842175196181669 
0.07917971594163675 
0.07785432240979676 
0.07912689748902475 
0.07819275310967683 
0.07958862670525743 
0.07780774028411173 
0.07903843637453582 
0.07783761301213867 
0.07865524989162746 
0.078353349663456 
0.07932406650031028 
0.07921547774159608 
0.07869002455020324 
0.07907811194224777 
0.07871061709228548 
0.07857846967306929 
0.07807926522922642 
0.07855674535130602 
0.07780695541527109 
0.07854543975662315 
0.07806474541926461 
0.07845992445659886 
0.07752423193162614 
0.07798637033107568 
0.07755716410978677 
0.07806155407726414 
0.07789116461834672 
0.07824896942709811 
0.07780253565379752 
0.07906074343494573 
0.07767805547402755 
0.07836250743583821 
0.07758371437156725 
0.07887726212037934 
0.07793507803853293 
0.07805680580041895 
0.07751659101030156 
0.07888866560600402 
0.07758834857531233 
0.07817739121941635 
0.07799842869627553 
0.07798136477868366 
0.07822240945255207 
0.07745587411253667 
0.07846522909644815 
0.07685548951490967 
0.07844877163422033 
0.07778738186979926 
0.07814479897923537 
0.07818286210257244 
0.07812729706278886 
0.07778980091681043 
0.07850836123278442 
0.07789285670683473 
0.07818721496766491 
0.07800682392694086 
0.07765727430263826 
0.07797081676253444 
0.07817009667815673 
0.07791985859450727 
0.07919628400561272 
0.0777031290397814 
0.07822571472689621 
0.07729336382259577 
0.07843596482485686 
0.07789821479868475 
0.07833340398384772 
0.07780813670933921 
0.07833563413259795 
0.07777817657802243 
0.07856560298071985 
0.07788651307340924 
0.0786126741774132 
0.07776518782263739 
0.0791146498025367 
0.07815187616826992 
0.0793194997222903 
0.0777205074906375 
0.07943108597651312 
0.07805114359087893 
0.07976283789534411 
0.07804652042252334 
0.07877634614538503 
0.07818563882650501 
0.0787311724495507 
0.07815903710707217 
0.07798389681503326 
0.07803548437324027 
0.07856181123146176 
0.07819161007509247 
0.07822448605223167 
0.07777629494327118 
0.07807112544780381 
0.07793666803268129 
0.07827863011869771 
0.07800897661020054 
0.0782042735398885 
0.07825709939775959 
0.07851556587580355 
0.07773663198579009 
0.07908675002619468 
0.07817456056897572 
0.07844872016127739 
0.07808856024228425 
0.07885372947102774 
0.07850624851447519 
0.07896425900363789 
0.07805468837150284 
0.07949172458492189 
0.07850252256598968 
0.07960615727414765 
0.07891397927891007 
0.07936886236718302 
0.07961691553442858 
0.07980193373963297 
0.07937997977283953 
0.07939973263625603 
0.07873478614799906 
0.07970614261923263 
0.07939983316660011 
0.07886142134708116 
0.07945697818689389 
0.07932578064418055 
0.07943564698649656 
0.07936192652047346 
0.07925315860953172 
0.07968171613748104 
0.07930643984551163 
0.07966371991942553 
0.07920588043812972 
0.08003155777196849 
0.07995093554318257 
0.07942904954361782 
0.07953782615206675 
0.07958459068867314 
0.07962769888445297 
0.07898583440247947 
0.07919625524108061 
0.0786923114629476 
0.07894588849725727 
0.07840904090964551 
0.07944340437029508 
0.07888709345700431 
0.07901675679810406 
0.07889411916160499 
0.07846308780348589 
0.07857340494058734 
0.07857085821930028 
0.07877726458690447 
0.07826427202763579 
0.07798896911563596 
0.07853194250310286 
0.07886790934184161 
0.07822366634927906 
0.07850871344875236 
0.07802737963668888 
0.07820961485811419 
0.07707627600765181 
0.07791387377940426 
0.07795304425004859 
0.07777750548848955 
0.07730553391415397 
0.07789885148331573 
0.07759032919863729 
0.07773830026982659 
0.07755430066560605 
0.07756679047255124 
0.07881073148924525 
0.07754574208046718 
0.07881596060391241 
0.07729671440999887 
0.07825936218254914 
0.0777797479300303 
0.07921665938137032 
0.07866646951217152 
0.07850985857398055 
0.07831244719744791 
0.07886856494560752 
0.07963197125194196 
0.07869184114485883 
0.07895832154796366 
0.07862934691328259 
0.07864566676456068 
0.07872392596921061 
0.0785018868837566 
0.0787678748996711 
0.07815334565464152 
0.0783562930211744 
0.07846441882368836 
0.07833439903208896 
0.07819941735501701 
0.07816082370843458 
0.07820114318948285 
0.07798238670172317 
0.07758863392826572 
0.07722270240032436 
0.07814603318200922 
0.0772786928842568 
0.07868477964433401 
0.07774819235768461 
0.07817307797792035 
0.07737860262161865 
0.07819360625211758 
0.07860628960669455 
0.0785333108615132 
0.07849010944094906 
0.07888909896586259 
0.07795001297416973 
0.07880820893047437 
0.07838450366254499 
0.07881632398789687 
0.07847330726072259 
0.07834148235947803 
0.07835175693735828 
0.07925987441992143 
0.07784905049165987 
0.07870134382563133 
0.07854114938609512 
0.07898398387291747 
0.07778674091658919 
0.07931672277271123 
0.07783965788521174 
0.07910069430822791 
0.07827362415764225 
0.07915756933632806 
0.0781313231434989 
0.07899259610596246 
0.07874508793346131 
0.07848470739813564 
0.07830012130622904 
0.07854671713967322 
0.07848282282458995 
0.07872505812945919 
0.07852995219421706 
0.07869528865035826 
0.07846085692940363 
0.07755412637884995 
0.07822242864632231 
0.07890802543374693 
0.07820532857940005 
0.07833311653463271 
0.0781099528101894 
0.07810897554689218 
0.07829387617609232 
0.07745676395380718 
0.07862316909697689 
0.07705119277604243 
0.07831697769700453 
0.07759420112771258 
0.07822855415381576 
0.07788272330285211 
0.07819246360848604 
0.07710859211890723 
0.07798458477986553 
0.07771774167677654 
0.07756383024249991 
0.07787373921496944 
0.07804848807395531 
0.07816086507068927 
0.07776325413702866 
0.07792572632984159 
0.07821690852350996 
0.07770221810841482 
0.07807853535694216 
0.07837871904856139 
0.07800919650452762 
0.07819743784314674 
0.0777478761676435 
0.07725466446883057 
0.07819930780041334 
0.07756812400135357 
0.07771125266717284 
0.07827816817500059 
0.07696408755841533 
0.07824165178192204 
0.07741775597240112 
0.07777426500079153 
0.07733058324559516 
0.07779666199558269 
0.07734739905275621 
0.07810809961332819 
0.07717158014074901 
0.07810518627633785 
0.07727531933919561 
0.07731526545071157 
0.07796284510072965 
0.07788584430633834 
0.07741496826242641 
0.07740665355849716 
0.07794010523981719 
0.07704189510388788 
0.07859833804904945 
0.07729960369797914 
0.07865149003228729 
0.07787108750259199 
0.07878863971940302 
0.07782800454826165 
0.07871615195718436 
0.07838532584199315 
0.07859974909185162 
0.07790791815095559 
0.07882896857391827 
0.07755938421213224 
0.07829761276008354 
0.07783852818353909 
0.07827126522072633 
0.0777968211848528 
0.0788921527539759 
0.07791031091994489 
0.07862787301007546 
0.07873924799622407 
0.07817490377422424 
0.07850871480181258 
0.0785906757896932 
0.07846096961609419 
0.07894927676737538 
0.07848263169371328 
0.07892626411921938 
0.07874089928993458 
0.07899081577784738 
0.0787259877765933 
0.07933678522509327 
0.07827119380202538 
0.07884159229581252 
0.07751857761941144 
0.07881430978120804 
0.07782936297673654 
0.07916670465086587 
0.07876120382788562 
0.07877345370447554 
0.07868827736889819 
0.07865105537359865 
0.07919411194477229 
0.07855439636789736 
0.07925855904899674 
0.07775290475705633 
0.07904386326764355 
0.07771819707058107 
0.07838128407115094 
0.07796633121689711 
0.07835333261059904 
0.07835346285227808 
0.07847141302606762 
0.0784765033846837 
0.07813590590221721 
0.07786177602178553 
0.0784124048220151 
0.07837718153963641 
0.07844650239061914 
0.07840033705524839 
0.07859119320146583 
0.07786133328768079 
0.07854816019111024 
0.07791900254413678 
0.07898395769154967 
0.07807525167571711 
0.07886600390789748 
0.07749351922383874 
0.07831438838685809 
0.0774575395582638 
0.07817475530525446 
0.07710258920313888 
0.07838148766880222 
0.07690849081859959 
0.07849852602502876 
0.07716250999434217 
0.07838056257656634 
0.07716144982472975 
0.07834720074517429 
0.07795786619457808 
0.0779284172193996 
0.07797749497234018 
0.07755007205735767 
0.078220132388631 
0.07753769633285425 
0.07824454710066309 
0.07749043316598213 
0.07848354911150074 
0.07688487959988716 
0.07815259802774334 
0.07721016533768271 
0.07774083451092521 
0.07774056036680377 
0.07810458941835054 
0.07774733399295529 
0.0778569859813126 
0.07874576778377435 
0.07804258790437124 
0.07827800316380376 
0.0781788786459366 
0.07804590299183016 
0.07855626444890519 
0.07843318980191313 
0.07889858942821841 
0.07879287400681832 
0.07885165626710272 
0.07864945338949174 
0.07881254922909503 
0.07970767971639378 
0.07839156217092509 
0.07978081712722908 
0.07809033726797328 
0.07958449520272901 
0.07824330222405065 
0.07929552536689939 
0.07774278530546638 
0.07909059132016492 
0.0781126590908541 
0.07953638233530955 
0.07816217328813518 
0.07901290663332758 
0.07806125592719605 
0.07812500361166871 
0.07834652774751541 
0.07858546840413917 
0.07830260710311289 
0.07908754329246528 
0.0785926952912033 
0.0785616434035121 
0.07858749185112969 
0.07901012797968099 
0.07901528330633231 
0.07913393137582829 
0.07902141886067082 
0.07930204855229014 
0.07838781918190744 
0.07868118536495385 
0.07850380516806783 
0.07898372024513986 
0.07921751299250557 
0.07942352633179893 
0.07868124423669458 
0.07956933830406705 
0.07929388526874505 
0.07967598021054717 
0.07948667633609108 
0.07879163584827967 
0.07928526680708316 
0.07942658036530971 
0.07911041359686787 
0.07878749286714951 
0.07909245171918317 
0.07848436392638954 
0.07880802876391341 
0.07858139035823999 
0.07890127523309305 
0.07890066799564427 
0.0788190637687019 
0.0786896656987324 
0.07869330593907747 
0.07830383156060437 
0.07859839675444506 
0.07808582342191218 
0.07858971336873237 
0.07767914979269326 
0.0785570158299489 
0.07770185932101151 
0.07865779971939185 
0.07789080765893058 
0.07876721115203196 
0.07807794951419349 
0.07891681976891012 
0.07850860727541439 
0.07907075750649953 
0.07912339173672157 
0.07916013139583421 
0.07889939963090696 
0.07879284785266336 
0.07876805532305886 
0.07887002834329755 
0.07883958300977018 
0.0782106015829174 
0.07830247829924378 
0.07916999786771065 
0.07853051942215429 
0.07883486729349613 
0.07868483749700232 
0.07920174682814492 
0.07861652786652444 
0.07827938072730736 
0.07843391040654091 
0.07864104223781172 
0.07861019349700879 
0.07821594821352384 
0.0786946546646529 
0.0777564148992292 
0.0784382316384992 
0.07781099667086715 
0.07924723775285251 
0.07799870642382897 
0.07824664861816732 
0.07836335180226506 
0.07857310538596994 
0.07781720517004838 
0.07886999475878909 
0.0779426921055361 
0.07912655907982147 
0.07798836687941769 
0.07943308786078813 
0.0779847422925343 
0.07943720087669369 
0.07898097833711784 
0.07913634394486847 
0.07856181611756036 
0.07872479840176244 
0.07881535254122143 
0.07885561566553097 
0.07895931584362113 
0.07881018945812844 
0.0791941254471742 
0.0789500811514226 
0.07931128723234429 
0.07912081042897645 
0.07862804984336713 
0.07944618680062653 
0.07907412614767864 
0.07947476384873479 
0.07876004433613049 
0.07934836189607383 
0.07849719438827166 
0.07874636715600858 
0.07832035442640371 
0.0791183989501467 
0.07844449630470467 
0.07896986196510632 
0.07850606049576804 
0.07862387164339542 
0.07894187565432596 
0.07908208459377612 
0.07911637057104517 
0.07884081921858352 
0.07895514225367824 
0.07841649315895564 
0.07864242934232453 
0.07835558042034944 
0.07863827860015485 
0.07880915743433509 
0.07813036507593324 
0.0788645726743878 
0.07819911086491339 
0.0786151967487469 
0.07828364802524704 
0.07867468680092185 
0.07812000843609575 
0.07753469589195869 
0.07763489147044629 
0.0776924155663016 
0.07836500130355277 
0.0781432495637768 
0.07867054587294744 
0.07817371391510328 
0.0773551727414165 
0.07841261932551612 
0.07768580726510377 
0.07777605854685997 
0.07889208104731543 
0.07857499201562715 
0.07915041371689313 
0.07863816263733915 
0.07867855410234947 
0.07886742942087176 
0.07859336013959607 
0.0786886449346883 
0.07866604786071592 
0.07943509625787933 
0.07835774340851043 
0.07953484707466753 
0.07846541046422643 
0.07911314971244915 
0.07936716557622142 
0.0792335217957893 
0.07922553048747598 
0.07905270283176329 
0.0792726216575849 
0.0785526505084016 
0.0797706391035141 
0.0787532271943389 
0.07871402395233498 
0.07895764313809304 
0.07838718969487615 
0.07864878187104984 
0.07882565428465552 
0.07813704256307592 
0.07881146279275766 
0.07812182587235753 
0.07920884775711451 
0.07871053456278812 
0.07871290880851525 
0.07871441329347889 
0.07866258270727555 
0.07872365224970779 
0.07856089044641959 
0.07780260628924049 
0.07895917999930407 
0.0778952659317155 
0.07948907243329484 
0.0782827202778497 
0.07884321294889585 
0.07867549628716539 
0.07870642911652781 
0.0785162173528306 
0.07920612293574517 
0.07842989086603837 
0.07888314039069895 
0.07853239106799637 
0.07878070597848566 
0.07809742960466795 
0.07901242593809053 
0.07830140964838783 
0.07898201923717868 
0.07911983893979818 
0.0789163867687252 
0.07926569787129525 
0.07973817435357111 
0.07894574421185099 
0.07919124184668809 
0.07934098224486222 
0.07932718420566436 
0.07879264791810064 
0.07949383156728482 
0.07811577183959866 
0.07983556475523115 
0.07885528427148362 
0.07988433206828416 
0.07895956830029045 
0.07934141818108421 
0.0786097230624602 
0.07883728847017267 
0.07848749562084656 
0.07887700948924019 
0.07924094394906167 
0.07880278941329681 
0.07907486857196512 
0.07912201989905226 
0.07875854543043656 
0.07870306035582089 
0.07907879652155676 
0.07933486268825295 
0.07934026699706069 
0.0792228011119049 
0.0795755203751069 
0.07957929506783769 
0.07931792564652704 
0.080030453659688 
0.07943178392222137 
0.07973594468601683 
0.07915305982918648 
0.07896003164890321 
0.0786825081997426 
0.07985631842456434 
0.07905621149404457 
0.08005018893910996 
0.07880267045364632 
0.0791553829012228 
0.07918557401489743 
0.07845492515627295 
0.07894640511071001 
0.07881903419052291 
0.07895466471076786 
0.07880892570656572 
0.07875634852184983 
0.07937555210508035 
0.07974023189500523 
0.079250103902878 
0.07925656197441779 
0.07880071291322586 
0.07940943629096429 
0.07892149460180004 
0.07893219020514887 
0.07878041118495624 
0.07854316715334779 
0.07869341470296799 
0.07888003963762656 
0.07866118982519216 
0.07848983100656431 
0.07894628822823979 
0.07874965670274321 
0.07876851264335033 
0.07927642059613267 
0.0799299807510153 
0.0794041768387241 
0.07994612621535764 
0.07903613500644233 
0.0796428259545689 
0.07898676198098073 
0.079424893332427 
0.07889721626039807 
0.07956029699945227 
0.07884113726821727 
0.0792174197963261 
0.07858974362017562 
0.07969784242247883 
0.07844133185299891 
0.07925197077466334 
0.07922494964731541 
0.07935933972167465 
0.07919057046165295 
0.07966058310079413 
0.07902492176066031 
0.08005938248226946 
0.07926342755221265 
0.07985472362932518 
0.07922368407819021 
0.07908733507147768 
0.0786367697625662 
0.07937956568609454 
0.07943894473062958 
0.0791796771038888 
0.0789490443950448 
0.07873864296145226 
0.07873849490669252 
0.07913663962333888 
0.07776147686983685 
0.07907986050042026 
0.07830990859904483 
0.07918182021234949 
0.07863561098745853 
0.07906688249935233 
0.07872081834335609 
0.0794769104182593 
0.07956042973282978 
0.07927151495785467 
0.0793790255307627 
0.07923675217377618 
0.07993285377491237 
0.07887670368381849 
0.07985890078309775 
0.07886945698652559 
0.07972983875214928 
0.07949953135222662 
0.07882215171547761 
0.07978262836504728 
0.07880150391127287 
0.07915322699888147 
0.07883977311225328 
0.07946844397597065 
0.07988109847957833 
0.07908215159192543 
0.07966971524869682 
0.07981694380740517 
0.07942648419968913 
0.07959534432147568 
0.07943455117628155 
0.08006100712909678 
0.07887881417008996 
0.08060105167426879 
0.07963831023894595 
0.08013952326198459 
0.07930253718754635 
0.08029433262716047 
0.07921586546402758 
0.08051188699302064 
0.07954140215841575 
0.08092582242050443 
0.07943155749618941 
0.08048885398468805 
0.07930818243591493 
0.08049303126580451 
0.07995103279861381 
0.08008097723067414 
0.07937126500883009 
0.08025833429328905 
0.07943542474374415 
0.07940873527809759 
0.07938506890205564 
0.07968368504767227 
0.07942263762285669 
0.07980007094354331 
0.07934067303456935 
0.079545588682837 
0.07891877411935479 
0.0792739738032088 
0.07816231395872464 
0.07985150193248468 
0.07751607825648199 
0.0799012059053496 
0.07823987953503656 
0.08027118308118009 
0.07825187211970727 
0.07985973363768101 
0.0788871061241659 
0.07963706829866936 
0.07892055216610666 
0.07907005903665067 
0.07917726344557412 
0.07965139476737083 
0.07917609314490021 
0.07978161736161316 
0.07912163062923629 
0.07992799829077137 
0.07954226011599326 
0.0797223211250675 
0.07936828482826351 
0.07964452901946575 
0.07935374740348065 
0.07979821875199727 
0.07942456018334423 
0.07923985400165401 
0.07981248946415256 
0.07956099287864733 
0.07930363891456907 
0.07897247482249059 
0.07991079423808187 
0.07890600775429746 
0.07988304705064113 
0.07957003962124808 
0.08003217561298501 
0.07924268048046043 
0.07942456273856408 
0.07928131761317624 
0.07935191429506287 
0.07899048100964981 
0.07953356770666628 
0.07931694469725033 
0.07944161249259954 
0.0796497437981815 
0.07951425206366018 
0.07982895691595418 
0.07942588768381897 
0.07993624172147824 
0.07875154205552935 
0.08010162642519651 
0.07883163654707344 
0.07991868481413754 
0.07833775485999676 
0.08027691188180446 
0.0783245248765312 
0.08026628752033883 
0.07886303834121035 
0.08031696234494619 
0.07892690567158282 
0.08015948219215698 
0.07901404019778763 
0.08043642552564401 
0.07929175932764189 
0.08031475761528588 
0.07918263578649033 
0.08064670064837522 
0.07875234656995332 
0.08047723136483119 
0.0789444452359423 
0.08035016658948041 
0.07830934768055949 
0.079930621158275 
0.07871309651984745 
0.07939664365420382 
0.07845228777284652 
0.07965245118407827 
0.07837919374437748 
0.08016267993099772 
0.07882015493426234 
0.07924857251894368 
0.07906141344159963 
0.07916485401280846 
0.07893688627033053 
0.0797653248576385 
0.07824684704892432 
0.08023227726784217 
0.07823055573379782 
0.0793111361981739 
0.07835855052033261 
0.07997867547692844 
0.07888810567847279 
0.08022838754389794 
0.07810936524048891 
0.08023120577107397 
0.07846266475539948 
0.07976428038703556 
0.07867114483209692 
0.08061402813422369 
0.07871682002537754 
0.08078885968347865 
0.0787937162539754 
0.08046598808421276 
0.07859665899373861 
0.08077848902597373 
0.0794178522544121 
0.08011740779813779 
0.07884298331454956 
0.08012494528263804 
0.07904172806273081 
0.07962485693718942 
0.07942119209880265 
0.08092466887448115 
0.07889782820978103 
0.08095624792019271 
0.07890950210834673 
0.08069018247065969 
0.078573333224041 
0.08033572641991744 
0.07909976306051841 
0.07981252617650894 
0.07849508214791287 
0.08022066999866249 
0.0784128259477908 
0.07988711487670105 
0.07921363852351099 
0.07930385883104525 
0.07920429608610438 
0.0791703174970219 
0.07888205756373758 
0.07944222128287787 
0.07931609061383979 
0.07893878532935727 
0.07922433734079649 
0.07926063121697816 
0.07977181885606993 
0.07965651778453048 
0.07941848924683134 
0.07956878338715144 
0.07935713933965351 
0.07955223198967146 
0.07919231101430939 
0.08050859121186518 
0.07904757274079253 
0.08063828891011841 
0.07920289407473517 
0.08071488483555708 
0.0792423005696995 
0.08070238234527886 
0.07949432511365348 
0.07983751917539667 
0.07989769225403509 
0.0800651314395457 
0.07900808669455527 
0.08113640892401128 
0.07879102046837011 
0.08022949891717358 
0.07859737091679286 
0.0800381206796526 
0.07852152450135312 
0.07976645041265747 
0.0793875912272292 
0.08049327336545196 
0.07926034011966024 
0.08045583617955888 
