solver_type L2R_L2LOSS_SVR
nr_class 2
nr_feature 1984
bias -1
w
2.750544659481462 
0.9920267558655598 
0.6420777887349777 
4.440753457771892 
2.158396824298927 
-0.9217207666129991 
-1.361498564341019 
6.298650150537532 
6.283208792693616 
-6.819365831561548 
-0.8849507648015325 
5.597738427232292 
-2.45782006498371 
-3.447189512318804 
-4.524048229661622 
-6.030399606726648 
0.3919920828077483 
4.524298273920957 
-0.3571250907616608 
2.285039327326195 
8.443106240403212 
1.075932048964662 
-12.79974958208272 
-5.25723035267948 
2.547911060414677 
-1.881296634581745 
6.412113706183487 
1.522133882298976 
-5.431036141753995 
-5.853646743220658 
-4.131115202008893 
2.713645731492251 
0.2027203380502169 
3.070623356906133 
7.242198639468881 
3.697262164807248 
-1.05234371523107 
-2.067189779239194 
3.093935591125951 
7.947107519374884 
-3.947605918961765 
-1.611644876215732 
-2.898199196227599 
1.162943328157895 
-4.638290476970508 
-3.739795011225346 
-2.487960779125416 
-1.228798463099488 
5.854260152351231 
1.892776603599802 
-5.914133204390179 
0.8681342709064898 
5.608600344469695 
-7.361646818747317 
3.643453417394238 
0.7015294608423285 
1.189306588135169 
-5.726326755659273 
-4.020707486025636 
2.210596988124152 
-2.717760514515668 
3.264572836259753 
-1.629249617967707 
-4.634629119256006 
8.610580421414801 
5.847904782203067 
-2.391484786267126 
0.6714735334778474 
-5.925710472458861 
3.359644328909906 
3.912390665174168 
3.06541314494999 
-2.680582478740654 
-8.498479949270155 
5.079482962118187 
-0.6552334927097587 
5.411876636862413 
1.349549662607355 
-0.4845872307822376 
2.601349413954278 
0.9889258426164224 
6.118342351646268 
-9.073874048815105 
0.1220670274951614 
3.30238224198269 
-4.824501876089552 
-4.595324797518421 
12.06619182257752 
4.393018571713763 
-5.901742338562834 
4.041468553510875 
-1.30319074810588 
0.7937382923126193 
-8.632705578988016 
-8.19236111865375 
1.281131638272078 
0.7448249742429285 
5.738723054102024 
11.27870486242299 
1.749217956780264 
-2.217506900140735 
7.969364347877718 
-6.655667375385782 
-1.612669814025223 
1.631081503581149 
-0.6248757947333549 
4.791570118700317 
-10.38775316479946 
-4.136639201223439 
4.033807361499057 
-1.934979493434944 
2.209821316926469 
0.4576753037082658 
-1.587696598864243 
0.2689211793084819 
6.71314524615853 
3.715872533826208 
-3.532638971629292 
-0.02884714889174063 
-2.366138630151042 
-7.765930227150439 
0.3739877079579119 
1.497384293732041 
2.843848832984206 
-4.500267552374638 
7.966322393319943 
0.1218260083362035 
0.4566490750574832 
4.358902582240073 
-7.264407290420681 
1.988309404777235 
-3.138671995354439 
3.475341475736455 
3.154786511341674 
1.458269691805146 
-1.226216446397616 
-6.318437365827976 
-1.809381556263346 
-1.333226794467591 
2.660194690133422 
2.299501487894738 
-0.6127992567055633 
-7.83365542771078 
-1.28357788779186 
5.690913521555088 
-2.853093760887981 
1.669010295732899 
11.86560545688794 
-6.294931761892635 
-3.42661878491418 
3.314793087623534 
2.548778544887037 
-1.066591532654475 
-9.570639981073535 
3.558211542399849 
8.620839461034167 
2.49589761746835 
1.640673175148549 
5.801533538120599 
0.2786875106811763 
-7.420889601430957 
-6.252035064299834 
-6.262574356338549 
-2.491970743646225 
5.148970422496429 
2.911986834797049 
-2.432732681431507 
-5.558295594139004 
-2.897834749720623 
8.706394717959936 
0.4724257665136683 
-4.712538440311808 
7.480082449558171 
2.528693118116048 
3.943003875781372 
0.5714544521244033 
-9.813810474786893 
-7.502373213924181 
4.336601760093525 
3.390851259132995 
5.431631429328196 
-2.376124636390155 
7.420265483284398 
1.741792389823944 
-1.036889234226135 
2.355385157666352 
-7.113403916512122 
-1.092914460012872 
-7.594131899066728 
4.338148672371341 
5.63842504705375 
-7.021074955618398 
2.62213491666547 
4.753615349644673 
0.2873731060776252 
0.1336647133092152 
-2.431447247499536 
10.71374457778978 
3.025126098726068 
-10.82520250052306 
-2.877204245797126 
2.416069039017104 
7.441505140859102 
0.4063011256846363 
-4.07093196490935 
-0.956165970451502 
5.000095876618611 
-8.300778282137093 
-7.661308588659652 
5.687255808005048 
6.244192779694865 
-1.602617712577784 
-8.444845378568088 
6.494026586328834 
-0.5579895780048885 
-2.452706218348046 
6.879334878037584 
2.781352807089897 
0.2580706939634876 
-6.375188596527781 
-5.30179621902509 
-3.776264712255428 
-7.267602133085708 
1.311775374226179 
10.27172263873169 
7.332124273153497 
4.965163965133072 
-9.618711242469267 
-1.046021968995461 
8.802221989995443 
3.209625148922152 
-5.913005957034335 
-5.873794008978153 
1.160073045384818 
-2.128732727603971 
-1.378784260606163 
-3.410742812402157 
0.7166513395568811 
3.838772529426689 
-0.4046581840272137 
-6.374737883296905 
-2.834101770596945 
1.941794537750894 
-0.4208565247133839 
5.455833775841282 
-1.891597083209731 
-8.489221361492346 
2.024144635082212 
0.04256755312345671 
-0.7964923539045847 
-0.1396143527613752 
7.219046679442573 
0.2329839838465144 
0.408402748658057 
1.510567138772407 
-2.024978089243403 
-1.878978785556801 
-0.3739206778699032 
6.399072372398997 
-3.12869754949755 
0.7887896231695833 
-2.376270711031926 
0.8999819933335772 
-1.206316677967811 
-1.024499494030701 
-1.237442523811652 
2.705772075805073 
0.1410485058285237 
2.904093077890843 
-0.983066753766469 
-4.259955696084102 
-1.284918254783849 
-1.097736737796495 
2.320538389301541 
4.130712748421407 
-4.579545499024561 
-5.984084979577984 
2.050769111741909 
-3.055123184438326 
-2.345991802699332 
2.651584106995246 
-4.833737574744799 
0.368523453272026 
6.698952375563775 
5.098512583254601 
0.7008115688568539 
-3.491477452451719 
-2.278737985655693 
-0.6988800961595685 
1.728100717599025 
5.403448060248837 
6.479767553679796 
1.171019305685139 
-2.051570896579159 
-2.719054007629743 
-5.291264612789352 
-0.2987482534925475 
3.694808374647755 
-2.517942969266416 
-2.123264769228014 
-2.343967074094389 
0.2940926645859932 
-1.503619432537844 
5.023167200610255 
-1.638344605942753 
-6.969590351415357 
3.251162252710204 
3.871564280607726 
-4.055792027083844 
-1.3864037470983 
2.099826386729137 
6.25918132342473 
-0.7204853323556307 
0.0008749451558273489 
6.281149112878079 
0.1099537358349232 
-5.880183966298785 
3.212095558633239 
1.906642434668159 
-5.123102295716937 
1.031690464907789 
8.814512993694038 
-4.450085365618633 
-6.344286616152965 
1.445971443086326 
-2.128549063613982 
9.487349404972491 
-1.941821820545074 
-7.105446769394857 
-4.48372045014712 
1.967428122855072 
0.9719680017604655 
-1.068290028675476 
3.351853914011686 
-2.168687739171066 
-4.997906316127255 
-1.611466595358501 
12.06444975407899 
-6.066141588611218 
-2.48281744434532 
10.32258546535686 
-0.1304757533524855 
1.656783305981786 
4.133592402405227 
-3.616610846736804 
-2.956089117074776 
-3.359371300805194 
-3.128345299057949 
5.580260289933169 
-4.153629558500904 
-12.05412396998546 
-1.260463588171428 
5.721843612161618 
7.684657836633341 
8.574601169484229 
-5.879655074656797 
-3.946041903319634 
-0.300515705189391 
-6.504683897407036 
0.8894848209279156 
2.538995677304348 
-0.08871725584548437 
4.283971332606016 
-4.58477810646091 
-0.06899907828951392 
1.842079700843309 
3.20964245781833 
4.390343663640122 
0.1291773504978326 
1.762914685177136 
2.571141290043049 
-1.987989969253204 
-3.073511981678923 
-5.008702986180974 
3.611956975176927 
3.043252423624369 
-1.584211663638843 
-7.893837569078789 
-3.546893310771267 
7.078080000667794 
-4.065509505898969 
0.8391255768360095 
5.922268592891546 
2.540846004170664 
-5.423121537934211 
1.829937962877353 
2.117740220083232 
-0.008074497645957576 
1.043824325269887 
-8.444696042202642 
-0.2080354489278504 
-0.0346319121034758 
3.340491678460507 
2.159906417021893 
5.81140002824082 
-1.267569645939882 
-2.3789869721796 
13.10675258012673 
0.9716486679316613 
-6.390018644363515 
6.435632760464997 
0.482697994943677 
-4.779139800037988 
-0.4243499584996007 
2.727574023136156 
-7.089009680887511 
-2.771122075196897 
-0.9568352502204145 
-9.653274496083931 
-3.551372909972131 
10.53179822813607 
0.8693676784675107 
-6.352905936226037 
3.543587073964607 
-2.151710006818349 
1.455805749257223 
5.774730419527296 
4.13626372196569 
0.7965116481828906 
-3.789970952206084 
-3.661828912051492 
6.355335865850673 
7.398139893114446 
-0.09937465793162757 
-11.12750869839771 
-5.45265257079291 
-1.680666678345174 
0.7941334969600323 
4.759329979667467 
7.185231963468846 
5.100676860429455 
-3.574228287382977 
-3.861942392534565 
-3.34179110665141 
7.818058798708003 
3.987449461440087 
-2.162115919959743 
0.9736087135917517 
-5.329578574442915 
-9.055255786597435 
8.843892696083866 
2.534092189740128 
-6.618571326842298 
1.407341042594854 
-1.345815709394231 
0.8572678312529123 
-2.253139890203866 
-0.7484076003379062 
4.850246211970635 
2.651596071944575 
-4.77064338709682 
0.9989578667944408 
4.600190203771295 
9.361230160362743 
-6.880019882935512 
-5.555965007603583 
0.3068009907470602 
-6.394603059978837 
4.825542035184362 
-6.445686422133432 
2.19314544084688 
1.774674830113229 
6.094199145224402 
5.036199493281795 
-6.613978503366308 
-7.93045386542141 
4.303695800556039 
7.103690304199563 
-6.267044646760463 
2.594430220649079 
4.699037791506172 
-1.963262523802483 
-4.449321609993081 
-7.288091281469593 
5.877346343934109 
2.003651525997873 
-4.409400467487555 
4.988380429434659 
0.02169924875571759 
0.844429670788175 
1.687646615996546 
-2.26879805335105 
1.134515900816161 
1.050949745380445 
-7.158587816495754 
-6.783334257229201 
0.6344159063246859 
-4.082774107737686 
-6.972136861339615 
4.479015342878925 
9.398922929320449 
2.998306278121861 
-2.780373303494421 
-0.6784164679836706 
1.863750949537844 
-1.874243964829302 
2.030127588823425 
-2.327740457075865 
-2.035145543048748 
4.802998230135039 
-4.506793883282509 
-1.96467972401747 
1.309393204536921 
0.8385990508952013 
13.75578379052125 
-1.428725753619454 
-4.716527569251254 
-0.7075682440211222 
-1.208660666084106 
2.000256578314392 
-6.112151302938397 
2.126027930055297 
0.0995417208892093 
3.787835150893988 
4.799660493452046 
-5.721289671952158 
5.385236011947041 
3.188443917593442 
2.27420689816975 
-7.51779847185751 
-10.34131809514695 
3.842707760278786 
2.207265398523584 
0.9091129742684022 
-1.244163085823161 
-9.940055672090562 
-1.725812510269985 
7.823611587681971 
7.759441602448379 
2.002107193227273 
1.578443531049179 
0.1284691985360653 
-7.864473178715876 
5.669273544727482 
8.681220624377104 
1.200275888141458 
-12.24885412403463 
-5.600512823137288 
3.234500422527013 
-2.863586041855251 
0.4828228904665874 
-0.07339559218829463 
-4.316418012529184 
-2.74213094749103 
1.836364640968513 
6.412469057003812 
2.184394886931316 
-1.677067036979741 
-0.9212669779124666 
3.217607184751162 
3.361723164585668 
2.183353744225986 
5.271584713727433 
3.264663359681222 
-2.692644964660143 
-3.073828540466211 
-2.711572029029503 
1.031475377664921 
4.679004738500042 
-0.4193489705197046 
2.012276192715764 
-2.530846711690178 
-2.924986087656747 
-1.302849251345022 
-4.719419796348022 
3.507306832256305 
-1.789732926354342 
4.50751775746135 
-2.874651980708462 
-4.217976492357919 
-8.512548745689797 
-6.418774558540826 
10.44366591691256 
4.002070509113825 
1.050497632245924 
2.807642097835799 
-12.18386845035218 
-0.1859692261943371 
3.092248186606134 
-7.735103955842576 
6.696257549004863 
6.410496722608299 
-0.3098820063662892 
0.1073220345598576 
-0.7268336604850836 
-3.518631885510557 
2.691225822649738 
-3.258201784321125 
-0.658456886478305 
-1.616231236577918 
-1.702237767974081 
9.210946705380231 
4.473078026676495 
-4.902649432899428 
-7.397256841586263 
-5.788888084357796 
8.335551073229487 
10.32174322130802 
-5.072804177954297 
-2.78876671697624 
5.583888364171651 
-3.010322583628926 
-4.928320393144094 
9.198862188557198 
-1.489266553557314 
-3.783504291376367 
1.783915267290494 
-3.393596376856161 
-8.983611934323115 
-4.320488578148081 
7.011590720200419 
2.79594472147197 
-3.200514575026364 
-1.228812076935357 
3.746456790711266 
3.934059204821055 
9.040876451839434 
8.07285603600184 
1.563701271296146 
-12.2104552982143 
-3.503599587936681 
6.846093684412295 
2.016606522671469 
-4.909993012212754 
-0.2368320460908651 
3.812876691083944 
2.612906077570519 
1.516970039750924 
-11.55731926055001 
-6.562411467630803 
2.852115078753673 
3.240244030505119 
0.7636514820197874 
5.082688079140414 
2.007452931754568 
-4.220697772839858 
-2.841390761655203 
-4.16394356370861 
-3.421711408490266 
2.319597048672443 
6.011835867588269 
5.251649523112357 
-2.894022776648623 
-1.304833329652412 
1.445669399668989 
0.6216396926668476 
5.269994228149128 
2.117370940295308 
-2.181562598675129 
-1.724293950238315 
6.551689329288491 
3.339502776569606 
-2.664156180421142 
3.171166062827079 
-0.2624807847389402 
0.1734953022412836 
2.552231648497058 
-0.3695398115356521 
-6.022299346676887 
-11.86165973476756 
3.952863822537114 
6.803313629942391 
1.904287846708964 
-8.581497986212 
-0.6156870424241441 
0.3517547029831784 
4.838397686368689 
0.4543953989314861 
-1.059355486623899 
11.16908586262459 
4.493276254191563 
-8.151036017326652 
-7.772066768809804 
1.439246013404833 
-1.260738899573392 
-0.6613540954057586 
-1.812895890341962 
4.662596179435679 
-8.314912186190558 
-9.262458551534587 
3.242457506259687 
1.481698400294655 
7.604989487510075 
14.06408642504715 
-6.05015672972869 
-5.506361429320009 
3.581264404818506 
-0.2625071414410904 
-0.4391220005379636 
-0.226683742074136 
-5.290099460448149 
0.3313701359360141 
12.4148610034286 
-7.235433008080285 
-6.09673090966137 
2.088556721812029 
-3.48793185963624 
2.320365797801763 
2.203781935952553 
-3.976754721696253 
-3.003685234792002 
-2.900446100106276 
8.896735002420602 
3.334700379396201 
-1.018010090369679 
-0.8544157653536738 
-2.653297678531263 
3.026098351833396 
2.864151976813937 
-0.7549308160932519 
6.40056647069116 
3.735565299693809 
0.5318790039407822 
-6.223366737296311 
-4.866653636713383 
-6.734624489130133 
-3.154207921685154 
0.2478100097193794 
2.785036877621142 
7.145969997215534 
0.5561025018861109 
-0.002920528520405702 
-5.761593501674488 
-0.8998702037498431 
8.840922548032989 
-2.936475335972252 
-3.86603905840465 
0.6917848491855594 
-2.098969422932724 
0.3331129038272856 
-3.16362532072987 
3.264201539222246 
0.2508561533958458 
-8.24223563787959 
2.053118453517838 
5.12301141989429 
5.351766167726807 
3.962795031099957 
6.975449503236188 
-6.496076971985198 
-10.49712107214164 
-0.08068547123792902 
3.005436339076125 
7.618320335675478 
-4.525124933205581 
-5.349556526529888 
-1.778304725293703 
-5.156349888710947 
3.70812047736228 
1.067410814249153 
1.195581999599044 
8.052656938950673 
9.226256894838821 
2.151014692314926 
0.4660850596639025 
-5.406569216678739 
-2.531758457965195 
-1.238851668372941 
-8.810215148797246 
2.483620709335796 
6.22639120544354 
-6.460764816835193 
-8.22692280666833 
4.980221053603635 
3.978032354212533 
3.29934145642019 
0.1385727960380347 
-1.345128357083906 
-3.47492434065092 
-3.397340893842948 
-2.27087254825331 
0.5483791683251398 
2.682861308308962 
3.156708086947028 
1.829432573704857 
-6.29276576091818 
-0.7581176841347246 
5.641651271583895 
1.646735037381535 
-4.700254477252027 
7.45491928421576 
1.992750176539033 
3.244486220713684 
-1.502712997066724 
-8.511179497176332 
2.074029768791762 
-7.823734433748652 
1.445896753639193 
1.599621132457556 
5.047923888110629 
16.21452653628209 
1.244596016496206 
-6.663869192621732 
-5.981302166016281 
-1.540643965299168 
1.070825914065538 
-5.174925345036514 
-5.723099723011718 
4.11629275009312 
-1.110752617751438 
-5.022199873846101 
0.4737572993147948 
0.3784385821785436 
-1.224353171276502 
-6.661903086110577 
2.885681981666072 
6.261525774556053 
-2.003407689640522 
-1.279324535674051 
4.606334614776365 
8.978127749867339 
-1.180499686632716 
-2.914540935728412 
-0.5005412474494562 
-4.80493626680796 
-8.197326365771552 
-0.7790355286059832 
2.691617587518848 
1.798663222248606 
-0.1471906580009985 
2.268184418706191 
-1.937547459100547 
1.382415341378773 
-0.9498094813805503 
4.300731149801298 
7.639721592815101 
-1.994166138978574 
3.871822431690261 
-3.947978963875382 
-7.539115512190187 
5.002267070678204 
-1.877963458504434 
-4.985699231450069 
-2.697458153746462 
-1.381964296334696 
6.949501062857412 
4.620500591442519 
-3.283287669842022 
-2.803593755113512 
-7.291969001570281 
1.019719211136653 
7.914742823273348 
0.5704052468109713 
0.8296617723684918 
-0.5115577416033459 
1.22658010799629 
4.863199589772802 
0.0817891289121221 
-8.401223641194523 
-5.402155553262415 
-0.8498337307788425 
9.895344423884231 
3.62554718241539 
-2.359744023311785 
-0.2043392652952677 
-1.003523371079049 
1.447597804436582 
-3.451596405300296 
-0.7741374735625066 
-4.94060643496126 
1.369285330528432 
9.417375012297734 
1.289967331559078 
2.825036377562355 
-4.310674041136155 
-1.351154452119281 
0.6280941720106036 
-2.502830568877956 
3.805763874386026 
10.89164388324955 
-4.792249919804289 
-5.758317840467289 
1.219121780432924 
1.976452856831815 
-3.676235511257822 
-9.038665579693559 
10.83651828921051 
-3.120765894379979 
1.222456565897867 
7.954899387068829 
4.021741256819817 
-2.305206048360924 
-10.30417382198212 
7.106893198180951 
-0.3266064338373056 
-6.259752426642383 
8.681494808299624 
-1.868328467342681 
-7.636712894789272 
0.5705393407261046 
7.41507885675419 
7.085643160607284 
-4.932136004521853 
-1.211358867350576 
2.290124003378792 
-2.558313983068849 
-0.5497775943813616 
2.200196925412806 
-4.520753365001436 
3.510159197861455 
-2.114019387704737 
7.045545674526789 
0.0819327088565508 
-2.622584098287941 
1.588162867388181 
-2.735467219721318 
1.167383309234953 
-5.771671248456372 
3.574092628345651 
2.271500827976524 
0.5705563909916613 
-0.6272725720772346 
3.849540621363596 
-8.259900311176526 
-7.906460587987184 
10.59072892289556 
-1.416922610713995 
1.035286376201191 
0.0598633884925766 
-5.131719395135026 
0.663485318260614 
1.297920457999131 
-2.177992033530434 
-2.088722900743718 
-4.008804813024814 
-4.102833610227034 
7.920902906461107 
9.970555222952003 
2.403525653235767 
-9.362845481706056 
-0.2693921666097674 
4.983697939257955 
-2.012405235610835 
-0.265371107655954 
-2.320037743479566 
1.757333791370105 
-5.42856383922767 
-2.353038173643067 
10.77356215283946 
1.517795472284375 
-3.936766937996391 
-6.970597349947315 
0.1266928159831843 
-2.18396267189471 
-3.386858887738056 
4.432901075847202 
-3.421919444925045 
1.316605338239076 
4.896807230597403 
-0.6303815625392239 
0.1602208178282296 
4.477313527714369 
-8.877337688592384 
-11.55045965928159 
7.617179941693785 
-1.497668959348475 
4.224291390021263 
3.789166634000752 
-4.309122049367811 
-0.7633287208202429 
9.884989385415361 
2.811298237634108 
-7.025417597571278 
3.646360379185641 
2.980652262305981 
-2.28096378476628 
-5.066411794123053 
2.926932572423654 
-1.732154640521117 
2.605795971679724 
3.208103477016016 
3.778021171156606 
-6.314286650600952 
-4.191324138769149 
8.30433037053802 
-1.494273531208865 
-6.361069820703215 
-7.417064415130528 
0.5577888002990881 
8.10198749282352 
0.05924625646207509 
-9.339325892323092 
2.740673892119753 
-3.033509805258701 
-3.407359272616626 
4.195565608642235 
7.965717288292668 
10.83496685446242 
-0.6094820984422187 
-7.212092819050984 
-11.97479872359386 
1.111048772169158 
11.70229128257393 
-4.816244295345991 
-3.828573199150927 
0.08061229180313299 
-3.244718204308784 
4.147187741008914 
9.677641703231698 
8.150727224448099 
-6.631872148660017 
-2.981408777752053 
6.127370351485361 
-2.129663939286885 
-2.078281487867477 
7.827561751473695 
-3.830018428715365 
-2.390027616462881 
3.917183713792561 
-4.155894696976741 
2.597793228573888 
4.265400206077156 
-0.6288319400083633 
-1.917000936917217 
2.304949312669256 
-0.5234714620694837 
-3.756008406456383 
4.340397661186218 
2.677886111011623 
-8.482481132256597 
2.838920104294166 
-3.816703747120993 
-10.57616782015622 
2.175188795731627 
10.18368631685463 
5.871427054164623 
-3.159087415128301 
1.645421372023673 
4.695350883227456 
-1.383029416176789 
0.984101620326749 
-0.5988011902991792 
-5.047455109685461 
-3.183884174266526 
5.654814424092016 
-1.571303439593766 
3.645582486003998 
1.588793070403397 
-5.335199239815402 
-3.330517098596163 
3.272513407530126 
1.053360564197564 
-15.62008756373129 
-3.562932507880751 
5.078644535442768 
4.126267946734478 
6.850145134450759 
-1.056767751243484 
3.190943878269626 
-5.441900512551209 
-6.660072600613923 
5.290903376639834 
2.359476776542492 
-1.990115198243405 
-0.768836668264452 
3.258490479068755 
-1.052959670265791 
0.6981001974987623 
3.142471058238044 
1.591607029403013 
-5.83977300872545 
-1.718160561488311 
10.84552804270706 
0.2708761007713935 
-4.411109548606094 
2.289991212493123 
-1.265622827944805 
-1.542519499909453 
1.56531320727065 
8.656377055020004 
-1.961844866942594 
-2.609775105731621 
4.219017375021472 
-3.283829876837824 
-6.221475419202857 
-7.75346403210483 
2.726747911701883 
5.025140361579312 
-0.627365473893469 
-4.303554880077408 
-0.3821201155786411 
4.344552817305225 
2.184127131227128 
-5.096703451460558 
-2.890266897063085 
3.217577646941045 
2.775454855490969 
7.417145455211131 
-1.858982953658899 
-5.880956441488271 
0.3269514266097072 
5.904975383339614 
-1.306477273760627 
-3.289722916785289 
0.9553216948647504 
-5.052080766514504 
-4.182361608636048 
4.954261067791717 
1.89574428342809 
-1.029926475299269 
3.741275240563577 
-0.6746396941363835 
0.3168869751067017 
-0.4468644474673019 
-10.24087908445452 
3.547179792593424 
2.982755923885299 
2.631642201971995 
11.06975548167909 
4.048294233935715 
-3.925468103095692 
-3.927985322731892 
-4.40682694333679 
1.867200853896779 
-3.028519237978251 
1.16259402217667 
4.317246787958106 
2.448579573426601 
-1.326653688673863 
-1.831005899796086 
-4.143969545120082 
-2.552613847439111 
1.675061427365349 
3.65855111757792 
3.270789932806332 
-3.065436042363155 
2.211145895531096 
-3.293356238772509 
3.260693673700015 
2.330915071366376 
0.9531291939587593 
-3.701933804522034 
1.212721243168835 
-2.527483083137928 
-1.818275957758091 
10.0433509942371 
8.700683288663068 
-0.02081362685268291 
-10.600736416537 
0.6752627756190722 
-2.737197971704766 
-4.625984240254359 
-3.077288580466353 
1.496855460425351 
-0.6753705527361976 
2.118458322148149 
5.78784635889424 
0.3447797069583804 
-0.09900800791029364 
-5.917123086715989 
-6.026710694307966 
-2.149776047373811 
7.414672452344283 
4.033208152505034 
-9.855069939885954 
6.253831822496479 
8.988827712994254 
-6.214028269003113 
2.74994255052689 
-6.278133537645296 
-8.835990803367842 
9.053585906975469 
3.243649636371924 
0.954268017054784 
1.810264064468173 
-7.886543565112871 
-5.433302880027189 
8.94614923562381 
5.129553218822273 
-6.23534014274551 
-7.242705608529211 
2.59362824297622 
0.9385797374935578 
-1.11937208264387 
3.106073404922097 
-3.07906933864633 
4.544340120188896 
1.765720429581216 
8.404384596860767 
15.36954854980381 
-11.64277869917885 
-6.697788089395742 
5.172177793541891 
4.814090681597034 
-2.839430406036052 
-4.951994405239859 
2.887291850795601 
-1.94117336587376 
-2.27362196008418 
1.190783464292278 
1.142658193257869 
-3.387833069353892 
-5.962242501357774 
4.176192229810639 
0.7642201093250565 
0.4325533917074471 
9.951186091801969 
-1.485672063706282 
-8.702222255573199 
5.631831940668945 
5.389595002981559 
-4.2096993119376 
-1.849209267375053 
-0.4869109093579123 
-6.268866848550749 
-0.1333385338522463 
3.922235566144476 
-2.895690180107283 
-0.8208946729004334 
0.08296110251716202 
-4.402617748453639 
-6.43515065255087 
-2.566794895654441 
0.7409871972010894 
2.938572877659793 
1.105172488132065 
4.480676413960064 
9.804152312050476 
-2.902045549266068 
-13.03591836522059 
6.436140789925457 
9.172768172552912 
1.547108337170739 
-2.746224660632623 
-8.125291659745372 
-0.5165242958079367 
3.742898403836841 
1.731855680381457 
6.81108678421637 
0.2417494451210148 
-8.513681156886818 
-4.719568758088598 
1.91291698176185 
13.14889479115608 
-6.013010960694251 
-3.594074316229094 
10.60016723606784 
-4.155887154952183 
-5.086664147241472 
1.120040168861744 
3.505086831308332 
-6.871150491435819 
-3.753095418226394 
0.04310024134525915 
-3.874597610518007 
0.6789783201111187 
5.637578885547681 
3.866686899694964 
-1.454431185467541 
2.915619798472978 
4.968615611661786 
-3.483638379367592 
-1.800590509151403 
5.973512395775255 
5.935150601562895 
-3.299993408752589 
-8.098625840368854 
4.169125521423173 
4.18053851329874 
-6.491479944198844 
-5.071569699150974 
0.1602779716458752 
0.7363354486451282 
-7.905352624835736 
-3.029943609757283 
3.463397522280355 
8.291869457223731 
2.892211479597311 
-0.4046293562871456 
-2.185471243493233 
-4.65151938642493 
-3.582793964966979 
6.389027964115467 
-0.2908351457526925 
-2.174145077372374 
5.673995832627509 
-5.104530014113932 
-1.715482522968907 
-5.509304268880307 
-2.012049309926045 
4.328680030482279 
3.86203511515264 
3.144205350104048 
2.245700156415328 
-5.130655345706439 
4.135660576553361 
5.537385564657967 
-2.033855895505996 
-2.519410592712132 
3.097838443198348 
3.424878495254709 
-9.063551948174583 
-7.1835280003006 
-0.0128913175128764 
1.74092044133275 
-1.960970472491716 
4.24080472517183 
-1.912038760834603 
-8.625499431158076 
5.931196842025373 
2.489613790026627 
-3.100724838500215 
7.119970457152372 
-3.999495093717509 
0.9789961299522936 
8.518228881433016 
-5.072396805461354 
-4.078000959713917 
-4.048733720916988 
-5.078924012965047 
-1.022917115690354 
1.595884560488837 
7.283144063861297 
-0.4150432776206469 
-4.851283575555533 
-3.457592517934751 
-5.019452359999553 
4.26645815839997 
-3.608828557431129 
7.688367099240356 
10.11988453495237 
-8.276773112617599 
-0.182345684765095 
7.631271678722194 
1.655005437050889 
-5.794305469848959 
-4.629132265255842 
5.575329053619902 
2.86987474237407 
-6.755824828342543 
3.570978823081539 
-6.005645359867785 
-2.053156430909707 
3.935399057842602 
-2.315265105904802 
-2.722070184456367 
3.20073452333833 
-0.4717930330262566 
-6.065906916968135 
-5.302740205542991 
-0.2247615297300095 
11.41637503510687 
6.905673360412421 
3.839408393603814 
-2.144607224092887 
-2.044107435156203 
2.982120525095509 
5.03324152734415 
5.235390809412481 
-3.54948968320058 
-7.853467238667454 
-3.049809231331421 
-0.9535894708162382 
3.94193702705862 
-2.596208680394545 
-2.583915872859733 
-9.786055067189491 
1.419172188811517 
8.114032193135206 
-8.587795648061405 
1.23554472733626 
2.744721341994864 
-0.04336903315414254 
7.393188367589142 
1.976355563365345 
-1.452581347324034 
8.112964752222471 
3.66458044126083 
0.7496475442356024 
1.727484988785869 
1.852560527588382 
0.6344647927449457 
-12.11642782737333 
-10.04511133747599 
6.831585431981373 
7.33535989598476 
2.244248245739899 
2.495405438745474 
-5.628147525882694 
-6.347627309224881 
1.172563146105705 
3.340484642906583 
-0.5082273633851271 
-2.880364563056419 
9.172129039155333 
0.4349556377169756 
-4.605977388967981 
-5.906135550639523 
3.442604091192434 
3.887651139654746 
-4.164341461338577 
8.513204892265275 
4.351249852839048 
-3.520485274175203 
-4.934000270044265 
-0.4396320067438796 
0.6307358732094857 
2.242516030939442 
0.2038864661136406 
-4.895429158523506 
-5.91914838979755 
1.471337146829344 
2.409781385907384 
0.8195080979192855 
-5.717613106825232 
-0.3339796275485089 
0.5267175319457439 
4.777980913308535 
0.7373111370518108 
-6.688776039644999 
1.025754646256138 
0.1140824868662757 
8.846752838547401 
-3.990707717517634 
0.7206192223162773 
-5.590260376062129 
-5.559199432530632 
9.914773830305428 
2.451732244165903 
1.769907043718077 
2.816421194802049 
-1.669408134358107 
-3.50465446706471 
-0.802261248654267 
-2.352947424530748 
9.844473336653987 
-2.621197248631093 
-1.939148182327981 
-4.838576992722696 
-14.73262246265353 
-2.089849200002432 
0.6496615934213452 
-0.7930200833180983 
2.011131650839233 
5.896740332185058 
2.56405216231519 
6.629246600147259 
-5.771357264775661 
-2.067712844099425 
3.585739173391153 
-1.077074749402527 
3.677382754506483 
7.981024132572119 
0.9238472078274735 
0.02203757332747717 
-1.972621867162446 
-6.916282055593678 
-2.424954036854979 
-4.590962027907752 
-2.420621449341065 
4.62003226937991 
13.03482176136801 
6.204686738304409 
-6.658376974802363 
-2.897229632827091 
2.884833373796734 
-0.6279208617995941 
-0.1315274707079794 
3.508050596425611 
-3.392604878874186 
0.2694659090395725 
3.939165692217114 
-4.776103638422092 
-7.368720427841909 
2.586949405153265 
1.608982105353078 
-4.249196529461901 
2.414036743157482 
-1.838806481581437 
2.221741804085591 
-1.699576652685278 
9.383253147878884 
5.807110650889699 
-6.881249400875333 
-9.857969218091476 
-3.073206306044564 
5.064769786303063 
2.381290692350785 
1.599624486886583 
-2.234764378934549 
1.94660877160631 
-0.3632746570629395 
-1.538759204164417 
-0.6988098635093182 
2.436833179887062 
1.773160345898232 
7.043231924945334 
2.668162401489513 
-2.203073428834284 
-5.180711686681074 
-5.24008971816844 
1.212830835759719 
-5.186226960742031 
1.980627479418309 
5.991732930985704 
4.450668751250901 
-1.986857001246758 
0.7296959834548176 
-0.9761899225348829 
4.037681668247833 
-1.723081957187914 
-15.0108936049782 
-3.108066380193435 
3.392186584162673 
7.628071502578142 
4.492896120362145 
-3.408022776937039 
-4.489010992292019 
-4.218087752259284 
4.969902463063763 
4.026339838861804 
1.645558011830743 
3.724255508782814 
0.02824913894572623 
-2.081132405846104 
1.043992465608434 
3.015052898138878 
5.48446994488949 
-1.560259592522242 
-5.610480451112788 
-11.45325681896937 
-2.030817870965468 
-2.877676978407231 
-2.110645823105331 
5.526831697134491 
6.547440885155798 
7.240405081477297 
-0.1341244235823611 
-11.82025530728625 
-8.269995019828446 
0.7646624555812118 
9.756978690641875 
9.147917506780528 
-2.68850290747164 
-0.9270641598469911 
4.691137598573444 
2.001179621307285 
-7.432741301497051 
-8.104536354688276 
-1.32173655359864 
10.26447731117416 
4.13414343928299 
-11.51384838686893 
1.177062970410513 
4.951766483237769 
-3.043140793968059 
14.21554505661352 
-2.530302448628164 
-6.281105748491777 
2.315551477848881 
-1.987693960657763 
-3.331436235732161 
-1.018552184299277 
-1.723072659898078 
-5.51070401696913 
3.9085697703456 
2.728771606366941 
-0.6409000171322863 
4.626881553077563 
1.524366400386439 
-1.919594698771517 
-2.37847524661645 
-4.889063979087632 
5.921252798018848 
1.983694690964938 
0.7198940606898259 
-0.7867454324708621 
-4.754724868022274 
-2.746036991864748 
3.076102737932543 
-0.07908822317754563 
3.315158733538852 
5.579281762948595 
-4.481535692882701 
-3.717159689225912 
0.01828211695495318 
-2.61859152135965 
-1.554600316460045 
1.684003696961009 
3.142784957517827 
5.337648600383485 
-4.430659342078857 
0.766324389901417 
7.799307397508513 
-1.203287636571312 
-5.175943317942032 
-0.8899821883682784 
-5.316578516832061 
3.581570168293139 
8.116076777715262 
4.160337941900598 
-0.9634206946346334 
-5.325850374719483 
-5.735221725019513 
-8.042209103759923 
3.90067862664474 
3.679852429106239 
0.5021752855755318 
0.8116483727374368 
-9.568878889558265 
-2.434247474172057 
-3.157760961775129 
-2.850527727815721 
6.479362849187434 
8.62839402879785 
4.580325173041638 
-5.567863120685334 
-2.312194306575509 
3.383661590878387 
1.796778166585117 
-2.885679344235156 
1.764441582982212 
3.921014156049348 
-3.972651426117625 
-3.728930272118938 
-5.582577248790029 
-0.4972981188326725 
10.42025198874348 
0.3181413658819655 
-3.304901266124452 
1.022376016136374 
1.080539448825741 
7.126869329196492 
6.365151636560098 
-1.183317329002898 
-4.830454191196598 
2.804815191267978 
-8.901151712218351 
1.842421609060818 
-0.5380934598063247 
-11.71544907826294 
-5.039628654179098 
1.890957655799155 
5.810930030329339 
6.761179722009046 
0.1214208264787652 
1.691290529119483 
-0.03397664400962783 
-1.150185870019398 
0.1352832326847365 
-3.673312771325661 
1.565635151647167 
0.7228163716999964 
-0.7705155794954557 
-1.616582433076061 
1.08025986490348 
0.23909475721705 
0.1606369274455274 
-2.474743112289178 
-3.795102923130377 
-3.61124962537242 
1.839929834643847 
4.368552753747637 
-4.553432085265124 
1.087945051734668 
10.59167600829717 
-6.722446986154961 
-7.550547561484914 
9.095750762632603 
8.390307467400495 
-1.921119374218004 
-0.8229879848179319 
2.209787810120963 
-4.870484221349187 
2.704063331508526 
3.026650990563927 
1.619987850406002 
1.737180911610924 
-3.607470548789311 
-4.170004705348267 
-3.593821129994551 
4.686592984354372 
4.800029585349884 
3.299804254029562 
6.154046222370121 
9.633150324119747 
-9.7568265086667 
-12.62250304723461 
8.230712313908946 
-8.716006151890564 
-0.4483962638166772 
10.3718088710848 
-8.375843800653756 
-2.025358817893156 
-0.3391479673156803 
0.7781695863809569 
5.402105694657983 
-7.938314177844506 
0.3452408723950288 
0.4689956340376255 
0.8670919930932296 
4.970702748476022 
-5.577169441439771 
-4.941857906751588 
1.913560797629355 
5.606380722521674 
-8.608061625124982 
-3.120661881939049 
3.939981400980143 
9.372160208487903 
-0.4438630905082652 
2.887994563835856 
3.306042309210074 
-9.220359533738128 
1.235255325302425 
-7.453208916776878 
0.758432946957448 
5.542449435902685 
2.92772395444561 
0.9163167936163208 
-1.824583038606432 
5.289694545269874 
-8.246715023174866 
-1.544955350336009 
7.953305337103425 
0.9538414444697643 
3.288296848900275 
-3.456426549933109 
-13.57605193026629 
-1.319954574025644 
8.823607175567197 
8.823139005190324 
-0.07449232807739783 
-7.566711586067469 
-1.670525157054834 
-10.2654244747705 
6.07281003246168 
7.124572649239252 
-1.346270289550393 
7.821200517436745 
2.128922306071134 
-3.735122778943128 
-2.234789584702841 
1.641299965025937 
6.9921334368034 
2.352602059211189 
-2.383231912875764 
-0.635593432060499 
-3.930790000145492 
4.356197680116026 
0.7013575186087905 
-2.912731740455965 
3.91478507887972 
7.312499348729772 
-1.88680851261307 
-4.371457763501017 
-0.7139890400613493 
-3.045789278038235 
5.032973412208733 
3.443080708942447 
0.2065719029067819 
-2.08435089075696 
-2.610392372428656 
0.9197650229398517 
0.7068045867185514 
3.678732152691587 
1.282836200279849 
-11.07505578770227 
3.034463633872827 
-1.328803059770989 
-7.619955960358363 
-3.82950477400492 
-5.729393946548421 
1.281998247969965 
-1.763701359920564 
0.6285888937904559 
3.660389871957864 
1.118797123460696 
4.553291559013027 
5.883180220210628 
1.841570520666854 
-3.05356956682598 
-0.9022158904313687 
5.151334410329254 
-2.177248591427105 
3.578450533907704 
4.295167264758554 
-4.945132867785114 
-2.118004261084911 
-1.461451132983017 
0.298000299933817 
-6.867284736744041 
-1.838504406106102 
8.483145519475054 
4.844801906646092 
-3.14220305916999 
-5.765578963096737 
1.028605717629541 
0.4160553884280545 
-8.192146516134981 
-4.164654874606224 
1.753067256494909 
-1.548891001413629 
9.000772880020182 
10.85510835450326 
-4.27316056274867 
-3.912022634162248 
-7.738766657934543 
-7.71379789167174 
6.24573904305915 
6.691664238562441 
6.090243820884136 
3.796782634001438 
-2.556382070432237 
-2.115662446660113 
-1.487532588628377 
-0.3240768216490563 
0.2344508437704411 
-0.7403496269626274 
2.804915281132169 
4.320325121153012 
0.8302176776862478 
-1.847485739685705 
-5.996977970685919 
-2.958738762896402 
-1.197853352806753 
4.309060978700763 
5.737996005948694 
0.4604104082777036 
3.485851313219789 
2.365960926183539 
-1.30695107018182 
-8.560547266973298 
0.009696682109761389 
-3.26274062242 
-2.444320760935486 
-0.7313934152422776 
-1.878365694585058 
3.121607323871214 
3.271173868110968 
1.95061863131832 
4.564012211257858 
-0.8085654748910794 
-4.941441880570877 
3.273383092755775 
0.2601981817128798 
-8.106018190579871 
4.56027945149229 
8.347920027577088 
-3.938246540889912 
-4.190115332450531 
-0.03931972040649161 
1.223894540200237 
3.540792602494033 
2.727602255664205 
-1.677294576997797 
2.316908950230196 
3.277495230719304 
-10.64999394210935 
-5.784220202580233 
0.7224128248628099 
-2.203341967965357 
0.6006023307512773 
3.21371402289462 
4.820798798029583 
1.417196884355074 
1.399512155119373 
-1.561274457805202 
1.013043228685124 
-3.235838176616238 
-5.008508230133359 
-0.9796555718115049 
11.88357994532504 
8.044303992801828 
-7.349604114837017 
1.221341454828196 
0.445496695817584 
-2.170044751418281 
-8.6185923026003 
4.465434247104755 
4.630857233531436 
-0.3937601157613285 
1.873713743018858 
-1.224500247323724 
1.709306027206116 
-6.073006003769937 
3.72948081866732 
1.109977520843799 
-1.620476540369571 
2.702804969249379 
-3.099379343079773 
5.626137300727793 
3.336032889756162 
-6.423128597099081 
2.276915625405944 
5.401506958002281 
-9.829985668452988 
-0.50196844817083 
2.166852971647105 
4.168962397136377 
3.472676005732679 
3.511425176590044 
-3.214977374529397 
-6.410870037879606 
-0.2990843751605768 
-2.166215965359218 
-0.875834281293138 
1.116835246508776 
2.488619225775114 
-0.1090775092729928 
2.199444018273212 
-2.793023891647839 
2.460619614356014 
4.305784059919039 
-0.8791914778529307 
1.695759369292421 
-5.120289344337328 
-4.611211595591989 
0.7729026674256616 
-2.306451372095301 
0.1817364470959208 
2.491043597652195 
-2.444080324134265 
-5.304466140271695 
-3.589411157700792 
1.709464154448871 
-1.128888329965881 
-4.561261874178157 
0.3308925165378023 
4.83856103267742 
5.0090184894172 
8.679593882842701 
1.540839382780492 
2.046686270888116 
0.5366714652478425 
-4.927388950252467 
-1.679787660192936 
-1.26418692211445 
-2.727807755409775 
-2.784713877142791 
-4.922805987138492 
4.081756385586631 
1.057656693704112 
5.092467925110443 
0.5380351632979163 
-6.284430260310883 
3.251000725380526 
-3.520813779478492 
1.711883944757729 
-1.097457878315921 
-2.287315771125005 
4.63898795967058 
-3.149318572659729 
2.326253230686505 
2.994887903547721 
-3.648406490488251 
3.655702029438756 
1.770873088534022 
2.412450048721488 
-5.471691687855094 
3.038087057187177 
-6.502052488148762 
-6.771995854937338 
7.532060201244299 
4.285458096332046 
8.33529237200468 
-4.354538310747457 
-6.628042079460424 
0.7380238928498056 
-4.815253298209013 
-0.5857599615809931 
1.2005652935015 
3.360866221645624 
-6.687617272059862 
-1.034820110417503 
5.349922216987099 
4.285382287307503 
-0.4213608367318197 
0.2101722337249737 
-0.6417065063975561 
-1.138706373065579 
4.412092377761351 
3.520418057699001 
-1.692029291134422 
-2.726221456482359 
-0.791213535177669 
-1.554829258140639 
0.4146863890134477 
-6.136392673955823 
-1.268199150711797 
5.070470192257347 
5.587481544161469 
1.355291001427596 
-0.4651038148847226 
