solver_type L2R_L2LOSS_SVR
nr_class 2
nr_feature 1984
bias -1
w
3.907178153133484e-06 
0.01737144775641998 
0.02008841902771446 
0.02006944065311812 
0.0200714243122971 
0.0200666611352139 
0.02013125600296327 
0.02006860744216688 
0.02004031052848515 
0.02009238364332881 
0.02000111680983851 
0.02005500160464721 
0.02007765475283448 
0.02008580360246334 
0.0201055480284554 
0.02014073530719317 
0.02008152350000154 
0.02013304980442888 
0.02007217980573487 
0.02004176195501413 
0.0200168755346003 
0.02010541657597262 
0.02002406102652088 
0.02006088917450999 
0.0200575712660165 
0.02008370297306253 
0.01995632136566531 
0.0200406946614286 
0.02000104569609934 
0.02012897424998391 
0.02008516207051632 
0.02020193688031626 
0.02007428778356845 
0.02015806529689273 
0.02012431219666755 
0.02015004554067998 
0.02011439791682993 
0.02014782115637638 
0.02008031063212544 
0.02016911892978851 
0.02007474002002891 
0.02022748297144598 
0.02013183199632972 
0.0201915511450632 
0.02008039489936586 
0.0201607736188732 
0.02003447679194903 
0.02020799862898635 
0.02006596489404315 
0.02012867756094496 
0.02006665564871573 
0.02004935611222472 
0.02008653339418043 
0.02010090907957337 
0.02009013200055205 
0.02008326700472958 
0.02007398663914112 
0.02011532249832239 
0.02008890755448039 
0.02009103913724399 
0.02008420375928312 
0.02008709471582647 
0.02012204928400364 
0.02011105544533932 
0.02013079499826667 
0.02003972010021855 
0.02009408712896531 
0.02007762704916858 
0.02012579948129216 
0.02019036127984785 
0.02011388405905172 
0.02019304234002395 
0.0200538614510106 
0.02017812300175779 
0.02004244123601797 
0.02023635847811209 
0.02009798122709751 
0.02013405454764925 
0.02014015212177167 
0.02020403869663637 
0.02012560344336665 
0.02014166432901016 
0.02004456284899266 
0.02015170962074183 
0.02003557159983105 
0.02014856662495823 
0.020075970554713 
0.02012145937914862 
0.02006239296910413 
0.02010212273946454 
0.02002720263457865 
0.02013030390693499 
0.02007509227926977 
0.02007242260763474 
0.01998996891844241 
0.02015946043738297 
0.02000201638422273 
0.02015939643194888 
0.01997579366026403 
0.02014322740888473 
0.02004966586996285 
0.02019707423190159 
0.020040040114358 
0.02014563941805028 
0.020019023863985 
0.02010449636423368 
0.02001366256496456 
0.0201690160196841 
0.02006634793203486 
0.02019881270068448 
0.02002960759349032 
0.02019720747110938 
0.02006680333140819 
0.02012404324157939 
0.02003392518898216 
0.02020043713444689 
0.02008283181742327 
0.02014883987796102 
0.02008496042852918 
0.02011971136602305 
0.02008068774365711 
0.02013698089268278 
0.02002335504394187 
0.02009950974161227 
0.02002827421628727 
0.02012038044991089 
0.02003636044782551 
0.0201168892424106 
0.02004733375257296 
0.0200955136211984 
0.02003767672868055 
0.02010275911737619 
0.01998779526690507 
0.02006136604755294 
0.01993572351652624 
0.02006611479346775 
0.01990796599109841 
0.02011115375065989 
0.0199528887497053 
0.02014059762838647 
0.02000949821937237 
0.02015164983198073 
0.02003165093858469 
0.02015514584489625 
0.02009877394611654 
0.02013988482587309 
0.02009288719251851 
0.02020633533509914 
0.02011363934838325 
0.02023699846997891 
0.02012259602642797 
0.02025978493291864 
0.02016311754028394 
0.02025239512075329 
0.02014861754315045 
0.02025893820094075 
0.0200899867368928 
0.02019973328120548 
0.02006768123826605 
0.02016881264923093 
0.02011717568234037 
0.02019819669071021 
0.02005406647168353 
0.02014679208716596 
0.0200656507353309 
0.02016333895451618 
0.02010497817371237 
0.02000991404281801 
0.02013113452663851 
0.02011524101018275 
0.02003043694085537 
0.02012316028051825 
0.020108185392781 
0.02014673841551317 
0.02005676680225314 
0.02021858003599282 
0.02002780387470746 
0.02016448111414645 
0.01997571214983322 
0.02015758261600481 
0.0199984280277969 
0.02019062159729163 
0.01998342087117665 
0.02012920804712644 
0.02000705919967207 
0.02013690293175634 
0.01995331364754466 
0.02014001552121005 
0.02006244636452565 
0.02015101690515877 
0.02003542237855105 
0.02012114802476207 
0.02002523354081763 
0.02015881198591908 
0.02009408039127204 
0.02013608111707153 
0.02015269570922111 
0.02010576517248597 
0.02012318206212799 
0.02008143461200593 
0.02009934453606266 
0.02008310429990255 
0.02015282669489703 
0.02015022284685159 
0.02006006121854157 
0.02009044937549961 
0.0200592838908036 
0.02003250755854421 
0.02010435473175532 
0.02000997131577167 
0.02012205300048127 
0.0199876449586382 
0.02016145594058713 
0.02000121978354082 
0.02007384953935977 
0.02011040518791381 
0.02014120857489562 
0.02004351442469994 
0.02011395417502951 
0.02010244867426961 
0.02012526974144064 
0.02004803136716028 
0.02013664786622273 
0.02006519553193283 
0.02008013937714551 
0.02007870941657619 
0.02008323589661361 
0.0200071065509155 
0.02008465918502048 
0.02006503329006536 
0.02012652076747183 
0.01999987436777268 
0.0200838322773098 
0.0200745548593055 
0.02010227230367354 
0.02011569093525076 
0.02010789433418301 
0.02014223977448615 
0.02008200436859606 
0.02013167598322538 
0.02004703138682835 
0.02015464206133854 
0.02012679818909225 
0.02010447939771547 
0.02013623759575007 
0.02010804337356877 
0.02008715728771717 
0.02010707432455922 
0.02014255678937412 
0.02009906116708539 
0.02004557084664544 
0.02012644993174878 
0.0201950370233929 
0.02010520028098563 
0.0202340580479673 
0.02013634644277069 
0.02024113104585697 
0.02012581961555293 
0.02021332627406814 
0.02008130040878492 
0.02015073533381078 
0.02019091090911132 
0.02022018000523498 
0.0201139520371957 
0.02014697966544393 
0.02010725174131537 
0.02014143813786973 
0.02010310021646643 
0.02012132986136569 
0.02014229441708849 
0.02011325205740561 
0.02010196637998356 
0.02012733866861352 
0.02006400456355635 
0.02016061208693006 
0.0201068851211653 
0.02016708690016466 
0.02009036269399741 
0.02017211223795175 
0.02009081241201881 
0.02007973664937657 
0.02005299906600644 
0.02017722132096672 
0.02004024784657632 
0.02012154739967967 
0.02012876458523057 
0.02012897178254293 
0.0200901453128162 
0.0201055286914371 
0.02007094749855117 
0.02008817851163403 
0.02008747801114932 
0.02011560703745746 
0.02006595265909033 
0.02021138327976664 
0.02002196001096625 
0.02018262419558532 
0.02003112510805559 
0.02013442304433641 
0.01998486221771808 
0.02016196254451297 
0.01998841851344313 
0.02018776180674224 
0.01993701808463108 
0.02013035098346239 
0.02000001689464157 
0.02004012408647941 
0.0199534559437018 
0.0200507787037628 
0.01998602800527069 
0.02007863262760957 
0.01995138045725366 
0.02005802106026092 
0.01999060670646224 
0.02005933778279238 
0.01997510835252144 
0.02005192917875814 
0.02004598573043868 
0.02011211506909036 
0.02000962710959638 
0.02010328513386074 
0.02002909977705344 
0.02005605219486895 
0.02004948782447842 
0.02006749389447062 
0.02002616699564377 
0.02010037414304246 
0.01995303487370878 
0.02013232520956154 
0.01999323498487509 
0.02013967592297144 
0.01998958004065299 
0.02010766364134729 
0.01996936728360852 
0.02009832901417126 
0.02003100446597229 
0.02006792820031821 
0.02005095178914403 
0.02005463644986787 
0.02006805790462556 
0.02008056345640642 
0.01999214071720399 
0.02008200097434292 
0.01998308015265636 
0.02006039398464029 
0.02001720621042101 
0.02005090909299642 
0.01994853327220905 
0.02004175760204563 
0.02003962854183127 
0.02000648051096235 
0.02001663175317157 
0.02002515861241207 
0.01990227811394656 
0.01999916957958823 
0.01987958269824975 
0.01999579258373093 
0.01997663119737639 
0.01998485524180654 
0.02006774738849397 
0.01999009288226869 
0.02002054298502984 
0.02003090379446324 
0.02004782104153251 
0.02002975981653079 
0.0200333307213374 
0.02005773883302312 
0.02004538009578181 
0.020079007816404 
0.02001301696092213 
0.02010516092077053 
0.01999971123355184 
0.020095117405513 
0.02001929639719163 
0.02011837334200103 
0.02005256432650964 
0.01999811607197453 
0.02013447239125907 
0.02006751375978481 
0.02003890599287529 
0.01996602606006981 
0.02009174961257382 
0.02003649925045624 
0.02006693533043025 
0.02008431303704979 
0.02005356230670092 
0.02010879373055239 
0.01997439822967586 
0.0200745431722093 
0.01998310570294117 
0.02007298973257471 
0.01997829340167375 
0.02008453034362088 
0.02001778259542199 
0.02005784592285009 
0.01994401616035815 
0.0200347346200145 
0.01993404387864213 
0.02006410281596731 
0.01997701782002494 
0.02003375070629149 
0.01996286188814666 
0.0200729250539156 
0.01984979855434708 
0.02010252432363158 
0.01995142419248164 
0.02007213012482704 
0.01994432327674858 
0.02006323742250992 
0.01997849202392226 
0.02005590263918322 
0.02004615854639945 
0.02003212630749161 
0.02004387891811846 
0.02002825620048989 
0.02006551183800658 
0.02000789460298007 
0.0201396865640492 
0.01996917766306003 
0.02012215423462442 
0.02000873653107138 
0.02008695071013129 
0.02000159299567306 
0.02011671606881712 
0.02008290353812292 
0.0200975193838181 
0.02010353313488631 
0.02004241636468799 
0.02004802479407446 
0.02001091047912508 
0.02008080029757174 
0.01999105410873249 
0.02003967400253722 
0.02007356204360551 
0.0200701421316834 
0.02007877722978527 
0.01998441744365032 
0.0199828671859071 
0.0201134680188422 
0.01998169182959947 
0.02001667896353072 
0.02001064561573763 
0.02006373743976641 
0.02004079221633062 
0.02011470408712857 
0.02003746237475523 
0.02012560845629776 
0.02004252328241767 
0.0201811574598634 
0.01999816049997231 
0.02011755209101689 
0.01999360888424752 
0.02015776429849363 
0.02001524062678704 
0.02018183102859881 
0.02003505970577483 
0.02008065841748865 
0.02011427117127352 
0.02006827453702803 
0.02003727975838371 
0.02003618349444996 
0.0200897991488613 
0.02005549828380213 
0.02012733217346857 
0.02000897186643487 
0.02008648580304221 
0.02006001948186063 
0.0200296683462679 
0.02003023063458495 
0.02003114411400495 
0.01999072288802856 
0.02001019065095952 
0.01997436805140864 
0.0200074281543054 
0.02002042334889575 
0.02010658064867296 
0.02000757714616759 
0.02016417298022268 
0.02006860498640818 
0.02007997127749179 
0.02006363057732908 
0.02005967138501182 
0.02018365476686262 
0.02010060663022083 
0.02014865567669554 
0.02009825771771272 
0.02012599558844211 
0.02012494051573102 
0.02017015947673888 
0.02014551422969334 
0.02013603360761429 
0.02012896124758611 
0.02010332142921826 
0.02008372461364915 
0.02014826438795355 
0.02008741099452227 
0.0200955613451657 
0.02014465052360996 
0.02004975309646274 
0.02008789579341092 
0.02001939655142564 
0.02020757829661395 
0.02003312945457854 
0.02027247611105442 
0.02004793894433826 
0.02023521373890559 
0.02011378467864684 
0.02019584380367489 
0.02005799367590229 
0.02014564590190462 
0.02008571852526423 
0.02014217439619347 
0.0200526083546549 
0.02015958753224173 
0.02006079623527638 
0.02013266680653961 
0.01998332887517377 
0.0201418407901042 
0.02006485739820329 
0.02012463460756756 
0.02003094366272695 
0.02006580139778739 
0.02011943566272644 
0.02007742944941788 
0.0200606541212583 
0.02015913943914055 
0.02007908044360232 
0.02013071290331782 
0.02006565130904667 
0.02014758131674015 
0.0200286402178453 
0.0201660058007086 
0.02008154320064187 
0.02006887535703154 
0.02010189135581671 
0.020002797369804 
0.02004435619917216 
0.02000571538178562 
0.02002621130446523 
0.02007455115391198 
0.02008490947066738 
0.02000908326598886 
0.02001414366210939 
0.02010499742591424 
0.02002817767360542 
0.02013983271038049 
0.02004682609266411 
0.02009257005567457 
0.02004191632116351 
0.02010274142327857 
0.01995101081993628 
0.02014673009390599 
0.02000971256236615 
0.02013023192411157 
0.02003784208419098 
0.02015594039008388 
0.0200436769584499 
0.02008358731025458 
0.02003238166365025 
0.02006192359162393 
0.01997412102229761 
0.02010284190411622 
0.0199637032875836 
0.02006223578760304 
0.02000740772066352 
0.02009765324786084 
0.01995771026644557 
0.02009247433921849 
0.01996854096478247 
0.0200640691530278 
0.01999149073024095 
0.02011503521868136 
0.02000587033275939 
0.0200015628765892 
0.01999809472294217 
0.02002415856058707 
0.02005443189094698 
0.01996640147494791 
0.02004246049194158 
0.0200061157616674 
0.02005463658068112 
0.01999449549237726 
0.01997710245743616 
0.02003186236471003 
0.02007409146456015 
0.02006399388379399 
0.01995822271291748 
0.02007393588321683 
0.01995543773121221 
0.02003534708088402 
0.01998516112513594 
0.02002294270989003 
0.02005461425379315 
0.02006957764915004 
0.0200456460008659 
0.02005329758654427 
0.02003110968249314 
0.02014775400618448 
0.02002814686386356 
0.02006988498124849 
0.02005448792197252 
0.02000263251759165 
0.02010314882108132 
0.01997453215237885 
0.02013708716218192 
0.01997958366272716 
0.02011006797702042 
0.01995814118760381 
0.02018460238061442 
0.01992271656525896 
0.0201496687870401 
0.02002695908739513 
0.02008805005214068 
0.02000257201938873 
0.02014137961592415 
0.01996446497244756 
0.02017307249612803 
0.0199813908237323 
0.02013945994516279 
0.01995884026025919 
0.020037171732401 
0.01993142081644549 
0.0200070798516548 
0.02009427469568945 
0.02005960878712433 
0.02012453390662315 
0.02015043850850984 
0.02010985836133214 
0.01998445756655441 
0.02017321271962371 
0.01995863050987729 
0.02011646666433703 
0.01999457997998651 
0.02008386521085932 
0.02000600529709759 
0.02011637518280372 
0.02003915710052403 
0.02007459074632509 
0.02000780849692558 
0.02003135330434282 
0.0200562338452019 
0.02000610729788947 
0.02002973465647132 
0.0199869012175069 
0.02015249107067599 
0.01989928777452377 
0.02015150381030051 
0.01999676837825181 
0.02012871247176962 
0.01998042442177314 
0.02007947153749919 
0.01998349474820338 
0.02016882680692962 
0.01997981670671726 
0.02017957442928718 
0.01991386359221431 
0.02013684959061809 
0.01988486737746449 
0.02019767134121374 
0.01991697540352771 
0.02014194586928224 
0.01986303098750802 
0.02010537941689204 
0.01989663812290616 
0.02011651768218248 
0.0200001964653878 
0.02012896756843364 
0.01991405252740789 
0.02016204306350511 
0.0199791512948351 
0.02010352239322167 
0.01998789346209303 
0.02015634949578199 
0.02002060722448981 
0.02017408637522622 
0.02005053822570038 
0.0201198516410862 
0.02009665681956813 
0.02017520791103676 
0.020025869130146 
0.02013826280465764 
0.01998779898992592 
0.02014449421793188 
0.01996191013951936 
0.02014729460261635 
0.01998046634441895 
0.02014903402555695 
0.01992806428043633 
0.02016766601190623 
0.01997080042686853 
0.02004969893577412 
0.01989921487982273 
0.02008516213799563 
0.0199593213600472 
0.02007370376212686 
0.0199423614048999 
0.02001811938393398 
0.01997009307422891 
0.02007741206671021 
0.0199469582514622 
0.02018369204158928 
0.01986684083262047 
0.0200835801864374 
0.02004133060298318 
0.02010652780861044 
0.02004184142143749 
0.02015213365963601 
0.02006723361766631 
0.02015272474133378 
0.02011126708274886 
0.02014316335654716 
0.02008846337023518 
0.02011549268806501 
0.02008792592507026 
0.02021240136707067 
0.0199401721129697 
0.0202194932696837 
0.02004838825465851 
0.02013074241536699 
0.01997249706782657 
0.02023079501105272 
0.02001982801551438 
0.0201860486294396 
0.02002692716687628 
0.02017875583280024 
0.02004708109658311 
0.02019173022462394 
0.02003732671010985 
0.02017167159983357 
0.02002652669194098 
0.02014339374453011 
0.02001092481895395 
0.02015437457694418 
0.01997468609447764 
0.0201635675682451 
0.01996847619868166 
0.02007801044413447 
0.01989113936863366 
0.02010967162838216 
0.01987602244980757 
0.0201247008244893 
0.01990527137603655 
0.02011167322650238 
0.01994271694706319 
0.02011593823623604 
0.01991992564888077 
0.02005441498264773 
0.01995001966926249 
0.02014097996724002 
0.01989009314506164 
0.02010257029356046 
0.0199246353475998 
0.02004160691964094 
0.01993462840658485 
0.02012936623071439 
0.01985547266654357 
0.02007953695921466 
0.01987361739922546 
0.02011898519265213 
0.01994411599379849 
0.02005784847440466 
0.01994004350672031 
0.0200239668770147 
0.01989689090836684 
0.02002438099444567 
0.01990722466661564 
0.02003885828123142 
0.01998186284263878 
0.01997505300467131 
0.01994845793670536 
0.02003076754163022 
0.0199648737842867 
0.02014969261768206 
0.01999522819867634 
0.02010345625209818 
0.01994133371529164 
0.02011037820251977 
0.01995493655279217 
0.02007845405987613 
0.01992980321391274 
0.02012351652908459 
0.01990289673852589 
0.02009653715755438 
0.01999048451306001 
0.02003498371629853 
0.01996123377960272 
0.01996237488287363 
0.01990325632035254 
0.02003748637348847 
0.01999754962867714 
0.02008049511514069 
0.01999108172895766 
0.0201024904195294 
0.0199787513840097 
0.02007974192922464 
0.01991415056103372 
0.0201339940481674 
0.01993625225895125 
0.02011361915014884 
0.01991794238692174 
0.02009008647614042 
0.01989746869749859 
0.02002476300529127 
0.01992676691163322 
0.02000498552557977 
0.01995360042222418 
0.02001880004602254 
0.01991961759765619 
0.02003018728417431 
0.01995329029017776 
0.01995504805642978 
0.01996579653327372 
0.02003864508125767 
0.01996809519513876 
0.02001790723117381 
0.02003049939003889 
0.02002055195976958 
0.01997244990495499 
0.02000539322071677 
0.02005117423412667 
0.02004717161410497 
0.0200198421167985 
0.02008514041517174 
0.02002558996351146 
0.02004901200091366 
0.01997882350909088 
0.02000060768324587 
0.01995271692246062 
0.02000138444977996 
0.01994963532052176 
0.02009597223915421 
0.02000342910703007 
0.02000750560535551 
0.0199058745420594 
0.01990790309959329 
0.01994544993028768 
0.01988225571544594 
0.01999574225611123 
0.02001817847790342 
0.01991128762884736 
0.01996277266305949 
0.0199491390540819 
0.01990806159215906 
0.01996663052801553 
0.01995349929363775 
0.02000534394650766 
0.01999409418977611 
0.02002707103527421 
0.01992498553047642 
0.01993934045536814 
0.01992007104171173 
0.01995991129383715 
0.02002283941049943 
0.01996312516088249 
0.01995263202945691 
0.01996606576586517 
0.02000799356835363 
0.02003182697896958 
0.01993970132384783 
0.020053147503127 
0.01992438658511465 
0.02022655621778584 
0.01997137637032135 
0.02016400302759564 
0.01997212842288404 
0.02008501068662504 
0.02001659825520476 
0.02010075698638086 
0.01997976448689147 
0.02007682167053844 
0.02008169964701446 
0.02006961943942619 
0.0200568631744629 
0.02004936700679514 
0.02001479203594201 
0.02008481993679502 
0.01997426747224485 
0.02005089504297891 
0.01998788920702 
0.01999008196053762 
0.01994119404618223 
0.02005079969274558 
0.01989387322334937 
0.0200629835540671 
0.01992416419995329 
0.02004722143747877 
0.01985961916289396 
0.0200691361673576 
0.01990287396038953 
0.02009593808644079 
0.01993210331784341 
0.02005997057743436 
0.01992695372637381 
0.02003610538019784 
0.01996463972960534 
0.02001678844727395 
0.02000706635160969 
0.02007580040122208 
0.02003733781757759 
0.02007585960557179 
0.02004708996690574 
0.0200686831863741 
0.02001223619563902 
0.02011430856235211 
0.01996495059049147 
0.02015717638807671 
0.01995646130223332 
0.02003962783369266 
0.01997999428154662 
0.0201050370826785 
0.02000655731300946 
0.02007229931509017 
0.02000989668416877 
0.02005937731987697 
0.01992775121873529 
0.01998905558814699 
0.01997624957465935 
0.02000860272441293 
0.02000418304254817 
0.0200199662525998 
0.0199788862924771 
0.02004682290962963 
0.01997721500882488 
0.02007695502715949 
0.01991910995777414 
0.02002272665275585 
0.02000895432224538 
0.02007528493365974 
0.01996036913263938 
0.02003384331892343 
0.02008275737577635 
0.02010340711417619 
0.0201371189234587 
0.01997963169379273 
0.02017794152358289 
0.02009541423401783 
0.02010612726700117 
0.0200970585053603 
0.02012051390901757 
0.02016528414517784 
0.02006671130579672 
0.02021796018681367 
0.02004859088768336 
0.02018011306145412 
0.02009365590130847 
0.02017814851285075 
0.0200121823546368 
0.02018121217709453 
0.02011271599426715 
0.0202354363350353 
0.01997836230939896 
0.02016880112473207 
0.01997437169088275 
0.02005915038333401 
0.02008493398198957 
0.02002986715448766 
0.01999729497283838 
0.02002369537144977 
0.02002438908707488 
0.01999644192262129 
0.02007342792754449 
0.02007444631067976 
0.02006262462613383 
0.02007930513616048 
0.02000353646676214 
0.02006388830329429 
0.01995404571484881 
0.02006379241337819 
0.01999071193892647 
0.02010848118484274 
0.01995801242446466 
0.02013178454029194 
0.01996209817980515 
0.02009418366721972 
0.02001309088319449 
0.02009307824740383 
0.01995468057737763 
0.02011580201361049 
0.02000949402997906 
0.0201020534430404 
0.01995965713671175 
0.0201274304426349 
0.01998964474397137 
0.0201361375056061 
0.01993418698832668 
0.02004398428514784 
0.01990874981807516 
0.0200664992395463 
0.01997150027882623 
0.02002681415391207 
0.0199326772125244 
0.01996494524333664 
0.01997202275287848 
0.01998177608356974 
0.01999472583814288 
0.02004218773057376 
0.02000782015908865 
0.0199755343775796 
0.01999889747854202 
0.02004895755044361 
0.01995186201464073 
0.02008781568179109 
0.01999743557490476 
0.02000200714872202 
0.01999727923840315 
0.02000082608174085 
0.020013912597074 
0.01996512074074953 
0.02001041547204009 
0.01996336836607245 
0.02005477270389159 
0.02004424543915526 
0.02001025177428193 
0.01997534361695546 
0.02004231985531987 
0.02004696580734186 
0.01997974481978008 
0.02009961587429176 
0.02001835002797896 
0.02009616280752992 
0.02003210831552977 
0.02004344567625148 
0.0200427526777312 
0.02001605373685772 
0.01994196880082792 
0.02008546078010044 
0.01995263558276227 
0.02005206344445899 
0.01998291949484072 
0.02007092777469371 
0.0199647136812066 
0.01998948918058297 
0.02002771303444276 
0.01996180789185992 
0.02001649691115079 
0.02001400718288324 
0.02002171115276214 
0.01999161531955671 
0.0200393180126049 
0.02000103598040174 
0.02011674055492035 
0.02000858387834892 
0.02009043460131959 
0.02004046626933193 
0.02010555168494663 
0.01999282536765819 
0.02006443011998326 
0.01996054303893234 
0.02011584823504876 
0.01997192846083464 
0.02017513098003887 
0.01995218253857154 
0.02012568644804299 
0.01990850703373714 
0.02007556161969059 
0.01985464666058813 
0.02002501061753904 
0.01992037458041155 
0.02007102945059513 
0.02000568488226554 
0.02000800944132393 
0.01996215259431594 
0.02003469001998136 
0.01991330410496687 
0.01997951193312665 
0.0199658268592774 
0.01998306203262296 
0.01995226746318809 
0.01999815784673707 
0.01995590717145961 
0.01988925439857259 
0.01999150839474523 
0.01991418817973811 
0.01994705876564095 
0.02000266227834981 
0.01996506692327137 
0.01990503064678258 
0.02001787060702174 
0.01998116568552081 
0.01991685820028185 
0.01996288723226944 
0.02000516574825309 
0.0200109066057042 
0.0199505724956266 
0.02002478449238702 
0.01997765428144362 
0.01999550624426202 
0.01993899114366039 
0.02003547991040315 
0.01994000804955876 
0.02004115392141842 
0.01987787247188486 
0.02001616938576027 
0.01980453973171267 
0.02005208117660989 
0.0199063980780006 
0.01997032621466486 
0.01985734967504373 
0.01998492232498006 
0.01987417024867616 
0.02001657235942611 
0.01987069667871647 
0.01999347627879632 
0.01988374952072466 
0.01996561339231237 
0.01989285151877656 
0.01996075196838408 
0.0199220687347233 
0.02009393256528853 
0.01989071114244298 
0.02005076574851832 
0.01992769567929817 
0.02005162220805356 
0.01996773303931307 
0.02005437858801827 
0.01992606241719718 
0.02008197309953281 
0.01997585821397727 
0.02009269697783625 
0.01996913770615931 
0.02012343042807556 
0.02000156924708495 
0.02011857110302601 
0.01998510448135675 
0.02010764508376137 
0.01993607109547275 
0.02009860330286673 
0.01996786324089846 
0.02013605854603179 
0.01993139596678284 
0.02002346966560865 
0.0199735373781859 
0.0200090963311128 
0.01990611320508968 
0.02001505364796542 
0.01989162950161913 
0.01994470242686103 
0.01989979337493305 
0.01998900507379792 
0.01993291547506799 
0.02001220728815472 
0.01991906642374301 
0.01995917048273571 
0.01999111292039322 
0.01993435943696009 
0.01995993843546953 
0.01996872309844272 
0.01995697073225713 
0.02006579510423209 
0.02002687393235169 
0.01998725425611889 
0.0199554190968794 
0.02000874253747878 
0.0199226661081322 
0.02007880220773543 
0.01993503765821157 
0.02003873615430415 
0.0199832036440004 
0.02013028149905541 
0.0199900781884328 
0.02017492065432347 
0.02001150361592685 
0.02012764738408472 
0.02003723225794167 
0.02012129152349976 
0.01997790165387466 
0.02011689988498895 
0.02007314842050431 
0.02004138023909362 
0.02008725513182689 
0.0200436035643668 
0.02009228571116871 
0.02000730552510308 
0.02001525190609671 
0.02002796492933143 
0.0201052903721902 
0.02005184476500616 
0.02012243448584325 
0.02004616524271565 
0.02014672983136978 
0.02006603270071413 
0.02017755473259144 
0.0200260976564547 
0.02011304285879701 
0.02001803548431657 
0.02013410984762443 
0.01999526670388618 
0.02004816610486053 
0.02001725312728523 
0.02005024946068703 
0.02005997584258826 
0.01999675489699835 
0.02008149752431838 
0.01998610104105188 
0.0200456785408592 
0.02000140170909715 
0.02003549382745246 
0.01992226979668603 
0.01994601698656021 
0.01994481766573268 
0.02001092728812116 
0.02001154003257192 
0.01997737582665041 
0.01994567278158814 
0.01992839430232997 
0.01987697869158301 
0.01987823644172967 
0.01993698799275704 
0.0198648386970603 
0.01988633021237074 
0.0198665172816915 
0.01986736486235321 
0.01982189780025783 
0.01986629181873272 
0.01987778890384305 
0.01994766581510553 
0.01995520330373328 
0.01991680396723729 
0.0199831770280422 
0.02001245570871516 
0.01991008606855624 
0.0200123285794943 
0.02006108345550325 
0.01996992878144978 
0.02006714058688606 
0.019962298065919 
0.02013225232944751 
0.02004749225161142 
0.02012060961831146 
0.02001521292960044 
0.02015322860944097 
0.01999122681402612 
0.02013376209798273 
0.01992693667549651 
0.0201226811970771 
0.01998051128667603 
0.02014682093952925 
0.01997083202657048 
0.02004688725368504 
0.0199638190693411 
0.02005130156247958 
0.01998874345580149 
0.02007251576248299 
0.01990589848227901 
0.02001712163155248 
0.01988250037357705 
0.02001946321223544 
0.01993904646063736 
0.0199507388503123 
0.01992940875856233 
0.01998622062259232 
0.01998362638743452 
0.01992217838118837 
0.02001335845092376 
0.02001267406574348 
0.01999218002249221 
0.02000470649394709 
0.01998566751832049 
0.02007732803068409 
0.02006028448889996 
0.02000138317678335 
0.02007974145406682 
0.02004345805600204 
0.02007301922025624 
0.02005930932050497 
0.02006682566614669 
0.02004183877696625 
0.02004271987584666 
0.02012685033492775 
0.02005546400792568 
0.02007221386485778 
0.02006482455246002 
0.02004264457487006 
0.0199614616579596 
0.02009042537439184 
0.02000268609321912 
0.02009531333712466 
0.02002742593407789 
0.0201140458857282 
0.01991721534891335 
0.02006798154685427 
0.01997615587486573 
0.0201048099296006 
0.02002334888018562 
0.0200164633670577 
0.01998678057034174 
0.02010717710032838 
0.02000218748585585 
0.02004781026899218 
0.01998758136864978 
0.02003456662026138 
0.0200098454053711 
0.01998663236132625 
0.02005915975729781 
0.02003021880557298 
0.02003452875852644 
0.02001451330327397 
0.02006617081737819 
0.0200057153544064 
0.01999872863906131 
0.01992804510878805 
0.01994148829781837 
0.02000200049432872 
0.0199755492686746 
0.01994287647951214 
0.01998572773796315 
0.01997602201515823 
0.01995286393068932 
0.02000993222852697 
0.02001642009176858 
0.02001000586059319 
0.01997989048758814 
0.01999935661490045 
0.01992630655071496 
0.02005851097992126 
0.0199260517381011 
0.0199863018297547 
0.01996289782211794 
0.01994340262944008 
0.0199051368412854 
0.01992490746942884 
0.01991874071575025 
0.01995983859255021 
0.01991365030314984 
0.01986884170749353 
0.01991866174570701 
0.01980957545292078 
0.01993675134835094 
0.01985864569406218 
0.01995365815408717 
0.01984457558190977 
0.0200202150127853 
0.01974220565444027 
0.01999167119673983 
0.01981063553542507 
0.01990958644764398 
0.01979013698144902 
0.01995003853151321 
0.01977637138955458 
0.02001045200213504 
0.01979970259794745 
0.02000072164627551 
0.01985723523476688 
0.02006262178165684 
0.01985799662779483 
0.02004322842159303 
0.01989761689351141 
0.02005771600439018 
0.01988490440682516 
0.02010084871664073 
0.01989449472502336 
0.02007172796431938 
0.01989920634336457 
0.02014094065525419 
0.01988972521232367 
0.02015050313326873 
0.0198662131592387 
0.02010872322484559 
0.01989386876526205 
0.02007610506677416 
0.01992553350821517 
0.02003739105228398 
0.0198905574616564 
0.02003121197330256 
0.0198579351532896 
0.02010305157609409 
0.0198290246301877 
0.02004584359220349 
0.01995039096169764 
0.02007388488016996 
0.01984166501915909 
0.02001798599687303 
0.01985339249674166 
0.02005173941439859 
0.01983002964184382 
0.02004364988673575 
0.0199573160581551 
0.02005313104714878 
0.01998726361030015 
0.0200341588193699 
0.02006480302909432 
0.02002327813578322 
0.02007276914071612 
0.0200101117930518 
0.02001497530915807 
0.01998656838513076 
0.01998049400126907 
0.0200324297621375 
0.01991790441958887 
0.02003353324269308 
0.01996733269097919 
0.02009017096859944 
0.01988639652265244 
0.02007289562780262 
0.01995246015528051 
0.02011029467228383 
0.01995020109811214 
0.02012240721416885 
0.01997077632318263 
0.02009457253458265 
0.01996102368817361 
0.02008117571918019 
0.0199611461599558 
0.02007491718299526 
0.02005030859203321 
0.02004458061681613 
0.01998841222900212 
0.0199957815220862 
0.02000917696515626 
0.02002585611923253 
0.02001727995119669 
0.02002577860029919 
0.02000122874686452 
0.02006225265513306 
0.01993446885410724 
0.02000027588876016 
0.01997119316578715 
0.02001712808621378 
0.0199635176591575 
0.01998884948056957 
0.01992985583657548 
0.02001884206785461 
0.01996331289495534 
0.0199480300407591 
0.0199882548649886 
0.01999720884011971 
0.01988605978929953 
0.02002281902521856 
0.01987677242101439 
0.0200170497878608 
0.01990283149634393 
0.02004369552093142 
0.019806927697971 
0.01999854001505767 
0.01990870292503724 
0.02004148229587053 
0.01981918456973527 
0.02006109603164203 
0.01984211380986788 
0.02002302474787274 
0.01986799667005909 
0.02002338756285794 
0.01991724585170898 
0.02006399853256505 
0.01990262470975341 
0.0200784480497118 
0.01997844307445944 
0.020078572450754 
0.01999475586255332 
0.02000533237251277 
0.0200372698849163 
0.02002405352541182 
0.02002906490092541 
0.01996984580762046 
0.02000561039094345 
0.02000408479069695 
0.02004601256197447 
0.01998391532011108 
0.02000451450778145 
0.01997018217043702 
0.01993615305781729 
0.0199769972279029 
0.02002185621343525 
0.01996557280888187 
0.02003264031708311 
0.01998432533273083 
0.0199898326368718 
0.01999469568472235 
0.02000459026519633 
0.02002039366883159 
0.0200647900706963 
0.02001804310966179 
0.02006048205617487 
0.02000570997084028 
0.02001909675882058 
0.02001776732445362 
0.01997033947105146 
0.02005082938154017 
0.02004680759551816 
0.02002535542255618 
0.02004097652019172 
0.01999871330811537 
0.02015713701696412 
0.02009560914231992 
0.02004214621716154 
0.02001510988555175 
0.02007062907013804 
0.02003619125402676 
0.0200186361055361 
0.02005971165565608 
0.0199979301167608 
0.02009523187707103 
0.01999764655506067 
0.02004663511380182 
0.02007434315065419 
0.0199569073598126 
0.02012597524453124 
0.01998152318889813 
0.02006700724169415 
0.02003659655931726 
0.01996920734915328 
0.0200166649681568 
0.01995763028020509 
0.02001290267605726 
0.02001100761085156 
0.01998272899598171 
0.0200161418154166 
0.02000748257371177 
0.01996471183060065 
0.02004238317542462 
0.01999705668619209 
0.02005741242354822 
0.02007490669876111 
0.02003168765861542 
0.02010778508516784 
0.01996790031091698 
0.02002605013915603 
0.02007708466726951 
0.02006463407284619 
0.01994844587204029 
0.02008529522173862 
0.02003366651994761 
0.02002936678475061 
0.02001885334629354 
0.02002902067114174 
0.02003967492076554 
0.02002790716490152 
0.02000415449964271 
0.0200471311321843 
0.01998320456224889 
0.02002544065696032 
0.02001227508436281 
0.02000014619218455 
0.01998431298588804 
0.01999809613844454 
0.01998706282478282 
0.02002601819158739 
0.02002617211873386 
0.01995476645009838 
0.02008752527179258 
0.01996793646573114 
0.01996446543440791 
0.01998356498503661 
0.0199887230583791 
0.01994173702099813 
0.01989350069685836 
0.01996305949741555 
0.01995322568292356 
0.01998586259804773 
0.01994191147521777 
0.0200019029633115 
0.01988082587323888 
0.01999870432008317 
0.01988739228801129 
0.01998299797044997 
0.01989439836359654 
0.01990212902565649 
0.01996368077021657 
0.01992347830368231 
0.01992345232784371 
0.02001510347726631 
0.0198431168847252 
0.02006705793956399 
0.0199460552331281 
0.0201279041272413 
0.019961060043523 
0.02012775873302121 
0.01993047292288861 
0.02005049748014568 
0.0199281783412841 
0.02005866227115477 
0.01998229566841674 
0.02004766486704001 
0.02002923767494393 
0.01994736609129423 
0.01998678347949405 
0.02002525780254823 
0.0199841945534314 
0.01999553148432938 
0.02000762719702841 
0.01994093474102381 
0.0200443875600785 
0.0199465834506618 
0.02002819991709276 
0.01993421405610694 
0.01999597220886888 
0.01996329270835395 
0.01996979046743612 
0.01995525388924075 
0.01991524079715337 
0.02008588592270178 
0.01993922486927996 
0.019948187897958 
0.01987968744484845 
0.01994526486612495 
0.01991048690919567 
0.02003660891787237 
0.01991679824401209 
0.02004184061748348 
0.01991768619959328 
0.02004506932274451 
0.01992656673015413 
0.01999927208141876 
0.02002103096692455 
0.02001820210923782 
0.02003026361217176 
0.0200327375521209 
0.0200728056367847 
0.01999849521918906 
0.02004226972430335 
0.01998082198333411 
0.02001643453481535 
0.02003458262767351 
0.02007692505017816 
0.02010079585984748 
0.0200541318011164 
0.02008310248877205 
0.02001937188471729 
0.02002567783482231 
0.02002563641730104 
0.01997910657661498 
0.02000572818294251 
0.0199800719066459 
0.02006167557280425 
0.02004647182086917 
0.020012291213276 
0.02002973159797117 
0.01997298225761819 
0.02000267503420932 
0.02004111444714088 
0.01998995810554027 
0.02005165898429276 
0.01995428598671295 
0.02002643230388019 
0.02004119398311937 
0.0199351682356989 
0.02002666428863469 
0.01999278542740212 
0.02007882221639562 
0.01999226805159491 
0.02000814801464335 
0.01995705979788814 
0.02003580174988923 
0.02005290778258084 
0.02001350036626269 
0.01998727876665668 
0.02006808391388142 
0.01998020098890763 
0.0200802000050874 
0.02004421203063906 
0.02006471977947131 
0.01997766923368349 
0.02003786518039987 
0.02001086432666457 
0.02000826761948621 
0.0199789238134604 
0.02003097904650031 
0.01998950623897567 
0.02008255765056007 
0.01999690784033032 
0.02007957207634335 
0.02003081518909327 
0.02001264113867794 
0.02009990641284933 
0.02009395181890401 
0.02007810690163551 
0.02009213487971077 
0.02008371263154207 
0.02006063959331842 
0.0200994168512132 
0.02005929415014695 
0.02010249120761494 
0.02013430377322045 
0.02001940422023153 
0.02011008259508273 
0.02004092616758235 
0.02008436288934744 
0.02005798210683288 
0.02016962222438058 
0.02002542197205501 
0.02011784811806505 
0.01998310058582114 
0.02006928815635267 
0.01998527942717206 
0.02010085658157731 
0.01995616442759674 
0.02007006448145102 
0.01996124313083624 
0.02013805217351801 
0.02002889645791114 
0.02012197088496727 
0.02000295110031709 
0.02015218086538197 
0.02003649457497762 
0.02014094746318995 
0.01999469581960887 
0.02015235383054947 
0.02000581414055196 
0.02011891746516692 
0.02005397170553936 
0.02004783788945105 
0.01999279946333071 
0.02014532023463028 
0.02001353978279739 
0.02013620266889347 
0.02012441776051944 
0.0201159863985808 
0.02008329633638833 
0.02010171943117179 
0.02008138963246354 
0.02018860389910635 
0.02002196658876071 
0.02011186937179216 
0.02002982061005861 
0.02012577388301521 
0.01997951818143985 
0.02007233532233127 
0.02000672371708594 
0.02011223330023541 
0.02003000247285833 
0.02016473536461087 
0.02004587075107477 
0.02007056696774031 
0.02007410117722014 
0.02014655312944903 
0.02007093673067945 
0.02013345660677862 
0.02010427314842527 
0.02010226213717015 
0.02011227831056525 
0.02009944887926253 
0.02004401181404821 
0.02013828275528852 
0.02001596446023849 
0.02005146918094421 
0.02007770502685281 
0.02008828479429916 
0.02002388214958912 
0.02000824013298169 
0.02004401620694568 
0.02002341343939144 
0.02004799897411445 
0.02001904353682381 
0.02006898578532355 
0.02003127934534555 
0.02008899268607121 
0.02002885034775851 
0.02012881531514943 
0.01999998095505182 
0.02002870978212572 
0.02002390125034432 
0.02006077970563334 
0.01999598805829916 
0.02010894063395725 
0.02006124311017831 
0.02011469854157497 
0.02004416354654734 
0.02008959805632673 
0.02006437697034418 
0.02004147721270427 
0.01996020134181111 
0.0200059371434696 
0.01999376268951924 
0.0200189701166306 
0.02002742722833512 
0.02001096406622112 
0.02005617888525283 
0.02005092981252136 
0.02012147690207702 
0.02011071915715428 
0.02006260096262198 
0.02006500557612909 
0.02012036072717253 
0.01996790724103684 
0.02015511579196263 
0.0199837582468464 
0.02005651893541406 
0.02003456596783848 
0.0199756930585612 
0.02007376268875864 
0.01995833903977267 
0.0200168464832763 
0.01998499277790191 
0.02007028472123726 
0.02012193156490165 
0.02002726608833323 
0.02004639486140322 
0.02008950262028154 
0.02005694746578121 
0.02009484384236562 
0.01999657095834614 
0.02004904370801393 
0.01998769835057604 
0.02012448292053206 
0.02002138796162789 
0.02008912492381862 
0.02006918830380374 
0.02010927735051642 
0.02016696168291524 
0.02013219070171612 
0.02012435246094259 
0.02013714141527121 
0.02005054721979843 
0.02016425678770565 
0.02004519693484637 
0.0201164152089231 
0.02009900421744776 
0.02003963004273921 
0.02004980510914127 
0.02007925057659474 
0.02007769684589703 
0.01999344088917605 
0.02012842956233246 
0.02000141511475706 
0.0201242976576578 
0.02007081048130886 
0.02013970670995785 
0.02003849665391052 
0.02009623127036744 
0.02000060993256978 
0.02000319612288121 
0.02007646013118265 
0.01997216824523622 
0.02007162094027495 
0.02003210652319652 
0.02007907511802817 
0.02004341719991803 
0.02008100877891962 
0.02001799702204428 
0.02011457580366295 
0.02000521028057911 
0.02001047898765389 
0.02008782280863895 
0.02008962290790076 
0.02007631826738031 
0.02010933481535345 
0.0200576572205234 
0.02014079434901049 
0.02004482143026564 
0.02016109110032049 
0.02002373661609961 
0.02012948072589985 
0.01997283346653834 
0.02010285516909651 
0.02001202003725453 
0.02013733934869085 
0.02006620686161175 
0.02012042657211359 
0.02002202150240649 
0.02007121409142988 
0.02006172263811046 
0.02007774216007619 
0.02000415543649262 
0.02016280819855133 
0.02006773893277825 
0.02006852414758306 
0.02006265230822622 
0.02008127101085382 
0.02004139803946343 
0.01996434690325745 
0.02009017409047472 
0.01999273407584727 
0.02006823532447267 
0.0200717536931283 
0.02007738894880772 
0.02008150029695173 
0.02006355323566028 
0.02015407507339887 
0.01996576490326851 
0.02008347516802242 
0.01991507079300607 
0.02008345355487256 
0.01990152223878247 
0.02015477798924377 
0.01988193718257189 
0.02016711196080125 
0.01995256193142339 
0.02015931686706805 
0.01995994116974644 
0.02016548521377121 
0.01997091877416948 
0.02018378656197223 
0.01996503500711724 
0.02017687285252123 
0.02004099012031131 
0.02010232939684051 
0.02008038400725622 
0.02011641684158168 
0.02005383968789507 
0.02010814618366487 
0.02002751243255026 
0.02009502427672393 
0.02007776629708367 
0.0200973615872812 
0.02010866405158589 
0.02014401829999813 
0.02005298357213995 
0.02015809403793719 
0.02005527710038925 
0.02002911951552866 
0.02006602150962923 
0.01999995534945612 
0.0200812917412757 
0.02009243040814013 
0.02005692006286578 
0.02006044914779495 
0.02010403817889073 
0.0200024318436416 
0.02006490452783737 
0.02013761043332695 
0.0200981209177111 
0.02012730341709388 
0.02002432443315824 
0.02010491478431837 
0.02010773279578281 
0.0201031695493485 
0.02002781839598967 
0.02023202794788661 
0.02003398413169487 
0.02026296005572692 
0.02006805325062589 
0.02019562195574828 
0.02002959712222484 
0.02018682395302335 
0.02000882504568611 
0.02018243249343535 
0.02007631523347549 
0.02011699286860275 
0.02002635538720732 
0.02011397528664693 
0.02004034340917273 
0.02016627509725454 
0.02003009226588891 
0.02024440429669179 
0.01999492501354847 
0.02017282115871055 
0.01999680650408048 
0.02021947065183558 
0.02005610708230584 
0.02013194631759729 
0.02005106249899723 
0.02014816052590345 
0.01999987895063095 
0.02012046901864303 
0.02003931816830062 
0.02011184785110989 
0.0200547246924812 
0.02010762873692183 
0.0200559603656191 
0.02008252282847712 
0.0200615336346465 
0.02004668630984451 
0.02007275682200855 
0.02005679820381054 
0.0202024459835179 
0.02013585015954489 
0.02013552914650399 
0.02016795502219688 
0.02011374680722905 
0.02020875609797579 
0.02011878864957804 
0.02027248891373132 
0.02006913800559486 
0.02026653694608198 
0.02006704301659575 
0.02020015787507044 
0.02012752457561797 
0.02021212572767743 
0.0201689173997622 
0.02008750792968699 
0.02017615114460761 
0.02015080808628311 
0.02006828473994696 
0.02025147588359652 
0.02010006598216951 
0.02017256392535189 
0.020084010726274 
0.02018111695845974 
0.02005042240575309 
0.0201266816636932 
0.0201558802521948 
0.0202345931932335 
0.0200842542870743 
0.02015195655621443 
