solver_type L2R_L2LOSS_SVR
nr_class 2
nr_feature 1984
bias -1
w
0.03161817672911123 
1.24470494781222 
0.9109558107700283 
2.737599443929507 
1.274899084956272 
0.6772815640990718 
0.5665766862361029 
2.378002894308049 
2.802573886129326 
-2.465527392731644 
-0.5727309289833936 
2.101194580285811 
-1.87706205517948 
-1.474335258469175 
-2.244133233456219 
-2.51606063078302 
0.08642923594536102 
1.747359344678462 
-0.6014015086438519 
0.7893866901673191 
2.647522537759038 
0.06452236357093746 
-5.130662633959202 
-2.37782708780556 
0.9861401363718133 
-1.917946834559789 
2.398405171247539 
-0.1561530318133165 
-2.210210532817992 
-2.009575583562625 
-1.781889643438422 
1.561547578263344 
0.05361219694367728 
1.962837774115058 
3.256265748477206 
2.077250617074068 
0.4459699880766789 
0.2994855852952021 
1.428311567591887 
3.736422324789409 
-2.729581657320882 
-0.2266730275068145 
-2.413117295578562 
0.4733484981065276 
-2.833919341615921 
-1.711581771002313 
-1.481880027885832 
-0.663622055798505 
1.85185646925793 
0.6389455402719068 
-1.737051316749971 
-0.3662601236226595 
2.951835707081055 
-3.95010013911256 
2.474987224795535 
-0.9388163644800267 
0.7410161024697178 
-2.576713159227308 
-2.037080060434318 
0.3036417606534396 
-1.645636078190906 
1.721689462072719 
-0.4897592558666007 
-1.576781880296926 
3.630918392286948 
2.706375593005728 
-0.8260402722220097 
1.453407555637934 
-2.807377667230953 
2.566389879524844 
1.438770006404004 
1.082908117027054 
-0.4045897213867171 
-3.565916285606907 
3.499277613318974 
-0.8970088415721648 
3.368976173278045 
0.8187869226288588 
0.1754557939949134 
2.022029286817342 
-0.003765533274111463 
3.86829797448284 
-4.194802837703389 
0.8841736176104852 
0.7640210712367596 
-1.020796136624595 
-1.979031048254827 
4.858864483915028 
1.795362766180767 
-2.451326807587734 
2.533724041917407 
-1.652030969763086 
0.5214102021302419 
-3.699041760771292 
-3.237440688105528 
0.4934150786273171 
0.2309993347070583 
2.707609208009072 
5.118514933825271 
2.064381575505208 
-0.574695680821605 
4.267628277350251 
-2.803093625829653 
0.4036047616732505 
0.6704219928863495 
-1.311474266067549 
1.809264514290081 
-4.68743327167607 
-1.911667586910457 
1.561589415928898 
-1.474495099021414 
0.890431765476666 
0.274455750542399 
-0.1166618449850339 
0.2432070302610956 
2.763208104181651 
1.519638806216544 
-0.9914886550293379 
-0.2067302303121175 
-0.8705704572693811 
-3.615642649842713 
0.4523454475012875 
-0.5776894216309981 
1.978032393178888 
-2.295989349845187 
4.119481242322812 
-0.1315538815253616 
0.2966315604658917 
2.708442198387862 
-3.363369392707291 
1.572523158044987 
-2.045510334962579 
1.534116036998423 
0.8024241630529046 
0.321184065318281 
-0.6983440584473097 
-2.841873877656207 
-0.3796995021318905 
-1.035980832460717 
0.526297800827774 
0.1304570737550808 
0.1139799333576585 
-3.135876230281655 
-0.325568214000763 
1.985103927735333 
-1.269195746631482 
0.08685741263459366 
5.095381964949334 
-2.755097512275735 
-0.04932577900968073 
1.601294628714926 
1.2262530055476 
0.3843893209502035 
-3.055301410220283 
2.155884300983492 
3.265579095638527 
1.423892696944893 
0.8565742580641066 
2.384952210689099 
-0.4744061428513029 
-3.097713783250553 
-2.769640475245439 
-2.940144940397865 
-1.654275920951798 
1.578259289462753 
0.6725358156438027 
-1.141473809837096 
-1.847423481867478 
-1.29136135700354 
3.0980318709841 
0.3845108693463417 
-2.172882533040827 
3.781914145126309 
0.4043416556286393 
1.931192888211049 
0.07694432260387897 
-3.255120931949655 
-3.28718695133441 
2.165103055831383 
0.8003081312905427 
3.444014418899985 
-1.184735953143636 
4.102904007879566 
1.085309237603861 
-0.611551529838869 
1.398964877979312 
-3.704054201166981 
0.4622700857434584 
-3.380506702723283 
1.476230141232697 
2.165364486848621 
-2.525078649084766 
1.536794148620593 
2.425335792250241 
0.2517474961448098 
1.284385330774268 
-0.5423324646312204 
4.622333269152699 
0.9398225307506877 
-3.771041379781152 
-0.3061737861510209 
0.2716531993669163 
3.452176155042911 
-0.2644975278596374 
-1.311775808427674 
-0.964361241363799 
1.821741321689575 
-3.789389694422871 
-3.225474645162875 
1.663992434160488 
1.432855339271049 
0.2661937109790955 
-3.927256126098324 
3.12122784255109 
-0.3015009269831276 
-0.9673912895174048 
2.912879973504788 
0.2953942839246188 
0.2372324694119117 
-3.401183036123393 
-2.275051318931007 
-1.703057632328713 
-3.099250423795921 
0.6762708024691657 
4.637688762477246 
2.194361340337263 
3.156011082723141 
-3.560552773585824 
0.239563028440943 
3.30552666234792 
0.9985022877151833 
-2.380717961542202 
-3.156459406255384 
0.5675486417576047 
-1.933812689654131 
-0.604341669151176 
-1.834792834776823 
-0.1587865434570346 
0.701088890377742 
-0.4581428631654214 
-2.48773349102806 
-1.481968157213047 
0.3902947036084551 
-0.9241192864078623 
1.903848161301498 
-0.6635682446908439 
-3.767723431438087 
1.149372860917995 
-0.4207517331468162 
0.0761821398034037 
0.09598759834196149 
3.652075109506184 
0.3933733701818956 
0.6846876218005197 
0.9833670280975921 
-0.6246511363528818 
-0.08383084037342844 
-0.9479113784092832 
2.985761018111626 
-2.487497695467624 
0.9426703925780033 
-1.500807469372768 
0.6218797483499402 
-0.8252378398061674 
0.1816452495948346 
-1.018620449766336 
1.669109346589074 
-0.8862662831627195 
1.249321453384334 
-0.6283533652632285 
-1.580640475635166 
-0.4311829154271083 
-0.4964146136929398 
0.434410483166964 
1.482301658909941 
-2.313897574691848 
-2.83956542055991 
0.6839429996796798 
-1.600235093837374 
-1.522929934663452 
1.052901235343853 
-2.056567037153929 
0.3843726835616445 
2.623778606338194 
1.953227862679863 
0.8169622974762808 
-0.7511813058775731 
-0.4524768120889157 
0.408133550012171 
0.8033943493064374 
2.226695330879779 
2.854844908758396 
0.8425996597465725 
-0.5082433089741581 
-1.358905108798595 
-2.026260878420896 
-0.7973045213357558 
1.162325883460696 
-1.765726040451667 
-0.4970645161466273 
-1.576088214302597 
-0.1183355985285501 
-1.56883804080381 
1.828446500124671 
-0.8089743596247416 
-2.37060191719716 
1.076154929211663 
1.55723344628699 
-1.783570479302937 
0.2262006253779361 
0.7273061034307037 
3.349542975501481 
-0.1306199267831366 
1.125931236499246 
2.98765917606408 
0.6267103118020332 
-1.684425472200033 
1.51181161607929 
0.3821168393223551 
-1.74415014250412 
-0.1378900868623055 
3.438049824698811 
-2.040627770251621 
-2.542798965221952 
1.229068959244602 
-2.120361766097322 
4.491237520537575 
-2.044007453168108 
-2.632935382221182 
-2.353474894647948 
0.6108265859604174 
0.1182123700127691 
-0.8551236461214592 
1.6290564398773 
-1.433121127309604 
-0.8622365719480036 
-1.489707631156288 
5.517559100513956 
-2.749248804028474 
-0.459203743589036 
4.205401810310337 
0.1756279775176376 
1.095276543259414 
1.744079192882109 
-1.29877480545561 
-1.478068016121419 
-1.637458441028014 
-2.332322359221622 
2.135899551746677 
-2.311857396985936 
-4.594980035195266 
-0.06068335714027703 
2.094780898601574 
2.627267101996702 
3.218202485561986 
-2.825853136752742 
-0.8690369492926735 
-0.6255444508598896 
-2.428567866073493 
0.2088188913034351 
0.8817886840537223 
-0.7515863103307245 
2.517127021164419 
-1.53647741882228 
0.7757042183114526 
0.8952895582975577 
1.919544680615564 
2.233819287843641 
0.2956245586730925 
1.011456965318394 
1.481239138801951 
-0.8364941261233777 
-0.9614097774288586 
-2.259225355154038 
1.473590843564071 
0.1620962979822121 
-0.9269878302598643 
-3.016686746603456 
-1.89397722202874 
2.957597592114203 
-2.05005280954735 
0.7715190920562325 
1.994286151403205 
1.401929180694934 
-2.304012360093139 
1.232068216326792 
0.8652582027084625 
-0.6118828808768783 
1.242462557533974 
-3.63327211548498 
0.917936686314736 
-0.2847508846938852 
2.133614747979379 
1.024915153611323 
3.525178043727147 
0.512450206182923 
-0.309849671066954 
5.711387485768883 
0.5488321396509948 
-2.376962036472326 
2.788560331604721 
-0.1218106259225888 
-1.926885071229054 
-0.9011296259363734 
0.8672098110141421 
-3.799776953209139 
-1.601995143695827 
-1.522496703636694 
-3.662070656080729 
-1.807598943788841 
3.498324514651757 
0.2065563792622661 
-2.586207583771391 
2.284075542754772 
-1.07952740282311 
1.10171810554278 
2.016809944080455 
2.264167360559676 
0.1928995822754522 
-0.3950995619720848 
-1.100162171830429 
2.552900045827577 
2.424346306858864 
0.347819843812114 
-4.649707459513871 
-1.879117074170769 
-1.292133147047183 
0.139654966446521 
2.138931958198337 
2.983290942524002 
2.836297317698943 
-1.268091249766573 
-0.2122831096845487 
-1.361557588053746 
3.555482726179257 
1.242448770901158 
-1.107949027148925 
0.3797493951635578 
-1.596329847025211 
-4.239618700347289 
3.292345700624762 
0.2422523258308666 
-3.012514033306208 
0.8647872134292425 
-1.348599589913928 
0.7497678428286328 
-1.351900192253111 
0.1033191227781051 
1.589475652748826 
1.517663550028629 
-1.831897277559672 
1.459722665686143 
1.65418492898543 
3.914221886629152 
-2.85609887501224 
-2.473875276856587 
0.799831789079129 
-3.926493357083644 
2.925430973139996 
-3.798143895495806 
1.865327275383376 
0.03706107666258991 
2.682613251365267 
1.777628376388557 
-2.228441829292756 
-2.16408596992128 
1.764818509400938 
2.580054062074336 
-2.974219217726517 
1.300619904082637 
1.120636813119024 
-1.241673432810805 
-1.086124108227998 
-3.198342603050541 
2.355608025861208 
0.6166093879751794 
-1.671451092169501 
2.390533632962748 
-0.3720765477081027 
0.6007748686402995 
0.2973989912938327 
-0.7561157162114364 
-0.03956694259249738 
-0.7792589042444247 
-3.155346990880914 
-3.588541895002906 
-0.599492061694553 
-2.050329096705019 
-2.654509694575254 
1.635679425311467 
3.313527582320842 
1.392439610329276 
-0.6449770035113001 
-0.02321220784800969 
0.9602039159758913 
-0.8967252514806145 
1.016296251823318 
-0.8604948096925521 
-1.081301435419916 
2.135801869771796 
-2.005698845410217 
-0.8967593669535664 
1.496059942920186 
-0.192898475307037 
6.089791233450051 
-0.6298174219914938 
-1.107855629529517 
0.1971947395324386 
-0.4030335513901581 
1.484137043095735 
-2.942098118290881 
1.631567790163017 
-0.2599688617623233 
1.294156357396647 
2.80496197852644 
-2.396966640193883 
2.926020782633205 
0.6626074010695298 
1.178532510413972 
-3.493423147692884 
-4.610904040170563 
1.1212769797637 
0.1983118849297223 
-0.1783625785584561 
-0.2761010905799796 
-3.459832014519302 
-0.4472330659165342 
3.153476159916345 
3.039932220141124 
1.208743867675482 
1.230122125604134 
1.233705777031848 
-3.021302288947231 
2.488613011918918 
2.277734642863729 
0.8387130813753138 
-5.234890634839727 
-2.333645033069638 
0.7464392794403906 
-1.921151062652571 
0.443739049751347 
-0.432075156963165 
-1.944134602062808 
-0.904730446570355 
0.5870236857172112 
2.431839867311383 
1.377104473511947 
0.2867582506467625 
0.2638500322896881 
2.165344813007644 
1.891135337124137 
1.487785473371775 
2.769274870286317 
2.073933488285341 
-0.9288220252863847 
-0.5434529245053752 
-0.8514343899514017 
-0.09758832572265784 
2.084783299624364 
-0.6281020851977668 
0.9494257395446003 
-1.257883224840904 
-1.604686094514882 
-0.1810453611281433 
-3.224724381496152 
1.773189035611923 
-2.357943009395771 
1.555312716503137 
-2.814544008845357 
-1.589282448518416 
-3.487661727352993 
-2.754807391086286 
3.874311176844498 
1.145061391137238 
0.2946712620252134 
1.591737185854755 
-5.240279290513184 
-0.6502062696790969 
1.05076577165952 
-3.523356319662036 
3.024070487235964 
1.877631594050348 
0.1020486635413323 
0.3173742327834931 
0.2355299434797238 
-2.250260377229407 
1.38868609329752 
-1.632985407929999 
0.1021048456415626 
-0.5566767117346421 
-0.9723404958206291 
3.734698857341806 
1.61693475375443 
-1.744669956511694 
-2.132641297178913 
-1.746930016985984 
3.265730021712688 
4.237429668371473 
-1.422389312803393 
-0.9233496026892312 
2.281581100106563 
-1.145220960586009 
-2.394009005053207 
3.476935880051832 
-1.32281537077231 
-1.134430371177318 
-0.05616650926188878 
-1.661150368183377 
-3.47861265934131 
-2.116085344647089 
2.536689676583511 
0.8167472223583218 
-0.3129966795022861 
0.5885664459073464 
2.976479156738271 
1.712531617488671 
4.367224967536033 
3.074392407230347 
1.460545704883245 
-4.458027138740117 
-0.9201178650644941 
2.381452790709248 
0.889315288588696 
-1.704723024349444 
-0.2824224951554443 
1.787394018924538 
0.2817747872803331 
0.4309128294291436 
-4.920978283358677 
-2.353208125846403 
0.8142404075707634 
1.201106062376063 
-0.1410792698622123 
1.792924841076779 
1.008600255377874 
-1.641577829057425 
-1.20949894715744 
-1.709000000569481 
-1.306299040915683 
1.116003056713061 
2.216730851024902 
2.256092792262363 
-0.5815100615561597 
0.3400779111380782 
1.293570861446724 
0.3578430393831553 
2.740841988922179 
1.327319130335962 
0.0263205477978751 
-0.2793648438780034 
3.201887685459809 
2.073090761163256 
-0.4021361507957833 
1.869533418891318 
-0.4320129435887594 
0.1491474585075616 
0.9515819325205686 
-0.7255291821431613 
-2.182903534116811 
-5.59385706873377 
1.978394825296942 
1.113789767383752 
1.40557057175083 
-4.14677481057533 
0.7005377345861202 
-0.3378246653817489 
2.229978933373413 
0.7964737701792728 
-0.3066128607344724 
4.222372966086426 
1.209676792629307 
-2.539916177276469 
-3.333609725022078 
0.5089953324096771 
-1.910362027227031 
0.2731620112157934 
-1.94202082809926 
1.54010345994585 
-3.175319763543147 
-3.106424503086901 
1.375500206414693 
0.9729031470769195 
2.695288854033806 
6.017032406882494 
-2.199101158824981 
-1.256012629463704 
1.623258897432447 
-0.2005844777989858 
0.1401036344452399 
0.03507305108318289 
-1.716868625528018 
-0.8869328466965035 
4.854178397414966 
-3.913806068718057 
-2.185865969345821 
0.6082441036140956 
-1.64129703356619 
0.1427746749411082 
0.6766305363779875 
-1.774520242121278 
-0.410961738488391 
-1.304783512336505 
4.054979213634138 
1.180022553491761 
0.2862748846642191 
0.2773768650769041 
-0.5094907444212441 
1.440586482449778 
1.946592743587168 
-0.5277401353290425 
3.00613578213522 
0.8120326983488501 
0.4848351408422959 
-3.209376386525232 
-1.557605864645717 
-3.148016316161997 
-1.563214723766548 
0.3887018610226677 
0.4582474126971697 
2.626312699951472 
-0.0272148354901452 
0.3882490926785416 
-2.056604333239816 
-0.186786276753923 
3.661003249284135 
-1.725471889431396 
-1.435718775980264 
-0.09080002923238119 
-1.80658524302045 
0.5835532342010417 
-2.144333586926114 
0.9236123708969097 
0.4421659550151417 
-3.258227245977694 
1.666090967263708 
1.931248879791758 
2.469922624392872 
1.269968901671678 
3.055276595786833 
-2.460861939686389 
-3.6002590419458 
0.1231713620280113 
0.3008306900920016 
3.006980145830875 
-2.095885567804245 
-2.163905008530017 
-0.1478383071288625 
-2.328783215283263 
1.555117871510094 
0.385088466661041 
1.431714119012217 
3.739703852076385 
4.527392520142239 
0.8891209429283389 
0.8830932086308877 
-2.224426472366646 
-1.389908961968243 
-0.2853170931719167 
-4.139221893545891 
0.8532679300591173 
1.460409521570131 
-2.415427649873698 
-3.441706044865708 
2.120496808039618 
0.5425309101084719 
1.214889977526996 
-0.3018564836000043 
-0.5833813758204557 
-1.349461803355636 
-1.375493449268066 
-0.8009722492104782 
0.2583239843900346 
1.270628574641771 
1.050317403620619 
1.34831605013173 
-2.731572939249689 
0.2981836825285864 
1.873393475209632 
1.6065551658652 
-1.840920590512407 
3.849448495203241 
0.3034509268664601 
1.165968243546197 
-0.372203770073855 
-3.438953183282965 
1.493279600595734 
-3.52942261586275 
1.570246702240416 
0.7202697327139229 
1.986997738491875 
6.645733491963441 
0.2956052884577038 
-2.194412381786574 
-2.315528523023823 
-1.403615011245965 
-0.6971832466772048 
-2.374291307331489 
-2.994308533368209 
0.7783956897607878 
-0.9718182148626408 
-2.207142512761729 
-0.1474142915873456 
-0.5932865277332873 
-0.3523711071202928 
-2.941485346061228 
1.058258041552455 
2.540634195984409 
-0.5350851346874397 
0.3868693951062898 
1.598203130451561 
4.125400754384429 
-0.9348434211323547 
-1.44510978619475 
-0.6416159111371627 
-1.984984667432284 
-3.96980725020969 
-0.1179553415739047 
0.4393294568739545 
0.5987944680738775 
-0.1528859343714192 
1.548442955333124 
-0.986751493391029 
1.203391968895063 
0.1480930020359271 
1.790066780281638 
3.43171806453434 
-0.831359332392288 
2.021589603241922 
-1.366452117469238 
-3.371465319577451 
1.937274886876935 
-1.383181825353831 
-1.950508694074483 
-0.9224014233296665 
-1.091042356922527 
2.445227402140903 
1.537355737597383 
-1.283066968635536 
-0.5043349079381491 
-2.736922524066141 
0.2071562488445289 
3.45286558619109 
0.2784457991695383 
1.125775494743921 
-0.1853005694437127 
0.3496764722495713 
1.303410872357547 
0.2340943307307996 
-3.472054982376099 
-1.41922891603569 
-0.6861698452649561 
4.041396401044714 
1.213664256671688 
-0.6942629360972983 
0.2838628698136348 
-0.4455078670391768 
1.174114104800504 
-1.708485988489591 
-0.07095158481253568 
-1.911256560531466 
0.4284151509504163 
4.108921006463045 
0.05055233112896417 
1.981432306768108 
-1.715762479127714 
0.257221196071742 
0.7248168634037938 
-0.4110341406639935 
1.538782334675651 
4.395741795523564 
-1.982024411468727 
-1.597129851444292 
0.5123354438408424 
-0.01673575355045297 
-0.7986579942118203 
-4.043142112613695 
5.332680588531293 
-1.979651510936461 
1.345450420160256 
2.679568542420771 
1.815676605575228 
0.1366539928923063 
-4.279899474817687 
2.971877874861026 
-0.3067733257447978 
-2.709244525817629 
3.613734968118556 
-0.9814869480011233 
-2.458799992608829 
0.6287037304287409 
2.603920101824972 
3.537639473326438 
-1.78723325929055 
0.3994111426595764 
0.7415932035651566 
-0.5458100239289784 
-0.8025977186235694 
1.513690038611695 
-2.494722451086453 
2.241801421640342 
-1.723765933486013 
3.036402632126161 
-0.2838789070866539 
-0.9318548636748624 
1.281828148400187 
-1.750592938573582 
1.493612226930655 
-2.856043333326945 
1.829562751625079 
-0.2145410704471388 
0.3569352277909696 
-0.2819897713656612 
1.470622658009707 
-3.008193143178029 
-3.657369286237327 
4.121482188248621 
-1.104661048016858 
0.2886643205914795 
-0.5619178193077459 
-2.363790150015062 
-0.08741758158354861 
0.4007648395037782 
-1.134618504835336 
-1.126272012534346 
-0.8767705258370895 
-1.872369509463258 
3.388575241267612 
3.233406222692086 
1.640290454158636 
-3.078460656502322 
0.4003657408975162 
1.738033345683402 
-1.588012210964525 
0.2046571494568594 
-1.492689641934216 
1.3249656068921 
-2.022190310692683 
-1.465552779301397 
3.866006588832055 
-0.3102618847473493 
-1.137775745443183 
-3.30349006582249 
-0.007362602198932649 
-1.396735903813852 
-1.782731572482262 
2.127854856903022 
-1.635206414068216 
0.7668720808141101 
1.532646617975364 
-0.4726594515156097 
-0.2810434274944278 
1.440615405732259 
-3.189571295969838 
-5.639949556531694 
3.655281873202775 
-1.767226697468472 
2.463111170976408 
1.276159668558368 
-0.9499276030919501 
0.3187197444816277 
3.998889177548918 
1.725446098579141 
-2.763381166951615 
2.604911101513469 
0.4705224681762153 
-0.2217694403472866 
-2.469492873406626 
1.975940513220482 
-1.10974322758484 
1.452090332283732 
0.4959114650182957 
1.871468846117746 
-2.346875804174975 
-1.740451431538178 
3.257120962209932 
-1.58581083532037 
-1.844892161377792 
-3.800118876509053 
-0.2847720730404467 
1.848266946978952 
0.1831599038530512 
-3.998262719151035 
1.48424799627456 
-1.258675065155046 
-0.843045754986925 
2.036499007296819 
3.283297212660919 
4.94738748544397 
-0.4381386286205943 
-2.051634510879707 
-4.288738487524282 
-0.0894550512009358 
4.226970794908412 
-2.452785079940528 
-1.060274681663967 
1.180131316455888 
-0.7288144345573631 
2.334147280128347 
3.734430259738566 
3.845815648876649 
-1.928568854234215 
-0.310131447071873 
2.638031830212002 
0.01405916172401904 
-0.5786291058525002 
3.553425180592714 
-1.916666262888103 
-0.3801520868461531 
2.136540375219123 
-1.845266610797386 
1.984359551114877 
1.485673352625806 
0.0896334564215595 
-0.8334090211223169 
1.17729590999892 
-0.4788398830346657 
-1.891374249096226 
1.57279733097086 
1.434155378110498 
-4.177807555641542 
1.367863139066672 
-2.141601351116222 
-4.178080611447973 
0.625933471825319 
3.313945028181296 
2.401974999059251 
-0.6327424774174664 
1.671693986505791 
2.515497299085279 
-0.572076642515019 
1.120248916986525 
-0.5389508960747669 
-1.633978569591735 
-2.291187246191766 
2.862423152767232 
-1.158923313514163 
1.683551454610587 
-0.2331480229253436 
-2.339326555275606 
-1.493712783018913 
-0.153043902969404 
0.4217095974895143 
-6.864967240056406 
-1.098284423826167 
1.595586390005044 
0.9244077009430806 
2.981965437003643 
-1.06386007788582 
1.671386209719326 
-2.166884370220032 
-2.506906936278236 
2.146850850156061 
0.955207490861351 
-0.2391319501109221 
-0.5807117405026719 
1.920465606946807 
0.03148435349564063 
0.8076875358220834 
1.413923449426169 
1.276651444796367 
-1.669859165455633 
-0.3217521855971033 
4.163069540506442 
-0.09175782830840354 
-1.542959820826538 
1.682496285534314 
-0.5762471744717811 
0.3914358563387711 
0.2354362622180313 
3.869055906389792 
-1.055153741448543 
-1.247306653076548 
1.765160548672362 
-2.121847133260021 
-2.233257040687302 
-3.750661196320139 
0.358892334576128 
1.104125636435472 
-0.3563179123962309 
-1.680519530363763 
0.01136373536187045 
1.638182191105844 
1.176917269401692 
-1.691642112245814 
-0.8328910908112271 
1.939524462031695 
0.7080657769095108 
3.18081509764932 
-0.9016928565716449 
-1.44283506699544 
0.1130387426851393 
2.126199475059876 
-0.8387663257237477 
-1.273127868265459 
0.2883199826634575 
-2.204506607966276 
-1.822855599455765 
2.063444527905228 
0.4857489650696407 
-0.3314971919807234 
1.791011338119222 
-0.4819616713825469 
-0.1308302435597839 
0.5003893258311486 
-3.995216931548971 
2.233965984595305 
1.165048472410745 
1.784998916047869 
4.261434737625865 
2.210459345481463 
-1.249169333057258 
-1.144916939198236 
-2.253968514923225 
1.220135009999179 
-1.988140559822259 
0.9143853732789958 
1.406248358567161 
1.058827392988668 
-0.4164632014066479 
-0.6291561859027438 
-1.466968403624505 
-0.9150671665253342 
1.127007780303133 
0.7885034275325896 
2.127604309109408 
-1.571050135985813 
2.046477830299452 
-1.624162381143309 
2.10139685521049 
0.4082365163515019 
0.738423881883128 
-1.492901097762344 
1.278669115415259 
-0.6264582581978344 
-0.3575137803338904 
4.208583882588944 
2.527249253747099 
1.04168001050576 
-4.508879057414418 
0.6114639157581372 
-2.391587888975341 
-1.669677993465462 
-1.68116934452074 
0.002424822319433476 
-0.9599288900153633 
0.7052892114446667 
2.279058013142002 
-0.3129842289227294 
0.0747074327404911 
-2.394741992389275 
-2.197559928169513 
-1.248145926678158 
2.486499828909882 
1.642029207612878 
-3.65637673687083 
2.830313613783955 
3.480219661694938 
-2.740263949466986 
1.438351596941634 
-2.31053191960608 
-3.572286232873175 
3.948384217297934 
0.1851772075640916 
0.3436253977584751 
0.8778231491759136 
-2.833274699227788 
-2.095962493224976 
3.30555897182332 
1.243491455392497 
-2.035903399471513 
-3.040606937041987 
0.8646299833098838 
0.4765732758829848 
-0.2639036005075134 
2.431151871238827 
-1.199384286012243 
3.532292879890733 
1.223304997978156 
3.443387234795839 
7.416119901529391 
-4.464768758510801 
-1.049385094115787 
1.78264289291379 
1.84393820316428 
-0.9687062688739404 
-2.368469415094564 
0.9266643358499062 
-0.9995113122099101 
-1.09478710091092 
-0.08818936697497765 
-0.1519546072130221 
-1.173896210919941 
-2.693957108136317 
2.07781145528188 
0.334422158598731 
0.3194678870464006 
4.336892523137527 
-0.2396952642217534 
-3.134739104884465 
2.277702508772943 
1.726089243090705 
-1.859610360832743 
-0.6114701574953179 
-0.2567261535349198 
-3.275528138954889 
-0.9011608073857358 
1.173336782308519 
-1.918529692324802 
-0.8244502018330555 
-0.8200377379931221 
-2.053602120306794 
-2.61851619379554 
-1.19110216465057 
-0.5996148118080195 
1.376685894427693 
0.7236248198715051 
2.032250381035964 
3.584139545376989 
-0.005196742135477148 
-4.398447396347906 
3.231696819682005 
3.039604249376937 
0.7461981461877993 
-0.397819349250325 
-3.155700954942433 
0.2682469886239855 
1.883387134257167 
0.1863078991414547 
2.764618589878548 
0.1126624356555805 
-3.348397014062796 
-0.6051241648697534 
0.091811322002472 
5.735691440067106 
-2.424021625728784 
-1.391853034037848 
4.047860405505668 
-2.473866324842144 
-1.542541972258634 
-0.7256764467113648 
0.7658333898439578 
-3.074879564319061 
-1.108584176973763 
0.02169873169457377 
-1.568297180392987 
0.5880683734893868 
2.773086099752064 
1.98782862678025 
-0.529596030490135 
1.701078786370016 
2.365514623301951 
-1.089187439349875 
-0.05669169248400596 
2.396178000696109 
1.918882790651691 
-0.8175037274612925 
-3.06757711355145 
1.264618313583746 
1.241801360860711 
-3.190596176034469 
-1.97549535203356 
-1.246666057933577 
0.1328962489775505 
-3.677181658164547 
-0.5968819225722213 
0.5708466629479222 
3.075530075710005 
0.6998039954683825 
0.1004412069732475 
-0.5682497679656224 
-1.340222338748687 
-1.37337559025836 
2.492593333207311 
-0.1364619383465659 
-1.348717308076552 
2.566345756777269 
-2.984145413865619 
-0.1645600978739147 
-2.486070919448975 
-0.5859000877568922 
1.338031101572307 
1.893889581279247 
1.308838606043182 
1.948277809194889 
-1.468147292428525 
2.187821832120837 
2.074888967557979 
-0.7490390989900657 
-0.5403682079499899 
0.2293779038141267 
0.8200572867581215 
-4.282145249105079 
-3.213913064738085 
-0.9500156722955889 
0.1890707228607351 
-1.38797545812041 
1.265663578272747 
-0.8754736974055194 
-3.571819870560801 
2.401341405890732 
1.042168291756006 
-1.604851833344583 
3.305917369675481 
-1.973520511723596 
0.2450928929860793 
3.273298171711994 
-2.879590253323001 
-1.568738051120881 
-2.052554422212929 
-1.962165322762151 
-0.3794850801991829 
-0.127066106298704 
2.193348041214011 
-0.554747513306137 
-1.830906382348508 
-1.073853625867954 
-2.578285402450017 
2.445621210170153 
-1.294530103878326 
3.073498450007924 
4.554901605496413 
-2.566958927342601 
0.3832385584008853 
3.014010930713948 
0.8353960191755374 
-2.083333814682076 
-1.686921216149795 
1.751634394352078 
1.54078681984949 
-3.748591543421037 
2.109535633930161 
-3.45857043329397 
-0.8655023010564631 
0.9281766729175041 
-0.664389946915047 
-1.33411084777226 
0.9651161826658636 
-0.4621318567044978 
-2.699774661710326 
-1.323850249856534 
0.02721748223784464 
5.237078393097716 
2.716214003880231 
2.936195379003453 
-0.2200550502904992 
0.2744684740867832 
1.473864012355651 
1.911221222390397 
2.00136258824051 
-0.989350525708212 
-3.229577408381112 
-1.071566259186564 
-1.563816401251795 
1.261043755312276 
-2.421840310328172 
-1.075647333823579 
-4.430457104618156 
-0.2754433173486179 
3.40200860727287 
-3.269523020581534 
1.244637229004129 
1.274512197779353 
0.9240401069703562 
3.542547584656752 
1.983384313768983 
0.4402686108969021 
4.544142023258374 
2.063213280942558 
0.5268389399774047 
0.6930014317018794 
0.5217164836383857 
0.3612946297625282 
-4.541101388785822 
-3.537373882938562 
2.663495983984396 
2.264308998682948 
0.742585019004809 
1.021078376653224 
-2.28361766479827 
-2.437135889225798 
0.4715104908551682 
1.150586148591068 
0.697449234494119 
-2.071610527071554 
4.481886528944682 
-0.4120515888350227 
-0.8192350273488959 
-2.387238250723511 
1.172371570851399 
2.063540853630949 
-1.705123421347879 
4.201866815847208 
1.317003963117941 
-1.017975380319947 
-2.47029143703162 
0.1731092200234764 
-0.5245716395175938 
0.6465272282207972 
-0.7526789254406846 
-2.136150608724291 
-2.803489387280993 
0.6160809127527793 
0.1491523213963902 
0.7245918780537346 
-2.503820547953986 
0.06486169925562282 
0.02284489409404376 
1.263843545680791 
0.314440376851563 
-3.027085764142706 
1.505303518195953 
-1.035825652131788 
4.045098829407046 
-2.78078936039391 
1.341135150862082 
-2.10634555682502 
-1.915992034641035 
4.316886907738268 
0.6943502543383545 
1.47150424329442 
1.133221232579166 
-0.1088807944155635 
-1.946576603303155 
0.5581408036648094 
-1.911824638306904 
4.007158248088454 
-3.103342956351921 
-1.363469671499207 
-2.612809161915229 
-6.698994070412226 
-1.064091047643741 
-0.7328575520208189 
-0.1849235191967531 
0.3908288523041776 
3.158127923096794 
0.2808075991495843 
3.441925605380134 
-2.647855945330299 
0.6619495981164826 
2.129322553039796 
0.286680491622079 
1.962453547420797 
3.470968658346023 
0.4016915943050274 
0.05201254070567557 
-0.606345067780151 
-2.876724619059989 
-0.3982504777235001 
-1.750053168306874 
-0.1883931710188623 
2.002879641484312 
4.84123775593607 
2.815236234378776 
-2.113687304436058 
-0.8121331337673493 
1.466363608076947 
0.01661114073860369 
-0.357685241855678 
1.64578427461542 
-1.385204834687608 
-0.1505635095440771 
1.392367767134238 
-1.807219254072625 
-2.81381051459828 
0.03080375155757521 
0.649854117882422 
-2.707738594471798 
1.411398228003069 
-1.474601964127292 
1.925215820567987 
-1.029103535848707 
3.930015942457338 
1.428920075801194 
-2.473414496793664 
-3.366013623107449 
-1.646827924429816 
1.87837649262104 
0.81791917451882 
1.255504690893267 
-1.140354389567644 
1.365279114758586 
0.1701489277481415 
0.09428281286739348 
-0.4105191689747831 
1.918659901026394 
0.7636601902614739 
3.052185141994771 
1.106894339613404 
-0.9700590732161488 
-1.42152976384833 
-2.592119791645095 
1.013009493228759 
-2.60572964908271 
1.473808764479222 
1.769390315872874 
2.058881351259535 
-1.25253821484278 
0.7123648252399949 
-1.354346733180884 
1.259414794926989 
-0.696833008953922 
-6.449132360044098 
-0.8269169117503219 
0.5868114536899589 
2.558590983705098 
1.712432482014319 
-1.249472678262793 
-0.7981713557903863 
-1.939106179129787 
2.512262930584061 
1.353938709558723 
1.246174525156008 
1.960083485893372 
0.2158050416203113 
-0.4499546377653021 
0.781402742659424 
0.270570414165798 
1.908199043433845 
-1.370806205474759 
-2.229714978361299 
-5.465639893193571 
-1.096685516642701 
-1.862660082766551 
-0.9901891203553169 
2.051508650916091 
1.897067431765032 
2.504647290813297 
0.4524707534848452 
-4.584970621982146 
-2.533950698782458 
0.261595074263302 
3.685210895385588 
3.944857664738553 
-0.6305305579945487 
0.4019103477477751 
1.425463746934133 
1.098479866564376 
-2.760549642050234 
-2.882492654599455 
-0.8733999408806578 
3.607458715354289 
1.800758221272131 
-4.249302823317532 
0.7697805344866545 
2.596082189411246 
-2.035591292950079 
6.454485282521003 
-1.699348744841832 
-1.861348784406977 
0.5274450471366339 
-0.8308584372332387 
-1.924389080452874 
-1.029984249685902 
-0.5610805001211686 
-2.722980479375016 
1.762311370037998 
1.089398575260317 
0.04408249424276833 
1.954591572430471 
0.5962312402401043 
-0.8233364628122886 
-0.003795889975734493 
-2.235057120770442 
2.91210894375218 
0.04249953568143079 
0.4732519103985426 
-0.2557111589639406 
-1.67568057516055 
-1.3309062605171 
1.404765355398766 
-0.2431034684027754 
1.213448012999924 
1.763608118408984 
-1.915131986280551 
-1.421759772865866 
0.04611578710100932 
-1.118535670304977 
-0.917973687329567 
1.271311567385594 
0.6026346008316759 
2.823032779597486 
-1.010410876847404 
0.8261174109919633 
3.098437710162719 
0.2269190464720794 
-2.230942775444029 
0.5009021859110374 
-2.377225631906189 
1.494856965198473 
2.721114917883219 
1.398418315839281 
0.0007622530533695757 
-2.820812496011934 
-2.45727362451778 
-3.723178290470865 
1.445403697285125 
0.1804362877802687 
-0.7242707134408319 
0.1477574096330856 
-4.629081530305368 
-1.004390227202812 
-1.524797163264216 
-0.8765545614314106 
2.4606397969136 
3.238813356734666 
2.449265536728417 
-1.901565404924847 
-0.3570945744490103 
1.439942914638432 
0.6456672925936191 
-0.882726189540697 
0.2760672297850225 
1.376442869748518 
-1.983675992578028 
-1.386624775612012 
-1.889189270660792 
-0.1115904535994482 
4.257865904075392 
-0.09925467972313351 
-0.7202722789626841 
2.079543726735504 
1.003034531953258 
2.95777818791751 
2.410362540541627 
0.7975553685994404 
-2.541761935368581 
1.659526243337624 
-4.974984138014743 
0.448480448683383 
-1.490545349373279 
-4.584152752594997 
-2.169854575654619 
0.4751928857582966 
1.581565886872097 
2.590992985047501 
0.120329911015767 
1.305714798053575 
0.1859854160120116 
-0.2990471987379681 
0.1511694037225313 
-1.945013070226312 
1.024492715626204 
-0.1816169803450993 
-0.1661623216876086 
-1.250429845386941 
0.5477121722444404 
-0.580035241763828 
-0.08818412637393333 
-0.7865939910501618 
-1.397238894760653 
-1.698919966009286 
0.4968754111837211 
1.947990286858422 
-1.487537043291094 
0.3891614642450216 
4.591094910886396 
-2.39221310001839 
-2.039919973552451 
3.824086614940109 
3.319387065405196 
-0.03796642730319989 
-0.1490438598545761 
1.467889009826919 
-2.072795629229542 
1.854623574722407 
1.379719584129626 
0.9884514649625569 
1.027032950421432 
-1.523047469450698 
-0.7547825469666498 
-1.052835214892192 
2.362726970626827 
1.835022553247708 
1.801221902204827 
2.032862356427517 
3.890423246085626 
-3.451944920310884 
-5.525887626244129 
3.632147179685024 
-4.285276786320767 
-0.6374330438592 
3.650452457107288 
-3.978527056691233 
-0.6542833101284242 
-0.2091888927233963 
-0.5621661236658171 
2.188891760876389 
-4.031589655425585 
0.9092285537675594 
-0.1234898333711022 
-0.1882472147023612 
2.442628904326514 
-2.676140333726474 
-1.355292490287542 
0.1631780554393861 
2.380291105230491 
-4.065820142521404 
-0.3259140088949233 
0.9302494782360285 
4.395966666182627 
-0.3956446450992723 
1.342600437832655 
1.861950986956368 
-4.507348685008057 
1.734040519068792 
-3.370099210558724 
0.9518685561290966 
1.655187597104772 
0.7802901962187918 
0.9596243838190816 
-0.9453548187262687 
2.921746921226115 
-3.532206918271607 
-0.3188969902495533 
3.124391075176018 
0.1687601917282201 
1.046851856565661 
-1.021635039693391 
-5.278528196166247 
-0.4615033938219333 
3.077264081642521 
2.99350174365533 
0.3255040039867561 
-3.426852713871288 
0.8350227732587053 
-4.599241744200672 
3.205283708458892 
2.821031593450411 
-0.2071771251690463 
3.964551025855878 
1.264353594086978 
-0.6509412448202128 
0.04976914723460259 
0.9448391616670822 
2.888151248326245 
1.710749879382286 
-0.4956564064128835 
0.6307005040690306 
-1.462805751012332 
2.334188084998174 
0.2174593114156641 
-0.7712609171082078 
1.518702634450388 
2.848673956134905 
-0.7581223175486922 
-1.41365709472921 
0.1983903324977943 
-1.439588616515486 
2.727796870151299 
0.9869460464402201 
0.23524676638335 
-0.7009518368194748 
-0.9460288314032892 
0.3666328245650303 
0.2367793053613369 
0.2939295618537071 
0.4709374868698875 
-5.754967423750395 
0.5181807510436477 
-1.827449170307869 
-4.096973028507728 
-1.844051218179112 
-3.27396561553439 
0.5405478303161609 
-1.020931875566487 
0.4186289727281136 
2.035255886697302 
0.7821111167832305 
2.71330491769797 
2.829159998732677 
1.246126032383151 
-0.383254086985726 
-0.0023432378660197 
2.77087730226391 
-0.8965650351955815 
1.597875066162656 
1.842996244704856 
-2.044456044889359 
-0.6273758444292273 
-1.468317742894801 
0.08185539899660163 
-3.102998425919565 
-0.9775746785107043 
2.724227920652688 
1.298141744597597 
-1.046873738281505 
-2.727043360371213 
-0.1828072415774889 
-0.3099255006683375 
-2.755689876885981 
-1.713624311573502 
0.6155202702531533 
-0.9383777269379933 
3.297868139126991 
4.19276311117595 
-2.155659672158371 
-1.053067209531022 
-2.636940457933191 
-3.085339661259343 
2.876826275025017 
2.610295332483529 
2.892857964461696 
1.947708738225838 
-0.8372042770047196 
-0.4087683386665718 
-0.2589637180919573 
0.1206784999603683 
0.4168556805625477 
0.03333080366792582 
1.271692601065188 
1.615943608279628 
0.09997873969476528 
-0.5503218599254639 
-2.379880080559005 
-1.030064487911813 
-0.3484721163818141 
1.871245224917824 
2.531661365205831 
0.04317931501926454 
1.825827975414959 
0.2476603803795994 
0.3320740972085926 
-4.02349772701385 
-0.09235364839423822 
-2.376000475842001 
-1.043364553449394 
-0.7929660501120949 
-0.7955977825665848 
1.503793589292853 
1.366040419492107 
0.8938574909133556 
2.000049235354699 
0.3766612962857684 
-1.553264770693645 
1.275293392452725 
0.5097406652605475 
-3.448167519748479 
2.043531878057344 
2.843073110376997 
-1.588093729115428 
-0.9405214810749437 
-0.3811194256045867 
0.64137939746179 
1.634591819258065 
0.9710060059742455 
-0.657111495054127 
0.3441449792499481 
1.485701502214647 
-4.290364881709539 
-2.47737251319861 
0.1512764826287909 
-1.390647607754965 
0.4240571891478336 
1.250406800676341 
2.246732058085147 
0.4992162021391489 
1.116028496720981 
-0.7500225392634481 
0.6020285844749904 
-1.347565243332215 
-1.238597031436806 
-0.1051423099136659 
4.787642862212628 
3.631978812691621 
-2.647633558386329 
1.696489697862389 
-0.9057799787015751 
-0.04977153087469979 
-3.464467221784784 
1.815028513091612 
1.45044015214792 
-0.261145827757125 
1.169322029379215 
-0.8091434365651935 
1.243014667999501 
-2.663296492972214 
2.089348060824193 
0.1214016780572932 
-0.08585542207869787 
1.800269517970108 
-1.220427619318607 
2.750451895326246 
1.599117368088256 
-2.325539139862482 
0.5169262617342698 
3.214818235297854 
-4.353458135913352 
0.2727692426042638 
0.06280378523730183 
1.79383257387654 
0.9191959977569758 
1.555506151778289 
-1.388641836590457 
-2.637692541760684 
-0.04120764231672786 
-1.037934964447319 
-0.3273728596819229 
0.3223562202443859 
1.629183905638999 
-0.6083979150925738 
1.641366882572189 
-1.320367009765719 
1.04205490194871 
1.510691164821928 
-1.137373111415178 
1.243838108430912 
-2.414963597273598 
-1.972808056010233 
-0.2927867905978138 
-1.450457181783639 
-0.4332048347903029 
0.3215536869448637 
-1.843769966307616 
-2.099164108489824 
-1.470515544307815 
-0.1008617064907042 
-0.8169096734530897 
-1.23614894874225 
0.3655763377796385 
3.019666012942154 
2.137309864811522 
4.138619317724994 
0.6412349308807749 
1.425789868783012 
0.3860317818243768 
-1.760328441182753 
-0.80940006113283 
-0.7262663739652766 
-1.461506928958559 
-0.8210026103808961 
-2.750044613293694 
1.870147910243066 
-0.2735142230956193 
2.006930346843193 
0.6338208842654479 
-3.112604941945142 
1.813754604675739 
-2.098418406027047 
1.064339684786878 
-0.8762638437206882 
-1.186684877346021 
1.933133711210887 
-1.427597446216809 
1.570303763759278 
1.632911824310137 
-1.514895121855971 
2.477482422617574 
-0.4480919721667407 
1.588246414884628 
-2.869170858278556 
1.840320936674668 
-2.717701379781687 
-2.335986027363766 
3.348478675587563 
0.9134684409590974 
3.523437913243388 
-1.752138542817177 
-2.778075907133601 
0.4407727662708123 
-2.643334623076173 
0.06066551326267896 
-0.3722879492014352 
1.781415184746076 
-2.748755196159552 
0.1794042104719619 
1.634316102416022 
2.333906314407653 
-0.113440860178995 
0.3928995484728766 
0.1315254802555019 
-0.1755568921436529 
1.781204995334208 
1.043248254899746 
0.003315969226411167 
-1.415131141717224 
-0.03251858969204213 
-1.090837192843007 
0.9844959161700501 
-2.540437683048661 
-0.1673332087481716 
1.796589540364705 
2.381215470533532 
1.338738447984606 
0.44537007086318 
