solver_type L2R_L2LOSS_SVR
nr_class 2
nr_feature 1984
bias -1
w
0.0003454214003157758 
0.1368326274415077 
0.08455670734778772 
0.1738302672525072 
0.08860785108058875 
0.1406216431382728 
0.07392092396356259 
0.1425831667946894 
0.09019554952952549 
0.05651416066138601 
0.01310965236892179 
0.1210670192226615 
-0.03341383169326882 
0.05172947644380967 
-0.04127110917355424 
0.02723639776290861 
-0.009190634251837637 
0.09174597381745067 
-0.02893130174971024 
0.06459843857809844 
0.02336411184286756 
0.04689364982359459 
-0.09776340417698681 
0.000628025969662967 
0.01097936407478746 
0.00132622631228866 
0.03227771961357685 
0.04178343397227289 
-0.04206523297315695 
0.04050715870335318 
-0.04224820095922399 
0.1187369315059879 
-0.008612871477162174 
0.1379521237194047 
0.05323168473597928 
0.1433910778441681 
0.00347463452756709 
0.1234911968341388 
0.008394099952366127 
0.1756525414717303 
-0.09396822415806591 
0.09915306099071307 
-0.0877954886477335 
0.0919282890956227 
-0.08155153363612332 
0.04287403190803372 
-0.0463594826568462 
0.04158509062022412 
0.03389199666945644 
0.0497978813479807 
0.007254582452667623 
0.01370535705622745 
0.1013581787597913 
-0.05872099864511036 
0.1003073647810327 
-0.004517600652811117 
0.06363980542845213 
-0.008660094371370209 
0.006169825879740582 
0.05944017829490006 
0.007926428270754488 
0.110044100155494 
0.04447833701644417 
0.07663161353485151 
0.1195425245030906 
0.1684375275842397 
0.04594280930057538 
0.1712629827938573 
0.01427349851043379 
0.2006322603673683 
0.1011375693506745 
0.160006740346989 
0.09556441688904714 
0.07146079610059367 
0.1806590719014699 
0.1155868362056412 
0.1788886157945968 
0.1676604906387932 
0.1028604088217499 
0.2110875436351966 
0.07087058872230118 
0.2555379065207027 
-0.004708302079406913 
0.1936610671142965 
0.07042027115063021 
0.1558515153389404 
0.02662025861043008 
0.2287835117398438 
0.1020131132845106 
0.08580150238019993 
0.1266053317948722 
0.07830988738622517 
0.08695109820846222 
0.05230937258503739 
0.0131767381969992 
0.1326938354574528 
0.062800640933267 
0.1884660187935497 
0.1410170385070528 
0.191356855874406 
0.04013627551103658 
0.2221036539601949 
-0.009658229785279278 
0.1484119740071796 
0.04148853049882671 
0.08730174702602338 
0.05062113377857803 
0.02214706477149376 
-0.02269430732030393 
0.1271778537026756 
-0.02471724234390516 
0.12184766634548 
0.01133791005570872 
0.1058258055855474 
0.000343928649008624 
0.1569106327718478 
0.01792897199392212 
0.1025835950870727 
-0.02429746259066355 
0.09858353282797326 
-0.09054755301445916 
0.1241973079841812 
-0.0477668560770388 
0.1492910445380766 
-0.06199639812961813 
0.174468490140564 
-0.01005435766296673 
0.08563304216366914 
0.06569024143680262 
-0.002266061957118643 
0.04749312107434382 
0.01117863472945035 
0.03620980962776379 
0.05812931050481863 
0.0003620304587016651 
0.04315378804966542 
-0.05637009085130548 
0.05260744432714155 
-0.03078308399344077 
0.06712559527975863 
-0.01301783295134031 
0.07317348806830638 
-0.05214654031662809 
0.06902663805004791 
0.03909490278212876 
0.04746859221843587 
0.01089870639002298 
0.1677681892167693 
-0.02434543230981495 
0.09600868993879071 
0.07180508227623131 
0.09845019533209236 
0.06149546319099127 
0.02199790983550712 
0.09822026303793849 
0.1000295512312925 
0.08612367317370681 
0.05119609170518611 
0.09517553739298695 
0.0113518178727055 
0.002506999950887402 
-0.0391711409340777 
0.001790920334314993 
-0.02796360419645699 
0.07845596321712879 
0.009057404484828051 
0.04609162652813734 
-0.03266156701615448 
0.05827225881426299 
0.03743527386253104 
0.1038201205531639 
-0.0526579772161761 
0.1758755535691458 
-0.01514608760431853 
0.1528409030160866 
-0.01308150653605307 
0.07156689612239937 
-0.06660251459919699 
0.1621735602506905 
0.008283690088676372 
0.1914178527457747 
-0.01246932987239005 
0.1919199084317147 
0.05084638059626732 
0.0826163214779754 
0.06867213036847242 
0.0113499032558834 
0.06931683694015923 
0.01731265754946682 
0.06834133518224919 
0.11225341869245 
0.01311982125616654 
0.103496541234616 
0.1020855851817302 
0.07576564689567232 
0.08545063103456967 
0.06259539102321432 
0.1209428761010145 
0.08156739037802166 
-0.03291464415601885 
0.07104214421513561 
0.0008786190918146751 
0.1279545759382296 
-0.01973504650922496 
0.03152773871843805 
-0.0380580853763881 
0.05986407246855323 
-0.08638246729075436 
-0.03169902619010905 
0.004303263541617786 
0.02481850624142254 
0.001748059098603918 
-0.06651520126857305 
0.0368493733959972 
0.009102023621636658 
-0.04759042502672928 
0.07058970609131732 
-0.04485907836215351 
0.02423342576123988 
-0.1144079713995911 
-0.01646468364022772 
-0.07996493607728464 
-0.03565850454471164 
-0.03757515362201935 
0.1078318262802249 
-0.02159280717247632 
0.08922244337656218 
-0.1064600747148807 
0.02332731500158061 
0.007751215577752619 
0.01307807272715082 
-0.07621782224150997 
-0.08179950525962426 
-0.02712462607455813 
-0.07147914878525269 
-0.05669363523666372 
-0.06939696587389003 
-0.05097614902449246 
-0.023956158098482 
-0.05842996882143946 
-0.0596675047668591 
-0.07547125338659134 
-0.004663160730508482 
-0.06200692883804135 
0.02960085868000685 
-0.04322031882778731 
-0.05740993527708514 
-0.002144485041216271 
0.01047669145916766 
-0.02100819196010462 
0.04164819329915183 
0.04340099866346688 
0.06012994214055754 
-0.02460890418210401 
0.09016700441902586 
-0.06589456758468643 
0.09264943992799719 
-0.1001905751537472 
0.1491429425096976 
-0.1466017033214219 
0.1211138554762987 
-0.1215824483479683 
0.1083667160025313 
-0.1128775659467713 
0.1083952931781754 
-0.1209272774170406 
0.1266129993424504 
-0.1169682878253914 
0.1002767538032306 
-0.09762433051024984 
0.0398464175878427 
-0.07902608949339694 
0.04833875431075817 
-0.06813265536711123 
0.07225754917959626 
-0.101716939600744 
-0.01251469943573475 
-0.04321374260401764 
0.002833724977898689 
-0.07300156196333835 
0.05555689671411958 
-0.06666434102289383 
0.04860666320896253 
0.02918332188357524 
0.0670678400706135 
0.01820674259370599 
0.02479404752998705 
0.005582602197123012 
0.04285711449164532 
0.02728411928852545 
0.05592664758424304 
0.0707145969295998 
0.02422639044967869 
0.02553377577256181 
-0.03798608872371975 
0.002557171652438234 
-0.04234681712947579 
0.06000043463516252 
-0.07537574936333932 
0.04227695382709939 
-0.06672990855724831 
0.04741201214066405 
-0.07061432075734521 
0.08874808733075239 
-0.04712112360264623 
0.03152294061452396 
-0.001973321806151584 
0.0953582517486747 
-0.04455596948579563 
0.09206327136110978 
0.007437884977487877 
0.147566778902702 
0.004284577686762023 
0.1029883969009021 
0.07270491788246565 
0.0805926826557337 
-0.003848550724645205 
0.08079805409302804 
0.023125607286005 
0.01473506726113647 
0.01752533298555084 
0.08508966357602335 
-0.01245936723537207 
-0.03975507625148191 
0.06910981084521313 
-0.0646809432752225 
0.1253375658218465 
-0.06800636814268217 
-0.009619432400150674 
-0.06107566997804952 
0.03450772285735052 
-0.007101940342751726 
-0.005492402518852227 
0.04074900722646196 
-0.02196804818613374 
0.01307346233560934 
-0.03171290546666224 
0.1157285328177521 
-0.03224737916819172 
0.004978831759409818 
0.09316684945858028 
0.003639087321592634 
0.0637428722103411 
0.009604891842553347 
0.02399900430663111 
-0.05845569178511537 
0.02068385179000481 
-0.09294664394634961 
0.09608237657087425 
-0.0920107208087583 
-0.01086546957841761 
-0.03809887132158008 
0.1058177736877748 
-0.0006903120578073372 
0.1370823011693955 
-0.09561539674240313 
0.09066642091583256 
-0.05678292821252173 
0.06487654985874736 
-0.03394060653883739 
0.1229491344855841 
-0.04468031361630471 
0.1652180558334527 
-0.0382991728174522 
0.1371506193615472 
0.01138846753145012 
0.1578451762556957 
0.0435408428997982 
0.1254838459677374 
0.01798594131256133 
0.1420555147924885 
-0.01520779040395675 
0.09062744748129303 
-0.04246939864255998 
0.1208095639831475 
-0.009617188900352567 
0.06712250684340315 
-0.04689984774202226 
0.04173723836556921 
0.05874051906942356 
0.04437445856506645 
0.0342449872691369 
0.1131223348723254 
0.04583441805608674 
0.05109397431104185 
0.03408946155469564 
0.1294311385928254 
-0.01402828318470904 
0.1567911105942862 
-0.0648543301793582 
0.1552539772956342 
-0.007554069670617516 
0.1802831867984739 
0.024660287508769 
0.1960047714482864 
0.03014223855761682 
0.120830871432517 
0.1030872002624437 
0.1161744866648866 
-0.04505051057058175 
0.1397750845218534 
-0.02143509431765544 
0.0437425170678364 
-0.04772107124634258 
0.07745185754499082 
-0.1020935218531354 
0.02645784439692865 
-0.06310030728781828 
-0.008699426004580672 
-0.04081281884946544 
0.09252812192299954 
0.01659498730404741 
-0.009088304357101546 
0.07823926816640223 
0.013348817516867 
0.06964690911736302 
0.0556109900063213 
0.1021620412303216 
0.02724907425984333 
0.06444104853730249 
0.02153753501892076 
0.09522115257563769 
0.07319672544714872 
0.0617613371860968 
-0.03694943740549991 
0.01935748539005688 
0.02455332876065941 
0.03523244962470714 
0.101884008267034 
0.07403455809146196 
0.1321253011832254 
-0.005170861910617245 
0.09113381274080995 
-0.01627137160854856 
0.1426231542401444 
0.02540956770980869 
0.04703174156559108 
0.01065573734882051 
0.03936085204363334 
-0.07828762448456571 
0.1076589541806525 
0.0004681475131386207 
-0.01144278675329652 
0.02572137759639731 
0.01048008570500467 
0.03222738079197338 
0.01139904497450376 
0.02322478663818375 
0.06855326075989228 
0.04305322794986105 
0.02410538869420047 
0.04547977388060185 
0.09257336284465828 
0.06578884027733493 
0.02965920080344158 
-0.06468608820125168 
0.1164315190525843 
-0.1212594146665264 
0.1625253866285758 
-0.1249869589610555 
0.1470706763483329 
-0.05323265924481074 
0.1393077731343735 
-0.004857026006058524 
0.04479417236649994 
-0.04976510641147928 
0.08985314664180946 
0.01950360946788348 
-0.001729388062775144 
0.002826468214200058 
0.05776113439271438 
-0.05854860468841008 
0.02977610516764697 
-0.09129136318584566 
0.07632205447570539 
-0.02043409449375851 
-0.003178654961857685 
0.0160856126404829 
0.001224436538121384 
-0.01145697466593184 
0.01210484536544599 
-0.05161666548010886 
0.00442050115302179 
-0.06834697200631401 
-0.04412706013995432 
-0.1148797896043406 
-0.006027311973520277 
-0.07987331042673117 
-0.02469616425056253 
-0.002343916856300388 
0.07107759960362516 
0.009758118695336469 
0.02910468594378073 
-0.01376919775644383 
0.06053402934203617 
-0.0197382901342146 
0.06748914754145563 
-0.01544230803410154 
0.03455047322034278 
0.03727949150272068 
0.03586869059622484 
-0.02117346212246387 
0.1183718592410528 
-0.001051601265230376 
0.1866849892469612 
0.003493546265331063 
0.0672487604865251 
0.02805238839584862 
0.07069596977257786 
0.06212870044898072 
0.01725574775035338 
0.06491838923851714 
0.06774322163261048 
0.03992913001897393 
0.1350814287765873 
-0.03263123435512327 
0.1338651800350832 
0.01403594547623193 
0.09922737504653016 
-0.04759145224889336 
-0.01816899504850112 
0.03157152713024407 
0.05197326487586404 
0.02635676861707317 
0.05574853078409091 
-0.008193661744005624 
0.04353394578675019 
0.109348930159284 
0.09814074028935862 
0.08709645164243382 
0.0655949653240306 
0.09748041354937829 
-0.02195423145768319 
0.1131271579697872 
0.05220229599800832 
0.08096933778202067 
-0.06757006032710436 
0.02047272042596575 
0.02671652435046737 
0.01465912927301588 
0.04018176093780922 
0.04285532043875294 
-0.00141884866426021 
0.05099324993717923 
0.04847815862449395 
0.1087705830115036 
0.07467448550465135 
0.09413628587568432 
0.05912427709098353 
0.127395179246905 
0.08510653425769282 
0.1096305201534062 
0.0922965009113476 
0.1181550203123341 
0.01146730658013137 
0.05959540257182074 
0.01212658976074841 
0.04013478007916552 
0.03992530582437525 
0.02256630082575601 
0.007304190160263637 
0.007404611675230546 
-0.06983905462651285 
0.03320329416155084 
-0.1277546757147642 
0.06436970516805676 
-0.1199615624531101 
0.04644038871350581 
-0.126713698501539 
-0.01041234009524957 
-0.1083446748049937 
-0.03984765488923973 
0.0297307320366336 
0.01171109128494115 
-0.01636262659368224 
0.02483863759919035 
-0.09409069029452205 
-0.03468506350782714 
0.03112661229240147 
-0.08519283269506803 
0.08766436206325082 
-0.006828489615201786 
0.05147790702168704 
-0.0164856947093403 
0.06153300043106884 
-0.06026093704285348 
0.08681043714219747 
-0.04120281794935471 
0.06514385093496969 
-0.005005364584942136 
0.03853325236098408 
0.0754902433585509 
0.08930925739612262 
-0.01518478138151726 
0.03911029938349036 
0.0036103266601085 
0.1201643068259816 
0.1068061740887369 
0.04927200299921883 
0.0211730472813115 
0.1038518837950987 
0.01441064407012636 
0.0185619627205401 
0.09313309187031495 
0.0296763372614143 
0.02564132686050417 
0.06091446784758209 
0.00467178916363175 
0.03002521758018735 
0.003188916901204235 
0.1368137443528384 
0.05732130452772864 
0.1175251537156216 
0.07266979404839832 
0.1895963767747744 
0.07707303574690345 
0.2061551522542734 
0.09790602887057709 
0.152714973031463 
-0.02056920230035072 
0.1053714641467231 
0.08331128236741665 
0.1157168046046077 
0.02854181525052251 
0.08102274448829662 
0.08736754729934648 
0.07165900889294416 
0.0628325943303317 
-0.01452751597226817 
0.01885227260627587 
0.08233707227087954 
0.07224796822503551 
0.07699135027652175 
0.07937132580346419 
0.107681598009721 
0.02048993458592344 
0.07559771774236869 
0.02322655094023339 
0.08394558618593223 
0.07244311294435773 
0.151052801127372 
0.09505854343036886 
0.1222981383228285 
0.07034567903918341 
0.1650300048388224 
0.06253914444405205 
0.1958732085574192 
0.07802283464949221 
0.1506730498421908 
0.04951989686551615 
0.2025590073654656 
0.08601798699222014 
0.1359310558784379 
0.06752661288366976 
0.1190187532698659 
0.0177903129630036 
0.1461807520598966 
-0.02515890769806382 
0.0991928730468226 
-0.1296881854703593 
0.1679455823816133 
-0.03780798604430455 
0.1577945042367257 
-0.1194764185718626 
0.1295737553950073 
-0.03747043636990719 
0.1318388458220743 
0.004206310089269988 
0.06696308630885203 
0.06731632319323019 
0.06671740083148962 
-0.02782731123982915 
-0.02431477591721577 
0.03191932337940833 
-0.02129090757645135 
0.03255652196669334 
-0.01871451313846391 
0.04676613522187128 
-0.0164817712981033 
-0.02329293579748584 
0.07266246492474604 
0.05081769611683199 
0.09756324559227773 
0.1271430879586753 
0.02948474244444591 
0.00295599485909828 
0.1031091831443167 
-0.007595136924473349 
0.09332475234383308 
-0.01813907127240532 
0.06941474241251359 
-0.06235667763713736 
0.1775697668607887 
-0.1227854282192254 
0.06948007495588931 
-0.03622579360158746 
0.0798818339112794 
-0.04916394206459517 
0.1262021186694908 
-0.07117091957936145 
0.1291669515370156 
-0.0615191929378176 
0.2073504677260015 
-0.01691685056687849 
0.1453794945362471 
-0.0274548716723426 
0.1343484154944171 
-0.01392089925549133 
0.1728169913391683 
-0.06047840097395304 
0.1795347353321616 
-0.04957965328588406 
0.1259706408796491 
-0.1130843355929349 
0.08035652890684691 
-0.1018767889999177 
0.05448724881461972 
-0.02753368588585631 
0.07594234210232392 
0.007227512034142417 
0.06933868581297509 
-0.02156594199873938 
0.04176478224851675 
-0.03858839397834745 
0.1309818122364084 
-0.07142735778582385 
0.03731531181211568 
-0.0405838287351037 
0.01048251269676449 
-0.01485622593969813 
0.00734221314287796 
-0.01609585982860252 
0.07693914176333976 
-0.0822840420243683 
0.1167110928992578 
-0.0004145681337691946 
0.126292874620448 
-0.001797616249910024 
0.1356730881170544 
-0.05790499053841869 
0.02619778611830827 
-0.009005620970301732 
0.07062486748452297 
0.04588826332378968 
0.04184773409762742 
-0.04011560365133011 
0.08973153116348763 
-0.04261740476161063 
0.1137857601503326 
0.004197658829559714 
0.1204959311543938 
0.07239538521769763 
0.1664318473166768 
0.01476275759103043 
0.09061086723286803 
-0.03799068075529858 
0.03065266682160245 
-4.056038607721729e-05 
-0.0369392442983895 
0.01860818182427874 
0.04331172178019538 
-0.03226914211783491 
-0.03338067624326985 
0.04249974740257377 
0.01837777349046458 
0.02634426965827439 
0.02223680028390228 
-0.01302761257628327 
0.02855705694459279 
-0.02680026979873979 
0.05011561582696752 
-0.006469193556441831 
0.1016700594234599 
0.00123549474445804 
0.1207210833242454 
-0.06792140878826106 
0.1094515317655815 
0.009342447542917066 
0.132502141815392 
-0.04760432192237216 
0.1644814525176802 
-0.01466595490533116 
0.09411894925639584 
-0.0123720231392053 
0.008458743560568261 
0.02634544155422767 
-0.01624922973941454 
0.03291546197149976 
0.05869752314242204 
0.01915582321973396 
0.1552858998700833 
-0.01955089166866206 
0.002515971876510711 
-0.07339983859582307 
-0.002550915777462286 
-0.06771673892415596 
-0.01811895509545363 
-0.1044708496841377 
0.0161178256138868 
-0.06982187247810755 
-0.02248270215217706 
-0.05914145757032558 
-0.00216607236521789 
-0.05605643132029963 
-0.02338292429280174 
-0.03438088443242807 
0.08560071986221399 
-0.06217613897970321 
0.06798482487601643 
-0.0299771126161979 
0.1315388664708186 
-0.07545414001249574 
0.03752677030998199 
-0.0664856213620876 
0.02899746670890491 
-0.1249440385265548 
0.07130463624084031 
-0.03955112054162015 
0.07699065399649524 
-0.03196156238304999 
0.1062918335704725 
-0.0425652835165783 
0.09621238062466579 
0.00119719512017826 
0.09245772492262146 
0.06772976172242862 
0.04086822318700934 
0.04459409126782393 
0.03236073578741262 
-0.05248096360534871 
0.07901806402835344 
-0.01715862107172595 
0.00681581386997158 
0.01112748331985462 
0.009690227228405002 
0.06642601760100787 
0.0605034154365548 
0.01895488409566891 
0.03212437807538165 
0.01210057386826489 
0.03309405698244239 
0.1230875500040282 
0.03496366813786817 
0.09030812288083401 
0.02153621623126373 
0.07654380531122966 
0.04305407581626379 
0.08416440888197296 
-0.02613621460611809 
0.06238481244598595 
0.01853147260474617 
0.1493490262508829 
0.05930256820902937 
0.07081746180148638 
0.0651738772542443 
0.06573667467056188 
0.08723317131027486 
0.04238082166475881 
0.06734737828309649 
0.05346362024649644 
0.06493925101168321 
0.1647256565147613 
0.05568357521602782 
0.1428421432033507 
0.0376018296887811 
0.1123577917540126 
0.08668307410800491 
0.0942384419307092 
0.1003013675482287 
0.1578148677880969 
0.0520487003271196 
0.04557135631085323 
0.1040650515820944 
0.04266632154481521 
0.09970593477719124 
-0.0264136398482523 
0.2042994577307179 
-0.0001111895595893824 
0.1356762755730163 
0.08651643631901491 
0.1264616281883597 
0.06886046474393177 
0.002198353164275239 
0.112131472375545 
0.06363329233952146 
0.02247399025607942 
0.1291813953750774 
0.04793021444733502 
0.01694250966300521 
0.09345350739727318 
0.0823113236874301 
0.152841565871138 
0.003232398931513047 
0.1065515630465709 
0.02552007172803164 
0.0867692826795782 
-0.01124145086633637 
0.1160696046493098 
-0.04887669866980857 
0.1166430550964201 
-0.02727703533872567 
0.1061235066904671 
0.01193546261192598 
0.01613668440770463 
0.06440668271484364 
-0.02265573311547486 
0.07697335824130172 
-0.05390407347548758 
0.07260128669990572 
-0.0182630273883592 
0.03787989022972386 
-0.009993973376962355 
0.04383161307065547 
-0.04964931845010181 
-0.06076227166428706 
0.05914929586479598 
-0.01032400721219538 
-0.008010440100506784 
-0.01226124178209792 
-0.05787530392205561 
0.009346732530616089 
-0.01190295828668182 
0.001821853502568925 
-0.04936343998076922 
0.02714334956499569 
-0.06161141486970344 
0.09364747070437889 
0.02649369881735993 
0.064882585962995 
-0.05701456710906048 
0.03736417099548039 
0.01740202963581238 
-0.01542303197712763 
-0.006115961761354391 
-0.01353528244625012 
0.007878737949726516 
-0.008218141346221159 
-0.05442730439549053 
0.08942303504948224 
-0.0439364382996446 
0.02362966205285844 
-0.09397044488435982 
0.03381598433163033 
-0.05544237293962984 
-0.004141776625851793 
0.01802607945759814 
0.001256405558082007 
-0.004991432470159332 
0.05553206067685849 
-0.0329539572275536 
0.03442169860054392 
-0.006149050687754744 
0.006934878122662043 
-0.1279658384534041 
0.1309344118609743 
-0.04807118260215529 
0.1141805517661582 
0.02633718273430101 
0.04997200495851168 
0.04107787509161889 
0.1145550491116843 
0.08268235437356315 
-0.0112060840768099 
0.1158916080742429 
0.02316396796632463 
0.06569090105916346 
-0.03126946284891841 
0.1044097179113209 
-0.006068745543379605 
0.08581248225073718 
0.02749540940312797 
0.07706835122985052 
0.0008358417622225914 
-0.006071642214538618 
0.1055572988761205 
-0.02381399178656974 
0.03424499440263168 
-0.06717265427747976 
0.05626365346258129 
0.02399148855758498 
0.08033411403720145 
-0.0549347253782063 
0.1125894338965046 
0.01490774553064957 
0.07607590077409868 
0.08873292352213162 
0.1429213457958279 
0.1595215030866117 
0.07721785047619295 
0.0462116978502448 
0.03289586527971866 
0.07359766789916493 
0.1666921885849651 
0.04561022197035432 
0.08676349836132854 
0.1342761357363655 
0.09252880962120737 
0.1591954986293017 
0.1714942331698628 
0.1881262756145547 
0.0878073748862469 
0.1199720787853043 
0.1611501385651375 
0.1207513313080323 
0.1044164854107812 
0.1613045917128024 
0.07733515396852043 
0.08744286198422674 
0.1556949246952337 
0.03759282459829847 
0.1661320897071111 
0.07271415422954594 
0.1215208583408432 
0.02104024787627192 
0.1322852554783897 
0.01587406927508002 
0.0735327351263267 
0.03749342062890377 
0.1378308298309341 
-0.07420637314589471 
0.1291855099002273 
-0.04195623862344677 
0.03256128209908093 
0.01129058605600691 
0.1466555028450732 
0.04493917212696943 
0.09272349262683523 
0.04438735950383622 
0.1479354561683684 
-0.01086055215810253 
0.1260798688384773 
-0.02647930273646968 
0.06741644615787515 
-0.0705451998795202 
0.135454818511155 
-0.05144242153193877 
0.09848315785969509 
-0.0320778120388118 
0.005359837223485376 
-0.03198110513136952 
0.01352317361235547 
0.008552286949388047 
-0.08852372551880222 
-0.006981944798375412 
0.06234784467979203 
0.02078724098468231 
0.09765334291786962 
-0.003461568714727049 
0.07894902640802769 
0.002314526564257447 
0.0129919557337854 
0.0934720170066386 
0.06689755249042598 
0.07844852473092163 
0.03345633963458003 
0.1314904917016507 
0.0501055057491905 
0.1158436869659705 
0.07218045639182503 
0.1230443005087006 
0.01929584040004916 
0.09364492214100034 
0.1071807809670866 
0.09545469113418521 
0.0100352499006709 
0.1387096543022387 
0.01275229719195857 
0.1186150283086634 
0.0181642732266982 
0.1489732624166981 
0.005984959020316661 
0.04216968793302552 
0.06003059991652692 
0.01064907316992125 
-0.0003649128347357388 
-0.01809601309148583 
0.02789174626662534 
0.06399229818283012 
0.01517693191211419 
0.03149468564726002 
0.02853563447824295 
0.09820114341228885 
0.04853907556897341 
0.050701187959259 
0.008625337941961598 
0.1265194952928528 
0.02480201612778626 
0.1508407408352901 
-0.003374281029207901 
0.08422340611061883 
0.01484051904456896 
0.1242183193326308 
-0.002439240333139287 
0.07354158119528265 
0.01884097824411497 
0.06337823380464017 
-0.01695211434057557 
0.1353299707686285 
0.02129860297090761 
0.1055227048318646 
0.0539131603784164 
0.1061392938843262 
0.01669021333696313 
0.1372185898434996 
-0.05243709450160491 
0.1771110049917756 
0.03718230895831776 
0.1728670894041035 
0.08771953991716398 
0.1760552645874191 
0.008070665801920889 
0.1123155525983263 
-0.01893034865892186 
0.1467763853788485 
-0.01156938166321616 
0.1256839409792494 
0.05935058690650735 
0.1060682899689345 
0.04795745036939657 
0.06304838962490206 
0.04343729238795011 
0.05079733248565029 
0.1064680419518254 
0.05801423921256205 
0.137846756147495 
0.01211083003954921 
0.1424909624410403 
0.008783429230223095 
0.1323514519916391 
0.04449893448515325 
0.09430515806447194 
0.02606777955628976 
0.0884466692882042 
0.05103410121617104 
0.0344881095953317 
0.1359782103242485 
0.04771606501465906 
0.09972533446850093 
-0.07728138952549556 
0.07950245090558568 
-0.06694339067517011 
0.03201994244672733 
-0.05002690434995799 
0.03966772834380857 
-0.03805859894926112 
0.05201382001510201 
0.02934586914220437 
0.02672092975434852 
-0.0002854594846932717 
-0.005258877618830456 
-0.03204932368039727 
0.01556168120162406 
0.03645712790944054 
0.07287316696193454 
-0.05374765660731166 
0.1017383889058131 
0.06916491689923805 
0.008274897891391072 
0.04197496493411865 
0.02091669092820967 
-0.05105924165580971 
0.1351831602116298 
-0.001597195795246384 
0.07436954162916998 
0.02786906463961105 
0.02960956743082547 
-0.008550006667899217 
0.1314684670961237 
0.04074481880448219 
0.05133926720316909 
-0.01134742388050012 
0.08972293674844732 
0.06753914644167452 
0.08106890761471322 
0.1241504308476484 
0.06675223977449149 
0.1493374671256013 
0.1269516468370158 
0.1227014529315862 
0.2470181890991858 
-0.02180059543905709 
0.1005011731490885 
0.07126401156871628 
0.1126580448802372 
0.02608326012661816 
0.02304350799988416 
0.04285952926900913 
0.0349239454238841 
0.002170704063683284 
0.04100237376624517 
0.008270584918006597 
0.02087452514561097 
-0.02974332559090265 
0.07260294047132054 
0.02933231666597981 
0.03285867098958468 
0.09871907216742225 
0.01651678233838855 
-0.03560774184680569 
0.04347052930403431 
0.0392579383374129 
-0.04050011452429227 
0.004293555633118803 
-0.03100683813191436 
-0.0558444683500077 
-0.06000236762754708 
0.0277927625341199 
-0.07872709304990962 
-0.0009404936620879287 
-0.06078822718726895 
-0.01353323072350803 
-0.07698459228140161 
0.01550093330729757 
-0.04910527278777767 
0.07210590813675526 
-0.001527180601073899 
0.09513245348936734 
0.04933028498479503 
0.07239494302473257 
-0.06168526621374427 
0.1178107753704775 
0.05493725272271002 
0.07188634801616903 
0.0184894164505753 
-0.002243166479643887 
0.03221273690809685 
0.08529415928079176 
0.01850181475259064 
0.09426958666317189 
0.02970975313947438 
-0.02515678826249986 
0.03459358568267264 
0.02743247260378433 
0.1268518047629901 
-0.005052385795366586 
-0.003926640503123323 
0.103310163986166 
-0.04544313248441983 
0.02102049105893761 
-0.0314992438394234 
0.05014133587433243 
-0.06447418565295739 
0.03231189242049854 
0.0004942721594395347 
0.02212373437573477 
0.01809344304758514 
0.1002050635742196 
0.04693648950972341 
0.0336786921775383 
0.04470974907926877 
0.09093889589031486 
-0.009709773268843256 
0.04876414842938864 
0.0397274129334471 
0.05792532941253529 
-0.01953662227526838 
-0.01841881355096053 
-0.009377460937210267 
0.04961519472108984 
-0.1057692407169712 
-0.006103715828143703 
-0.08471652085297776 
0.02828824622170708 
-0.1181281245738078 
0.02516022185923893 
-0.04385173703472588 
0.06874624694000302 
-0.02368480697428684 
0.0210173600842335 
-0.02469095357120898 
-0.009722380022284057 
-0.02889822755807828 
0.04169407808509362 
0.001535643114330579 
-0.03990555801647575 
0.05780713006924262 
-0.07665174610682583 
0.02143708018925804 
-0.06905470762846951 
0.01525358242170038 
-0.0006008709048713504 
0.05350853370151228 
0.005233410876895921 
0.05481857839216807 
-0.03333896538194722 
0.04632244721440376 
0.0192318448005642 
-0.02982137723256772 
-0.01628756415582783 
-0.03992397968103473 
-0.008585317863819315 
-0.1185761683736194 
-0.08128897051956017 
-0.074748483248316 
-0.02246850031470502 
-0.08086464168273633 
-0.002832535606296977 
-0.06537815065537261 
-0.08188287167878898 
-0.008709237325769562 
0.004183675490033146 
-0.07593990014752526 
0.0429888135544059 
-0.07375009023864404 
-0.01665834915175753 
0.03010850777777988 
-0.08681186409511235 
-0.04603610693324713 
-0.06368016813938285 
-0.04576834388110836 
-0.02263603421503596 
-0.02758243032106214 
0.02467004431889502 
-0.02349135922368278 
-0.02516799137710996 
-0.016425233330056 
-0.03501943693099237 
0.05208510062007315 
-0.0004812524407814136 
0.05673899553099249 
0.1090739482761378 
-0.02740155838015992 
0.04981376302273716 
0.05326399813822874 
0.06306316001522955 
-0.029511612186912 
0.02164601116471651 
0.01883197411572847 
0.08035235393913102 
-0.08389926951759888 
0.09797080562596661 
-0.07539303972392399 
0.0378837481357459 
0.01970216947807845 
0.03726753623393621 
-5.664318263762642e-05 
0.05399027428883415 
0.03662231588926538 
-0.01928465861980468 
0.05165699238059651 
0.03215764017977369 
0.1772209927085214 
0.07122143232033966 
0.1575545659075439 
0.02798793144004062 
0.1139435050093566 
0.04846816765487814 
0.1247096503962372 
0.04672601351859124 
0.07383440197083831 
-0.04400824901807949 
0.06646256414125987 
-0.02833797121078353 
0.09505103866541417 
-0.0416494099813892 
0.05355438383831445 
-0.046459861646049 
0.05111552842498361 
0.1122869357967044 
0.01637251539032387 
0.1059280687616992 
0.09442877513490609 
0.1232922993412193 
0.1421647987106101 
0.1469063095618973 
0.09456679304175847 
0.1957842693525463 
0.1074147018206974 
0.1125568222312649 
0.07498226210455158 
0.1006086467478263 
0.06164702514431486 
0.01122481943556113 
-0.0066888716141603 
0.1223846186023371 
0.06345813571591276 
0.08745744374117238 
0.0503574848282695 
0.03176274716092989 
-0.0157204634372414 
0.0802273997123835 
0.03314548119262912 
0.098094874311454 
-0.0325940287826765 
0.1511184115228729 
0.00263151504409402 
0.05113947855372652 
-0.01117032010557196 
0.05535785197501997 
0.07681166138816281 
-0.009785075437189679 
0.1215446799067117 
0.01795604469864821 
0.02451570244325262 
-0.06205210893550234 
0.0465627965813379 
-0.04181129018945334 
0.04533797409248042 
-0.05114997992284864 
-0.01161877836850408 
-0.08416427997120413 
0.0308842269095261 
-0.03510551147803317 
0.02770324324551858 
-0.05846685889115184 
0.005992313683197033 
0.0008920411023993454 
0.006617461050846785 
0.02496809096775392 
-0.07095918291468421 
0.06583629460428518 
-0.05358936497343559 
0.109458919170381 
-0.07114400018969029 
0.06812613359370892 
-0.03415225997651826 
-0.007612159699001517 
0.0928070643814778 
0.01580032552321266 
0.06638142930963736 
0.006618716194935426 
0.04201684660835352 
-0.05862724108715108 
0.05219851458609642 
-0.07146841810416663 
0.09731137062953749 
-0.09795811104365816 
-0.01529542003997414 
-0.0633459951125816 
-0.1186734970348816 
-0.009486584684307282 
-0.02136285876713056 
0.03668991048911548 
0.0001208487321867326 
0.1239742157461391 
0.007391766477065203 
0.1440455806448105 
-0.02378386301647403 
0.1119359423246657 
0.07960081244687531 
0.09184961424616202 
0.09128093190438474 
0.1365933661551867 
0.06565809778991274 
0.07501597669323112 
0.06444278968243425 
0.01912662459717947 
0.07386989581178875 
0.02729062825976758 
0.08242930075090317 
0.08540107444772625 
0.1525844798226992 
0.0933057036918644 
0.04427556097457146 
0.02480067834269247 
0.1023187614244321 
0.03222586133592958 
0.06640141465007818 
0.04495942699297863 
0.04904896001291601 
0.0001279089401308303 
0.1006854787805404 
-0.04257207755819732 
0.03423498915689412 
-0.03892354686481651 
0.1017027385001039 
-0.09067985945749266 
0.1210623897458944 
-0.07160568643104664 
0.1384907668762385 
-0.04890771406360528 
0.1613538734636948 
-0.005315996458542882 
0.04860770432383038 
-0.05697768138572114 
0.04504000782172989 
0.04213658355007748 
0.08348347468670206 
0.04856206710549495 
0.04982480384901287 
0.05653014673456223 
0.07492315386747338 
0.04134895615780742 
0.0663287585359542 
0.07042883394605076 
0.09591868396530318 
0.06534575291793307 
0.1100712302921834 
-0.02022819436151324 
0.08170622672191775 
-0.06791343930678319 
0.1258776526947407 
-0.07896825580710194 
0.1304279215379125 
-0.01662928287888113 
0.1356658672446707 
-0.06943653796479302 
0.1093066476723284 
-0.0817609882460484 
0.09505299411693485 
-0.04822592007081571 
-0.04905324265733425 
-0.05214201669635529 
0.0688985495518791 
-0.005335619309467498 
0.09375635196309041 
-0.06427287375711327 
0.07256620561962522 
-0.07770587647185113 
0.1243422967828694 
-0.02434444809711563 
0.09985336494271371 
-0.007268960280096591 
0.07068524179117136 
-0.0480755238291704 
0.07423416289765652 
-0.06082965657878803 
0.07821741914877774 
-0.08751001086722171 
0.01123998330122338 
-0.1522682844985813 
0.01469727458455314 
-0.08294314905294642 
0.01673615563079837 
-0.001528269305932834 
0.05286759853487789 
0.01671159936445392 
0.05046632056280365 
-0.08204238851241007 
0.001258815457483055 
0.01605923918160975 
0.08799304542744812 
0.09254405832785698 
0.01966853474992302 
0.05168002146928193 
0.04343061787667993 
0.06890489098665344 
-0.02591898311007256 
0.003269608798229521 
0.001064247563655511 
0.1099391360707911 
0.042057971917589 
-0.01854265879888065 
0.01980867400228187 
0.1087869583825042 
-0.04600347662795209 
0.1701813562599452 
-0.03770137932164631 
0.03148916916333108 
0.004243523475260065 
0.02091820470490956 
-0.02881622014871784 
-8.316708374322043e-05 
0.01301558508265632 
-0.03600556471068084 
0.06255056978263591 
0.02931166266564012 
0.04778544715189867 
0.03620434317027938 
0.05946868959466369 
-0.01256086988985477 
0.0655266794679437 
-0.04803231679990158 
0.1110171833743699 
-0.0145284671741742 
0.05821320758483068 
-0.007205876801369498 
0.01374362419168512 
-0.02411658250448468 
0.05749776540943187 
0.001500089241196868 
0.04150116543307219 
0.04123703591028956 
-0.01840435163027994 
-0.002966971081436017 
0.007104331360961353 
0.01763103407219956 
-0.01846315632603683 
0.07958769664777393 
-0.004091499907199686 
0.1111713298185867 
-0.01403219716544832 
0.0815735028390267 
0.04211880322753227 
0.07023082668502233 
-0.05588515075511778 
0.06634411584293179 
-0.0603749421987355 
0.06210875728883749 
0.02647923993673194 
0.03412192983563625 
-0.009675796878063973 
-0.04719085563671667 
-0.06473225230209584 
-0.06374804179196868 
0.001789068112238165 
-0.005641138377485901 
-0.04942551640572896 
0.01057328856251542 
-0.1182168701224636 
0.001220311879036288 
-0.05788629868658132 
0.02518332753878699 
0.01797431128922327 
0.0887185318933599 
0.03503475639223827 
0.01738793345326172 
-0.009280660840026555 
0.07838577945374216 
-0.002419628914367592 
0.05645956210960737 
-0.01184311069253891 
0.09410036441517927 
-0.0475881707155807 
0.05301661092509927 
-0.03692601381503357 
0.0864088951010885 
0.05875309570812989 
0.09440521243172023 
-0.01444396842978302 
0.1624205022667674 
0.001749576146577028 
0.1716709616674528 
0.005916600642979258 
0.1453275747220426 
-0.09684780678142024 
0.1428939651415979 
-0.1564229973761185 
0.1060450747683827 
-0.08996441189658078 
0.006537670077715171 
-0.07714341537800704 
0.08322776007033697 
-0.01063929220707438 
0.1126260236541986 
-0.007907050466941606 
0.08898826235872981 
0.0104680132649801 
0.05040110066570406 
0.01964627221839333 
0.003483426558205196 
0.05124130750345934 
0.02895284387015099 
0.04050895741260565 
0.008891497548084779 
0.05911969069795657 
0.02230229019454185 
0.05202293529972585 
0.03948324515481935 
0.0350277894158364 
0.02603001297278125 
0.07052085081267045 
0.0979180680789721 
0.05332948489449915 
0.07114647438847095 
0.1584790269839219 
0.03998172386203386 
0.05784020891687437 
0.1567419798024545 
0.1350061652847506 
0.09923027466837407 
0.07486865923644574 
0.1280162592362683 
0.04657748733620033 
0.1316994232433738 
0.1063484396711878 
0.1094359544103226 
0.1040565383588031 
0.05488946231327387 
0.07912771407986717 
0.05904126427922347 
0.1089184452669246 
0.09289144704747758 
0.08593096585484571 
0.08459494896741565 
0.0990156634995274 
0.002926280318587005 
-0.0829788126676862 
0.1100735197252301 
-0.07255330637632101 
0.02455744221713359 
0.06109155121446827 
-0.04606132451458968 
-0.003381076722050861 
0.02325799790051238 
-0.009928960521756968 
0.06702181049566908 
-0.06746996255718662 
0.04636152816683591 
0.02173268524445832 
0.006369497523738278 
0.08896146021089794 
-0.04086832933081329 
0.03545295056669995 
0.003058872600286098 
0.09921313428796004 
-0.06407876899379278 
0.06843337417609524 
0.02983622610213365 
0.1405795813186552 
0.03013465350390097 
0.07621818709362556 
0.0926487124314775 
-0.03971585035322579 
0.1117949651184515 
-0.01508575816713922 
0.09811608116152931 
0.07589985679204991 
0.08466860037546076 
0.08449409015797077 
0.05456923130992888 
0.1247802928456466 
0.01099384037571672 
0.0691618518851659 
0.1394391492503724 
0.07454403871722828 
0.1107538768684827 
0.05580306611001411 
0.02108090826276085 
0.06498743979779854 
0.1629622099399128 
0.1164235892017697 
0.1438902580852283 
0.005656978617681084 
0.182035414718948 
-0.007336240879328536 
0.2140119654836231 
0.1348071634408669 
0.1476532167448224 
0.1832806941289545 
0.1666863612640031 
0.1110782092739465 
0.145412356644644 
0.1336968187069248 
0.1775346672678497 
0.1568841583163858 
0.113087047650313 
0.1312486929405109 
0.08384910600274283 
0.1464613238628776 
0.1011903420208505 
0.07927041613908328 
0.1215991864860018 
0.1211260321310497 
0.07906017916179012 
0.03846740229534899 
0.09474489768397013 
0.01318089146677226 
0.131727342905879 
0.03338532592820102 
0.07297584254500819 
-0.003007247415573062 
0.03846505343338619 
0.001025046851824841 
0.05029014108133122 
-0.02939082116887322 
0.03904012661231417 
-0.1361816710986629 
0.02332428332920475 
-0.0642001888465175 
-0.06946941273585736 
-0.04027101601866586 
-0.05192865354665981 
0.01830257209541161 
0.0001058035689061523 
0.02946579659551885 
0.07179438809709671 
0.04468509247674055 
0.097076382600183 
0.08768444680755226 
0.06937859412309272 
0.04554593177513962 
0.04868567625913087 
0.09572942714372515 
0.0166943481189158 
0.06948310652567917 
0.06706857465567034 
-0.00268918956603891 
0.02319309178740933 
-0.01746298984157198 
0.02726658263393451 
-0.03877706790101688 
-0.0002986817187053047 
0.0603525240370591 
0.02367892521064051 
0.01242798696908027 
-0.03723965782252249 
0.02888138813005899 
0.005525790097462038 
0.003625924612967153 
-0.006674828535336272 
0.0592520468249099 
0.01116464487754044 
0.1077332694775394 
0.1069015870877924 
0.02435588879718466 
0.03375216204634381 
0.03767106838210926 
-0.004878172748732104 
0.1323251460016222 
0.09620662838410481 
0.1421017045387784 
0.09453717923400862 
0.07893957536697113 
0.05707412080837874 
0.09695227360868036 
0.06236076992591255 
0.1073457659231054 
0.05501108347388073 
0.1180474400009938 
0.07236923472766188 
0.09803167445470083 
0.03112916502408863 
0.06314419249994598 
0.0141851569332607 
0.09660635367586484 
0.04885105455548145 
0.152526249977916 
0.003524215789077163 
0.145405056174741 
-0.01185794562282773 
0.1203964034528576 
-0.08495392959495544 
0.09764064168470364 
-0.06356446156489799 
0.07695554670075266 
-0.02621932192087573 
0.07644213475184659 
0.03442756265824404 
0.1133741744462318 
0.02626372130535544 
0.1227479001004402 
0.03407733443227549 
0.06778535595049874 
0.04354471153221862 
0.1081955397662575 
-0.04245620831530239 
0.1263213247526145 
0.06682768611028431 
0.05526538286914198 
0.02141457001147517 
0.06019188839195984 
0.04467930438144631 
0.09852268673175769 
0.04634761236219362 
0.05971244902238825 
0.03077961233312907 
0.09221016381901556 
-0.03489783353675068 
0.01559867514043254 
0.04682147650155307 
0.02838097864327046 
0.06396857338866856 
0.07937273329759986 
0.1072989857971726 
0.07094480493374689 
0.08971113931729817 
0.05791106129782651 
0.08002955205290642 
0.06090858597784921 
0.05274177873764949 
0.1001184111487933 
0.1423765243852961 
0.1739359355145311 
0.00913142304164191 
0.1649277107741469 
0.01836025537966035 
0.1236004914529241 
-0.01266066118521594 
0.1335233002828563 
0.07016701295418326 
0.08738924653564861 
0.08271153620373944 
0.07493122827141153 
0.08840156884956944 
0.04454613213793995 
0.1018243997590968 
0.09985817986759472 
0.05482276544021388 
0.144671007278378 
0.02125730910654679 
0.1650085176556308 
0.05823617280055862 
0.07584134104533777 
0.01631870293325465 
0.1796879514890504 
-0.07327379861052791 
0.1169097046880744 
-0.006473585069881098 
0.1256710384384344 
0.00409991721350663 
0.1128151609514251 
-0.02252089152709403 
0.02470989731669563 
0.009552184428468731 
0.03941193366560921 
0.001963314295964578 
0.04912034507601206 
0.04412794539980624 
0.02122082353108825 
0.03605698411901145 
0.01751620889407547 
0.005922231635405813 
0.06316878566823719 
-0.05402505880698581 
0.06763285264209995 
-0.07620673536790255 
0.0006575954305331883 
-0.04449276739289019 
0.006872529499559019 
-0.05418674408649901 
0.03931290992554482 
-0.07343356858599509 
0.007452909283981192 
-0.05432456078075446 
0.03988201616420179 
-0.0331411057416011 
0.05168012071658075 
-0.007019338964540374 
0.1392904875535418 
0.03087135049940281 
0.1504599107196252 
0.009363139385614366 
0.09962549607395071 
0.004437048937237818 
0.03648387483718316 
-0.01501518315222251 
0.04228412885110571 
-0.02429791719989881 
0.0367456814180207 
-0.04524656476215554 
0.06738209236694088 
0.01452917375347353 
0.04563152558051461 
0.05438860313367933 
-0.05884095858452071 
0.0902871458696234 
-0.04995520032840535 
0.09011870918288827 
-0.0258373828457199 
0.04964237532886513 
0.02572026668378305 
0.05635263603006893 
0.02589735392234071 
0.1278570130957518 
-0.04016889255070998 
0.1598456600774687 
-0.0383880646115219 
0.1444242411754393 
-0.07432400399661662 
0.152569735121836 
-0.05679566838772559 
0.06503634319337662 
0.05685191833661493 
0.101538348136306 
0.06427234353884649 
0.06558429380988752 
-0.04295772746053377 
0.1055682023633478 
-0.04690090721673221 
0.107956004042554 
-0.01041893562863375 
0.1379894836797878 
-0.03207397634957034 
0.1120661992125794 
0.04934364205549772 
0.1404817971434091 
0.04312103049541 
0.09489267629829276 
0.06180811765214096 
0.07125557254260549 
0.1047425365030565 
0.07260376006170252 
0.09348579803861758 
0.02336341956722666 
0.09656031385995707 
0.02560068455137706 
0.1217136233771631 
0.005646856383599393 
0.09664497107129572 
0.07651874608423902 
0.1339703968438723 
0.0845830086501089 
0.1052257358974651 
