solver_type L2R_L2LOSS_SVR
nr_class 2
nr_feature 1984
bias -1
w
4.214922344594389e-08 
0.0001679442166484121 
0.0001907078891344663 
0.0001916970516615283 
0.0001906208593909609 
0.0001919528501057958 
0.000190568151208037 
0.0001917320800999837 
0.0001905436579311264 
0.0001911939282940549 
0.0001895196932708504 
0.0001908484553311374 
0.0001900920092680154 
0.0001912162204544775 
0.0001899902816940494 
0.0001917027385090665 
0.0001901434193693759 
0.0001920840145721637 
0.0001901010031195009 
0.0001909061508597935 
0.0001892953605862577 
0.0001915522887861319 
0.0001894850467263046 
0.0001907743464284055 
0.0001900845267853251 
0.000190748212000292 
0.0001899479418651159 
0.0001903900329853707 
0.0001897624404935862 
0.0001912937403679556 
0.0001906217529728644 
0.0001922420552766459 
0.0001905557371551816 
0.000191414515578392 
0.000191587546811386 
0.0001918151883461349 
0.0001913377612571322 
0.0001916752261075994 
0.0001909795654572383 
0.000191499454149385 
0.0001907819151794448 
0.0001918309797717185 
0.0001910737421325657 
0.0001916189814246125 
0.0001904227553478339 
0.0001912399994508814 
0.0001903072749192845 
0.0001919413449632541 
0.0001903779793013878 
0.0001911876808034713 
0.0001904253292815247 
0.0001907423747459502 
0.0001910173606482925 
0.0001902568327299073 
0.000190914798815251 
0.0001906566854814442 
0.0001906430669358572 
0.0001908843908792694 
0.0001905433758971812 
0.0001907182227757904 
0.0001906786686267172 
0.0001910116944638383 
0.000191371231519947 
0.0001912569848814175 
0.0001913333204009954 
0.0001906644626714948 
0.0001907721486389444 
0.0001915145204370424 
0.0001911650160111862 
0.0001923053544869048 
0.0001912032007610074 
0.0001926868994594998 
0.0001903488468229582 
0.0001910631892193408 
0.0001907544414887721 
0.0001917084901939236 
0.0001910641966322767 
0.0001910076496621464 
0.0001907596033233594 
0.0001917802023479825 
0.0001908577796003495 
0.00019105527582859 
0.000190248594268531 
0.0001908839994148298 
0.0001903476227385031 
0.0001913105302110851 
0.0001906789894873818 
0.0001919991673859202 
0.0001911391729816798 
0.000190630449100384 
0.0001907944773992447 
0.000190776392295506 
0.0001908811067580485 
0.0001906155483527888 
0.0001895820366981447 
0.0001921883097650762 
0.0001895725362839336 
0.0001923192488231574 
0.000190177628975251 
0.0001920101141746271 
0.0001910605405126168 
0.0001918339103663962 
0.0001912495202783488 
0.0001915533013172238 
0.0001912383748769866 
0.0001911018619642094 
0.0001906656593144154 
0.0001917600127259723 
0.0001905453295788708 
0.0001918170127794435 
0.000189818204641175 
0.0001921645852233254 
0.0001907399279767305 
0.0001914327617599367 
0.0001900351047164404 
0.0001917362243737141 
0.000190647281117414 
0.0001914543578271606 
0.000190154904005304 
0.0001914190768086926 
0.0001901712416253851 
0.0001911981665403696 
0.0001897843784622512 
0.0001914658296191611 
0.0001893208996094426 
0.0001912585401206128 
0.000190189370624025 
0.0001914225853256084 
0.0001906973044359772 
0.0001906855293217955 
0.0001904327166559975 
0.0001904699320202302 
0.0001905641379105828 
0.0001904018713308012 
0.0001898099388898283 
0.0001903789694640812 
0.0001891936990372971 
0.0001905492614754652 
0.0001893598288948507 
0.0001908566182197176 
0.0001900283705336751 
0.0001911334614793824 
0.0001895411355434745 
0.0001914140175846516 
0.0001905766957880052 
0.0001908352809068429 
0.0001902837998659882 
0.0001916912510507238 
0.0001910631632637991 
0.0001916350696015455 
0.0001915545560238178 
0.0001921444081239151 
0.0001911721642372421 
0.0001922111429920752 
0.0001912816225095226 
0.0001922304098547971 
0.0001909147944465 
0.0001918466379082477 
0.0001906903691946856 
0.0001909510375869928 
0.000190805972440223 
0.0001911779271421461 
0.0001899385899211076 
0.0001910273896822426 
0.0001896727937636427 
0.0001912621577555372 
0.0001896972458624244 
0.0001898716460166154 
0.0001906107554422947 
0.0001910626902101836 
0.0001901031056891265 
0.0001901879138676828 
0.0001911107840613708 
0.0001904850065466841 
0.0001907356075436503 
0.0001914022616639804 
0.0001902229936281741 
0.0001909267530908792 
0.0001893197102551536 
0.0001908196391427584 
0.0001900540515725438 
0.0001912941637941628 
0.0001900383071597612 
0.000190379615542433 
0.0001899712505098263 
0.0001900392063068119 
0.000189433745336362 
0.0001896457069749145 
0.0001901405661135455 
0.0001908330496429553 
0.0001902690956734001 
0.000190179997476116 
0.0001905528116787924 
0.000190784518162742 
0.0001908269499515921 
0.0001906338887778681 
0.0001914053312883376 
0.0001901775833582759 
0.0001912498861934428 
0.0001899562083749183 
0.000190676984848111 
0.0001896686687250592 
0.0001913986597760145 
0.0001903426457027257 
0.0001905703567174752 
0.0001903687860250664 
0.0001908401041193361 
0.0001892020622531353 
0.0001905385786364962 
0.0001897654159097685 
0.0001907046965255057 
0.0001891784840634931 
0.0001908399254704716 
0.0001893564906774759 
0.0001904288484110823 
0.0001903864076590255 
0.0001912551175648 
0.000189728553349563 
0.0001905932361496182 
0.0001903499973020215 
0.0001905874931806673 
0.0001897369946829638 
0.0001903221091157422 
0.0001905476459290291 
0.0001902625316124815 
0.000190896495378366 
0.0001896146882470695 
0.0001899892425326263 
0.0001895908364228732 
0.000190935215236825 
0.0001895880679243172 
0.0001899272547254164 
0.0001895178633662356 
0.0001907297138477342 
0.0001895693838777347 
0.0001909086708655913 
0.0001895569186412112 
0.0001912704604535382 
0.0001895233939347748 
0.0001910769208381763 
0.0001889776773191697 
0.0001906662392210307 
0.0001903428115594027 
0.0001904567011383051 
0.0001909727390728204 
0.000190694530795731 
0.0001904959257729622 
0.0001909513959185764 
0.0001910819305182842 
0.0001909940804416614 
0.0001907818547278372 
0.0001911274262032742 
0.0001919523962916438 
0.0001910441651444821 
0.0001921545524336621 
0.0001911086003276016 
0.0001924500135962633 
0.0001907061665544964 
0.0001923797926286378 
0.000190349882375173 
0.0001912643098254518 
0.0001910458384007641 
0.0001922424952655068 
0.0001904491736184619 
0.0001914057044687896 
0.0001905407473694712 
0.0001913108603853097 
0.0001900204621350638 
0.0001908805424946922 
0.0001900649033408134 
0.0001903546193876595 
0.0001899520169213371 
0.000190747189388093 
0.0001901976627644845 
0.0001908429658414898 
0.0001906869803095857 
0.0001901009547142157 
0.0001911110612586202 
0.0001900982542158448 
0.0001905525934258624 
0.0001901408352633849 
0.0001902119935974444 
0.0001909584618812575 
0.0001902022300830571 
0.0001912767728778709 
0.0001913316986920489 
0.0001905708134029336 
0.0001907339978662057 
0.0001907326973974847 
0.0001904671945370895 
0.0001907177903170653 
0.0001906873980300023 
0.0001902095715530741 
0.0001904437445941607 
0.0001908967214085496 
0.0001901231393620023 
0.0001909310179754884 
0.0001904432002118454 
0.0001904255995805996 
0.0001900628557944555 
0.0001906507851982207 
0.0001902608195932788 
0.0001907103779780291 
0.0001898340533414842 
0.0001907614265803213 
0.0001896104668961468 
0.0001902988803200911 
0.0001894920268751874 
0.0001905165614472356 
0.0001898672868730668 
0.0001909511305650865 
0.0001899742451546648 
0.0001906792741579502 
0.0001898127080875354 
0.0001904808469608981 
0.0001894335645789992 
0.0001905625930215575 
0.0001898120795134325 
0.0001908156419318485 
0.0001895481323256672 
0.0001909401258906862 
0.000189891650571574 
0.0001904101019442811 
0.000190015308591836 
0.0001908326712112589 
0.0001900339454136816 
0.0001913782076491789 
0.0001898458256446573 
0.0001907667704620316 
0.0001899520998519745 
0.0001912805461600381 
0.0001900708457867666 
0.0001906350646057946 
0.0001898795133622034 
0.0001903716471875669 
0.0001904373439693545 
0.00018981727406874 
0.0001906009866404481 
0.0001901601712155858 
0.0001903346730995564 
0.0001907403855920527 
0.0001900392629213574 
0.0001908210479178727 
0.0001897816527141762 
0.0001911099119505836 
0.0001897303090174619 
0.0001907533500589607 
0.0001891282512742295 
0.0001908434443559222 
0.0001899250365136916 
0.0001901672476326551 
0.0001898328075074272 
0.0001907174530349693 
0.0001890295708161399 
0.0001903681647440207 
0.0001882710666199991 
0.0001907411750708489 
0.0001890563774096782 
0.0001902528563969351 
0.0001901690491976376 
0.000191162364264005 
0.0001898295634403965 
0.0001915400980697051 
0.0001902972773742902 
0.0001912470901729293 
0.000189887152684744 
0.0001912148845691864 
0.0001899883846542357 
0.0001915577935917215 
0.0001895509772243919 
0.000191919430770954 
0.0001893986591677216 
0.0001920472889950433 
0.0001892578462958248 
0.0001919741653342187 
0.0001892302357243577 
0.0001905819776371152 
0.0001903139269544821 
0.0001909001618345024 
0.0001895139701240893 
0.0001903945464377325 
0.000190206437762432 
0.0001913937577798691 
0.0001896118078210645 
0.0001909970727363945 
0.0001896657874560607 
0.0001919449107382691 
0.0001887397288033065 
0.0001914633776973449 
0.0001886665248027421 
0.0001909792787068359 
0.0001891859560270782 
0.0001913754294624199 
0.0001900183566066714 
0.0001912613936651318 
0.0001892618986136295 
0.0001909251263709791 
0.0001895509684883638 
0.0001905374861935511 
0.0001895773836511386 
0.0001904198431239089 
0.0001897272810027793 
0.0001903300127275998 
0.0001887089761187899 
0.0001907478563467326 
0.0001890991625802824 
0.0001909149131284979 
0.0001885153781180256 
0.0001908444709428577 
0.0001891254134476338 
0.0001901894195093823 
0.0001901469105192295 
0.000189959743848154 
0.0001906524880976586 
0.0001904853592157552 
0.0001904166019069768 
0.0001903970823932294 
0.0001907377925984516 
0.000190520803236283 
0.0001905414634733038 
0.0001904691259421008 
0.0001909605394562941 
0.0001902320483939098 
0.0001902509792076945 
0.0001904672986702604 
0.0001902392190666789 
0.0001905266250182771 
0.0001899612663958697 
0.0001906295220669789 
0.0001898328099955015 
0.0001907186143714639 
0.0001897608413639353 
0.0001905863316702239 
0.0001897538529155202 
0.0001903478893813745 
0.0001897304804707199 
0.0001898877050147693 
0.0001884939235232929 
0.0001914555123665075 
0.0001887882090068822 
0.0001907056933003726 
0.0001893670172265625 
0.0001908025158010321 
0.0001898722810672663 
0.0001912499122378521 
0.0001899360423509952 
0.0001908382682180881 
0.000189870751747801 
0.0001914130307432992 
0.0001891990585670205 
0.0001907944498364516 
0.0001898380073845972 
0.0001917153050613671 
0.0001899621528278948 
0.0001923905860056839 
0.0001895161942262928 
0.0001916323041582976 
0.0001901600488713719 
0.0001913044341414227 
0.0001891027062939444 
0.0001911224349479885 
0.0001898730247408277 
0.0001909336599725223 
0.0001905116860854984 
0.0001905080378737053 
0.0001898968266915379 
0.0001909351899457514 
0.0001899183116919392 
0.0001902595127066219 
0.0001896503278900569 
0.0001902836462144585 
0.0001897136889489491 
0.0001903375277024917 
0.000189415077353968 
0.0001912572767133456 
0.0001902884712620395 
0.0001906713488187194 
0.0001907706831337325 
0.0001903773089351189 
0.0001900581515589704 
0.000190723758075406 
0.0001897043186797222 
0.00019141493286906 
0.0001902005357513667 
0.0001912969032868347 
0.0001899878731271093 
0.0001911166669558558 
0.000190104971874724 
0.0001912535789713696 
0.0001902179755334147 
0.0001916630524063867 
0.0001905366070154363 
0.0001911938359588819 
0.0001901485060152097 
0.0001915367586206008 
0.0001899548886141058 
0.0001913415238792617 
0.0001903190343316223 
0.0001907452806819278 
0.0001904742931782514 
0.0001904659266985024 
0.0001911337126348468 
0.000190730082118646 
0.0001911775614176858 
0.000191021884844443 
0.0001909372942228945 
0.0001911717108547533 
0.0001907923211849398 
0.0001911245094679506 
0.0001902401421875598 
0.0001910274679164982 
0.00019086827979387 
0.0001909545913892682 
0.0001914403927334656 
0.0001915888415138294 
0.0001907239474562344 
0.000191189890709783 
0.0001909512419522695 
0.0001915810936413197 
0.0001910363023334347 
0.0001908558070817853 
0.0001905738561376359 
0.0001912629021623321 
0.0001902905446944348 
0.0001909985287471397 
0.0001913114483913785 
0.0001915579081256988 
0.0001912045540024077 
0.0001916791633678606 
0.0001908582274966924 
0.0001907324910804735 
0.0001921199276548662 
0.0001912588146918434 
0.0001905248542299376 
0.0001914215339006385 
0.0001899447276449021 
0.0001905601238153528 
0.0001897057733539792 
0.0001902868406855434 
0.0001904422287907373 
0.0001907015761650452 
0.0001902537720784052 
0.0001902837030889382 
0.0001912376951306295 
0.0001901883068602761 
0.000191869395736622 
0.0001906864026750883 
0.0001916732914940349 
0.0001901999061590801 
0.0001911472027613475 
0.0001900324494583676 
0.000191617420756426 
0.000190391225522202 
0.0001914746659838905 
0.0001898794535886024 
0.0001914595261121444 
0.000190234699346284 
0.0001907405954664778 
0.0001903316946064169 
0.0001907883123923938 
0.0001897103769469122 
0.0001908878711351613 
0.0001897953391291783 
0.0001909500474435142 
0.0001896451468187072 
0.0001909956951714352 
0.000188721450126814 
0.0001907604427734074 
0.0001893837814327865 
0.0001901414896300543 
0.0001898934339027698 
0.0001905114247982284 
0.0001898150315122428 
0.0001903222753524212 
0.000189717330912698 
0.0001903333916742404 
0.0001898376787958284 
0.000189163947737453 
0.0001900886072213838 
0.0001892976991357269 
0.0001906723189612121 
0.0001896202160367984 
0.0001902808086041945 
0.0001894225685786274 
0.0001908993192618717 
0.0001893323136310851 
0.0001897447657561177 
0.0001896951673233618 
0.000189542971089056 
0.0001896129884944138 
0.0001897978724228577 
0.0001898684008274047 
0.000191122503017842 
0.0001901018373291871 
0.0001906346375653094 
0.0001903309107227311 
0.0001912225784289926 
0.0001909251872844729 
0.0001911909664976387 
0.0001905345612542789 
0.0001906744084878869 
0.0001904066159410092 
0.0001909055486351135 
0.0001902018490058656 
0.0001914360326441488 
0.000189744253645131 
0.0001910304084486162 
0.0001896091741236745 
0.0001920491786352267 
0.0001891147574665122 
0.0001920408148264791 
0.0001902610798892251 
0.0001916076268384831 
0.0001898915198767616 
0.0001920511744727814 
0.0001894429949134846 
0.0001926071283196006 
0.0001897781096695423 
0.0001917824467854126 
0.0001892595815637744 
0.0001914065115932248 
0.0001896820043831203 
0.0001908351606753776 
0.000190703721482999 
0.0001914348349859428 
0.0001909708657328089 
0.0001921535814508113 
0.0001907163937000093 
0.000190597126409323 
0.0001906719751629998 
0.000191003806422438 
0.0001906647474758076 
0.0001910049022986801 
0.0001912204120662553 
0.000190940234259851 
0.0001910778042384914 
0.0001908808194849199 
0.0001907826915561104 
0.000190734182888957 
0.0001905979282073431 
0.0001920244442566492 
0.0001907969290511398 
0.0001914084188534918 
0.0001905176798941614 
0.000192462763384395 
0.0001895744134811234 
0.0001927126049195051 
0.0001896038930271447 
0.0001922458031856178 
0.0001902287310664818 
0.0001920918126485269 
0.0001894020090918754 
0.0001920554550296889 
0.0001898203367048583 
0.0001917852036956588 
0.0001889240672225342 
0.0001920342094424433 
0.000188560953467275 
0.0001923196236144971 
0.0001884361043617521 
0.0001922536281317733 
0.0001887516196950026 
0.0001917573872851711 
0.0001889033169873794 
0.0001916327408883033 
0.000189790483241724 
0.0001917592065390025 
0.0001893167417202066 
0.0001916111835765723 
0.0001903365906552436 
0.0001916951603854095 
0.0001897643781407571 
0.0001919482170696822 
0.0001901509670197863 
0.0001920584829466101 
0.0001905868563896123 
0.0001914368693877848 
0.0001913777207560334 
0.000191716579728318 
0.0001900553563420533 
0.0001917831802047027 
0.0001899242922854797 
0.0001919541756586405 
0.0001900266982240968 
0.0001916534060452605 
0.0001898473642580176 
0.0001918669089901465 
0.0001892658206202618 
0.0001920222971260151 
0.0001899966963308675 
0.0001905741085716563 
0.0001894753980120452 
0.0001915713630971793 
0.0001894021673032745 
0.0001913788922222053 
0.0001894703956688782 
0.0001911853970893409 
0.0001898895847887623 
0.0001919784549487734 
0.0001898629832978376 
0.0001922045857011324 
0.0001889092155641023 
0.0001915164964424236 
0.0001907955034015487 
0.0001916797413696328 
0.0001909495155440745 
0.000191825183764704 
0.0001913248496974001 
0.0001919192586390056 
0.0001914329161723499 
0.0001921026289008085 
0.0001903266410616563 
0.0001919627474577733 
0.0001905001501943797 
0.0001924028413832434 
0.0001894149686926552 
0.0001926061354148624 
0.0001906551408296099 
0.0001913091332203839 
0.0001905685591373253 
0.0001923417967143206 
0.000189905838458836 
0.0001919011818235499 
0.0001898585982407676 
0.0001918751304566813 
0.0001899937139606539 
0.0001918881875729162 
0.0001906362246598305 
0.0001912132587253603 
0.0001900900470410226 
0.0001912189325908962 
0.0001896478883685793 
0.0001914776902073982 
0.0001893289936410166 
0.0001917186397907175 
0.000189784499646598 
0.0001908500264474724 
0.0001892989395151656 
0.0001909879518256364 
0.0001891042888037014 
0.0001908869147888022 
0.0001896792996382282 
0.0001910070558463823 
0.0001895523067956933 
0.000190973012663658 
0.0001895161376884343 
0.000190826138282488 
0.0001895584101938906 
0.0001910122137876671 
0.0001893672805751119 
0.0001905618125547154 
0.0001898699544462013 
0.0001910778425320593 
0.0001893384323879287 
0.0001910134039685803 
0.000188390236414754 
0.0001909365364457465 
0.0001888088156492218 
0.0001913654255806258 
0.0001893682982663422 
0.0001909897959538373 
0.0001887148603599048 
0.000190321648499408 
0.0001887072071766738 
0.0001905183155357072 
0.0001892405084672329 
0.0001905996689107964 
0.0001895256175183127 
0.0001899348342053717 
0.0001891239742619854 
0.0001902826838290958 
0.0001895644782975863 
0.0001908802334439405 
0.0001897249627755092 
0.0001906272465291853 
0.0001888445103471427 
0.0001911715042730287 
0.000189365954156473 
0.0001905489373975114 
0.000189150999284666 
0.0001912788527748668 
0.0001886989539545146 
0.0001912255835857602 
0.0001889198430710281 
0.0001906523408735522 
0.0001891917760421847 
0.0001900453638021127 
0.000188713086084033 
0.0001905123850874895 
0.0001891868573655468 
0.0001909044667440583 
0.0001891381902091153 
0.0001905357933874046 
0.0001891353068398551 
0.0001907370592010141 
0.0001882793084174154 
0.0001912178911858761 
0.0001883088547038487 
0.0001912247762505709 
0.0001880288431074484 
0.0001902065252524526 
0.00018812184591912 
0.0001899256704549183 
0.0001887831220131226 
0.0001899520416939358 
0.0001897003562315622 
0.0001907718199743933 
0.0001888813600973805 
0.0001903276263638374 
0.0001896145075120244 
0.0001905976271529836 
0.0001888394032935391 
0.0001914041044337843 
0.0001890087280356579 
0.0001903096197706686 
0.0001901402379318877 
0.000190337628612261 
0.0001902163456332375 
0.0001902420910976243 
0.0001906720220628628 
0.0001905991451176305 
0.0001900678863009516 
0.0001912462665995158 
0.0001898304748989595 
0.0001908847485427092 
0.0001900703247556871 
0.0001905809721487392 
0.000189530182691536 
0.0001905306097355196 
0.0001894210424759644 
0.0001916179112682756 
0.0001904799436207242 
0.0001905989026733869 
0.0001893190408100486 
0.0001898286367297523 
0.0001894086565086124 
0.000189802724130708 
0.0001892549812096936 
0.0001901818461389303 
0.000188957502034255 
0.0001899672113674533 
0.0001898702710927814 
0.0001895748954525371 
0.0001899261065185285 
0.0001896392052352265 
0.0001895844126578052 
0.0001898622579883729 
0.000190462750670165 
0.0001888203891951218 
0.0001895090826013199 
0.000189093050648195 
0.0001898893057651435 
0.0001901630487336447 
0.0001893193328110626 
0.0001898699077787294 
0.0001895856498539299 
0.0001904617951855872 
0.0001899532388433523 
0.0001901219723897044 
0.0001905773828757974 
0.0001899019767785232 
0.0001924864341524802 
0.0001900850762262354 
0.00019248320998534 
0.0001901659852712 
0.0001919854548681802 
0.0001905226410411724 
0.0001911746255272718 
0.0001906280060236801 
0.000191348236061023 
0.0001914674651877878 
0.0001906886272210329 
0.0001909648984347268 
0.0001906815199572415 
0.0001905727940470592 
0.0001907096387063824 
0.0001907570375690962 
0.0001902729214973916 
0.0001906118908709285 
0.0001900658033549538 
0.0001903124451450562 
0.0001905401498036279 
0.0001898334658267239 
0.0001909791195757029 
0.000190199687279531 
0.0001900796468118334 
0.0001895279258405294 
0.0001899541777299069 
0.0001889969802254906 
0.0001909686715493541 
0.0001892734241555188 
0.0001911445470370548 
0.0001891496008155439 
0.0001905605483183096 
0.0001898280512350685 
0.0001906683729807849 
0.0001901526266015989 
0.0001913151277030694 
0.0001901236769632715 
0.0001910498670548017 
0.0001902730286480167 
0.0001912700225072873 
0.0001902346717677525 
0.0001909286295793494 
0.0001899844946657821 
0.0001912746968976935 
0.0001896337535957327 
0.0001903958894326214 
0.000189736553473878 
0.0001909173779781534 
0.0001897907674333747 
0.0001912482520139429 
0.0001894030030548664 
0.0001908476063239689 
0.0001884666144856565 
0.000190162284819376 
0.0001892777029495386 
0.0001902360297728508 
0.0001890658299092904 
0.000189540143522815 
0.000189695021271849 
0.0001897418008392139 
0.0001900534035128038 
0.0001900701456833704 
0.0001895851993361122 
0.0001899697648270756 
0.0001903148603014633 
0.0001904093087764507 
0.0001901302057359853 
0.0001904360305070346 
0.0001912315465133847 
0.0001907521038253944 
0.0001909531786077834 
0.000189799614866139 
0.0001916897260523523 
0.0001907154442510571 
0.0001907903606180569 
0.0001908308399000117 
0.0001908760659443907 
0.0001911242153076524 
0.0001904771891865806 
0.0001913089098396091 
0.0001901694655588296 
0.0001911042652895748 
0.0001909292693935677 
0.0001911090301015142 
0.0001897877954039203 
0.000191484976748987 
0.0001909885050909283 
0.0001920371328625005 
0.0001897885853434946 
0.0001921882403327694 
0.0001904192345311094 
0.0001909912590648137 
0.0001911468545342028 
0.0001907937134538315 
0.0001905854793581713 
0.0001913950515727299 
0.0001906484891496256 
0.0001905020527220539 
0.0001910568595559389 
0.000190877268622377 
0.0001910545434598475 
0.0001906663778540829 
0.0001907449820105993 
0.0001910485340330145 
0.0001903717582817466 
0.0001915499399850038 
0.0001901483534648262 
0.0001923979532519637 
0.0001892998983935186 
0.0001922978535618132 
0.0001894269727381907 
0.0001909404170534354 
0.0001904614152231516 
0.0001913162395311577 
0.0001901151327427964 
0.0001911598714830421 
0.0001901164716657821 
0.000191240031849441 
0.0001893515235719314 
0.000191099009728552 
0.000189927000941203 
0.0001912715167770358 
0.0001891285682599626 
0.0001900514738794553 
0.0001897689564189083 
0.0001901839572484652 
0.0001897376713027592 
0.0001899222235845873 
0.0001895722610080626 
0.0001893082341362413 
0.0001904498581524319 
0.0001895066541017102 
0.0001900731718590458 
0.0001909279482342493 
0.0001903753538582062 
0.0001904673363066715 
0.0001904221002908411 
0.0001912715476679874 
0.0001904957506465528 
0.0001909052510085599 
0.0001906434619354538 
0.0001903828912101337 
0.0001906814642897439 
0.0001907196398522143 
0.0001903431921921383 
0.0001900647561590973 
0.0001908626718059661 
0.0001901945465062524 
0.0001912020839734739 
0.0001912815654350649 
0.0001907297329466111 
0.0001898866941350697 
0.0001910752347324175 
0.0001905036282021361 
0.0001904601358695706 
0.000190904961121108 
0.0001912836146594596 
0.0001906433653798487 
0.0001915749781977194 
0.0001904366162644558 
0.0001908440669728348 
0.0001903973052882765 
0.0001900274735456181 
0.0001914288870594554 
0.0001900364551261867 
0.000191268669343742 
0.0001901840602376879 
0.0001909111121581275 
0.0001898298460596738 
0.0001900479841184958 
0.0001906393756765994 
0.0001896707371886791 
0.0001905325247466356 
0.0001899772560480362 
0.0001909677240392858 
0.0001903702473374622 
0.000190503327912508 
0.0001902040899102001 
0.0001910552285749158 
0.0001904404510735289 
0.0001907779004753719 
0.0001908780877333576 
0.0001907591630504589 
0.0001903911834871158 
0.0001909037000847705 
0.000190415917681121 
0.0001916800327630665 
0.0001897663136397826 
0.0001920194475433423 
0.0001900003566528202 
0.0001922056245571993 
0.0001895519183563924 
0.0001913771961127352 
0.0001892694586108114 
0.0001907172866779012 
0.000189826413411845 
0.000191565316836356 
0.0001908034038628615 
0.0001909746329927154 
0.0001904377864634243 
0.0001910584073295708 
0.0001900843918219222 
0.0001903423961971129 
0.00019023091736921 
0.0001902131588572995 
0.00019014457410422 
0.0001903604759329754 
0.0001899625767161931 
0.0001894289659696739 
0.0001896840515802766 
0.0001895561917544374 
0.0001896162251241893 
0.00019018975166801 
0.0001898285335831259 
0.0001896495316953445 
0.0001908541582594591 
0.0001895058086647341 
0.0001896034341876203 
0.0001896219088103183 
0.0001905747237519921 
0.0001900931923271543 
0.0001899100952714142 
0.0001897210389735671 
0.0001905223810644901 
0.0001896808971096314 
0.000189679094924881 
0.0001903429950115415 
0.0001895896303163465 
0.0001907245723813336 
0.0001891737137132327 
0.000190818841440711 
0.0001880838011864975 
0.0001911659370342981 
0.0001893272880462469 
0.0001905792341318348 
0.0001895266280110218 
0.0001905576541022921 
0.0001891856017141474 
0.000190717293099126 
0.000189377432266486 
0.0001901716240896486 
0.0001896843791556333 
0.0001898794910521137 
0.0001896041890592764 
0.0001899815118655361 
0.0001896745184520053 
0.0001913885720571441 
0.0001893058953551025 
0.0001902332695209705 
0.0001888559975050294 
0.0001905407205749406 
0.0001894655798693312 
0.0001903708350658362 
0.0001895166518058118 
0.0001905699256128447 
0.0001897307105202935 
0.0001909523966406879 
0.0001898878979766311 
0.0001911158022622759 
0.0001900749030932722 
0.0001916536261029352 
0.0001901649599105553 
0.0001917968294967271 
0.0001897160832172017 
0.0001918624235597605 
0.0001899093464873069 
0.0001923047448758018 
0.0001898385501192835 
0.0001910831758767323 
0.0001898757776496368 
0.0001909292890649768 
0.000189878300526942 
0.0001900698416564617 
0.0001895424068478258 
0.0001902004826848088 
0.0001897825044067006 
0.0001901576007491847 
0.0001895757050863057 
0.0001900428353405144 
0.0001897040880762858 
0.0001900629062580605 
0.0001899409512833438 
0.0001900754718258033 
0.0001901133705539175 
0.0001905603161735422 
0.0001893367418299808 
0.0001915334527847258 
0.0001900476927665979 
0.0001905476961404296 
0.0001899394164961995 
0.000190866438016472 
0.0001901418209439825 
0.0001912966166900256 
0.0001898832835923457 
0.0001915213469942285 
0.0001906605591748344 
0.0001921219489375101 
0.0001909411399078887 
0.0001921044359811349 
0.0001916323968165836 
0.0001923596532846675 
0.0001914272888311971 
0.0001920278332721161 
0.0001907742444839992 
0.0001921341265468034 
0.000191618415972803 
0.0001911382012219269 
0.0001914389802304444 
0.0001916021648149799 
0.0001915326891279667 
0.0001914571477632257 
0.0001912208658042682 
0.000191916280679601 
0.0001916385368207212 
0.0001919289510062512 
0.0001914976756497029 
0.0001921582323508912 
0.0001923639411295087 
0.0001915171680114491 
0.0001922256034740371 
0.0001916497622709691 
0.0001922266432771287 
0.0001909713928976675 
0.0001917563930418601 
0.0001905213099851915 
0.0001912628626025779 
0.0001904195699818506 
0.0001916986891223828 
0.0001911222437428099 
0.0001911630216997718 
0.0001911620931112742 
0.0001905255594203564 
0.0001908512214777213 
0.0001905668076581626 
0.0001912810900378383 
0.00019000639237771 
0.000190212499381067 
0.0001901869516498831 
0.000191130677541463 
0.0001900169799265485 
0.0001908248034191268 
0.0001898942571933914 
0.0001903387893352906 
0.0001887262991531987 
0.0001898659835277837 
0.0001897654046291672 
0.0001894592842488485 
0.0001892247702265837 
0.0001898560900581173 
0.0001893564058124019 
0.0001895655484477366 
0.0001892764504594444 
0.000189340858300784 
0.0001907738488411914 
0.0001896173314551126 
0.0001906256759059882 
0.0001894260832383139 
0.0001903060497691719 
0.0001895635235683298 
0.0001914702584625538 
0.0001910288227794892 
0.0001904634589149959 
0.0001907977999297614 
0.0001908415700856431 
0.000191974269518864 
0.0001909027689243276 
0.000191478968821564 
0.0001907791749743811 
0.0001910987327587206 
0.0001908266320608925 
0.0001910258993258053 
0.0001906722548549517 
0.0001906412771123154 
0.0001902740230891547 
0.000191067070794998 
0.0001903083808956665 
0.0001907471217318018 
0.0001901416532227921 
0.000190706228396999 
0.0001903008215875016 
0.0001901130656614103 
0.0001892309560889905 
0.0001906081651814132 
0.0001894255732332644 
0.0001908777959310549 
0.0001901061755050581 
0.000190139675344677 
0.0001894729399594671 
0.0001903070457943544 
0.0001907567751228717 
0.0001903187486208346 
0.0001905718054898685 
0.0001910531291536996 
0.0001899271709574061 
0.000190735675375661 
0.0001904811093501707 
0.0001909692377681657 
0.0001906750257309849 
0.0001899888914447493 
0.000190608461050382 
0.0001912337210648287 
0.0001902571560056175 
0.0001906935639666598 
0.0001909427855820354 
0.0001912121279523535 
0.0001902197896720015 
0.0001916035736977815 
0.0001903477646049621 
0.0001911557549857196 
0.0001907069211659786 
0.0001911515199490566 
0.0001903139674108817 
0.0001911988976864083 
0.000190852950276299 
0.0001905928614699687 
0.0001907151174120567 
0.0001908158503739192 
0.0001904765953771508 
0.000190775201612124 
0.0001905301497038879 
0.0001907788654077664 
0.0001904352362085643 
0.0001895710332485252 
0.0001904036746003134 
0.0001911040273276267 
0.000190336836735339 
0.0001904664887724178 
0.0001902464894980873 
0.0001901283652322369 
0.0001904304792221624 
0.0001893054346122114 
0.0001908153985281906 
0.0001888763378487977 
0.0001904581446895857 
0.000189306449298453 
0.0001904877815373407 
0.0001896502418846282 
0.0001901367179714094 
0.0001886888499279764 
0.000189734858782708 
0.0001894841927176203 
0.0001896620496547132 
0.000189477591366453 
0.0001901815804450157 
0.0001898198416863248 
0.0001898908155884987 
0.0001897392061985684 
0.0001903992671844895 
0.0001896057104326112 
0.0001900020979049051 
0.0001902366030824925 
0.0001899241321846637 
0.0001902443103143057 
0.0001897492635527889 
0.0001891192236703721 
0.000190389399817343 
0.0001894830774739089 
0.0001897883221869747 
0.0001900338279212243 
0.0001889120492828364 
0.0001900349595278078 
0.0001894198052162886 
0.0001894671759343943 
0.0001894503550669422 
0.0001895094624659562 
0.0001895061631695207 
0.0001897787585115711 
0.0001894295405156394 
0.000189539368410393 
0.0001894993670142358 
0.0001885717051321075 
0.0001899474611288061 
0.000189346486842998 
0.0001891519664087547 
0.0001888635990457452 
0.0001899979368030779 
0.000188396605785081 
0.0001907952690860926 
0.0001888488115930529 
0.0001907785234190303 
0.0001897046506851784 
0.000191130687265703 
0.0001894493792464796 
0.0001907517143543373 
0.0001899425649545176 
0.000190978094884533 
0.0001893918094341543 
0.0001914421691267596 
0.0001889699494535634 
0.0001908154902217731 
0.0001889627569301088 
0.0001908241622375043 
0.0001889254315418461 
0.0001911303790426378 
0.0001887216676447342 
0.0001908362309057784 
0.000189749776984832 
0.0001902971359285963 
0.0001896254271451211 
0.0001906675545590413 
0.0001895853176097839 
0.0001909144114336457 
0.0001895591320727776 
0.0001911408530251657 
0.0001899386164920384 
0.0001907950654681896 
0.0001902225647680878 
0.0001913153585701299 
0.0001896127142854694 
0.0001907748717491078 
0.0001890183975964843 
0.0001906627754445194 
0.0001892008916273911 
0.0001911416939705633 
0.0001904288819774933 
0.0001908942318888445 
0.0001902905340887784 
0.0001908378239683671 
0.0001910447251056675 
0.0001904343062503057 
0.0001913638635584511 
0.0001896616212060286 
0.0001910623506202805 
0.0001895952796113465 
0.0001902257231837563 
0.0001901953713515729 
0.0001900055378486557 
0.0001903026830381524 
0.0001902788514785386 
0.0001905210921273198 
0.0001896883657126035 
0.0001899568229315811 
0.000190239997228595 
0.0001905826221211929 
0.0001901147310832351 
0.0001908155574913417 
0.0001904401510900142 
0.0001902076006036079 
0.0001903592494499801 
0.0001901493277560523 
0.0001908091814834216 
0.0001902922833297867 
0.0001907316078757362 
0.0001896779938368222 
0.000190214830474688 
0.0001895391830250375 
0.0001900505541115702 
0.000189213493567064 
0.000190388018284464 
0.0001891587020934577 
0.0001906176946248027 
0.0001893868151322526 
0.0001903517675391864 
0.0001890776519060135 
0.0001904578593345187 
0.0001898512521584039 
0.0001900327497102249 
0.0001898817579588027 
0.0001894223680075611 
0.0001900681809390313 
0.0001894981838101365 
0.0001898174173386483 
0.0001895316791563932 
0.000190462307926424 
0.0001886726080832597 
0.0001901426991713462 
0.0001891269600239867 
0.0001897936685561697 
0.0001898145403805446 
0.0001901214267590023 
0.0001894644231310497 
0.000189604506745682 
0.000190627838268029 
0.0001901234452250154 
0.0001897385974416868 
0.0001904536355169822 
0.0001895793553275907 
0.0001906740548919682 
0.0001900443001915789 
0.0001909029555581619 
0.000190552154065214 
0.0001906801899858644 
0.0001904800475331158 
0.0001907625099398035 
0.0001915708373940089 
0.0001906261530322907 
0.0001917903230866145 
0.0001898418047588054 
0.0001918130933356169 
0.0001901491582617351 
0.0001914426771340268 
0.0001894490477108107 
0.0001909737150222524 
0.0001898286819494696 
0.0001917166279969995 
0.0001896455615412652 
0.0001910740878114733 
0.000189763498308859 
0.0001900260812495701 
0.0001899132919938644 
0.0001906888831784822 
0.0001898683452186453 
0.0001913761334512726 
0.0001902177259101692 
0.0001906981288384306 
0.0001904691698698321 
0.0001914185968715851 
0.000190828713147951 
0.0001915477585643877 
0.0001907872724926042 
0.0001916106707381299 
0.0001903920964677602 
0.0001908183768410285 
0.0001903831122449158 
0.0001908057830591792 
0.0001910681646483331 
0.0001913740100891413 
0.0001904101932770265 
0.0001915308897393783 
0.000190749831805874 
0.000192070248626384 
0.0001911762415088094 
0.0001908924044111274 
0.000190641402860373 
0.0001915763689179441 
0.0001908870010763087 
0.0001906346583352985 
0.0001910336996191123 
0.0001904057865484063 
0.000190999752492502 
0.0001906431543698663 
0.0001909575431025861 
0.0001909471297474186 
0.0001905527093398796 
0.0001909539260591358 
0.0001904746142613814 
0.0001905125461126416 
0.0001905896557107144 
0.0001901024613338907 
0.0001904351328765982 
0.0001896087181702001 
0.0001905524024053741 
0.0001897623689371079 
0.000190629608743321 
0.0001899826019548461 
0.0001907128045237775 
0.0001900339303843215 
0.0001908348489173078 
0.0001906057885348383 
0.000190927116774115 
0.0001915356921464031 
0.0001909294350322086 
0.0001911353498438604 
0.0001904433265111504 
0.0001905941915298326 
0.000190699029741933 
0.000190842699195325 
0.0001897526608985649 
0.0001905401930694742 
0.0001907349166190275 
0.0001905418997651745 
0.000190481773446695 
0.0001908321292458564 
0.0001908413093561391 
0.0001908727520846195 
0.0001900521524561321 
0.0001905914624080236 
0.0001905079409825724 
0.0001906290443626115 
0.0001899203006750356 
0.0001906227908097617 
0.0001894845079110635 
0.0001903414287780312 
0.0001895857440977292 
0.000191214171372015 
0.0001900110955632415 
0.0001900653200179959 
0.000190422823020764 
0.0001903333051443199 
0.0001896121962387581 
0.0001907473567268163 
0.0001897092082039254 
0.0001908522006906856 
0.0001896098572861636 
0.0001909446209071233 
0.0001899783023148726 
0.0001909512069099229 
0.0001908012146809624 
0.0001911344591718432 
0.0001900848249700535 
0.0001906373335181613 
0.0001902904244568137 
0.0001907366688802175 
0.0001902925547220352 
0.0001906203136367992 
0.0001907208662382367 
0.0001908226765756719 
0.0001907684024341343 
0.0001910637199067934 
0.0001898084174558962 
0.0001917216496634601 
0.0001906529945137276 
0.000191800721930712 
0.0001902915339512815 
0.0001918277971202077 
0.000190169092440413 
0.0001909956636588449 
0.0001900040381885324 
0.0001912964413585325 
0.0001902210832865111 
0.0001909080119728695 
0.0001904472724371843 
0.0001900752830961174 
0.0001909613678344685 
0.000190903573063151 
0.0001910498282268118 
0.0001905750761819533 
0.0001908550619926765 
0.0001899675782319114 
0.0001907699250498328 
0.0001899895510697081 
0.0001907721027181524 
0.0001903007557443277 
0.0001900073086996888 
0.0001903744988337419 
0.0001898698776991748 
0.0001902492594386135 
0.0001899209681790521 
0.0001907073277188621 
0.00018993887378067 
0.0001890446617952153 
0.0001894041255326333 
0.0001891803898537681 
0.0001899219861736477 
0.0001899825516049087 
0.0001903552477664733 
0.0001899789227284221 
0.0001891486405734373 
0.0001901233431211265 
0.0001892403233869516 
0.0001893558100929045 
0.0001904931010315463 
0.0001901475243837469 
0.0001909713078480304 
0.0001904064116205633 
0.0001904043742555393 
0.0001904585523217001 
0.0001904542065830552 
0.000190419229812519 
0.0001904658425637048 
0.0001910439462700104 
0.0001904787324636397 
0.0001915055469584067 
0.0001905712111529448 
0.0001909509870996063 
0.0001913899212546784 
0.0001909625201806039 
0.000191152970602426 
0.0001906116475775594 
0.0001912312975930433 
0.0001901143892794261 
0.0001918785072645961 
0.0001905652664354429 
0.0001908465512753561 
0.0001907484131320667 
0.0001904493491422233 
0.0001902939121254114 
0.0001909407201418186 
0.0001899064579101231 
0.000190982553852291 
0.0001896858819121278 
0.0001912965778837583 
0.0001905710267689494 
0.0001905795489680728 
0.0001907155576456118 
0.0001906992939096495 
0.0001910675680914363 
0.0001906431177198928 
0.0001898773303771729 
0.0001907514265784393 
0.0001901570081913963 
0.0001914137805437644 
0.0001904052740803833 
0.0001906437206106817 
0.0001910657570008197 
0.0001904144814742605 
0.0001909952555207411 
0.0001911295084775166 
0.0001906615185425776 
0.0001909683831423561 
0.0001906043179280793 
0.0001905647250943878 
0.0001903286719379878 
0.0001905832167670731 
0.0001904863136931219 
0.0001903333937996201 
0.0001914439941244674 
0.0001904559407756217 
0.0001915649806480937 
0.00019133086910396 
0.0001909470495041778 
0.0001911353500315463 
0.0001914554372467981 
0.0001911855537856957 
0.0001907637655986271 
0.0001917181411028072 
0.0001900137436186142 
0.0001919784134519439 
0.0001909424765283006 
0.0001919694202269701 
0.0001910622849677486 
0.0001912475756377032 
0.0001909073380254778 
0.000190858314603308 
0.0001908144714752199 
0.0001907414973428566 
0.0001916609470222582 
0.0001906330168261722 
0.0001910774189735051 
0.00019094040427162 
0.0001906681934492482 
0.0001902739613035462 
0.0001910071211124473 
0.0001910122661360811 
0.0001909384397792395 
0.0001907417576747262 
0.0001915007046020308 
0.0001914155373026107 
0.0001912619143653214 
0.0001918943371541163 
0.0001915723404393651 
0.0001915661489647636 
0.0001912766378616947 
0.0001906386906803223 
0.0001909056277542447 
0.0001916079638841311 
0.0001910985303653888 
0.0001918896123794021 
0.0001907012969631833 
0.0001909965089528803 
0.0001911372401457078 
0.0001902282697781012 
0.000190891306777257 
0.0001909143883004159 
0.0001908369925355528 
0.0001908512755002813 
0.0001904828922554837 
0.0001912195345520988 
0.0001916139160303096 
0.0001911112836457781 
0.0001909893484956183 
0.0001907561278947684 
0.0001911722676742713 
0.0001905346598516838 
0.0001909424981654687 
0.0001906439823932912 
0.0001906937336227517 
0.000190426343890364 
0.000191245947011372 
0.0001904354604038189 
0.0001904481054078953 
0.0001910576579557524 
0.0001910546212649635 
0.0001909074087625384 
0.0001914614741928723 
0.0001920345162465676 
0.0001914052872411868 
0.0001923244086750944 
0.0001911736609269127 
0.0001916627811872154 
0.0001912215502754602 
0.000191537718747225 
0.0001909975974703497 
0.0001915882864238496 
0.0001912457231602936 
0.000191105999703021 
0.000190676333817189 
0.0001916892599597998 
0.000190428084804379 
0.0001913017214124919 
0.0001908299987344752 
0.0001915047088477191 
0.0001910184131699567 
0.000191805892384743 
0.0001905874307124427 
0.0001923304578363054 
0.0001908264992726629 
0.0001919065348707496 
0.000191142682049684 
0.0001911929979184703 
0.00019031943060908 
0.0001913663607056356 
0.0001912795461296531 
0.0001911504906546133 
0.0001910346921403939 
0.0001906668579003028 
0.0001907224951122638 
0.0001910399967852646 
0.0001894370731638884 
0.0001908443260597088 
0.0001900346969171241 
0.0001911707915195842 
0.0001903563268534361 
0.0001909827498519914 
0.0001903695510252173 
0.0001915222457327654 
0.0001913843392808391 
0.0001916741756514287 
0.0001911300148297448 
0.0001914092378017083 
0.0001916405702662972 
0.0001906826382413397 
0.000191612787398325 
0.0001906718188826547 
0.0001914659285422498 
0.0001913940165426424 
0.000190194173359436 
0.0001916465062807024 
0.0001899468971786392 
0.0001909625162958686 
0.0001902123089079936 
0.0001915429267948039 
0.0001915140822046642 
0.0001910462297262806 
0.0001911035043052622 
0.0001919029127599065 
0.000190884045343428 
0.0001916920286369904 
0.0001905445238322163 
0.0001918379289105785 
0.0001901043750956691 
0.0001927105307889706 
0.0001909877966885804 
0.0001918984072244348 
0.0001910348137579277 
0.0001920390691014072 
0.0001909391544528031 
0.0001922974190562446 
0.0001913266499263823 
0.0001925427458084189 
0.0001910169316901645 
0.0001923677002723418 
0.0001909342361354997 
0.0001922416333592919 
0.0001919408914979758 
0.0001916713707535437 
0.0001911462393489092 
0.0001921097756687775 
0.0001913761474785212 
0.0001911569548701292 
0.0001914894861786636 
0.0001911790718921267 
0.0001913737462993187 
0.0001914336304669959 
0.0001914936511383735 
0.0001911050570685859 
0.0001907678531888591 
0.0001906896678995385 
0.000189646340914733 
0.0001914440739297572 
0.0001888846540297478 
0.0001915029966796891 
0.000189796248493899 
0.0001918710815651418 
0.0001899837514638327 
0.0001917057025306511 
0.0001904492816039899 
0.0001916960606358226 
0.0001905140826900056 
0.0001907675875399028 
0.0001910206820128609 
0.0001915516328314143 
0.0001909775297560986 
0.0001916405004036762 
0.0001908762633722587 
0.0001918604790321209 
0.0001914244413480389 
0.0001916081473046703 
0.0001908463726584199 
0.0001914552781731756 
0.000190658641306112 
0.0001916245385668112 
0.0001910684607483281 
0.000191094082097777 
0.0001920596993356682 
0.000191440249104658 
0.0001912344917792263 
0.0001908031055645001 
0.0001917807585662029 
0.00019091698845495 
0.0001914854900814489 
0.0001917647523394174 
0.0001916513970575323 
0.0001914149785610872 
0.0001911235509730137 
0.0001914987475569654 
0.0001910600176023437 
0.0001905663541401254 
0.0001913205425997589 
0.0001908024258135563 
0.0001913150638604653 
0.0001914119153004881 
0.0001913620277988281 
0.0001916393950603024 
0.000191219044681902 
0.0001918939976365558 
0.0001902844298333683 
0.0001919138933778721 
0.0001902250212841791 
0.0001914432427905308 
0.0001897472499397183 
0.0001922658418922774 
0.0001900175819976544 
0.0001921161887115314 
0.0001904994683631305 
0.0001921323842194825 
0.0001904315403543957 
0.000191913792911548 
0.000190604908007594 
0.0001922897996804478 
0.0001909236368479466 
0.0001923916666204171 
0.0001906993875287869 
0.0001923725369679087 
0.0001906308697556917 
0.0001924030172958899 
0.0001906751951080996 
0.0001921719777297528 
0.0001902003196107883 
0.0001917856624202049 
0.0001907645692275908 
0.0001913673236026989 
0.0001905264415715289 
0.0001917293048995072 
0.0001902921543457309 
0.000192242162891639 
0.000190794324008028 
0.0001907710950959161 
0.0001907281369216854 
0.0001907675524503274 
0.0001908193356962843 
0.0001915094692965052 
0.0001900755516685458 
0.0001917192493201872 
0.0001900220242954388 
0.0001907105517837088 
0.0001900980951032655 
0.0001915649243971254 
0.000190655707201458 
0.0001919817597539812 
0.000189711543135886 
0.0001917113730477462 
0.0001904530621072166 
0.0001914360232756112 
0.000190284809721897 
0.000192675485238021 
0.0001901691278160477 
0.00019311013923263 
0.0001905460021152196 
0.0001927108196717488 
0.0001901229898311644 
0.0001927393505408419 
0.0001908762797634177 
0.0001921395190604076 
0.0001905749320198734 
0.0001917890075747873 
0.0001904972801523394 
0.0001912674581664908 
0.0001909131431345905 
0.00019252750065811 
0.0001901809436822908 
0.0001928121280748663 
0.0001902215960707245 
0.0001922882948355025 
0.0001899990184130943 
0.0001921924467203657 
0.000190281749437886 
0.0001913258867861231 
0.0001899512848894556 
0.0001917643468983576 
0.0001897599979801601 
0.0001915499447913953 
0.00019082688381147 
0.0001909229799084049 
0.0001908199656143654 
0.0001908013846576023 
0.0001905872168916738 
0.0001909925157100303 
0.0001909541391106717 
0.0001905285087258169 
0.0001908986409118654 
0.0001906787318260043 
0.0001917302411286859 
0.0001911258810880552 
0.0001914393583089979 
0.0001912943987009068 
0.0001912716873688304 
0.0001915162636280464 
0.0001909556738570332 
0.0001926289892122902 
0.0001906221075408715 
0.0001926603284011731 
0.0001906587818094944 
0.0001922457026539198 
0.0001907187978772897 
0.0001924426641655868 
0.0001912235829415161 
0.0001911522718960098 
0.0001917043041573512 
0.0001913725719528409 
0.0001904591158828475 
0.0001928283431427834 
0.0001905627209072631 
0.0001916927678428653 
0.0001903847252054524 
0.0001916185718352457 
0.0001900478432941397 
0.0001912175248689433 
0.0001909557960876369 
0.0001922649942188191 
0.0001906750280345043 
0.0001921432585285268 
